#include "birdnet_default_int16_coefficient.hpp"
using namespace dl;

namespace birdnet_default_int16_coefficient
{
    const static __attribute__((aligned(16))) int16_t statefulpartitionedcall_sequential_conv2d_biasadd_filter_element[] = {
          3358,   4846,  -5442,  18411, -21889,  -5992, -14618,   5192,  -8895,  23832,   5211,  12633,   9507, -13019,   4225,  -2365,   2379, -11727, -22186,  12481, -18289, -15473,   8731,   -975,   1828,  -5441,  16889,  13427, -20443,  -8002,  -5125,  22838,  12066,  25327,  -9108,  -3760,   9168,   5096,  -6008, -13727,  12787, -28984,  15104,  -8953,  -4524,   8835, -11833,   2269,    952, -23163,  15627, -22320,  12043,  19454,  -1152, -16288,   6008,  31167, -17407,  -5060, -21742, -10352,  -6356,  19628,     24, -14591,  10812,  14094,   -723,    117, -16981,  -5893,  14908,  -3895,  13127, -17758,  18822,  20874,  -2796,  -4087,  16603,  16276,    432,  19786,   6471, -19417,  13302,  13580, -16050, -11740,   -844,  -7935,   4954,  10253,   -486, -19038,   -360,  -7865,  21848,     85,  18607,  23188,   2347, -15732,  -1648,  17008,   1222,   4677,    450, -18554,  -8366,  28600, -10157,  -7913,   2857,  18132,  -9981,  21465,   1339,  -7910, -18271,  13270,   8610, -17171,  13309,   6879,  -7700,  21436,  20195,    457,   6725,  -6360,   6426,  -3697, -15372, -23686,  19753,   3452, -26007, -15604,   4366,   5613, -15762,  18302, -10693, -21229,  12571,  -3556,    822, -15603,    350,  -9127,  17100,   5020,  11575,  -3008,   5812,  23922,  18536, -15741, -10462,  14686,  -1061,  -5071,  12124,  -5120,  13208,  -2349, -25264, -20891,   2293,    177,  -7297, -10927,  14473,  24249,  -2360,     68, -20640, -13148,  13058,   9588,    934,   1200,   3636,  16894,  -6827,  -9235,   7085,  10460,   7077, -11666, -16806,   3802,   5180, -18007,  18253, -24596,   5842,  13093,  15446,  -7304, -23061, -14065,  11702,  14686, -10674, -13581,     59, -16359, -25679,    -92,  -9024,  -4820,  13193,   1602, -12929,  20346,  -9816, -12850,   4955, -29337,  11194, -15381,  23526, -21119, -15649,   -558,  11635,  25454,  16507,  10297, -10678,   2104,  -8154,  -9900,  12933,  -7122,  -4529,  -2090};

    const static Filter<int16_t> statefulpartitionedcall_sequential_conv2d_biasadd_filter(statefulpartitionedcall_sequential_conv2d_biasadd_filter_element, -17, {5, 3, 1, 16}, {1, 1});
    const Filter<int16_t> *get_statefulpartitionedcall_sequential_conv2d_biasadd_filter()
    {
    	return &statefulpartitionedcall_sequential_conv2d_biasadd_filter;
    }

    const static __attribute__((aligned(16))) int16_t statefulpartitionedcall_sequential_conv2d_biasadd_bias_element[] = {
         -2907,   1266,  -2582,  -2413,   1083,   -499,   -147,   -234,    440,   1522,   1059,      0,    169,   1931,   1426,    493};

    const static Bias<int16_t> statefulpartitionedcall_sequential_conv2d_biasadd_bias(statefulpartitionedcall_sequential_conv2d_biasadd_bias_element, -15, {16,});
    const Bias<int16_t> *get_statefulpartitionedcall_sequential_conv2d_biasadd_bias()
    {
    	return &statefulpartitionedcall_sequential_conv2d_biasadd_bias;
    }

    const static Activation<int16_t> statefulpartitionedcall_sequential_conv2d_biasadd_activation(ReLU);
    const Activation<int16_t> *get_statefulpartitionedcall_sequential_conv2d_biasadd_activation()
    {
    	return &statefulpartitionedcall_sequential_conv2d_biasadd_activation;
    }

    const static __attribute__((aligned(16))) int16_t statefulpartitionedcall_sequential_conv2d_1_biasadd_filter_element[] = {
          8299,   6896,  -1897,  10253,   8907,  -6072,   7274,  -1669,  -8911,  -9588, -13804,  12006,  -6897,  19718,  -4168, -11210,  -5994,   7180,  -1157,  -5862,   5516,  -1503,   6465,   7620,  -9918,   3644,   1779,    603,   3261,   7888,   8807,   1664, -10382,   1704,   1202,   9321,  -3012,  14325,  13958,  -8401,  -8577,   9899,   1645,  -4786,  10558,  -3064,  16969,   4041,   8067,  -7778,  -5974,  -2600,  -5155,   1492,  -5509,   7181,   2976,  -6716, -11500,  -1033,   6491,  12154,  -3142,  -3195,  -3078, -11988,  10530,   8446,   7891,  16690,  -8059, -10329,  -4674,  12825,  11288, -14982,  10345,   6485,    872,  11280,  -9253,  -2932,  -6834, -13787,    271,   7652,  -4871,  -2882,   6587,   2554,  -8604,   4464,   7718,    574,   2531,  -8476,   4907,   5774, -10594,   -868,  -1324,   4420,  -3210,   8047,   7398, -14083,  -3424,   6425,  10308,  15212,  -5572,  -8850, -10509,  -1798,  -8310,  -1599,   -808,  -9305,   9649,   2970,    115,   3753,   7692,   -657,    776,  -5873,   2547,   6445,  -6610,  -9815,   6736,  -4569,   8391,   2192,   8053,   5883,  -6447,   2293,   9752,  -6196,  11501,   2534,  14352,   7984,   5911,   7541,   -366,   5217,   5709,   2840,    138,   1675,  -6982,   2339,  -3835,  -5554,   9470,  -9373,   9433,   8747,  -6029,  -6980, -11585,  -2662,  11087,   8271,  14150,   8169,   6504, -12803, -15451,  13834,   6396,  14454,  -4946, -10682,   1368,   -417,  -8541,   6119,   2823,  -5477,    654,   1291,   8866,   9599,  -6368,  -4395,   9186,   1822,  24163, -11416,   3640,  18144,   6141,  -1926,  12071,  -8113,  25573,  -4435,   4073,  -1377,  -1052,  -7625,   1589,   3307,    259,   4266,   7937,  -5577,     42, -10394,  -1793,  10759, -13021,  -7774,  -9194,  -8868,   2820,  -4904,   4968,   1001,   7666,   1458,   -352,  -4412,   4760,   7607,   4610,   5465,   3502,  -3646,   -810,  17879,   7201,  -7863,    -35,   5200,  10618,   9489,   6114,   7921,   5443,   8694,  -8000,  -7722,  -3928,  -4484,   1516, -19474,   1893,   2658,   4750,   5898,  -2757,  -4641,   3654,  -3262,  -5358,  -3614,  -6017,   2823,  -5034,  -4259,  -2868,   4662,   -587, -10448,  -3660,  -3426,  -3083,  -8551,   4322,  -1682,   5164,   3730,  -4310,   -478,  -7475,   6413,  -6838,    664,   9756,  -1086,   3493,   5539,  -5488,  -3841,  -2995,  -5073,  -1802, -17688,   7222,   6108,   1142, -10506,  -1325,  11571,   2706,   5048,   8677,  -1279,  23944,  -4368,  -7452,   6381,    -27,   6292,   6980,  -8988,  -4419,  -3511,  -8001,   7473,   1346,  -8518,  -2660,   8914,   4896,  -4174,  -3604, -11687,   7576,   2487,   3268,   9704,   1103,  -8359,   1163,   2573,  -5973,  -1926,  -4498,   9424,   5104,  -4428,  -5085,   6142,   5838,  12104,  -5657,   2585,  11433,   -107,   3226,    359,   1939,  -3105,  -4001,  -8467,  -2276,   2728,   4509,  -7339,   7683,   -686,  -9784,  -4670,   6694,   4589,   4946, -11226,   4523,   5270,  -4958,  14335,  -3379,   6191,  -5396,   2495,   7793,  -7759,  -2226,   8837,   1751,  -3246,  -7048,   7068,  -1946,    413,  12392,   4882,   6179,   -520,  -3716,   1651,   5265,   1929,   5465, -11719,   1655,   6730,   5844,  -2438,  -8369,   8393,   1961,   3150,  -9407, -11674,  -6439,  -1676,  -8451,  -1797,   2422,   4415,  -3665,  -7044,   3126,  -9095,  -7513,  -3002,  -2598,  -5604,    749,   9192,   7260,  -6782,   5734,   6784,   2089,  -1052,  -5306,   -114,  -2708,  20473,  18353, -16118,  10260,  18552,  16886,   3481,  -4180,   1486,   -486,   -431,  -4216,  -7210,  -4584,   1090,   4318, -20271, -11638,   6076,  14779,  -6473,   1618,  -3260,  -8460, -10183,  11223,   4897,  14254,   5877,  -4485,  -5952,   1540,  16910,   3776, -12958,  -4659,  -3422,  16250,  10324,   5223,   7744,  17092,   1109,    958, -14861,   4437,  -2350,   6512,   2834,  -3050,   6611,   3289,   5374,   1852,  -9047,  -1647,   8089,  -8969,    462,   2555,   5149,   4842,   6688,  -1314,  -9796,   1044,  -4584,  -4088,  -3710, -12688,     94,  -8987,  -7665,  -8591,  -5945,  -1637,  -5798,   -525,   3079,  -1504,   5445,  13175,     32,   6714,   4970,  23654,    411,
          2452,  -7909,  -5191,  10492,   2996,  -4247,   3086,  -3778,  -4037,   9684,   7814, -14202,  -2763,  12724,   8747,   9725,  -1483, -10733,  -5572,   2217,  -3272,  -1615,   8618,  -3328,   4011,  -4278,   2440,   5151,   8695,  -7866,  -2569,   4222,  -9212,   8688,  -9592,  -7420,   8268,   3463,  10562,   4682,  -1577,  -9328,  -1325,   4134,  10894,  -1358,  -5326, -17025,  -2171,  -1732,  -4205,   5644,   3307,  -8934,   2258,  -9257,   7038,  10083,   6479,    227,  11100,  19064,  19930,   -624,  -4590,  24524,  22935, -18315,   1810,  21721,  21097,  -6718,   5003,   9122,  -4702,  -5492,  -8383,  -3377,  -6836,   5640,   5412, -12838,   3552,   4694,  -6989,  -6575,  -8241,  -9975,   8341,  -4434,  -7055,  -8597,     95,   8176,   8897,   7211,  -3224,  -4655,  -7114,  -5770,   4489,   3798,   -502,   2044,   1466,  15667,   8674, -20432,   6914,  11387,  17805,  -8112,  -6656,  -7103,  -8400,  -7060,  -5695,   6233,   -227,   5898,   2656, -22897,    830,  12075,  11909,   8301, -16339, -16336,    255,   2210,  -6439,  -7820,  -7058,    924,  -6618,   -252,  -6533,   4242,   3296,  -8123,   4289,   4116,  -1946,   7433,   1394,    606,   4630,  -4111,  -3302,  -1574,  -3692,   3942,   7601,   6105,  12113,  11579,   6010,  -4904,  -4759,  -4812,   8407,    461,   7182, -12941,    848,  18094,   6943,   -904,   6171,  12742,  11118,  -9016,   8098,  15695,  20761,   3547,   8616,   7618,   7162,  -1970,   1874,  -5633,   9389,   4591,  -8703,   5370,   2647,  -9037,   3862,  -3030,    609,   2342,   8216,  -9375,  20019,   1119,   9999,   6228,   2402,  -9604,  -8335,  -3401,  -1068,  -4550,   5670,  -2555,   7528,   3960,   5616,  17676,    383,  -2662,  -5804,  -2031,   2761,  11002,   3287,   2715,  -1345,   3965,    776,   3121,  -3400,  -9440,  -8350,  -8342,   5262,  -2810,    188,  -3550, -10138,  -4826,   4450,   1206,   4405,    423,   5696,   8798,  -8369,  -4819,   3965,  -5491,   2731,   7545,   6701,   4413,   8895,   9050,   2366,   -261,   2004,   7192,  -6937,   6474,  16075,   -981,   6782, -10816,  -4881,   4230,  -1626,  -1596,   6473,   -388,  -3698, -13258, -13747,  17300,  -8150, -10883,   3730,  -4436,   4690,   5118,   6018,  -1389,   -133,  -3434,   2587,  -2313,  -5561,   5181,  -7530,  -5869,  -6100,  -4609,  -6718,   1648,   5800,   -248,   9446,   6773,  -1261,  10299,   2493,  -1474,   2630,   6291,  11941, -14590,   8701,   7381,  19192,    648,  -8040,   9225,   -868,  -1219,   2950,   9435,  -6157,  -6767,   6657, -27199, -15889,   -273,  -5421,  -8930,   1849,   2773,   1409, -14304,  10919,    284, -15431,  -3268,  -8447, -13721,   3014,  11799,   1417, -13923,   -178,  12897,  10373,  -4161,   2893,  -1334,   6429,  -5575,   -872,  -1046,  -4825,   3965,  -1902,   5900,  -8396,  -2623,   6715,  -1262,   2967,   4563,   3640,   4054,  -5267,   -933,    845,  -5797,   2867,   7226,  -1259,  -1237,  -1254,  11668,   -492,  -6457,   1576,  -1357,   8213,  -6214,   3983,   -889,   5979,   -661,  10131,  -8690,  -2174,   5392,  15515,  -5501,   9836,  13608,  10825,   -379,   -649,   7211,   2239,  -5636,   4228,  -6628,   2201,   3604,  -5885,  -3521,  -1058,   5522,  15148,  -1047,  -6908,    997,  -8954,   2315,  -1983,   9517,   5666,  -2291,    698,   9644,  -6676,  -8932,   8809,  -4359,  -3230, -12141,  -4422,   7891,   -522,   3437, -15656,    -49,  11086,  -6571,   5864,    973, -10105,  -6332,    -81,  15199,  -3450,   7116,  11932,  -9215,   2460,  -6324,  -4011,  -1425,  -5923,    616,  -8823,  -7922,  -5722,   4821,  -1306,   4408,   8078,   6393,  -4308,  -7167,  -5235,  12564,  19423,    141,  11869,   3733,   1619,    934,   6600,   6781,   9446,  -2221,   1717,   7998,   4354,  -6933,   2756,  -9473,   8319,  -7020,  -2151, -23519, -11361,  -9682,   2235,    105,   2130,  -3368,  -2111,  -2107,   -493,  -2546,   7050,  -5744,  -5032,   2506,  -9253, -10039,  -3220,   7261,   5461,   8089,   5846,  -6926,   4188,  -5261,   8363,  -5200,   3620,   1725,   7117,   9550,  -3293,   -109,  -9059,   -135,   2474, -15127,   3048,  19994,  -8514,   5924,  -7126,  -5547,
          4593,    364,   6358,  -4750,   -420, -12511,   8179,  -3495,  -4078,    617,   9028, -13775,  -9499,   3449,   2977,  -4547,  -4601,   8358,  10032,  -5967,   6368,  -4858,  -3784,    -19,  -9287,   4464,  -1144,   5894,   6526,  -9189,  -4858,   6321, -10036,   1418,    -39, -15921,   1546,   8079,   4517, -11266,  -6132,   3226,  -4039,   2309,  17190,    999,  -4696,  -4376,   6690,  -2503,  -5258,  -5976,  -2633,  -4281,  -1146,   8868,  -4282,   9386,   8692,  -4871,  -9939,   7626,  11238,  -6078,  -8622,  -8531,   8146,  11839,  -6116, -11408,   1775,   -583,  -7991,  -4576,  -2117,   1075,  -8316,  -2229,  -9844,   -548,   8719,   4276,   4458,  -7074,  -9914,  -3185,   7415,  13486,  -5752,   4644,   6035,    439,  -4644,   3405,  -6209,   1998,  -9225,   2524,  -4775,  -7563,   7271, -10641,  -3261,    608,  -1504,   1110,   9139,   2734, -10918,   3755,   4996,  -5888,  -6536,   7293,  -3915,  -1503,  -1809,  -4294,  -2904,   9309,  -1161,  10821,  -9321,   4805,  15624,  12451,  -7150,   6318,   3112,  -5743,  -6238,   -319,  -1694,    979,    526,  -6033,  -6199,  -8028,   5643,   4992,   1891,  -9011,   3732, -11068,   9502,  -6320,   7244,   4817,  -9102,    971,  -8251,  -3216,     80,  -4077,  -7587,  -6603,  -7106,  -1470,   6878,   7151,   6443,   5212,  -8477,   4919,   2743,   -396,   8245,  -5694,   7028, -11766,   8752,  -4338,   5358,   9857,   3172,   8194,  -5923,   1934,   7717,   2201,   5737,  -1503,  -6392,  -7905,  -6111, -10024,  -1640,   6267,  -6768,  -8488,  17342,  -7360, -10316,  10795,   6689,   4161,  -7480, -11729,  21445, -19662,   4192,    701,  -6127,   6573,   5258,   4130,   3081,   6639,  -7321,    186,  -8280,   1750,   -855,   3051,  -9317,   7912,   7333,   9266,  -6228,  -5782,  -2667,   8849,  -2331,  -8054,  -1000,   1316,   2558,  -6020,   2407,  -5957, -10906,  -6227,  -4443,   6880,    -17,  -1682,  -3089,    568,  15237, -10110,    746,  -4863,  -9380,  -1250,  -2184,   1179,   4777,   -408,  -2308, -17049,  -3758,  -6226, -10183,   9206,  -2499,   9844,    149,  -1787,   1537,  -6509,  -4765,  -7447,   5920,  -5634,  11592,  -2061,   8991,   8440,  -3069,  11045,   9636,   4339,  -4507,  -7437,   1573,   4726,  -4711,  -3640,   -306,  -1448,  -2143,  -9122,  -1267,  -5343,   5688,   5172,  -4245,  -6948,   8217,    526,   2662,   -349,  -8494,  -4353,  11345,   6787,   9812,  -6978,  -5845,    885,  -7792,  -7717,  18086,  -6094,  -1718,  -8923,   2526,  -5370,    143,  -8042,   7029,  -7592,  14523,  -5848,    656,   6044,  -8387,   8526,  13079, -11702,  14136,  -9048,  -9123,  -9367,  -9248,   2283,   8875,  12035,   4626,   9407,    473,  -8679,  -9004,  -9295,   7691,  -1471,  -4012,   4042,   -185,    924,   4284,  -2602,   5754,   -622,   9219,    317,   4908,   1149,  -1041,    532,  -8284,  -3277,    -75,   8630,   1886,    976,   3219,   8204, -10358,   4270,   9091,   3626,  -4915,   7656,   3495,   5579,  -7840,   1550,   3705,   -387,  -9825,   -767,   2305,   -582,  -7617,   4052,  -6601, -12628,  -3707,  -9687,  -3188, -13826,  15391, -17193,   7871,   6424,   7964,  -1364,   3934,   2930,  -5384,  -1978,   9725,  -3871,   4195,   8679,  -1908,   7407,   -764,   5283,   9105,    188,  -9121,   3483,  -4252,   7387,   3144,  -5607,   7700,  -4107,  -5706,   5639,  -7716,  -4515,  -4536,  -8206,  -2399,   6481,   1463,   7239,    160,  -7637,   4522,   8156,   3772, -10174,  -3425,  -4990,  -4371,   8814,  17643, -10505,   5551,   4017,   8913,   4846,   1771,  -4401,   4096,  -2883,  14689,   7792,  -1698,   7930,  -4506,   2466,   3598,  -8650,    409, -11140,   3890,  -2654,   3277,   5150,  14934,    289,   1802,  -8887,  -7055,  -6063,   1077,  -5819,  12120,   7478,   7975,  -2807,  -2191,   2578,   7341,  12339,   2656,   3178,   7212,   2211,    493,  -1147,   6101,   -724,   3749,   3115,  -9886,  -4240,   5531,  -6675,  -2264,    325,   5152,  -5288,   9920,   3626,  -1502,  -3999,     96, -12002,  -5275,   3761,  -4599,    548,   -188,  -7148,  -9049,  -4824,   1189,    324,   3676,   3588,   8345,  -5600,  -3306,  -1591,   5052,  -2646,
          3857, -10511,  -2446,  -1285,   6912,  -1082,  -1965,   7483, -10488,   -780,  -3993,   6856,  -1529, -14329,  13027,    618,   5140,    -22,  -1814,  -1205,   4741,   6735, -10792,   8991,  -1893,  -4273,   6656,  -5253,  -4926,  11269,   2403,  -3168,   5775,   3604,  -4611,  -2300,   3683,  -9344,    117,   8036,   7205, -16927,  -7572,  -6385,   3991,  14186,   1200,   3167,   4026,  -4974,   4282,   1223,   4625,  -3244,  -8693,   -508,  -6951, -12313,  -5301,  -3569,   2389,  -5882,   3169, -12894,  -8524,   2329,  -3687,   8879,   6240,   -481,  18661, -18346,   1258,   5853,    953,   5619,  -1782,  -3503,   9077,   4103,  -9101,   5624,    189,    413,   7820, -10852,  -8526,   3407,   1919,  -1634,  -7955,   4410,   9137,  -1774,    837,    648,  -6904,   6987,  -5100,   2158,  -5221,   8751,   6831,   7616,  -9761,   6763,    -67,   -137,   6473,  -9456,   8248,  -4584,   3399,   2935,  -1149,  -6341,  -8649,   9009,   1736,  10113,  21506, -17749,   8770,   -590,   4625,   9338,   4898,   7049,  -4475,   5361,   4017,   7332,   2491,  -6801,  -3935,    884,   5521,  -3947,  -6480,   -966,  -3867,  -1815,  -1058,    529,   3373,  -7383,  -4503,  -1633,    607,   1258,  -2919,   7981,   9599,  -1392,    226,    505,   7740,  -5867,  -5731,  -2109,   -791,  -9622,   5740,  -7794,  -4250,   7419,  -5595,  -8171,   4719,  -9285,  -6874,   2625,  -4751,  -5928,  -3073,  -3629,  -3755,  -1485,  -5466,   3785,  -3323,   2344,   8726,   5241,   6994, -18636,   3810,  -5796,   7793,  11105,   2487,  -5639,  22262,  -9675,   8017,  -7741,   3814,  10399,  12538,   8460,  -2778,  -2038,   1077,   3283,   4891, -12659,   2982,  -1057, -12705,   -671,  -9012,   3946,  -6620, -12068,  10064,   9998,  -1280,   1940,  -7108,   7186,   1836,  -6283,   -915,  -3681,   6455,   5272,  -7920,   -728,  -4814,   3586,   5535,  -2600,   7397,  -8595,   2011,   5770,  -7284,  16163,   6889,   4892, -11547,   9104,  -3524,  -5349,   4262,  -2566,   7791,   8940, -26010,  -8319,   4412,   -564,  -6221, -10368,  -2958, -18720,   3393,  -1464,    774,  -7532,  -6776,   -216,  -8877,   5294,  10008,  -5667,   8149,  -5970,   2971,  -4714,  -8505,  -3637,  -5594,   5634,  -3157,  -2465,  -8653,   4729,  -1061,   4120,  -4874,   6041,   8192,   6026,   4269,  -5686,   2937,  -7511,   8437,   8238,  -1960,   4162,  -9297,   3960,   8678,   -478,  17882,    454,  -8866,   7796,   5458,   4065,   3818,   -705,   7310,  -5683,  -3608,   4211,   6058,   8309,  -9070,   6415,  18966,   3952,  -2462,   9057,   2682,   5896, -13330, -10241,  -4785,  -2234,  -3244,  -9326,  -9232,  -1288,  -3405,  -9022,   4033,   1880,   2855,  -8898,   6636,   1057,   2046,  -3173,   2060,   -552,   1060,  -4555,   5871,   3460, -10627,  11144,   5534,   6707,  -7093,   -375,  -4217,   4968,   -797,   -429,   5546,  11215,  -1366,   8982,  -3583,  -1999,  -6225,   -418,   3367,   1305,  -2167,  -8402,   6516,  -1450,  -9561,  -5866,  -7331,  -4549,  -6422,  -2105,   5847,    139,  -7618,   8677,  11154,    139,    559,   -969,  -5168,  12009,   6578,   5198,  11399,  -7342,  -3865,   1436, -10202,   4674,  -3478,   8644, -12749,   4182,    445,   1070,  -3637,  -6199,  10294, -13009,   9946,  -5870,   6230,  -1949,   6142,  -7705,  -5102,    851,   8085,  -5105,  -2851,   6894,  -7179,  -2191,   2850,  -2419,    683,   3798,   -682,  -1538,   4185,  -8209,  -8231,    840,  10548, -20862,  -9128,   5792,  -4052,  16844,  -2279,  -3345,  -1454,   1605,   1806,   6526,   8039,   7964,   1281,  -8417,  -5413, -20534,   3196,  -9588,  -6413,  -3129,  10460, -10161,  -8882,   -695,  -3636,  -9124,  -6811, -16380,  26058, -11170,   9218,  -2446,  -3095,   4136,   4916,   6853,   -573,  -2751,   7870,   9085,  -6924,   3655,    323,  14497,    567,   -493,   1918,   4451,  -3759,   -431,   1245,   7606,   8930,   8211,   5147,   5681,  -5021,  -4992,   2708,  -8390,   1589,   8538,  -2011,   7386,   2968,  -6933,  -6373,    509,  15201,  -1253,  -1253,   4641,  -3318,   4278,   1206,   7148,   2775,   9927,    750, -22565,    414,  -2181,  -1107,  -1547,    669,  -1592,
         -2867,   1678,   5765,  -3966,  -7618,  -5869,  -3101,   5782,   6980,  -2677,  -2351,  -1795,    137,   2515,   6922,   6999,  -6804,   5388,  -6984,  -6056,   2588,  -6719,   6439,  -6515,  -3389,   6137,  -7227,  -2474,    999,  -7495,   5770,   2666,  -5684,  -8419,  -3337,   4025,  -6666,  -6046,   9516,  -6657,   7694,  -3171,   4682,  -2259,  -6135, -18255,  11639,  -8549,   9138,  -7369,   5078,   7919,  -4124,  -2415,   9247,   2863,  14670,  -6528,  -8536,   5666,  -1928,  12690,  22956,   2596,   8724,  -5961,    315,   8250,   -606,   5878,  10513,   8475,   8556,   6223,   -399,   1163,  -4924,  -1528,   1538,  -6202,   4921,  -7515,   8201,    968,   3269,   6299,  -8536,   -892,   6430,   4569,   8152,  -3494,   8224,   3340,  -5309,    915,   7561,  10076,  -8285,  -7049,   3143,  -5702,   3361,   2082,  10341,   5709,   4339,  -5585,  -5898,   1044,  -4039,   2927,   2520,    860,  -1221,   -340,   3740,  -7105,  -9691,   5386, -17378, -16153,   6431,   -962,  -2899, -20127,   7596, -11051,   8888,   -235,  -6860,   4992,   6904,   1835,  -8662,  -6562,   7860,   1995,    597,  -3327,   -219,    503, -15638,   2600,   7724,  -4775,  -7459,   3859,   8700,   8887,   6294,  -4369,  -7114,   -833,   4953,  -1661,  -7349,  -2905,   3633,  -6367,  -1464,   8345,   1777,   1410,  -4856,  -4879,  -2033,   1806,  -2162,   -837,   8821,   -867,   3373,   9169,  15457,  -6975,   9047,  -8240,   5388,   3334,  -7659,  -9237,  -4020,  -8728,  12625,   3316,  -9036,   2446,  -9324,  -3134,  -8239,  -4850,  -5317, -17001,   3243,   1641,  -7739,   1345,   -688,  -3321,    505,  -7765,    728,   5163,    156,  -8546,  12307,   2415,   1073,  -7606,  -8560,  -6345,  -1459,   -168,  -8334,   2209,   6390,   4570,   1758,  -1471,  -4843,  -6733,   1585,   2778,   3180,   8194,  -1449,  -2154, -10030,  -2692,  -2185,  -1844,     23,   -736,  -2508,  -3429,  -3721,   4080,  -3022,  -1426,  -4870,   3360,   6903,  -9183,  -3399,  -1762,  -1599,   -100,   4107,  -1863,  -7198,   7701,  -1409,   4729,  14184,  -6512};

    const static Filter<int16_t> statefulpartitionedcall_sequential_conv2d_1_biasadd_filter(statefulpartitionedcall_sequential_conv2d_1_biasadd_filter_element, -16, {3, 3, 16, 16}, {1, 1});
    const Filter<int16_t> *get_statefulpartitionedcall_sequential_conv2d_1_biasadd_filter()
    {
    	return &statefulpartitionedcall_sequential_conv2d_1_biasadd_filter;
    }

    const static __attribute__((aligned(16))) int16_t statefulpartitionedcall_sequential_conv2d_1_biasadd_bias_element[] = {
          -307,    972,    348,    -94,  -1411,    286,  -1557,    836,   -117,   1582,   -264,   -164,   -235,   -234,    378,   1139};

    const static Bias<int16_t> statefulpartitionedcall_sequential_conv2d_1_biasadd_bias(statefulpartitionedcall_sequential_conv2d_1_biasadd_bias_element, -14, {16,});
    const Bias<int16_t> *get_statefulpartitionedcall_sequential_conv2d_1_biasadd_bias()
    {
    	return &statefulpartitionedcall_sequential_conv2d_1_biasadd_bias;
    }

    const static Activation<int16_t> statefulpartitionedcall_sequential_conv2d_1_biasadd_activation(ReLU);
    const Activation<int16_t> *get_statefulpartitionedcall_sequential_conv2d_1_biasadd_activation()
    {
    	return &statefulpartitionedcall_sequential_conv2d_1_biasadd_activation;
    }

    const static __attribute__((aligned(16))) int16_t statefulpartitionedcall_sequential_conv2d_2_biasadd_filter_element[] = {
         -9766,  -6351,  -5224,   4858,    544,   6318,   2258,  -6265,   5545,  -9287, -10976,   4505, -12547,   7590,   5181,  -1396,   8522,   7631,   2492,   7696, -12906,  11545,   8551,   9325,  11855,  -2872,  15914,  -3901,   5186,  -2002,  -2246,  -7697,   8181,   -302,  10583,  -1506,    332,  -3653,  -8816,  -1082, -12772,   4731,  12944,  -2095,  -1272,  11225,    -45,  -6333,  -1047, -11655,  15832,   5068,  -7415,   6567,  -1829,   2307,  -1366, -10490,   3647,  -8005,  -6710,   8874, -13048,  -5109,  -6584,  -6856,  -1741,  -5356,   -215,  11062, -14431,   7631,    865, -11339, -10970, -12059,  -9297,  -9661,  11961,   4193,   8238,  10886,   6424,   8618,    788,  -4256,  -9646,   7686,   6959,  -1542,  -1594,   5475,   4024,    655,   1493,   8772,   5985,  -7656,  -4261,  -8855,   4763,  -8146,  -5968,   6085,   5624, -11451,  -7760,   -281,  -2890,  12368,   6558,  -9135,  12509,   7104,   8325,   4152,   7568,   -525, -10273,  -4929,  -9093, -13536, -15171,   5587, -21830,  12344,  -5536,   6817,   -403,    607,   -273,  -7654,  -1374,  -1461,  -1262,   3199,  -4782,  11927,  -4497,  -8818,   7907,  -7383,   -184,  -1622,   4878,   8690,  12201, -10016,   6172,   1416,   5816,  -6585,  -4435,  -6338,  -7232,    -53,  -1798,  15214, -19647,    773,  -5901,  14058,  13479,  -1907,   8275,  -4150, -11169,   5709,  -2953,   2359,  23045,   2630,  10948, -14339,   4563,    812,  -3133,  -4854,  14715,   4895,  19667,   7479, -10867,  -2713,    419,  -5430, -10143,   5054,  -5467,   1219,  -2572,  -1665,   1158,   8882,   8759,  -3415,  -2748,   3309,  -1943,   9576,   4423,  -5830, -10699,  -4301, -12089, -10890,  -5971,  10677,   4626,  -7267,  -5067,   1939,   -160,  -7922,  -2599,   6050,    908,   7486,  -6989,   9307,   7444,  -1727,  11243,  -9953,   7148,  -3381,  -1178, -10455,    572,   8031,   7444,   6824,   2282,  12589,   2688,   1393,   7227,   4082,  -6174, -21399,   5393,   5321,   2268,  -6698,  11914,   3766,  -7721,   4239,   2127,   7614,   1207,    944,   7293,   1648,  -4861,  -3954,  -7987,   -354,   -596,   9512,   2628,  -1092,   3820,   9734,  11792,  -5601,  -6225,   7324,   8255,  -1255,  -3737,   1843,  -3126,   6101,   5294,   6967,  -3929,   9155,   6627,   3666,   4389,  -1129,   3044,   -489,  -9929,   8793,  -5633,   -444,  -8086,   6890,   6298,   -663,   8144,  -9951,  -9309,   7618,  -4826,   6569,   2950,  -4806,   2762,  -8931,  -4176,   3811,   6003,   5671,   4833,  -6883,   -469,  -6597,  -9483,  -4149,  -4680,  -5395,  -5247,  -9366,   4616,  -3441,   3155,  -1306,  10424,   8680,  -6021, -11895,    419,   9194,   2878,  -6025,  11405,   3090,  -9845,   1453,    -63,   9827,   8070,  -9364,   -474,  10018,   1796,  -2075, -10445,  -5221,   2850,  -9260,  -9790,   6840,   1703,   -574,   6014,  -2795,    284,   1177,   6640,   6164,  -5354,   9393,  -5506,    -47,   9449,   9906,  -6915,  10283,   4871, -12321,  -6770,   1475, -17755,   -627,   2648,  -1758,   6361,   4040,  -5106,  -2640,  -8579,  -4634,  -5976,  -4459,  -6110,  -8464,     73,   4811,   1323,  -2598,  -7768,  -8762,   7695,  -3255,  -5293,   9461,   7894,  -9697,   3713,  -9948,  12974,   4546, -19446,   7593,    -53,   -547,  16426,  -4223,   2262,  -1681,  -3092,   3787,   9275,   1542,  -1683, -10531,  10517,   5821,  -5683,  -9346,   5486,  -5922,   -124,  12581,  12773, -11243,  -2079,   7937,  -7798,   5246,   6184,  -3266,  20201,  -6685,   1559,   3999,   7049,  -4890,  -6765,   4941,   9360,  -9003,   1054,   1224,  -9247,  10613,  -8237,   3003,  -6299,  -4734,  -4791,   4054, -10813,   8546,  -5603,  -4870,   9370, -12229,  -7890,   8207,  -9815,   9568,  -2907,    -41, -18671,  -1155,  -8960,   3666,   2454,  12267,   6040,  10449,  -9881,   8492,   3696,  -9886,   1385,   7661,  -6288,  12385,   7632,   8523,  -8689,   6077,  -5820,   6646,  -3614,   -385,  -2550,   8329,  -5992,   3876,  -8069,  -4994,   -115,  -4060,  10613,   -465, -12258,  13338,  -5631,  -7831,  11613,  -6154,   5302,  -7810,  20442,   5565,  -2481,   6093,  -4952,  -6552,  -9842,  -2923, -20262,   5778,   4220,   8846,
          8916,  -2998,   1516,   5955,  -4202,  -1455,  -7628,  -8647,  -7415,  11712,   4158,  -7292,  17695,   6048,   -656, -11643,  12909,  -1457,  -3113,   1890,    342,  -5740,   1678,  -6125,  -2108, -10199, -16339,   7376,  -2525,  12282,  -3818,  12035, -11303,  13750,   7466,    964,  11961, -10852,   -808,  -3090,   9980,  12289,  14623,   5411,  20021, -15006,   1232,   2057,  12313,   8097,  19043,   8326,  26663,    -36, -14574, -10398,   3001,   1238,  -5054,  -9377,   3988,  -8317,   9295,   6945,   6014,    713,  11261,  -7249,   7357,   2917, -11460,   -349,   5009,  -5709,   3145,   5988,    -66,  -3741,   2220,  -3288,   7501,  -3763,  -3659,  -1387,  -9955,  -5574,  -7056,   2823,   1942,  -4329,  10548,  -9194,   4895,   5144,  -9215,   1676,   3342,   2757, -10847,   9473,   1984,   2592,  -7025, -10596,   6717,   1323,  -6461, -10635,   3976,   3707,  -6914, -18521,   2834,   8087,  14571,   5482,   6638,  10231,  -4979,  -2071,   7330,   2751,  -6425,    721,   6735,   9707,   7465,   6025,   8459,   5084,  -4741,  -3516,   4186,  -3258,   5688,   3242,  -3413,   3557,   4247,    382,  -2652,   9827,   7483,  -1713,  14415,  -2343,   6769,   6211,   2511,  -1713,  -1154,  -3164,  -9559, -17282,   2060,   3230,  -8430,  11328,  10202,  -8112,  -4608,  -2938,  -4024,  -9054,   5929,   2564,   6587,   5992,  10279,   4129,  24549, -11501,   9238,    897,  -2295, -11565,   8929,  10975,   1804,   5085,   6187,  -5549, -10553,  -6521,   8026,   7326,  -1871,   4691,  -2122,   8119,  10686,  -4448,   5224,  12239,    195, -10533,    614,  -5720,   3917,  -4761,  -3086,  11312,   1235, -12426,   5093,  -6499,   2064,   7330,  -6534,   8624,  -5115,    348, -10522, -10132, -10088,  -9800,   2456,  -6418,  -4081, -10629,   2391, -11441,  -6433,   3231,  -8750,   8565,   3758,   2054,   1885,   8714,   3515,  -9687,   5923,  -1027,   4786,  -4936,  -2302,   -633, -13571,   4021,  -4431,  -2227,  -5511,  -7270, -15262,  -8978,   7333,    917,   5558,   4514,  -5941,   5464, -13710,    973,   3133,   5395,   6034,  -8770,  -6683,   5304,  -7291,  -9287,   3090,  -6556,  -6492,   1387,   5907, -10152,    239,  17267,   -390,   3478,  23273,   5658,   2817,   3017,   4217,  14814,  23872,  -8455,   3131, -12351,  -8703,   9679,   2724,   1543,  16056,   -119,   -610,  11574,   3285,   4630,    280,  -4794, -14614,  -8504,  -5292,  10658,  11048, -11312,  -1738,  -7884,  -5204,  10301,  -5635,   4958,  11167,    424, -11503,   5782,    572,   -615,  -1645,  -7193,   1649,    -95,    -49, -10922, -10416,   1577,  -7293,  11911,  -4106,  -6623,  -2751,  -1031,   2885,    763,  11294, -11873,  -8923,  -9632,   3858,   2427,   3972,   5833,   2089,   2979,   1744,   3478,   1798,   -767,   3409,  -6953,   8530,   4589,  -4883,   6548,   -541,  -9191,   6226,   4697,   7356,   4019,  -4709,  -9326,  -4420,  -2127,  -9250,   9585,   -327,  -1660,  12628,   7593,  -8398,   3224,  -6918,   -431,   2481,  12471,  12423,  -4148,  20401,  11256,  11213,  -6682, -13424,  -6122,  -4012,  -1808,  -7621,  -7449,  -7358,    892,   5292,  -4076,   6287,   9045,  -3594,  -9693,   4129,   9051,  -1396,   -306,  12302, -12516,   2859, -10334,    927,  -8798,  17360,  10877,  -4677,   2843,   8208,  11193,   4471,  -2438,  -2343,  -7073,   9161, -10624,  -9604,  13616,  15399,  -7492,   5204,   9014,   3409,  -7711,  13214,  -9639,  -2003,  -2284,   7670,    605,   7018,  -5900,   4708, -12313,     96,   3626,   1525,  11050,   8447, -12282,  15741,   2343,  -9237,  -7259,   8255,    408,  -3706,  -2278,    121,   -508,   9328,    895,   -484,   8698,   2412,  -6200,  11023,  -1311,   4302,   4104,  -7159,   6582,   -185,   4490, -11179,  -9960,  10585,   -685,   -403,  10863,    261,  -6760,   4069,   9556,   -219,  -4406,  -7088,  -3889,  -5702,  -9977,  -8801,  -6137,  -5187,  -6250,  -2743,  -5486,   5560,  -4408,   7384,  -8996,  -3913,   7522,  -1471,  -7431,  -6756,   7905,    -38,   5694,  -2050,  -4098,   8817,   6026,  12048,   6302,  13410,  10720,  10109,  11686,  -7043,  -7451,  -2744,  -2838,  -3695,   7451,   3539,  -3302,
         -1056,   8881,   -416,  -9245,  -6627,  -3617,   9782,   5795,  -1849,   4368,  -2271,   1296,   -299,  -1638,   8738,    213,   6409,  10112,  -5845,    -80,  -2333,   -248,   -967,   1715,   5807,  -8717, -11112,  -6579,  -3459,    200,  17730, -17815,  -9434,   7114,  -4429,   2725,    282,   5564,   -412,  -9166,  -6791,  -2976,  19850,    748,  -9517, -12520,  -1085,  -5572,   2684,   1460,  -6946,  -5731,   -475,   3567,   8343,   -836,  -1295,     28,   4168,   8649,   -782,  -7691,  10929,  10953,  -1341,  -8839,   1218,   5521,   1727,    640,  12134,  -9122,  -8445,  -6281,   4346,  -4662, -10408,   6374,     70,  10273,  -7996,  -3893,   9843,  10009,  -5806,   5808,  -6122,  -4833,  -6164,   5694,   6137,   2330,   3640,  -6987,   6827,   6691,  -6757,   9091,  -9242,  -5670,   8694,  -4266,  -4657,   2033,   5026,   9930,  -6979,   3683,  -6107,   2039,   1426,  -1421,   6351,  -9911,   9928,  -6284,  -3693,   6909,  16680,   5974,  -6905,  -6716,    488,  -9081,  -3938,    825,  -7358,   9094};

    const static Filter<int16_t> statefulpartitionedcall_sequential_conv2d_2_biasadd_filter(statefulpartitionedcall_sequential_conv2d_2_biasadd_filter_element, -16, {3, 3, 16, 8}, {1, 1});
    const Filter<int16_t> *get_statefulpartitionedcall_sequential_conv2d_2_biasadd_filter()
    {
    	return &statefulpartitionedcall_sequential_conv2d_2_biasadd_filter;
    }

    const static __attribute__((aligned(16))) int16_t statefulpartitionedcall_sequential_conv2d_2_biasadd_bias_element[] = {
           153,   -115,   -260,   -144,   -187,    249,    369,    240};

    const static Bias<int16_t> statefulpartitionedcall_sequential_conv2d_2_biasadd_bias(statefulpartitionedcall_sequential_conv2d_2_biasadd_bias_element, -12, {8,});
    const Bias<int16_t> *get_statefulpartitionedcall_sequential_conv2d_2_biasadd_bias()
    {
    	return &statefulpartitionedcall_sequential_conv2d_2_biasadd_bias;
    }

    const static Activation<int16_t> statefulpartitionedcall_sequential_conv2d_2_biasadd_activation(ReLU);
    const Activation<int16_t> *get_statefulpartitionedcall_sequential_conv2d_2_biasadd_activation()
    {
    	return &statefulpartitionedcall_sequential_conv2d_2_biasadd_activation;
    }

    const static __attribute__((aligned(16))) int16_t fused_gemm_0_filter_element[] = {
          4099,  -3414,   3065,   2495,  -5355,   2337,   5084,  -2989,   1316,  -1218,   7648,  -5576,  -4316,   3784,  -8341, -17801,  -2657,  -1602,  -5543,  -5676,   8580,  14001,   -150, -12495,   1276,   -994,   6365,   1925,  -1082,   5618,   2561,  -5825,  -6866,  -8367,   1480,    339,   -621,  -7832,  -1104, -11919,  -6254,   1709,  -1886,  -9122,   3443,  10279,   2455,  -7171,   5212,   6297,  -1562,   1587,   3680,    959,  -4906,   3674,   2935,   3626,  -5244,   3002,  -3381,   3490,   5967,   8810,  -1801,   4024,   6486,   5094,   8449,  -1339,   3724,   2489,  -3265,   5273,    198,    551,   1505,  -1616,    -25,  -1608,    547,   1053,    134,  -3487,   1101,   4479,  -8254, -10150,  -4905,  -7054,   4276,  -6345,  -6708,  -6097,   1992,  -3694,   3586,    914,  -3264,  -7694,  13252,   8109,    362,  -2126,  -2096,  -5527,  -5363,   4845,  -2349,  -4056,    -35, -10100,   8672,  -3344,   3998,   5228,  -6569,   8257,   2575,  -6529,   4106,   3019,  -5058,   3775,  -2328,   3091,   2712,    507,   4723,   5638,   7196,  -5763,  -1136,  -6815,   2739,    926,  -2998,   3712,  -6698,  -8450,    851,   3594,   2081,   1883,   1113,    267,  -3976,   5309,   6865,  -3621,   2691,    -78,  -2728,  -4515,  -2460,   7730,  -2000,   3115,  -7053,   4268,  -3005,  -4357,   2007,  -9036,  -5021,   -333,  -5610,  -3109,   4032,   4694,   4216,   3947,   1604,  -2360,  -1847,    544,   4976,   6902,  -7988,     85,   2722,   3110,  -7114,  -7195,   8223,  -4405,   7213,  -4401,  10143,  -1850,  -5706,  -3864,  -3149,   6597,   -602,  -3888,    915,   2171,   -391,  -6251,  -2311,  -2971,   4874,   2701,  -3777,   1024,  -2846,  -5031,  -9025,  -2145,   2617,   2146,   -408,   9286,   5809,  -7062,  -4519,   7902,   1735,   5987,   6997,   7870,   5875,  -4045,  -1078,   4882,   3066,  -8166,  -3861,  -1856,  -5568,  -3711,   4469,    855,   2481,   6601,   6158,   6752,    609,   5231,   6304,   1735,   1634,  -5279,   3208,  -5293,   4525,   1445,   7831,  -1127,  -1791,   4401,   1796,   3227,   6174,   -284,  -6234,    459,  -1749,   1350,   2001,   4976,   5122,   1063,  -7802,  -1236,  -8036,  -5385,   5230,  -4514,   5009,  -1649,  -6263,  -6434,   3984,   3404,    847,   7627,    567,  -2766,   7397,   -364,   7396,   3484,  -3161,   7673,  -6100,  -2289,   5261,   -626,   3147,  -7905,   8405,  -1939,   -362,  -4462,   3927,    888,   2157,  -7151,   8457,   3860,   5651,  -4846,  -6928,   6807,  -7172,  -2196,   3841,   -181,  -8390,   7262,  -3594,   6509,  -8128,   7487,   7549,   7448,  -3624,  -1175,   -596,  -8113,   5394,  -5247,   3047,  -7194,  -4596,  -2684,    114,   -565,   7844,   7130,   3368,  -7445,  -3265,  -3021,  -1416,   4998,   2485,   4607,  -5353,   4052,  -5494,   4278,  -6245,   1937,  -2589,  -3163,   1341,  -5047,  -4156,  -4274,  -3975,  -8236,  -4201,  -4867,   2236,   4800,    504,  -1246,  -4027,   6357,   7288,  -4533,  -2554,  -1606,  -2124,  -6440,   1051,  -2927,  -5156,    335,   9298,   2113,   7133,  -4694,    154,  -4510,  -8243,   3184,   1447,  -1592,   1322,  -3492,   8793,  -3036,  -7969,  -5622,  -5197,   -166,   5385,  -5465,   6467,   2194,   7403,  -8259,  -1233, -10387,   5163, -15698,   9858,   3624,  -8326,   -806,  -3313,   4455,   1167,  -4834,   2040,  -4697,  -6237,   7766,  -4143,   5678,   -806,  -4198,   3579,  -2493,  -3482,   1764,   9758,  -2864,   4633,  -8972,   1671,   5040,  -6434,   -435,  -1335,   8616,  -7647,   2433,  -2964,   2573,   1284,   8655, -11273,   9039,    968,  -4471,  -3314,   5119,   4684,   4210,   1884,   2982,  -5986,   6581,  -7417,  -6802,    250,    846,  -5397,  10078,   6428, -11135,   7028,   -744,   4844,  -6007,   6434,  -2689,  -6733,   4671,  -2002,    722,   2198,  -3997,  -5483,   1608,  -5887,   1544,  -5121,  -5383,    715,   6808,  -3533,  -7504,  -6533,  -7048,   -200,  -8173,   6976,   4808,   7069,   4544,  -1693,    250,  -3772,  -5458,  -7506,   6007,   5374,   5429,     51,  -8443,   2313,  -5580,  -7623,   3227,  -9612,    748,  -8345,   1444,  -8576,   1442,  -4934,   5922,   6370,   6018,  -5150,  -1871,
         -2161,  -5245,   2441,   2953,   5209,  -3103,  -1434, -12360,  -6171,  -6805,   6276,   5010,   6156,  -1304,   5932,  -4217,  -1157,   4840,  -3977,    438,   2108,  -1536,    787,  -9484,   5154,   7588,   -649,   7810,   -890,   1839,  -1851,    567,  -2037,  -3466,  -3206,  -4036,  -1342,   8966,   6565,  -5659,   4242,  -8363,  -7515,   4617,   7599,   7381,   3192,  -3683,  -2225,  -8531,  -5554,   9261,   -161,    -45,    984,   -954,   3106,  -7502,  -2028,  -5207,   -542,   -442,   1019,  -3681,   3255,  -1407,   6903,   5373,   3270,   4228,   1919,   -878,   3055,  -3837,  -4421,  -5915,   3754,  -5845,   3822,  -1314,  -4710,   4050,  -3839,   2494,   -897,  11069,   3577,   -402,  -1022,  -2059,   4488,   5044,   5061,   4389,  -1261,   2277,  -5837,   7015,   1801,   3596,   4909,   6631,   4729,  -4178,  -4148,  -3976,   1546,   6915,   3116,  -7651,  -3292,    134,   2708,   2538,  -3277,  -2624,   8362,  -1016,   6404,  -2560,    243,  -7294,   5248,   4376,  -1289,   4350,  -6689,  -4822,  -3278,  -2861,  -5748,  -7757,   3370,  -3070,  -5118,   4742,   2794,   4460,   5020,   -593,   4568,  -3967,  -7627,   5512,   7340,   5396,  -6026,  -1722,   6079,   3228,  -6892,   8481,   2177,  -3330,   5888,   4945,  -2587,  -6522,   3828,   4796,   5377,  -2597,   4156,  -6786,  12852,   1213,  -6728,   1417,   4681,  -7972,  -7240,  -3247,   4894,   1660,  -4310,  -7015,  -6869,  -4377,   7311,  -5843,   7259,  -3305,  -7162,  -3800,  -1898,  -6291,  -1004,   5102,   -153,   2164,  -3734,   -186,  -6001,  -7153,   2808,   5218,  -2227,   -985,     67,   3657,   -245,   -761,    523,   4445,   5953,  -5604,  -7226,  -6490,    310,  -4060,   3260,   3865,  -4101,  -5130,   -876,   1095,   1124,   6857,   7196,   2669,  -7253,   7254,   6907,  -2597,    931,  -6070,  -3496,  -1351,  10196,   4689,   1437, -13713,  -6750,  -1475,    434,    -44,   1341,   2447,   1253,   4284,  -1890,   2984,  -5282,  -4214,   8276,  -2990,    401,  -8059,   6401,   6557,   -260,   1078,  -1645,     16,  -5172,   3830,    315,   -853,  -7930,  -5094,  -8145,   -112,   -811, -13210,  10746,  -1677,   5380, -10601,   4135,  -7286,   -316,  -4151,   8782,  -7551,   5375,  -7658,  -5997,  -5519,   5619,  -8906,    372,   6652,   2436,   1370,   4557,   2608,    176,   4453,  -1577,  -4753,  -6855, -10618,  11363,    195,  -2527,  -8784, -10989,  -2023,   5769,   -494,   1442,   8428,  -5566,   3295,   6872,   6460,  -2936,  16086,  -8846,   9738,  -8795,    506,   2957,   -369,   5674,   7556,    938,   -600,   2547,  -5022,   3441,  -5730,  -5588,  13186, -13260,  -1284,   -939,   -447,   -756,    390,  -6632,   -170,   3879,   2574,  -7776,   -725,   4400,     93,  -6066,   6426,    -63,   6387,  -6667, -10899,   2632,   1406,    531,  -5224,  -7430,  -6212,  -3345,    339,  -2622,  -4921,  -4369,  11325,   2183,  -6009,   2290, -12943,   4373,   5876,   3877,  -5327,   4287,   4353,   7182, -11241,   3997,    876,   7085,   5646,  -7714,  11359,  -3368,  -2955,  -6133,   1747,  -1137,  -2495,   1086,  -2564,   6408,   4352,   2780,   3832,  -4478,  -5920,   7436,   7607,  -6725,   2293,   -606,  -4821,   6753,  -2908,   4366,   5730,  -5742, -10923,  -4167,   6935,  -5837,    234,   4418,   6850,   5555,  -6156,  -6546,   1465,   4864,  -1385,  -1818,   7824,   4412,  -6406,   2108,   2245,   3501,   -318,   5638,  12999,  -3331,  -7247,   9269,   1322,  -8385,   4702,   7018,   3013,  -2686,  -6112,   -576,   5756,  -1963,   2886,   -605,  -1535,  -7309,  -5592,   4673,  -2903,   1778,   5443,   2671,   3370,   4187,  -4345,  -6795,   7098,   4125,   1658,   7109,  -3925,  -3775,  -3520,   7435,  -6525,  -7557,  -6097,   -665,   -788,  -7535,  -7524,   -840,   2842,   2596,   7761, -10724,   6514,   4249,  -8985,   4756,  -2377,   5064,   7176,   6145,   6282,   -571,   5391,  -7847,   2699,  -6489,   6416,  -7970,   4228,  -6525,   1792,    135,  -7081,   4666,   7201,    303,   -244,  -4858,    -55,  -3454,   -867,  -8224,   2895,   3941,  -4070,  -2594,   5406,   5982,   1259,  -3823,   6661,   7137,  -4823,  -7839,   1014,
          4767,   6231,  -1784,  -1456,   7647,   9365,   5119,   1941,   5074,   4684,  -1215,   -448,  -2958,   3775,  -5911,   3306,   9351,  -7932,   -456,    685,    -93,   7062,  -4560,   2725,  -7146,   2304,   3645,   2168,  -5947,  -4548,  -6220,   6961,  -3440,  -7340,  -7841,  -8232,  10598,   4687,   -293,  -7424,  -6549,  -4264,   6478,  -2627,   1673,   -208,  -7622,  -8645,   2617,  -2634,   7415,  -1116,    554,   3992,  -5132,  -7393,    694,  -5419,   5418,  -6422,   1765,  -1322,   3816,  -5400,   6420,  -5413,   5550,  -2229,   2590,   1667,   2460, -10230,  -4995,   -938,   5966,   4937,  -1235,  -2580,  -6323,  -4184,   6638,  -7355,  -6193,    869,   2161,  12181,   6888,   2786,  -2187,  -7068,  -6204,  -2894,  -1383,  -6573,  -7760,   5341,   3186,  -4175,  -3974,  -4679,  -2343,  -4934,  -6608, -11986,  -2542,   5030,  -4590,   6068,   2451,   4615,   4755,  -3118,   4201,   -434,  -7523,   7725,   4885,    136,   2789,   2512,  -2368,   4311,   -881,   6593,   8816,    244,  -6407,  -6624,   4116,   3332,  -4507,  -6668,  -6200,  -1151,   4257,    281,  11522,   5974,  -1489, -17707,   1459,  -6023,   3053,   -413,   8391,    580,   3693,  -1060, -11186,  -1634,   -769,   1771,  -3726,    822,  -7312,   3783,  -1324,   5515,   1024,    198,   6429,  -1358,   1938,  -6893,  14308,  -9283,  -2476,  -1290,  -4995,  -2468,  -5354,   2488,   6457,  -1530,  -7681,   2750,   4703,   7134,   2732,   7459, -11020,  12088,   3124,   4948,  -5346,  -2227,   5347,  -4233,   3245,   5630,  -4139,  -1524,  -9899,   1856,  -1400,   8897,  -3847,   -637,  -6562,   1869,   5507,  -7084,  -7933,   5749,  -8522,  -2377,  -3950,   9097,    746,  -4431,  -1876,  11408,   -333,   1320,  -7580,   4906,   7768,   -700,   6730,   6905,   6579,   1186,   1013,   2701,   3227,   6840,   1912,   5398,  -5452,   6519,  -4201,  -7054,  11129,  -2817,  -8392,  -1569,  -3385,   8949,  -6503,   6121,  -7400,  -8432,  -3430,  10365,  -2342,  11026,  -2214,     -4,   4109,   3914,  -8260,    738,  -3147,   6593,  -6929,   -993,  -7123,  -6838,   2745,  -4175,  -2460,   7377,  -7174,   -511,   3540,   -216,   -981,  -3113,  -6626,  -1066,   3576,  -2376,  13061,  -4019,   6663,  -4796,   2469,   8100,   -369,   3150,  -1604,   5864,    776,  -6339,  -1689,  -3167,  -5542,  -3082,   2740,   1978,   2529,  -4297,  -6035,   9439,  -8020,  -4535,   6193,  -6828,   4700,  -5040,   8686,   5990,   4385,  -3335,  -3397,   4677,   1650,  10229,  -9403,  -3959,    937,  -7461,  -4582,  -2937,    115,   6310,   5419,  -4607,    845,    851,   4265,  -3123,   -163,  -1985,   8955,    614,   6570,   -353,   9731,  -1821,   2119,   4939,   7720,   8135,    715,  -1267,  14098,  -1437,  -2349,  -3638,   1069,   9530,   2142,   1600,   3141,   6572,  -7574,  -3461,  -3721,   3011,   3550,   4170,  -2956,  -1846,  -3252,  -5303,  -5066,    427,   -960,  -5941,   7279,  -7048,  -8222,   3743,   2069,   6592,  -4527,   2977,  -4079,   2881,  -3037,   -612,   1155,   3951,   5052,   5610,  -6467,   -152,   1765,    547,  -1664,   -940,   1554,   1120,   5914,   2171,  -8114,   1855,   9587,   7638,  -6748,  -3693,   1196,  -1082,  -3399,   2541,   6831,  -4588,  -4696,   -595,  16058,  -4032,  -3265,  -3458,   4325,  10909,   1511,   9018,  -2277,  -1341,   2037,  -5040,   3448,   4205,   2509,   7517,  -4492,   -924,   6912,  -1128,   2226,  -1813,  -6978,  -9790,  -6168,  -8243,  -2074,  -5037,  -1744,    -31,  -4601,  -3676,   2348,   6204,   2015,  -1972,   -756,   6546,  -2264,  -2625,  -4505,   7222,  -5326,  -6205,   2405,  -6225,   3302,   1422,  -3957,   -500,  -5280,  -4219,  -2927,  -8042,   2262,  -3298,  -6828,   4405,   3994,  -4891,   1250,   5219,   2164,   6228,   1756,   4469,  -1469,  -3258,   3029,   7924,  -8115,   5869,   5571,  -2686,   6034,  -4576,   7771,  -4694,  -4538,   3040,  -8013,   -959,   2548,  -2842,     57,  -5783,   1884, -12495,   2378,   3269,   1416,   2704,   9230,   1508,   5101,    356,  -3730,   5892,  -3265,   8539,  -2041,  -4556,     90,   3782,  -4918,    904,   7203,   2542,   3327,  -6156,   1100,  -8567,
         11971,  -9209,   2135,   3784, -10006,  -9777,   4052,   8878,   9461,  -8294,    932,  -5318,   6563,  -1962,  -2963,   4520,   -619,  -2157,  -1961,  -3011,   6120, -16273,   4386,   7212,   -217,   5141,   3860,   -964,    -22,   4437,  -2809,  -7945,  -3005,  -1370,  -4342,  -4157,  13896,  -9059,   2944,   7443,  -4041,    146,   5172,   2998,    667,    620,  -4638,  -5519,   1917,   4513,  -6199,  14517,  -7668,   2202,  -4546,  -1242,  -6458,   1691,   -273,   3865,   4351,  -5681,   4389,  -3833,  -8105,  -6782,  -6199,   7219,  -2009,   1701,    795,  -9496,   1566,    601,   -511,  11734,  -7097, -10032,  -1149,  -3642,   5579,  -6087,   2804,   2145,  -4170,  15114,   6289,   5682,  -7389,   1265,   7392,  -3925,   5711,   5387,   5147,  -2197,  -1553,  -2344,  -1517,   2207,  -4174,   3867,   4726,  -3418,  -2711,  -7486,   4502,  -5913,  -2531,  10677,   5943,  -3611,    397,  -1609,   6222,   9427,  -8438,   3641,   3836,  -5807,   7449,   6544,  -7413,  -6450,  -3207,  -1131,   -360,   1870,  -7842,  -6227,   2321,  -1571,    511,  10386,  -7062,   3466,   5178,  -3940,  -4260,   -668,  -4816,    247,  -5739,  -1674,   1654,   1573,   4352,   5758,   -493,  13379,  -6143,  10063,    441,  -7159,   5084,   2081,  -2134,   6304,  -4574,   3365,  -3089,  -6024,  -6611,  -4270,   -424,   7774,  -3332,  -6447,    -55,     48,   4858,   4781,   9281,   2106,   -157,   6681,  -2563,  -3244,  -1958,  -2158,   4195,   9465,   6079,  -8735,   6019,   2068,   6512,   6841,  -1236,     14,  -8342,  -7178,   2973,  -2917,   2011,   -346,  -3370,   3074,   -703,  -1590,    588,    747,  -1121,   4448,  -3355,   -927,   2986,   5577,  12215,  -3593,   7247,   1464,   3264,   1492,  -6463,  12025,   4207,   7618,   3766,   6011,   2507,   1197,  -6155,    947,  10428,  -2042,  -7542,   5020,  -5503,   9329,   7064,  -6955,   -298,   1818,   7125,   2820,   1447,   9119,    290,  -7487,  -5878,  -1721,   3991,   7483,  -6008,   -326,  -7503,   6542,   6370,  -1098,  -2583,  -5606,  -3645,   -877,   5843,  -1111,     87,  -7016,   3796,    949,   8004,  -3394,   2790,   2340,   3182,   2037,   3802,  -8823,   -910,  -5625,  -2941,  -8032,   9593,  -4456,  -4288,   1457,   2125,   1530,   3595,   8648,   4713,  -1625,  -3753,   7704,  -3354,   7812,   6072,   -799,   1443,   6750,   3474,   2808,   8793,  -5786,    375,  -3483,   3153,  -3970,  -7451,   6711,   4234,  -3647,  -6227,   5017,  -6878,  -2119,  -4646,   7751,  -2555,    -99,  -6937,  -1149,  -3151,  -1999,   -376,    700,  -5337,  -4056,   4775,   5905,  -5482,    905,   6720,  -5452,   8272,  -8760,   3446,  -4727, -10551,    992,  -5066,   1511,  -3623,  -2307,  -7460,   1021,   8650,  -6676,   5746,   3475,   2054,  -2521,  -4560,  11970,   3089,     78,  -2614,  -3525,  -1057,   6986,    131,  -6964,    -45,  -4482,   -919,  -5807,   1792,  -2286,  -5906, -15361,  -3645,  -3199,  -2053,  -6492,  -3236,  -2661,   5859,   6844,   1046,  -2941,   4163,  -1906,   3420,  -9918,    -46,  -3815,   3973,   2571,   1959,  -4393,   4086,   -760,  -1483,   4524,   4424,   2894,  -3007,   6881, -10333,  -1276,   4168,   8744,  -9422,  -2987,  -6497, -12083,   -591,   -139,  -6086,  17523,  -4219,  -7495,  -6981,  -5564,  10005, -10902,  -6553,  13052,   6050,   5788,  -4372,   5845,   -318,  -7639,  -7258,   4485,   2023,   3694,  -4809,  -4553,   7355,  -6833,  -4058,  15472,   5979,   -725,   1674,  -3530,  -3543,   2507,   1468,  -1085,  12392,  -4487,   2517,   7527,  -8952,  10728,   3130,  -4779,  -2757,   3404,     36,   4263,    771,   3142,   6398,   4858,  -2523,  -6100,   2312,   6747,   2014,   2695,   5105,   1190,  -7136,  -4514,   7518,    958,  -5397,  -7420,   6392,  -1448,  -7736,  -3175,  -3513,   3307,   5596,   8216,   5104,  11603,   -852,   5817,  -7685,  -5279,   -945,   2849,  -1349,  -7983,  -4900,  -1607,     98,  -1531,  -1304,  -4858,  -7701,  11978,  -7924,  -7075,  -8368,   4407,  -2595,  10556,  -8130,   3395,  13755,   4508,  -8609,   7083,  -4917,   7443,  -5191,   8300,   7638,   5379,   4972,  -1931,  -5063,      7,  -1530,    481,
          2737,  -7853,  -7114,  -2999,  -6776,  -2824,  -8273,  -6256,  -2630,  -3702,    189,   1160,  -3358,  -2019,   2067,   5674,  -7826,   4894,   3105,  -2772,   2296,  -5734,  -3757,   -386,  -7899,   7621,  -5230,   2156,   7052,   5615,  -1758,  -7837,   1637,   6839,  -8558,  -5120,   4212,   3981,   4131,  -5039,    742,  -1586,  -6610,  -7968,  -2267,  -5685,  -6548,   5603,   2241,   7110,   3467,   1247,   1306,   9161,  -7987,  -1373,   1404,  -4329,   3977,   3324,  -3386,  -6127,  -8038,   3449,   2369,  -7275,   3949,   6673,   2652,   6137,  -5025,  -1018,   7029,  -1455,  -3017,  -3731,  -1547,   3968,   -924,   9556,     41,   5684,  -4438,   5943,  -3805,   1491,  -8463,   6267,   3945,  -2587,  -4885,  -3421,  -1124,  -6167,   5031,    438,  -7038,  -7432,  -4597,   7994,   4037,   1435,  -8111,   6153,   1492,   3344,   -157,   4510,  -2370,    669,   3400,   6542,  -1418,   7326,  -6282,  -5845,  -2063,  -1518,  -7563,   8977,  -1010,  -1008,  -5284,   6382,   8711,   7619,  -7344,   5075,  -2051,  -2114,  -1448,  -2627,   3982,   2141,    697,  -1687,   1882,   -321,   3067,   -136,   4609,  -1472,   4658,  -3544,   1600,   -308,     23,  -8616,  -2952,  10110,  -3447,   6169,  -2450,  -5930,    258,   3094,   7636,   1847,   4177,   1555,   5843,   3067,    192,  -1355,   5764,   -844,  -2320,   -914,   -568,  -1216,   1493,  -7756,   3702,  -2606,   5504,   6578,  -1785,   6634,   6315,   5833,   3138,  -5246,  -8298,   2693,  -2909,  -4481,  -6574,   -299,  -6093,  -6481,   2017,   6198,  -4342,   3500,  -3530,   6844,  -1306,  -6050,   6099,  -6812,   3717,    869,  -8100,   3155,   1546,  -1179,   2116,   1739,  -3793,   6683,   3116,   7989,  -9251,  -7907,  -5883,   6833,   2034,   6181,  -3852,   7013,  -6134,  -3547,  -5082,  -4592,  -6552,  -7694,   6905,  -7291,  -3641,   1424,   -654,  -9090,   3606,   6788,   6942,  -3814,   -685,   6862,   5023,   5030,   5572,  -6058,   -959,   1585,   8133,  -4225,  -3885,    -73,  -5254,  -1122,   -926,  -3123,   5293,   1998,  -2243,   -442,  -5316,   6500,   7380,  -2964,  -1667,   1220,   2473,  13839,  -8113,  -6052,  -7025,  -5256,   7422,  -8355,  -5801,   8565, -13641,  -2407,   -850,  -1911,    779,  10749,  -2216,  13868,   1420,  -7624,  -2362,   1123,   5644,   7330,   6292,   7770, -12552,   -772,  -2044,  -5315,  -1331,   6868,   3773,   8347,   5272,  -4438,   -983,  -1249,   2351,   9831,   6109,  10527,  -2100,  -6187,   4675,  -2255,  -1437,  -2764,   3494,   6100,  10247,   2177,  -2809,   3175,  -3496,   1044,  -3710,  -1528,  -6401,   -829,   6707,    -92,   -171,   6399,   5349,    159, -12151,   6891,  -5043, -11755,  11433,   3727,  -6166,   9665, -18433,   3162,  -7309,   5828,  10818,    686,   -738,   3909,  -6978,  -5271,  -5643,    707,   1414,   6169,  -4207,   6381,  -1706,   -855,  -4286,  -5090,   5365,  -3810,   2650,   7472,   2457,  -4458,  -7242,  -3425,   5477,   3594,    -33,   6436,   6033,  -5923,   -849,   1750,  13007,    585,   3028,  -7743,   4635,  -4227,    768,   8771,   7393,  -6183,  -2301,   2193,  -6253,  -1619,  -1132,   -152,  -3578,   8132,  -8760,   -441, -14490,   4874,   1471, -10657,  -1215,   1711,  -1184,  12861,  -3139,  -7862,   3081,  -6696,   3910,   6041,   4280,  13010,  -6888,  -3178,   7067,   6508,   5370,  -5438,   4952,   7058,  -1965,  -7334,  -2436,  -1358,   2765,   2035,   3181,   2976,  -1711,    -40,  -8328,  -7816,   4857,   2397,   1517,   5638,  -4273,   2240,   2706,    638,  -2068,   3627,   1714,    546,  -3556,  -7376,  -1019,   6404,   7543,   4760,  -3138,  -6341,  -6433,   6361,   4069,  -7813,  -2843,  -5850,  -1366,  -4737, -12793,  -3366,   1962,   -988,   9852,   7330,   6316,   3352, -15018,  -7924,   -917,  -2396,  -7261,   5341,   -750,  15111,   1268,   6113,  -1785,   3283,  -4861,  -1972,   2974,  -3667,  -2639,   7409,  -2357,   -940,    892,   6936,   3412,  11620,   -298,   1252,  -7544,   5497,   7890,  -3227,   5990,  -2949,   3714,  -3962,  -2418,    214,   8439,  -3216,  -7952,  -7504,  -3233,  -6533,  -5217,   7670,   2462,   1807,   3943,    136,
           -80,  -6137,   2888,   5786,  -2485,   6727,  -3138,   -525,  -1916,  -5271,    707,   1032,  -2749,   6483,   5562,  13931,  -7966,   2056,  -3290,  -3338,   4823,   5690,   5218,  14709,  -7180,   3387,   3211,  -6130,   3307,    971,    654,  -6570,  -9752,  -2507,   3254,  -9071,   6649,  -1020,   3530,   -477,   4909,  -7175,  -6246,  -1743,  -1430,   6509,   6151,   8830,   4908,   4254,   4236,   6440,   5017,  -5261,  -1074,   4213,   -220,   -637,  -2304,  -4442,  -6165,    449,  -5085,  -6219,  -2989,    595,  -1275,   -809,  -6180,   2117,  -5582,   -758,  -3147,  -7133,   2384,   3069,   4793,  -7679,  -7060,  -6782, -10494,   3295,  -1145,   2479,  -1732,  -3727,  -1526,   5220,   -764,     80,   7669,   8004,   1993,  -3866,  -3853,   6808,  -5948,   7047,  -2235,   -867,   2317,   7966,  -6419,  -1608,  -4256,   3433,   3970,   5940,    573,   1881,   4136,   2019,   1883,     18,   1123,   -767,   6284,  -8779,   1667,  -8085,   4471,  -7777,   6191,  -3893,   -497,  -2040,   7421,  -1436,   2771,   1961,  -1417,  -4053,   5758,   3104,   5883,   3818,   7062,   6444, -15710,   5321,  -4888,   -568, -10342,  -4056,  -4562,   1607,  -5486,   4313,   4405,   5580,  12810,  -1485,   4430,  -6122,  -2688,  -5732,  -5729,  -5136,   -453,  -2983,  -4002,  -5510,  -3245,   6402,   9193,  -2941,  -1310,  -9887,   2821,   1718,  -7369,  -5477,     35,  -7504,   1504,   6720,  14699,   6636,  10924,   7667,   9415,  -7041,  -5168,   5171,   1578,  -7326,   4983,    270,  -5129,  -6160,   4220,   6895,  -2897,   5365,   2761,  -2422,  -6647,   7076,  10729,  -6569,  -3122,  -2814,    252,  -3927,   3570,  -2643,  -2509,   5383,  -4487,  -1919,  -7293,  -4796,   1613,   7296,   -251,   1570,   7929,   6078,  -7772,   7323,    953,    609,   3959,   1522,   4112,  -2654,  -6766,  -7135,  -1819,  -5016,  -4323,   1127,  -5828,   -325, -10062,  -8321,   1751,  -3353,   9568,   2416,   2471,    724,   3528,   5853,  -4441,   5222,  13228,  -8891,   3978,   4988,   4148,   5522,  -3671,   1977,   1667,   2134,  -7818,   2060,  -4304,  -1812,   6174,  -7483,   1321,    991,   4537,   3787,  -3355,   2296,   7971,  -3086,   3157,   2991, -10814,   -495, -15220,   8207,  -4803,  -2353,   2320,   1531,   1194,   6646,   1542,  -2661,   4698,  -1607,   6886,   5274,  -1654,   3313,   3142,   8396,   7360,   5788,  -6188,  -1552,  -9034,   6352,   -538,   4483,  -7298,   3870,   1029,   -612,   4107,   -408,    620,   7776,    -94,   7640,   2195,  -5240,   6023,   -953,  -5008,  -6546,   4356,    792,  -4110,   5176,  -6916,  -2399,    -14,     95,  -2500,  -5343,   6068,   4329,   8219,   6186, -12409,   6126,  -3982,    976,  -4472,  -4762,  -5538,   2177,   -131,   6233,   4307,  -5122,  -2443,   -228,   3048,   -893,  -3070,    897,   4553,   4405,   2877,   3829,  -2791,  -5793, -11745,  -4312,  -4129,  -3249,  10678,  -5693, -11649,   3769,   -141,   3999,   1648,  -6938,  -2492,  -3688, -11435,  -6990,   9534,   7532,  -5350,  -1056,   -997,   -308,  -3865,  -6521,   2927,  -2137,   -403,  -1569,   2535,   6068, -12247,   6460,  -1955,   6300,  -3422,   6864,   2229,  -1216,   5885,  -6587,   2621,  -5761,   2388,  -6596,   2653,   5884,  -1632,  -7824,  -3995,  -4889,   3251,   -293,   5995,   9064,   2754,  -5893,  -4697,   7613,  -5757,   1510,   3905,   4851,   6367,   3262,   1685,  -7366,   2258,  -1010,  12733,  -1106,    349,   5086, -11237,   8783,   2048,  -4114,   8416,  -1989, -11433,   1417,   2617,   7230,   6373,  -2327,  -2518,   3342,  -2592,  -5992,   5765,  -5079,  -3182,  -4442,   -106,  -2878,  -5799,  -3392,    567,   1134,  -2363,  -1820,    443,   6468,  -1948,   4527,  -3773,  -7947,   7450,   5232,  -2585,   1442,  -3365,  -3678,   3032,   8821,  12753,   3094,   5008,   3160,   -454,   1268,   3222,  -5986,   1006,   7575,   6470,   3910,   9214,  -1800,    135,  -1485,  -3485,  -7690,    758,  12767,   -708,   4632,  -8948,   7254,   4821,   1879,  -7230,   3210, -10820,  -1772,   2010,  -1672,  -5770,  -3742,   7476,   9682,  -3777,   6971,   6297,   8700,  -2120,  -5235,   5355,   6138,
          3004,  -5289,  -3963,   3622,   5288,  -2877,  -4194,  -4132,   1465,   1518,  -3129,   4812,   1490,   2817, -13109,  -1021,   -597,   5552,  -3202,   6995,  -7698,   1263,   6002,  -6374,  -1677,    -93,  -6600,  -5161,  -6056,   -527,  -6453,  -2710,  -2023,   4154,  -1636,  12593,    269,  -7561,  -7892,  -2865,   2961,  -4233,  -2179,  -3699,   7202,  -3066,  -2078,  -2341,   7618,   7272,   3268,   6042,   5726,   5048,   7134,   4180,   4868,  -5507,  -5127,   5396,  -3454,  -3435,   6784,   5258,  -8102,  -7842,  -7639,   9705,   8704,   -544,   1228,  -5246,   8453,   1726,  -2052,   3798,  -7585,  -3827,    432,  -9389,   2142,  -7848,   2171,   1984,  -5972,  -7686,   2381,  -9819,   3581,  -4306,  -7813,   4053,   5494,   2072,   5729,   -287,  -7536,    565,   1759,   5945,   9181,   3009,  -6189,   2318,   3840,  -3497,  -4405,  -1613,   5046,   6821,  -4038,   5004,   6672,   6258,   4286,   8871,  -2793,   4661,    852,   -371,   8783,  -7901,  -5255,  -1709,   1498,   2779,   2401,   2554,  -2131,  -2963,  -8666,  -4914,    438,   -461,   8998,   1349,  -3405,   -644,   3282,  -3769,   1539,  -2076,  -6062,  -5846,   -902,    622,   6189,   1140,   5876,  -2082,  -3516,  -9944,  -5000,   7876,  -7137,   6669,  -3840,  -5171,   4792,   3731,   4637,  -6838,  -5265,   7288,   4784,  -5229,  -5908,  -4716, -11113,   -315,  -4277,   1231,  -5726,  -3304,  -4270,   3321,  -5185,  -7782,  -1909,   5311,   9765,   6433,  -2657,  -2157,   4964,  -8012,  -6496,   8368,  -4321,   -728,  -2177,   6860,  -5495,   5768,  -7387,  10214,  -5683,   4856,   2422,   7922,   6981,  -6785,  -6847,  -5461,  -7077,  -5978,   5068,  -3360,   5118,   -417,  -6429,   -791,   6426,  -6621,  12427,   1787,   7882,  -3727,  -5201,  -3587,  -2863,  -3507,  -6346,    833,  -3831,   -530,  -4214,  -3123,  -1821,  -2049,   8530,  -1873,  -8643,  -8547,  -9669,  10120,  -4493,   4360,  -6623,   1468, -10957,  -4416,  -5248,   1472,   1365,   4499,  -1692,  -2976,  10212,   7133,   4431,   -372,  -3367,   2249,   8947,   1747, -18224,  -8008,  -6484,   7875,   2335,   1754,  -6585,   2799,   8180,   -513,   3675,  -9004,  -8928,   1123,    205,  -1407, -12159,  -3101,  -3391,  -1292,   2253,   1235,  12797,   4887,  -2373,   3090,   -638,   7870,  -5719,    531,   5070,   2812,   8216,   6174,  -2074,  -9224,  -5610,   7467,   1207,    952, -11200,   1504,  -2160,  -1822,   3884,  -5505,  -3803,   4829,  -1777,  -4456,  -4371,   6300,  -6798,  -3467,  -1562,   5669,   7936,  -8298,   1116,   4324,   7462,   4793,   4972,  -4955,  -6386,   1073,  -6339,   8107,   1771,  -1400,  -9092,   4856,  11455,  -7163,    690,   3464,  -3221,   2962,  -8518,    816,  -2269,   2304,   2072,  -1191,   8914,  -3073,    550,  11009,  -2241,  -5526,   5526,  -7129,   3339,  -7918,  -3317,   3944,   6391,  -4733,  -9924,  -4183,    171,   7003,   3202,   6824,   1867,   1219,  -4611,   8300,  -6738,  -3819,  -1155,   4446, -12903,  -1259,   6774,   6368,  -1975,   4072,  -7331,    881,   8112,   6385,   1836,   2234,  -5632,  -6237,   5518,  -3757,   2044,   3323,   5728,   3649,  -4330,  -3000,   2571,  -4840,  -5815,  -7793,   9200,   3899, -10933,    965,  -4673,  -1245,  -3362,   4625,   4226,   4576,   6389,  -4305,  -9127,  -4288,   1658,  -6054,  -6960,  -4154,  -4592,   6416,    115,   7409,   7451,   2906,  10466,  -2089,  -8969,  -7799,  -7836,  -4825,   8835,    731,   -416,  -2107,   7840,    822,  -6273,   9089,  14398,  -2941,    134,   1131,   4980,   3332,   2576,   4771,  -4545,   5691,  -8863,   1515,  -2011,  -5051,  -2545,  11029,  -9512,  -5967,   3536,   3388,   5106,   -949,  -5417,   1194,   2932,  -5830,  11617,   5781,   6010,  -5519,  -6068,     18,  10384,   4444,   2148,  -1476,   1846,   1173,   1618,  -8916,    886,   -239,   6400,      0,  -1124,   6272,  -1047,   6807,  -1770,  -6278,  -5961,   5748,   9047,   6002,  -5225,  -2705,   3582,   2552,   8566,  -3101,  -2875,  -5809,   4569,  -4265,  10361,   1006,   1644,   2804,  14207,  -6568,  -2855,   6498,   7451,    560,  -8425,   4356,   1613,   6087,   1397,   6732,
         -5723,   6324,   6304,   7556,   -622,   1730,   7571,   2017,   9223,   2577,   1411,  -3356,  -5315,   1200,  -3011,  -4673,  -6534,    990,  10580,   6748,  -4091,  -3202,   3680,   1595,   -200,   2830,  -2424,  -5741,   -208,    222,  -3100,   1940,    770,  -5854,   6856,   1101,   2558,   -611,    -89,  -2422,   3602,   2621,   2701,   -204,  -6985,  -1307,   1423,   4404,   2495,    898,   2776,   3641,  13141,   4682,  -5890,   6972,  -2985,   4923,   2044,  -1951,    628,  -1700,   2839,   5470, -16505,  -1756,   1976,   8144,   4759,   7188,   3001,   6909,   2045,  -4657,   8217,  -9694,   6906,  -3049,    -29,   5659,   3860,  -8389,   1158,  -4352,  -4024,   -928,   6892,  -1036,  -1098,  -2483,  -3712,   7883,   5150,   -386,   4659,    -72,   2874,  -5950,   7409,  -5650,   -388,   6070,   8991,   9456,  -7201,  -5367,  -1989,   7632,  -2822,   3527,  -1512,   4488,   3275,   -180,   -427,   3079,    -55,   -448,   8441,   5778,  10450,  -1547,   3996,   3079,   1791,  -1467,  -1880,   -526,  -8043,  -5444,   4859,   3552,  -7634,  -5907,   6442,  -1858,   9158,   5391,   4368,  -2027,   2352,  -1118,    919,  -3241,  -3815,  -8500,   9379,  -5793, -11925,   3541,   7180,  -8026,   7835,  -4629,  -2994,   4783,  -5820,   1580,  -2701,   1839,   1646,   5326,  -4763,  -1633,   -591,   -866,   4774,  11079,  -3736,  -6258,  -5080,  -2805,   2632,   4656,  -3706,   7886, -11952,   7228,  -7368,  -2037,   5147,  -4074,  -4095,   -205,   5989,  -3814,   1182,  -4942,   4752,    657,   2989,   3051, -12468,  -5514,   7397,   2702,   -827,  -4206,  -6385,   8966,   6484,  -3095,   6551,  -7759,   2792,  -1591,   7474,  10659,  -2619,  -1594,  10762,   8552,    952,   6074,   7357,  -5885,  -5534,  -4868,   3315,   5922,   6942,   7818,   6317,  -5950,  -3419,  -1573,  -2584,     54,   3452,  -2331,   8054,   4287,   3154,   4354,  -4503,   3964,  -5355,  -6021,   2597,  -1156,  -5862,  -7224,   6317,   1838,  -5466,   1677,   4691,   8843,  10529,  -7158,   4634,   1359,  -3949,   7010,   7713,   -555,    792,   4014,   8619,   2986,  -9195,  -2931,  -3111,  -2526,   5004,  -4888,  15012,   4731, -15060,   -704,   5108, -14010,  10292,  -8749,   4110,   9940,  -3806,  -7488, -15755,   3575,    243,  -1041,    970,   4982,  -3752,  -4297,   2908,  -5774,  -2825,   3426,   1676,   2764, -12837,  -3260,   7064, -11331,   3861,  -2620,   2250,   6898,   9933,  -2052,    588,  11527,  16404,  -4985,  11230,  -6741,   7485,   3281,   6653,  -2730,   1421,   1767,  -9084,   1938,   2677,   1218,  -2974,   5408,    266,   2402,   6197,    788,  13606,   7484,   -468,  10234,    337,   4174,   8604,  -1632,  10529,  -7399,  -6585,  -3802,   -720,   5567,  16651,  10706,   5297,  -2976,  13613,  -2500,  -1400,   6592,   5699,   -141,  -6803,   6911,  -1978,   4720,  -1230,   2624,  10119,   9230,  12388,  -1593,  -4784,   1057,    980,    472,   7471,   3569,  -1231,  -6294,  14419,   1445,   1214,  -8385,     84,   3576,   9357,   3531,  12150,   -489,  -1041,   2421,  -4681,  -1241,   3094,   3822,    923,   4040,  -3889,   2999,   3431,   -694,   4191,  -3262,  11036,  -1347,  -1449,   3466,  10254,  -4174,   -770,   6019,  -1268,  -1613,   7344,   3136,   4334,  -4021,   -544,   4370,  11159,  -6644,   2814,  -5407,   5360,   -457,    -27,   3185,   2558,   6456,   4244,  -7942,   5324,   4571,   4994,  -2887,  11281,   3350,  -7603,   5219,   6890,   2678,  -5954,   5675,   2223,   7021,   -676,  -3288,  -1698,  10388,  12230,   -415,   1865,  -1045,  -1355,  -5530,   2722,  -3575,   7128,   1860,  -1920,    641,  -1837,  -2369,   -764,   1437,   7337,    676,  12621,  -4395,   5973,  -7239,   1474,  -9294,   4256,  -5543,   1300,  -1364,   6616,   5702,  12343,  -2851,  -1086,   1759,  13290,  -3591,  -2714,   4663,  -5330,   6545,   2439,   6129,  -7877,   6741,   5302,  -3869,   -208,  -6644,   5359,    455,  12001,  -7199,   2372,   3249,  -5202,  -6138,     30,   6279,   4214,  -4767,  -5492,   -256,   6467,   3703,  -1268,   2490,  -3481,   5040,   -312,  -4920,   8701,  -4243,  -1923,  -7211,   3504,   8868,
        -16767,  -5537,  -5758,   6185,  -1922,   4416,   8187,   3600,   4792,   3429,  -3933,  -9455,   5470,  -6430,  11825,   -498,  -5386,  -1024,   4652,  -9658, -11081,   2782,   8275, -11894,   7826,   5819,   -372,   4539,    104,  -1095,  -2343,   -738,  11370,   -261,   6338,  -9029,   5061,    853,   4624,  -2781,  -4129,  -8462,   5573,   3289,   6757,  -4276,   4069,   9253,   -789,   1677,  -9989,   2805,   7766,   2584,   4386,   7315,  -3781,   1321,   5892,   8314,   4993,  -6039,  -5415,  -6032, -10755,  -5385,  -2212,   5774,   3684,  -7634,  -2808,    184,   1053,  -6118,   4592,    -10,  -6734,  -6144,  -3416,     21,   -121,   4585,  14028,   8916,  -1928,  -7867,  -1071,  -7970,   5027,   7154,   1532,   5827,  -3476,   3996,  -4319,  -1561,  10831,  -5013,    838,  -5200,   8853,    265,  -4340,   7355,   1381,  -2347,  -7644,   8711,   2944,  -5856,   7387,   1412, -12051,   6638,  -1252,  -3991,   -713,   1117,  -4056,   5093,   3482,   2789,  -1757,   2445,  -4813,   7304,   2427,  -2616,   1776,   -269,  12019,  10671,   5586,   1634,   -323,  -3514,   3006,  -8965,   5433,   6880,  -4164,  -6247,    420, -10973,   -148,  -3726,   4556,   5300,   2319,  -3216, -13878, -11683,   5143,  -3626,   3430,   5023,   6799,  -3117,   6940,    808, -10743,   6295,   4726,   8830,  -9546,   2113,  -2740,  -4624,   1686,  -5114,  -3037,   3438,  12421,   -258,   6623,   8911,  17072,   5516,     74,  -3960,  10115,  -6264,   6188,  -4011,  -6846,   5331,  -5422,   3207,   8155,  -6958,  -4609,  10887,  -2979,  -2458,   2669,   5790,   7089,  -6146,  -3336,  -1027,  -8183,  -5789,  -7361,   -839,   3592,  -7979,  -4796,   8125,  -7135,   5696,   -529,   7843,  12573,   4159,   1400,   1622,   -228,   3483,  -1383,  -5296,   6111,  -4354,   3176,  -1991,    552,   -936,   5768,     40,   4540,  -7671,  -5067,  -2659,     82,    411,  -3564,  -6547,   6125,   5863,   4651,  -3895,   5186,   -412,    261,  10123,   9345,  -1730,   1519,   3598,   7408,   3778,   7209,   8746,   3729,   6304,   6616,    401,  -9018,  -3000,  -6711,   5542,  -3776,  -4981,   9679,   5117,   5899,  -5602,  -1519,   6099,  -4338,     75,  -2820,    478,  -4335,  -5045,   2032,  -6482,  -5866,   5398,   7848,  -9679,    204,  -4500,   2523,  -3535,  -5237,   -171,  -2559,  -6538,   3645,    661,    514,  -6900,   9302,  -3205,   1472,   2100,   1418,  -4027,  -5506,  -6587,  -2966,   3060,   5806,   9108,  -2374,  -8290,  -3992,  10986,   8305,  -6145,  -5219,   4107,   3441,  -6350,   2912,  -4341,   4768,   4292,   -902,   5683,  -2618,   -430,   -986,   4254,   8101,  -1353,   7643,   3355,  -2011,   3816,   5222,  -8150,   3077,  -6659,   9911,  -4419,  -3337,  -7105,  14281,   2323,  -9208,  -3650,  15022,   1633,   1168,  -1368,   2817,    239,   2166,   3470,  -2805,   5781,  -4595,   -159,    520,   -370,   3140,   6894,   3772,  -3072,  -8305,   5536,   5678,   5515,  -2415,  -2186,   3048,   8518, -12992,  -1142,  -3240,   -230,  -1356,  -5192,  -7751,   -892,   2938,   3226,  -6051,   3399,   5910,    585,  -2488,  -2950,  -4871,   6898,  -7812,  -3578,   6697,   4859,  -2493,     45,    659,   4786,   3339,  -4095,  -4105,   3056,  -3140,  10414,  -3771,   -183,  -1931,     71,  -2473,  -7187,  12886,  -1757,  -1676,   1613,  -4808,  -3337,   3029,  -1901,  -2836,  -4891,   8309,    378,    258,  -1402,   2016,  -2757,   9014,   3002,  -7422,  -3402,  -3026,   6635,  -3904,   1877,   7133,   8479,  -3297,   1215,  -5604,   2434,   6692,   7247,  -7014,   2494,   9580,   -546,  -4051,     41,   8506,   1649,   4012,   4775, -11888,    -10,   4712,   9946,   4555,  -4096,   -979,   7206,   8338,    581,   5807,    284,   3329,   6498,   1076,   6019,   2754,   -690,   6817,  -2422,    599,  -6371,   7651,   3279,   2714,   2640,   1352,   3557,   1470,  -5176,   -166,   7285,   4798,  -4044,    -45,     43,   5406,  -7495,    765,   1362,  -7483,  -7926,   5738,  -4353,   6492,  -1953,   -387,  -2096, -14914,   6367,   5030,  -1224,   4824,   1772,   2209,  -1154,  -1815,  -3085,  -1468,  -4099,   6120,   6396,   2273,  -4444,
          9721,   5914,   3996,   2056,   2894,   1349,   3843, -10559,  -6391,   2508,  -7418,  -5077,  -4257,   1769, -12423, -11419,   -634,  -4101,   3089,   1317,  -8569,   3166,  -7005,  -3791,  -2140,  -7407,  -4477,   -883,   3315,  -7769,   1653,  -2874,  -7980,  -1381,  -2909,   2040,   3121,  -3661, -11352,  -4011,   6641,   1714,   7971,   6965,   1351,   1576,   2354,  -2068,  19188,  -2559,   6470,   5712,   6808,  -1973,  14659,   1946,  -4808,   7297,  -5407,   5685,   7273,  -7676,    799,   7458,  -9425,  -5911,   7904,  10471,   4094,   5322,    473,  -3490,  11726,   2477,   2875,   9556,   1494,   6569,  -6117,   4945,    797,   1888,  -6542,  -1707,   8155,   5736,  -3996,   6478,   3588,   4345,   3854,    420,  -5633,   1111,   3957,   6678,   4378,  -2169,    334,  -3911,   7908,   -977,  -7394,  -2149,  -9362,  -2907,  -8564,  -3655,   1085,   6558,   5407,   7326,   1230,  -5744,   4853,  -2184,  -5932,  -6561,  14212,  -3957,  -5011,  -6928,   -468,   2899,  -6590,  -6741,   4310,  -1955,  -9541,   -687,  -8617,  -4336,  -2267,   5610,   5644,   2668,   -370,   3694,  -5079,    141,   9014,  -3213,   4529,  -6084,  -7225,  -4414,   1483,   3156,  -5312,  -3498,   2454,  -2512,  -5967,  -5138,  -1170,  -5800,  -2554,     25,  -1386,   6510,   8773,   6747,   2631,  -7606,   7184,    914,  -6056,  -2795,  -7568,  -7486,   -396,    986,   1748,    683,   6332,  -7302,   7880,  -2269,   9596,  -3621,  -3382,  -3571,   -384,  -1884,  -3912,   2022,   2006,  -3145,   2464,   5743,  -1554,   5264, -13868,   5334,  -2741,    998,   -661,  -5133,   2154,  -1863,   2709,   -918,   5650,   2016,   1418,  -4751,   4279,     45,  -2256,  -5552,   6436,  10435,   5600,  -1580,  10367,   6246,  -2492,  -3009,  -1848,    677,  -5092,   6447,   -174,   7797,   8422,  -7156,  -2698,  -7989,   7598,  -7435,   6891,   4211,   2161,   4068,   4221,  -3225,  -1098,   3891,   7239,  -1143,  -6460,   5856,   8771,   5993,  -6126,   4025,   5891,   2979,  11479,  -4076,  -4893,   7577,  -5649,   1212,   7676,  -4763,  -2069,   3306,    330,  -2105,   -446,     -5,   4069,   4898,  -1488,   3501,     88,   3427,   2122,   -402,   -712,  -5758,   -919,   6626,  -3857,  -5336,   1014,   -898,   2249,  -7976,   -321,  -7442,  -1940,   2981,   7283,   1853,   4753,  -6306,  10090,   3588,    465,  -1601,  -4264,  -2272,   5797,  -6551,  -3820,  -7549,  -8475,   2095,   5580,    174,   5980,   4614,  -9386,   4091,   4187,    926,  -3606,  -1299,   -378,   8956,   8879,  -1484,  -1277,   1892,  -2298,  -2439,   5123,    458, -13017,   5736,    -83,   3524,  -2962,  -2108,    -78,  -6538,   7721,  -4880,  -3430,   4508,   -560,  -6224,   -707,   4615,  -4125,   6073,   2102,   4886,   7259,    696, -10834,  -2019,   7342,  -3958,   4446,  -5397,   3819,  -4857,   7232,  -6415,   1241,  -7278,   2667,   1759,   2904,  -1531,   1573,   9210,  -5573,  -6898,   5292,  -4510,  -5000,   1167,   7114,  -6174,  -4376,   6900,   1842,    664,    733,  -5845,   6599,   1309,   1316,  -3885,   5908,   8437,  -4097,  -5820,  -3827,   4144,  22943,   2679,   2374,   3213,   3777,   7121,   4561,  -9573,  12491,   1322,  -8393,  -3027,   6537,  -1913,   1511,  -4988,   2270,   -171,  -5599,  -1659,   2165,  -6361,   9862, -10191,    590,    983,  -2053,   4702,  -2406,  -6288,   5726,   3547,   8926,  -4391,  -2257,  -6806,   6163,   1841,  -2105,   5456,    -88,   2401,   5110,  -3183,  -4463,   -604,   8376,    607,  15831,   1913,  11687,   3080,  -3898,  -2845,   5508,  -3974,  -3697,   7324,   7876,   8548,   4549,   3307,  -6193,   4716,   4218,  -4368,  -7604,  -9670,   4082,  -7973,   5050,  -3157,   4447,   4766,   1428,  -9647,  -5652,   6253,   9501,  -2350,  -1979,  -4338, -13275,  -5483,  -4611,  -2316,  -4322,   -470,   3422,   4576,  -4555,   -756,   2759,   1323,  -2069,   6221,   9230,   6657,  -6991,  -1437,  -3989,  -3748,  -4724,  -2312,   4472,  -5189, -10899,   -398,  -2077,  -2820,   9690,   -411,  -1616,  -4565,  -3094, -10157,  -7539,  -4521,  15256,  -8140,   9397,    377,  -1100,   5239,   5480,  -1860,  -2379,  -4044,
         -4275,    854,  -3216,   4719,   8308,   2615,   7380,  -4203,  -2108,  -3183, -12308,   3922,  -4557,  -5831,     78,   6769,   8900,  -4149, -11273,  -1049,    489,   4097,   -356,  -8021,   3515,  -4603,   3540,  -7964,  -3512,   6193,  -7977,   4857,   3284,   4544, -10776,  -2246,   -810,   -228,   1576,   2767,  -3087,  -3013,   5149,   7019,   6168,   1896,   7582,   5695,  -5640,  -1767,   5776, -10275,  -4739,  -6722,  10352,   8504,   4825,     -7,   1277,  -1318,  -5909,  -5393,  -2660,   7707,  -2169,  -1614,   1906,   6763,  -3129,  -7561,   4536,  -7305,  11304,  -2031,  -2798,  -4927,   1178,   7404,   1236,   -243,  12009,  -6055, -10047,   1369,   4916,   4830,    902,   2233,    -85,   4803,   1820,   6083,   5443,   -546,  -3015,  -6348,  12699,   6281,  -7448, -13271,   1315,  -1154,   4012,  -5349,  -3207,   5914,  -6305,  -2131,  -6430,   4254,  -4963,   8622, -12117,   1826,  -6315,   3133,  -6432,   -471,  -3350,   5643,   8005,  -6470,   3838,   5947,  -6732,  -3391,   4725,    106,    768,  -8275,  -6205,  -1357,  -6007,   -408,   5782,  -6884,  12872,   2127,  -3865,  -6253,  -7946,   6604,   8843,   -771,   5916,  -1917,   3477,   9456,   1741,   5214,  13284,  -3054,   4279,     17,   -939,   7114,  -3987,   3743,  -2897,   1840,   1157,  -2910,   2870, -11098,   -374,   1386,   9645,   4757, -10449,  -7702,  -8791,  -5034,   2742,  -5514,   3703,   6379, -15050,   5085,  -5901,  -1816,   5232,   -575,   7626,   1139,   7497,   1797,   9146,  -3549,   1119,  -1334,    945,     31,  -7153,   3016,   2594,   3588,  -8083,   1385,  -3537,   7426,  14145,   2323,   1268,  -4913,   5206,  -7672,  -3918,   2980,   8630,   3510,  -3272,   5261,   -490,   4039,   1203,   4845,  -2612,    127,  -7955,   5146,  -6107,  -5847,  -2404,   5520,   9547,  -8156,   7022,  -5349,   9667,   -350,    355,   2760,   -593,   -292,  -2133,   -963,  -4824,   7066,   4459,   1272, -17663,    178,  -9237,  -5220,    527,  -3398,   3866,  11358,  11049,   -749,   8667,    433,   4341,  -2337,   5407,   4839,  -6521,   -375,   -556,   -161,  -3826,  -5375,   1714,    957,   1650,  -8867,  -4422,   6861,   5460,  -1456,  -4306,  -1465,   6891,  -2864,   1003,  -7717,   1614,  -2818,   3980,   6524,  -7091,  -1025,   5848,   6135,  -1362,   1070,   -572,  -7358,   2191,   1052,   3918,   5416,  -8902,   2891,  -8584,   9753,   6302,  -5553,    714, -10308,  -6513,  -2783,   6843,   -659,  -6306,   6932,   6640,   4746,  -3754,  -8583,  -5531,  -2795,    331,  -2358,   -781,     -3,  -6153,   7917,  -4647,   4363,   9190,  -8530,  -7780,  -5689,   2451,  -4338,  -7846,   3923,   8719,   3723,  -6931,  -8223,   -868,  -3730,  -4479,   9484,   7008,    873,   2584,  -2311,   1467,  -2363,  -8499,   8969,   2311,  -5789,   6938,  -1635,  -3800,   3217,   3013,  -3860,   6450,   5276,    218,   4194,   1256,   3863,  -3192,   8020,    -47,   1394,  -5504,   4166,  -6059,  -2835,  -3102,   5259,  -3620,   6208,   -544,  -9621,   1083,   3277,  -6759,  -4323,  -5720,   3907,   7240,   2181,  -5946,   2499,  -2816,   -654,    308,   5403,  -5787,   7253,  -8855,  -5984,  -6008,   8430,  -1646,  -2862,   -255,   5938,  -8641,  -5282,   4189,   2422,  -2794,  -6314,   -991,  -7557,  -1986,     47,   2372,   6600,  -5578,  -7841,   8008,  -2086,  -6894,   1094,  -1240,   3295,   7163,  -1430,   -509,  -2821,   2525,   1455,  -6734,  -2725,   1465,    922,  -8210,  -2495,   2310,   6516,   5240,   3157,   2720,  -5403,  -1176,  -7979,   3065,   -658,  -8614,   4261,   3920,  -5583,  -2400,   1390,   1011,   1510,   3362,   5172,   7072,  -5456,   1545,   -442,  -6727,   5140,  -8345,   -494,   -414,  -3506,  -1414,   7421,   2080,    924,   4271,   8726,  -3746,  -7135,  -8690,    549,  -7847,    612,   7132,  -1423,  -3156,  -3499,  -2703,   7581,   4702,    680,  -6029,   1143,    574,    177,   3499,  -8593,   4711,   -711,     20,  -2721,   3611,  -7299,   7583,    701,  -4500,   7820,  -4474,  -1502,   -513,  -5915,  -5107,  -1046,  -5370,  -4502,   4387,  -8062,   6720,  -5973,      8,  -1026,  -7634,  -3335,  -6318,   2451,
         11927,   6711,   5627,  -8938,  -5252,   1299,   2839,  11233,  12377,  -5731,  -4987,   5981,  -4822,   7458,  -8342,   5707,  -1142,  -8542,   5424,  -8704,   2962,   7215,   2491,    224,   7716,   2678,   8022,  -1544,    646,   -177,  -1347,   3662,  16497,  -7714,  -7049,  -8834,    447,   4660,  -8359,   4517,  -1045,  -2148,  -1162,  -4956,  -4130,    -48,   6644,   7124,    -25,  -2744,    392,   1899,  -2988,    590,   -951,  -2790,   1507,  -2186,   5463,   2319,  -4677,   1803,   4901,   6337,   7409,   4831,  -6402,   4579,  -7720,  -1049,   6099,  -2492,  -5662,  -2435,   6633,  10824,   5410,   3571,  -5574,   7296,   2057,   -680,  -8534,  10125,   7073,  -4668,   2304,   2716,   5603,   3088,  -1734,   5815,   5439,  -6189,   5975,   5491,   3212,  -8197,  -2374,   7010,   8331,  11129,  -2310,   1243,   6623,  -6684,  -2522,   5754,  -5181,   -200,  -5392,   6474,   6742,  -4075,  -4871,   5556,  -3413,    418,   4816,   8256,  -4224,  -3816,   4115,   3077,   7313,   1346,   7140,   2452,   2694,     72,  -6946,    207,  -6271,   1553,    794,   3802,  -8721,   3665,  -7497,  -1203,   4596,  -6634,  -3840,   -733,    282,   -503,  -2951,   5732,  -7654,  -6916,   3081, -10164,   1756,  -4439,   5024,  -6480,   5730,   3358,   4988,  -5958,  -7327,   6399,  -4679,  -5533,   5000,   5588,   5941,   5850,   3236,   3284,   6730,  -8547,  -2190,  -1119,   5729,   6669,  -3910,  -3689,   6098,   7831,   6661,   -373,   4620,  -3739,   4590,   4042,  -3276,   1146,  -5268,   4416,  -7847,   6090,  -1213,   -105,   5800,   5421,  -5868,    116,   3091,   1462,  -6413,  -2461,  -2106,   4312,   4937,    332,   2625,  -3102,   8113,  -8815,  -7128,   4393,   -113,   2351,   4685,   6867,   2511,   -544,  -5014,  -1262,   3335,   7548,   5073,  -6891,  -3684,  -2492,   2514,   2601,   2472,   9080,   1910,   6173,   8540,   5407,  -3539,  -5275,   6010,   1384,  -2456,    814,   5305,  -7324,  -2315,  -4976,   2995,  -3836,  -2549,  -1668,   -224,   -735,    426,   8800,   1876,  -4798,  -5533,   4117,    -60,   1862,   7348,  -3836,  -8574,  -4056,  -4615,   2729,   4335,  -3158,   4844,    613,  -6501,  -4397,  -5078,  -3924,  -2527,  -1019,   6644,   6583,  -9029, -10551,  -1966,  -7643,   1639,  -3129,   6574,  -6416,  -4160,   3755,  -7459,   2259,  -2013,   1964,  -2297,   2684,  -1623,  -6829,     -9,  -4398,   5659,    992,  -3032,    918,  -4937,  -5774,   3330,   3798,   2614,  -8095,   5154,   6563,  -4759,   1285,  -5329,  12306,   2406,  -2672,    537,  -6719,  -6050,   7686,   2886,   1120,   1727,   2459,   7008,  -2368,    792,  -4702,  -1812,  -5886,   2021,   1051,  -1562,  -8017,  -2964,   6060,   3150,   8317,    778,  -7860,   -154,   6974,   6327,  -6645,  -1700,  -2112,   -996,   -314,  -3958,  -7076,  -5120,  -5875,  -6208,  -3358,   -598,  -5487,   4232,   5979,  -6272,  -8001,   6221,  -7059,  -1103,  -6086,  -7420,  -4277,   6307,   2157,  -4840,  -7279,  -1936,   5012,  -3533,  -9498,  -6945,   7164,  -1637,   2079,  -4487,  -8215,   4422,   -536,  -2339,   -461,  -2719,  -2554,   4281,  -8184,  -3718,  -1201,   3681,  -3268,  -5190,   4388,  -1537,    899,   3037,   3215,   -927,  -1430,  -1636,  -1341,  -6803,   2913,  -8697,   3005,   5797,   4197,   5413,  -7575,   -963,   4018,  -2782,   1046,   1491,  -7933,   -213,   1517,   3866,   2656,  -2215,  -5324,  -2078,  -4847,  -2326,   2767,   8768,   -328,    408,  -1379,  -4346,   -788,   5529,   3781,   2483,    -42,  -5771,  -5189,  -1100,   6960,  -2403,   4443,   2640,  -6430,  -2021,   4416,   -984,   3419,   5261,  -2789,   3730,   1489,  -5682,   7601,  -7517,   2654,   3235,   2694,   5356,  -6933,  -7367,   9070,   5783,   9890,   3018,    709,  -5615,   1089,   1186,   2283,  -6508,   1432,  -4166,  -7377,  -5417,   2825,  -4740,   7798,  -1457,   7772,   2771,   4010,  -1578,  -5859,   3706,  -1103,  -3259,   9577,    218,   2749,  -1787,  -8009,   5137,   8297,  -8451,    280,   5698,   -420,   5006,  -8844,  -4092,  -5889,   1774,   8030,   5061,   3191,  -5459,  -1949,  -8371,  -3554,    521,   1853,    625,  -4980,
          3691,  -7124,  -7997,   9289,   3877,  -5131,  -7989, -11082, -12942,  -2965,  -4278,    163,  -2002,  -5478,   4267, -10485,  -1738,    812,   5247,   3701,   8172,  -2151,   1802, -11240,    665,   4371,   3732,    930,    882,   2889,   3092,  -3771,  -8894,  -1625,  -6788,  -4098,  -6061,   7760,  -1172,   1561,  10416,  -6476,   3335,    479,    234,   5180,  -4458,   9164,   -650,  -4033,    341,   5327,  -1858,   6090,   3787,  -5577,   7271,   1379,  -4595,  10393,  -7482,   2647,  -4842,    498,  -4256,  -5831,  -7487,   6906,   2318,   4465,  -1348,  -9014,   1787,  -2855,    797,   4528,  -4488,  -3212,  -6281,   5837,   4686,  -4196,   3087,   4165,   7788,   6929,   6562,   4672,  -3101,  -7293,   4214,  -1866,  -7139,   -215,   2672,   2936,  -8062,   4975,  -7493,   1969,   5729,  11977,   3932,   2879,   6559,  -6911,   7057,  -5952,   6261,  -3077,   5369,    612,  -5521,   3431,  -3835,  15408,   2094,  10066,  -4463,  -5265,  -6927,   5034,  -1936,   6044,  -4895,   3157,  -1217,   7261,   4196,  -5262,   3020,   5026,   2420,   4767,   2521,   9943,  -3301,    994,  -6232,  -3182,  -2500,  -3719,  -6690,   5865,   3150,  -7462,   4995,  -9982,   8511,  -5808,   3834,    751,   4078,  -3882,  -2203,   -489,  -6954,    252,  -7011,   1340,   1654,   6604,  -3649,  -4578,   3072,   8104,  -8226,   2567,  -6008,    -52,  -1719,  -8055,   1870,  -5605,  -2157,  -3410,   2734,  -5789,   1358,    471,   2493,  11929,  -6428,  -5747,   5540,   -424,  -5801,  -2420,   7293,  -3399,  -7159,  -5735,  -2161,  -7402,   -320,    443,  -6679,   5772,   1530,     86,   8699,   3690,   1650,  -3763,   4567,  -3625,   -509,   3005,   1432,   6813,    361,   1683,  -3083,  -1235,  -5975,  -9575,  -6556,  -5533,  -7410,   2396,   1143,   -155,  -5900,  -5943,   3199,   6091,    832,   4551,   7587,   7813,  -1751,  10098,  -1830,   2290,  -3238,   7583,   4120,  10534,  -8007,  -2553,   4636,   -327,    163,  -7002,    451,   1037,  -5610,   4255,    161,  -3876,   2063,   8264,  -5370,    866,   2104,   2147,   7262,   1291,   5288,   6606,  -1691,    680,  -6672,  -3453,   5050,   5465,   -359,  -7657,   6631,   -624,   4440,   1580,  -1732,     -3,   6872,  -5967,   4217,   4350,   4231,   3891,   6382,  -1014,  -2018,  -4047,  -5795,  -2670,  -6344,   1825,  11218,   3291,  -4280,  -9170,   1918,   8673,   2446,  10759,   1302,   5933,  -5279,  -1125,  -7181,  -2534,   -698,  -2943,   4246,  -8548,   1220,   8095,   3180,   8139,  -7157,   4581,   9774,    600,   2011,   4591,  -7823,  -4523,  -7827,   5629,  -4679,   3976,  -8254,    469,   -833,  -3257,  -6778,  -3292,  -4436,   2713,  -7166,    320,   8329,   2006,  -6803,   2599,  -7236,   2655,  -7566,  -4438,  -1113,  -1849,   -375,   4559,  -1249,   4525,  -7508,  -1709,   5438,  -5923,   1012,  -1652,  -2043,   2294,  -5534,   6741,  -3503,   9691,   1675,    850,  -3609,  -2825,  -5785,   8942,   4282,   2107,  -3286,   3824,   2377,   2228,  -1245,   8486,   3098,  11768,  -1350,   8838,  -2051,  -4694,   3228,   1693,   5804,   7593,   6492,  -2108,  -2069,   4398,  -5992,   1269,  -6657,  -1902,  -7228,  -9701,   2179,   7611,    176, -11230,   6069,  -5721,  -3527, -12495, -14465,   4987,   -513,  14210,   5616,  -3291,   2457,  -4748,  -4093,  -2128,   -801,   4617,   6889,  -6798,   1405,   7250,   7103,   5537,   3376, -16893,  -2362,   2745,   2222,  -5455,  -4889,   5049,   2931,   6758,   4160,   1340,    441,  11386,  -4886,   1056,   6287,  -2253,  -6459,   3240,  -4201,    664,   -254,   -336,   1929,   7938,  -2934,   9852,  -2903,   4569,  -8766,  -8381,  -2853,   9873,   1607,   8266,  -4217,  -7312,  -1444,  -6661,  -6427,   5386,   -989,  11513,   1399,  -5122,   1452,  -1978,    520,   2710,   1484,   5557,  -7798,   2616,   2756,   3155,   5954,  -5582,   1051,  -4946,  -1389,  -4284,    460,  -8915,   4262,   2252,   7908,   9110,  -1943,   1117,    438,  -7275,  -5490, -11577,  -4999,  -5045,   4816,   3755,   8157,   5485,   4285,   6502,  -2917,   8289,   -431,  -1913,   3810,  -2127,   -685,   5752,   6053,  -1948,   3695,  -1182,
          4608,  -4761,  -2979,  -2297,  -1778,   8610,  -8563,  -2960,   9768,   6855,  -4156,  -9051,   -791,   6009,    214,    659,  10161,  -3557,   5049,  -3764,   7684,   4026,    393,  -3336,   1869,  -4539,  -7394,  -5722,  -2206,  -5234,  -3456,  -3683,  -2652,  -8015,  -2212,   1582,    708,   3187,  -7669,  -3248,   -432,   -772,  -6452,    198,   6921,  -1351,     69,   8797,   5264,  -2538,   5624,  13323,  -8014,   4017,  -7973,   3593,  -6481,   1875,  -7315,   7197,   1952,   -948,  -8008,  -4763,   4617,    -85,  -7518,  -6255,   3512,  -4074,   1250,  -1353,   9752,  -6230,   2038,  -5837,  -6920,   4905,  -6043,  -1088,   2453,   1791,  -8157,  -6890,  -4271,  -2546,   2825, -10430,  -3587,  -7422,  -3279,   6083,  -6002,  -6590,  -2837,    -95,    337,     15,  -7257,  -5590,   7394,  -6468,  -7827,   8111,   6391,   2458,  -6268,   3268,   3509,  11235,  -3754,   5205,   2396,   5015,  -6349,   1734,   1992,   1596,    443,   8029,   -795,   -949,   5003,  -5592,   -973,   7393,  -7942,  -6574,   4370,  -5988,  -3820,   3365,  -7534,  -3761,  -8332,    818,  10392,    969,  -7375, -10816,   7746,   2462,  -7235,   9966,  12596,  -3940,   6812, -19803,   5461,  -8086,  -4523,  -1714,  -1676,   6277,   3022,  -5559,   7871,   6433,  -2158,  -3755,   5243,  -1810,  -4693,    669,   2853,   3191,   6997,   5767,   6552,  -3328,  -1388,  -6289,   2295,  -5756,   3578,   7496,   4956,  -2684,  -6522,  10596,  -1593,   1283,  -5015,   6786,     -1,  -6677,  -1628,   7382,  -8404,  -3856,  -7243,   4075,  -2095,  -7629,  -4849,  -3717,    584,   6903,   2931,   6511,  -4821,   3625,   2448,  -4177,  -3093,   4215,  -5857,   2956,  -2361,  -5402,   5346,  -2396,   1907,  -9398,   3625,   2342,   -360,   1630,  -7348,   5859,  -2437,   2663,   2229,   4773,   8654,  -1698,   2093,  -1616,  -4397,   9348,  -3917,   8434,  -1895,  -6992,  -5170,   5070,   -905,   3790,   -523,   4197,   3268,  -6255,   -496,   3581,   2929,   1350,   -975,   4414,   9730,  -1908,   2609,    381,   6855,  -2484,   7059,   6863,  -8440,  -1809,   -337,   5173,  -3924,    552,  -2209,  -8347,  -4164,   -102,   1105, -12416,    515,  -6162,   2163,    377,  -9853,  -1655,  -5401,   7501,   2252,   4181,  -6374, -12964,   4179,  -2082,  -3317,   4974,  -2278,  -7167,   3734,  -5808,   4506,  -2394,      1, -12899,  -2731,   1591,    620,   9256,   6178,   6168,   6731,   8285,   5042,   3190,   -774,   2712,  -1070,  -1459,  -5049,   5188,  -5239,   4081,   2817,  -5809,  -1877,  -4956,   1588,   5375,  -2827,   -746,    738,   5833,   -127,  -8357,   3418,    375,    558,  -1526,   4953,  -1632,    281,  -6562,  -2537,   3365,   -116,   9928,  -1035,  -2076,  -5637,    210,   1754,   -174,  -5206,   2627,   2142,   3460,  -6543,   7940,  -1962,  -3509,  -7390,  -3599,   2648,  -8015,  -7110,  -8074,   5138,  10801,  -4459,   8412,   5616,   6493,     62,  -7047,   7354,   3663,  -2613,   4202,  -5097,   -344,  -7165,  -1322,  -7936,   1137,   1869,  -7089,  -4924,  -4989,   8711,  -3459,  -7837,  -2823,  -2429,  -5290,  -8549,   6720,   9772,   5600,  -5475,   5339,   -753,  11476,   2254,  -2388,   9826,   1379,   4429,  -1363,  -5569,  -1454,  -5656,   9510,   3134,  -1168,   1361, -10197,   5125,   6553,   2838,    781,   1337,   -104,   6585,  -3813,   5970,  -3103,   2267,    808,   5394,  -3638,   -746,  -5837,  -6414,   4690,   2147,  11290,   5222,   -695,  -5832,   4424,  -8386,  -6631,   4849,  -1699,    652,   4474,   5755,  -1729,  -4449,  -1016,   4967,   4698,  -4102,  -5258,   2487,   6596,   6250,   3371,  -3588,   8431,   4535,   3002,   2446,    -30,  -8051,  -5427,  -2783,   1366,    604,  -7690,  -7944,    225,   5686,   4603,  -4948,   1598,  12939,  -1972,   3968,  -3022,    103,   3402,   6053,   6001,  -5382,  -6051,   -952,  -6074,  -6358,   -339,   1908,   6462,  -3000,  -1185,  -8468,   -813,   5348,   5767,   2545,   -235,   2830,   6460,  -5375,  -6538,  -8715,  -5642,   2859,  -1483,   6553,    924,  -6217,   4720,   5718,   9067,  -2052,   6656,  -5712,   3183,   1120,    221,  -6440,   1473,  -4814,  -4787,
         -1265,   5657,  -4593,   1152,  -9046,   7318,  -4814,   6824,  -2067,   3858,   5035,   1136,   7208,   6013,   1008,   5774,  10276,   1518,  -5688,    374,  -6633,  -5896,   -602,  -4223,   4615,   5809,  -3859,  -2998,   -351,   7034,   1500,  -2851,   5730,    450,  -2448,    234,   1241,  11327,    904,   5457,  -4168,    763,   1712,    229,  -4046,   3646,  -3575,  -3458,  -3428,   6434,   6367,    -79,   4948,   1896,    525,  -4246,   -296,   -806,   2670,   3516,  -6399,   -959,  -1424,   3658,  -4513,  -7673,   6777,   7603,   5885,  -4323,   1772,  -3800,   3701,  -1614,  -2967,   9654,  -5525,  -2247,  -3694,  -3651,  -4708,   5645,   2430,  -5016,  -2648,  -7096,  -7835,  -8078,   3471,   7283,  -4473,  -2078,  -7859,   6310,   3281,  -2095,  -1344,   5727,  -1748,   4640,  -7812,   9744,   2986,   4502,   7665,  -3678,  -2478,   7838,  -3237,  -5196,  -6514,   8334,    134,  -3770,   4424,  -3839,   4470,  -3268,  -7539,  -7133,  -3599,  -6333,   1032,  -3260,  -8159,  -3402,  -8094,     86,  -1283,  -7895,    774,   8642,  -3049,    197,  -6921, -13939,  -6539,  -7831,   6327,  -2535,  -7092,  -1566,  -2166,   2770, -11602,   7190,  -8862,  -3942,  -9171,   -320,  -4013, -10913,   3527,  -5277,  -5368,   1069,   5496,  -4797,   1990,  -3978,   3989,   3813,   -833,    131,  -9675,   3815,  -1109,   9025,   2838,  -5900,  -1241,  -4845,  -2504,  -7398,   5808,  -8162,  -2203,   2933,  -3453,   7402,   4443,  -6864,   6744, -12929,   4808,  -3063,   -939,   1801,   5920,  -7329,  -3653,  -8219,   -255,   4221,   2074,   5961,  -9565,   5829,   2951,   1362,  -8405,  -5983,   5598,  11253, -10132,   7065,  -3173,  -1203,   8302,   1824,   2982,   3686,  -2982,  -5457,   -374,  -3446,   5839,   4934,   1724,  -1997,   1252,   5479,   6761,  -2879,   4971,  -3377,  -1539,    -88,   2541,   3022,  -6692,   3356,  -2963,   3223,  -4576,   5102,  -7004,   6722,  -5058,  -1054,  -1102,   1435,   6878,  -4433,   5242,  -7425,   6628,  -3688,  -3938,    446,  -1885,   3617,  -6788,  -4958,  -2249,   3467,  -3560,  -7468,  -6792,   6412,  -7376,    617,   -173,   5612,  -2910,   4142,   1333,   6866,  -4345,  -1873,   5489,  -4955,   5898,      2,  -7673,   2211,   1448,   6509,   2733,  -2806,  -5076,  -1196,  -1736,   7690,   2866,   -153,  -5678,  -1615,  -5595,   4043,  -7893,  -3102,  -8012,   3652,   2416,  -3439,  -5454,   1592,  -7711,   4540,   2687,  -6470,   1203,    415,   2186,   2759,  -8978,  -2116,   -995,    461,  -5063,   3837,   8739,  -8164,  -4742,  -6368,  -4781,   8065,  -7699,    293,   7832,  -5943,  -4911,  -4800, -10504,  -7574,   3188,  -7875,   4829,   2940,   -913,   2378,   5027,  -2803,   -487,   2658,    781,    146,  -2313,  -3305,  -2978,   -287,  -5330,  -7559,   7710,   1042,  -5435,   3967,  -6734,  -6418,  -5196,   5700,   3265,  -5763,  -2288,   4475,   5633,   5009,   3840,   -890,   1361,   3800,  -3815,   7234,   3230,   2045,    670,   -817,  -5215,  -7688,  -6316,  -1102,  -7502,  -3777,  -4002,   2219,  -2276,  -3202,   5475,   1443,  -1569,   6248,    390,   -857,    264,   3102,  -3449,   2911,  -4645,  -1903,   3959,  -3428,  -2854,   2922,  -1092,   -864,  -5810,  -6146,   3218,   2707,   1357,  -6259,   -708,   -728,  -4856,   4511,  -8367,   3197,   1640,  -7346,   2741,   1498,   1221,  -3357,   3086,   4467,    800,  -2563,   1074, -12348,   3638,   2483,  -6298,  12089,   5213,   6680,  -5765,    129,  -3885,  -8080,  -2204,   -313,  -2186,   5637,  -7384,  -1302,    511,   4538,  -2130,  -2496,   6921,   5457,  -4904,   6899,   -861,  -3442,   6319,   -761,   6654,  -8724,  -1169,  -4099,   -820,  -3185,   3718,   4384,   3011,   5127,   1867,  -1534,  -9354,   5805,    595,  -3845,    880,   2870,   4100,  10117,  -3998,  -3899,   4914,   6561,  -7138,     -6,  -7996,  -1289,   5747,   4695,   6074,   5006,  -4932,  -8996,   6485,   9230,   2195,  -2377,   6067,   1406,   -606,  -2936,   3346,   5013,  -8950,   6528,   1521,  -7562,  -5118,   -960,  -7065,  -8003,   5789,  -1855,   2403,   4982,   2821,  -6493,   7099,  -3162,  -3105,  -2657,  -1715,    361,
         -4094,  -3586,   1173,   3408,   1158,   1400,  -6580,  -6779,   -657,  -8430,  -1930,  -6898,  -6696,  -1689,   2258,  -2637,  -3106,  -7856,   2357,  -2865,    582,  -2860,  -7016,  -4399,   6990,   2126,  -3927,   4423,   -131,  -7829,   1627,   -263,  12788,  -7957,   4614,   8352,  -7809,   8249,   1321,   9512,  11121,  -3832,  -7617,  -3654,   2320,  -4498,  -7122,   3150,   -294,  -5795,  -3683,  -3878,  -6605,  -4967,   -657,  -1672,  -3090,   3360,   2232,   4952,  -4180,   -267,    894,    616,  12997,   6798,   7112,     43,   3280,  -1059,     80,   9861,   5617,  -3769,  -4186, -11219,  -5885,    274,   2903,   8950,   8880,  -8176,  -2162,  -1734,   3140,   6873,  -1930,  12326,  -7154,   2131,   -439,   2553,   4562,   1469,   2961,   2688,  14066,   3230,  -6068,  -6894,   -629,   7526,   2694,   5774,   1661,   -945,   1716,  -4355,  -1299,   4124,  -1822,   1786,   9507,  -2271,  -1714,  -8626,   9013,   4747,  -3688,  -2287,   1049,  -8962,   3543,   6451,   5437,   1858,  -1157,  -4176,   4615,   4803,   2336,  -5172,  -9266,   -146,  -3405,  -5412,   -755,   4681,  -4766,    963,   2426,   2065,  -1336,    522,  -3783,   3317,   2850,   1199,    436,  10423,  -4447,   8116,   -775,   2531,  -2082,  -4455,   7163,  -1397,  -2894,    978,   -349,  -5564,   3432,  -2215,  -5607,   3931,  -2890,   6610,   5408,    470,   -160,   1047,   1856,  -5133,  -6765,   7633,   6666,   3256,  -6291,  -1162,  -6884,   3331,  -4878,  -1397,   6493,   -606,  -2057,  -1096,  -1302,    865,  -6488,   -521,  -4755,  -4633,   5028,   5223,  -8740,   7237,  -4345,   4270,   -297,   6371,   5496,  -8882,  -2604,   -973,  -4405,  -1335,   3862,   2679,   1590,  -3976,   5170,   -460,   2162,   1207,  -1963,  -7028,  -4738,   4300,    266,   6486,  -1457,   1329,  14885,  -8826,  -4749, -10859,  -1723,   3664,   3087,   5462,   8404,  -5967,  -1937,   7029,  -7621,   5201,    262,  -3413,   9116,  -1928,  -4359,  -6364,   2793,   5271,   5656,  11765,   8566,  -1951,  -4162,  -2122,  -2220,  -1456,  -7462,  -7154,  -5137,   2337,  -7174,  -8945,    -81,   3296,  -5918,  -5447,  -3569,   2982,     57,  -8344,  -1344,  -7225,   1372,   6117,  -4293,  -3780,   1200,  -1380,   -481,   3572,  -7700,  -1026,  -1566,    929,   8000,   2774,   3892,  -4704,   5107,  -6128,   7167,    909,   5544,  -2347, -10174,  -3273,   2989,   9178,  -2375,   5577,    758,   4666,  -2069,   2096,   2229,   6708,  -4675,  -2373,  -9066,   5551,   7680,   3698,   -640,   5720,   -185,   2176,   4628,   3005,   3583,   5191,   4802,  -2388,  -8326,   -505,  -5322,   4151,   1775,  -2702,  -3495,   6783,  -3579,  -2658,   3726,    554,  -4543,   1811,   3895,   -413,  -3555,  -4355,  -1504,   8794,   -387,    609,  -3216,  -4204,   1964,  -1899,  -2361,   1921,    124,  -3210,   4784,  -3725,  -5954,   1959,   7334,   2108,  -1227,  -1924,   5858,  -5299,    748,    401,   4424,  -4009,  -2385,   1623,   4119,  -7050,   2768,   2247,   2819,   3487,   -799,   2990,   3193,   7965,   3103,    725,  -1131,   8159,   -848,   7608,  -1253,   1911,  -7137,   4141,  -7360, -10018,  -2960,  -5481,   1329,   1168,  -4805,  -6229,   3072,   2352,   3444,  -1801,  -4674,  -3010,   4295,  -9106,   8796,   2476,   6533,  -2732,   -658,   3416,  -5445,   1367,   6019,  -2337,   1720,  -1669,   3114,   6403,  -2879,  -6231,   3340,    595,  -2678,  -8974,   7783,    981,   5771,   4047,   6207,  -2801,  -5431,  -5261,  -1272,   5700,  -6848,  -3542,  -8493,  -3607,  -3537,   2531,  -5446, -12030,  -5606,   4732,  -1612,   9301,    530,  -4310,   6209,   1514,   6378,  -6218,  -1408,   3918,   2385,  -3329,   2867,   6872,   6952,  -4172,   3981,  -2526,  -2037,  -4751,   2799,    -75,  -2777,   -955,  -4923,  -7555,   6375,  -4927,   3318,   6111,  -3637,  -4014,  -3767,   2652,   -297,    150,    754,  -1677,   7110,  -8129,   7200,  -2855,  -1453,  -3084,   2933,   8009,   4846,  -7082,  -4574,  -2447,  -6683,    432,   2302,   6796,  -6210,  -5001, -14800,   6046,    380,   1785,  -4026, -14746,  -1129,  -1029,  -5724,  -6586,   2995,    171,  -3117,   4676,
