#include "birdnet_tf_conv_optimized_coefficient.hpp"
using namespace dl;

namespace birdnet_tf_conv_optimized_coefficient
{
    const static __attribute__((aligned(16))) int16_t statefulpartitionedcall_sequential_conv2d_biasadd_filter_element[] = {
         11454, -16312,  -7429,  11119,  -7513,   7421,  -4518,  -6909,   -854,  -1663,   2061,   7417,    786,  -2718,  16607,   4091, -10686,   7128,  -1984,  -2932,  -1989,  -6007,  -3958,  -3567,  13363,  -8681,   1474,    -54,   8521,  11307, -13060,   -832, -12267,   -550,  -6037,   -856,   8292, -13459,   9680,   5877,  -6872,  11671,  -3406,   -502,  -4331,   6531,   6958, -10697,   6596,  -5410,   5770,   3240,   5042,   9491,  -9392,   -321,   2382,   7808,   5518,   5648,  -8370, -11248,   7046,   7588,  -2739,   7831,   6250,  -7918,  -1793,  -1840,  -5781,    408,   9075,  -6537,  -3620,   5860,  -1964,  11654,  -3589,   1758,    461,   -281,   6986,  -8768,  -6319,  -5677,  14224,  10574, -11059,   7321,   5112,   3332,    788,  -9491,  -9715,   1508,  14044,  -5169,  -1459,    870,  -9603,   8085,   4369,   4673, -12799,   4697,  12443,   9431,  -4033, -12784,   4539,   7813,   1460,   -690,   3967, -10125, -10679,   7780,  -1892,   6415, -14137,   -155,  -7025,  -4358,   4683, -10318,   9433,  -2576,  -3985,  -8705,  11685,  -2120,  -7960,   3013,  -1504, -17572,   8506,   7833,   3666,   8112,  -5287,   8520,   5972,   4010, -14524,   2011,   4553, -11075,  -1835,  -6786,  -2851,   5308,   2801,  -9476,  -4447,  -4872,  -9262,  -6979,   4428, -18721,  14369,   8006,  -6358,   8583,  -4193,   9391,   9583,  -1380,  -6786,   6919,  11534,  -7005,  -2983,  -6567,  -3448,  10414,   4391,  -7518,  13721,   8306,  -4145,  -8057,  -5933, -16676,   5056,   1927,   3785,  -1253,  -9020,   4431,  10076,  -7131, -15537,   6831,  -7402,  -4862,  -1359,  -8176, -10861,   9603,   7364, -11263,   -125,  11198,  -5399,   -894, -11172,  -2471,   5008,   9949, -10644,  -2943,   7368,   6327,    546,   8253, -11861,   9912,   9286, -12065,   -860,  -1122,   2143,   8858,   3719,   2790,   8119,   9278,  -8308,   9891,  -3542,   -617,  13327,   5729,  -9515,  -5793,  -6416,  -1981,  -2403,   7480};

    const static Filter<int16_t> statefulpartitionedcall_sequential_conv2d_biasadd_filter(statefulpartitionedcall_sequential_conv2d_biasadd_filter_element, -16, {5, 3, 1, 16}, {1, 1});
    const Filter<int16_t> *get_statefulpartitionedcall_sequential_conv2d_biasadd_filter()
    {
    	return &statefulpartitionedcall_sequential_conv2d_biasadd_filter;
    }

    const static __attribute__((aligned(16))) int16_t statefulpartitionedcall_sequential_conv2d_biasadd_bias_element[] = {
           938,   1738,   -796,   -815,   -596,    824,    204,   -822,   2949,    -17,  -1018,   1351,      0,   3548,    980,   -305};

    const static Bias<int16_t> statefulpartitionedcall_sequential_conv2d_biasadd_bias(statefulpartitionedcall_sequential_conv2d_biasadd_bias_element, -15, {16,});
    const Bias<int16_t> *get_statefulpartitionedcall_sequential_conv2d_biasadd_bias()
    {
    	return &statefulpartitionedcall_sequential_conv2d_biasadd_bias;
    }

    const static Activation<int16_t> statefulpartitionedcall_sequential_conv2d_biasadd_activation(ReLU);
    const Activation<int16_t> *get_statefulpartitionedcall_sequential_conv2d_biasadd_activation()
    {
    	return &statefulpartitionedcall_sequential_conv2d_biasadd_activation;
    }

    const static __attribute__((aligned(16))) int16_t statefulpartitionedcall_sequential_conv2d_1_biasadd_filter_element[] = {
          7557,   3648,   9296,  11225, -11791,   1169,   1924,  -1341,  12624,   6358, -12783, -11322,  -3251,   4147, -10716,   9114,   -778,  -4830,  -6958,  -6968,    126,   8191,   4494,   3753,   8085,  -8642,   8536,  -8147,  -8105,  -4645,  -7461, -10104,  -6870,  -1649,  -6521,   3263,   -679,   -446,  -2753,  -5465,  -7331,   7544,   6225,   4658, -10276,   -110,  10096,  -6216,  -9512,  -2245,  -5725,   7094,   7238,  24265,  -2645,  10984,    937,   8135,   -608,  -3452,  -7484,  10243,  -2735,  -7118,   6354,  -6378,   3244, -20029,   5983,  18737,  -9668,   1592,   4591,  -6392,   9289,   1409, -10248,  -3650,   9442,   6525,  -3446,  -2004,  -7450,   9205,   5607,   1618,    842,   -758,    130,   2099,  -4558, -12098,  -5740,  20913,   -365,   9952,   2090,  -1970,   8139,  -2309,  -6845,   -920,   -582,   6551,   2738,  -5906,   5503, -12989,   1215,   9041,  -9391,   1173,  10998,   6796,  -3190,  -6732,   1300,  -3094,   3261,   9513,   5254,  -5428,   2965,    752,  -4547,   -724,   9820, -12238,   -990,   3240,  -7435,   3683,    636,  20283,  -2497,   7926,   8657,   4822,   5991,   6182,    978,   2124,   6117,   6858,   9595,   -871,  -5021,   4603,    272,   5870,   3018,   -810,   2533,  -4187,  -6837,  -5580,  -9559,   8624,   1187,  -1853,   1720,   6480,   4750,   7425,   4326,  -5427,  -1911,   8763,  -7169,  -6024,    953,  -8190,   3458,  16029,  -7413,   3209,  13624,   -495,   5533,   8327,   -163,   2297,   8955,  -7377,   1528,   1274,   4008,  -3082,  -5369,   3217,  -5476,  -8479,   2317,   1874,  -7032,  18781,  -6135,  -3715,  13020,  -4422,  -8272,  -9868,    769,  -7214,   3022,   4816,  -2554,  10491,  -3877,  -3068,  -4930,   7125,    873,  15360,   -142,   -217,    105, -11692,  -4877,  -6332,  -8967,   1747,   2026,   8043,    309,   2672,  -7178,   5859,   3420,    269,   9242,  -2121,  -3915,   7595,   7420,   7338,   3393,    828,  14749,   9493,  -8266,  -8940,   -608,   3120,  -3026, -16673,  11102,   4005,  -8672,   9709,  -4969,  -3290,  -1319,  27191,  -5562,   1257,  13972, -11730,   3553,  -9195,   4660,   3366,  10452, -10120, -11039,   7135,  -3861,   3264,   7609,    949,  -3717,  -1433,  -8923,   4500,   7106,  -5001,  -9455,  -3485,  -6996,   8259,   1468,   1517,  -9317,   5722,  -7882,   3703,   2542,   4480,   3174,   3484,  -6963,  -7029,  -2901,   8225,   -356,  -7814,   6342,   1752,  -4621,   4424,  -8547,  10427,  -6094, -10922,  -1476,  -6631,   -588,   4720,   -409, -13974,  -1932,   3971,   4762,  -4482,   2763,  -8891,  -2117,  -6650,  -2447,   5144, -10318,   5405,  10332,   -132,  -7271,  -4192,  -4918,   7282,   3748,  -6406,  -7162,   5773,   6068,  -5872,  -6215,   1083,   -696,  -2677,  -2581,   1435,  -8313,  -6149,   4533,  10940,  -2309,   2548,  -2266,  -3016,   3025,   7528,  -7632,   2918,   -263,  -3310,    341,   5551,   9370,    935,   8770,  -4600,  -1884,    576,   4020,  -6040,   3780,    206,   5777, -12185,  -5565,    936,  -3495, -10154,   3304,  18043, -10962,  -7156,  14794,   -404,  -9495,   7054,   8802,   5513,    515, -10488,  -1075,  -5283,  -4865,  13606,  -2418,  -4036,   7006,  -9044,   3486,  -2679,  -4340, -19499,   1036,  10632,   1408,  11622,  -8808,   -921,   8038,  -3148,  -6028,   3247,  -5269,  -3989,   1098,  -8774,  10178,  -1082,  -1447,   -225,  -8553, -10470,  -2907,  -3662,   3260,   4770,  -5866,   9074,  -1726,   5069,   5870,  -8964,  -2755,   2843,   3513,  -6554,  12579,    756, -16350,   2319,   7993,   8206,  -1119,   7406,  -4956,  18953,  -1666,   3257,  -1170, -13398,  -6846,   1321,   1552,   9861,   8184,  -9568,    647, -10795,   6287,  15729,  -2085,   9441,   2010,  -7871,  -9344,   5616,   -141,  -8987,  11355,  -9122,  -6903,  -1132,   7751, -10018,  -9672,   3024,  -9957,  -8304,   1471,  -9460,   3801, -14217,  10292,   5478,   2813,   4800,   3630,   3609,   2802,  -4591,  -6079,  -6939,  -5134,   6016,   2913,   8133,  -8604, -16987,   2698,   3999,   5797,  10526,  14384,   4380,  -4852,  -7476, -11962,  -2757,  10975,  -5009,   7818,   -378,   3562,  17696,  -8151,   7202,   7960,  -8439,
        -12710,   1702,  -3548,  -6870,  -2902,   -942,  -1394,   8842,   8705,    644,  -3331,  13747,   -420, -15127,  17574,   -481,   8744,  -9111, -11959,   6568,  -1889,  -1167,   1101,   7841,   1643,  -4946,    235,  -1065,  -4048,   8507,  -7453,   5573,  -4041,   5897,   5115,  -3205,  -5443,   4732,  -8639,  -5817, -13597,   8512,  12666, -11872,  -5493,   -698, -14377,   4491,  12021,   1380, -19300,  -4742,   5256,   7075,   3617,     28,   9748,  -4506,  -6856,   7075,  -5727,   4287,   9929,  -1336,  -1526,  -8627,   3274,  19838,  -7610,  -8887,  20707,  -5735,   2350,   2373,  12987, -10738,   6161,   2408, -10456,  -3292,  13042,   5617, -14733, -12102,    647,   5728,   8605,   4773,    -48,     12,   3979,   8174,   4348,  -4063,    195,   4468,   1192,  -7794,   5459,   2374,   9163,    898,   2938,   7712,   -379,   2262,   1419,  11817,  -4666, -12595,   4880,  -8084,  -1978,  -3872,  11473,   3967,  -5118,  -9789,   5964,  -5505,  -2193,  -1656,  14843,  -2687,   -213,   2627,  -2009,  10495,  16672,  -9126, -17171,  -6490,    267,  -1853,  -4093,  -9252, -11867,   1076,  16366,  -9419,  -4089,   -121,  -1751,  -3086,   -198,  -3958,   6509,    582,   -716,  -1444,  -5434,   1713,     84,    584,  -6901,   8210,  -3854,  -2069,  -2225,   -931,  -8205,  -6458,  -5250,  -4131,   5392,  -2078,   9287,  -4040,   1974,  -9923,   1877, -11007,  -2323,   5688,   6295,  -6407,   1452,   5921,  14856,  -1283,   5790,  -7121,  -1671,  -3339,   4428,  -5441,  -2432,  -6656,  -3376,  -2862,  -7365,   1158,  -9883,  -8114,  14109,  -3238,   6106,   1789, -11452,   3435,  -4238,   6979,  -7876,  -4961,   -964,   3853,   5485,   7823,   4332,   7624,   3329,   2742,  -1397,  -6108,  -7070,   -559,   -296,   3967,    723,  -4621,  -5805,  -7266,  -4555,  -8916,  -5884,  -5913,   3566,  -1916,  -3522,  -7338,  -9338,  -4565, -18322,  -5765,  18219,   3559,   6888,  -5533, -10970, -10209, -10008,  -5279,   9633,   3063,   3858,  10485,  -2612,   5282,  12827,  -3545,  -9027,   2582,  -2898,  17461,   2253,    373,  -9366,  -2348,   1973,  11599,   -114,  -3433,  -5029, -10808,   5912,   2459,  -5846,  -4934,   4112,  12125,   3494,  -3616,  -6747,  -7926,  -7997,  -5753,   4011,  -8153,  -9491,  -7350,   2793,  -6105,  -5948,   9673,  -3460,  -3188,   4102,  -8499,  -8574,   2084,  -8813,   7712,   3906,  -4411,  -6166,  -5973,   2503,   8107,    875,  11751, -12551,  -7335,   7017,  -8503, -14287,    383,  -4247,   9391,  -1787,  17810,   6582,   5828,   6133,  -5695,   1474,   -542,   3661,    825,  -5160,   3849,  -1719,   7726,   -768,  -9378,  -2308,   6962,  -7104,  13440,  -3105,   6712,   4536,   7926,   5924,  -7070,  -1725, -11043,   3296,  -3273,   4009,   3322,   7242,  -8358, -10754,   5033, -11406,   5574,   3897, -12725,   5547,  -3273, -13079,   6079,   1347,  -9218,  -6538,  -7621,   9187,  -2611,   3097,   2026,  -4429,   7330,   8302, -19893,    470,   6150,  -5241,   5399,   6738,  -8440,   1638, -14232,   3154,   9836,   -514,   2393,  13695,   5450,  -2630,  12072,   1537,  18339,    130,  -1041,  -7266,  -2857,  -5280,    450,  -2601,  -1742, -18198,   1227,    472,   7897,  10664,  14759,  -5276,  -1048,  14824, -10596,   2793,    583,  -9497,  -7418,   7790,   4043,   1255,  -8762,    714,  -1232,   6056,  -6603,   5929,  -7317,  -7966,   7631,   3337,  -1738,   4711,   2978,   3315,  -1321,  -7054,    639,  -9127,   2203,  -4417,   7068,  -7295,  -4248,    359,   7411,  18220,   9408,   7511,  -6303,  -7547,  11600,   8188,  -9707,  -5621,  -4882,  -5494,  -6498,  -7365,  -8652,   3108,    330,   3247, -10542,   3058,   6122,   3917,   4678,  15237,  -5491,  -9781,  -6974,   4064,   2276,  -2866,  -6959,   6644,   3239,   8255,  -6960,  -5753,   3711,  -7162,   4525,   4851,   3484,   9532,   4442,  -1740,  -2208,  -1298,  -6050,   9416,   5699,  -7636,  -8781,   4936,   8918,    920,   5604,    140,   4496,   3405,  -3871,   3026,  13045,   1969,  -7165,   5485,   9299,   -901,  -7653,  -2206,  -5709,  -3686, -15065,  -4842,   4110, -13379,  -3683,   4477,  10930,   1983,  -1043, -17842,  12112,
         13537,   -376,   -317,  -3510,  -9503,   5888,    109,  -3507,  -1647,   3158,  15440, -11205,   5275,  -8323,  -2749,   3989,   1517,  -6515,  -7002,   3917,  -3921,   -231,  10256,  -7459,   4444,  -1129,    779,  -2139,    280,   1717,   -123,   3823,  -7740,  -6988,   5631,    838,  -6702,  -2226,   1257,   9150,  10268,  -1119,   3519,   5467,  -7423,  -4395,  -9174,   6695,   3209,   7643,    427,  -4130,   6747,  -7187, -11471,  -1320,   5176,   -128,   7552,  -6156,    166,  -6233,   1672,  -5405, -13033,  -3722,    778,  -3781,   5184, -11875,  -9810, -10586,  -9201,   5798,  -1075,   5513,   3213,   6523,   8003,  -6212,   2080,   2980,   4354,   9243,  -8049,  -8072,   3742,  -6952,  -6073,   1004,   6891,   4446,   7154,  -9152,  -3447,   9411,   3927,   4772,   2578,   2798,   2532,   6581,   1899,   7319, -17754,  -3388,  -1426,   4628,  -2041,  -9818,   1714,  -4499, -10121,  -9903,   1708,  -6923,  -9539,   8390,  -2159,   2873,  11405,    252,   9798,   2379,   2192,  15927,   8329,   8861,  13159, -12817,   7665,   -562,   2587,  -2860,   9346,   5457, -11417,  -4402,   1838,  -3386,   7280, -13130,  -3992,   5815,  -7511,  -5902,   2777,   4835,    680,   3575,  -3108,  -2864,   1710,   4644,   4075,  -7487,   3109,  -2091,  -4954,  -3953,  -8538,  -2089,  -7891,   9378,  -3180,   6875,  -9168,  -2547,   3116,  -4697,   6698,   2071,   6416,   -223,  -5320,   7357, -14368,   6137,   9059,   2882,   1869,   2231,   9282, -10555,  -5642,   6626,  -4535,  -6106,  -4402,  -2922,  10584, -10196, -11185,  -1820,  -6690,    -64,  -8793, -13654,  -5293,   3911,  -7831,  -3345,  -4524,   2937,    530,  -3315,   3828,  -8160,   6047,  -9968, -12156,  -3725,  -8390, -11769,   4310, -13212,  -4095,   9471,   4526,   5703,  -5638,  -6796,   -149,  -1291,    274,   5977,  -8975,  -7748,  -2975,  -1466,  -3841,  -2125,  -1861,  12258,   6848,    914,  -7016,  -6385,  -7221,  16271,   3585,   4414,   6070,    985,  -3851,  -4247,  -9893,  13961,   3434,  -6486,  17370,  -9169,   7776,   7987,   1038,   4211, -11665,   2713,   1500,  -5902,   3229,  -8837,   6694,  -6326,   9441, -10192,   6294,  -5370,   2473,   3637,   -891,  14429,   6049,  -9013,   2005,  -4858,    421,  -3419,   6189,   9783,  -2806, -10678,  -5576,  -7413,  -8741,   5822,   4872,  -1221,   1784,   1684,  -2912,  -1054,   5325,   6731,  -1031,   6295,   5769,  -8615,   4405,   5496,   5324, -10713,   5707, -10721,   3435,  -1360,  17611,  -5264,  -1113,   2828,   3716,  14405,  -3833,   3863,  -9222,  -9684,  -9852,   -396,  -3731,   4609,   1957,   1752,  16912,   6585,  -6247,  -4611,   9796,  13557,    790,   1290,   3834,  -3219,  -8020,  -3251,  12448,  -1186,   3407,   3998,    704,   2182,  -9988,   1900,  -5523,   5515,  -4776, -10505,   2540,  -9282,  -7292,   4194,  -1818,   1295,   6909,  -5145,   2162,   9025,   6917,  -8558,   5724,   2748,  12268,   6480,   5962,  -7199,   5433,   6997,  -1517,  14376,   5199,   6612,   3970,   2654,  -8811,   2996,  11401,   8569,   3700,   -804, -13240,  -6935,   6776,  -7569,   3168, -13376,  -4616,  -4254,  -5716,  -8276,   1435,   1005,  -3982,   6794,   2769,   2647,  -1212,   1771,  -1629,   4922,  -2863,   4190,  -7827, -10025,   -920,  -7008, -10008,  -6525,   6669,   4711,    494, -12521,  -1509,  -9098,    298,   2850,   4984,  10666,   7669,     65,   4857,   -416,  -6041,  -5405,  -5046,  -3748,  -9539,  -4543,  -4912,   3168,  -1952,  -2364,  -4138,  -4353,  -1166, -10176,   4491,   1260, -10025,  14042,  17215,  -7949,   3397, -11364,  -3716,   -284,   4857,   9471,  -5740,   6138,   5293,   8976,   4206,  -3190,   7944, -10914,  12013,  -3516,   6686,   1621,   5715,   6134,  -2386,  -5739,  -3994,   3495,  -4502,  -8520,  -4718,  -2518,   3817,    624,   6504,  -5095,  -5022,  -3553,   3772,    944,  -1529,  -3278,   9690,  -3861,  -4779,  -6947,  -6062,  -6967,   8242,   8744,   6922,   5473,  -1075,  11995,  -8985,  -1545,  -3054,   -460,  -7407,  -3750,  -1621,   8304,   -919,   -952,   3958,   2599,    422,    212,   1608,   1355,  -1822,   1499,   5090, -12312,    404,  -9412,
         -3627,  -8095, -10951,    944,  -5265,  13498,   6226,   2513, -12085,  14377,   6269,  -2755,   2493, -10969,   6921,   8202,   1437,  -2814,   9217,  -3060, -10137,  -1924,   2659,   5360,   2662,    -33, -11051,   8205, -10426,   2885,  -5808,   2932,  -7347,   6996,   7039,  -1136,   7970,   4121,   1410,  -2216,   7129,  -3138,   1638,  -6127,   7144,   9509,   7377,  -4421,  -5841,  14818,   2609,  -2265,  -5370,  -6267,   4183, -20232,  -5745,   4393,   5423,   5926,  -7275,   1077,  -3875,   1182,  -2837,   9727,  -7997,   -606,  -3999,  -5856,  -7322,  -1124,   5154,  -2258,  -3745,  -9489,  -5941,  10747,   6308,   5870,   2330,  -3231,  -3589,  -3559,   6628,  -5243,   2517,  -9641,  -4389,   3586,   9262,  -9173, -10451,   5598,  -3175,   1523,   3585,  -5967,   6608,  -8334,  -9296,   6524,   5147,   7149,  -5192,   -468,   9357,  -4255,   6067,  -2567,  -6288,   2613,  -2852,   8009,   8052,   5282,   1926,  -3741,   8584,   9267,   6788,    861,   7863,   6315,  -6224,   8675,  -3342,  -1511, -11112,   7685, -13214,  -2635,  -2306,  -8982,   5533, -13065,  -3863, -11257,  11875,  -6231,   -369,    731,   2725,   5812,  -7035,  -7285,   1666,   1980,   2567,  -3087,  11343,  -1589,  -4563,  -6468,   1095,   7717,  -7086,  -5145,  -3014,  -5230,  -7496,  -7723,  -5813,   4973,   4668,  -1460,  -1892,  -7105,  -8431,   4955,   6213,  -8747,   3752,   1097,  -3669,  -5488, -15850,  -1815,   4007,  -7717,  -1823,  -7808,  -3947,  14622,  -8796,  -2736,  -3634,   -683,  -3088,  -3201,   1272,  -4940,   5149,   3070,    544,  -2108,  -7623,     10,  -7958,  18553,   7795,  -9243,   7653,   3759,  -5984,   1274,  -5260,  -3502,   2964,  -4891,  -2587,  -5776,   7560,  -5926,  13057,  -1223,   7701,   4935,   3440,   7615,   2230,   -829,  -4944,  15047,   3196,   1017,    213,   3546,   7348,  -8589,   1717,   2801,   4779,  -2444,  -5109,   3298,  -4547,  -1956,  -7869,   2446,   4206,   -378,   3410,   3774,  -1857,   9986,   5415,  -6712,  -3018,   5738, -11862,   6694,  -9813,  -5015,   3828,  -5793,  -3259,   -126,   6528,  -3251, -10285,  -6810,   8785,   5425,  -5275,  14050, -10667,  -6830,  -4217,   2285,  -4346,  -4247,   8312,   3300,   7257,  -8891,   4743,  -4799,   7876,  -1953, -10091,   3961,  -9590,  -9946,  -6664,  -2783,  -7272,   3540,   2930,   6452,   4942,  -4485,   1310,   7202,   6541,   6479,   6064,  -8080,   9185,  -2831,   2152,  -8097,   1127,  -8189,   9377,  -1631, -11843,   2434,  -4989,   -996,  -4953,  -1047,   5459,   1392,   7371,  -9142,  -2345,   9693,   6903,  -7640,   -962,  10133,  -5110,   1924,  -6303,  -5545,  -1203,  -5518,   2221,   6355,   7365,  -5331,   3711,   8346,  12280,  -6536,   7407,  -5548,   6816,  -9788,   2817,  -2289,   2349,   4715,   3850,  -7033,  -4804,   3047,   3050,  -1069,  -9892,  -9703,  -6124,  -7957,   5002,   3505,   5176,   -263,  -7381,   7103,  -3634,  14867,   1554,  -1716,   4024, -17617,   2525,  -3529,    100,   3235,  -7764,   6139,   1644,  -6703,  -4558,   1901, -12933,    -15,    210,   8510,  -4965,   3548,  -2847,  -9859,   1050,   1117,   7693,  -5279,   2142,  -6209,   5808,   2923, -12317,  12220,  -1058,  -1633, -10315,  -5418,  -4243,   2713,  -6364,   4523, -11187,   7931,  -2326,  -4685,   6679,   3391,  -4814,  -8210,   3054,  -6068,   2545,    238,  10383,   4672,  -2108,   8669,   8756,  -9379,  -5813,  -5394,   6633,  -7771,   -616, -11901,  10326,  -9420,  -8619,  -6745,  -5729,   2599,  -4527,   1355,  -3164,  -1278,  -6223,  16213,   9210, -16698,  -2150,   8641,  -5069,  -7037,   7029,   8836,  11981, -12354,  -8507,  -2532, -13622,   3530,  -8992, -14777,  -5788,   7565,    675,  -1921,   1501,  -5845,  -5196,  -1651,  -7249,  -3791,  -9952,  -4849, -11063,   -849,  -1618,   1524,  -2809, -11437,   -143,   4918,  -3338,  -2901,  -3585,  10293,  -1443,  -9062,  -7988,   4974,  -3061,  -5731,   7098,   5819,  -1015,  -3474, -15687,   9619,   1474,   -802,  -9453,  -5691,    948,  -2511,  -5527,    522,  12987,  -6762,  -8164, -12350,   3296,   6539,  -1237,  -1896,  13705,  -5318,  -5591, -18321,   1206,   5972,
          -396,   8033, -16052,    103,   2188,    631,  -1493, -14047,  -5083,  -4924,  11911,  -4429,    331,   7599,   5158,  12243,   8736,   5530,   7547,  -7022,   4312,   3997,    176,  -5917,   5318,  -3326,  -9675,   7943,   5751,   8960,   2985,  -2322,    712,   1604,   2820,   6458,   -802,   5896,  -6666,  -2532,   3498,   8874,    701,   3589,  -8630,  10224,  12287,    -70,  -2989,  -7780,    174,   8564,  -5174, -13159,  -5569,   5320,  -1042,  -2401,  -2204,  -4897,   1905,  -4589,  -5277,  -2948,   1173,  -7233,  20773,   2273,  -6657,   -447,  -3849,   9549,   6223,   2220, -10378,   4411,   7573,  11600,  12969,  -3509,  -6546,  -1017,  -6393,   4687,    307,  -9376,     91, -10364,  -7025,   7142,  11241,  -4110,   4629,    -60,  -6018,   7789,   -559,  -7645,   7387,  -6358,   4063,   8818,   6922,   5669,  -5081,  -3259,  12635,  -2263,   6019,  10606,   7543,  12740,  -2444,   1324,   3310,  -4452,  -2900,  13112,  -3380,   2374,  -3848,  -3208, -19018,  -6538,   5891,  13684,   5015, -14077,   1851,   1487,  -2250,   -793,  -2671,  -5104,   5533,   3611,  -2348,  10738, -10460,   4246,   7280,  12988,  11273,   1710,   7731,  -8745,  -5226,   4693,   5723,   -621,  -3461,  -3602,    540, -12341,  -8281,  -4906,   2125,  -1176,   1282,   4155,   6335,  -3240,   3992,   5722,   -260,  -4818,  -7773,  -1761,   -491,  -1972,   7038,   7809,  -2702,   1491,   4783,   -878,   3928,   1666,   5246,   1916,  -1919,   3363,  10583,  -2636,   3468,  -6233,  -7908,   2379,  -1002,   6741,   3845,   4190,  -4893,  13869,  -7946,   -783,  -3972,   2373,   -258,  -5285,   2835,  -3989,   4760,  -1910,  -2121,    985,    879,    623,   4619, -13594,   9374,   2966,   8459,  11196,   8903,  -6196,   7178,   1510,  -2284,  -2106,  -3651,   7984,  10529,  -1714,  -6718,  -8910,   3075,  -3016,    979,  -3467,    848,   7466, -12848,   5443,   3418,   3308,     79,  13404,   2366,  -2923,  -3612,   5148,  -1441,   3663,    235,  -1873,   8354,   5291,   4982,  -2475,   7092,   7202,  -1841, -11928,   2266, -12836};

    const static Filter<int16_t> statefulpartitionedcall_sequential_conv2d_1_biasadd_filter(statefulpartitionedcall_sequential_conv2d_1_biasadd_filter_element, -16, {3, 3, 16, 16}, {1, 1});
    const Filter<int16_t> *get_statefulpartitionedcall_sequential_conv2d_1_biasadd_filter()
    {
    	return &statefulpartitionedcall_sequential_conv2d_1_biasadd_filter;
    }

    const static __attribute__((aligned(16))) int16_t statefulpartitionedcall_sequential_conv2d_1_biasadd_bias_element[] = {
          -489,   -335,   -650,    626,   -846,   -569,    536,     75,    408,    641,    -54,   -238,   -306,    -75,   -789,    747};

    const static Bias<int16_t> statefulpartitionedcall_sequential_conv2d_1_biasadd_bias(statefulpartitionedcall_sequential_conv2d_1_biasadd_bias_element, -14, {16,});
    const Bias<int16_t> *get_statefulpartitionedcall_sequential_conv2d_1_biasadd_bias()
    {
    	return &statefulpartitionedcall_sequential_conv2d_1_biasadd_bias;
    }

    const static Activation<int16_t> statefulpartitionedcall_sequential_conv2d_1_biasadd_activation(ReLU);
    const Activation<int16_t> *get_statefulpartitionedcall_sequential_conv2d_1_biasadd_activation()
    {
    	return &statefulpartitionedcall_sequential_conv2d_1_biasadd_activation;
    }

    const static __attribute__((aligned(16))) int16_t statefulpartitionedcall_sequential_conv2d_2_biasadd_filter_element[] = {
          8250,  -5837,   3646,   3925,  -3653,   9793,  14580,  21912,  -9150,  -3678,   1432,   4614,   3091,  -2529,   7643,  10073, -10681,   5371,   9180, -12780,  20121,  -9490,  -7833,  -5900,  -7047,  -7413,  10049,  -3362,   9099,   -114,  10479,  18218,  -5169, -10737,   6230,   5421, -13197,  -2164,   5540,  -5886,  -1927,  -8194,   6080,  16640,   -405,  -2765,  -2069,   9700,  -8900,  -2563,  15140,   2445,   4005,  -5762,  14121,  19391,  -7488,  -1320,  10077,  11649,   5190,  -2866,   -146,  -2650,    506,  -2616,   4775,  -8708,  12334,  -5842,   7114,   3614,   2602,   3508,   3189,  14483,  15466,  -1431,   4381,  -4259,   2131,  -9446,  -3966,   1386,  -3183,  -3395,   7583,  16219,   5622,   4584,  -8460,  -9433,  -4292,  -8536,   3586,  -7394,   -442,   1586,  -8787,   2304,  -5603,   3509,  -2276,  -9659,  -4208,  -1443,  -2508,   5337,  11719,  -4039,  -7373,  12781,   2474,   4895,   -780,  -6371,  -2956, -18132,  -8800,   5354,  -6684,  -9228,  -8739,   2462,   3206,  13729,   8380,  12754,   7212,   6596,   8163,   9266,  11270,  -4736,   3608, -15153,   -625,  10390,  -7322,  -5523,  10466,   5895,  -9681,  -3959,   -349,  -5029,   -194,  13076,  -1214,   3204,   6982,  -5900,   3084,  -6691,   8962,   7468,   6748,   3983,   7264,   -181,  -8102,  -8203,     84,   2817,   -156,  -1108,  -5735,  -6023,  -9266,  -3424,   -852,   3467,  14263,  10587,   8335,  -4153,  -2214,  -2407,   1637,   1559,  11000,  -6638,  -4963,  -5515,  -9884,   1422,   1709,   3658,   6874, -10051,  -7772, -11242,  -2178,   6022,   -924,   4871,  -7396,   1683,   3681,  -8614,  -6038,  -9693,   8794,   9450, -18678,   4810,  -2887,  -6992,   6594,   -277,  -8139,   6166,  -6716,   1127,  -7415,   2149,   2088, -10522,   9340,   7699,  -9180,   -438,  -9334,   5305,   -651,   3426,    350, -10372, -10292,   6073, -10773,  -2674,   2102, -10969,   6125, -11178,  -4536,  -5009,  -4558,  12283,  -1597,   3640,  -3610,  -3840,   1038,   7634,  -7518,   3130, -11015, -10124,  -4057,  -2593, -10181,  -5457,  -4270,   6738,  -8161, -10697,   7007,    853,   3880,  -4664,  -4959,   4724,  -3197,    818,   1425,  -1375,  -2266,   1975,   -313, -11352,  -9566, -10656,  -3011,  10518,  -7400,   6475,  13229,  -3605,  -7310,  -7762,  -6999,  -1471,   2000,  14045,   8079, -14161,  -4140,   2641,  -2445,   4288,   7687,  -3581,  -9868,   1155,    360,  -3696,   2756,   6576,    946,   9140,   1949,  11574,   7937,  -5285,   8059,   2344,   4037,  -4857,    181,  -8014,  -9228,   2297,  -5551,   1283,   3041,  -7588,   9951,  -6989,  -1291,  -2121,   3174,  -3044,   3076,  -2681,  -3681,   9373,   9375,  -5231, -13565,  -3173,  -6039,   4755,   6297,   7522, -10300,  -8549,   8263,  -1769,   6193,  -6482,  -7463,   9195,   1133,  -7879,   1313,  -8044,  -5141,   4941,    960,   8819,   9798,   9458,   9535,   6409,  -9329,   1993,  -6085, -10856,   -317,  -9460,  -8033,    897,  -1985,  10572,  -1022,   -186,   4031,  -9128,  -8949,  -5165,  -7428,   3996,  -7846,    830,    636,   7672,  14927,  -5276, -17451,    572,  -4003,   2218,   8921,   -999,  -2474,  -4626, -18830,  13302,  -2632,  10487,   2472,  -7035,   -354,   2968,   7834,  10440,    317,  -9993, -10696,  -1834,  -8493,  -3163,   2166,  -4644,  -7778,  -9164,   2843,   9478,   9107,   8129, -12741, -14530,  16711,  -3774,  -1142,   8088,    472,   1800,   6966,  10677,   1973,   7716,   1700,   6557,  10835,  -4031,   6102,   4924,   3095,   9719, -10611,  -2020,   4951,   4931,  -6954,  -4107,   8958,  11564,  -9108,   4768,  -8172,   2067,  23077,   1481,  -9238,     18,  -4584,   6821,   4979, -10287,  -7927,   3567,  -5024,   5025,  -8131, -10039,   2363,  -6836,  13122,    852,  -6790,   2555,   2947,   4065,  10658,   2721,  -9211,  -5761,    -47,   1028,  -6149,   5898,   1645,     21,    501,  -1592,   7006,   7416,   7325,  -3765,   8777,  -4456,  -7515,  -9528,   3914,  -4642,  -7530,  -5307,  -2225,   6639,  23086,  -3584,  -6047,   5324,   1113,  -5235,  -1742,   4084,  10725,  -6590,  -4096,  -1062,   6086,  -4320,   3141,   5851,  -2763,  -3851,   -349,  -3117,
         -8325,  -2604,  -9220,   4855,  17559,   1212,  -1238, -15651,  -1778,  -7428,   3163,    979,   4741,   1334,   5242,   4785,   6258,  -1788,  -4179,   5902,   4863,  17132,  15571, -10169,  -3170,  -7243,  -3881,   -488,  -6351,  15218,   -608,   2162,  -4599,   6946,     87,   4776,   3975,   4251,   8502,   6506,  -1616,  -6644,   1682, -10099,   1929,  14783, -13611,  -1431,  -5724,    841,  -8836,   -280,   1812,  -2772,  -4587,  -2469,  -8344,  -3892,  -2402, -12352,   9854,  -6862,  -6355,   7839,   4240,   7179,   5187,   7754,  -3584,   9538,  13264,   6706,   1016,   1815,     32,  -3549, -16710,  -8621,  -2006, -14009,   -183,    777, -12012,  -6818,  14948,  15412,   4283,   3966,  -5707,   2782,  -9244,   1781,   5245,   9109,   5658,  -3618,    291,  -4705,   4799,  -1191,   -784,   9738,   3182,   -480,  -9441,  -1334,   1283,  -7616, -11221,  12733,  -1244,  -3000,    189, -10828,   9770,   3201,   8379,   1072,  -9683,   -526,   3836,   8577,   -648,  -9891,    789,  -1791,   6931,  -4860,   9242,   4212,   7350,   2652,   7217, -12493,   8386, -12771,  -2442,   7551,  -5171,   -538,   5181,  -6719,    880,   -248,   5477,   7995,  -4753,  -4560,   3095,   -195,  12619,  -1370,   5122,   6922,   8007,   8483,  -5933,   9363,  -8786,  -2053,   7615,   2546,   4102,  -3140,   -154,   4739,  -4845,  -8889,  -9848,  -1747,  -6101,  -4080,  10103,   9643,  -2610,    188,   9826,  -3019,   1512,  -4159,  -3919,   -276,  -1239,  -1715,  -2469,   8960,   2943,   9245,  -1486,   1694,  10536,   8995,  -3100,  -8654,  -7096,  -8484,  -6838,  -3325,    975,   2421,  -9644,    -53, -11965,   2248, -11934,   9758,  13022,  -5731,   -344,   2852,  -7621,   2782,   9761,  10997,   5506,  -4581,  -5161,    942,  10222,  -8393,  -3464,   5397, -11015,  -3563,  -7879,    726,   5622,   7740,   1726,  -9428,   5056,  -3983,  -2394,   5321,   3760,  13285,   6525,  10154,   7683,  -1319,    685,   -303,  -9422,   3403,   2112,   5645, -10960,   2156,  -7325,   1941,  -5674,   7419, -10792,   3614,  12908,  -8667,  -1271,  -1258,   7131, -13286,  -6511,  20815,  11902,  -5269,   9605,  -8820,  -1630,   7699,   2439,   5719,   6526,  -5389,  -4564,  -2528,  -4697,   7908,  28146,  10902,  -3660,  -4084,  -4699,   3674,  12902,  14404,  -2261,  -1834,   1447,   8201,   9448,  -8224,  -1669,  11329,  -2616,  -1183,   2886,     18,  -5414,   6688, -12576,   2574,  29083,  18317,     32,  -5754,  -5569, -12634,  13328,   5333, -22900,  -7630,  -4481,     35,   -841,  -5818, -12549,   8622,  14210,   7255,   9339,   2340,   1286,  -8440,  11638,  -4177,   6072, -10722,   7414,   8014,  -9233, -11122,   -420,   9682,  20038,  -1460,   7547,  -3855,   9737,   2474,   5458,   4771,  -9036,  -5620,  -5980,  -9645,  -5207,   6737,   4445,  -1227,    165,   6403,   4739,   -230,    378,  -5381,  -6672,   6614,  -6028,  -6476,  -6624,   7688,  -7234,  -9926,   -542,   8824,  22187,   3126,    362,  -3868,  -7744,  -4866,   6692,  -6246,  12449, -14878, -18390,  -3942,     77,   1682,   1925,   4692, -19778,   6172,   9712,  -9701,  -7983,  -2207,  -5110,   9134,  16945,   1427,  -3138,  -5408,  -5372,   4690,   6703,   3103,  -2350,   6988,  -8324,  -2376,  -8006,   6560,  -9045,   9840,  -3794,  14080,   2696,  -2733,   6538,  -8483,   -209, -10839,   6890,  20150,  15898,   8642,   -787,  -5297,  11802,  -8250,  -2063,   4623,   -860,    720,    312, -10019,    868,   -732,    819,   4502,  -1051,   1566,   9111,   1134,  -5343,   6692,  22536,  14396,  -6375, -12497,   4069,   5998,   3553,   3381,  10207,  -8324,  -8241,   5006,   2257,  -3198, -10120,   1230, -10369,   8181,  13133,  -9206, -11621,   1282,   3523,   9529,  -2437,  -7388,   8584,    458,  -1231,    798,  -8579,   6902,  13201,   8824,   -578,  -1204, -10791,   2481,   -914,  -2566,  -6739,   2326,   9649,  -3157,  -2289,   1635,   1487,  -6688,  -2106, -10449, -10334,  -1792,    629,  -8612,  -9494,   1166, -17638,   4099,  12416,   2389,  -9076,   3767,   4733,   5528,  -5758,  15445,  -9791,   1499,  -5330,  -7917,   2442,  13143,   5712,  10071,  11468,  -5991,
         -2119,  -9106,   4970,    245,   1510,    861,   9134, -14532,  -3119,  -5725,   6714,  -8328,  -8105,  -1609,   5994,   7791,    -79,    653,  -2742,   1492,   6072,  11705,   5970,   8936,   1645,   2606,  -4482, -10637,  11244,   7574,  -8869,  -4265,   6939, -10466,   2553,   5402,  -2111,  -3624,   7719,  -5033,   9143,   7648,   2771, -10140,   3060,  -2959,  -7100,   -400,   -606,  -9693,   8203, -11593,   9147,   3606,   7458, -11906,   1399,  10033,   1816, -10820, -15440,  -2259,   8204,   1408,  -5665,   3055,   7388, -10401,  -5527,   2937,   8843,   1821,  -9365,  -7606,    743,   9106,  -9303,  18639,   8273,  -5001,  -3665,   1026,    762,   5982,  -7373,   2668,   6869,  -9474,  -7640,   6219,    572,  -5737,  -7540,   9630,   2011,   2362,   6382,  -2175,    447,  -4640,    551,   6930,  -6458,   1666,    364,  -6996,  -9060,  -1334,  -2127,  -1056,  -3872,   6274,  -3558,  -5360,  -8508,  -1612,   9678,   1022, -16179,  -1627,   6775,   4334,  12757,  -8163, -14260,  -7857,  -2182,    360};

    const static Filter<int16_t> statefulpartitionedcall_sequential_conv2d_2_biasadd_filter(statefulpartitionedcall_sequential_conv2d_2_biasadd_filter_element, -16, {3, 3, 16, 8}, {1, 1});
    const Filter<int16_t> *get_statefulpartitionedcall_sequential_conv2d_2_biasadd_filter()
    {
    	return &statefulpartitionedcall_sequential_conv2d_2_biasadd_filter;
    }

    const static __attribute__((aligned(16))) int16_t statefulpartitionedcall_sequential_conv2d_2_biasadd_bias_element[] = {
           -80,    -36,    179,     33,   -356,   -301,     43,    171};

    const static Bias<int16_t> statefulpartitionedcall_sequential_conv2d_2_biasadd_bias(statefulpartitionedcall_sequential_conv2d_2_biasadd_bias_element, -12, {8,});
    const Bias<int16_t> *get_statefulpartitionedcall_sequential_conv2d_2_biasadd_bias()
    {
    	return &statefulpartitionedcall_sequential_conv2d_2_biasadd_bias;
    }

    const static Activation<int16_t> statefulpartitionedcall_sequential_conv2d_2_biasadd_activation(ReLU);
    const Activation<int16_t> *get_statefulpartitionedcall_sequential_conv2d_2_biasadd_activation()
    {
    	return &statefulpartitionedcall_sequential_conv2d_2_biasadd_activation;
    }

    const static __attribute__((aligned(16))) int16_t fused_gemm_0_filter_element[] = {
          3951,   1531,   7226,  -1293,   4138,   5865,   5089,    108,    704,   -703,  -6000,  -5358,   5805,  -5322,  -1922,  -6631,  11850,  -3544,  -5860,  -1394,  -2488,   6766,  -8367,   3853,  -1485,   1030,  -7021,  -5904,  -2907,   3929,  -7779, -10496,   4469,   3403,  -6525,   1981,  -4152,  -1562,  -2151,  -7779,   -884,  -2480,   7505,  -8857,  -2876,   5583,   4634,  -4634,  10396,   3732,   4024,  -1727,   -810,  -8764,  -1771,  -1657,  -3231,  -3783,   6994,  -8153, -12747,  -6417,  -3943,   1455,  -7412,  -1503,  -5681,  -8526,   -998,   -713,   -999,   3611,  -1707,   6310,  -8064,     35,   1692,  -7806,   3612,   8141,  10419,  -7391,   2714,  -1615,  -4800,  -6343,  -3929,   1731,   8781,   1104,  -7886, -12088,   6603,  -3422,  -2966,  -6870,   5932,  -5876,  -7057,  -2487,   1631,   2194,  -3235,  -3034,  -1514,   1602,  -7670,   3118,   6468,   4786,   4921,   4248,   2516,   3422,   6925,  -1472,  -8239,  -4179,   1240, -10354,   -640,  -7697,  -8267,   7134,  -6788,   5402,  -6235,  -4887,  -7346,   3068,   1483,   3604,  -6453,   2795,  -2256,  -1954,   3524,  -3117,   1447,   8243,  -7633,    768,   5266,    569,  -2915,  -1459,  -8241,    627,   4797,  -5525,   7295,   6386,   4645,   3726,  -2060,    354,   5963,  -6139,  -7029,   1102,   3406,  -7643,  -1063,   1377,  -4049,   5431,   5733,   3949,  -1298,  -3216,  -8536,    271,   5559,  -3229,  -6209,  -5018,  10115,   6868,  -2879,  -2175,    322,  -6621,  -5994,   1210,    727,   1160,  -4237,   3373,   2711,   5016,  -5896,  -1530,   -540,  -4803,  -3698,  -2696,   3478,   5148,  -4155,   7125,   6386,  -8410,  -2730,   6311,  -8380,  -5374,    249,   7957,    995,  -4584,    348,   2576,   3067,   4070,  -3251,  -1950,  -1576,  -9063,  -6960,    681,  -7785,   6995,  -8060,  -5851,  -2997,   5184,  -5992,  -8411,   6116,  -2035,  -3452,  -3364,   6130,  -4026,   5818,   6724,   -358,  -6685,   -209,  -8595,  -7865,   1770,   4573,  -6881,   2287,   2929,   5839,  -2253,   4006,  -7561,  -4162,  -5468, -10996,  -6884,   3031,  -1191,  -2348,   8386,   3615,    400,  -6081,   8242,   6863,   6331,    159,  -1378,    310,   3774,   6807,   6225,  -5488,   4603,   -779,   5837,   4972,  -2648,   -387,  -3929,  -8532,  -2956,    763,   5745,   6417,  -3376,  -5640,  -5391,  -4945,   1456,   9127,   3162,  -6743,   3506,  -5880,  -3583,  -2255,    104,    330,  -6880,  -8266,    611,   6804,  -7333,  -1339,   -534,  -3469,  -8306,   7843,   6035,   1470,  -7323,  -7792,   9297,  -4874,   5530,  -3224,  -6486,   4440,  -8700,  -4065,   3843,   1239,   7213,  -8469,   8026,  -2446,  -5331,   4878,   8120,   1036,  -4509,  -1816,   6572,   4408,    -29,  -8236,    259,   6927,  -6187,  -8431,  -2873,  -2274,   5313,   5383,    857,   2504,  -8298,   3440, -12344,    166,   5303,   -252,   7841,   4905,   5718,   1803,  -4206,  -3257,  -2343,  -1806,  -3631,   2970,  -1260,  -8390,  -2936,   3128,  -8892,   5891,   9925,  -7806,   2177,   7553,  -7914,  13480,  -5468,   -521,   1294,   8842,   5118,   1221,  -3533,  -7514,  -2343,  -3362,   -150,   1864,  -1490,  -4767,   3688,  -4596,   1729,  -2207,  -2283,   3865,   7658,  -8065,    285,   6341,  -5011,   3758,   5156,  -1113,  -3999,  -7868,  -3213,   7889,  -5272,   -913,  -9587,   9896,  -1964,   7698, -11001,  -6513,   3789,   5988,  -1463,   2506,   4248,  -4947,   3192,   4510,   -869,  -8621,   5090,  -2606,   2963,   1267,   -279,    406,  -4789,  -4403,   3102,   2947,  -6681,    828,  -2950,  -1191,  -7553,   -643,    -97,    342,   -202,  -2017, -11132,  16316,    -49,   -456,   6568,   7450,   5008,   2353,   -836,   -862,   2559,  -6471,  -5321,   1982,  -3823,     54,  -8447,  -7724,   -264,  -6258,   7826,   8951,  -6352,   -888, -11501,  -1982,  -8721,  -5291,    719,  -1023,  -5705,  -4005,   1634,   -439,   5610,  -7073,   2514,   5328,  -4984,  -4185,   -533,   7968,   1821,  -8913,   6033,   5895,  -4906,   1999,  -1499,   7197,   5113,  -1101,   2367,  -3723,   6401,   2875,  -4071, -13647,   4199,    178, -10574,  -2684,   2358,   3564,  -7648,  -5331,   3091,  -2603,  -2633,
         -3787,   3604,   7025,   3084,   -549,  -4850,   3407,   1896,   1145,  -4978,   8060,  -7110,   8254,  -8498,    857,  -6995,   6889,   3121,  -6790,    347,   3814,  -6150,  -1626,   2057,     77,   3293,   7042,   4619,    735,   7135,  -6304,   5077,  -6368,  -8158,   6390,    974,   -670, -10900,  -6567,   4961,  -2162,   6244,   1530,  -5506,  -1667,  -7521,   4723,    -75,   1006,   1620,    595,  -8333,  -3289,   3788,  -8342,   -859,  -8363,  -7841,   -581,  -5618,   -662,   5437,  -3678,   9542,  -2964,  -3491,   6792,   6304,  -4959,  -5974,  -1848,   -961,   4001,  -6271,  -2341,  -1882,   8100,   3579,   7906,  -1335,   5343,   -774,   5566,  -4031,   5626,  -2056,  -7433,  -2192,  -4200,  -8033,  -5278,   1683,   4968,  -3147,  -2232,  -4301,   9744,  -3694,   -904,  -1185,  -4804,   5502,   5511,   -100,  -4410,  -2967,  -8386,  -4269,   1474,   5747,  -4594,    379,  -4083,  -4100,  -5247,   7797,  10195,  -2610,   4092,   5647,  -2952,   3559,  -7058,   4857,  12058,   5853,   5164,   3261,   3487,  -4182,   3787,   3568,   7257,  -3631,   6772,  -6206,  -3148,  -8243,  -3522,   6818,  -2119,  -4445,   8466,   7676,  10674,     52,   -372,   -518,  -4839,  -1806,   -622,   4824,  -1206,  -3771,  -8801,   -515,  10944,   4163,   5571,  -1735,   5146,   5097,  -8618,  -3561,  -5408,  -6160,   -411,  -7593,  10164,  -5980,  -8686,  -4160,  -6466,   3997,  -8055,   7644,  -5468,   -642,   5097,  -6823,  -4884,   1942,   -805,   8400,   7350,   -888,  -3638,  -5020,  -2346,   6816,   5141,   3137,   6648,  -4575,   1281,  -2622,   4433,   4309,   7195,     -6,  -1728,  -7885,  -7072,   7757,  -7149,   5419,   1344,  -4332,   7194,  -4544,   3322,   2908,  -4665,  -3219,  -4187,  -1951,   7897,  -5173,   7524,  -4603,   6453,   3762,  -4464,   4605,   2926,  -2066,  -7821,  -6822,   -199,   5384,  -7559,  -3251,   3769,  -3917,    709,  -5190,  10085,   6990,   5457,   9814,  -5533,  -7079,  -3473,  -3498,  14761,   7446,  -4498,   7802,   7776,    -71,  -8021,   8432,  -6373,   7055,  -8333,   2990,   5924,   2563,   8404,  -5890,  -1336,   8331,  -6093,    -36,   4449,   4432,  -4016,  -3045,  -3254,  -6691,   3107,   4204,   8167,   -566,  -8034,   3384,   5541,   2210,  -2926,  -7471,   -925,  -3980,  -8336,  -5274,  -1070,   6538,  -7291,   5384,   2863,   6346,   4184,   1132,   5563, -10476,  -4053,  -6888,  -2185,   3789,  -1304,  -5434,  -3850, -10043,  -8593,   9318,   8770,  -5282,    800,  -4677,     49,  -7497,  -7092,   5278,    725,  -2650,   -107,   -341,  -3048,  -8764,   4875,   8599,   3547,  -6344,   7172,  -1379,  -7246,   6690,   8346,  -4242,    381,  -1838,   1299,    276,   8067,    824,   3447,  -5188,   5212,   1229,    261,  -8588,   3016,   3364,   -964,   1003,  -4612,  -5839,   2669,  -7674,    137,   5883,  -2113,   1647,  -3699,  -1418,  -5188,  -6309,   6360, -10459,   4681,  -4995,  11200,   3272,   7703,    573,  -2695,   1592,   5370,   1224,   7810,  -8507,  -2896,  -4129,     27,    855,    370,  -1940,  11113,   2354,  -2777,  -5809,  -4194,   -180,   4540,   3048,    246,   6248,   5507,  -5520,   3879,     44,  -3369,   -340,  -5390,  -6018,  -3451,   6771,   7749,   5092,   4391,  -1977,   2444,  -2884,    181,  -3581,   5264,  -4734,  -1235,   8195,   6228,  -9019,  -1020, -10051,   -996,   5207,  -5509,   9388,   9723,  -2289,   2308,   -647,   6039, -10518,   4066,   5059,  -3754,   1359,   4222,  -6663,  -4570,  -5767,  -2068,    263,  -5176,   5356,  -1211,  -2942,  -7140,   5875,  -4704,    953,   2186,   2370,  -8683,   2852,   3300,  -6831,  -9657,  -3848,   1122,  -3953,  -7149,    350,  -6889,  -5459,   4219,  -1270,   4363,   7064,   5683,  -1700,   5502,   8175,  -5784,   5184,  -5128,  -7397,  -5241,   -531,   6509,   -570,  -2676,   6075,   4078,   7593,  -5935, -11216,    657,  -2677,   5338,   1351,   2161,   -878,   5786,  -1859,   2696,   4452,  -2225, -10027,   4822,  -7558,  -1938,  -7217,   8506,   6284,   5582,   5272,  -1296,  -2307,  -7660,  -1403,   1046,    703,   -660,  -3205,  11397,   6796,   5042,   5533,  -1728,   -767,   5136,   2497,
           484,  -3362,  -1959,    283,   3366,    903,  -6076,   8262,  -7328,   7700,   3297,  -2517,   4987,   1025,  -2899,   -145,   1992,  -6164,  -2425,   -387,    148,   5587,  -3439,    145,   2725,  -9154,   3562,  -9589,   3008,   2680,   1343,    507,   2799,   6414,   -487,  -4063,   2359,   -427,   1711,   4465,   1520,  -2217,  -2799,  -5029,  -1168,   7457,  -4126,   7789,  -8175,   1231,   7451,  -6515,    637,  -8568,   5775,   5023,  -5080,  -3605,  -5211,  -1887,  -3153,  -6551,  -3362,   1124,  -6647,   -123,   5313,   1101,   6979,   6501,   6244,  -2097,   7551,  -2857,   5493,   6380,    152,  -1203,  -5607,  -5308,   2587,   2925,  -5127, -10429,  -5934,  -8894,  -5676,  -4886,   8267,  -3717,  -7479,  -5359,   3116,  -8093,   2466,   -313,   6871,  -3326,   7601,   7101,  -3381,  -8722,   3460,   -580,   -254,   4270,   4654,  -6450,   -260,  -2186,   4032,   4139,  -3347,  -3228,   1178,  -1469,   2444,  -2193,  -8459,   4202,  12308,  -7729,   1149,   4356,  -5164,  -6755,  -3277,   4324,   1216,  -7900,  -3873,   5186,  -3011,   2631,  -3765,   1695,   3493,  -4181,   5845,   1715,   5179,  -1754,   4750,   2615,  12034,  -9715,  -4334,  -8718,  -2488,   3089,  -1082,  -2283,  -5708,    763,  -3794,  -5069,  -7232,  -1676,  -2927,  -2200, -11218,   6852,  -6527,   -238,    840,  -9244,  -7535,   4815,   -834,  -3785,  -3329,  -1585,   6308,  -6507,  -6839,   8686,  11215,  -7876,   6772,   -851,  -7643,  -9169,  -5264,  -8153,   3571,  -1734,  -3879,  -1619,   -982,  -8234,  -8273,   4133,   6974,  -4218,   6866,  -6689,   -619,   4904,  -6225,   7483,   5312,  -2559,   1389,   3450,   -569,  -1544,  -8382,  -5124,   5189,  -4247,  -4705,   5463,    -93,  -9039,  -9656,   1210,  -1057,  -3538,  -6675,  -5038,   9028,   7102,  -7425,  -5518,  -2274,   7724,  -8953,  -6005,   -383,  -8443,  -6044,  -1940,      2,  -3632,  -5093,  -3273,   8925,  -1389,   4481,  -3049,  10492,  -5851,  -7113,    242,   1569,   1729,  -7537,  -1675,   9277,   5484,   6938,   5053,  -3999,   3847,    701,  -4776,   1855,  -7069,  -5753,  -7173,   4787,  -5128,   7439,  -5316,   6659,  -6023,   7570,   5988,   4783,   6182,   4555,   3276,   5667,  -4465,   4182, -10299,  -8701,   3526,  -8345,   4883,   4495,   2227,  -3192,   3100,   -885,  -3525,  -4357,  -3834,   7275,   6073,  -8220,     38,   -351,  -4328,  -2186,   4126,  -4353,    505,   6029,   2567,   5835,  -6985,  -2513,  -6506,  10724,   2226,   6404,   -995,  -2480,   7086,  -5261, -11170,   6842,  -6135,    275,  -5693,   9653,   1768,   -358,   6097,  -6491,  -4926,  -5709,  -8315,   4348,   2696,  -8160,  -8275,  -7171,   2260,  -3679,   5977,   7736,  -1224,   4389,     50,   2154,   -978,  -5220, -11497,  -5541,  -1797,   2699,  -3760,  -8035,   1461,  -3543, -10418,   9139,  -6708,  -3603,  -6299,  -2948,   -946,  -9067,   -961,  -5730,  -7419,  -6379,   3784,   7363,   2862,   -499,   5028,   8209,  -8788,  -4847,  -7217,    704,  -8897,  -4749,  -7710,  -9841,  -8602,   6011,  -7254,  -8777,   6071,   4963,  -4846,  -2930,  -8724,  -4972,   6384,  -2089,   4556,  -1195,   2752,  -3772,  -1966,  -6421,  -6123,  -5653,   2734,    962,  -3993,  -6287,   7416,    862,  -7491,  -5278,   1425,   4336,  -7819,  10501,   1031,   4361,   1893,   2377,   2931,   1853, -11072,  -4894,   6688,   3986,    425,   2586,  -1823,  -3970,   8802,  -4048,  -2694,  -1342,   5431,   3402,  -4222,   4105,    -65, -10952,  -2954,  -2643,  -9302,   3307,   4834,   5330,   2936,  -1047,   1756,  -4559,  11334,   4597,   1339,  -6329,  -7426,   2213,  -2863,  -1603,   6238,   7045,  -7802,  -7400,  -6674,    286,    312,   -517,  -1412,   2635,  -3888,  -4392,  -5987,   1386,   4906,   6190,  -1447,   3235,  -9466,  -4080,  -7943,   -432,   2564,   -659,   1513,   5175,  -7920,  -7789,  -6726,  -6816,  -5713,  -7191,    761,   7369,   4467,  -5750,   2301,   -439,  -2355,   1395,   4811,  10783,   6070,   3255,  -1452,  -7750,   4582,   -515,  -4171,   -473,  -8476,  -3477,   1631,    532,  -1603,    122,   6231,  -2918,  -7320,   5015,   9750,  -5909,  -4797,  -4967,  -3333,
          -806,   6283,   5355,   4906,   7631,  -1529,    990,  -5600,  -2980,  -4224,  -4420,   -148,   2703,   2515,   1066,   5306,  13063,   -790,   8104,  -3472,   7071,   4894,  -5627,  -4853,     22,  -2992,  -4086,  -7494,   7464,   -933,  -7757,  -5931, -12317,  -7736,   4975,  -8245,   4124,   3123,  -5556,  11158,   7263,   3929,    202,  -8818,   -883,   1579,  -2643,    160,  14732,   6451,  -5638,   1393,    687,   6783,   4963,   5360,   -684,  -7211,   3846,   5660,   2575,  -3036,   3696,   5444,  -6919,  -1741,    104,   1879,   2000,  -6713,  -4655,  -3277,   5882,   8054,  -4492,   3273,   2835,  -5790,   2082,  -1495,   3821,   3987,  -6426, -10567,   2724,   -365,  -3363,  -7649,  -5401,   -134,  -2282, -12885,  -6748,  -4452,  -2128,  10427,  -2542,  -5980,  -5561,  -1770,  -6909,    421,   3047,   7264,   7437,   5567,   6181,  -1090,  -2334,  -6693,  -1734,   5675,   8782,   3536,  -7147,  -5666, -13240,   3162,  -2728,  -7652,   5226,  -6126,   3386,   5214,   -803,   5907,   3294,  -2676,  -2227,   5673,  -4880,   3012,   5862,  -3129,   3569,   6790,  -4627,  -4934,   6659,   8033,  -7245,  -7635,  -3046,   1650,   9444,  -9169,   5761,   -119,   6550,   1352,    -81,   4561,   1048,  -3760,  -3623, -12481,   6247,   6768,   2470,   9896,   -481,  -2781,   3162,   -121,   2185,  -4135,    356,   -598,   7668,   5477,   4933,  -2061,  -3769,  -9173,   3372, -10336,  -2019,  -6391,    899,   -594, -11864,   5289,   3289,  -7635,  -3844,   1231,  -4679,   5745,   -960,   -447,  -1822,  -5178,   -661,   4342,  -5925,  -4616,  -6272,   2997,   5525,  -2524,  -1545,   5441,  -7927,  -2924,   3550,   1872,   -747,  -7587,   -603,   1059,  -2552, -13175,  -5114,   3284,  -2225,  -1743,  -1315,   7221,  -2881,  -3875,  -2758,  -8803,  -8363,    -21,  -2082,   7087,   4619,   7226,  -2798,   6068,   5721,   5542,  -3438,   4450,  -8419,   -653,  -5197,  -7556,   5340,  -4125,   1661,  -9240,  -4870,   5133,  -6514,   -360,   -313,  -5054,  -6493,  -5057,  -7816,  -4640,   6207,  -9258,   5291,  12434,  -2374,   -386,   7167,   1971,  -5727,   2682,   3161,   3090,  -2617,   6217,   7191,   6016,    -99,   7663,   6677,   1052,  -5819,  -7322,   4329,    960,  -5333,   5640,   -482,  -9665,   2720,  -6272,  -4869, -12763,   3300,  -2843,  -2170,   7145,  12316,   6609,  -2872,   9011,   2725,  -6149,  -1696,  -1818,   5402,  -4928,  -8728,  -5297,  -1211,   7395,   5321,  -2538,    718, -10151,  -2594,   2525,    904,   5990,  -1342,  -6411,  -3018,  -8550,   3683,   2223,  -5993,   6156,    -32,   4472,  -6110,  -4760,   1087,  -8449,    143,  -1347,   2087,  -5100,  -2481,  -3692,   7869,  -3205,  -1185,   8150,  -8027,   3578,   5151,   4928,  -7519,   -623,   8104,  -9777,  -2237,   2378,  -4073,  -6423,  -8013,   1684,   9068,   1041,   6443,   8042,   9924,  -5633,  -3382,   2396,   4860,   6013,   2613,   3920,   7058,  -4173,   -784,   -501,   -913,  -1969,  -7767,   1245,   5331,  -6020,   8002,   8109,   4568,   1363,   5522,   2957,  10537,   2719,  -5530,   -868,   -757,  -3551,   5415, -12846,   4190,   8238,  -6220,  -5580,  -5752,   4205,   1855,  -6393,   9766,  -8085,   3645,   7968,   7592,    483,  -6659,   8247,    387,   4363,  -7480,  -2487,   5817,   3982,  -1245,  -3976,  -4910,  -8371,  -3364,  -7953,  -1953,   3991,    126,    487, -22720,  -2716,   4363,   4914,  11928,   4080,  -4588,  14120,    372,  -3808,  -1435,   5949,   -294,  -8127,  -8696,  13695,   2959,  -6789,  -6501,  -7552,  -4821,  -4277,   1561,   5385,   3625,  -5647,   1925,   2082,      4,  -8885,  -7223,  -5102,   6783,  -6273,  -3166,   4071,  -2314,   6232,  -8032,  -1592,  -3792,  -2811,   5190,    568,  -5864,   -186,    286,  -8572,  11040,   -593,   5401,  -1384,   1739,  -3486,  -1954,  -1070,  -1683,    423,   3062,   8143,  -5288,    632,  -6297,   5219,   2355,  -7254,    792,   7720,  -1179,    452,   6383,  10790,   9818,  -5234,   -676,   3191,   7633,  -9279,  -7697,   7889,  12647,   5278,   5616,   4438,  -9764,   -368,   3402, -11314,  -3249,   -552,  -8072,  -8889,   -897,  -5896, -10216,  10549,
          2117,   -112,   2569,   4197,   1112,   4867,    487,    550,   2871,   1220,   2273,  -3046,   8476,   4602,   2414,  -8253,     10,   1256,  -6218,   6406,   2255,  -5574,   1485,   9937,  -4388,   6922,     14,   7344,  -3294,   1779,   -415,   9754,   6826,   4042,  -3890,  -4371,  -3644,   2678,  -7590,   3731,  -4932,  -9943,   4867,   5906,  10944,  -7221,  -2123,   6639,   2199,  -5112,   6625,   6989,  -8010,  -2091,    146,   2479,   9544,    591,  -1023,   2939,  -2160,  -4143,   3074,  -7466,   8434,  -8235,  -3368,   4066,   8047,    900,   7675,   -450,  -1303,  -2677,  -2601,   8452,   2741,   -700,   7266,  -6786,   -717,  -2600,   1369,   2678,  -2060,   4030,  -2243,  -1441,   2670,   3254,  -6053,   5502,   1033,   -131,  -2655,  -4921,   1574,  -1410,  -2766,   6866,    724,   3227,  -9866,  -4637,   1605,   5894,  -1244,  -1146,   7571,   4003,  -9437,  -6173,   1822,   3560,  -1972,   -661,   8263,   4633,  -8262,   4966,   -970,  -8730,  -6178,  -7571,   -580,   2067,  -7021,   3172,   7623,  -2930,  -7798,  -2072,    783,  -2982,  -3322,   7303,   1483,  -1584,  -4943,  -4884,   6173,  -8148,   1418,  -5054,   5551,   2438,   3237,  -4007,  -1866,  -4726,   2033,  -4877,  -6714,   -609,   1342,    404,   1504,   1296,  -7602,  -1508,   8670,  -7492,   2244,   1923,  -7196,   1620,   5097,   2222,   1527,  -7922,   3195,  -2621,  -4552,   7351,   2845,  -7306,   1778,  -1300,  -7215,  -7990,  -7274,   2643,  -1139,    621,   4475,   3351,  -1958,  -5423,  -9317,   -710,   4803,   1707,  -7360,   5175,  -2217,   4705,  -7861,    429,  -8380,  -1014,   2683,  -6661,  -2374,   6179,   -868,   4571,  -2144,    218,  -1256,   2156,    798,  -7946,  -3646,  -3463,  -8177,  -1463,   8766,  -3630,  -3956,  -6517,  -5345,   1858,  -2070,   8627,  13696,  -8997,   -739,   3476,   5924,  -9029,   1664,   7964,  -1436,   3313,   6561,   3491,  -3333,   4072,    634,   1762,    -96,   6507,  -5358,  -4570,   6329,  -5532,   7607,   -245,  -3701,   6459,    311,   1256,  -9446,   1118,   4468,  -5114,   3893,  -1673,  -8293,  -4452,   -513,   2202,   3392,  -8522,  -2795,   1276,  -4303,   6914,   4599,   7673,   1528,   1588,   1431,   9719,   4952,  -7309,  -6849, -13611,   5963,  15034,   -451,   9467,   4039,  -9025,  -8396,  -1602,   7026,  12770, -12399,  11346,    425,  -4938,   2975,  -3138,  -4246,   1478,   8477,   8338,  -2213,   2365,   6515, -13255,   -976,   4878,  -5225,    255,  -1791,  -3169,  -3642, -16226,  -1149,   7516,  -6315,  16530,  -1401,   6304,  -2213, -13189,  13043,  18376,  -7108,   4209,   1921,  -7573,   6184,   6558,  -7668,  -3899,  -3346,  -3833,   2823,   7725,  -3959,  -2558,  -5610,  -2593,   4358,  14638,  -1965,    840,  -4815,  -4071,   1582,  15158,   2575,   8205,    359,  -2213,  -1675,  -9126,    367,  -2570,  -5025,    816,   3801,   7155,   1339,  -4330,   6608,   8038, -10302,   5509,  -3334,   5394,  -6300,  -2988,    428,   4164, -13002,   6674,   3547,   4126,   6433, -14331,  12453,    301,  -7901,   4200,  -6623,  -2398,  -6501, -13650,   9801,   2907,  -5737,   -596,   3735,   8424,   3824,   7922,  -5901,  -3900,   4569,   5677,  -1560,  -1286,  -6237,   8263,   8382,   5567,  -5104,   4795,  -7560,   2518,   2358,   6401,    -17,    923,   3845,   7624,   3952,   3670,  -6856,   1886,   1042,   6802,  -5614,  -5749,  -4481,    197,   2786,   6978,  -5630,  -1631,   5988,   7709,   6563,  -3922,   -559,   9626,  -5734,  -6400,   2767,   3738,    403,  -8304,   3750, -13904,   3540,   1115, -11054,   2436,    891,  -5307,   1473,   3513,  11683,   5903,   1480,  -1990,   -444,   4283,  -2153,   2449,   1976,   3959,  -4861,  -5475,    905,  -3069,   2836,   3965,   1176,   6443,  -2183,  -3736,    743,  -8845,   -870,  -9282,   4032,  -1418,   3799,  -1525,   6741,    602,   4318,  -3698,   1305,   -401,    120,    677,   2835,    187,  -7557,   6562,   6584,  -1473,  -5864,   6898,  -3628,    687,   3468,   4241,  -2020,   8180,   2023,    366,   2000,   6930,    -38,   -728,  -2251,  -3811,   2058,   5929,  -7374,   3379,  -1197,    -77,   2405,  11092,
          6613,   3697,   2443,  -5889,   4987,  -3503,   4868,  -7751,  -7102,  -5249,   6390,   2264,  -8134,  -6869,   3039,   -188,   8959,   2990,   5008,   4513,   3074,   7665,   9165,  -5840,   5944,   4285,  -1679,  -4379,   4546,   7284,  -1430,  -1287,  -5938,   2845,  -7578,   5166,  -7443,  -6818,   9875,  10434,  -4348,  -2213,  -5635,  -1259,   1050,  -2320,   7562,    671,   2957,   6491,  -3552,   1878,  -3921,  -7701, -11303,  -6968,   5412,  -2673,  -6989,   -842,  -4702,  -2023,  10045,  -2430,   2760,   8307,   7221,  -1433,  -2976,   -521,   1411,   7996,   3825,  -5993,   2488,   -326,   5104,  -3528,   1409,   3193,   4897,   2545,   1655,  -5462,  -5557,  -4572,  -1260,  -3738,   9322,  -3335,  -1123,   4407,  -7085,   9373,  -8409,  -5634,   -824,   -646,   6955,  -6336,  -6140,  -6732,  -2569,  -5043,   3527,   2102,  -6731,  -4488,  -9054,   9684,   4796,  -1460,   3313,   5270,   -503,  -1849,  -5345,  -5517,  -2874,  -1253,  -9825,   -895,   3277,  -9552,  -9467,  -3263,  12424,   6832,   5510,  -3684,   4016,  -6703,  -2614,    452,   4039,  -1523,  -7717,   8455,  -6766,  -1438,    616,   7311,  -3695,  -1065,  -1303,   6096,   4327,   7864,   3922,  -4218,  -1947,   7117,  -6672,   4487,  -4468,  -5073,   3727,  -5807,   3059,  11679,  -2563,  -4386,  -3429,   1692,   4440,  -1322,  -8019,   -932,   2596,  -1834,  -8647,  -5331,   5187,   2697,   5591,  -1846,   1273,  -3979,  -1364,  -1327,  -5638,   6419,  -1377,   3009,   4274,  -4592,   7861,  -8810,  -1575,  10008,  -3791,  -2753,   4347,  -8195,   4070,  -2793,  -7467,   6576,  -1621,   3420,   7779,   3426,  -6180,   2440,  -4450,  -4768,  -6546,  -4490,  -5162,   4695,   3240,   3593,  -7101,  -3460,   4787,   7141,  -2682,  -1983,   3939,  -7125,   5516,  -3015,    261,  -6050,  -6967,  -9472,  -2826,   -505,   4971,   1742,   5167,   1129,   4262,   4093,  10799,  -6319,  -4782,   2191,   2123,   1359,  -1429,   4863,   3574,  -3023,  -2640,  -3353,   2311,   2707,   4588,   4019,  -5491,    103,   -719,   7731,   5571,   3708,   5819,  -4227,  -7989,  -1895,  -2023,  -2968,   1437,   6941,  -3573,  -2297,  -1190,  -7459,    302,   4660,  -3131,  -7433,   4779,   -432,  -4343,   4383,   4062,  -1116,   -987,   2906,  -3074,  -2599,   1550,   -978,  -8744,   7551,   1698,  -2407,  -6646,   4594,   -574,   -474,  -7891,  10719,  -8022,   -721,  -2994,   5778,   5447,  -4898,   4271,   6943,  10274,  -9924,  -6144,  -5858,    263,   -582,  -3811,   3931,   9404,  -2392,   6873,   3341,  10856,   7240,  -8549,   3613,    569,   4922,  -5437,   3647,  -4761,   7149,   6741,   6126,  -7702,  -2766,  -5259,  -1692,   1773,   2965,  -5875,   6011,   7897,  -6159,    657,  -6753,   4856,  -3491,    702,   3985,   5701,  -4749,   1589,  -4847,  -2093,  -5907,  -1987,  -4922,   6631,  -5680,  -9735,  -7705,   2878,  -7055,  -2017,   6100,   2425,   3645,   2864,   5936,  10484,  -5490,   3863,   4496,  -7157,   3964,  12835,   2338,   6097,   4154,  -1358,  -2291,  -2106,   6261,    391,   2880,     72,  -3379,    987,   7071,   -666,   6674,   4429,   2921,   1810,  -7234,  -2384,  -7285,   3517,   7002,   7163,  -4729,  -2973,  -6423,  -7749,   -345,   -474,   1777,   6781,   5348,    500,   -318,   2593,   4532,    418,   2229,   4952,   2483,  -5930,  -7798,  -5966,   -131,  -3374,   6351,  -6269,  10882,   1150,   -445,  -3284,  -6661,   5613,   5617,  -3319,   7582,    -29,  -5597,   2001,  -5835,  -1422,  -4143,    317,  -8202,   7067,   4677,  -2055,  -2533, -10321,  -5826,  -7714,    157,  10916,  -5719,   1369,   9299,   4383,    249,   5827,   6165,  -8311,   8531,  -3590,   8385,   8194,   -889,  -1434,  -2875,  -5475,    696,  -3505,  -3081,  -3813,  -3904,  10225,   1708,  -5996,   1423,   1343,   7730,  -2967,  -4992,  -6956,   3165,  -3909,  -7953,  -6937,  -5652,   3035,   5029,   2863, -11741,   -407,  -6593,  -4321,   5760,  -7021,  -4463,   7100,  -5993,  -1156,   6388,  -3063,    989,   3004,   6606,   2742,   5352,    343,   3378,   3557,   7868, -12061,   2498,  -3490,   3925,   8011,  -4894,   6654,    182,   6134,   5167,
         -6684,   -301,   1025,   5701,  -8286,   7394,  -1848,   6038,   6781,   -823,  -5639,    726,   8346,  -7888,  -2535,  -4492, -11572,    703,    199,  -3679,  -9686,   7738,   2355,   9941,   5619,   3634,  -4814,  -8476,  -7932,  -5218,   5149,   8275,   8587,   4811,   8477,  -7947,   2212,   7586,   3406,   1175,  11052,  -5721,  -9362,  -2179,   2854,  -9380,   2237,  -6116,  -5498,   3720,  -5208,  -4769,  -6192,    735,  -2228,   2203,  -1318,   5764,   9776,   5746,   2976,  -1724,  -1624,  -4568,  -6707,  -4960,  -3116,   -157,  -2668,   4085,  -7532,  -1104,   -364,   6901,  -2618,   4488,   -249,  -7064,  -1317,     75,  -2094,   1159,   1615,  -4354,  -5346,  12548,  -3011,   -400,  -5782,   -188,   7055,   7191,   1630,  -4730,  -1297,  -4306,    626,   5172,  -9280,   1128,  -2623,  -3213,   1287,   -562,   7911,   7064,  -1968,  -2802,   3347,   4532,   1627,  -3688,  -1579,  -3677,  -3495,   1359,   -892,  -5401,   2042,   1622,   4686,    696,  -6837,   4294,  -6810,  10540,  -1662,  -2926,   4207,  -2282,  -6036,   -184,   7952,  -2442,  -7385,  -7950,   7896,  -7425,   7615,  -1174,   2868,     33,  -5706,   7371,  -8577,   6091,  -3598,   -168,  -4577,   7691,  -1021,   9255,   1337,   4985,   -913,    526,  -2798,   4030,   3240,   6543,    987,   5875,   1939,   1502,  -8819,   4091,    371,  -7227,   4226,  -8045,   6959,   3265,  -1957,   1322,  -1248,  -6519,  -1116,   9948,  -1371,  -3821,   5938,   -818,  -2973,  -4319,   3220,    -14,   6711,  -4480,   6223,   6406,   2074,  -3516,   -224,   3369,   2712,  -8528,   3539,  -4604,   2516,   3630,    678,   2294,    906,  -2235,   5820,  -7094,   5254,  -3555,  -1275,  -1706,   3687,   1362,  -1006,   3576,    237,   3641,  -7534,   7152,  -3456,  -6154,    246,   7983,   6045,   7309,   2086,  -6962,   6746,    683,   2322,   3278,  10965,  -1573,  -1440,  -2746,   4466,  -5864,   6440,   7724,   -467,  -1330,   2192,  -2971,  -1842,   7775,   3212,  -5867,   1100,  -6379,   7254,   6768,  -1341,    490,  -7999,   -427,  -7811,   3961,   2981,   6166,   -980,  -6147,   1748,   -323,    505,  -1470,   2992,  -7468,   1512,  -1966,   8067,   2767,   4431,   4727,   7652,  -1803,   6920,  -2797,  -7146,  12077,   2497,   5253,  -3769,  -3440,  -1011,  -5789,    662,   9383,  -3535,  -6710,  -4280,    454,  -1197,   5543,   3540,    679,   9074,   2865,   1935,   9925,  -2017,   -907,   -461,  -8273,   5729,   4639,   3393,  -1275,   4510,   5731,   7048,   -106,  -4287,    481,  -5065,  -4850,   7539,  -1351,  -1339,  15200,   6155,   1173,   4964,   7049,   6428,   4586,  -7986,   3830,   2885,   3970,  -4572,   1909,   4551,   2607,  -6198,   3367,   6643,  -7338,  -4273,   9843,   5279,  -4209,  -9144,   3950,   7003,   7821,   4201,  -6039,  -8338,  -5870,  -9101,   7417,  -1678,   5409,   -214,  -4893,  -3453,    -82,    998,   7576,  -7813,   7231,   6873,   1971,  -8941,  -5441,  -4056,   3343,   4040,  -3259,  14081,   6148,  -7484,  -1329,  -5589,   6407, -11604,   6437,   4751,  10503,  -7110,   5942,   5404,  -6148,  -2380,   5177,  -6398,   2323,   8182,  -4814,  -3735,   2461,  -1088,   5722,  -6283,   4653,  -2650,  -3327,   2084,  -6829,   2015,   6128,   7910,  -4585,   6850,  -4641,  -2555,  -2584,   5257,  -2672,   7616,  10090,   1963,  -3038,  -4056,  -8108,  -3519,   9540,  13170,   5599,   4103,    495,  -3207,  -5872,  -2052,   1683,   1819,   5974,  -5831,  -5513,   3068,   -804,  -4888,    737,  -9488,   -929,    898,  -4623,    360,   1856,   3515,  11557,   2467,   6692,    386,   1214,   5114,  11522,  -9511,  -3683,  -5634,  -4785,   5842,   7728,   7618,   -952,   4416,   6683,   7480,  -6206,   -117,    179,   3761,  -3524,   3849,  -1956,   7028,   2066,   7336,  -2311,  -4179,   8468,   1225,    209,  -5433,  -8174,  -9143,  -3552,  -3273,  -1041,  -9223,   8858,  -1576,  -5642,   3538,   1414,  -3719,   8344,   5105,   6199,   5908,   2162,  -2503,  -4966,   4611,   5886,   7715,   -872,  -3906,  11790,  -7314,   3665,   6850,  -1329,   4574,   3373,   1754,   9777,   2985,  -6289,   4463,  -2025,     91,  10581,
         -4160,    476,  -2610,   5960,   7651,  -2254,   5269,  -4492,  -5684,     -5,   1840,  -4768,    884,  -4709,  -5431,   3143,   4044,   5010,   3453,   -847,   2026,    660,  -1091,   8544,  -9726,   5356,  -5986,    819,   1469,  10064,   6476,   -439,  -8518,  -8439,   4562,  -7226,  -8130,   6135,   8056,  -9093,  -1232,  -4897,  10210,  -1860,   -906,  13171,   4940, -10208,   4190,   3554,  -5583,   4704,   2681,  -2636,  -2907,   8589,   4925,   6588,    901,   2062,  -5279,  -3986,  -1525,  -6960,  -4267,  -1322,    739,  -8205,   5506,  -6730,  -4915,  -2935,   1205,   7377,   3801,   1271,   3305,   1655,  -2757,   1006,  -1743,  -5339,   4223,  -6849,   -735,  -3111,   2480,   9799,   5096,   6819,   -570,    802,  -4211,  -1078,  -1032,   7802,  -2134,  -5220,  10721,   3935,   -314,   8943,   1711,   2977,  -7110,   1061,   8639,   4070,   5331,  -4035,   6018,  -2665,    792,    433,  -7113,  -5670,  -6957,   2702,   -228,   -264,  -3782,  10322,  -8667,  -3973,    133,  -2002,  -5067,   3196,  -3921,  -5043,   3246,   4276,   3323,   6299,  -2251,  -1081,   4121,  -3507,  -5554,    192,  -5756,  -6066,  -7979,  -4751,  -6712,   3452,  -5733,  -3609,  -3167,  12832,   2803,   7303,   3449,    206,  -1321,   2407,  -8713,    110,   1584,  -1560,  -5388,   4810,  -6237,   6047,   2393,  -8412,  12161,   4694,  -4088,   9207,   6637,   4768,  -8924,   1629,  12033,   5789,   2099,   3273,   6205,  -8392,  -3947,  -5559,   1547,   1830,   8042,   -888,   3879,   5793,  -3752,   8693,   7382,  -4511,  -7638,   -226,  -4017,  -7446,  -5269,   2557,  -1451,  -3974,   4974,  -6763,  -7170,   3856,  -2411,   7733,  -4552,   6233,   -468,   7205,   4986,    -97,   6753,   5797,   1320,    -43,   2051,    -88,   1812,   4461,   -428,  -5287,  -1838,  -2036,  -4829,   2430,  -2887,  -7361,   4536,   7659,   1544,  -4897,  -3024,   5758,  -1053,  -6429,   6336,   4488,   -476,  -8299,  15518,   7081,   1145,    816,  -3230,  -7622, -12948,  -8139, -10190,  12609,  -8114,   3679,  -9421,  -9018,   -556,    414,   3540,  -3794,   7929,  -2684,   7989,   -499,  -5871,   4219,   5496,  -5663,  -2704,    -43,  -5879,  -1401,    194,  -1017,  -7863,  -1314,   3559,  -8392,  -8003,   3020,   8518,  -2548,  -2259,  -5610,   3976,   6462,  -8721,  -5292,   8181,   9306,  15403,    994,   -487,   -788,    208,  -2648,   -911, -11229,   6318,   6776, -11504,    -92,   4771,  -4055,    874,    532,   2719,  -1427,  -8826,  -5673,   6221,     53,  -3006,  -2004,   7546,  -8779,  11138,  -3958,   2623,   5927, -10038,   4773,  -6087,    769,   6821,  -7020,  -6841,   4080,   6561,  -4737,   1816,   -967,   4029,  -2961,  -7159,   1838,  -2587,   2408,   3375,  -1698,    278,  -4196,   6636,  -3283,   4697,  -9098,  -8118,   8573,   2808,  -7888,  -7566,   3955,  -5218,   2456,   3170,   2949,   5439,   2799,  -9049,  -2580,  -4975,    182,  -6455,   8038,   4289,  -7008,   3004,   1050,  -2692,  -2908,  -5729,   6552,   6604,  -5383,    287, -10248,   2682,   4333,  -4397,   1128,  -4734,   2615,   5297,  -4801,  -2256,  -7204,  -6055,   -894,    500,  -4135,   -251,  -4996,   5840,   2674,  -5800,   6185,  -5215,  -2029,  -8553,   8428,  -5748,   5940,     78,   2134,   -933,   3559,   2825,   1791,   4339,     75,  -7723,   6824,    906,  -7614,  -7197,   5629,  -1274,    193,    660,   1936,  12634,   6916,  -1836,   9130,   3021,   2838,  -5286,  -8020,   4792,  -3705,  -4177,  14063,   2322,  -6058,   -910,  10270,   8288,  -1624,   4533,   4292,  -3656,    418,  -2036,   3154,  -3997,   4149,   2653,   4475,  -6547,  -2389,   3306,   3707,    563,   4853,  -2053,   6870,   7040,  -4635,   1860,  -3401,  -2248,  -3196,  -8351,  -2590,  -6955,   7246,  -5843,  -1093,   1286,  -4374,  -4435,  -1436,  -5857,   5917,  -7944,   6660,   7250,  -2220,  -2460,   9439,  -4225,   -933,  -6950,   7333,   9806,   4079,   -640,   2006,  -2397,   2964,  -3021,   7557,   3896,  -6687,   2304,  -1203,   1602,   5126,  -3658,  -2686,   4444,  -6228,   7452,  -2602,  -5521,   7301,  -4199,  -6631, -10027,   2408,  -8894,   3085,  -4477,   4232,
          5225,  -3078,   5079,   1560,  -8483,  -7005,  -3098,   8370,   4812,   7357,  -1757,   7541,   2914,  -4342,    936,   6828,  -4281,   -559,    363,  -7229,    580,   5417,   7371,   7113,   3919,  -4362,   7679,  -9748,   6580,  -2472,  -1794,  -3283,  -5704,   5402,   3966,   6092,  -3893,  -1879,   2508,   5874,  -5796,   5654,    197,  -4592,  -4551,  -1933,  10686,   9682,  11839,  -5003,   6128,  -3796,   2355,  -6852,   5308,  -3646,  -4529,  -6984,  11372,  -3234,   2170,   5741,   2437,  -4621,   6081,   2807,  -6284,  -4713,   3847,  -6462,  -1901,  -7118,   1390,  -2737,  -7593,   7659,  -5937,   2513,  -1525,   6580,  -2221,   1931,   3556,  -1705,  -1067,  -1591,   8650,   1016,  -5840,   -124,   2285,  -6583,  -1391,   8230,  -4031,  -1351,  -2710,   2016,  -8399,  -4313,   4805,   4801,   6536,   3462,   3952,  -8394,   7157,   4830,  -1950,  -1147,  -2840,   3108,  12391,   2446,   1822,    193,  -4488,  -8294,  -2564,  -3994,  -9141,   7452,   7719,  -7927,   6556,     97,   -965,   3422,  -3865,   5911,   4865,  -1080,  -6220,   5295,  -7201,   6904,   6696,   -978,   8358,   8157,   5338,  -2995,   -431,  -2815,  -2588,  -9538,   6642,   2932,   6905,   8314,   9319,   6492,  10625,   7059,   9092,  -7966,  -9165,  -1495,  -4363,   7214,  25069,  -2853,   1138,   3846,  -5489,   2310,  -6190, -11279,   9701,   6052, -19631,  -3051,   4261,  -3366,    540,  -4188,   1682,   2999,  -4147,  -6155,  -2768,  -5673,   7346,   4397,  -5475,  -8120,  -1991,   1263,   4929,  17431,   2527,  -6080,   5212,  -7432,  -1621,   7846,   5728,   3776,  -5848,  -7088,   6995,   6378,   5317,  -2156,   2852,   2537,  -7809,  -7424,   7621,    288,  -7003,  -2595,  -2768,  -2909,  -6216,  -2517,  10986,   2770,  -1945,    807,  -5596,    682, -12123,  -6705,  -1661,  -5059,  -1595,  -6739, -10079,  -5653,  -4410,  -6083,   6209,  -1545,  -2388,  -7548,   1529,   4704,  -6851,   1138,  -8802,   3368,  -2964,   2338,   3523,  -1590,   7626,  10678,  12850,   2844,  -6346,   4978,   2642,  -3447,  -7883,    748,  -5976,  -7750,   2128,   7437,   7713,  -8114,  -4388,   7676,   7700,  -1925,   4588,  -5748,  -3308,   1660,    557,  -5776,   2441,  -8316,  -3158,  -8674,  -5136,   8021,  -3281,  -5950,  -6386,  -9770,   8935,   3302,     65,   1817,  -6731,  -7868,  -2461, -12183,   4756,  -2128,  -8592,   9499,   7438,  -8931,  -4141,  -4303,   5003,   1801,   2576,   7408,  -4172,  -1451,  -6039,   3368,   7519,  -5961,   -655,   -617,   3448,   -833,  -9086,  -3634,    826,  -3676,  -9286,   1239,  -6564,   4127,  -2003,   5647,   7180,   6332,  -4060,   5794,   4633,   8294,    -88,   3363,   3686,  -6635,  -6671,   4813,   -355,   1370,   3033,   2201,   5270,   7022,   2869,  -9285,   3250,   -740,  -5068,   4194,   -130,   4923,  -7133,    686,   3465,   -287,  -8016,  -8135,   9906,  -3722,  -6742,   9708,   8113,   3637,   5056,    -34,   2609,    248,  -1165,  10412,   1841,  -3253,   2572,  -5370,   7801,   7567,   1308,  -4105,  -6847,   7837,    669,  -5323,   1286,   6166,  -3869,  -4434,   5190,  -3725,   4197,  -4313,  -1723,  -1795,  -2883,   1381,  -7903,   4148,  -2212,   6359,  -6784,   -372,  -1893,    560,   7859,   7674,   1705,  -5806,   1648,   3946,  -2376,   -796,  -3888,   8876,   3450,  -9265,   7482,   3430,  -4974,  -3156,  -1263,  -8556,   1998,  -1703,   8520,   6769,  -8712,  -7447,   1759,   -213,   2238,   5097,  -5979,  -3113,  -4472,   1342,   5381,   2423,   3866,   4334,   3462,   2303,  -7172,  -3737,   2487,  -5089,   3775,  -5503,   4458,  -7545,  -5737,   9599,   9026,   8408,   6828,  -7506,   1940,   3530,  -1898,  -5966,   2853,   2243,    879,  -4960,   8344,  -7404,  -3710,   6333,   5345,   4454,  10589,   3859,   6137,   4153,  -2041,   2872,  -1019,   3302,   8968,  -4648,  -3371,  -9291,   2672,   4378,  -1959,     57,   7261,   7086,   3233,  -1967,  -9619,   3458,  -7833,   8073,  -1741,  -3840,   4443,  -6050,  -9166,   -466,   1491,  -8564,  11953,  -9625,   3033,   7440,   5111,  -7202,    354,  -2576,  -4652,   2592,   5163,    904,   2588,  -5768,   8128,   9919,
         -5943,   8006,   3638,  -1041,  -3673,  -7929,  -4213,  -5532,  -3846,  -2605,   5559,  -5687,  -2698,   5894,  -8076,  -4014,  -1930,  11092,   2296,  -1108,   7641,   6773,  -1316,  10237,  -3237,    941,   6063,   7387,   6030,   2959,    682,   9785,  -5673,   8695,   7561,    753,   2000,    913,  -7578,  -1533,   4238,   5155,  -2205,   5450,   1125,   3329,   4287,   6746,  -6163,   7625,  -3403,   9504,   4589,   -660,  -6136,   2734,  -4764,  12415,    774,  -2989,   2175,  -5604,  -3167,  14336,   7917,  -3278,   2669,   2344,   3419,  -1427,    428,    301,   5813,   2806,  -4689,   1132,   4769,  -6919,  -2730,  -2407,  -6355,   4447,  -4707,  -1829,  -1839,   8421,  -7939,   3525,  -4304,  10353,    670,   6348,  -3956,  -8339,   -261,   4718,  -4655,   -520,  -1146,  -9029,  -1463,  -6272,   -315,   2488,  -5536,  10527,   2801,   8177,  -6767,   2987,    917,   1630,  -2643,   2076,  -1324,   4526,  -5031,   8098,  -4686,  12766,  -4672,  15483,   4655,   9162,  -5217,   5069,  -6927,  11000,  -4184,  -1944,   7122,  -6960,    351,  -8243,   6846,   -643,  -4081,  -2839,   6130,   6913,  -6643,   6092,  -7656,   5198,   4200,   -439,    331,  -3021,    356,  -1359,  -5296,  -1147,  -6716,   4488, -10665,  -5008,    776,  -4359,   3641,   9656,  -8242,    450,    464,   7664,   7554,   1677,   7646,   5378,  -4328,   3896,  -8546,   8853,  -4223,  -3344,   -854,  10268,   2300,   4206,  -7904,    477,   6339,    438,  -3792,    260,   1600,  -2417,   -280,  -8886,   3318,   8066,    550,  11334,  -6406,   2772,   6641,  -7405,   6722,  -2158,  -6067,  -6078,  -1237,  -3350,   7994,   3610,  -1751,  -1055,  -3809,    796,   5239,  10703,    958,   -620,   1593,  -8139,  -8152,   9416,  -7027,   6890,  -5669,    740,  -4064,   -546,   5622,  -4393,   -610,   6194,   3622,   2598,  -4703,   8303,  -4621,   8257,  -1545,   1069,  -9026,  -2602,   1819,   9024,  -9663,   -866,  -4444,   7654,  -1385,   6397,   -140,   5700,   5835,  -7272,   4990,   9765,  -1201,  -7468,   8487,  -1608,    113,  -1025,  -5606,  -5219,  -5826,   6294,    470,  -2028,  -4241,  -6735,   4160,   6929,   7677,  -3096,  -6565,  -4602,   5903,   3234,   1234,  10703,  -2936,   4094,  -4487,   1227,  -5631,   5153,  -7991,  -2768, -11433,   8755,   6977,   -930,   1619,   5728,  -9461,   4573,   1102,   -864,  -5497,  -5219,   2877,  10335,   1057,  -5459,  -6763,   1095,     21,   1950,  -1237,   5949,   2565,  -3069,   4601,   1129,  -6056,  -1006,   2275,  -1948,  -7153,   -693,   4098,  -1043,   3740,   -948,  -7052,  -5445,   7318,  -5217,   -129,   7002,  -6500,  -5430,   1503,  -1667,   4198,   2083,     28,   3581,   1417,   4644,  -7626,   3553,    -49,   4583,   2796,  -4694,  -3452,  -3750,   4047,   6106,   5091,  -6540,  -4948,  -4550,   7573,   7156,  -5166,    601,  -1226,  -5196,   4958,  -2490,   2000,   3342,  -8582,  -6925,    669,  -4784,  -6326,   6145,   6241,   5163,  -6385,   5720,   9209,  -2720,  -4556,   2286,  -4109,  -1306,  -2472,  -4210, -10603,   4620,   7028,   9150,    217,  10118,   3908,  10597,  -1917,   5305,   6293,  -4870,    276,   -847,   4174,  -1556,   3157,   -784,   8375,   -490,  -9003,   1821,   5897,  -1955,  -2941,   5338,  -1182,  -7874,  -6565,  -3750,  -7440,   8036,  -4085,   7637,   8369,   5874,   3738,    -47,   -326,   4924,   8586,  -3443,   3920,   5530,   2208,   6909,  -6759,   7358,  10146,   -660,   2955,   2332,   5203,   4818,   3225,  -8834,    212,   -454,   1548,  -9107,   5754,  -3348,    580,   1872,   9809,   1734,   -208,   3149,    827,   7076,  -8823,    398,   3464,  -2930,   8314,  -1123,  -4920,  -7359,  -8373,   3488,   8511,  -4574,  -3096,   5401,   1489,   1707,  -4454,   2880,  -7580,  -6615,  -5310,   4985,   4195,   2846,  -7053,   7408,   5367,  -8570,  -5427,  -1702,   8478,   4509,  -1771,  -1495,  -1768,   7899,  -4446,  -6368,    232,  -2732,   4199,  -3622,    690,  -2202,   -510,   7372,  -7610,   5666,   4672,  -5063,  -1396,  -4027,  -6494,   6805,  -3523,  -5191,   1676,  -2020,   7762,   1944,  -1458,   -600,   3979,   6954,   2696,   7418,
          4458,  -7337,   1444,   1289,   3286,   5506,   6312,  -2710,   5365,  -7813,   4810,  -4578,   -224,   2417,  -8096,   6832,  -1389,  -9428,  -3585,   5521,   4392,   2976,   1795,  -5588,   6381,  -9002,  -7040,  -6959,   4064,  -5032,   7110,   3008,    -15,  -7956,  -2732,  -2258,   1000,  -1988,  -5997,    866,   1337,     13,   5509,  -6213,  -6268,   9056,   2965,   7490,    714,    626,  -7786,  -4419,    165,    371,  -1485,   7210,  -1389,   3599,  -8583,  -5204,   2466,  -1713,  -9304,  -5919,   7842,  -7273,   6369,  -3637,  -4195,  -8492,    602,  -4455,  -1560,   -761,  -1986,   6094,   7487,  -5579,  -3819,  -6853,  -1908,  -1413,  -7924,  -6923,  -5212,   9139,   7162,  -6618,   -157,   3173,   3038,  -7115,   3554,  -4847,   6041,  -1425,  -9209,   1976,   4675, -10034,    239,  10094,  -4729,  -2959,   3134,   5899,  -9536,    244,  -5573,   2227,   -689,   9402,   -695,  -3279,   2873,  -2790,   4336,   7257,   2212,   4019,   9721,   4502,  -2571,  -4327,   6955,  -5999,    534,  -5443,    975,   -674,   6242,  -1942,   5690,   4809,  -1726,  -3307,   5336,   1361,  -5328,    110,  -5259,  -2846,   -266,   -983,   1399,   2063,  -7595,  -8315,  -4781,   9387,   5559,   7267,   6726,  -5676,  -2222,  -5410,  -8517,  -4373,  -4048,  -1813,  -2297,  -1930,  -6141,   3274,  -1815,  -1750,   5615,   7137,  -9177,   3080,  -5250,  -5692,  -8205,   2982,  -1068,  -4320,   1751,  -7353,   3314,   1310,  -5703,   2362,  -5287,  -1177,   -947,  -2784,  -1631,   1206,  -6832,  -1355,   5728,   1705,  -2666,   4617,   6940,   -404,   2478,  -4657,   6673,    -66,  -4636,   1640,   3707,  -5767,  -7691,   4359,   8080,  -3416,   7033,  -7199,  -8080,  -4299,   1692,    -85,    797,   2675,   4101,  -9919,  -8221,  -2252,   2012,  -4142,  -5970,  -3357,   7220,   5506,   1619,  -2231,   1116,  -3039,   4122,  -1908,   2827,   6598,  -9272,    780,  -5759,   -184,   3661, -10170,   2667,  -8320,   3491,   5167,  -4697,  -9893,   7191,  -7204,  -6685,   9572,   8053,   5711,    519,   3480,   -619,   1392,   5770,  -5752,    254,  -5530,  -2607,   3658,  -2327,  -6818,      3,   5823,   7127,  -8235,  -7182,   6499,  -1820,  -1331,  -5080,   5577,  -2732,  -2399,  -2262,   9866,  -5120,  12679,  -6802,   -222,    871,  -5444,   8096,   8068,   -628,   7703,   7893, -10287,   8638,   3275,  -9297,   5245,  -4408,  -4793,  -2454,   1497,  -9593,   5828,   9933,   -716,  -5351,  -7457,   3398,  -9334, -12004,   -269,   -784,   1893,  -3683,   3560,  -4019,   1107,  -1265,  -9646,  -8604,  -4597,  -4821,   -360,  -7314,   1496,     91,   7087,  -1917,  -5023,  -8430,  -4057,  -6987,  -7191,   6393,   6802,  -4722,   3693,  -3887,   6961,   1874,  -7711,      4,    857,   -387,   4847,   4591,   4561,   -805,  -7170,   -905,  -5597,   1974,  -9228,   -685,   5497,   5168,  -2176,  -9821,  10228,  11589,   -672,   2307,     79,   4323,   2652,  -6265,    843,   4456,   5286,  -6500,   7370,  -7013,     37,  -8220,   -924,   7754,   7911,  -7480,  -2824,   7864,   1223,    781,   2463,  -2237,  -6939,  -3140,    380,  -2283,   7204,  -1975,  -1182,   4362,   4274,   3386,  -7354,   2250,   6543,  -1334,   7212,  -3722,    823,    641,   3825,    907,  -5169,   -876,   5434,  -6231,   1998,   -376,   9398,  -4051,  -1100,   -897,   6206,  -5408,  -3250,  -1947,  -6745,  -9389,  -5877,  -5879,   3362,   3004,  -1350,  -3327,   4048,  -2250,   4967,  -5586,  -2044,  -5261,   3163,    256,   6483,   4922,   4962,  -5327,  -2982,  -4104,     48,   6861,    688,   3915,   -720,  -3567,   6794,   2104,  -6123,   2894,   8225,  -7947,  -1969,   6155,   3464,   1438,  -1734,  -7368,  -8128,  -6439,  -8106,   2977,  -7503,   1865,  -6663,  -4867,   1248,   3668,   6729,    412,   3379,   -698,    439,   7002,   3821,   8139,  -6429,  -4084,   8041,    308,  -4567,   3739,  -3726,    741,   7687,   2269,  -7185,  -7188,  12528,   2106,   8525,  -4563,  -1748,   3752,   4217,  -3209,   4576,  -4619,   8262,   7205,   8371,  -3637,   9760,  -5070,  -8548,   -203,   5952,  10545,   1589,  -2658,    832,  -3068,   6876,   3328,   -360,
          6876,  -4783,   8098,  -5883,   4799,  -5115,   5402,  -4711,  -1546,   -313,  -1774,  -3895,   1168,   8246,   2421,  -4499,  -5375,  -7528,  -9739,     39,  -4967,   2911,    948,   8641,   1598,   4086,  -1616,  -5494,   4569,   -948,  -2738,   1489, -10749,   5179,   5529,  -1347,   3532,   4539,  -5494,   8804,  -2737,  -3434,   2703,   6652,   4310,   5028,   6215,   4498,  -2112,  -3766, -10152,   1257,   9041,   4547,   4066,  -4198,  -1749,  -3043,  -8608,  -3466,   1727,  11091,  -6785,  -1906,  -3319,  -4637,   -498,  -1118,   -476,   -310,  -5962,   1946,  -5958,   7036,  -2027,  -8217,   2826,   1969,   6989,    506,   -497,   8771,  -9636,   1467,  -6747,   7145,  -3356,  -2206,  -1848,  -9239,  -7683,  -6056,   -516,  -2104,  -5559,  -3312,   4966,  -2077,    404,  -8867,   3820,   1262,  -3393,    813,   2045,  -7843,   1338,   7995,   1376,   4273,    743,   5183,   -630,  -6525,  -9083,   9897,   5746,   4019,    475,  -3254,   5596,   5305,   -292,  -7108,  -4455,   6892,  -8427,  10499,  -2913,  -3655,   6123,   8282,  -6032,   4642,  -6312,  -4486,  -3511,   6604,   8403,   4554,   3263,  -3824,  -6170,   7989,   3953,   6303,  -9070,  -1166,   5652,   7572,   6461,   5778,  -4579,  -1488,  -8182,  -6293,   7913,  -9161,   5947,  -4893,   8892,   3876,   3447,  13051,  -1645,    242,  -3437,   2595,   -738,  -1794,   4648,   2894,   8434,  -7468,  -9299,   1183,  -3992,  -1439,  -1423,   -602,   2887,  -6817,   2331,  -3220,    186,  -6687,   5892,    159,  -3468,   5089,   -993,   2611,   5688,   4249,   7557,  -6395,  -2274,   -589,   6179,  -8432,  -5927,  -1684,  -6377,    980,   5414,  -2959,  -2187,   5675,   7951,   -527,  -2968,   1732,   6388,  -1670,   4755,   2489,  10576,  -5892,  -7110,   6953,   4298,  -8216,  -9033,   5392,  10038,    583,  -3738,   8682,  11080,  -3950,  -6034,  -5998,   3005,  -2530,    633,   6992,   8865,   6790,   4892,    -75,  -6222,   4287,  -7318,   4391,  -1237,   5698,  -8262,   1059,   6619,  -3027,   3894,   6014,   8139,  -8214,  -1548,  -3745,   8113,   1686,   -891,   3529,   4085,   6749,  -1741,   1506,   5392,    451,   3026,   3033,   8077,   2611,   4479,   3131,  -8351,   6181,    639,   1734,   3436,   7975,  -7265,   8657,  -7668,   3072,  -7639,   3485,  -3259,   2083,  -9327,   2975,   2146,  -4117,  -4423,  -3038,  -1962,   7790,  -6495,  -2709,   4828,    557,  -8898,  -9496, -13253,  15978,  -1582,   8023,  -1022,   8867, -11500,   4282,    737,  -4054,  -6506,  -4772,   4745,  -4980,   7173,  -6317,  -6601,   4570,  -2524,   6739,   1981,   2899,   6149,  -6506,  -3737,   3257,   -251,   1172,   7098,   4338,    946,    222,   5969,  -3271,   5763,  -8066,    667,   -873,  -5521,   9198,   3597,  -5195,   1761,   7209,  -3603,   2609,  -7348,   8152,   7857,  -6253,   5663,  -6304,  -6655,  -1065,   5396, -10932,  -4307,   5699,   1056,   2604,    459,   8364,   2993,  -1389,  -7274,  10999,  -1982,   5721,  -6197,  11433,   1110,   5877,  -3893,  -2242,   4165,   -341,  11845,  -2579,  -6574,   5388,   -889,  -9428,  -5005,   5073,  -4018,  -5598,  -1276,  -8147,   6473,   1864,  -4276,   1064,    524,  -2548,   2054,   8453,   6365,  -7563,  -2523,  -1792,  -8556,   3866,  -7717,  -2343,   1174,  -2723,  -8923,   4712,   5573,   3066,  -6629,  -6786,  -8134,   7785,   7430,  -5357,   3627,   5425,  -4452,  -1428,   1455,  -3277,   2921,   5556, -10910,  -1818,  -1615,  -1781,    988,   5143,  -3365,  11755,   6047,   -244,  -5701,   2333,   9479,   2658,   2480,   6609,  -5271,  -2752,   5760,  -6892,  -6409,   2394,   5870,  -4448,   1112,  -7700,  -3636,  -6900,   2143,  -5521,   4527,   4925,   6810,   1853,   2348,  -3101,  -2914,   8393,   5977,  -4205,   5956,  -6287,  -6425,   8112,   4487,   6132,   4372,   3354,   9647,  -2677,   3082,   7483,    989,   2650,   2964,   7159,   8032,   5631,   -451,  -7878,   1641,    -91,    430,  -4500,  -4820,  -4333,   -391,  -8341,   7608,  -3732,   5565,  -6382,   2936,   2005,    464,   7197,    783, -11339,  -5030,  -2597,  -7244,   4144,  -1374,   7685,  -6515,   -744,  -2405,   4191,
          1966,   8252,   6487,    631,   4459,   7998,   -701,  -7742,  -4305,  -6960,  -2135,  -2874,   4256,   -384,  -8026,   7233,   1659,  -7702,  -4471,    376,   1387,   5226,  -2504,  13260,   7404,   1231,   2809,   9171,  -1471,  -1562,    762,   9763,  -1916,   2038,  -9223,   9366,   7575,   5252,   4460,   5529,  12303,   6078,   2373,  12534,   9978,  -8228,  -6787,  -8567,   -770,  -3759,   2016,  -1008,   -777,   9763,  -9062,   1575,   -310,   3400,  -6422,   1423,  -9827,   2373,   6891,  -7646,   6199,   3965,  -3905,  -5004,   -944,   5866,  -2340,  -5032,    202,   8245,  -7720,   6923,   4208,   6784,  -8001,  -3922,   8639,   8000,  -5894,    655,  -9299,   2583,  -8438,   3680,  -3140,   6331,   -999,  -4025,   4669,   5175,   5252,  -3758,   6077,   5497,   5582,   -355,  -2111,   5183,   6378,  -5361,   6645,  -4229,  -8496,   4391,   3640,   1777,     97,   -886,  -6061,   6570,  -1224,  -4440, -12460,   3110,  -6552,   7223,   4032,   7288,  -6504,   6596,   6347,  -7664,  -4659,   6673,   4183,   2314,  -6605,  -3238,   -280,  -5247,   7097,  -3040,  -7006,  -8222,    932,   4145,   -519,    697,  -7013,  -4961,   4371,  -8451, -10249,  -3748,  -3230,   1889,   -116,    230,  -3206,   1913,  -9452,   4236,  -8992,   8618,   2401,   5852,  -2217,  -5756,   6870,   4341, -11640,   6051,  -5067,   9314, -11590,  -5510,   -114,   2748,  -7103,   5314,  -3388,   4002,   4580,   5003,  -2275,   3923, -10044,   1214,   3637,    540,  -2445,   3133,  -3816,   1730,    754,   9174,  -3960,  -6885,   1884,  -3991,   8175,  -8305,   7233,  -1635,    398,   7202,  -6956,  -4192,  -1877,   2738,  -2766,  -6192,  -2556,   3179,  -2079,    832,   1445,   1785,   5531,  -2623,   3540,  -6135,  -2959,  -4444,   -605,   3655,   3651,     90,  -4327,   -283,   1497,   4689,   -833,   1595,   -562,   5428,  -2291,  -5569,  -3422,   6804,  -8328,  -9298,   2534,  -2457,   1698,   4033,  -1916,   2907,   5577,   6293,   8701,   6284,  -6192,  -3035,   5864,   -704,   6893,   9041,   5084,  -5967,  -2715,  -9274,   -431,   8113,   2724,   6156,  -4350,  -1517,   4290,  -5344,  -6186,  -6428,   6548,  -3792,  -1863,  -4736,  -5775,   7576,  -5309,  -4154,   2956,   1694,   3270,   3242,   2325,  10040,  -7866,   -722, -10344,  -6191,   1742,    483,    884,   6122,   3989,   5297,   -243,  -6516,   2046,  -4667,  -1413,  10342,   1912,   2228, -10435,   -260,  -1498,   2506,   2059,   4500,   6968,   4066,  -7777,  -2224,  -6862,   5557,   3943,  -4621,  -1860,   6753,   5184,   4058,  -6575,   5144,  -8768,  -2360,  -1676,   1302,   4441,  -7868,   2196,   7623,  -6072,   7720,   1196,   1011,  -1700,   1642,  -8177,   2084,   5557,   3630,   4558,   7401,  -1476,   1619,   8768,  -5209,   2997,   2625,    492,  -5955,  -9007,  -1715,    471,    878,    939,  -1720,  -8000,   -587,  -4576,  -3719,   1501,  -2267,   4040,  -6405,   2306,  -8185,  -3231,  -5078,   6350,  -5212,   2117,  -7920,   8990,  -1289,  -8589,   4149,   5343,   3120,   7245, -10712, -10697,  11747,   1299,   1668,   7936,  -3930,   6996,   4972,  -1334,   -919,   3759,   7560,  -2609,  -7012,  -4065,   6981,  -6087,   4180,   1543,  -9114,     46,   6544,  -2112,   3219, -11570,   7157,  -8158, -10209, -15175,  12318,   6156,  12730,   -621,  -1122,  -4292,  -5938,   4110,  -2534,  -2084,  -3716,   5634,  11265,   5674,  22539,    207,  -9962,   3425, -11499,   4420,  -8871,  -7987,  16210,  20901, -20072,  -3730,  -2215,   3536,   6140,  -5968, -12533,   7134,   3166,  -5800,    937,   8734,  -4566,   -282,   3995,  -4922,  10407,  -4963,   6960,   3408,  -2264,  -2155,    453,   2464,  -6331,   2029,   3988,  -6376,  -6260,   8073,   2288,   4216,   5424,   4588,   1018,  -3447,   1273,   3674,   2024,   6956,  -2425,   7126,   6676,  13889,   1431,  -2244,  -5647,   7969,  -9285,   -165,    622,  14457,  -8002,   6040,  -1470,   1565,  -7145,  -3447, -11088,  11136,  -9791,  -4192,   9037,   9478,  -5661,  -4931,   6202,  -6196,   9217,  -1325,  -1904,    219,  10165,   1454,  10819,    432,   -504,   2018,   3147,  -1079, -11923,  -2210,   3612,
          1210,    361,  -8010,   1771,  -7605,  -8268,   7670,  -5347,  -1730,    202,   8200,   6066,   7847,  -8330,  -4090,  -8104,    108,  -2820,   4336,  -3884,   6502,    721,  -2533, -10806,   8849,  -4023,   1231,   2488,   6117,   5313,  -5444,   3558,   4505,  -9955,  -8853,  -7083,  -4547,   8075,  -4349,   4159,  -3437,   1965,  -2797, -11607,  -4562,   4292,  -1131,  -5017,   3419,   -125,  -4717,  -3408,  -2982,  10879,  -4189,   3971,  -1745, -12015,   2762,   1003,  -4149,   4249,  -1735,  -3423,    805,   5598,  -4346,  -5935,   2160,  -5347,  -3448,   5850,   5828,  -6468,   4477,   -324,   7204,   7215,   3550,  -2797,  -4958,   8016,  -2271,   5698,  -3754,   1037,   3150,  -7415,   3550,  -5332, -10138,   6900,   1979,   7306,  -5689,   4935,  -5646,   7966,  -1764, -10833,  -3872,  14990,    559,  -5492,  -7423,   2356,   5208,  -3116,  -6090,  12270,   5551,  -1729,   1589,  -1281,   4515,   7416,   4842,   6054,   -850,  -5491,   9176,  -5956,   5563,   4337,    706,  -4852,  -7259,   6204,  -5238,   -219,  -4806,    499,   7600,   5126,  -4247,   5486,  -4782,  -2186,     97,  -6910,  -7420,  -6034,  -6811,   5595,   2362,    -80,   2251,  -2215,   5365,   9348,  -8313,   -910,   3194,  -7425,  -7822,  -5744,   1557,   2992,  -6495,    515,   2520,   4853,   5428,   6634,   -779,  -3314,   7068,   7231,    503,  -2287,   1540,   7877,   6928,   1528,  -5145,   7713,   4696,  -5176,   2221,   7640,  -3521,    388,   4402,  -4753,   7061,  -1760,  -1883,  -1035,   4433,  -2955,  -2673,  -4522,   4101,   6522,     32,  -3099,   6223,  -2587,  -1555,  -5431,   3179,  -2044,   3170,   5922,  -2564,  -4379,  -4684,   4339,   5882,   3982,  -9960,   2933,   6859,   4478,  -1051,   2732,   5564,   1635,  -7815,  -4937,   1730,  -4635,  -1865,   3445,   1323,   6313,   6097,  -9494,   4147,   2923,   7719,  -6429,   2233,   -660,  -6326,   3644,   9031,   5187,    792,  -6016,   -646,   4708,  -2463,  -1914,   1147,   2479,   5609,   4893,  -7396,  -6519,  -2342,  -6139,   7593,   5674,   6209,   6011,   3225,   -953,   2844,   7056,   7648,  -5488,   -231,   3176,   5525,  -2608,   6461,   -118,    639,   3801,   5716,  -4481,  -8191,  12373,  -4473,   3196,   5657,  12044,  10696,   2709,  -9127,  10746, -12533,   8483,    246,  -2997,  13946,   7191,   -260,   9792,   -737,   5113,   9887,   2768,   7560,   9504, -10271,   8950,  -6602,   3366,  -4268,   1125,   1473,   1858,  -4585,   7896,   2097,  13396,   2937,   2403,  -1864,   8483,  -4303,  16928, -14254,   5681,   1468,   7937,   7162,  13175,  -2951,   5555,   1242,   4959,  -3460,  -6620,  -6221,  -2630,   3292,   5804,  -6461,   6047,    225,   -452,  -8760,   8535,  -4183,   2261, -11189,   7393,  10282,   -475,  10572,  -1332, -10854,  -1724,  -5588,   4803,   4604,  10719,   1095,    511,    -73,   6202,   6403,  13127,   5087,   6746,   2253,  -4181,  -2126,   2223,   2534,  11075,   1825,   9620,     81,   5902,  -8878,   5264, -12284,   2365,  10311,  -1389,  11786,   1162,  -7189,   8907, -14952,   3645,  15580,     69,  10529,  14108,   6953,  -5659,   3664,  -4131,   1535,   4176,   6004,   3910,   1049,   6043,  -7985,   5140,  -4457,    303,  -5724,   5434,   6572,   3327,  -7645,  10275,   7673,   -752,    147,  -3881,   2024,   6909,  -4443,   6075,   4107,   4207,   1520,  -1241,  -8647,   7245,   4609,  -1563,   1969,   1014,   -126,    414,   1038,   3164,   3060,   7637,  -1301,   3375,  -4784,    141,   -792,   -876,  -7234,   2590,    127,    314,   8155,   5926,  -8525,   4971,  -2365,  10687,   3121,  -3518,  13193,   -874,  -2691,  -2869,  -8450,   1108,  -1455,   6833,  -7488,   6109,   2203,  -7722,  -2057,  -5525,   2458,   1907,  -1055,  -2063,  -8804,    246,  -7686,  10997,   1075,  -2069,    169,   7440,   5533,  -1162,  -7424,  -1935,  -5416,   1801,  -3489,   -783,  -4018,  -3459,  -7832,   1395,  -4899,   -994,   5148,   1504,  -3202,  -2834,  -6981,   -574,  -4205,   1859,  -1316,   7926,   1328,   6086,   5273,   1036,    754,   4847,   7297,   1882,    566,   6639,   -751,  12275,  -1060,  10249,  12177,   1841,
         -3193,  -3339,   7778,  -6130,    943,   6987,   7885,  -6855,  -6953,  -7400,  -3303,  -2572,  -2147,    -51,   2133,  -2476,   5264,    534,    294,  -1404,   3495,   2358,  -2739,   1865,  -4102,  -3406,  -3614,   6197,  -3076,   5606,   3260,   3226,   3794,   2897,    675,   1549,  -3440,   5088,   1900,  10522,   6196,   2056,  -2647,   4121,    -21,   9088,  -6883,   4574, -10393,  -3491,   9255,   4451,   3026,    790,   2482,  -4909,   7755,   4701,  -7667,   2205,  10071,    538,  -6122,   1564,  -5961,  -6272,  -7085,   -387,    846,   6721,   1907,  -1561,  -2663,  -4151,   2805,  -6904,    817,   1322,   2105,   7549,  -6828,  -5647,    772,   1531,  -3733,   2971,   1580,  -5882,   7207,   5947,   5974,   -629,  -4631,   3074,   4236,   1277,  11435,  -7767,  12776,  -2183,  -7370,   3471,   -434,   -115,  -1311,   5784,  -3819,  -3589, -11920,   4116,  -4846,  -7450,   3022,   5526,  -2656,  -3686,  -7519,  -7312,  -9223,   2255,  -5566,   -107,  -1346,   7395,   -504,  -1430,   1851,  11984,  -3652,   1543,   3893,   7721,   6418,  -4433,  -5751,   7215,  -2047,     82,  -3049,   5018,   -119,  -6087,  -2607,   1171,    525,  -5809,   2011,   -574,   4331,  14055,  -3167,   8528,  -7561,   8559,   5391,   3901,   3632,  -3530,   7090,   7692,   3352,  -8693,  -2339,  -5408,   3080,   4323,  -9281,   2074, -12932,   7056,  -7044,   4254,   5949,   6701,  -3871,  -1863,  12480,   4451,  -3999,  -5516,  -8903,   7327,  -1437,  -2926,  -1348, -10919,    381,   3912, -10212,   -662,  -2272,  -5613,  -7668,  -7236,  -6939,   2336,   8165,  -8287,  -7055,   5693,  -6138,  -6375,  -5276,  -3164,   -109,   2961,   4490,  -4798,   6140,  -7530,   5600,   4747,   2754,  -2539,  -5668,   1835,   5255,  -5381,   7031,    706,    -11,   2177,  -4294,    -20,    -60,  -9263,   7791,   2708,   1626,   7002,   6342,  -2201,   5760,  -2535,    146,  -2919,   5995,   2878,   5442,   3074,  -3678,    287,  -1401,  10927,   9611,  -3897,   1468,  -3055,  -4017,    448,   7567,   6152,  -2208,  -4682,  -1494,  -1966,   2259,   4659,    -23,  -2457,  -1990,  -8039,   7007,  -1736,  -8543,  -4050,  -5036,   5127,   6293,   1237,  -2964,  -1317,  -3529,  -4438,  10050,  -1384,  -1062,  -4724,  -5880,   -241,   4212, -11025,    972,  -3287,  -4190,  -4967,   5877,   7956,   3772,  -9297,   6929,  -4246,   5012,   6860,  -2352,  -6920,  -1682,   3570,  -5274,  -4225,   8968,   4301,   5095,    -25, -11008,  -2855,   3682,   6575,   8500,  -8047,  -2682,  -5802,  -7326,   -704,  10447,  -4436,   3677,  -3479,   3764,   4525,    542,   6114,  -3284,   -266,   8434,  -1839,   7377,   4248,  -1741,   1200,   1185,   5238,  -5206,  -4313,   1527,  -7100,   6581,   3038,   2762,   3113,  -3614,  -6922,   5249,   6566,  -5117,   4385,   2104,   7066,   -747,   8698,   4244,  -5216,   8438,   5650,   5208,   3178,  -2302,   5903,  -1152,   8614,   -807,  -2569,  -1916,   3749,    378,   3969,   2305,  -3418,  -9432,   3304,   7607,     83,  -5872, -10062,  -8833,   4519,    721,  -4535,  -2832,   -578,   3653,   -101,  -8587,  -3328,   7219,  -2692,  -5997,   3695,   7084,  -3329,   5302,   6414,  -3622,   7926,  -7513,   3666,   5214,  -2124,   3630,   3701,   8462,   4770,   5721,  -2403,    595,  -5660,    359,   6051,   8795,   6654,   2557,   1788,  -2524,  -6553,    739,   3447,   3105,   5242,   3706,  11516,   4907,   9039,  -3667,   3122,  -4545,   9274,  -9192,  10951,   9932,  -4433,  10650,  -7145,  -4078,   1425,   4050,    924,   3664,  -6126,   1525,  -5347,   8284,   2268,   8868,  -1870,   5062,   6217,   6399,  -1261,    928,   5351,  -1523,   6269,   -772,  -4418,   1217,   4187,  -4373,  -8553,    -22,  -7507,  -1219,   1454,   7692,   7204,   5156,   1276,   9094,  -7061,  -3689,  -5835,   6728,   7064,    833,  -6596,   1291,   5081,    467,  -2318,  -2079,  -5820,     35,   6889,  -2005,  -4973,  -7501,  13193,  -6267, -11394,   3950,   3148,   6609,  -3994,  -8178,   8684,  -7189,  -7360,  -2222,   -960,   7090,  -1665,    283,    770,   -768,   4354,  -3928,  -1525,  -7489,   -742,   2252,  -3815,   -922,   3720,
          4992,  -1760,   1366,   3237,  -6792,   7363,  -1936,   4685,  -3949,   6503,   3711,   7760,  -3620,   -409,  -6274,  -4687,  12483,  -4427,   8066,  11228,    441,   6869,  12293,   1961,   4530,   6079,  -6879,   5534,   4367,   5429,   4705,   2231,  -5400,  -2110,  -5732,    939,    495,  -1319,  -5520,    770,   2105,  -1057,   2333,   3538,  -5352,  -3974,   5063,  -3203,    495,   6526,   5583,  -1113,   -568,  13720,   2768,  -1719,  11561,  -4815,   4506,  -6777,   4547,   6227,  -1149,   6198,   2884,    978,   1435,   8301,   8308,   -640,  -3416,   7149,  -2046,  -4199,   3875,   5332,   1673,  -7324,   2712,  -4016,  -1575,   5002,   7249,   8295,   3176,   4151,   6288,   7178,  -6010,  -7225,   9357,  -8055,    -45,  -1493,   -547,   2208,  -4429,   3259,   6448,  -5684,   2113,    568,   -825,   3950,  -5764,  -4044,  -3215,  -6756,  -3078,    770,  -2355,  -3424,  -6765,   3925,  -6908,   1351,   1448,  -3180,   8342,   8467,   4048,  -6570,  -2382,  -8129,  -2834,   7562,   5775,  -3303,   3479,   8472,  -3787,   7412,   3512,  -1809,  -1083,  -1401,  -2462,   2937,   2034,   3875,   3859,   -588,   7855,   6852,  -2740,   2582,   1937,  -4733,  -4098,  11497,   2203,  -2047,   7734,  -5529,   3777,  -4716,   4069,  -4103,  -1578,  -2452,   -338,  -5119,   2249,   4594,   4225,   -849,  -8859,   -538,   1384,  -6897,  -1371,   -874,  -3632,   1079,   7972,    829,  -4594,   5906,  -7022,  -1549,   9444,   5764,  -4847,  11300,   6982,   6118,  -5647,  -6343,   8207,   5808,  -2768,   8016,   2105,  -7503,  -4944,   6737,   4280,  -7914,  -1097,    417,   7484,   4244,   1481,  -7911,  -2065,  -1754,   5541,  -2751,   3373,  -1498,   7123,   1786,  -3637,   1837,   3237,  -2934,   1489,  -4715,  -1896,  -2914,   3578,   1128,    -49,  -5632,   6266,   6128,  -8298,   7995,  -5829,   7244,   3385,  -2299,   3408,   6496,   4551,    292,   -629,   6354,  -1399,  -5389,   4247,   7517,  -8152,  -3838,   2874,   6007,   5422,  -1083,   7802,  -6315,  -4554,  -5379,   5378,  10888,    -94,   3597,  -5718,    -12,  -3591,   7301,  -4625,   2971,  -4428,   2804,   4442,   -709,   8211,   -470,   8537,   8515,   2364,  -4916,   9359,  -1349,  -5006,   6269,    190,   2310,  -5211,  -1353,  -6818,  -4650,   7426,   6844,   5757,   5983,   5459,   5210,  -2163,  -2942, -11097,   8761,  11474,   7393,   1057,   8579, -10044,  -1443,  -9006,  10094,   2306,   6272,   7396,  -4758,   6694,  -5836,   4529,   1266,  -5504,    733,   6278,   1503,   8853,    483,  12653,  -6140,  -9227,   7625,   1145,  -1506,   3060,  -5767,   -351,   1425,   8150,  -3952,  -6997,   -137,  -7580,  -1297,  -3568,   6269,  -8946,  -7356,  -6581,  -6831,  -4920,  -3517,  -3119,   7295,  -4555,   5891,   2728,  -5279,   7523,  -8783,  10989,    242,  -3592,   7010,  -5534,  -8611,  12770,  -1822,   5457,   3854,  -2323,   5312,  -5813,  -3864,  12944,   6092,    950,  -8054,  -2217,   8822,  -4422,  -9907,   3625,   2187,   7291,  -1043,   2912,   5671,  -8509,   3854,  -9807,   -380,  -5899,  10590,   9250,  11063,  12593,   9503,   2424,   7038,   3004,  -5137,  -2425,   7138,   8799,  -6319,   6928,    152,   8105,  -2410,   6230,  -1485,   3763,   1975,   1552,   5535,  -2761,  -3548,   4300,   8226,   -162,  -1617,   1597,   4360,   1837,   2300,   7135,   -599,   7026,   4755,  -2870,  -1968,  -7699,  -3327,   5537, -15411,  -2954,   5845,  -4627,  11901,   2835,   3684,   4725, -11840,   7976,  -4189,    258,   4473,     24,  11716,   7226,  13542,   8692,   7742,   3497,   7453,   8278,   5681,   1425,  -6492,  -4061,   4759,   -582,  -3312,   -969,  -7280,  -7881,  -4626,   -783,   1549,  -2016,   7334,  -6790,  -8671,   -713,   8859,  -1487,  -8414,   6198,   1256,  11823,  -4195,  -3285,   3907,   6387,  -2605,    581,    289,  -2215,  -1704,   7810,   2886,    619,   -608,    498,   2080,   -163,  -4668,   2216,  -7514,  -1094,   4762,  -4613,   9148,   3429,  -5110,   -248,   4885,   7469,  -8162,   3627,   5832,   3080,   9523,   6284,  -5904,   2964,    772,  -4671,  -3247,    -21,  -1958,    -33,  -3822,  -2401,  -7848,
