#include "birdnet_extended_int16_coefficient.hpp"
using namespace dl;

namespace birdnet_extended_int16_coefficient
{
    const static __attribute__((aligned(16))) int16_t statefulpartitionedcall_sequential_conv2d_biasadd_filter_element[] = {
         12462,  23740, -12918,  21033, -24369, -20661, -18541, -16724,  -1488,   2626, -23879,  24025,  21054,   9550, -19295,  -2693, -19837,   1112,  22022, -22559,  18004,  22505,  28498,  23017,  21661,  22919,   1964, -14146, -14429, -25507,   -784,   6604,  -8701, -26302, -10498,   7442,  23320,  -9969, -24545,   7116, -22062,  11704,   4614, -19850,  -6009,   3525,  22326, -25945,  15192,  24881,  12966,    876,  -6719, -27920,  -5507, -14233,   4462,  15708,   9863,   9261,  -2444,  18588,  -6905, -24650,   3462, -25324,  21925, -10082,  17196,  31698,   7109,  -3800,   5078, -21255,  18270, -15813,  24882, -30577,   4862,   2143, -14386, -24046, -12429,  30500, -22312,  20239,  -9996,  18822, -22990,   2879,   4265,   9979,  -4548,  -5215,   9664, -18226, -15639,  -5797,   4379,  17443,   6983,  11870,  10491, -17575, -17392,    659, -26648,  15967,  -6171,  16415,   -534, -15580,    452,   5539,  24929, -18585,  -1324,   9859, -14205,  23663,   5167,  24607,    617, -20081,  10225,   6231,  22122,   7981,   9722,  13381,  -2879, -13062,   7686,   3416,   1159, -27254, -20642,  -5692,   3013,  -6485, -10878,   1640,   8618,   8506};

    const static Filter<int16_t> statefulpartitionedcall_sequential_conv2d_biasadd_filter(statefulpartitionedcall_sequential_conv2d_biasadd_filter_element, -17, {3, 3, 1, 16}, {1, 1});
    const Filter<int16_t> *get_statefulpartitionedcall_sequential_conv2d_biasadd_filter()
    {
    	return &statefulpartitionedcall_sequential_conv2d_biasadd_filter;
    }

    const static __attribute__((aligned(16))) int16_t statefulpartitionedcall_sequential_conv2d_biasadd_bias_element[] = {
           378,   -460,  -1138,   -434,   -260,   1863,    902,      0,      0,    894,    940,    864,    511,     67,   -704,    680};

    const static Bias<int16_t> statefulpartitionedcall_sequential_conv2d_biasadd_bias(statefulpartitionedcall_sequential_conv2d_biasadd_bias_element, -15, {16,});
    const Bias<int16_t> *get_statefulpartitionedcall_sequential_conv2d_biasadd_bias()
    {
    	return &statefulpartitionedcall_sequential_conv2d_biasadd_bias;
    }

    const static Activation<int16_t> statefulpartitionedcall_sequential_conv2d_biasadd_activation(ReLU);
    const Activation<int16_t> *get_statefulpartitionedcall_sequential_conv2d_biasadd_activation()
    {
    	return &statefulpartitionedcall_sequential_conv2d_biasadd_activation;
    }

    const static __attribute__((aligned(16))) int16_t statefulpartitionedcall_sequential_conv2d_1_biasadd_filter_element[] = {
          1542,   3440,  -1843,   8358,   2990,   6708,   8148,   7598,  -3713, -12354,   -981,  -4330,   2207,  -6311,   -872,   -643,  -9754,   7220,   9174,    -94,  -2622,  -1922,    580,   6365,  -2532,  10682,   4040,   -771,    322, -10019,  -1836, -10537,   2350,  -5714,  -1129,   3944,  -3491,   4653,  -4997,  -2206,  -7717,  14230,  -4027,   9187, -15452,   -373,  -7762,    816,  -2357,   -593,  -3165,   3533,   3265,  -4358,   5417,  -2203,   3573,  -7082,   2773,   5811,   -474,   9449,   2945,  -2197,  -6397,   1693,   3309,   1320,  -7593,  -3124,   3830,  -8158,   6578,   9024,   7203,    920,  11394,  -4477,   3705,  -2942,  -3159,   3887,  -4032,   3737,   3380,   7861,   8586,  -1987,      7,    570,   2009,   3138,  -5343,  -9440, -10631,   -353,  -2905,  -5247,   2167,   8452,  11900,  -4173,  10006,   8806,    548,   7507,   5828,   7203,   4949,  -8825,  -6928,  -2883,  -6512, -10574,   5274,   4069,   7494,   3876,   7975,   7339,   2327,  -6859,   9328,  -2326,   7166,  -3964,   5067,  -1954,   4552,   3150,   5998,   4335,   6357,  -1535,   4816,  -7664,  -1639,   9844,  -5097,  -6033,  -8203,    190,  -4114,  -4908,   2816,  -5592,   1942,  -8038,  -2020, -10687,  -9349,   6543,    840,   4260,  -6126,  -7122,   5047,   3455,  10397,  -9606,  -5215,   3814,   2681,  -1414,   7937,  -3141,  -3547,   3111,  -8746,  -7291,   6134,   2581,   9906,   5490,  16119,  11342,  -2170,  -7395,  -8092,   7368,    505,  -7947,   5642,   4143,   2024,   8653,   2260,  -6165,  -3316,   1925,   3519,   6361,   2877,   5434,  -3582,   2288,   -604,  -6612,  -3851,   9188,   2040,   -800,  -3082,  -2678,    -37,   5078,   2341,   5108,   -974,  -1781,  -6416,    392,  -8472,  -5442,   -432,    745,   1620,   4688,   6239,   8593,   5502,    664,   3543,   7607,  -4650,   2881, -11523,   5022,  -6225,   -456, -11483, -10262,  -4627,    777,   4484,  -8237,  -8148,    631,   3743,   8316,   6818,  -1998,  -5488,  -8718,   5085,   5922,   6434,   8136,  -6745,   8180,  -9110,  -3814,  11324,  -8146,   -994,  -5154,   7567,  -5769,  -6868,  -4413,   5484,   4106,   -576,   8545,    964,   6009,  -1993,   1054,  -9574,  -5113,  -1162,   9544,  -2134,   9573,  -6521,   -888,  -1246,   5416,   4679,  -8171,   2998,   8585,  -7082,   6579,   3222,   3451,   2393,   3149,    -81,  -3059,  -1028,  -2860,   3660,  -7776,   1055,   8151,   5864,   2985,   -811,  -5487,  11422,   3574,    686,   5172,   4339,  -2416,  -2391,  -2801,  13442,  -8226,  -6727,   5589,  -7286,   7935,  -5429,  -2463,   5995,   6890,    -32,   7600,  -4465,   4390,    516,  -7080,   -493,   4056,   6766,  -1293,  -4078,  -8347,   -399,  -4345,  -5756,    796,  -4786,   2659,     94,  -4584,   6600,  -5540,   6838,   -898,   6406,  -1529,  -7598,   1697,   5825,  12266,   4423,   5988,   9873,  -7236,  -4253,  -9420,     69,  -7339,  -1480,   1752,  -3219,    550,  -5346,   7598,  -8393,   5613,   -848,   5245,   6645,  -4354,   6837,  -7735,   7524,  -2434,  -8464,   5759,  -4770,   6343,   1539,  14159,   6526,   5461,  10497,  -2111,  -1554,   8469,   -972,  -3941,   6961,  -2805,  -4586,    775,   2534,   3890,  -4668,  -3671,   9253,  -5423,  -3255,   3133,   6116,  -8574,  -1899,  -5703,  -5325,   5128,  10119,  -9065,   2050,  -1502,  -2909,   3830,  -9631,  -6716,   -744,  -1884, -15300,   -554,  -7204,  -1349,   4747,  -1786, -10968,   3388, -11604,   6477,   4261,   9585,   4320,  -1503,  -2341,  -9196,  -6169,  -4829,  -1775,  -1431,    384,   3215,   2565,  -4166,     77,   4150,   2891,  -4571,   8708,  -1442,   3288,   9301,  -4605,  -4723,  -6003,   2769,   6586,   9455,   5493,   3667,    922,    471,  -4545,   7881,  -1774,   8420,   6053,   4040,  10459,   9158,   7758, -10826,   6856,  -3965,   -573,   2160,   -353,   7584,  -2178,   8547,  -8170,   2317,  -5368,   3993,   2673,    956,   6166,   1539,  12146,   7938,   2512,   2682,   4103,   6390,    206,   -369,  -3659,   -568,  -5618,  -9907,   6602,    881,  -1713,   3420,  -8340,   -648,  -3077,   3935,   2963,   -158,   6170,   5014,   7805,  -9542,  -7306,   6353,   4091,  -2068,
         -9328,   1650,  -3194,  -3809,  -3117,   6695,   -392,   1017,    540,   5888,  -3846,   7133,  -6055,   4738, -10511,   7750,   3706,   6279, -10304,  -5039,   9664,  -6328,   3668,   3151,  -6080,  -9079,   3060,   -879,   7549,   2488,   5949,  -7227,    236,   3207,   5113,  -7074,  -1604,    114,   4288,   8427,  -5395,  -3573,  13691,   -717,   3220,  -8672,   4330,  12456,   8316,  10194,  -3546,   8289,   4713,  -4119,   2257,   2618,  -9113,   6311,  -5073,  -9032,   8967,  -6832,   1712,  -4518,   1813,   8328,  -3637,  -6524,   8248,   6464,   5862,   -770,  -5719,    399,  -8686,  11316,   5205,   7491,  -6122,   -565,  -7346,  -1241,   -898,   5701,   1113,  -7092, -11306,  -2292,   -173,   -344,  -2889,   3942,  -6134,   6028,   9320,   6169,   2479,  10812, -11417, -11332, -10683,   7089, -11244,  -4034,  -9455,   3564,   5242,     43,   2388, -10641,   8624,   -861,   -653,  -6236,  -5503,   1235,   8216,   5486,   -942,  -7921,    771,   2144,    502,   3808,  11689,   4783,  10553,  -3875,   4266,  -9698,   6710,   5367,   -214,  -6378,   7371,   -361,   -684,   4867,  -5990,   7067,   1199,  -9948,   8444,  -7656,  -5180,    700,  -7898,  -4270,  -9048,  -8811,  -3324,  -1981,   4612,  -2003,  -7987,  -1129,  -3608,    932,  -4982,  -3436,  -5010,   2219,   2041,  -1735,   8811,  -7565,   3462,  -2943,   3438,    806,  -6929,   8044,   9308,  -2644,  -5649,  -7237,   -521,   7953,  15925,  -4221,   4949,   3252,  10574,   8727,   1144,   3730,  -5425,  -1091,  -3275,  -8964,   7651,  -3960,  -6537,  -7727,   5011,   1092,  -3062,  -3177,   1792,   1121,   -770,  -6435,  -6432,   7824,  -3608,  -4148,   1835,  -6784,   7400,   3045,  -3725,   5460,   5096,  -2615,   5135,  -5069,  -3517,  -4326,   3425,   6526,  -7722,  -3219,  -3687,   3693,   -873,  -4714,   2010,  -5180,   1428,   5905,   2005,  -8088,   -502,   9277,   6961,  -5392,   8732,  -2262,  -4407,   4144,   6009,   4650,  -2608,  -7755,  -5118,   5211,   5391,  -1767,   7169,  13735,   4988,   8490,   5088,  -3295,   7345,   6342,   2680,  -7876,  -5495,   8762,  -7761,  -6418,  -6999,   1319,   4289, -10047,   6561,  -5074,  -7056,   1433,  -6094,   6508,   3624,   4226,   5584,  -5510,   4272, -10342,  -3199,   3175,   7229,   -306, -14694,  -9238,  -1960,  -1187,  -4766, -10043,   3640,  -3736,   -199,  -9709,   5185,  -8539,  -9205,  -2719,  -5560,   5155, -11299,   8513,  -5161,  -3008,   -436,   6204,   4882,  10235,   -463,   6134,  -4079,    873,  -5193,  -3092,   1446,  -1272,  -7464,   1858,  -9248,   5397,  -3659,   7698,  -2844,  -7718,    598,   7252,   5513,   5192,  -4493,   4669,  -6637,   4910,   -895,  12166,  -1894,  -9432,   8713,  -7965,   4760,  -8579,  -6261,   3924,   4699,   -857,  -5991,   7748,   3504,   6023, -10881,   7397,   3479,   3188,  -3364,  -7667,  -1080,   1704,   4174,   8090,   3813,   7081,   2667,   -193,  -4695,     32,  -5481,   -427,  -3473,   6060,  -4159,   5203,  -8769,  -8917,   3675,   2968,   8208,  -8946,    109,  -6058,  -7688,  -2842,    908,   6518,   5699,  -8946,   3429,   4837,  -7421,   7862,  -9555,  -3847,  -8112,   -620, -11584,   1747,  -9402,   6892,  -6239, -10796,  -8312,  -4278,   1723,  -6088,  -2327,   3868,   -812,  -6345,   2326, -10677,   3472,   3376,   4769,   4971,   7455,   -768,   -739,  -3480,   3328,  -2256,  -8129,   1293,   2594,  -3856,  -7978,   7703,  -5826,   6992,  -9867,  -8067,   1884,   7032,  -2255,  -4736,   7367,    244,  -3656,   -762,  -7309,  11452,  14757,  -1228,  -3260,   6724,  -8344,  -1692,  -8658,  -5785,      9,  -1789,   5641,   1933,  -1366,  -7612,  -4009,   2846,  -2291,   -126,   1703,  -5734,   -847,   3145,  10311,   9001,   7283,   3354,   -489,   -921,  -4898,   7166,  -9294,   5814,  -3153,   4618,   3609,   4770,  -5613,  -5462,  -4182,  -6147,   7366,  -4278,   6432,   5313,   3039,  11542,  -2403,   5230,   1814,  -8976, -10374,  -8962,  -7639,  -8563,  -3173,   5192,  -6262,  -3035,  -8374,   3088,  -2025,   7871,  -9497,  -8010,  -1227,   1110,   -908,  -8387,   7638,  10099,  -5718,    205,  -1986,   1188,   7611,  -1705,
          2549,   9659,  -1991,  -6695,  -3853,   6663,    609,   7122,  -7514,  -1171,   6889,  -7634,   6929,  -7533,  -2662,  -5568,   5019,  -6892,  -1459,  -7524,  -4601, -11144,   1736,   5084,   7183,   5627,  -6084,  -7119,  -5034,   4220,  -1522,  -1468,  -5217,  -5960,  -9523,  -7099,   6021,  -2358,    539,   1093,  -2495,   5512,   -683,   3466,   1962,   3587,  -9814,   -344,   1274,   4748,   1542,  -3601,   6463,  -8478,   4908,   4802,  -1845,   8024,   5524,   2133,  -5459,  -3818,    964,   3279,  -8572,  -5640,   9348,  -5175,  -5030,  -2045,   2791,   4435,  -3697,   4393,   -185,   1368,   8074,    556,     -7,  -1697,  -7051,  -7764,  -6900,   6546,   5564,  -8445,  -2308,  -6358,   8471,   3540,   4849,   -689,  -3697,  -8927,   4572,   8298,   6356,   1559,   2699,    971,    636,  -4696,  10018,  -6731,  -3045,  -8159,   5155,   8682,  -1217,   6645,   -564,  -4150,   -766,   2059,   6938,  -8152,   3045,   1555,  -4050,   5511, -10192,  10958,  -4361,   4519,   6692,  -5335,  -8621,   5404,  10587,  11191,  -4408,  -9546, -12194,    265,  -2285,   8602,   2980,   3709,   5495,  -7867, -10239,  -1004,  -6458,  -9534,   2702,   -549,   2804,   4160,      1,   7386,  10444,  -6365,   3523,  -4252,   3240,    156,   7145,  -3228, -10963,   4205,  -8763, -10049,   2717,  -3870,   9154,   7389,  -9537,  -8335,   2590, -15024,  10226,  -5357,  13818,  -8239,    -87,   8550,  -7791,   -243,  15532,  -3397,  -3240,   -997,  -4285,    793,   6216,  -3596,   6655,  -8201,  -2684,  -6548,  -6235,  -4528,   1906,  -7055,   9155,   -366,  -1005,  -5484,  -5738,     34,  -5298,   5368,   9567,   7408, -11893,  -7306,   9154,   5215,  -1322,   3219,  -3686,  -8329,   2261,   -932,   2092,   7150,   6474,   -551,  -1171,  -2928,   6265,   7203, -10771,   6487,   1236,    276,  -8725,   3006,  -1365,   6244,  -1920,  -3592,   6865,  -8367,  -1123,  -3322,   4989,   6715,  -3774,  -1038,   9025,   5602,   7177,   6579,  -5004,   6924,   9736,  -3607,   -448,  -1135,   9704,   2115,   -361,  -1013,  -4761,  -4364,  10110,   -960,  -5613,  -5050,   4541,  -2896,  -8938,  -3013,  -7097,  -8427,  -3965,   9659,   8032,    633,  -8491,  -3364,  -5438,  -9814,   -106,  -2061,  -3873,   9324,  -1863,  -2770,   5395,   1004,   4968,   6628,   6120,   5283,    -17,  -3936,   2912,   6459,   -350,  -1790,    300,   1907,   1561,   2650,  -5474,  14481,   2784,    542,  -2040,  10159,   3799,   -727,  15853,  10184,   2700,   9896,  12760,   3414,   2661,  11214,  -7804,   2069,  -5659,   6870,   7223,   8768,   6246,  -6117,   6907,    721,  -1325,   6537,   8415,   2769,   -592,   1279,   5649,   6098,  -9246,  -8607,   4124,  -4013,  -7787,  -2133,   4410,   3784,  -4509,   2077,   1531,   8278,  -4524,   6517,  -2126,   8241,  -5919,  -3853,  -5913,   6681,  -2690,  -1193,  -2184, -11612,  -7180,  -5347,   5474,   2294,  -4999,   7851,   1368,  -3613,   6099,  -2070,  -6740,   4652,   1767,  -8852,  -4738,   4840,  -5446,  -3885,  -7235,  -5168,   5805,  -8072,   6088,   5615,  -2597,  -5691,   8474,   7544,   3228,  -3858,   1649,   5798,   8546,   7590,   4959,   3860, -10045,   7625,  -2074,   4313,   6215,   3425,  -1430,  -5107,  -7300,  -6082,    367,  -7507,   2794,   2063,   1382,  -5702,   7551,   -442,   1811,   6896,   6174,     90,   5329,   5602,  -8810,  -3880,  -7699,   1775,  -4231,  -1570, -10522,   5370,  -8859,  -9524,  15224,  -2791,   1896,  -2663,  -3500,   8493,   -324,   -527,  16129,   4566,   1454,  -1672,  12122,   6790,   3402,   7772,  -3047,   3418,  -4264,  -6430,   1595,  -1143,   4016,   7807,  -7483,  -9441,   -861,  -2447,  -8938,  -7736,  -1139,  -5571,  -2057,   5483,  -3953,   8887, -10007,   1398,   6371,   9153,  -9358,  -6287,   4494,  -1201,  -2836,   6950,   4252,  -2592, -10382,  -5991,  -7967,   1738,   1625,   5347,  -3294,   -438,  -8108,  -6175,  -4617,  -3007,   6699,  -4181,   8233,   5399,   8053,   3823,  -8384,   7990, -10924,   -262,  -3325,  -7115,   3430,   6966,  -2768,    904,   2102,    309,  -6082,   3683,  12230,    575,   2823,   9315,  14561,   9785,   9426,   3265,
         -1035,   2474,  -4216,  -8205,  -5039,   6846,   1933,   8433,   5941,   7976, -10056,  -8518,  -3475,  10495,  10085,  -3182,  -4885,  -7231,   4125,  -1858,   -750,   -401,   3225,  -3685,  -5881,   3185,  -6460,   6236,  13844,  13059, -14644,   1644,  -7466,   3479,  11830,   8950,   2778,   5698,  -8434,  -4414,   5898, -12675,   2766,   1932,  12567,    656, -13782,   5810,   9046,   6789,  11444,    820,   5701, -15626,  -9967,   5519,   3469,   5582,   7798,  -7516,   -295,   -887,  -2253,  -8599,  -5297,   2369,  -9382,  -4691,   2739,  -2083,  -1443,   8790,  -3029,  -1563,   3344,   4462,  -7874,  -8207,  -6747,  -4704,  -1970,  10090,   5380,   7745, -11100,   1716,   6504,  -5339,  -7106,  -2351,   4362,  -1043,  12669,     10, -13905,   4174,  -1033,  14179,  -8589, -11587,  -1618,    591,   3893,   -985,  -6573,   1212,  -6694,  -2080,   7383,   2898,   5424,  -7101,   6247,  -3531,   -693,   2453, -11504,   7260,  -2490,  -4948,   2525,   -276,  -1181,   -448,  15431,  -8045,   2620,   1702,  -6052,  -1032,     24,   7908,  14248,  -3365,  -5312,   2287,   7261, -10278,   5626,  -3661,   2390,   8158,   6505,   5618,   1404,   7394,   2454,   1206,   5615,  -1762,    -93,   1903,   7043,   3029,  -5317,   6388,  11883,  11175,   8162,  -4746,   3682,   2913,   1149,  -3159,  -6631,   1341,   6857,  -7598,    818,  -2752,   1979,   6225,  -1195,   -860,   -352,   6953,   3843,  -2626,  -2944,  -3949,  14110,  19249,   2148,   5348,   1236,    900,   1433,   2278,   4708,  -8223,   6105,   6936,  -4047,  -3540,  -5754,    -31,  -1608,   6735,   2153,  -3199,   7770,  -7033,  -9858,  -6378,   1377,  -1442,  -1934,   2373,   7796,  -7789,    929,   3455,  -8920,   5134,  -1023,  -8891, -11464,  -4242,  -3743,   7670,  10062,  -5798,   2594,  -8174,   1677, -11690,   4092,   8045,   2388,   7998,    524,  -6531,    400,   4192,  -5121,   3307,  -1765,  -4849,   5011,   2000,  -3447,  -5790,   2389,  -5933,  -6806,  -2640,    485,    915,  11115,   8118,   2132,   8207,   3989,   8485,   4130,  -9348,   2767,    988,  11680,   9391,   9985,    -26,   5951,   4869,  -8436,  -4320,  -1447,  -7887,   3523,  -7694,  -1965,   1811,   2119,  -4757,    909,  -8827,  -8643,    513,   7758,    184,   3344,   3329,   3434,   5941,  13892,   6566, -12686,  -5254,   7510,   1070,  -3367,   3864,   5740,  -8709,  -1924,    208,  12518,  -6190,   7402,   7607,  -5684,   -269,  -9967,  -1876,   3416,  -1053,   8602,  -1668,   2944,  -6891,   2432,  -8618,   2242,  -3731,  -5229,    385,   2333,   2622,   1491,   5385,   3057,    781,  -5166,   1665,   4818,  -1228,  -7422,  -5178,  -8064,   7494,   4364,  -4367,   1465,  -3292,  -5309,    639,  -5483,   5321,   4149,  -4799,   3641, -10934,   6878,  -4046,   4834,  -8522,  -1298, -10014,  -3792,  -3489,  -1997,  -5372,  -4364,  -3490,   2846,   5586,    -11,   4729,   4795,  -4193,  -2691,  -1108,   8993,   2671,   5066,  -5907,   -842,  -4155, -11399,  -5024,  -2266,  -4661,  -2759,   -959,   2014,  -9143,   1485, -10264,    880,   6674,  13913,  -2563,    443,   8365,   7811,   6853,  -8199,  -9932,  -5863,  -5408,   8970,  -5705,   4783,  -1015,  -9103,   3226,   5265,   9713,   1460,    468,   5666,  -7885,  10762,   9546,  -7751,  -4872,  -7268,  -2440,  -1790,   6939,    -40,   7402,  13102,  10197,  -2455,  -5573,  -2921,   3135,  -1796,    441,   9869,   6582,    888,   5675,   2463, -13550,  11069,  12244,  17719, -13646,   3956,   2035,   2900,   9694,   9986,   3602,   2820, -11289,   -196,  -8770,  -2735,  -7686,   6433,  -8972,  -6102,   9457,  -3432,   4926,   3538,    573,   8047,  -6026,  -3533,   -660,   2480,   5026,   1627,   5368,   1083,   5959,  -9343,   8527,   3582,   9573,  -2118,   9020,   6521,   5783,   3488,   -753,  -5182,   4323,   4607, -13636,  -7003,   6065,  12251,  -2467, -10503,  -1295,  -2209,   2860,  -9453,   1310,  -7090,  -3457,   5167,   6302,   2289,   6684,  -7864,    627,   3979,  -8012,   7815,   7675,   -167,    544,  -9091,  -5549,   1952,  -3828,  -3956,  -9946,    836,   7105,  -4083,    760,   7393,  -5751,   3383,  -6742,
         -4361,   6073,  -4979,   3645,    325,  -7466,   1192,  -9680,  -5795,  -7695,  -4033,   1450,   9184,  -4644,  -4847,   -743,  -9252,  -9118,    475,  -7924,  -9386,   8309,   9186,  -5468,    894,   2574,  12167,   9661,   9754,   1265,  -1897,  -5899,  -9849,    363,  -3829,   9077,  -5273,   5214,  -1204,   5625,  -9637,    763,   6628,  -8636, -12657,   -667,    113,   2516,   4588,   8977,   4448,   -865,   2422,  16948,   8767,  -5187,   7334,  -1804,  -5403,   3233,   3872,   8862,  -6011,   1572,   3201,   4942,   9098,   6201,  -1732,   7691,   7878,   6452,  -6336,  -5717,   6091,   -234,  -4284,   6895,   2838,   1552,   5761,  -7616,  -5614,   3653,  -5564,   7422,   8733,  -3156,   4995,   8144,   7547,   -662,   7738,  -8533,   7101,  -1233,    550,  -7473,   4959,   -352,  13561,   6495,  -6452,  -5553,  -1287,   6470,   3131,   -559,   7185,  -8294,  -7430,   2070,    804,  -2171,   3605,  -1550,   -246,   8044,  -7892,   5169,   8246,   8686,   -563,   -145,  -2646,  -1357,   1322,   2090,  -5727,  -1542,  10321,   6118,   8817,   -151,  -3510,  -6366, -12028,   2924,   5212,  -5269,  -3838,  -8508,  -1755,    987,   -371,   1759,  -3157,   2164,  -3995,  -1531,   4487,   4162,  -2955,   5570,  11639,    513,   3013,  15281,  -6900,  -2789,   2049,   -637,  -2008,   7259, -10110,   2915,  -7821,    616,   -553,  -2313,   1284,   3597,  -3113,   3509,  -2935,  -7061,   4482,  11095,   5754,  -1848,  10957,  -7269,   1734,   2852,  -2329,   7177,   5621,   8389,  -7582,   5755,   4168,   4689,  -6651,  -4631,   6615,  -7806,  -4046,   -622,   7747,  -8393,   9431,  -6860,  -4441,  -6600,   8186,   4407,  -2590,   3568,   2466,   7802,    952,   3622,  -4927,  -3010,  -4328,  -2517,   2730,  -7111,   8679,   8627,  -1886,   4881,   5847,   7411,  -6069,   6905,   -856,   6390,   7997,   5901,    442,   3949,   -119,   6077,   9176,  -7668,   5134,   -434,   2685,  -7784,   -161,  -2505,  -3491,  -1545,  -4150,  -1287,  -1380,  -9386,  10133,   7809,   9438,  -7666,   7069,   8759,   3233,   1662};

    const static Filter<int16_t> statefulpartitionedcall_sequential_conv2d_1_biasadd_filter(statefulpartitionedcall_sequential_conv2d_1_biasadd_filter_element, -16, {3, 3, 16, 16}, {1, 1});
    const Filter<int16_t> *get_statefulpartitionedcall_sequential_conv2d_1_biasadd_filter()
    {
    	return &statefulpartitionedcall_sequential_conv2d_1_biasadd_filter;
    }

    const static __attribute__((aligned(16))) int16_t statefulpartitionedcall_sequential_conv2d_1_biasadd_bias_element[] = {
          -340,    -48,    463,    463,    456,   -311,    398,   -315,    -59,    300,     18,    343,   -227,   -223,    295,     41};

    const static Bias<int16_t> statefulpartitionedcall_sequential_conv2d_1_biasadd_bias(statefulpartitionedcall_sequential_conv2d_1_biasadd_bias_element, -14, {16,});
    const Bias<int16_t> *get_statefulpartitionedcall_sequential_conv2d_1_biasadd_bias()
    {
    	return &statefulpartitionedcall_sequential_conv2d_1_biasadd_bias;
    }

    const static Activation<int16_t> statefulpartitionedcall_sequential_conv2d_1_biasadd_activation(ReLU);
    const Activation<int16_t> *get_statefulpartitionedcall_sequential_conv2d_1_biasadd_activation()
    {
    	return &statefulpartitionedcall_sequential_conv2d_1_biasadd_activation;
    }

    const static __attribute__((aligned(16))) int16_t statefulpartitionedcall_sequential_conv2d_2_biasadd_filter_element[] = {
          6318,   -125,  -5364,  -5398,  -1821,  -2289,  -4969,  -1028,  10461, -10635,   7815,  -4746,   2240,    813,   5669,   -954,  -5062,  11111,  -8976,   8310,  -2732,  11750, -10948,   9791,   5655,   6201,   8671,  -6080,   7907,   4697,   -189,   6519,   -343,   5730, -11150,   8651,   6477,   -599,   8046,    159,   3872,  -9451,   2739,  10678,   6155,  11348,   8082,  -8564,   9897,  12396,   6903,   7722,   2074,   1705, -11530,  11088,  -9317,   9261,   1616,   7030,  -4186,  11757,  -7554,  -2321,  -7790,  12560,   9229, -12427,  10924,  -7640,    723, -12141,   7144,  -1706,  -5814,  -6675,  -1569,  11783,  -6133,   1536,  -5255,  -7652,   1219, -10815,  -1656,   5090,   2312,  -5844,  -1969,   2606,    180,  -2629,  -1614,   6216,   7005,  -1714,  -4148,   4184,   3373,  -4103, -10745,  -5827,   6977, -10493,   8489,   4997,   5195,   1303,  -6257,  -9028,   4676,   6323,  -6619,  13357,  -1611,   6109,  -3591,   1319,  12740,  -1825,   4392,   2337,   9364,  -3540,  -1402,   3732,  -8754,  -4886,  -9634,  -8959,   5359,  -7501,  -2962,   3848,   2127,   5111,  -7766,  -1248,   6268,   1006,   6171,  11471,  -4125,   2999,   6840,   4228,  -6382,  -9423,   4736,  -7288,   1362,  -2055, -13253,    377,   7110,  -2312,  -5572,  -2586,   3971,  -4748,  -1348, -13227,   5746, -13066,   5545, -13209,   8207,  -7673,   1276,   -243,   4190,   9423,  -6637,  -1142,  -6468,   6153,  -6013,   -122,  -3308,  -1844,   7054,   5093,   4496,  -9259,  -7919,  -2573, -11365,  -1548,  -1006,   1498,  -6116,  -3232,  10656,  -7734,  -7405,  -2308, -12842,  -4559,  -1265,   8635,   4712,   -115,  -4526,   -807, -10044, -11026,   7869, -10482,  -5548,  12226,   7092,  -3070,  16626,   7983, -10902,  12473,  -2696,  11609,   2126, -10568,   5414,  11400,   7634,   1207,  -9772,  13453,   9163,  -4978,   -472,   9050,   6047,   8749,  11726,  -5411,   3830,   5368,  -6547,  -3281,   4302,   2421,   4165,    126,  -4684,  -6669, -10148,  -2768,  -1079,   7322,   3204,  11888,   3197,   7730,  -5026,   6352,   -599,  -2125,   4606,   5358,  -2921,  -1148,  -8304,  -1536,    800,  -9877,   -346,   -505, -10797,  -6769,  11682, -10894,   7329,  -5919,   9385,   7720,   5349,  -1540, -12860,   7213,   5348, -10121, -13296, -13637, -10354, -10838, -10800,  -8137, -11623,   1221,  12924,  -2037, -11454,   9269,  -7935,  -9219,  -1970,   9740,   5542,    965,  -7857, -10114,   2780,   5795,  -4811,  -5357,   -494,  -8066,   2868,  -3746, -12661,   2071,  -3361,  -4273,   7668,   2907,   -822,  -8076,   1641,   3889,  -9211, -10276,  -3744,  -3491, -10671, -11834,   7393,  -4195,   5900,   8618,  -6606,   6638,  -9278,   5837,  -5305,  10569,   9062,   9922,  -5157,   8920,   8432,   6752,  -1111,   1226,  -7200,  -7154,  -1471,  -1788, -10737,  -4633,   7059,  -6781,   8015,    304,   3759,  -2674,  -4996,   7475,   5735,  -7345,   2046,   3997,  -9865,   4330, -11716,  -6169,  -6947,   5154,   7795,  -9126,  12152,  -5772,   1902,   -364,   1136,   3767,  -3459,   4464,  -6031,   -862,  -5538,   5968,  -9649,  -4725,  11913,  -5591,   7421,   6108,   2488,   4651,   6314,  -1091,  -9000, -10415,  -2455, -12333,  -7323,  -8681,  -3011,  -2242,  -1330,  -6718,  -8792,    369,   5575,  -6091,   3204,   4713,   2659,  -5517,  -1903,  -7042,   6567,   9602,   5691,  -7448,  -5544,    998,   1854,  -2179,  -7278,  14136,  -1962,  -6889,  -3486,  11695,  -5545,    827,   -316,   -218,  -6072,  -2389,  -6782,  -3243,   2905,   5097,  -5668,  -4526,   1243,  13494,   2539,   3591,    587,  12031,  -7962,   3482,  -1840,  -8908,   4710,  -4454,  12579,  -3432, -10784,  -2254,  15072,  -4635,  -7202,   7866,   4397,   7400,   4646,  -6580,   9681,   6584,   9247,   8406,   7866, -11015,  -6899,   5512,   -814,   9953,  -5881, -13240,   1713,  -1314,    311,   4951,  -2138,  -3694,   -742,  -7274,   6769,  -3482,  -8567, -11312,  -6624,   3197, -11386,  -7100,   5028,  10700,    229,   6005,   2831,   -625,  11250,  10805,  11609,  -3672,   5560,  -1563,  -9971,  -7791,  -4650,   9324,  -4419,  -5476,  -4497,   1316,  -5436,  11829,   3210,   1021,
          7404,   7163,   6404,   -405,  -9282,   9559,   6995,  -8517,   9518,  -4260,   7250,  12235,  -2385,   5931,   4073,   2802,   -330,  -1904, -10364, -11554,  -8419,   7566,  14576,  -7485, -13367,   6260,  -5611,   6631,  -9175,   8064,  -8342,   8855,   4568,  -9344,  -7427, -12955,  -7140,  -9947,  -2913,  -3269,   5718,  -5724,   5420,   1344,   -164, -11644,   -984,   1296,  10528,  -8162,     17,  -8130,  -6657,  -9992,  12132,   7142,  -3445,  -7606,   -715,   -879,   9404,  -3168,    852,  -2835,   -297,  -7549,  -2906,   9864,   1160, -11041, -10271,  -5637,   9760,   5001,  -7051,    810,  -5367,   4813,   8031, -10403,   -827,  -2083,  -5831,  -8858,  10002, -11029,  -1918,  15849,   6409,    -29,  -4893,   8413,   5730,   5761,  -6901,  10571,  -3221,   -311,  -5375,  -2191,  10198,   6068,   5741,  -3848,   8163,  -2034,  -4315,  -9173,  -9074,  -3309,    509,  -1321,  11597,   9058,   2551, -11402,  -8379,   2713,   2140,   1067,  -8113,  -3194,   8611,   9426,  -8240,  -6591,   7285,     83,   -427,   2832,  -6321,   -709,  -3002,   1151,  -3860, -10041,    834,   7662,   2547,  -7929,  10000,   5392,  -3278,  -9407,   1624,   5073,  -8388,  -6248, -14425,   -985, -10149,   4688,   6165, -12320,   2243,  -2069,   1865,  -5386,  -8695,  -9250,  -8246,    -96,   -805,  -7727,   2793,  -4861,   4010,   3959,   8253,   9587,    876,  10047,   8790,   2217,  -6298,   1371,   8691,  -6939,   2462,  11104, -13006,  -6982,  -1973,  -3633,   4577,  -4835,   4837,   2201,    -64,  -5332,  -4628,   2371,  -3146,  10854, -10914,   4391,   8667,  10559,    192,  -2478,   5287,  -4349,    458,   7582, -12166,   3730,  -5067,  -4750,  -8076,   8150,  -5720,   4471,  12642,   3055,   9067,   5105,   -173, -11988,  -1967,  -7888,  11322,  -3826,   -963,   9329,   6371,  -7409,  -9057, -10622,   4807,  -5445,   9581,   1874,  -4860,   7284,  -9700,  -9562,   5229,  -9547,  -8788,   5409,   7404, -10921, -10400,   1345,  -5283,   9422,   3118,   7839,  -6764,  -3302,   3902,  -4049,  10087,  10933,   1478,  -4665,   2655,  -1269,  -8591,   8990,  -6666,  -4038,  -7887,   5531,  -3765,  -9002, -10644,  -4520,   1125,   1600,   3018,   2125,   8565,   -771,  -4096,  14604,  -6572,   9771, -10501,   7148,  -3336, -11115,   1345,  -5371,   8356,  -7216,  -1415,  12540,  -5717,  -2317,  -8740,  11777,  -3822,   1313,   6310,  14193,  -7111,   3987,   8453,   2605,   9103, -10030,   5443,  11470,   1478,   8034,  -6758,    455,   1176,  -3968,  10296,   3293,  -9093,  -8156,  -7497,   6051,  -8035,  11636,  -6735,   8155,   5443,  -4017,  -3004,   2061,   4631,   1179,  12375,   5777,  11996, -10038,   1706,  12776,   5946,   3662, -10547,  -3279,  -7954,  -8244,  -1230, -11086,  13547,      2,   4219,  -7317,   1139,   6303,  -7437,  -9697,   8928,  11458,   9200,  -1280,   8958,   7111,   -149,   1408,  -6798,   4759,  11142,  -9964,   3814,  -5210, -11880,   3413,   6592,  -8598,  11258,    807,  14677,   4855,  -6152,  13598,   5535,   4578,  -2481,   8410,   8401,  -3672,   3814,   4494,  -1717,   7122,   -254,  -1398,   4732,  -1611,   4565,   4125,   3773,  -9981,   6191,   8480,  -5527,    421,  -9989,  14301,   9211,   5002,  -5067,   1456,   3877,   3055,   5972,   5982,   9404,   8619,   1596,  -5913,  -1825,    734,   8147,   4570,  -3279, -11979,   3409,  -9628,   6518,   5826,   5852,  -9560,  -5419,   5466,   6365,   5012,  -9881,   6217,  -9489,    456,  -6734,  -6005,  -3435,   4023,  -7343,  -3257,  -4022, -12825,  -9323,   -653,  -1800,   -605, -10116,    671,  -8883,  -1409,    427,  -7590,   5019,   5786,  -8965,  -7247,  -9148,   2282,   1993,   -953,  11641,   -147,   6765,  -4021,  -6064,  -5023,  -6476,  -3921,  -8552,    -33,  -1848,   8939,   5758,   8059,  15126,   2695,   1619,  -4200,  -5018,   8185,  -4493,   1088,   3327,  10892,   3149,   9766,   8149,  10157,  -8998,   8147,   3666,  -7897,  -5647,   4436,  -7502, -11534,  -6087,   9602, -11305,   4900,  -5594, -10980,   6501,   5137,  -2784,   7157,  -8420,   5973,   1963,  -5865, -10751,   8242,  -2931,   7766,   1112,   5305,  10772,   1505,
          6653,   7038,   6520,  -1859,   3889,  -3363,    937,  -4610,   6915,   6427,  -5286,    862,   6552,  -6659,  -2759,  -5347,   2047,  -5380,   9407,   1597, -15407,  -7814,   2658,   8168,   7520, -11300,  -5105,   3578,   5411,  -4489,  -4497,   5725,  -3730,   4622, -10341,   7894,  11238,   7604,  -4050,  -3250,  -2441,  -5450,  -2234,  -4578,   4418,  -9532,   9314, -10450,  -1551,   5620,  -3184,  13702, -11294,  -3868,   8419,  -3453,  10408,  -7284,  -4411,   4651,  -1935,  -8904,  -1435,  -5647,  12013,  -8045,  -4461,   -912,   9985,   4291,   4152,   -501,    287,   7301,    971,  -6867,  -2842,   -608,   1956,  -6499, -10985, -11791,   1358,  -2309,  -5863,  -8079,  10039, -10596,  -2574,   6395,   2317,    348,   8283,   3031,  -1259,   -126,   2721,   -229, -10259,   9025,  -4798,  -6232,   9128,  -4030,   9373,  -5084,  -1596,   3529,  -5232,  -3001,  -3234,  -2397,   9156, -11671,  -8163,   9858, -10490,   4228,  -4475,  -2977,  -8387,   7275,   9509,   3415,  -6531,  -6272,  -5229,  -2468};

    const static Filter<int16_t> statefulpartitionedcall_sequential_conv2d_2_biasadd_filter(statefulpartitionedcall_sequential_conv2d_2_biasadd_filter_element, -16, {3, 3, 16, 8}, {1, 1});
    const Filter<int16_t> *get_statefulpartitionedcall_sequential_conv2d_2_biasadd_filter()
    {
    	return &statefulpartitionedcall_sequential_conv2d_2_biasadd_filter;
    }

    const static __attribute__((aligned(16))) int16_t statefulpartitionedcall_sequential_conv2d_2_biasadd_bias_element[] = {
          -127,     68,   -398,    363,   -230,    442,    218,    227};

    const static Bias<int16_t> statefulpartitionedcall_sequential_conv2d_2_biasadd_bias(statefulpartitionedcall_sequential_conv2d_2_biasadd_bias_element, -14, {8,});
    const Bias<int16_t> *get_statefulpartitionedcall_sequential_conv2d_2_biasadd_bias()
    {
    	return &statefulpartitionedcall_sequential_conv2d_2_biasadd_bias;
    }

    const static Activation<int16_t> statefulpartitionedcall_sequential_conv2d_2_biasadd_activation(ReLU);
    const Activation<int16_t> *get_statefulpartitionedcall_sequential_conv2d_2_biasadd_activation()
    {
    	return &statefulpartitionedcall_sequential_conv2d_2_biasadd_activation;
    }

    const static __attribute__((aligned(16))) int16_t fused_gemm_0_filter_element[] = {
         -9314,   5037,   2153,  -7909,   5116,   6055,   5611,   2031,   2903,   6827,  -7095,    179,   4019,   1116,  -7917,  -1442,   -769,   6065,   4260,   3719,   6828,   -660,  -2828,  -4707,  -2465,  -4609,   1876,  -6677,  10490,  -6924,  -5507,  -7304,   4228,   5642,  -2598,   3082,  -4145,  -8561,   4388,   2178,     57,   6367,   4514,   3729,   2341,  -6634,   -660,   5058,   3075,   -345,  11624,  13357,  12653,   5087,  -3054,   1615,   6593,   2755,   5836,   6490,   3331,  -2863,  -7953,   2973,   2817,  -2476,   3555,   6127,   6712,   1618,  -3458,   4114,   -404,  -2059,  -2200,   1657,   5552,  -3096,   4269,   5734,   5707,  -3327,   -917,   7148,   2860,  -2294,   -584,  -5387,  -8379,  -1324,   8434,   8785,   6220,   -241,  -2774,   -593,   6513,   4813,     76,   3799,   7121,  -4616,   4066,   5750,   6391,  -3314,   5478,   5704,  10195,  -2811,   1925,   3133,   4362,   5164,   9759,   5166,   1001,   1555,   1316,   3907,  -2335,  -2571,  11133,   6206,  13563,   2115,   3546,   6238,   4788,  -3671,  -3385,   9975,   8067,  -3116,  -3282,    728,  -4365,   5935,    438,   5899,   7288,  -2623,  -8503,    702,  -3607,  -5351,   1829,   4140,   2842,    958,    576,   3248,    751,   -390,   4634,   -162,   1858,   -371,  -2534,  -6638,  -1232,   -177,  10209,   4649,    117,  -7964,  -4161,   6319,   3724,   2184,   2879,  12295,   5545,  -2978,  -2887,  -6636,   3158,  -5579,   1531,   7273,   3137,   3240,     64,  -8247,   -914,   -820,  -3254,   2585,  -1786,   1545,  -1002,   6290,  -9334,   7019,  -9344,    682,   1342,   -129,  -3354,    391,  -7363,   5038,  -6796,   6419,   -368,  -1112,     66,   1435,   1405,   3350,   6825,   5879,  -7277,   -374,   5505,   2394,    359,  -7684,   2439,  -1129,  -2649,  -3120,  -6333,   4368,   5901,  -4380,    -20,  -1810,   1446,  -1210,  -2722,  -2108,   -996,  -2702,  -4583,  11680,  10764,  -9582,   2869,   3265,   5612,   5251,   1102,  12172,   2914,  -2199,  -5594,   1586,   3117,    544,   6197,   7184,   3499,  -2820,   1537,  -4695,  -1000,   6599,   5021,  -4257,   3153,  -8655,  -9642,  -1257,   4371,   1372,   6907,   9059,   8493,  -5574,   2005,  -8130,  -4108,   7120,  -6777,   4838,   1424,   1398,   2854,  -7180,  -3251,  -1341,  -4013,   5552,  -5086,  -6149,  -3754,   -168,  -5684,    148,  -6558,  -6574,  -1439,   5595,   -366,  -7311,  -4546,   5994,  -1300,  12461,   1224,  -4640,    -49,   1513,  -7199,  -7552,   5978,   1773,   9449,   -441,    488,  -4242,    850,   3053,  -2155,   2544,  13126,  -5536,   5803,  -4056,  -8178,   2518,  -1113,   -620,   9824,  -5365,  -6128,   2664,  -2037,  -2670,   3548,   2794,   6426,   4397,   2546,  -5601,   6632,    763,  -2000,   5133,     57,  -1806,   1629,  -3285,   3188,   3313,  -6420,  -1170,   4303,  -6529,  -6479,   5300,   4349,  -1216,   1723,   9052,   9775,  -7294,   8904,   6640,  -3617,  -3080,  -4660,   7383,   1770,  -4233,    421,   6485,  -4812,  -4120,   2590,  14959,   3834,   2615,   2402,  -5383,  -1883,  -4696,   6039,   3325,   8616,  -6541,     -2,   6805,   -222,   6402,   -269,   -386,   5126,   2890,  -6126,  -4931,  -1407,  -7359,   6507,   8752,   8755,   4297,   5189,  -6389,  -4259,   4526,  -7448,   4163,   1700,  -2136,   3767,   5124,  -8805,  -3432,   2204,   1349,   1433,   4230,   2834,   -511,  -5014,   5753,  10179,  -1529,  12516,   6849,   8435,  -7029,  -1541,   5249,   -342,   4957,  12465,  -3046,   -205,   6315,  -2227,   2522,  -3916,  11132,    401,   1818,  -3392,   1288,    -98,  -1849,   5630,   9725,   5272,  -1335,  -8764,   3512,  -1872,  -3034,    265,  -1640,   5362,  -9937,   -509,   5935,  -6288,  -4125,  -1380,  -2698,   4657,  -5083,   3935,   1891,   3240,  -3933,  -2355,  -4472,   -988,   5753,  -4003,  -1220,  -7057,  -5123,   9140,  -4498,   3397,   2702,  -2498,   4103,   6009,  -3343,   7307,   7106,  -5355,   3786,   1805,   3950,   3916,   -625,   3019,   9536,   4965,  -9150,  -6514,   2280,   4468,  -6504,  -3831,   6878,   -927,   7262,   2901,   5694,   1149,  -5424,  13108,   5963,   9497,   5634,   5160,  -6135,
         -1461,   2924,  -3143,   8644,  -1076,    929,  -6128,   5074,   6357,   1431,   2679,   2640,   3451,   3601,   3492,   6423,   2355,   3820,   5934,    271,   2437,   3948,   5787,  -4570,  -6615,   7235,   2578,   7525,   6403,  -4694,  -2378,   5705,   2179,   3758,   -990,   2260,   3796,   1925,   5475,   -323,   9229,  -4397,   5851,  16285,  12806,   2166,   3200,  -2821,   1697,  -6776,  11924,   1454,   5960,  -2894,   3219,   1811,  -4234,  -5660,  -3859,   -772,   6255,   3712,   4276,   7021,  -2782,   3871,   5723,  -3848,   3621,  -3471,  -5860,   1218,  -6565,  -6957,  -1367,  -3345,   7322,   2579,  -5989,  -5001,  -3344,    142,  -5599,  -7025,  -1298,   -569,   2336,  -4812,   4242,    345,  -2599,  -4324,   7417,   4209,  -2487,  -2183,   9505,  -4095,  -1267,   8346,   3233,   5947,    -20,   -195,  -1194,   6497,  -1833,   3684,  14005,  -9250,  -6934,    901,  -4339,  -5947,  -5144,   7784,   8345,  -3397,   5177,  -4193,    931,   1652,   7370,   7397,   3949,  10145,   2182,   5250,  -4797,  -5087,    487,  -4695,  -2735,  -2979,  -1180,   4391,   4064,   1786,  -1768,   8129,   1459, -10378,    779,  -7958,   -248,  -6916,  -1991,  -6810,   -655,   1491,   -414,   1809,  -7200,   6490,   3125,  10451,  -7539, -10986,   -781,   4302,   2068,   9434,  10183,   7474,   5345,   6498,   6226,   5633,   3954,   3934,  -2245,   4320,   9516,  -4126,   2856,   3621,  -3538,  -6513,  -3688,  12933,   9540,  -5981,   5076,  -6263,   5416,  -3235,  -1773,   1815,  -2237,   5857,   -855,   6147,  -4018,  -3920,  -6186,  -1494,   8092,   3702,   2931,   4108,  -2858,    443,   2074,   6287,   9211,   1468,   2589,  -5898,   4690,  -2725,    435,   6351,  -7300,   3900,   1097,  -6968,  -5130,   3779,  -1187,   2691,  -1319,  -7480,  -6142,    145,   9053,  -4857,   3395,   8661,   1430,   2481,   3605,    422,  -2151,   2222,  10493,  13693,  11666,   1696,  -7733,  -7311,  -3423,   3663,   7956,  10765,   4934,   -747,   2572,   3696,    577,  -3791,   2638,   -135,   6950,   5624,  -7494,   2546,  -4345,  -4341,  -5342,   -150,   8557,  -3505,  -7892,  -4335,  -5605,   4285,   3813,   1388,    -62, -11803,   4896,  -6217,   -691,   6743,   1180,  -2195,   -258,   7374,  -4635,   1846,  -4659,  -7594,   3489,  -1759,   4961, -10468,    881,  -5752,   2165,   2361,   5053,  -6607,      1,   4414,   7752,  -1352,   3414,   5654,   4413,   7527,   8835,  -8386,   4911,   -947,  -3060,  -1015,  -5367,  -3519,  -2806,   5296,   4938,  -6796,  -5994,   1447,   3267,   4908,   3777,  -2153,   1004,   2955,   3380,  -8404,   2851,   2734,  -9705,  -5054,   3978,   3911,   2231,    437,   3213,   6503,   5397,   3482,  -2591,  -6300,  -6242,    779,   -335,   7245,   6552,    944,   2371,    724,   7859,   2110,   4176,   -225,   2316,  -2929,  -9949,  -5056,  -2460,  -7042,   5640,   3743,  -8974,  -3296,   7370,   6028,  -2664,  -4587,  -2693,  -2116,   9264,   5543,   1613,  -6825,   -247,   -894,   3557,  12288,   6835,  -3731,  -1770,   3310,  -1480,   1225,    912,  11087,   2004,   3542,  -1092,  -6861,  -9193,   1895, -11027,  -7684,  -2775,  -1780,  -5610,   3976,   2078,  -7302,   2976,   -565,    208,  -2613,  -9403,   6638,  -2860,   6795,  -4915,  -6015,   7197,    517,   3221,   4584,  -2480,  -6357,   2880,   1207,    249,  -9790,  -3117,  -1365,  -1704,  -6501,   4233,  -3158,   5863,   1396,   3218,   3225,    516,  -4969,  12311,   5576,  10692,  -7768,  -9668,   1943,   6374,  -4183,  -4684,   7993,   6572,  -2552,   4419,   4608,  -4169,  -6240,   9137,   2308,   4263,   7436,   2543,  -6335,  -2879,  -3878,   1824,   7241,  -6191,   3779,   3671,   6066,   4205,   5204,   4716,   8698,   4378,  -7579,   1510,   4326,   5959,    364,  -4686,    435,     -5,  -2530,  -1318,   6587,  -6983,   7779,  -4825,   -339,   4501,  -2012,   3572,  -5821,   6822,  -5252,   2829,   3199,  -1164,  -2691,  -4334,    331,  -5013,   3042,   5263,   5382,   5950,  -5400,   5165,  -4891,  -3524,  -4293,  -1961,   5591,   5444,  -4575,    681,   1027,  -2967,   -688,  -6522,   2931,  -4379,  -2816,  -3761,  -2953,
         -4272,   3087,  -8539,   1826,   5642,  -9850,  -4408,   3176,    581,  -7574,   1473,   8118,  -1545,   -321,  -4416,   -112,  -5530,   2370,   -958,  -4668,  -7136,   7147,   3578,   6396,  -5521,    298,  -2696,   8284,   8074,  -2342,  -8861,   3188,  -6453,  -6104,   -671,  -8770,   3346,  -2088,   -838,  -5360,   7809,    442,  -5647,   3280,   5805,  -2647,  -9930,   3370,   1304,   3973,  -1122,   3596,   5650,  -9320,   1968,   2019,  -6381,  -1120,    983,  11601,    761,   4076,  -6412,   5610,   5558,  -5436,   1720,  -4250,   -785,  -5271,  -8728,  -2202,  -8549,  -6897,   7189,  -3604,   2328,    629,  -6156,   3471,  -1897,   4156,   5842,  -4280,  -3053,   5579,   2963,   4660,  -7416,    287,   3169,   4495,  -6230,   4236,  -7417,  -3414,  -4485,   1240,   -297,   1113,    915,   3380,   1549,   2521,  -5221,   3005,   2997,   8864,   3503,  -6413,  -3652,  -6448,   2428,   4129,  -2650,   2598,   5918,   4057,  -5838,    165,    656,  -3483,   9253,   3131,   3182,   2898,  -6628,  -7216,  -8220,   3197,  -3493,   6972,   6760,   1979,  -4096,   5871,   2129,  -2983,   6176,  -6937,  -5407,  -2855,  -2244,   3583,  -4276,   2001,  -3720,  -1494,   5082,   2431,   5259,   2776,  -7777,  -6100,  -1736,   2480,   1166, -10041,   3380,  -7371,   1654,  -5630,   7290,   7700,   8489,   5841,  10184,   3231,  -7661,    925,   1957,   5673,  -1557,   5724,   1392,  -7396,    591,   -583,  -2980,   1071,   5604,  -5936,   1142,   -270,    490,   3341,  -8067,   5658,   7280,   1448,    351,   5637,  -8807,  -7622,   1398,   7363,  -3583,  -6378,  -6311,  -5220,  -1248,  -6385,    149,  11318,   8151,  -6033,  -2037,  -1411,   1067,  -2254,  -3666,   5366,  -3359,   5706,   5586,  -2238,    285,  -8968,  -2306,  -8337,  -6441,  -5316,  -2503,   1299,   -846,  -7157,   7093,   -382,  -2842,   9323,   6041,  -6978,   1825,  -2971,  10013,  10800,  -1013,   3037,  -4961,   -388,   6586,   6291,   9398,  -2217,   6020,   6567,  -5259,  -8032,   3279,   2292,   9087,  10974,   4944,  -3652,    882,   6678,   6263,  -5004,   6024,  -1563,  -1606,  -4936,   1427,  -7468,  -6236,   4614,  -1978,   8422,   8970,  -2219,  -6564,  -1375,   -799,  -2895,  -6365,   1133,   1593,  -7302,  -2348,    443,  -5284,   7001,   2830,  -2630,  -3763,  -3331,     39,  -1127,   8552,  -5605,   8474,   -407,   7039,   1484,   3415,  -1507,   5618,  -4165,  -1157,   7971,   1762,  -4892,    208,   5841,  -6453,  -8553,   7153,   1949,   4799,  -3013,   -201,  -2406,  -1738,   3872,   5523,   3262,   2174,  -3653,   3168,  -8070,   2889,  -6114,   2858,  -5317,   7413,    243,  -7247,  -3988,   4403,   5619,   5136,  -3997,  -5502,    169,   4507,  -2022,  -4436,  -3420,   2096,   6064,    -85,  -6126,   7322,   3017,   1034,  -1821,  -2865,   2389,   2175,   2056,   3979,   4000,   1134,   7254,   3229,   2776,  -2639,   2509,   5690,   2080,   5088,  -4035,   1435,  12216,  11839,  -8066,   1230,   3750,    385,   3170,   7164,   -289,   2297,  -2831,  -4114,   2193,  -4612,  -5176,   3950,  -8723,   4577,  -6381,   2129,   2340,  -1080,   -611,    332,  -6186,   6575,   1043,  -1042,     31,    193,  -7076,   3861,   8928,   8423,  -4591,  -1569,   3986,   3585,   6060,   4350,   1688,   1441,   5484,  -4342,  -4232,  -1542,   4295,   7473,  -3877,  -1922,  -4041,  -2528,   1865,   9912,  -2710,   9933,   8877,   4138,  -4790,  -6327,   2228,   1325,   -171,   4540,   4671,   -636,    669,   2728,   6317,   6093,    435,   7154,   1021,   6840,   1389,   2696,  -8331,   4458,   2351,  -3450,   -820,   5495,  10622,   2124,  -1348,   1276,   4117,   3334,    553,   -229,   3623,   4227,   2070,  -7127,  -7945,    626,   8451,   8627,   3085,   4770,  -2542,   2448,  -5090,   7052,  -1029,   2679,   1503,  -4751,    -80,  -8457,  -4456,   1637,  -1934,  -7720,  -3856,   4465,  -2618,   5412,   8753,   4519,   9407,   -212,   -870,   6283,  -2775,  -1592,  -6545,   2381,  11410,   4373,   2397,  -3665,  -4360,   5056,  -5714,  -1121,   6914,   1604,  -7917,  -3562,  -2162,   2240,   6893,  -1729,   7435,  -1871,  -3057,   4619,  -5739,
          5309,  -2843,   5346,   5998,   1249,    183,   4730,   1334,  -4101,   4366,  -6816,   4819,  -4028,  -2266,   1125,   5485,   3596,   -589,  -6660,  -5251,  -2057,   4300,  -1133,  -7412,   1903,   5544,   7107,   7566,  -7619,  -9551,   -944,   5541,   8977,   4046,  -4105,   8675,   2474,     56,   5058,   4674,   6454,   2424,  -2479,  10800,   -450,  -2562,  -6825,  -3548,  -4303,  -8612,   8375,   3837,   3800,   6342,  -8037,  -4606,  -3339,   3756,    649,    163,   1841,  -2697,   2174,  -4732,   5978,   -215,   7397,  -1020,  -4965,  -1690,  -4322,   2740,   5271,   2556,   2552,   7405,  -1769,  -7514,  -4455,    -50,     48,   2103,     63,   2228,  -2810,  -1566,  -3920,   1966,   5724,  -7469,   4169,    705,  -1916, -10481,  -2735,   2433,   5233,   1982,   1959,  -6504,   3232,   6866,   8570,  -2140,  -4767,   4655,   9753,   5407,  13794,   -694,   1164,   -447,  -2456,  -5245,   1187,  11126,  -3993,  -1034,  -6134,  -6559,  -4166,  -7176,   3483,   2450,   4951,   8208,   4980,   4936,   5253,  -7938,   1797,    457,    951,   1632,  -1623,    490,  -5664,   8386,   1486,    -96,   9539,   -848,  -2911,  -5647,  -1010,   -832,  -5983,   -411,   3374,  -3276,   3571,   -934,   5103,   2645,   2699,  -2321,   9442,   1746,  -8798,   6685,   6970,  -1605,  -6998,  -4965,  -8000,  -8191,   6386,   2701,   -321,   4607,    385,   8242,   2631,   2140,  -8858,  -7412,   2113,   4703,    661,   3821,   8161,  -7814,   5940,    456,  -2081,   1507,   4380,  12884,  14727,   -607,   -902,   4610,  -4268,  -3441,   -560,   4794,  -4374,  -8640,   3198,   2675,  -8881,  -2942,   6069,   9174,   9260,   2961,    789,   4112,   3877,   6732,   1507,    770,  -1416,  -3457,  -2448,   6037,   2802,  -6572,   5878,   5094,  -5303,   4051,  -8369,   6232,   -245,  -2720,   3379,   5121,   9655,   5171,  -5148,  -1485,   3815,  -1293,   1615,   4720,   3860,   -413,   1744,  -1733,   7539,  -1165,    901,   1610,   -333,   -865,  -5151,  -2336,   -411,  -2188,   5199,   6980,  -3889,   7793,   3125,  -2231,     90,  -5582,  -9229,  -4632,    634,  -2571, -10652,  -6851, -10281,  -3099,  -4568,  -2323,   3185,   3669,   3274,   6717,   1301,  -4711,  -5376,  -3666,   3905,   7400,   4942,   6770,  -5484,   -919,  -2620,  -4716,   7396,  -8586,  -2125,    942,   1602,   3332,   5272,  -1718,  11449,   4929,  -6168,  -1084,   4593,   3331,  -4179,   1128,  -6113,  -4952,   -167,   4532,   4296,   5940,   3157,   2140,   -710,   -370,   1839,  -6339,   4438,  -5420,  -5198,   2634,   5643,   -109,   2699,  -5965,    -42,  -5437,   1989,  -3128,   1744,  -9396,  -4116,  -5402,   1867,  -8070,   3181,  -3748,  -3268,  -9209,   -671,   1439,  -3536,   1110,  -1765,  -2325,  -6903,   5822,  -5455,   7029,  -9909,  -2081, -10034,   6171,   4835,   5216,  -3981,    828,   1059,   -615,  -2788,  -4866,  -3589,   2201,    872,  -6014,  -7534,   2237,  -5258,  -1269,   7734,  -3746,   -618,  -5781,   4509,   4798,   6988,   8577,   4259,   2440,   3398,  -1823,   5491,  -7535,  -7950,   3995,   2063,   4638,   6402,   1966,    -41,   3952,  -1822,   7474,   6206,  -7668,   1819,   4039,  -5466,  -2337,  -6388,   6154,  -3175,  -3606,  -6479,    676,   2823,    260,  -6001,   3104,   4176,  -4172,   -842,   2878,   1879,   -290,      0,   5153,   6028,  -8026,  -1417,  -1314,  -4372,    717,  -7478,  -4358,   3992,  11029,   6607,  -6003,  -3626,  -4491,   4294,  12724,  -3654,  -1115,    636,   6013,     65,  -3073,    985,   8231,   3020,   5419,  -4822,  -6640,  -3450,  -5656,    584,   -232,   9299,  -4420,   3429,  -5064,   -118,  -7651,   5524,   1263,   1688,   3042,    295,   5662,   3696,  -5683,  -6893,   6407,  -2648,   2800,   1269,  -3337,  -6136,  -6100,   3674,  -4638,    884,  -4325,  -2928,    662,   2683,  -3942,  -1418,  -1220,   5332, -10076,   3266,   2251,   7547,     29,   3199,  -1088,   6838,   2286,   6437,  -6241,  -1465,  -2578,  -2196,  -1422,   2404,  -1264,  -3800,  -2970,   7580,   4494,  -2983,   6961,  -3389,   1942,  -4289,   2575,    829,   5487,   5670,    781,  -3534,   3088,   2016,   5237,
         -2692,   3385,   7531,   -735,   6995,   3006,   -480,   5587,   6532,   3272,   7122,   9819,  -5132,  -3412,  -8589,  -3217,   6530,  -4531,   -548,   -138,   6314,    583,   1663,  -2903,   5356,   1208,  -2878,  -7334,  -8419,   3700,  -4742,  -6719,   -549,  -3259,  -3383,   5633,   6404,   9466,   2891,   3580,  -3685,   2631,  -4201,  -2868,  -3622,   2854,   1357,   -279,  -1811,   1643,   5372,   6251,    979,  -3936,   2750,   6527,  -1492,   2238,    -68,   6785,  -8000,  -1873,  -8099,   7262,   6138,   -457,  -2147,   4649,   6390,  -7201,  -1678,     28,   4229,   1325,   5736,   5072,   8134,  -7130,    632,  -4607,  -6170,   -710,   2232,   3197,   1117,  -2446,   3181,  -5150,  -7720,   3606,  -1394,   4524,  -3233,  -1179,   4047,   1910,   9098,  -5984,   8542,   7910,   9928,  11416,   4002,   5539,    156,   5246,     23,   -990,   5903,   1332,   1308,    302,    227,  -1407,   2758,   1040,   8929,   3316,  -1774,  -6383,   6398,  -4988,  -2451,   2402,   7043,    394,   1327,   4131,   4621,  -8185,    105,  -1917,   6119,   4623,   2801,  -4297,   5514,   1284,   2149,   6830,  -4508,  -1623,   4776,  -7608,  -4719,  -5831,  -5903,   6652,   1456,  -6667,   3272,  -6387,   6395,   3801,  -4818,  -2523,   -742,  -5667,  -4785,  -2453,    836,   4388,  -3353,  -2538,  -3473,   3634,   6037,  -5295,   1151,   2697,  -2635,   4430,  -3494,   1441,  -7925,   5874,  -3637,   3520,   5781,  -1283,   6974,  -5324,  -7598,  -5246,  -6562,  -6094,   1468,  -3383,  -4476,     -3,    121,  -4599,   -674,   5028,   5268,  -3350,   5625,  -9469,   1609,   1186,  -2548,  -1317,   5266,   2006,   2262,   5574,  -5598,   2881,  -6937,   4337,  -1212,   6770,   5953,    850,  -3166,  -4455,   1653,  -4862,   8500,  -1339,  -2836,  -5477,  -7690,  -5521,  10304,   5538,  -8316,  10340,   1026,    717,  -5190,  -5808,   6003,  -5767,     67,  -3267,   3086,   7073,  -2636,  -1525,  -4618,   1125,  -6094,   -779,   3052,   5000,  -3039,   1483,  -5370,  -2311,  -6885,   1450,  -5807,   9191,  -2454,  -1186,    166,   5312,    221,   6007,   2211,  -9322,  -4262,   -134,  -8043,  -7570,  -3459,   6579,   -914,   1263,   3787,   5804,   3919,  -4976,  -4294,   7272,  -5172,   -717,   7038,   1118,   5920,  -1653,  -2029, -10533,  -2435, -10309,   -245,   3369,  15156,  -4826,   4740,   6678,   -482,   2509,   -491,  -2621,  -1605,  -6658,   5781,   7315,  -3320,   4060,   3684,  -4190,    550,    889,   -348,  -1037,   2745,  -5610,   3281,   5719,   -664,   -961,   5099,  -3243,   7646,   3957,  -7308,   1211,   5633,  -8245,   7029,  -1945,  -1017,  -4254,   3834,  -6402,  -2793,  -2898,  -1687,  -5006,   5636,    268,  -3023,   1341,   3118,  -2376,  -2274,   4944,   6271,  -4332,  -1482,    595,  -1070,   6766,  -4615,   -878,  -2438,  -2589,   4733,  -1556,   -563,   -993,   8323,   5988,   2113,   9162,   7928,   5439,  -5508,    809,   5183,   2491,   2543,  -8757,   3991,  -6102,  -4101,  -2550,   6423,   7845,  -4357,   5766,   -897,   3824,   7265,  -4976,   1960,   2515, -10217,   4544,  -3988,   6183,   2939,   3962,   2014,  -2050,   2011,  -7707,  -8375,   2632,   5837,  -7921,  -4951,   3661,   6155,  -7583,  -1881,   6619,  -2922,   -575,    199,  -1289,  -5551,   6920,  -3205,  -5174,   1338,  -1033,  -4706,   6283,   3557,  -5410,   -200,  -7431,   9697,   -493,  -9039,   2129,  -5616,   8176,  -7016,   1335,  -3219,  -4973,   6105,  -3394,   4886,  -5256,    498,  -2492,  -5234,  -4677,  -5065,   3995,   6644,  -4546,  -5762,   5453,   3595,    594,  -3769,    559,  -8011,   2385,  -8866,  -7494,  -3274,    682,  -3711,  -7194,  -2690,  -1083,  -9811,  -7676,   1422,  -6303,  -5105,   4253,   5516,    631,  -6227,   2649,  -5438,  -2047,   3457,  -5264,  -3526,  -4151,   4558,   -465,   -924,   2179,   1736,   5385,  -3037,  -5421,    456,  -1343,   3713,   6818,   5165,  -6333,  -2751,   1689,  -3886,   5563,  -5310,  -5987,  13845,  -1223,  11539,  -5342,  -3717,   -457,   1638,  -3391,  -4926,   9334,   3243,  -1195,  -1577,    959,   6399,    221,   3386,   2462,  14356,   4014,  -8114,  -3933,
         -6671,  -5199,  -9489,    194,  -7392,    965,   3439,   2697,   5222,  -8251,   -368,  10627,   7287,   -957, -10665,  -3470,   4941,  -4367,  -7223,   2287,  -3640,   6663,  -1501,  -5523,  -8944,    954,   4267,    583,    273,  -2584,  -5208,  -5611,   4013,  -5237,   5311,   3642,   1077,   5794,   4415,   -419,  -2570,  -4959,   6500,   6070,   4592,  -8277, -10316,   5332,    305,  -6878,  -6366,  -4608,    428,    829,  -4756,  -7405,  -1117,  -5073,  -1331,   3871,   1114,    985,  -4835,   -781,  -6185,  -2398,  -8648,   -489,  -5152,  -5483,  -2593,  -2450,  -4343,  -6062,   3877,   4519,   3777,  -8113,  -8200,  -5778,   3056,   6113,  -2840,   5090,   6227,   3558,  -1989,   4703,   1896,   5549,    500,   1314,  -3910,   2668,   4081,   3913,   8865,  -8673,   9748,   6294,   8259,  -4184,   5598,  -1432,   5884,  -4714, -10940,   1870,   -297,  -3642,   1375,   3605,   -215,  -6545,   9578,  -2090,    944,  -1186,  -2574,  -3955,   5698,   5063,  -5443,   6829,  -6473,  -3371,   -654,   3675,  -2952,  -5605,  -5112,  -4847,   1493,   3473,  -5351,  -4605,   -139,  -4138,   -373,   3149,  -2061,   -543,   1568,     21,   6552,   -394,   2025,   5056,    -53,   2580,   -212,   5876,  -7912,   4355,   2147,   1990,   3050,  -1261,  -5769,   4431,    988,   3367,  -4512,  -4759,   3754,    242,   4098,   7052,   1142,    605,   4109,  -2467,  -8187,  -7466,  -7326,     81,   8122,  -5698,  -2898,  11218,  10658,  -1537,   3221,  -4384,  -4263,   1134,  -3446,   1778,  -2068,   2272,  -4013,    671,   3481,  -2703,   6040,   5867,   1496,  -6566,  -4327,   3188,  -5103,  -4708,  -6406,   7028,  -3636,  -8559,  -2919,   4861,  -1065,   6613,   5551,  -2806,  -2495,    777,   5993,  -5330,   1381,   4767,   4014,   1149,   -157,  -5383, -10001,   5940,  -3230,   4518,    226,  -4056,   7212,   2928,   5198,   -160,   -375,  -3177,   7899,   3891,   2260,  -1381,  -2927,  -1415,   4675,  -8041,   7554,   2714,  -4610,    414,  -5326,    -19,  -6092,   1582,   2754,   -851,   5141,   2168,   -829,    130,  -3754,   2627,  -7908,   6956,  -2928,    123,  -3164,  -6567,   8107,   1651,   5131,   2921,   7754,  -1091,   -238,  -7174,   1959,  -5090,  -5768,  -1827,   -967,  -4075,   5964,  -7503,  -1087,  -3168,   5060,  -9141,  -6246,  -9446,  -6675,   2863,   6335,   2199,   7765,   5126,  -1883,   4478,   8942,   2241,   5305,  -2834,   -311,     53,   3626,  -1689,  -1293,  -2997,  -3341,   2017,   5898,   -111,   8226,   -240,   5676,   1455,  -4317,   6208,   1304,   8959,   -120,   6177,    484,  -7740,  -2114,   3926,  -3490,   2160,  -3814,  -7860,   5526,  -4867,   3831,  -9307,  -6146,   2351,  -8242,   2685,  -7318,  -7694,  -4237,   3643,  -2688,  -2722,  -5585,   5131,   2428,  -1649,  -7150,  -6657,    415,  -3015,  -3438,  -7284,   -267,  -4755,  -2259,   4003,   6706,   7808,  -4837,   -694,    847,   7530,   7143,  -3413,  -5344,    214,  -9896,   7883,  -2218,  -1254,  -3681,  -6296,   3884,   2333,  -1928,   6517,  -7802,   5663,   5896,   1133,   4470,    748,  -4615,   3645,   -825,   1363,    942,   -400,  -2756,   2149,  -2219,   3896,   2027,    141,   4178,   6489,  -4258,   4416,  11202,   3021,  -2594,    627,   7140,   5042,   4480,    564,   1709,   6582,  -3099,   4116,  -2732,  -3569,   1289,   -167,    181,  -4810,  -3493,   6479,   1047,   4216,  -5666,  10469,   9794,   7676,   5477,  -1533,   3157,   6233,   8022,   -193,  -2418,    587,  -9736,   4612,   -147,  -7361,   7869,  -3202,   7877,   2499,   1263,  -2995,  -4408,   7298,   3619,   8386,  -2651,   9070,  -7982,   1494,   1689,  -2063,   -402,   6468,  -4945,  -1022,  -3761,    924,  -5825,  -4973,   1414,   1495,   4740,    890,  -9328,   4858,  -6654,   2835,  -4062,   -724,   3153,  -3644,   4072,  -3255,   6599,    -11,   -864,  -3721,   3800,   2235,   1286,   6348,   -753,   6448,   3725,   3419,  11928,   7134,   2207,    848,   6728,   3381,   -309,  11581,    474,   3518,   1125,  -2284,   6675,  -6000,  -1760,   1037,   5413,   2740,   -202,  -7933,  -3693,  -7013,  -3437,  -1591,   1825,   3217,   5233,   5130,
          6340,   5314,  -1911,   -959,  -6351,  -3922,   2559,   -548,  -5816,  -1115,  -2936,   5350,  -2486,   5821,  -6445,   2736,  -3533,  -3873,    875,   5521,    162,  -5795,  -1132,   2642,  -3609,   3274,  -5391,   -270,   2024,   4814, -10065,  -1716,   6423,   1272,   -912,   2724,  -4688,  -2438,   8584,   2603,   8179,  -5072,   4048,   9453,   9753,   5303,   -369,     61,  -2134,  -4650,  -5242,  -2749,   7749,   2715,  -6670,  -6487,   4484,   -790,   5815,   1752,   7068,   2017,  -1061,  -7436,  -1096,  -4761,   3448,  -6880,   -133,  -8660,   -416,  -2259,  -1067,  -4687,   1084,   9249,   -441,  -6859,  -3530,   6169,  -2971,   4440,  -5352,  -1231,   1604,   3730,    822,   2868,  -5065,  -2487,   1115,  -7621,  -2432,  -3355,   -323,   -137,  11177,   9299,   2476,   8521,  11649,  -2441,  10312,  -5394,   6966,   3031,    888,   6431,   4069,  -9308,  -4216,   3803,  -6419,   6443,  -5568,  -5026,   9671,  -2185,  -5537,   6251,   1520,   6239,   5427,   1474,  11198,   4132,  -5723,   4123,   3164,  -3737,  -5711,    347,   5684,   1665,  -4702,   3191,   2263,  -3262,  -6245,    714,   4348,  -2901,  -2984,  -7090,   6992,   7421,  -5371,  -3551,   3196,  -6235,  -5799,  -2167,  -8771,  -4389,   3687,   4644,   2049, -11103,  -4096,  -4744,   8505,   8554,  -3623,  -6792,   8235,  12367,   7967,  -5119,   2755,   5784,   8204,   6207,   8322,  -6392,   2110,  -1484,   2676,  -3394,   5302,  -1716,  -2741,   -329,   1291,  -1930,   7050,  -4491,   6598, -12210, -10361,   9585,   2807,  -2457,  -7723,   1808,  -1290,    809,    107,  -8055,  -3465,  -6455,  -7516,  -7422,   7236,  -6492,   8128,  -7989,  -8132,   -306,  -5011,    154,  -2088,   -975,  -7319,   2669,  -7385,  -1958,  -6887,  -6912,  -2135,    377,  -3938,  -6716,  -3449,   -528,   -920,   5158,  -7416,   3816,  -2063,   5374,   6455,  -6573,   7895,   3492,   4482,   6063,   9226,    865,     -8,  -7824,   1471,  -5489,   2658,    742,  -5421,   5342,  -6651,  -1430,  -3614,  -5249,   3965,   7859,   7282,   6624,   4271,  -2541,  -2090,  -5872,   1621,  -3373, -10207,  -1259,  -3614,   4795,  -3851,  -3384,  -1105,  -7500,  -1789,  -6541,  -9142,   4080,   6693,   1198,   6224,  -3777,   1251,   6311,  -4031,   2797,  -7711,   7441,  -3654,    919,  -5207,   -718,   3813,   5788,   7798,  -5083,  -3304,  -3041,   4020,   -112,   2646,  -5855,   3352,   1080,  -3514,  -6893,    -37,   3825,  -8827,  -3541,  -6406,   2379,  -9292,   4459,  -1145,  -4643,   -309,   5546,   6805,    137,   8430,   7786,   8797,   -501,  -2938,   4190,   3000,   4942, -11991, -10274,  -7071,   2834,  -5002,   -382,  -5895,  -1065,   6139,   4699,   2485,   1289, -11284,   -820,   4640,  -2866,    160,  -7304,    512,   -727,  -7010,   4876,  -2760,   -823,   4455,   5145,  -7618,  -5517,  -5599,   4374,  -1704,  -1449,  14980,  10663,  -7629,   2917,   6664,  -4612,  -1202,  -5910,  -3030,  -1311,  -5059,  -5227,   3077,  -1415,  -6951,   4792,  -9026,  -1754,  -3644,    797,   3116,   2267,   4687,  -6533,   7239,  -8937,  -1046,   6158,  -9444,  -7701,  -2313,  -4713,  -2485,   4950,  -3097,   5280,   3364,  -5128,   2544,   5355,  -2553,   5242,  11264,  -8453,  -3016,  -3147,  -7019,   4539,  -2615,  -7011,   7241,   1668,  -6828,   1109,   1197,   -892,  -6569,  -6705,    312,  -8290,   5513,  -8255,    113,  -8020,   4470,   3541,   2205,   5529,    -22,   5074,  -3586,   3953,   -292, -11483,    996,   1294,  -7462,  -2888,   2268,   1024,   7136,   -724,  -1893,    212,  -2077,   2479,   3031,   2182,  -6388,   2651,   5657,   7601,  -8235,  -7986,  -5329,  -2196,   1212,   2792,    190,  -6923,  -5925,  -6563,  -5650,   5215,    -20,   1581,  -1175,  -6680,   3324,   2005,   -930,  -2119,  -2642,  -3306,   6131,  -1896,  -6486,    124,  -6100,   1404,   -899,  -1194,   2973,   6095,   4035,  -7917,   8938,    966,   4269,  -6151,  -3927,  10083,  -2393,   6003,  -1513,  -7300,  -3000,  -5996,    935,  -1272,  -7176,    358,  -4540,  -7620,   3171,   5360,   5809,   5396,   1229,  -5043,  -1060,   1494,   4212,  -1578,   2375,     74,  -2024,  -6829,
          -935,   2936,   3461,  -9054,  -3788,  -8734,   3707,    782,   -353,   -541,   2502,   4777,   6943,  -4358,  -9910,  -1720,  -3980,  -1539,  -4952,  -1570,  -3238,  -1450,   5315,   6223,   1865,   -705,   7844,  11175,   1711,  -4933,    263,   2378,  -3632,  -4679,   9175,   -251,  -3287,   9232,   7168,  -6419,   7652,  -7000,   5939,  -1326,   8379,   5061,  -4673,    144,  -2005,  -3769,   5639,  -2787,  -1349,  -6852,  -1023,   6299,    767,  -8510,  -2191,   4553,  -1212,  -5675,  -4204,  -2439,  -8084,    269,   5505,  -2363,  -1448,  -7623,   2865,  -4472,   -568,   7022,    874,   1415,   7936,  -7334, -10241,  -1012,   5560,    409,   5857,   5701,  -4241,   5928,   7130,  -1262,   3947,  -3865,  -1368,   1460,   -317,  -3859,  -1038,   -177,   2344,  -3807,   8862,   5920,   -189,  -5070,  12350,   6291,  -6084,  -1585,   4366,  -9193,   7178,  -3862,  -8963,  -7887,   1195,  -6310,   8376,   2359,   6431,  -6603,   4415,   3027,  -4672,   1210,  -4541,   5631,   9351,   3963,   3301,   5479,   4605,  -3368,   1636,  -4527,  -3720,    140,   5360,  -7344,   5083,   2535,  -4195,   5256,    101,  -5965,   2026,   1471,  -1826,  -5721,   2810,   7111,  -1976,   3820,  -2055,  -6124,   3237,  -2778,   -199,  -5829,  -1756,   -436,  -2480,   1837,  -2562,  -1654,    953,   1711,  -6437,  -2769,  10559,  -6569,  -4687,  -6049,  -3838,  -3249,  -8789,   2604,   1861,  -1171,   6149,    221,    439,    924,   7963,    484,   2092,  -6413,  -5321,  -2523,   5688,   6332,   4671,   -609,   -392,  -6783,   4473,   2350,  -1200,   1267,  -1780,  -6340,  -5225,   2564,  -6424,   3696,   3172,  -5070,  -2328,  -4726,  -4192,  -3380,  -1977,   3807,   7522,   6860,  -6481,  -6053,  -7513,  -1588,    851,  -4962,  -4821,    855,  -5721,  -5571,   1637,   2512,    306,  -3667,   7501,   -916,   6164,   7186,  -3755,  -1174,   1724,  -4354,   3851,   8661,   -108,  -2350,  -5215,    747,   2570,  -7724,    978,  -1069,  -2917,   4181,  -7097,  -5125,   7289,   4234,   2952,   1094,   4727,   4363,  -1803,   5862,   5977,  -7364,  -3647,  -6861,    665,  -2254,  -5569,  -5020,   7171,   2502,  -4472,   2092,  -2861,    609,   -624,  -1479,  -3624,   1673,  -1458,  -1977,  -2827,  -2933,   4630,   6133,  -5489,   4512,   2785,  -2729,  -7402,  -1725,  -6180,  -2464,   3901,   1100,   8266,   4333,   4402,  -3431,   7363,   6666,  -3729,   5973,   3343,    641,   3110,   1688,   3347,  -7911,  -3724,  -7346,  -2158,   8946,  -3029,   1094,    832,   4874,   6579,  -8512,  -1801,  -6061,  -1535,   7882,  -2392,   3259,   1967,  -8444,  -5840,   1812,   -633,  -7535,  -2279,  -6015,   2066,  -1601,   -493,  -2341,   5881,   3718,  -2879,  -7342,   2892,  -2122,   5565,   5365,  -6444,   1423,  -6604,   2493,   -676,   1881,   8632,  -2843,  -8844,  -2204,  -5456,   6702,   -466,   2300,   3683,   7696,  -5080,    727,  -4443,   6575,  -3139,   2245,   5923,    248,  13488,   5483,   5462,  -2399,   4590,  -5691,  -2693,  -5431,  -1873,  -4171,  -8429,   5266,  -1439,  -3695,  -5224,   5845,  -3470,   7888,  -2860,  -5720,   3980,  -4521,  -6653,   3536,   5798,  -4535,  -6827,  -5895,  -7929,   2328,   4622,  -6760,   -252,  -4295,  -7611,   5970,  -5221,  -3418,   6264,   2253,   -165,  -3885,   1430,  -4239,   5161,   -116,   5037,  -8276,   5306,   5206,  -3133,  -7076,   3679,  -3335,   5835,  12884,   2423,   2211,   3698,  -1285,   4925,   7290,  -3946,  -2943,   2590,  -1946,  -3985,    194,  -6367,  -2144,    701,  -7004,   -335,   5528,  -4656,  -6858,   7299,  -3755,   4862,  -7024,   9589,   1806,   6131,   6584,   2879,  -7628,   8346,  -2442,   9208,  -9177,   1943,  -2531,      3,   4480,  -2855,  -7387,  -4651,   1082,  -5773,   3821,   6656,  -5010,   5179,   5850,   6358,   4168,    268,   1542,  -4623,  -5662,  -4300,  -5986,  -6333,  -5494,  -8503,  -2351,   7011,    -17,    -35,  -7028,   2182,   4856,   3803,   1679,   5329,   4689,   4756,  -1091,   3250,  -4795,   -296,   -250,   8488,   1544,  -2852,   5087,   -473,   1765,  -1953,    683,   6723,  -6604,   1781,  -1840,  -5400,   7729,  -8528,   4686,
         -5316,    483,   2675,   9573,   4236,   2934,  -5551,   5782,  -3472,  -8010,  -7670,   5469,  -2585,  -8256,  -7662,  -5218,  -4283,   3138,   7247,   -532,  -6651,  -1786,  -5185,   -195,   6642,  -3271,   8662,   6656,   8279, -10462,   3612,  -4916,  -2758,   4745,  -1440,   2850,  -1107,   6768,   6665,   7388,   4688,  -3338,   9944,  -3025,  10300,   5141,  -7227,   2858,   2832,   1863,   7360,   1154,   8590,  -2634,  -7013,  -6531,  -4593,   4286,   7876,    -47,  -5364,  -5384,   2443,  -4787,   -618,  -6999,  -3400, -12502,  -2096,  -2150,  -6637,   2093,  -7543,  -4798,  -6694,   4668,  -4977,   2771, -10146,  -5259,  -2897,  -4926,  -6902,  -3987,   5859,  -1100,  -5899,   1192,  -4447,  -1844,  -2601,  -1179,   -211,   -679,  -2477,  -3562,   2351,  -6239,    644,  -5089,  -3857,  -4402,  -1017,    294,  -6808,  -3911,   3408,  -4010,   4474,    992, -10173,  -3416,    578,  -5313,  -6597,  -2445,   4124,  -3546,  -5209,  -4707,   5964,  -4105,   1321,  11988,   4328,  -2732,  -4297,  -8290,     12,    499,     12,  -3394,  -5721, -10075,   -438,  -7570,   -254,  -2360,  -1092,  -1868,   2029,  -6171,  -6448,   4813,   4524,  -6225,   2068,  -7435,  -3817,   2910,   2268,   5905,   -973,   4165,  -6968,  -6706,  -8367,   -886,   3816,  -1579,  14706,  -5300,  15390,   8305, -10186,   4897,   7733,  -1939,   3611,   2421, -12085,   3096,  -3672,   1776,  -9995,   2322,   2577,  -3550,  -8362,  -5686,   6021,   1074,   -594,   3945,  -6415,     43,    702,  -5487, -13413,   4694,  -3967,   3320,    513,   1769,  -2723,   4985,  -1598,  -3659,  -7112,  -8174,  -8650,   6564,  -2288,  -6331,   5310,  -8328,    633,   5350,  -4471,  -5313,  -3567,   1614,  -2100,  -3112,  -2939,  -4152,   3416,   4346,   1566,    917,   2505,  -3654,    865,   5358,   9370,   2326,    670,   1778,  -8439,   -144,  -5814,  -2054,    405,   1018,  -2036,  -2914,   3824,   1598,  -7840,    422,  -5221,   2012,  -4954,    184,   -872,   4540,  -1576,   -261,  -4088,   3673,  -6155,   -738,  -8123,    -17,   2559,   3949,  -4843,   1167,  -8121,   1955,   6473,  -3926,  -9632,  -5653,  -8142,   3256,   4218,   2327,  -3902,  -7618,   4223,  -7653,  -1566,  -1535,   3253,   7243,    949,  -6205,   3665,  -3830,  -1010,  -7449,   1228,    773,   5538,  -1371,   2999,   5911,  -5592,   2060,   5665,  -9978,   2712,   4016,  -1327,    -93,   5584,   3887,    461,   5986,  -8725,  -5165,    803,  -6729,  -1815,  -6065,  -1645,   7705,   2654,   2343,    545,    786,  -8998,   2532,   4620,  -5320, -10947,    673,  -9535,   3827,   2565,  -3486,   2689,  -1848,   2759,  -4898,   2849,  -7417,  -2254,  -9318,  -2242,   5710,   6786,   3486,    131,   2160,   -992,  -1924,  -3005,   4309,   7286,  -4861,   7100,   3174,  -8683,  -4355,  -2175,  -2003,  -1425,  -3114,   4846,  -5065,   -524,   2001,   6142,   3160,   4356,  10974,  -4499,   6910,  -4237,   5131,   2639,   9777,  -5795,  -1491,  -6224,   1352,   4518,  -8005,   -234,   1245,   2062,  -6838,   2735,   4098,   -960,  -1609,  10338,  11986,  -1587,  -2286,  -5151,   2892,  -7663,  -5220,   4252,  -4406,   1508,  -3179,  -9464,  -7997,   7100,   4711,   -833,   2170,   9030,  -1604,  -3805,   4326,   -697,  -7180,    337,  -7226,  -3666,   -982,   7449,  -5760,  -9778,   5141,  -2641,  -2085,  -1156,  -4910,  -2846,   3974,   1692,  -1820,   1146,   6545,   3363,   7576,   2549,  -2803,   3081,  -2962,     73,  -5441,   2045,   1771,  -7746,   5096,   -145,   5737,   -235,   2018,  -6102,    590,  -4062,   4120,   8253,   -425,   8649,   4489,  -6561,  -5627,  -2970,  -2640,  -6584,  -6004,   7075,   5071,    216,  -9117,    263,   2999,  -3451,    967,   4910,   8110,   2452,  -1166,   3564,  -5772,   3737,   3898,   -470,  -7141,  -3247,  -6721,   3713,  -1191,   -774,    888,   7443,   -920,  -7462,   2441,   2612,  -2245,   4884,   -541,   4062,   1604,   8635,   9011,   5522,   5682,  -4312,   -166,  -3142,   1909,   1478,   4729,  -3674,   1341,  -6192,  -6545,  -5880,  -7101,   1297,   -676,    891,   2991,     38,   6069,   8236,   4284,  -1127,   5221,  -2168,   3601,
         -5274,  -1683,    321,  -5344,   3035,   3317,  -8726,  -3127,  -9141,  -1567,   5849,   2907,   3628, -10199,  -3439,  -3604,  -3829,  -7467,   -370,  -1706,   3283,   4704,   4438,  -7255,    -51,    169,   3433,  -2180,  -3099,  -3892,  -1480,  -1735,   1958,   1685,  10082,   3767,  -6938,   1539,   1236,   1978,   -228,    408,   6737,  -3782,   6085,    304,  -2699,   6448,  -5253,  -1195,   5144,    533,   1686,  -6122,  -5663,   3854,  -3486,   -776,   6600,  -1465,   5424,   6877,   1734,   4184,   5755,  -5346,  -4386,   3038,   2942,  -4786,    -27,   1344,   6174,  -7652,   1653,   7030,    220,    200,  -3320,  -6911,  -2308,   5120,  -2518,    372,   5323,   4781,    519,   5103,  -4317,  -6522,   5836, -15222,    427,  -1984,  -7121,   -275,   -115,   4846,   -433,   -376,   4246,  10127,  -2750,   3367,   3893,   3624,    721,   4382,    401,  -1418,  -2200,  -4050,   3300,   1341,   -678,  -4000,   2086,   7147,  -2549,  -1232,   7520,  -6504,  -5508,   4582,   2674,    190,   6630,  -7338,  -4241,  -4649,   1436,  -3270,   5666,   4614,  -1067,  -7803,  -6818,  -6215,  -2638,   7505,  -3975,  -8917,   1331,  -3173,  -6221,  -5531,  -1919,  -5586,    492,   5905,  -5719,  -2581,  -5773,   3386,   3619,  -4281,  -4526,  -6949,   2204,  -7771,  -1046,   -630,  -3312,   2274,  -8041,   4710,  -3290,  -4559,  -1084,  -6939,   6666,   6275,   4046,   2815,   4346,  -7855,   4390,   2201,  -2198,   6288,    259,     66,   5288,  -1911,   3841,   1219,   9513,  -2977,  -6809,  -2221,    443,    691,   2265,  -2567,   4517,  -7416,  -6867,   -255,  -4221,   3021,  -4568,  -1174,   4936,  -1977,   5498,   4086,   1774,   4416,   6320,  -5691,   6867,   5038,   -692,   6317,   1758,   2253,  -7315,   -509,   1233,   3579,   7081,   -870,  -1647,   3333,   5065,  -5045,   5528,   4658,   1821,   4972,   -556,  -5184,   2318,   4204,   8755,   3903,   3418,   2881,   4062,  -7084,   4277,   3276,   6214,  -1124,  -2270,  -3642,  -8431,  -3839,   7521,   1714,    857,  -3240,  -2076,   -975,  -1517,    754,  -2313,  -4487,  -5221,   7726,  -1728,  -6215,    958,    977,   1295,  -7013,  -6207,   1483,   7398,   2545,  -8786,  -2434,  -2068,    523,   1482,  -4520,  -2164,   5117,  -7060,   3155,  -4911,   2291,  -6065,  -4700,  -6047,   2171,  -6479,    542,    227,   7147,   8076,   9261,   -290,   1557,   8078,   -513,   5981,  -4658,  -1893,   5422,   4419,    -98,    244,  -3205,  -3387,   4754,  -4945,   6484,   2474,   3741,   1608,  -6034,   6327,  -2912,   2189, -12305,   1256,   6565,  -7882,  -3460,   2287,    795,  -1782,   4996,  -3825,  -7424,   -642,  -3341,  -3986,  -5255,   2265,   1240,    244,  -5937,  -7614,  -6953,  -4027,   4619,   3185,  -2417,   3593,  -6703,  -3155,  -3736,  -7382,   4377,  -3098,  -3389,   7589, -11595,   5302,  -4222,   9202,   5926,  -7160,   4527,   4638,   8477,  -5859,   2908,  -7344,   6095,   9406,   -876,  -3171,   3726,  -5717,    152,   6945,  -5958,   1436,   3297,  -5466,  -3592,  -6671,   5209,   3995,   4908,   9140,  -5454,  -5109,   7821,  -5962,  -4239,  -8806,  -3050,  -3613, -15223,  -2081,   1033,  -4687,   1758,   6223,  -4487,  -7748,   3552,  -4412,  -7728,  -4453,   3091,   2683,   7162,   4578,  -5112,   7002,   3205,   4023,   4936,  -7651,   6028,   1913,  -3925,   -701,    122, -10100,  -5722,   6075,  -3907,  -1859,   -474,   4788,  -9415,   2779,  -2288,  -6257,   2599,   7911,  -1489,   7764,  -5335,  -1565,  -3032,  -9152,  -2046,  -3176,  -6685, -11931,   4764,  -9328,  -1934,  -1669,   8073,   4487,  -2894,   6282,  -1987,   3927,  -6398,  -8891,   8240,    787,  -2717,   -853,    667,  -2824,   4834,  -5975,   4685,   1990,  10046,  -4053,   4062,   3384,   5898,    248,  -5005,  -5198,  -1850,   5006,  -5902,  -2764,  -2431, -10644,  -2964,  -7157,   1336,   1265,  -2704,   3117,  -4791,    381,  -2331,   3922,   -375, -13852,   6356,  -3644,  -5371,  -7985,   6074,  -1464,   6440,  -9538,   -745,  -3820,  -7090,  -3592,   5267,  -6687,   1140,   4532,   1177,  -7363,  -5801,  -6437,   2023, -10270,   1239, -11658,  -2023,   5847,   3243,
         -2099,  -3033,   1321,   2326,  -4361,    -20,  -4193,   5463,  -3717,   3779,    897,   7181,   9513, -10507,  -8236,  -6470,  -1658,    288,   -214,   1154,  -6171,   1822,   5256,  -1423,  -5841,   3556,  -4181,  -4615,   8984,  -2705,   1916,   -242,   8278,  -8151,  -1412,  10716,  -4614,  -1660,   8075,  -5827,   4137,   8830,  -6164,  -6591,   2901,  -6844,  -7312,  -4751,   4293,   2327,    445,  -1320,  -9182,   6595,     11,  -3384,  -4085,  -2914,   3636,   6217, -10515,  -9722,  -2019,   2480,  -8078,  -7925,  -6385,  -3567,   5220,   1150,   4611,   6644,  -8825,   1766,   6453, -11644,  -2753,  -1403,   2476,   6373,   5852,  -5318,   5710,   -924,   6122,   5312,   4673,   3660,  -4143,     15,   3994,  -7550,  -5932,  -7472,   2998,   1927,   -862,   -959,  11012,  -3397,   6733,   7210,   -544,   2026,  -6953,  -8169,   -200,   3114,  -9537,  -2637,  -6647,  -5572,   4881,  -1811,  -1997,   1247,  -2491,  -7230,  -8214,  -2156,  -5825,  -8353,   6559,  -2228,  -6980,   3976,  -5518,   5315,  -6451,  -3073,   4451,   -863,  -6234,   -499,  -3190,   3418,  -8132,  -2040,   6163,   4607,  -4974,  -1573,  -4738,   1575,   -685,    571,  -1346,   6474,  -1548,   6014,  -6876,  -7244, -10154,  -5297,  -1600,  -2973,   1754,  -4620,   1402,  -4357,   4870, -10487,  -2177,  -6099,  -6675,   1857,   6983,   5180,  -2680,  -3412,   7802,   8252,  -2927,  -5960,  -4354,   5730,     91,  -7002,  -5173,   1745,  -1107,  -4742,   3077,  -6705,   -256,  -5454,   9699,   8101,  -3630,  -4909,   5522,   2563,  -5128,   -441,   6299,   1358,    601,  -1202,  -7873,  -5618,   7307,  -3740,  -4688,   8646,   2091,  -3457,   2729,   5118,   -748,  -1602,   3487,   1560,   5562,   3850,   2113,  -7093,  -3231,   8497,  -5943,   3355,  -4508, -10117,  -6574,  -6574,   5765,   7645,    -60,  15343,   4219,   1882,    801,   6807,  -4655,   -970,    186,  -8546,   1153,   4763,  -5432,   -686,   5543,   2572,   2908,  -1081,  -3140,  -3557,   -924,   1455,   3592,  -6767,   7178,   7432,  10536,  -5251,    323,  -5095,  -9179,   6463,   1373,    966,   2667,    316,  -4745,  -6321,   -585,  -2116,  -2327,   -318,  -6836,  -2398,   -715,  -3772,  -6617,   2712,  -2033,  -3160,    516,   4103,   1481,   3788,   2385,  -6885,  -5350,  -5936,  -8800,   5523,  -7565,  -4664,   5954,   3810,   5277,  -1870,  -5194,   3220,   2541,   3855,  -6478,  -5337,   4044,  -1535,   3939,   1460,  -1916,  -5249,  -3279,   3633,  -3762,  -5041,   3081,  -1960,  -1536,   1921,   3639,  -7343,   8176,   2220,   -834,   7240,  -1611,  -2655,   4890,   2773,   3908,  -7227,  -8600,  -9142,  -1309,  -5911,  -2297,   2268,   8140,   7887,   4805,  -5893,   1825,   6025,   7124,   1629,   7433,    399,   6478,  -4414,   4893,   1164,   -269,   -677,   3689,  -9171,   1802, -11367,   3002,  -5335,  11942,  -6214,   7582,  12152,   1298,   3627,   5056,   1481,  -1342,   3037,   -262,  -3804,  -1128,   1526,   3816,   2537,    141,  -7837,   1076,   3111,  -1359,   7639,  -1607,  -6275,   1542,   3139,   4404,    748,   4314,   4196,   4910,  -7100,  -7796,  -2297,   5978,  -8277,    -70,  -7028,  -3056,  -5235,  -4474,  -2041,  -1346,  -2575,   6137,  -2917,  -6298,   4013,   4980,  -7456,  -2950,  -6098,  -6010,   6208,  -1523,  -6630,  -6554,   3111,  -3049,  -5272,   3680,  -2718,  -9992,  -3463,   2590,   8321,  -1319,  13577,   9430,   6990,   2050,   7004,   4176,  -7815,  -1949,    489,  -5419,    909,  -7756,  -3721,  -4109,  -2805,    855,   1790,   -657,   6585,   1192,   5686,  -5823,   3779,  -5576,  -4845,   6737,   6001,  -2109,   5234,   1680,   5876,   1998,   3952,    658,   -544,  -5813,  -6404,  -5595,  -8133,   3308,  -3887,  -3245,   5109,   -830,   1347,   -677,   6815,  -2196,   3325,   2500,  -2828,   5693,  -7154, -10263,   -904,  -7953,  -8929,  -4032,  -3864,  -3356,   5054,   6012,   4956,   3267,   -354,    691,   8039,  -6862,     27,  -4521,   1059,   8667,    162,   9522,  -5217,  -3033,  -3215,     53,    461,  -5631,   4460,   2406,  -6501,  -7246,  -5927,  -1037,  -6530,  -4352,  -8872,  -1234,   1459,  -8631,   1665,
           942,  -2455,   4766,  -2187,  -1964,  -3398,   3815,   3313,  -1977,   1587,   -591,    777,   2586,   4309,    553,   1993,  -5753,  -6387,  -1113,  -2459,  -3379,  -2555,  -7160,  -1189,  -1986,  -4807,   2081,  -8035,   1329,    -93,  -2832,   1138,    576,   4520,   6852,  12835,   9804,  10671,    334,   1836,   2438,    241,  -4208,   1354,  -5648,  -7700,  -1389,  -4061,   6732,  -7538,   -442,   3416,   2340,  -5199,  -2326,   -363,  -4517,   3668,   5321,  -3770,   7986,  -1535,  -2040,  -2230,  -7540,  -2700,    619,   6258,    710,  -8974,   5311,   5910,   4131,   -719,    971,    688,   6417,   -158,   -868,  -4993,  -6375,    108,   2877,   5947,   1920,   4430,   6992,   7244,  -2480,  -1363,    743, -10806,  -7816,  -7113,  -8402,  -3888,   5356,  -3654,   2640,    580,   4267,   6340,   8684,  -2111,   -291,   -405,   3036,   2321,    505,  -6810,   2351,    612,  -3911,  -6883,  -4088,  -5121,   -313,   2207,    795,  -8016,  -3277,    669,   4333,   -122,  -5255,   7596,  -2206,   4717,  -2583,  -8508,   7240,   5056,  -3647,   1255,   3644,    426,   4322,  -4108,  -1538,  -3643,   1451,  -8351,  -4940,  -1783,  -6083,   1334,   5646,  -7512,   1939,  -2470,   5198,   3842,   4982,  -5678,   3173,   4139,  -8007, -11482,   2536,  -3641,   7002,  -3504,  -3812,   6800,   4332,   2527,   3236,   5128,  -5472,    -59,  11205,  -6042,    204,  -6246,  -7903,  -6560,   4790,   -319,   -211,   1249,   7679,   -491,   -545,    173,   5218,  -6051,   7481,    677,    995,   7991,  -4226,   4872,  -8100,   4872,   1440, -14455,  -7236,  -2255,  -4302,  -7890,  -1444,  -5310,  -2130,   1785,  -2838,  -4829,  -9664,  -5070,   3342,   2113,  -3211,  -5754,  -1998,  -5431,  -6601,   3280,  -7121,  -5769,   9613,  -2312,   8749,  -7672,   1801,   6664,   7050,  -4184,  -6919,   6936,  -2476,   -959,   -808,   3935,   1124,  -4401,   -705, -18324,  -6311,  -6939,  -8513,   2594,    495,   4790,  -4909,  -6618,    425,  -9524,  -3333,   -327,   6050,  -3270,   -618,   3715,   7415,   4483,  -1404,   2241,    736,  -5904,  -7166,  -5543,   1978,  -7942, -10848,   4028, -10330,  -6703,  -5483,   6605,  -1086,  -3054,  -2676,   1509,   3368,   6274,   1127,  -2753,  -3673,  -1782,   4445,   -733,  -1250,  -2092,  -9264,   1322,  -7329,   3062,  -7536,   4549,  -1251,  -3266,   2575,   6677, -15850,  -1345,  -1058,   2128,   3518,  -2336, -10394,  -4708,  -3918,  -1117,  -4601,   5915,  -9543,  -2792,   3150, -12411,   3693,  -7678,  -3692,  -4531,  -2190,  -5078,  -2493,  -8022, -13747,   2586,  -6963,   1916, -10956,  -8649,  -4115,  -2568,   -747,   2902, -10218,  -6544,  -6587,   5551,  -3152,  -6504,  -6768,  -6352,  -8080,   -666,    121,   6351,   4880,  -5518,   4935,  -3078,   2191,  -2146,   1173,    572,   2442,   -555,   8995,  -5670,   2051,  -6626,  -4332,  -2841,   7723,   6491, -13362,   1749,   4063,  -5159,    838,   5440,    438,  -3810,   2979,  -9450,   2901,   2842,   2072,  -1219,  -2388,  -2048, -11480,  -7191,  -1625,   5106,  -5781,  -6423,  -7751,   5662,  -9429,  -8269,   1333,   -578,  -9556,  -4828,   4396,   4222,    870,    372,   -881,   2170,    766,  -4733,   4517,   1099,  -6953,  -6727,  -8629,  -2218,   2046,   4269,  -2783,  -2493,  -6576,   4498,  -1225,   6254,  -4533,  -8816,   6468,  -2532,  -7021,   3737,  -5820,    278,   4188,    453,   6320,  -3585,   6752,  -3518,   4677,  -4124,   4488,  -5171,  -6910,  -4779,  -1376,   6337,  -1961,   3604,  -7343,   3940,    247,  -6485,  -4923,  -5865,   1595,   3459,  -1629,  -2852,   9164,  -1207,  -2380,    340,   6572,  -2105,   2124,  -7933,  -4990,      8,   3862,  -3459,   3105,   -272,   2194,   2465,  -6194,  -5243, -10260,   5773,   -167,    888,  -5630,  -5678,  -4389,  -7303,   3136,  -1360,  -3875,  -2521,   1547,  -7978,  -2275,   4895,   1104,  -2035,   5637,  -2291,   5050,   4051,    437,    221, -11407,  -3914,  -4160,  -6062,   3371,  -7076,   5557,  -3069,   2290,   -654,   -435,  -1442,   4247,  -7632,  -3502,   1433,   3389,  -7769,  -1207,    -60,   1930,    743,   5962,   3830,    -24,   1746,  -6084,  -4507,
          -152,  -2057,    727,   2798,  -4738,  -6357,  -5403,   2344,   5450,   5738,  -3714,  -4186,   6769,  -2158,  -3054,  -2119,  -1491,  -5713,   1981,   5897,   -906,  -4501,   2497,   1324,  -5861,   1219,  -3314,   -592,   1191,  -5160,   1954,   -723,   6994,   3423,   9765,  16141,  -2703,  -3825,  10329,  -4367,    793,   5014,    -32,  -9544,   7781,   4868,  -7320,   6309,  -7182,  -4416,  -1947,  -4338,  -8591,  -1630,  -3496,  -2906,  -5003,  -1667,  -1812,   8028,   2676,    921,  -8487,  -1969,   1309,  -8329,    981,  -5813,   1773,  -6098,  -2719,   5309,   2474,  -3129,   2672,   8501,  -4312,   4143,    970,  -5416,   6334,   6246,  -3154,  -4966,  -7416,  -3501,   1925,   2176, -10718,     -5,  -6606,   3543,   4220, -10656,  -6009,  -5111,  -5875,  -2353,   6065,    433,   6343,   -602,    -35,   5702,   -313,   2123,   6936,   2303,  -3898,  -6712,   3430,   3497,  -2492,  -6307,  -5510,  -9153,   3635,   2103,  -6023,   3124,  -3103,  -2097,  -4559,  -1825,  -3664,   3280,   5828,   3032,  -1380,  -1802,   6694,  -2582,   4963,   4344,  -4678,   5532,    416,  -1786,   1683,  -4991,  -4466,  -1181,   4345,  -5035,   3424,   2729,   5016,  -2746,   4918,   4722,   3485,   7513,  -1326,   7256,   4913,  -8178,  -2272,    130,  -3451,   5030,  14381,  -3058,  -1687,  12790,   6174,  -2489,  -4914,   -909,  -2810,  -4670,  -4872,  -6141,   4641,  -6981,  -1720,   5680,   2747,  -5298,   1562,  -8728,    462,  -2272,    884,   4266,  -3583,  -7004,    510,  -3435,   3313,   5988,  -5168,   -782,   1523,   3266,  -6876,  -6325,    503,  -9104,  -6734,  -4882,   1945,   1652,    572,  -2938,  -2638,  -7079,   2533,  -7565,   4799,  -3556,  -3882,  -2205,   1491,   5281,   1878,   5724,  -9177,  -8705,  -3540,    326,   2366, -11361,  -1657,   3580,   3001,   8772,   4928,   2637,  10394,   8336,  -1281,  -3181,  -4043,  -2790,   1101,   -918,   3482,   4119,  -1818,     77,  -2540,   5328,   7232,  -6310,   1224,  -3801,  -8595,   -793,   5119,   1460,   1393, -10291,   -602,   7960,   3587,  -4861,  -6555,   1546,  -2832,   5218,   7140,   -306,    -24,   3548,   -758,  -7816,  -5925,   2586,   1657,  -6240, -10478,   1627,  -5580,  -6708,    928,  -1684,   4487,    508,   6112,  -2991, -10725,  -4367,  -5947,   -824,   3394,  -5517,  -1378,  -2352,   3099,  -2035,   4755,  -8534,  -6775,  -2715,    232,   5856,  -8658,   4025,   7277,  -1334,  -5987,  -2555,   1797,  -1348,  -3650,  -1936,  -4542,   3824,   2039,   1419,     43,   3216,   4101,  -3596,   6646,  -7924,  -6566,   3820,  -4641,   4608,  -3433,   6014,  -4906,   2131,   2321,  -5326,  -8753,  -8204,   3331,   2734,  -5988,   8015,  10529,  -5018,  -5902,   4391,   1756,  -2702,    681,   6149,  -7210,   -955,   -825,   2964, -10483,  -5402,   -667,   2899,   5259,   2658,  -7584,   1283,  -1657,   3676,   8981,   3362,   5941,   1379,   5100,  -2869,   3962,   1971,  -4603,  -1400,  -6001,   1609,   4251,   3366,   5534,  -3305,   -278,    275,   6970,  -1249,  -5166,   4622,   5975,  -6089,   5538,   1165,    460,  -4580,  -7503,   6435,     65,   2630,   5776,  -3147,  -4458,   3286,   2572,  -2525,  -3595,  -5504,   3419,    805,   9448,   2430,  -6799,   -428,   4657,   3944,  -2328,  -5770,   7243,  -4770,   -272,  -6087,  -7052,  -2126,   3439,    897,  -3154,  -5525,   1743,   2385,  11942,   4708,  -5188,   3447,   5637,   1240,  -1761,  -3838,   5022,   3459,   -401,   5132,   6191,   3144,  -4561,    -68,  -6928,   5877,  -2765,  -4776,   3843,   5491,  -5573,   2329,  -7525,  -7763,  -4725,  -8450,  -1074,   7154,  -6339,  -6843,  -8526,   4871,   7222,   6304,  -1330,   2814,  -8548,  -3462,  -8782,  -4523,    506,   2845,  -1678,  -6658,   1776,    448,   2577,   3544,  -6487,  -6340,  -7481,    345,  -2540,   1542,   2159,  -2912,   8831,   1260,  -5217,  -8464,  -2794,   2825,  -2780,   7061,    340,   4414,   3192,   1254,   7455,  -6807,   1773,    151,  11073,  -3492,  -1432,  -2443,   6491,  -2665,  -2253,  -3773,   3785,    210,  -5998,   1338,  -4065,   1493,  -6279,  -6265,  -5246,   1738,  -3862,   6468,  -5092,   6572,
         -7134,    370,  -8082, -10045,  -6922,   1999,  -2108,  -5007,   1600,   -972,  -7444,    415,   6431,  -2579,  -6966,    826,  -3024,  -3390,  -4702,   -434,  -7240,  -6420,   -694,  -5979,  -4942,    279,  12113,  -4146,   3539,  -7364,  -5169,  -6197,   3238,  -3237,    155,   8443,  -7194,   1643,    121,   1987,   4646,  -4465,  -5989, -14861,  -5379,   6270, -10614,  -6953,   4281,  -5268,  -4391,   -857,  -8108,    987,  -9476,   -286,  -6793,  -7071,   7073,   5876,    175,   1160,  -9298,  -7733,    834,  -5531,  -3773,  -4962,   1718,  -5063,  -1623,   4448,  -5377,  -7461,   4753,   3104, -13250,  -4597,  -1059,   5599,  -1735,   3769,   1026,  -3023,  -3290,  -2730,   2236,   -103, -10471,   4363,  -6887,  11952,   4764,  -6503,  -5174,  -1860,  -3877,  -5265,  14856,  11634,   1574,   1939,  -2330,  -1257,   4731,   3110,    837,  12354,  -3580,   1763,   2454,  -4446,  -2427,   4281,   4316,  -6833,    198,    672,   2201,   3689,   -163,  -5260,  -8601,  -1885, -13473,  -1527,  -4152,  -3440,   1427,  -6280,   -198,  -6854,  -4148,   2549,   3185,  -4913, -10740,  -2346,   5792,  -1819,  -6749,   1513,  -1256,  -3891,  -3241,   2258,   2201,  -1709,   4676,  -1118,  -4831,   4384,  -3962,   1845,   3629,   2132,   5134,   1351,  -7427,    634,   5388,  -8497,  10097,  11438,  -7644,  -5427,   -360,   6076,   4246,   -345,  -3425,  -5616,   1902,   1606,  -7281,  -5069,   1188,    666,  -1998,  -2476,  -8716,   1789,   3292,   2838,  -3633,   5855,  -3103,   6156,  -5801,  -3484,    860,   7213,  -4778,  -6610,  -3643,   2718,   -605, -10103,   4056,   3329,  -4647,  -7736,   7023,  -2729,  -1838,  -8315,  -2976,  -8133,   1280,   4727,   2782,   6684,   2755,  -6944,  -1963,  -1462,   1261,   4667,  -2405,   2475,   -741,  -5582,  -8919,  -1950,   1538,  -1159,   6363,  -6222,  -3422,  -4615,   9530,   2063,   2507,  -9034,  -6300,  -3513,  -1507,   3998,  -6150,    554,  -5034,  -4460,   -885,   9611,   5722,  -4523,    261,  -4147,   7865,   -553,     -1,  -6113,  -3383,   7479,   2107,  -1308,   4838,   1666,  -7061,  -3928,  -2489,  -6693,  -4827,   3121,   1966,  -5566,   1634,   3593,   -811,  -7450,  -6433,  -6655,   6400,   6115,   4623,    512,   -933,  -4564,   -110,   7018,   1313,   7198,  -3296,  -1648,   3347,  -4194,  -5120,  -6172,   -150,    363,   5319,  -6502,   1802,  -3022,   8800,  -4169,  -7604,  -1460,  -3004,   -251,  -7759,   2155,  -9414,    551,  -7094,   3998,  -1837,  -7323,  -9429,   -668,   4369,  -4986,   3216,  -2286,  -1943,  -4796,  -4332,   1213,  -4198,  -7478,   3653,   2786,  -4576,   2645,  -6673,   1550,    282,   4504,  -2916,   5111,  -4219,  -3585,   1961,  -1533,   3222,   5930,  -4132,   4564,   5752,  -1875,  -2056,   -681,  -3897,   -285,  -6388,   1103,    269,  -3395,     94,  -2745,   -371,   1612,   1620,   2288,   -976,   7337,  -5918,   8396,  10268,   5752,  -4335,   8110,  -6298,  -7827,   2802,   5879,  -7134,   1182,   4325,  -4468,   7192,   1621,  -4743,  -2209,   2242,  -4981,  -5002,  -2192,   4325,   1121,     98,   6580,  -6846,   -225,  -8047,  -3791,  -5981,   -706,    240,    935,   1506,  -8169,   3593,  -1280,     68,  -3065,    595,  -6050,   2909,  -5809,  -3353,   3372,   2249,   1206,   4979,   4937,    691,  -3884, -11485,   -716,   3318,  -2803,    596,    611,  -3985,  -4956,   4517,  -2371,   2516,  -8474,   8113,   4147,   8129,  -2773,   5725,  -7546,  -1206,  -6877, -12960,   5856,   1968,  -1404,   3347,  -1127,   -662,  -2507,   7450,  -3232,  -9025,   -394,   -666,     84,  -7685,  -1344,  -2171,   -847,   5603,   5269,  -8659,  -7687,   2608,  -2283,   4893,  -5751,  -4427,  -7627,  -5380,  -6937,  -5416,  -6214,  -4022,   -984,   3188,   4623,  -2008,  -4536,  -5821,   5405,   4948,    819,  -5721,  -1869,    970,   8213,   -417,  -5788,   8238,    -17,  -1234,   3809,  10516,  -4161,   2856,  11152,   2908,   3050,   3342,   -264,  -1880,  -6873,   2112,   -298,   6259,  -3553,   3868,  -8243,   6187,   -972,   -909,  -5093,   2009,  -7467,   -372,  -2156,  -6911,   4575,  11085,   6800,  -4343,   4985,  -1727,   5756,
         -2528,   1966,  -5232,   1970,   4539,  -4553,    667,   2379,  -5028,   3093,   4349,  -3790,   3916,  -3242,   3712,   1193,   1920,  -1630,  -4150,  -7277,  -3416,  -6615,  -4665,  -1165,    -85,   4195,   5416,   2037,    787,  -4589,  -4123,  -6201,   4096,   8027,   4401,   3117,  -1941,   1295,   6694,   4575,   2422,  -7594,  -4918, -11792,   1175,   5097,  -4664,   6110,   4628,   -955,  -4733,  -1292,   3026,  -6531,  -7164,   2827,  -5562,    487,   4929, -14039,   5498,   -894,  -4418,  -2125,  -6833,   2673,   6173,   5643,   4258,  -1982,  -6732,   5766,   -920,   -969,   3569,   1831,  -9143,  -9196,   3454,   4285,    768,   3502,  -4429,   1735,  -3555,   4312,   7481,  -6744,   3030,  -3742,   3406,   2321,  -3512,   1256,   -906,   3955,   -245,  -2423,  -3875,  -3538,   1804,   4253,   5475,  -2358,  -6310,  -2869,  -5671,  -4988,  -2047,    484,   4876,   3551,   5492,    722,   -761,  -2546,   7088,  -6426,   2975,   6298,   3505,  -7277,  -2312,   1930,  -8432,    400,  -6228,   -440,  -4336,   2418,   3894,  -1238,   2652,  -7224,  -7892,   5362,  -4719,  -5977,    392,  -3993,  -4840,  -7533,  -5988,    597,    924,  -2001,   7188,   4245,    645,   3100,   3217,   5502,   1583,  -3265,    886,  -4020,  -1481,  -1483,  -5771,    735,    174,  -3255,  -1967,   6282,   3944,   4623,   5597,  -2688,    430,   -471,   6536,  -4716,  -8009,   -634,  -6307,  -6062,  -1771,   5426,   4128,   6014,  -7003,  -7454,  -2840,   2213,   4353,   5460,   4338,    596,    439,  -1751,  -3125,   7497,   2193,   1131,  -1900,  -1721,  -5622,   1196,  -5874,   3653,  -2485,  -1922,   2646,   5385,  -3854,   -747,  -9074,  -2576,  -7455,   6628,   2945,  -3777,   2093,   2081,   1889,   3073, -11753,    541,   5662,   3208,  -4141,  -3623,   4163,  -7914,   3935,  -1478,   2798,   -900,   1342,   5992,   1370,   5240,   5761,  -7481,    152,  -7870,   4147,   1240,  -7900,  -3260,  -1292,  -8830,   3315,  -3447,  -5938,  -6477,  -5561,  -2025,  -7956,  -4884,   3653,  -2837,  -6612,   3935,   4821,  -2685,   1439,  -4656,   7629,   6164,   8989,  -5278,  -7065,  -1214,   4644,  -1777,  -4751,  -6423,   7181,  -2592,  -9162,   5186,  -7092,  -1946,  -3826,  -3218,   6964,   4877,  -1439,    971,   4872,   4702,   6952,  -5763,  -5298,  -8932,   5108,   4249,   1560,   7062,   2118,   3045,   -715,   8244,   4387,   5921,  -1059,   1820,   9573,   4294,     25,   3158,  -8443,   1367,   8229,     -6,   1821,  -5404,    -86,  -8483,  -6849,  -6053,  -5314,   2158,  -3647,  -2190, -10797,   7625,  -2583,  -6397,  -8004,  -1189, -10306,  -4325,  -8116,  -3626,  -8645,   3725,   4693,   1457,   -436,  -6598,  -7256,  -5259,   -203,  -8275,   6781,   2223,   1699,  -5313,   1508,  -7474,  -1178,   -213,  -7138,   1749,  -1803,  -1752,   4784,  -8512,  -9481,    975,  -2698,   6381, -12758,   4571,  -2369,   3311,  -4867,   3249,  -1941,  -8856,    589, -13174,   2574,  -3437,   1980,   4004,    981,   7541,  -6748,   4627, -13353,  -5320,  -6787,   2436,  -5094,  -5312,   5117,    594,  10104,   -719,  -1157,   -927,  -8712,  -2950,  -2014,  -6281,  -2048,  -7211,  -4988,  -7998,  -6952,   -217,   5393,   1964,   -331,   2546,   1910,  -5900,  -6491,   1547,   5447,  -6394,  -7306,  -4565,   3738,  -1639,   2091,   9943,    760,   -505,  -4761,  -8657,   1218,   5576,  -1796,   -474,  14263,  -1613,   -687,  -3986,   2416,   5592,  -3417,    725,  -3630,  14211,   -807,  -5355,  -2221,   2905,   -725,  -1719,    414,   2405,   6767,  -1970,  -2035,   1509,  -3171,  -2789,  -9448,   2196, -13031,   1131,   1782,  -4623,   4679,  -1367,   3172,   6408,  -5386,   1303,  -4364,   4644,  -3646,  -7355,   2792,   2299,  -3438,  -1464,  -1669,  -6809,   1729,   7285,  -2514,   5765,  -3681,    771,   2751,  -2186,   3321,   6276,   2737,  -6248,   5756,  -7489,    858,  -1901,  -2993,   2505,   3347,   5596,  -7739,   -281,   8991,  -3684,  -3347,   6944,  -5831,   -705,   8256,    343,  -9559,   5233,   2966,   2367,  -5777,  -8210,  -7722,   5379,  -5493,   2666,  -8541,  -6774,    456,   6137,   3890,  -3859,   5013,   3237,
          1561,  -7884,   6453,  -1288,  -6400,  -1613,  -8811,  -7649,  -4281,  -8353,   4446,  -3464,  -4205,    486,  -3553,  -2964,     31,   3083,   7438,   7287,      5,   -635,    226,    514,   3203,  -7252,   6793, -12402,  -4450,   1685,  -7277,   3059,  -3502,   4171,   8607,   -121,   4041,  -1847,   4739,    959,   4681,  -8108,   -481,   2355,  -8228,   6387,  -2098,  -4587,  -6042,  -6767,   5478,    666,   3809,   4138,   1336,   3618,  -2802,  -9763,  -4530,  -5844,   3167,   7648,  -4208,   3176,    938,   4911,   -834,   2591,  -2758,   1702,  -6982,   -733,  -9131,  -7246,   2922,   4877, -10098,  -1027,  -5458,   4378,   6497,  -3990,   4454,  -3592,  -2982,   2848,   3409,   6133,   1607,   6138,   2457,  -6060,   1103,   3831,   1921,  -5878,  -6007,  -8701,   3882,   2123, -10058,   3269,    695,  -6929,   7701,   4709,   6467,  -4697,   -315,    274,  -2107,   2428,  -3375,   2177,   -636,  -3509,   2307,   1757,  -6830,  -1675,   3879,     32,   6074,   -432,    735,   2846,   5329,   6791,  -6486,   3560,  -4325,  -1439,  -2480,   -108,  -5125,  -4723,   2469,   3151,   5641,   9851,  -3680,   2226,  -2363,  -2268,   4405,  -7482,   4962,   4797,    538,   2009,  -5027,  -4410,   2552,  -1611,   2892,  -5713,   3954,  -7141,  -9966,  -6779,  -5691,   8793,   3227,   5734,    247,   6957,   5715,   3956,  -3574,   7463,  -3157,  -5177,    -41,  -2441,  -6777,   4912,   2849,  -5446,  -3394,  -6688,   6284,  -3281,   4634,  -4735,   5104,  -1981,   6098,   6559,   2812,  -6821,  -7494,  -5734,  -5682,  -5827,   2342,   7398,   2817,  -3317,    550,    820,   2815,   2527,   3886,   2235,   -598,   2353,   3645,   4450,   4728,  -7149,  -3201,  -4706,  -2535,   6660,    -98,   -132,  -7227,   3711,  -7323,  -9132,  -6107,   4654,  -9239,  -6112,   7275,    779, -10169,  -9075,  10120,    932,   2741,   6197,    181,  -1195,   9580,   -266,   2603,   1061,   2560,    761,  -3294,   5432,   1032,   -156,  -2726,  -6014,  -8114,   3097,  -4316,  -7327,    962,   -121,  -3478,   4332,  -3294,   -299,  -2263,  -4173,   7510,   4140,   3437,  -9403,  -6723,  -3271,  -6367,   -729,   6068,   4176,    958,  -7440,    974,   1021,   3344,   -446,    -65,   -386,  -6021,  -3555,  -7402,  -5336,  -6530,   7971,   2961,   3027,   1101,   4303,   2643,   3153,  -1223,   6135,    190,  -1989,   8018,   -750,   4101,   2700,   5607,   1382,  -6772,  -3980,  -7785,   2481,  -1157,  -5746,  -4965,   1270,   4742,   4701,   5468,   5847,   4063,  -4556,  -3245,   4786,  -3435,   2042,   -491,  -4343,    270,  -5996,  -4901,   5658,   2784,   5955,   4197,  -9626,  -4543,    485,  -2683,  -6740,  -2135,   2774,  -3348,  -4683,  -8905,   6612,   2199,  -2419,   3229,   6598,   5708,   4544,   -812,   -753,  -2107,  -1677,    497,  -6695,  -6516,  -5174,   3875,   2673,  -3358,   4419,  -5166,   -612,   1201,    780,   4633,  -2831,  -5361,  -4977,   5171,   3566,   6366,   5596,    222,  -4098,   5287,   -700,  -2359,    188,   7067,  -8629,   2122,  -6435,  -2673,   3021,   3831,   1808,  -7870,   -352,  -5966,  -6883,   1952,  -4896,   5185,  -1135,   7289,  -4920,   2998,   6044,  -1997,   4076,    290,  -1620,   4599,  -4276,   1802,  -7825,   3329,  -5593,  -3736,  -2667,    610,  -1852,   3814,  -7461,  -9639,  -4625,   7749, -10830,   1735, -10101,  -4449,  -5607,   -536,  -1704,  -2914,  -7378,   3857,   -527,    541,   -611,  -7616,   6836,   1467,   1296,  -2046,  -1705,   2586,   1486,   1477,  -3727,  -7329,   3293,  -1858,  -4451,   2734,   3215,   1816,    600,  -4268,  -6777,   4803,   3263,  -1871,  -6766,   -352,  -6138,   3778,   5193,   7303,   -908,   1626,   1588,  -6598,   2638,  -5490,  -2044,  -1441,  -6252,   2718,   -580,   6516,   5042,   4812,  -5666,   6540,  -2561,   5825,   2729,  -6555,   7553,   5489,  -2872,   2227,  -8613,   5729,  -3417,  -4645,  -4922,   7460,  14044,   5715,   6317,  -5720,  -2861,   3217,   2701,   -863,   1999,   3342,  -7890,  -4866,   1716,   1307,   1423,   1844,   1571,  -3878,   3449,  -7409,   3423,  -2894,   7445,   5265,   1779,   -503,  -1473,  -8790,   1992,
