#include "birdnet_coefficient.hpp"
using namespace dl;

namespace birdnet_coefficient
{
    const static __attribute__((aligned(16))) int16_t statefulpartitionedcall_sequential_conv2d_biasadd_filter_element[] = {
          5405,   6509,   9256,    880,  -2788,  -7252,   5119,   9045,  -7345,   5485, -15684,  -4280,   9351,   7818, -17905,  -5811,   6289,  -1714,  -7121,  -4799,  -4371,  14947,   -136, -10921,  -2029,   3977,  11585,  -6709, -11712,    237,   3331,  -2455,   1202,  -7502,  -3077,   3541,  -5355,  -6354, -12424,    -59,   1837,  12040,  -1986,   6548,  10240,   1935,   7617,  -5744,  -1990,  -1740,  -1583,  -8582, -11837, -14733,   9197,   -648,   1386,   4204,  -5733,   3191,  -3444,  -6051, -15063,  -1437,   7287,  10868,   -561,   8240,  10131,   2216,  10192,   4380,   9026,  -3687,  10589,  -6553,  -9783, -12619,   8530,   7732,   3180,  -8251,  -7717,  -6428,   6798,   7893,  -1341,  -4832,  -7014,  -2464,  -5243,  -5918,   3405,   2139,   -305,   3946,   3782,   -629,  10710,    420,  -3242,  -2668,   2737,   1460,    613,  -9954,   4670,  -8180,   5134,   1327, -11903,  -5138,   6693,   3391,    255,  -7763,   5441,  15253,   8834,   2224,  11335,   8598,   8165,   2031,   7424, -12677,   9774, -15239,  -5002,   4988,  -2019,  -3860,   2617,  -3104,  -8456,  10835,  -6917,   3330,   8146,  -6578,   1171,  10595,    361,  -8192,  10052,  -2664,  -5430,  -9925,  -6181, -13025,  14668,    380,   5792,  -2398,    519,   7163,   5400,  -4718,  -5240,    372,   4920,  -6115,   8864, -10016,    929,  12088,   8246,  -3521,   3211,   2086,   1799,    900,   7821,   2151,  13096, -11783,  -4706,   1303,  -7687,  -6057,   2057,   4725, -18291,  11141,   5441,   2338,  -7806,   1925,  -9490,   4247,   8555,    -31,  -7939,  -2554,   3437,  -4832,  -4950,   3984,   8088,  -7847,   8678, -12633,  -2115,   1723,  10664,  -5495, -12511,  15150,    985,   3186,   6757,   9344,  -5477,    951,    236,    692,  -3137,    991,  -8416,  -5457,   3803,  -9937,   6620,    -73,  -2479,   2928,  -8849,  -6045,   6854,  -2686, -13266,   8925,  -6949, -10429,   3044,  -9907,   4819,   6690,  -5518,  -7869};

    const static Filter<int16_t> statefulpartitionedcall_sequential_conv2d_biasadd_filter(statefulpartitionedcall_sequential_conv2d_biasadd_filter_element, -16, {5, 3, 1, 16}, {1, 1});
    const Filter<int16_t> *get_statefulpartitionedcall_sequential_conv2d_biasadd_filter()
    {
    	return &statefulpartitionedcall_sequential_conv2d_biasadd_filter;
    }

    const static __attribute__((aligned(16))) int16_t statefulpartitionedcall_sequential_conv2d_biasadd_bias_element[] = {
         -2007,  -2883,   1079,   -455,   1212,   -772,   -212,    942,  -3270,   1346,    944,      0,  -2266,   1134,   -279,   1765};

    const static Bias<int16_t> statefulpartitionedcall_sequential_conv2d_biasadd_bias(statefulpartitionedcall_sequential_conv2d_biasadd_bias_element, -15, {16,});
    const Bias<int16_t> *get_statefulpartitionedcall_sequential_conv2d_biasadd_bias()
    {
    	return &statefulpartitionedcall_sequential_conv2d_biasadd_bias;
    }

    const static Activation<int16_t> statefulpartitionedcall_sequential_conv2d_biasadd_activation(ReLU);
    const Activation<int16_t> *get_statefulpartitionedcall_sequential_conv2d_biasadd_activation()
    {
    	return &statefulpartitionedcall_sequential_conv2d_biasadd_activation;
    }

    const static __attribute__((aligned(16))) int16_t statefulpartitionedcall_sequential_conv2d_1_biasadd_filter_element[] = {
           -49,    524,    637,   4400,  -5101,   -578,  -3463,  -4528,   -231,   6375,  -2879,  12936,  -3902,   2002,    398,    917,  -3136,   1438,   5601,   7209,   -130,   4340,   2158,   3989,   2249,   -857,     15,   -340,   4163,  -4150,  -3521,  -4276,  -2617,   2507,  -2791,  -1583,   3618,  -5699,  -4460,  -2082,   3528,  -4615,  -5924,  -3674,   7063,   2731,  -1720,   7976,  -6568,   -851,   5989,   2036,   1533,  -2139,   1976,   3182,   2248,   2862,   3468,  -1051,  -4451,   2704,   4557,   1986,   -805,   -811,   3335,    369,   2501,  -3677,    694,  -3516,  -1502,   2248,   2671,   5457,   2183,   3692,    212,   2160,   3410,   5676,   2528,   1073,  -3016,   1092,   2436,   4055,   2224,    770,  -2477,   2603,  -3127,   2983,  -2556,    974,   3757,   1399,   1748,   -362,   2201,   1987,    198,  -3937,   1444,  -1773,  -2015,  -3782,   2858,   2638,  -5506,   4786,   2178,   -120,  -1884,   6420,  -6313,  -2017,   2345,  -1711,  10373,  -5135,  -3401, -13342,  11208,   3237,  -7207,  -2939,    843,  -5025,  -3589,   3500,   3419,   -948,  -4332,  -2107,     86,  -5594,   -164,  -5304,    664,    167,    679,   -399,   7341,  -5875,   3357,  -3163,   3487,   2296,  -5430,  -3519,  -3891,   2618,   -960,   2225,  -4485,  -3181,    108,   4479,   4153,  -1126,   1539,   4230,  -1662,    490,  -1999,   8147,  -2354,    -69,   -107,   4083,  -7508,  -1572,   5706,  -1147,   6833,  -3456,     91,    955,   3937,  -3622,    -25,   2007,    448,   1968,  -2440,  -5358,    -57,   3283,   1230,   4446,  -1939,    406,   1882,   5491,    846,   1443,   -381,  -1916,   1215,  -3328,    656,    725,  -1172,   1945,   1482,    772,   5503,   1008,   2758,    694,  -4302,   -876,    266,  -3932,   1461,   3094,  -2283,   -661,  -3259,    612,   3013,   1353,   4341,   2795,  -4151,    538,    458,   1386,  -3104,   2861,   4062,   1425,  -1070,   5709,  -8337,   4969,    511,   5728,   4762,    656,  -4438,  -4324,    231,   -413,    719,   4198,  -7671,   7846,   -382,  11549,   1926,  -5797,   2823,  11793,  -1849,  -1568,    292,  -1603,  -4009,  -1356,   4061,  -3153,  -2415,   4105,   6336,   2470,   4260,  -2814,  -3463,   -387,  -6351,   1985,   1606,    741,   3188,    151,  -1931,  -1378,   -917,    739,   2398,   -185,    229,   2999,   3274,   3977,   1121,  -1613,   1249,  -3298,  -1308,   6026,  -1948,  -1218,  -3113,  -4953,  -1367,  -3702,   8223,   2469,   -801,  -1787,  -7031,   5244,  -1226,   5069,   3169,  -1337,  -2886,   3975,  -3332,   6851,   2419,   4643,   -517,   3234,   3240,   7408,  -1642,  -1711,  -1118,  -1651,  -4111,  -3864,  -3408,  -3510,   2841,   4778,   -814,   3814,  -4746,    389,   3499,  -4647,   1128,   2055,   4559,   2605,  -4317,  -1997,    784,   1077,  -3451,    833,  -2983,  -3692,   3946,  -4287,  -3092,  -1192,   4273,  -6236,  -1356,  -4283,   2422,  -3555,   3778,   -307,   2363,  -3342,   5963,   4079,   6394,   6175,  -2565,   -453,  -4893,   6999,     27,   -820,   2704,   2639,  -2405,    989,   4400,   1965,  -4210,  -7365,  -8946,   -751,   3547,   3969,    371,   3101,  -3703,   -424,   3265,   1774,  -2804,  -3729,   1702,   1522,  -3122,   8969,   1700,  -4672,   6421,  -1564,   2520,   2111,   6960,   5247,   1481,   4533,   3348,   4718,  -2523,  -1375,  -4456,  -2995,   4368,   4574,   -901,    544,  -2722,  -1002,  -8982,  -1896,   6809,  -1555,  -5008,  -3126,   -187,   -754,  -3697,  -3147,  13599,   6172,  -4932,   2884,    253,    686,    111,   7322,   2333,  -1151,   -498,   8047,  -2234,   4590,   3781,    526,  -2418,  -2984,   2607,   3077,  -3833,  -2181,    262,   3412,   3605,  -2299,   2716,   3513,   2827,   4974,  -3431,   5392,   1987,   3060,   1591,  -2700,  -2036,   2262,   3176,   5567,  -1336,  -1047,   2968,  -1687,  -1113,  -2880,   1959,   -593,  -2160,  -3640,   2022,  -3147,   -745,  -4995,   5041,  -1195,  -3958,  -2064,   3656,  -6909,   3112,   3797,  -5921,   3724,   5413,  -2848,  -4969,   4965,   5343,  -2420,  -1277,   2890,  -3861,   2352,  -2318,   5088,   4554,  -8000,   2327, -13049,   9159,  -3362,  -7345,   4811,
         -3221,   -816,   1245,  -5576,  -5314,  -2802,  -1566,  -6091,   -352,  -1469,   3503,  -4881,  -3241,   2718,    358,   -137,  -2578,  -2532,   -816,   -539,   5095,  -1625,  -5673,  -4764,  -3869,   3752,   2336,  -1806,   1488,  -3942,   2757,    525,  -2750,   -255,  -7020,   8675,  -8335,   1165,   6809,   2692,   3052,    360,   1125,   1215, -10343,    860,   7650,   3594,   3117,  -2262,   3008,   2824,  -1141,   4279,  -4115,   1912,  -3930,   1085,    892,  -7111,   4721,   4553,  -5139,  -3713,   4141,    436,  -2328,   2622,   -617,    -52,  -2668,  -2772,    291,  -1148,  -4485,  -1747,   -356,   3379,  -4075,   2179,  -2256,  -3097,   3134,  -1454,  -5862,   4417,   4435,   1427,  -1563,   -910,   2729,  -4021,   2696,  -1104,  -1545,   3690,   5069,  -3290,  -3878,  -3858,   4903,  -2947,    152,  -4073,  -3045,    569,     74,   1794,  -3960,    937,    809,   6311,  -1371,  -2629,   3442,  -6710,  -1563,  -2126,  -1787,   1392,    683,   4917,  -2242,   9577,  11214,     99,    757,   7359,   3895,  -1906,  -2119,  -3908,   3101,   2475,   3223,   2244,   2023,   4452,   6323,  -1211,  11346,     52,   3385,     84,   4019,   2525,  -1818,   2915,   3915,  -4850,  -5703,    500,    545,    476,   3543,  -1621,   2244,    243,   1280,    589,   2547,   1747,   2833,  -3446,  -7973,   5643,   2692,    381,  -3570,  -2109,   4829,   -653,   5208,   7713,  -4674,   3526,   9637,   8587,     -1,   7351,   7821,  -3163,  -6607,   8653,   -408,   1259,  -3210,   2524,   5464,  -3283,  -4229,   2253,    -74,     95,  -4564,    369,  -1525,  -5302,   -856,   2707,    464,   -742,   -999,   3896,   2113,   3144,   1807,   1004,   -799,    611,  -1170,  -2127,  -3895,   2546,  -2915,    591,   2604,   3142,  -3586,   2339,   2460,   3935,  -2282,   2956,   1016,  -5229,   -694,   2862,  -2348,   -917,  -2182,  -1070,   1255,  -4070,    338,   3410,  -1790,   5594,   1181,   1979,   3082,   3678,  -2220,   4846,   5671,  -5231,   2196,   5613,   5707,  -2450,   4865,  -8073,  -7599,  -5437,   5818,   4771,   2987,   -130,   2220,   5527,   3036,   1288,   3214,  -2010,   1017,   3950,  -2334,   -648,   -433,  -1456,   1960,  -2716,  -4289,  -2112,   2165,   7031,   2672,   2672,    -79,   6455,   -584,   4439,  -2854,  -2994,  -2965,   1616,   4039,   1358,  -3406,  -4231,    241,  -5639,   5823,   1550,  -6664,   2737,   1352,  -2756,  -3367,   -434,  12115,   -673,   -818,   7790,   4416,  -3492,   -703,   7846,   5579,   1034,   3241,   1303,   4358,  -2485,   4514,   -693,    721,   3318,  -3610,   -103,  -2575,  -4667,   1569,  -2330,  -2545,  -3227,   2661,   2087,   2008,  -1037,   -722,  -2052,  -2780,  -2548,   -689,  -4097,   3847,   3617,   3581,  -1983,   2220,  -4725,   1292,   3277,    142,  -1442,   -582,   -641,  -1670,  -3995,  -1284,  -3270,   1427,   1427,   4497,  -2738,  -3100,   1794,   -692,  -5103,    765,   4481,  -7180,  -1494,   3994,    658,  -6043,   8525,  -2871,  -1730,   -542,   6644,  -3099,   1371,    560,   -489,  -7982,  -2807,  -2878, -16667,   9460,   -542,  -4422,  -5808,   4455,   1533,  -3541,   1967,   -975,   1983,  -3783,  -2378,   2559,  -1158,   3787,  -3924,  -7143,  -3058,    977,  -1417,  -5702,   3745,   -485,  -1335,   2743,   2880,    494,   -939,    165,  -3305,  -4473,    659,  -1537,  -1928,   4492,  -3659,  -1823,  -2587,  -3978,   3331,  -1797,  -2306,   4600,   2757,    396,    929,  -1828,   3659,  -3563,  -2525,   6680,   6076,  -1905,     22,   6921,  -5476,  -4417,  -2149,   1714,  -2095,    918,   1238,    917,    761,    124,  -1821,   -568,  -2957,  -3603,    345,   5027,  -2801,   4320,   -749,   -242,  -2033,    593,   4080,   2413,   -881,   3675,   3102,  -1019,   4253,    241,  -1764,   4078,  -6244,  -4583,   4261,   -906,  -1792,  -1809,   4654,    542,   -244,  -2765,   1893,   -946,   -119,   -787,   2058,  -3785,   5537,  -2999,  -2295,  -3814,  -3564,  -3623,   -946,   -510,   -860,  -7740,  -2354,   9542,   4880,  -5881,  -6495,   5513,  -7188,   2054,   2917,  -2970,  -3701,   2342,  -2279,  -4892,  13339,   5562,  -1684,   -456,  10248,
          3233,   4599,  -2313,  -2380,  -1577,   -655,   3950,  -5247,   2287,   4941,   3943,   7786,   7602,   1048,  -2454,   2025,  -2416,   6087,    317,   3213,   -826,  -1878,  -6128,   5909,  -4126,  -3612,  -3867,   1702,    692,   1579,  -3909,   1288,   1146,    274,  -2452,    175,  -2042,    796,   2363,  -2240,  -3298,  -4344,   6719,   3226,  -2714,   3732,   2303,  -1606,   4824,   7042,  -3181,   5616,  11843,    857,   -267,   3394,  -2205,   4616,   2284,    510,   6981,   2832,    950,    831,   -579,  -1970,   1679,   2530,   4219,  -2568,  -2056,  -5912,   3493,   2636,   -713,  -3509,  -2053,    -84,   -404,   4609,  -3820,    801,   2067,  -1588,    117,   3650,  -1481,   3539,  -1439,   2129,   -265,   2896,  -4210,  -2569,  -3826,   1012,  -2216,  -1731,   1891,  -2799,  -4617,   2586,  -1794,  -1822,  -3359,  -3122,   4343,  -2914,   2386,   4439,   3926,  -2873,   5582,   4009,   -225,   -256,   7702,   -674,   2051,   5280,  -7592,    750,   2353,  -9087,  -7372,   -802,    842,    489,  -1834,   3584,   -690,   3063,   3506,   -895,  -2143,   1325,   7599,   3811,  -4929,  10135,   3927,  -5679,  -3933,   2264,  -1388,  -2999,   5581,   4218,  -2398,   3798,   2410,   6322,   2470,   1357,   3843,  -3297,   4119,   2134,    536,  -3826,   2847,  -1181,  -4580,   2113,  -7601,  -1026,  -3937,  -2059,   9640,   2885,  -8489,   5125,  -2678,  -2018,   -413,     36,   7336,   1656,   4129,   7527,   4622,   -536,  -2390,   5862,  -1597,   4115,    858,   3061,   2053,    799,    630,   2145,   2067,    672,  -2373,  -2037,   3147,    539,   -951,   4940,  -5383,  -3093,   1002,   -280,   1666,   1715,   1595,   2803,   -795,  -2235,    518,   3940,    904,  -3197,     50,  -3921,    845,  -3285,    337,  -4440,  -4407,  -3459,   -525,   3940,   1638,  -3210,   2505,  -2881,  -1370,  -4490,   3899,  -5331,   4876,   3195,  -4706,    836,    -71,  -2847,  -3589,  -3786,  -1277,  -3620,   7052,   8849,   3557,  -5152,    783,   1710,   4107,  -3848,  -7830, -12951,  -5672,    897,   2428,   1699,   2722,  -4641,   -560,   2293,   4006,   3597,  -3522,   2571,   6530,    667,    751,   3542,   4771,    599,  -1231,   3482,   -225,  -1061,   2132,  -1455,   2424,   3449,   -784,  -6080,   4446,   -438,   -794,    434,    909,   3442,   -370,   3892,   1586,  -1832,  -3201,    989,     51,  -6725,  -1364,   3666,   3086,  -3233,  -1999,   3176,  -2789,   1921,   3731,   9086,   7753,    553,   4769,  -3494,   -221,   1660,  -2180,   4824,    823,  -4570,   -926,  -3311,   1942,   1202,    172,  -5208,   -390,   2531,  -5014,  -2216,   5382,    186,  -3304,    161,   3317,  -1808,   2381,  -3874,   4578,  -4317,  -3797,   2066,   1453,  -5298,   1629,   1731,  -3734,   1481,  -1662,   2224,   1207,  -3052,   2548,  -1822,  -1369,    695,  -3114,   -261,   6835,  -3470,  -4930,   1624,  -1570,  -5103,   3799,    186,   1549,  -1536,    580,   4236,  -1055,   1844,  -2933,   5494,  -3382,  -1758,    -86,  -6967,   3400,   4923,    648,  -2193,  10744,  -2332,  -1434,  11489,    713,  -6113,  -1956,   8577,  -3174,  -1558,  -2282,  -2888,    -56,  -1092,  -3003,  -4279,   -766,   4282,  -1002,   -929,   2245,   6084,   3565,  -1088,    432,   2344,  -5875,   2154,  -2337,   2271,  -5138,  -1146,   -693,    986,  -3602,   2887,  -4474,  -3711,   2014,   3991,  -8576,   3271,   7513,  -1771,  -1476,    667,  -2464,   3126,  -7925,   3495,   3372,  -3595,  -2751,  10288,   3762,   -335,  11066,   5199,  -7299,   5643,   -489,  -3389,  -2219,  -2905,    777,  -3373,  -1757,  -1830,   3690,     43,   -399,  -2773,   1966,    661,    929,   -491,   1213,   2628,  -3755,   3424,   -924,  -1906,  -5209,   2059,    956,   -860,   2490,    861,  -4643,  -3686,   4656,   4133,  -2700,   1175,  -1470,   -752,   3622,   2704,    552,  -3101,  -1367,  -1002,  -2188,   -325,  -2852,  -3564,  -1827,    270,   -829,   -883,   3564,   2619,  -7541,  -3503,   7260,  -7416,  -6382,   9230,   2124,   -769,   1802,   -541,  -4816,   1789,  -2554,  -1953,   1985,  -3783,   4941,   -284,    530,   -177,      6,  -7326,  -1678,   8428,
         -1908,  -5001,   3685,   5596,   -888,  -3043,  -3470,   -803,   3264,  -3147,  -4184,   9281,   8516,   2247,   1514,   5001,   1158,  -5747,   9453,   2139,   4192,  -2235,   3918,   5844,  -1976,  -4564,  -2222,   1781,  -3656,  -4449,  -4358,  -3026,   4418,   -753,  -6710,  -1210,  -4342,  -1521,  -4185,  -3087,   3092,   1683,  -9123,  -2205,  -1974,  -6857,   2877,    419,   1077,  -3722,   6647,   8966,   4059,  -2116,  -5053,   9840,   4337,   1926,   3340,   6461,  -1992,  -1135,   6305,   3129,  -2485,   2828,   3763,   5188,    -45,   -259,   2721,  -2719,  -2589,    288,   -247,   -638,   2085,   2167,   5017,    442,   1114,   -354,  -1217,   5576,   5317,    120,  -4006,   4248,   4289,  -1145,  -2737,   -462,    671,   3625,    354,  -4422,   1354,  -1117,  -3738,  -2236,  -2777,   1905,   3380,   1051,    701,   3530,  -4574,   4011,  -4037,  -3640,  -3424,  -1017,   1566,    258,   1846,   4692,   5709,   2771,  -2010,   6546,   3347,    344,  -3618, -12093,  -2899,   -563,  -3947,  -4960,   -520,  -5669,   1701,   -408,   2942,   3746,   -570,   3820,   3771,  -3999,    267,   -297,   4597,   4619,   3222,   2796,  -7487,   1935,   1114,   -268,   -160,   4018,   1084,  -7090,  -1901,   4359,  -3705,  -4420,  -1810,   4539,     -4,   1096,   3750,  -5594,   3347,   1609,    252,  -3127,   3420,   2652,  -2620,    840,    768,   2776,   3019,   3956,  -3123,   4324,   -639,  -5771,   1258,  -4052,  -2294,   2069,    869,   1382,  -3033,   1060,  -1614,  -5074,  -5661,   2305,   3747,    352,   -929,  -3709,  -1788,  -3097,  -2321,    380,   -337,   4593,  -3820,   1340,    131,   4256,   1240,  -4218,   4742,   -569,  -1683,   1811,  -3194,  -2983,   1650,  -2701,    904,  -3872,   1396,  -1462,  -3318,   2661,   4462,  -4653,   3835,   4203,   -904,  -2699,  -2826,  -3325,  -1960,  -4729,   -528,  -1071,   2765,   2280,   1302,  -1956,   1968,  -2904,    336,   4472,  -5600,  -2128,   3648,   -367,  -2631,  -2602,   3255,   -463,   4733,  -2293,  -4781,  11768,   3921,  -8216,  -2318,   8794,   3461,  -1376,  -1508,   1897,  -2485,  -1464,  -1511,  -3173,   -606,  -2706,    594,  -5837,   -569,    332,   3521,   1638,   1208,    959,  -3846,  -1314,   -739,   1139,   1886,  -1534,   1861,  -3730,   2637,  -3806,     30,  -1104,  -2539,   1294,   -276,  -4006,   5545,  -4376,    121,   2739,   4456,   1211,  -2293,    199,   8020,  -2487,  -5978,   6507,   1243,    854,   5457,  -1500,   -441,   3465,   3111,   -940,   4566,  -5867,   1772,  -1314,  -4419,  -1499,  -4608,   2837,   2644,  -2736,   3911,  -1702,  -4441,   1940,   4799,  -1004,   -880,   4806,   1860,  -4280,    684,   3248,  -2904,  -1822,    570,  -3256,   1542,   -629,  -3215,   4640,   3807,   1520,   -951,    400,   1012,   3023,   -103,  -1351,  -3926,   4101,   1453,   -891,  -2825,  -2017,  -1172,   2717,   -397,   1831,  -4653,  -1595,  -5607,  -5517,   7094,  -3034,  -4928,   8630,   7952,   -440,   5666,   3228,  -1306,   -698,  -2833,   -644,   2359,  -3754,   2052,  -5221,   2216,   1947,   3101,   2776,    435,   7156,   4357,   2828,  -1937,   4243,   1504,    460,  -4078,  -1807,  12075,   2050,  -3715,  -2153,    734,  -4578,    630,    363,   5513,  -1236,   6772,   4295,    -22,  -2781,   5865,   5062,   1416,  -1724,   1703,   2025,    645,   3367,   4523,   3305,  -3072,    584,  -4102,  -6258, -10143,  -2642,  -3973,  -2588,   2734,   1037,  -6845,  -2909,  -5797,  -4013,  -4048,   5304,  14911,   3208,  -1112,   2483,   2815,   2923,  -2653,   3656,   7133,  -4025,   2402,  -1180,   2924,   1538,   3631,  -1581,   -806,  -1969,     21,  -2624,  -1534,  -2652,  -4293,   4370,  -2647,     65,   1230,   1166,  -4294,   1501,   4487,   4195,   2067,    938,   3991,  -3666,   2794,  -3098,  -3001,   4866,  -2086,   4612,   -328,  -1117,  -4054,   -501,   4451,    572,   2337,  -1233,   5290,  -4961,    865,   -582,  -4582,  -1327,   2167,  -2087,  -3128,   4902,  -4169,   1293,    131,   2573,   7903,  -3669,   2771,  -1217,   4234,  -1395,   -531,   4076,  -1832,   1213,  -4287,  -7278,  -9735,    189,   1314,    273,
         -1304,   1807,   3707,  -4687,  -4636,  -3363,  -1690,  -2559,    325,  -4464,   3772,  -2567,  -4988,   5187,   3724,  -1499,  -5958,   3878,   5540,  -2561,  -2122,  -3790,  -3437,  -5479,   1476,  -2147,   -813,  -3729,    419,  -3084,  -1976,   1068,    401,  -4035,  -1327,   4210,   7830,    755,   -776,   7941,   2309,   1944,  -2036,  -3523,   3203,   2593,    742,   3762,  -8598,  -3470,   6519,  -6929,  -1960,   5154,   4374,  -1586,  -6196,   1616,   4920,  -5529,  -3892,   3864,  -2166,   -277,    102,  -3587,  -2386,   3181,  -4162,  -1518,  -4525,  -4420,  -4471,  -3443,   -449,   1825,   1692,   -230,   4152,  -2735,  -4504,    727,     79,  -1128,  -2622,  -1504,   -351,   1465,   4240,  -4535,   -616,  -1384,   -670,  -3852,    920,   2851,   2738,   2648,   1647,    246,  -3259,  -2565,  -2902,     26,    336,  -3977,   2974,   6275,   2374,   2318,   4671,   7868,  -3413,  -1708,   -119,  -6256,  -5772,   2767,  -2072,   -467,   7140,  -2614,  -1776,   2920,   5258,  -9736,  -3324,    367,  -3972,   -358,  -2430,  -4424,   3593,   -130,  -3447,  -2395,    875,  -2790,  -2080,  -5592,   3895,   4811,   3977,   2084,   6767,   2249,  -5798,   2087,   1114,   -795,  -2899,  -4380,   3487,   3376,   2903,   1978,   4361,   3507,    816,  -2662,  -9627,  -1765,  -1591,  -3526,  -3529,   1353,   4454,   2872,  -1191,  -1045,   3805,  -4912,  -8020,  12109,   7446,  -4542,   2654,   -789,   1619,  -4189,   5290,   4298,  -5566,  -6557,   5446,   3321,  -1335,   4585,  -2613,  -4337,  -1243,  -3615,   1834,   3084,   3210,   5900,  -1616,  -3371,   -319,   1620,    356,  -3776,   1440,  -3470,   4415,  -3215,   2956,  -3915,   3389,  -4870,    419,   -406,  -1922,   2425,    965,  -3189,   2905,   3455,  -1864,   -537,   2945,   -611,  -4514,   1510,    713,   1506,   1109,  -1918,    830,  -1383,  -2520,    334,  -2628,   -869,   8011,   1777,    776,   6728,   8140,  -3385,   5970,    156,   1965,   1648,   2029,   3223,  -3790,  -2367,  -5089,    462,   6227,  -2762,   2650,  -5369,   1870,   2301};

    const static Filter<int16_t> statefulpartitionedcall_sequential_conv2d_1_biasadd_filter(statefulpartitionedcall_sequential_conv2d_1_biasadd_filter_element, -15, {3, 3, 16, 16}, {1, 1});
    const Filter<int16_t> *get_statefulpartitionedcall_sequential_conv2d_1_biasadd_filter()
    {
    	return &statefulpartitionedcall_sequential_conv2d_1_biasadd_filter;
    }

    const static __attribute__((aligned(16))) int16_t statefulpartitionedcall_sequential_conv2d_1_biasadd_bias_element[] = {
          -387,    517,    489,     39,   -206,    964,    702,     74,  -1178,   -524,   1191,   -698,    974,     61,    318,   -658};

    const static Bias<int16_t> statefulpartitionedcall_sequential_conv2d_1_biasadd_bias(statefulpartitionedcall_sequential_conv2d_1_biasadd_bias_element, -14, {16,});
    const Bias<int16_t> *get_statefulpartitionedcall_sequential_conv2d_1_biasadd_bias()
    {
    	return &statefulpartitionedcall_sequential_conv2d_1_biasadd_bias;
    }

    const static Activation<int16_t> statefulpartitionedcall_sequential_conv2d_1_biasadd_activation(ReLU);
    const Activation<int16_t> *get_statefulpartitionedcall_sequential_conv2d_1_biasadd_activation()
    {
    	return &statefulpartitionedcall_sequential_conv2d_1_biasadd_activation;
    }

    const static __attribute__((aligned(16))) int16_t statefulpartitionedcall_sequential_conv2d_2_biasadd_filter_element[] = {
         -6624,   1953,  -3967,  -5249,  -1814,  14904,   3821,    823,  15143,   7769,   9517,  15241,  -1656,  -1700,  -9549,  -3036,  -6130,  -1758,  -1717, -14174,   8623,  -4975,  -2811,  -1102,   1793,   3875,   8709,   3515,   -579,  -8986, -12681,  16045,  -2796,   8278,  10839,  15126,  13426,   9108, -10515,    -86,  -7072,  -8287,   4753,   4260,  12278, -11423,  -2176,   3486,  12894,  -1160, -10168,   9161,  -2894,  10499, -17721,   5744,   2357,   9140,   8993,  10691,  12649, -11518, -10004,   -952,  11523,   8886,   1837,   1050,  13875,  -6057,    -77,   7057,  -9872,    -94,  -6927,  -5614,   3656,   1853, -11104,  10463,  -4043, -14172,   1346,   1055,   1329,  13891,    502,  10015,  -2402,  10125,  -7482,   6876,  12515,  -9150,  -6964,     59,  15165,  11114,  -9563,  -6488,    867,   1437,  -7654,     81,  -2642,  -1090,   3516,  -2244,   7829,  -2176,   9498,   9628,   3913,   -227,  -5752,   4333,  -4480,   2292, -11239,   8072,   9608,  10235,   9927,   3525,    569,  11376,  -7755,   1516,    756,   1203,  -4105,   9389,    -56,   2267,   5576,  -4357,   2197,   8026,   4762,   -372, -10062, -11835,   1145, -11487,  -2835,  12345,  -1974,   -957,  15368,   -507,  -1335,   4943,   2005,  15134, -11551,   3936,  -4514,  16171,   5034,  -5873,   -647,   5066,   3128,   7483, -12980,   4885,  -8603,   6829,   5334,  11118,  -8868,  -7745,   8284,  -7383,  -2862,   7137,   6876,   5550,   7445,  15424,  14337,   2196,   9111,   8936,   -755,   4674,  -8987,  10913,    537,  11321,  -1862,   1693,  -7672,   9459,  -9655,   -807, -10475,  15620,  -6808,  -9508,    -12,   8584,  -1275,  -5267,   8986,   2862,  -8368,  13806,  -4294,   -873,  -6812,   5986,   7939,  -8691,  -4371,  12137,  -2125,   5669,   -173,  12629,  -5674,   6371,   -920,    541,  -7739,  -7183,  -2852,  -9790,  10452,  -7142,   5776,   4595,  13702,  16014,   5547,  11694,   8011,   2723,    412,  -2710,   6007,  13878, -13506,   9934,  12155,   2802, -10658,  -4238,   2481,   5515,   6671,  15636,  10803,  -1610,  -5809,  -8724, -10562,   2730,  -6076,  -4886,   8845,   4611, -11149,  -4537,   -458,  -1939,  -7527,   4914, -12193,  -4186,   2427, -11122,  -6073,   2988,  -7113,  -2588,  -5763,   7110,   1652,    150,   2979,  -4315, -12028,   5826, -15836,   8884, -12099,  -6526,  -6379,  10702,   2569,  15085,   2906, -13606,   2531,  -4149,   5960,   7868, -10385,  -2534,  -3444,    816,   8926,   1725,  -8901,   3745,  -1118,  -1333,  -8130,   7245,  -3720,  -2636,  -1844,   1563,  -3260,   9586,  -4333,  14990,  -6308, -11270,  -5275,   6284, -19350,  -6431,  -9462,   -173, -12378,   8618,   8700,  12600,  -1557,   8817,  -7491, -11078,  -1817,  -1730,  -4219,  -5893,   9532,  -9008,  -3518,  -5353,  13437,    388,  10912,  13698, -17198,  16038,   1514,  20372,   6925,   -723, -13001, -10167,  -5099, -12308,  -7325,  -7630,  -6502,  -4586,  -4109,   2034,   2261,   5562,   9689, -15694,   2414,  -6490,  -6808, -10002,    247,  13808,    523,  -5303,  -7174,  -9981,    709,  -1598,    852,   -518,  -2338,  13794,  -3116,   4529,   3195,  -6790,   8167,  -3388,  -6649,   7097,   -616,  -7339,   3021,   -877,   8804,  -1626,  -6845, -13221, -11267,  -7056,  -4150,   4803,   -516,   4407,   3109,  -4155,   4590,   2402,  13334,  -2515,   2670,   7265,  -6225, -16490, -14320,  15943,   2839,  -3686,   2202,   3526,  -1959,   7323,   7872,  -2528,   1423,   2110,   5117,   1936,   2555,   6844,   2614,   1434,  -5775,   1397,  -8854,   4839,  12255,  -6194,  -7880,  11599,   2452,   1016,  -3113,   8296,  10468,   5474, -14580,  -5623,   9647,  10759,   6027,  -4681,  -5295,   7320,   7904,  -1104,  -6184,   7126,  -1477,  -6976,   1329,  -2080,   6070,  -1179,  -9393,  -3086,  -9446,  -6122,   8353,  12524,   -665,   7185,  11890,   6378, -11135,  -3489,   9134, -13353,   1349,  -2662,   9269,  -6778,   3316,   4102,  -2337,  -1124,  -5228,   4992, -15295, -12902,   9058,  10770,   2701,   5314,  -8734,  -4318,  -9090,   5749,   1328,   4964,  10725,   5423, -12758,  -2626,   6119,  -9297,  -1668,   4915,  11202,    465,  -8629,   2644,
         -6032,  -3431,   -896,   5788,   5914,   5439,   7406,   5999, -12485,  -5372,   3348,  -4436,  -8227,  -2324,   3720,   2363,   4549,   9806,    428,  -7359,   2215,  -9978,    402,   9002,  -1354,  -5527,   6867, -13866,   -664,   6024,   1264,  -9330,  -2559, -14839,  -3347,   5570,   7278,   2737,   3586,   5236,   4774,  11369,   9414,   5221,  -7750, -12210,  -7382, -10052,   5960,   1358,   6205,   4606,  -6345, -10231,   1567,  -2064, -10628,   2825,  -9344,   2110, -12646,   4078,  -8389, -17727,   7731,  -1845,   9980,   8358,   3368,  17563,   2894,   5553,   3443,  -4356,  10563,   2485,  10446,   1034,   6232,  -5561,   4079,   4119,  10728,  -5386,   2412,     97,   1987,  -9504,   9075,  -4353,   9417,  -3421,   3196,   6342,   6355, -10348,  -5819,  -5529,  -6099, -10726,   3307,  12145,   7034,   4232,   5999,   -835,   3342,  -7429,   4128,   -765,   -407,   9963,  -4737,   3037,  -4159,   8689,  -3041,   -934,  -5100,    972,   8836,  15149,  13537,   -255,   2329,   1002,  -3430,  -4100,  -3282,   -383,   6215,  -9029,  -7835,  -1608,  -7731,   6221,  -8622, -11462, -14153,   1005,   -412, -15234,  -3113,  -7759,  -1108, -13267,  -2553,   -487,  -8981,  10789,  -1187,  11128,  -2662,  -5570,  -8587, -11242, -11629,   8522,  -6732,  -5949,   2495,    340, -16175, -11998,  -5964, -16590,   2559,   6761,   3574,  -2568,   1547,  -4163,  -2942,  -2224,   7491,  -5555,   5993,   1700,  10722,  -5382,   9754,  -7289,   6514,  -9347,  -1406,  -1948, -16587,   6740,   -121,  14140,   1398,  -9294,  -4224,   6423,  -8827,   6833,   5648,   4640,    -68, -10930,   1368,  -5584,   7491,  -2652,   3032,   2954,    -10,  -1211,  -4354,  -8063,  13937,   8735,   1553,  -9542,  -2273,  13341, -11539,   1614, -13737,  10318, -12560,   1341, -16047,  -5164, -13115,  -1765,   3501,  -7739,   7863,   2873,   2976,  -9071,   -549,  -2993,  13873,  11722,   -268,  -4575,  -9133,   3906,  -5218,  -1440,  14169,   2244,  -6929,  -6685,  -4527,  -9008,    890, -11519,   6751,  12409,   -752,   3669,  -7558,  -8477,  -6181, -10069,  -8077, -13563,  -6709,   3486,    719,  -4723,  -3990,   5998,  -6053,  -5959,  -3960,  -9182,  -6139,   8417,   3647,    328,   2227,   2712,  11289,  15842,   8955, -11307,   8955,  -5031,  -7849,  -3596,   4320,  -6123,  17428,   8683,  -8881,  11090,  23001,  -5901, -14557,  13830,    848, -10447, -12081,  -4338,   6289,  10785,  10110,  -5059,  12532,  -2780,   4949,  -4451,  -4251,  12268,   9012,  -5234,   8703,    250,   4335,   3132,  13018,  14692,   9953,   9304,   7635,  -1628,  13418,  -1415,  14424,    337,  -5476,  13444,  18943,   4932,  -8903,  -2376,   4795,  -7536,  -7655,  -7748,   1561,   1340,  -8759,   7203,  10353,  -5445,  17150,   2986,   5650, -11273,  -3950,  -4675,  -3992,  -5014,   1913,  -5201,  24813,  10500,   9562,   8520,    266, -11191,   3764, -10367,  12142,  12216,   4975,  -5599,      3,  -2650,   1717,  -1076,  13884,   1407,  -2401,   7134,   6669,   5733,  17399, -10354,   1103,  -6883,  -3298,   5461,    969,  10189,  -2418,  -8491,  18263,  11135,  -6515,   1083, -11244,  -4735,  -2954,  18399,   4614,  -8740,  -2215,  -4567,  -3510, -11291,   4978,   -633,  -7405,   -679,  -8079,   6598,   9621, -15366,   4511,   4969,   3560, -11432,  -1801,  11208,  11409,   -681, -10725,  19948,  -8524,  -2119, -11386,  -3758,  17660,    617,  13117,   -938,  12869,   1021,   6644,  11898,  -3994,   5549,  -4667,  -4218,  -1634,   8895,   3463,  12066,   7050,   6676, -10749,  -1470,   4209,   7177,  -6339,  -3123,   6791,  -3569,  -5607,  10003,  10897, -14088,   1066,  -3935,  15223,   2292,   8779,  13385,   2276, -11176,   -660,  -7796,    403,   4803,   1168,  -9931,   4574,  14391,   -960,  11451,   8304, -12015,   1493, -10033,   1321,   -736,  -2634,   2871,  19046, -10564,  -9257,  24308,  -5387,   1747,  10899,  -4244,  10102,  -9743,  -2347,  16811, -11982,    800,  13792,   7957,  -1031,   8888,    958,   5847,  10093,   7538,  -8611,   5356,   1169,   -237,  -6373,  -5179,   5557,    508,  11445,   -468,  23501,  -3301,  -6327,  18880,  -1634,   6220,
          3333,  -8610,    144,  -6964,   4426,  13381,   9633,   2181, -10173,  -7248, -15315,  -6215,  -9440,   7092,   3897,   5207,  -7887,   4729,    824,   8303,   -781,  -5050,  12820,  -2508,   1150, -13046, -11663, -11059,  -6239,   -540,   3761,  -3894,   6147,  -3888, -12031,  -6020,    214,    686,   9512,  -6853,  -7171,  -3999,   9441,   7932,  -2164,   4021,   9969,   7624, -15467,   4841,   9479,   2562,   4733,    222,  -6986,   1498,   2198,   6913,   5939,   1049,  -8782,  -4726,   8078,   2207,   2182,  -5579, -15882,   6250,  -3051,  12352,   -755,  -8143,   3842,   9873,  10545,  -3248, -10380,   -620,   4743,  -5967, -10485,  -4509,  13347,  -3855,  -1800,   7768,  10908,  10852,  -4238,   5824, -17594,  11018,  -5567,   4325,  -7575,  -9737, -12272,   6668,   9256,   -651,  -1451,  10199,  -9226,  -2420,   8553,  -6352,  14186,   5455,   7935, -12897,  -2828,  13194,  -2659,    147,  13729,  -9861,  10275, -14515,   9627,   5986,   1427,  -4810,  20008,   8003,  -4816,  10626,  10169,   1458};

    const static Filter<int16_t> statefulpartitionedcall_sequential_conv2d_2_biasadd_filter(statefulpartitionedcall_sequential_conv2d_2_biasadd_filter_element, -16, {3, 3, 16, 8}, {1, 1});
    const Filter<int16_t> *get_statefulpartitionedcall_sequential_conv2d_2_biasadd_filter()
    {
    	return &statefulpartitionedcall_sequential_conv2d_2_biasadd_filter;
    }

    const static __attribute__((aligned(16))) int16_t statefulpartitionedcall_sequential_conv2d_2_biasadd_bias_element[] = {
           102,     83,    218,   -183,    174,   -291,    211,    203};

    const static Bias<int16_t> statefulpartitionedcall_sequential_conv2d_2_biasadd_bias(statefulpartitionedcall_sequential_conv2d_2_biasadd_bias_element, -12, {8,});
    const Bias<int16_t> *get_statefulpartitionedcall_sequential_conv2d_2_biasadd_bias()
    {
    	return &statefulpartitionedcall_sequential_conv2d_2_biasadd_bias;
    }

    const static Activation<int16_t> statefulpartitionedcall_sequential_conv2d_2_biasadd_activation(ReLU);
    const Activation<int16_t> *get_statefulpartitionedcall_sequential_conv2d_2_biasadd_activation()
    {
    	return &statefulpartitionedcall_sequential_conv2d_2_biasadd_activation;
    }

    const static __attribute__((aligned(16))) int16_t fused_gemm_0_filter_element[] = {
         -4533,  -7733,  -5747,  12433,  -7876,   -220,   3533,   3295,    883,  -1643,  -4204,   4286,   3024,   7221,   4934,  -7214,  -5030,   3676,   5544,   6165,   2744,  -6177,    868,   5258,   1365,   3905,  -2035,   2464,  -1277,   9156,  -5859,   3166,   9214,   3537,   4221,   4714,   7781,  -5745,  -6699,   2621,  -2815,   4713,  -4097,  -4689,   -546,  -4279,    626,  -5203,  -9538,  -5775,  -6907,  -3950,  -6864,  -4980,  -3231,   6605,  -5460,  -1220,   7520,   4519,  -2475,  -1117,   6206,  -4462,  -3702,    782,   1527,   4584,  -1988,  -5432,  -4222,   3355,   7372,   6011,   1041,   9012,  -2651,   5152,   -909,  -8011,   1338,   4396,  -3727,   1299,   8157,  -6978,   1398,   6263,  -2462,  -5432,  -3134,   6834,   4440,  -2548,  -1816,   2699,   -884,   6920,   3199,   3337,   1981,   6937,  -3257,  -7439,  11827,   6762,   3256,   5419,  -1345,  -4956,  -5884,   5165,   2336,  -4932,   3956,  -4054,   -856,  -2418,  -6161,   1287,    132,  -8688,  -4823,  -3670,   1102,   1145,    757,  -5966,   1324,   2369,   1823,  -1085,  -2007,  -2359,   2826,    637,  11036,  -5570,  -1940,  -2888,   -472,   -452,  -3081,  -4716,  -3963,  -2253,   4043,   2023,    299,  -5062,  -5905,  -4747,  -1501,  -4362,   4368,   -672,   5471,  -1781,  -2340,  -4363,   4605,   6102,   6011,   7622,  -9444,  -7509,   5547,   3715,  -4580,   2863,     85,  -2411,   5147,   4493,  -6057,   -624,    467,  -3542,   -170,   4497,   4849,   6642,  -1119,   4284,   9296,  -2292,   4773,  14910,  -7550,  -5838,  -4798,  -4431,  -7267,   2129,  -4472,    809,   7844,   2443,   3783,  -4151,  11926,   1214,   3886,   -997,    414,  -7626,  -6416,   5625,   4648,  -4175,  -1619,  -1120,  -1293,  -7064,   6901,  -7068,   4091,  -5053,   -562,  -2848,  -2531,  -6700,  -6393,  -8232,   7801,   1005,     91,  10521,   5228,    633,  -5162,   5496,  -4461,  -2421,   4924,   -599,   1386,  -6635,  -3031,    769,  -9190,  -8533,    653,  -2062,   3014,  -3414,  -7321,  -5192,      6,  -2344,   -985,   8384,   -328,  -5667,    847,   -717,   1252,  -8097,   6701,   7432,  -2772,   -389,   2583,  -6634,    381,  -2179,  -7509,  -1656,  -7152,   5982,   4006,  -6285,   3257,  -3438,  -1775,  -4411,  -4972,   1757,   6014,    845,   6513,  -4510,  -5642,   -203,  -2850,   5181,   -796,  -5184,  -2025,  -6152,  -6409,   5398,   1952,   4867,   5859,   5511,    197,   4654,    583,   -908,   3012,   1383,  -6576,   5367,    122,  -4630,  -2844,   -661,   -336,   4851,   -507,  -7111,  -1527,   1374,  -5175,  11233,  -2627,   -457,   5134,   2349,  -1697,   3155,  -3832,  -9016,  -2355,   4545,   6702,  -2729,   7583,   5161,   3147,  10497,   6812,   6394,  -4453,   2126,   1422,  -5348,  -6266,   7702,   3593,    514,   3506,   6835,   9088,   5270,  -5643,    417,   1584,   2095,   4951,  -4929,  11087,  -7063,   1979,   7543,   3711,    647,  -4509,   4286,   6820,  -5843,  -3883,  12712,   8444,  -4198,  -3908,  -8858,   3345,  -7941,  -2792,   6632,   4495,   3335,   3663,  -4464,  -4391,  -6952,  -7295,  -2833,   5649,   1001,  -6183,   5876,   3041,   1234,  -7396,   1089,  -2928,   6826,  -3872,   5235,  -6652,  -3235,   2295,   9423,   6145,  -6501,  -1486,   5290,   7882,  -7489, -11088,   -406,   -872,     75,   3313,  -8106,   2641,   5146,  -4007,  -3080,   2721,    233,   3741,    952,  -4911,  -2457,  -6644,   6084,   3466,    420,  -2068,   2973,  -7227,  -5600,  -9534,  -4019,    434,   1241,   1706,  -1987,   8081,  -4696,  -1001,  -6979,  -8828,   1642,  -7970,  -2246,   3873,   -214,   7550,  -3390,  -5523,   2217,  -5799,   -236,   -537,   4311,  -8119,  -5119,   -779,  -7461,   6559,  -7663,  -1100,  -2059,  -6670,  -2408,   1608,   6475,  -6079,  -8071,   6458,   -980,   2860,   5039,   9477,  -7713,   2870,  -1988,   6220,   -192,   -622,  -8375,   4568,  -8378,    612,  -4519,   4860,  -7508,   1983,   5935,   4030,   6708,   6385,  -3074,   9295,   3018,  -1894,   6926,   3614,  -1339,  -5866, -10072,   8012,    186,  -5722,   6924,  13941,  -4252,  -7190,  -5140,   6335,   5094,  -4578,   7137,   1430,  -2558,  -5562,  -7418,
         10396,  -7809,  -3190,   -521,  -9164,   -925,  -4789,  -8384,   3048,   7315,   1918,  -4260,   2976,   2411,  -6852,  -8118,  -2521,   6268,    772,  -2180,  -3326,  -7435,  -1383,  -3319,    514,  -4648,   3222,  -1416,    933,  -5015,   4791,  -2791,  10148,   2746,    371,   9460,  -4722,   -382,    452,  -5753,  -7036,  -6095,  -3977,   5067,  -4660,   -969,  -4256,  -8027,   3484,  -6069,  -8466,  -4947,   6884,  -1792,  -5311,    240,   -103,   6410,   5748,   7821,  -8917,  -1949,    245,  -7862,   4436,  -5794,  -2587,   1727,   2561,  -4396,   1207,   2368,   -652,   4627,   6903,  -4570,   8750,   6174,   5312,   6436,    342,   5098,  -7228,  -1805,  -6292,  -6407,  -6105,  -1159,   -661,  -5580,   3107,   -773,  -1620,   1107,   1505,    441,   4394,   6257,  -1504,  -2661,   3138,   2517,  -4645,   5279,    104,   6934,   3037,   7431,  -7456,  -1947,  -8000,  -1050,  11512,   5514,  -7076,  -1401,  -1768,     52,  -2878,   4133,  -2664,   6236,   3216,  11596,   8670,   2363,   6026,   1736,  -4409,   4503,   3713,  -5455,   9170,  -8147,   -825,   3997,   -142,  -1362,  -8378,   5306,   3150,   1516,   -658,  -4288,  -5059,   -368,    305,   4147,  -5159,   2453,  -1971,  -7187,   5871,  -4756,    -55,  -3074,   4069,  -7069,  -1516,  -4954,   7996,   3502,  -7601,  -4576,  -2965,   6045,   2668,  -2325,  -1533,   1318,   -935,  -3812,   5068,   2924,     57,  -6257,  12610,  -5356,   5288,   5488,  -1848,   5164,    117,   4052,   8656,  -5545,   3864,   8733,    227,  -2146,  -3100,   -451, -10099,  -7974,  -7708,  -7113,   5932,  -2337,  -7953,   7241,   7076,  -7687,  -2385,  -3104,  10334,  -1428,  -2636,  -7522,   2286,  -7236,   -582,   2154,    752,     38,  -2604,   3860,  -4588,  -7570,   2158,   2674,   8644,  -2479,   -166,  -7075,  -3731,   3536,  -2184,   2397,   -201,   7127,  -8750,   6446,  12932,  -4550,  -7294,   8728,   1096,   -161,   4577,   -513,   5651,  -8610,   5479,   8791,   3681,   2334,  -4600,  -4484,  -2386,     12,   -231,   -136,  -3763,   6585,  -5110,  -6178,   -563,   4713,  -2173,    726,   3576,    574,   2987,  -3000,   1281,  -1614,  -8665,  -1417,   1005,   5493,   6652,  -4551,   6612,   1880,  -9668,  -8995,   5763,   3135,  -3711,   1013,  -2113,  -4655,   2302,  -3641,  -4046,  -6971,   5780,   1182,  -3613,  -7751,   3043,   5259,  -5724,  -4141,   2812,   5813, -11613,  -6291, -10012, -12736, -14239,  -7758,  -5277,   1522,    181,   2913,  -4082,  -5819, -13885,  -5038,  -8494,  -1349,   6984,   6387,  -7483,  -3181,   6644,   5323,  -8527,   4998,   4818,  -6033,  -3998,   1681,  -9152,   6929,  -3468,   2926,  -2456,  -1211, -10570,   -336,   1525,  -7891,   5183,  -5364,  -2713,   1719,  -3456,   -974,  15361,   1976,   1398,   6208,     41,  -2037,    110,  -5629,   7663,  -3570,   2047,   4947,   7343,  -7801, -11185,   8269,   8658,   3433,   4385,    228,  -2721,   6651,  -9323,   -588,   8495,  -7801,  -1335,  -7775,  -8747,   -948,  -4981, -11945,   9512,  -2373,  -6468,  -7720,   6329,  -5297,  -5676,   5575,  -5598,   2075,   2040,   2717,    274,   7221,   5347,   1864,  -2476,   6104,  -8328,  -7745,   3142,  -1547,  -9824,  -3500,   1369,   -125,   -781,  -6880,   7147,  -7793,    106,   2295,   7850,   5532,   2339,   3533,   -188,    871,   -147,  -3081,  -3746,  -2453,   2887,   1417,   8014,  -3157,  -2312,   6212,    567,  -4313,    514,   4574,  -5289,   1741,  -8755,  -7969,  -7422,  -6255,   1756,  -5261,   -720,   5131,   5366,  -3392,   2271,   6422,    102,   3592,  10008,   5818,  -7354,   6649,   6622,   7124,   -780,   4836,   2201,  -5456,  -6241,  -3106,   6767,  -7341,  -7089,   1812,  -1541,  -1262,  -4306,  -4575,   6818,  -6640,  -1146,   1752,  -5768,  -4335,  -3408,  -3143,    123,   6528,   6530,   6854,  -2281,   2748,  -3839,  -4800,   1063,  -8504,  -8611,   3514,  -2344,  -1447,  -5792,   8079,  11562,  -4702,   3854,    321,  -3445,    175,   5328,  -7339,   1408,   4757,   4943,  -9914,   4246,   2886,  -2959,   8756,  -5575,  -5428,  -8499,   6097,   2769,  -6745,  -4962,  -1012,   7179,   7852,  -7181,   5248,
          4385,   6187,   -441,  -7118,  -6354,   1340,    869,   1471,  -2312,   2568,   -406,   7963,   3963,  -5566,  -3923,  -3476,   6484,   -751,  -2301,  11746,   6771,  -2584,   1764,   1289,  -1444,  -4454,   6316,  -6724,   3342,   5585,   2805,  -3527,   3638,  -3661,  -1569,    240,  -3470,   -835,   4108,  -5730,   2010,   6963,   1296,   2234,   4758,  -3695,   7838,  -6735,  -1092,   1575,   1570,  -2084,  -8768,  -2096,  -4968,   2467,   2098,   5317,  -2257,   3664,  -2438,  -1112,   1535,  -4710,   -209,  -8253,   3573,   4697,  -6138,  -5016,  -6966,  -7960,  -3014,  -6156,   5113,   5445,  -5540,   5399,   1723,   1061,  -3722,  -6923,   4136,  -4987,   3575,  -8386,  -1711,   5291,   3030,  -6209,  -7602,  -5307,   5694,  -2430,  -4217,     79,   2254,   2928,  -2721,   4176,  -5148,  -5704,   3773,   -653,   2628,  -5932,  -4784,   6641,   6363,    876,    327,   3906,   6026,  -1955,  -6143,  -2218,  -4679,   5905,    136,  -8852,   2744,  -7602,   1792,  -3299,  -5924,  -7846,   5225,  -2673,    495,   6087,   1283,   6553,   6109,   1365,   -686,    833,  -1214,  -3369, -12067,  -3827,   4826,  -4983,  -8089,   5034,  -2086,  -8028,   1592,    -98,  13636,  -7843,  -1368,   -203,   -765,  -5154,   3029,   6312,   3960,  -3308,   2004,   5456,   1446,   3283,  -1535,   2899,   1613,  -6058,  -4912,  -1223, -13462,  -6088,   2182, -16548,  -8341,  -4172,  -4332,  -9811,  -2242,  -5986,   1636,   4240,  -8377,  -6379,  -4830,  -2708,   3102,   -849,   3199,  10425,    949,   7120,  -4137,  -4253,   -829,   7200,   4244,   9842,   5475,  -4179,   1528,  -3140,   3824,  -5096,  -2266,  -7109,  -2152,  -4699,  -1834,   2485,   7097,   4006,   5894,   4060,  11824,  -2233,   -986,   4634,  -6328,  -4107,  -8738,  -4337,   8256,   1755,   1787,    595,   8692,   7269,   5891,  -4265,   2571,   3742,  -1286,   5429,  -5494,   3637,  -2136,   -110,  12213,  -3050,   -138,  -2018,  -3055,  -3662,   4363,  -2071,  12195,   2710,  -1426,   1304,  14261,    144,  -9331,  11286,  11666,  -1728,  -5369,  -7023,  -1342,  -1423,  -4509,   1122,  -4267,  -7520,   3775,  -2879,    735,  -4393,   -828,    653,  -8288,   -325,   2022,   6069,  -1157,  -3800,   2825,   -689,  11385,   6496,  -2196,   2256,   1861,   6961,  -8839,  -8267,  -3268,  -9048,   3676,   2627,   1627,   5807,   1772,   4242,   7865,  -3685,   1575,   5110, -10534,  -8588,   4314, -11063,   1294,  -5067,  -2373,  -4593,   -453,   3710,   2844,   2302,   9417,  -5615,   4693,  -2677,  13171,  -4415,    -39,  10809,   2490,   7085,  -2402,  -2043,  -5614,   3176,   3287, -10552,   3986,  -9847,  -3500,   5606,   3841,  -7778,     73,   2325,  -4050,   -131,  -6162,  -4192,   2713,  -6884,   1726,   6889,   2331,   1219,   3617,    808,   1896,  -5501,   1139,  -1873,  -8209,  -7400,   5109,  -5836,  -3942,   7293,   4865,  -4867,   6029,   5191,  -6494,   5928,  -5515,  -3919,  -4361,  -1101,  -1636,    925,   7721,   2573,   1460,  -6501,   2731,  -1874,   2446,  -7670,  -2980,   6886,   2943,    457,  -6649,  -2841,   9732,   4135,   4413,   2280,   4306,  -4841,  -2746,   4180,  -9000,  -4571,  -3138,  -6370,  -5277,  -1073,   -878,   -607,   1265,   1058,    188,   3863,  -1551,  -7888,  -5771,   6803,   3123,   6214,   4068,  -8848,   5061,  -2469,  -2763,  -8313,   1251,  -6245,  -4036,  -3694,   5336,  -4452,  -1609,  -4486,  -2477,   1389,  -2250,   5920,  -5879,   2284,  -3161,   3478,   -902,  -6342,  -4449,  -8869,  12039,   3077,   5255,   1100,   1678,   4472,   5939,    811,  11740,  -5638,   4918,  10275,   7813,  -4212,   3393,  -4616,  -2054,  -7872,   5936,   2177,  -4777,  -2353,  -4969,   4004,  -4801,   2853,   4778,   3426,    570,  -5880,  -4859,   -879,  -3403,   6279,   5982,    453,   7272,  -3018,  -4418,  -8090,   6075,    903,   6526,   7031,    570,   5176,  -4765,   2837,  -3822,   2564,    527,   9213,   3917,   5429,  -8344,   1404,   4913,  -1409, -10828,  -6756,   4311,  -5249,  -4606,  -4582,   4125,    718,  -8517,   7771,    374,  -5467,  -4194,  -1700,   7625,  -5997,   -921,   5646,  -3282,   6548,   1925,   2999,
          8548,   1409,  -6012,   -419,  -4753,   8286,    651,   6917,  -6946,  -5953,   4016,  -6638,  -6997,  -3820,   2937,  -5468,   6488,  -2655,   4539,    237,   6672,  -2639,   5680,  -3322,   5055,  -6425,  -9276,   5076,   6542,   8242,   -106,  -3693,  -3602,  -5786,  -2211,  -2430,  -3297,  -5970,  -4622,    353,  -2078,  -6642,   4922,  -7697, -18010,   1056,  -4201,  -1571,   3396,  -7454,  -3805,  -4443,  -6086,   -553,   7076,  -4557,   4039,   3429,   3950,   6002,   -475,  -6652,   -505,  -7897,  -3474,  -5121,  -6416,   7220,    772,   -687,   2630,   5917,   2553,  -6437,  -5255,    270,   4974,    522,  -1771,   6277,   -915,    586,   8324,  -5628,   3622,  -6793,   6730,  -7576,  -8468,   7351,   2997,  -9314,  -4296,  -4163,   6079,  -7989,   8644,  -1898,  -3949,   -577,   7788,   1130,  -6021,  -7742,   5358,   6189,   1421,   2137,  15380,   5491,   -426,   5692,  -6993,  -6742,  11645,   5481,   1320,   2597,   1741,   1478,   5863,  -1637,  -3654,  -4134,   5765,  -7045,  -1250,  -5740,   9183,   5328,   5154,   6658,  -8324,   3757,   -778,  -4784,   5015,   5284,  -6668,  -1152,   3409,  -8589,    865,  -3796,   5887,   4295,   8989,  -6602,  -5090,  -2177,   1346,   7019,  -3515,   -754,   4331,  -9952,   9831,  -5051,  -2154,  -5665,   -772,  -8156,   8987,  -1654,  -1088,    806,  -6750,  -5739,   1441,   1451,  -1203,  -8061,   5586,  -2930,    427,  -4296,  -5998,  -5741,   7875,   -801,   7759,   3580,   6225,  -6531,   9627,  -4259,   2236,   9286,   3087,   5969,  -7531,  -2967,   7404,   2211,   4601,  -7816,   4274,  -4855,    -65,  -2145,  -4137,  -4051,    122,  -2818,   4739,  -4305,  -7337,  -5385,  -4647,  -5263,   6501,  -5004,   8516,   5039,   3505,    478,   1437,   -264,   2818,  -7531,  -3008,   4601,   3793,  -8742,    427,  -2765,  -1432,   6258,   4591,  -8535,   1793,   -794,  -6983,   -232,  -4954,  -7585,  -5787,    668,  -4410,   -496,   6489,  -3777,  -1863,   8914,  -3067,    -99,   3643,    676,   3034,  -2287,  -3321,   1201,    624,  -5886,   4814,   5727,    842,   6972,   -945,  -1928,   2052,  -5419,  -7273,   1886,   1050,   5805,   2671,   1913,  -6184,  -5568,   3812,   4144,   4860,  -5651,  -7413,   2049,  -6446,  -7707,  -7347,  -5444,  -1982,   -664,   1781,    235,   5130,  -5965,  -3138,   6191,   3244,   1326,  -6040,   -155,   9009,   3215,   2540,    579,   8413,   3918,  -1366,   6889,   5390,  -3321,   1898,  -4104,   6915,  -6128,  -6056,   8962,   3584,  -1234,  -1204,   3338,   5610,    979,   1895,   4656,   5876,  -7363,   5919,  -3900,  -6732,  -3857,   -370,  -3914,   -860,  -6588,  -7343,  -3490,   -106,  -1213,  -3181,  -6734,  -1774,   2961,   7143,   2615,  -2781,   5711,   2021,    845,  -6580,   7069,   1457,  -8692,  -9376,   5993,  -1543,   4430,  -6371,   4571,   4892,   3890,  -1045,  -7011,  -3038,   8849,   1417,   4527,   5815,  -4812,  -2073,   -567,  -8209,  -8352,   2018,  -8213,  -5883,  -9196,   7017,   5601,  -1126,  -1472,   6363,  -2014,   5125,   5436,   9212,   6369,    621,   -229,   6212,   -204,   1453,   4206,  -1546,   -655,   3833,   7976,   2815,  -4240,   2207,    727,    811,   5002,   3188,     52,  -1646,   4275,   4893,    232,  -1312,   -581,   3749,  -5340,   9200,  -8291,  -7121,   6055,  -8394,   6399,   1778,  -8531,  -5190,   6585,   7227,  -4017,  -5695,   4910,   2450,  -8387,   2273,    397,    155,  -4489, -12740,  -3321,   2590,  -8027,  -9347,   7043,  -5715,   4966,  -8032,    642,  -6304,    273,   1753,   6777,  -1554,  -2671,   3254,   -302,  -8203,   2951,  -3410,    160,  -1062,   -280,   3719,  -5955,   1756,   2540,  10636,  -3900,  -6270,    852,   -852,   6214,   2099,   -546,   3100,  -3232,  -5321,  -3499,  -5825,   1796,  -2736,  -5255,   -104,   -485,    331,  -6649,   2284,  -5941,   1151,   3226,   3898,   1955,  -4123,  -4128,   7947,  -2778,   1691,   5124,   2863,  -4414,  -7860,  -6512,  -3570,  -7378,    -85,  -4171,   -526,   3647,   -410,  -2142,   1402,  -4150,  -3940,  -5351,  -3021,   5189,   -546,  -5858,   8751,   -505,   1945,  -5619,  -4927,   3303,  -3885,  -2867,
         -4464,  -3017,   6672,   6923,  -8619,  -6589,  -5200,   4568,   7075,  -2272,   3765,  -8884,  -1504,   3000,   7245,   3822,   3346,   4115,    180,  -6030,    501,  -6671,   5424,   4742,   -374,  -1595,  -3438,  -7149,  -8334,  -2462,  -8002,    597,   3147,   -488,   7362,  -8851,  -8576,    170,   1080,   1723,  -1436,   5564,   -648,   -315,  -3746,   1521,   1754,  -1619,  -6419,   5760,  -7831,    115,   1789,   6557,  -4854,  -2914,    981,  -4151,  -1896,   2840,  -8905,   3033,  -3790,   2223,  -9476,  -8120,  -6068,  -5617,   7109,    657,   1993,  -7462,    622,  -6771,  -2384,  -1925,  10033,  -4112,   2351,   6456,   7589,   3952,   -773,  -4542,    936,  -8910,  -2749,    515,    665,   1532,   -845,  -2945,  -1215,  -8199,   2717,  -1333,   9294,   -305,   4185,   5928,   4266,  -5864,  -3179,  -3225,    743,  -3286,  -1132,   5130,   2330,     49,  -4762,  -8689,  -5771,   3930,   -737,   4682,  -1330,  -5502,  -1977,  -6839,  -4441,  -8243,  -5901,    377,  10641,  -3765,  -5645,  -8265,   6245,  -6724,  -2252,  -1686,  -8248,   3680,  -1370,  -5295,   4296,   6781,   2437,   3478,   7448,  -7445,   1274,   3942,   9974,   1711,  -4596,  -5861,  -4981,   1950,  -2363,   7125,   5833,   3370,  -1671,   2821,  -2019,  -6026,   -106,  -8143,   6270,  -6298,   2394,   6136,    551,   3785,  -1555,  -8250,   -976,  -7001,  -3653,   2202,  -5048,   7364,   1502,   1572,    329,   -336,  -3582,   5039,   7111,  -2425,   3870,  -5234,   6696,   5142,   7296,   3108,   5603,    935,  -3905,   7078,  -3236,  -2203,   1337,   -259,    429,  -2110,  -6000,   5440,   3099,   -749,    623,  -6438,   -218,  -2501,   2879,   4703,  -4590,  -3976,  -7488,   7112,  -1204,   3063,  -5370,  -4572,  -3879,   4233,   5070,   1823,   5948,   -788,  -3135,  -4329,   9417,  -5042,   4462,  -1239,   3469,  -4784,  -3385,   -507,   9646,   4769,  -6100,   -526,   6846,   -262,   3438,   1525,   1475,  -8921,   -821,   4633,   2405,  -1800,  -6989,     95,   8430,   6149,  -6446,  10447,  -2800,  -5465,  -5688,   2323,   3188,   6327,   2558,  -1047,  -1048,   3801,   -332,  -3225,   2043,  -4002,      2,   6856,  -1860,   2713,  -3233,  -5621,  13601,  -1095,  -7257,   7526,  -2999,   3299,  -5489,   5418,   4451,  -5888,  -1282,   5155,   1561,  -6440,   -705,   5618,  -9792,   4907,   6473,   5140,   -328,  -5447,   3356,  -5210,  -2541,   -197,  -8159,  -2352,   6388,  -6668,   -353,  -6830,   4553,   1166,   2451,  13828, -15070,  -1099,   1489,  -2480,  -1582,   3544,  -1955,  -2533,  -5561,   7567,  -7752,   -557,   5393,   5767,    186,   1094,   2286,    934,  -5912,   5655,   6936,   -151,   -349,   9782,  -1263,   -784,   -312,  -4721,   5642,  -4328,   5646,   8638,  -3104,   6274,  -3755,  -8773,  -4147,   4484,   -901,   3226,  -2400,   2186,  -7043,   4325,   8269,  -4465,  -2721,   5972,   1419,   6156,    793,   2950,    112,  -5423,   1896,   7432,   4100,   1745,   5312,  -5931,   8497,  -8703,  -3261,   2519,  -3709,  -7846,   5117,   3767,   3629,   5010,   4585,    -97,  -2331,   3088,   6792,   5091,     34,   5357,   3582,  -2308, -12299,   2429,   3380,   5172,   1103,    -62,   6735,  -1776,  -4342,  -4365,  -1757,  -6464,   6698,  -7476,  -2351,   2696,   1792,  -6721,  -3765,   1762,  -3846,  -5735,  -3656,  -7005,   6990,  -4958,   5765,   5820,  -8469,   5043,  -4953,  -1504, -12802,  -4710,   1237,  -6127,  -4238,  -7701,  -4901,  -5057,   6681,  -1164,   2347,  -1952,   -167,   4263,  -1084,   7320,   1963,  -7723,   1833,  -3723,   3380,  -3735,  -7085,   8555,  -9651,    630,    573,   5248,   3830,  -3159,  -3167,  -8761,  -4285,  -6515,   1895,   4429,  -6518,   1660,   8070,   2005,   9688,   4831,  -6516,  -4939,   6630,    139,  -1898,  -1088,   6257,  -6995,  -4546,  -5466,  -6536,  -5391,   8003,  -2040,  -4735,   2947,   3497,   2342,   2671,  -1644,   -211,   3572,  -2669,  -5281,  -5336,  -2740,  -2559,  -6466,  -4102,  -1483,   6806,  -7490,  -3757,   4450,  -3667,   6922,  -8449,   9792,    492,   3554,   6433,   4960,   -924,  -8871,  -7319,   4771,  -1773,  -1641,   4834,   3135,
         -1798,  -5366,  -2233,   5261,   7375,   6280,   4542,  -1024,   6550,  -7455,   3270,   6602,   4732,  -6038,  -8477,   5918,   -626,    939,  -7700,   2207,  -5691,  -7489,   5052,    793,   7372,  -7440,  -5984,   2880,    891,   1383,  -2005,  -5502,   2928,  -4527,   3242,  -5596,   4022,  -7400,  -2117,  -7283,   5083,   6687,  -5573,   4135,   6540,  -5465,   1660,   1689,   2353,   6231,  -7269,   2960,   5513,  -5469,  -2690,   6940,   4232,  -5217,  -4102,  -2590,   5587,   1653,    499,  -5931,   -736,    160,   6887,     36,  -6068,   7404,   5108,   2679,   2331,   7469,  -4450,  -3261,   4367,  -7939,   5239,   3819,   3702,   6286,  -3917,   8342,   -965,    530,  -6717,  -6621,   7310,   7031,  -5785,   2555,  -5749,   -417,   3796,  -6733,  -6929,   4103,  -2029,    550,  -2359,  -8566,   3286,  -2299,   8031,  -2093,  -7897,   7188,   8492,   7007,   1498,  -7893,  -4197,   3981,   4035,    774,  -5296,  -7131,   6725,  -3749,   8325,   4655,  -7443,   1641,  -1905,  -6969,  -5454,   3854,  -7356,   3040,    384,  11567,   4153,   7903,  -2040,    863,  -3223,  -3585,   3042,   3701,   2705,   1988,   6543,   7425,  -7552,   4784,  -1566,    530,   8427,    -72,  -4627,   8980,   1341,  -4863,   3188,  -8106,   6866,   4317,   7625,   4119,  -2091,  -9513,  -1948,   1667,  10587,  -1134,   6544,  10942,  -5703,   2374,   5721,  -9236,    188,  16020,  -2601,   6118,   1578,   5091,  -2340,    896,  -5655,  -6051,   3983,  -4722,   6343,   9999,   5348,  11123,  -2150,    351,   3038,   2641,  -5330,  -2719,   -879,  -1225,   5069,   -952,   -423,  11019,   -247,  -3559,   3682,   9075,   7393,   8892,    758,  10325,   7015,   9471,  -2688,   7623,  -4009,   5429,    990,  -5180,   1655,  -9527,  -5891,  -3583,    -59,   9527,  -6402,     86,   3953,   2316,  -4513,  -1339,   -168,    739,   2835,  11789,  -8655,  -7198,   -818,  -5327,   8253,   6008,   1086,     42,    363,   5917,  11486,   7189,  -7640,   -829,  -5013,   2600,  -2587,   2008,  -8596,  -3301,  11028,   2807,   3257,   1718,   4562,   8295,  -1115,   5240,   7492,   3773,  -1184,   6475,  -5219,  -2249,  -9140,   8884,   1745,  12896,     93,  13324,  -4202,   4581,   4532,  -3617,   -864,   7055,   3240,   7436,   7853,    -40,  -2572,  -2751,   6897,   7042,   6335,  13259,  -2310,  -2475,  -2671,  -2430,   -291,   3433,   4181,   1467,  -2249,  10386,    262,   1452,   7808,  -5054,  -2683,   1361,   3903,   6739,   -900,   6326,   1925,  -3081,   3149,   1749,  -4651,   2142,  -6752,  11445,   1415,  12099,   6107,   9751,  -2811,   7861,  -1440,   3568,   -768,   6596,   7200,   2116,  -2410,  -3306, -10168,  -5866,     93,   3631,    300,  -2697,   3091,   7251,   3865,  -5230,   2844,   1581,   6452,   9386,      3,    420,  -8036,   5706,  -3115,  10132,   2884,   9132,  -3762,  -5927,   -869,   -207,  -2539,   2714,   -733,   1571,  -8002,  10571,  -3331,   2788,  -5668,   8552,   6555,  11725,   1121,  10100,   4895,  -5591,  -2633,    692,   1319,  -5306,    607,  -8173,  -8482,   7408,   4118,  11454,   8598,   1120,   3858,  -2982,   -468,  -5595,   4378,   9100,   7686,     80,  -2603, -11097,   5725,  -3187,   4739,   8916,   5954,   -730,  -3511,   2949,    390,   3014,  10871,  -3213,  -4660,   2777,   4134,  -5529,  -8467,   1913,   -274,   1212,   2845,   -235,   4718,   3216,  -2859,  -5574,   2847,   6538,  -5514,   1624,   7658,  -1160,   6970,  12065,   6023,  10182,   1009,  -2192,  -1158,   7232,   5699,   7407,   -284,   7492,  -1970,  -1822,    -26,  -3340,   1665,   3469,  11602,  15217,   2241,  15788,    632,   1291,  -5135,  -4591,  -3009,   4092,   1541,   5834,   2810,  -2895,  -1803,  -3450,   -440,    -66,   1162,   2114,  -3983,   4108,  -6752,  -2746,    417,   6463,  -6379,   5744,   5125,  -1358,   1538,  -8469,   6251,   2989,  -6950,   5061,  -1685,   3519,  -4799,  -7027,    616,    999,   5884,    246,  -4646,   5132,   4363,   5519,  12881,  -2054,   3304,   7236,   2282,   1098,   1893,    460,   2506,   2955,   6537,   7748,  -2907,  -4060,   4627,  -3033,  10802,  10705,   -760,    151,
         -1010,   8151,   8644,  13540,   7441,   8282,   5800,   2600,   2124,  -2759,   6432,   3098,   3680,  -2830,  10220,  -1494,   1855,  -4919,  -3827,  -8104,   3006,  -6019,  -4122,   5383,  -1740,  -3989,  -1624,  -2818,   8616,   8197,  -4966,  -2650,   2867,   -937,  -2093,   8096,   1262,   6035,   7072,  10239,  -4078,  12384,  13530,  -5880,  -3048,  -3769,  -9519,   2700,  -3937,  -6021,   6666,  -5046, -11576,  -8144,  -7616,  -8194,  -1168,  -3511,  -2926,   7901,  11109,   2765,  -1934,   9669,  -1122,   9699,   -345,   1554,   -952,  -6356,   3168,  -6450,  -6401,   3199,   3694,  -5774,   1682,   8278,   1507,  -2918,  -7001,   2030,   6163,   6496,  -5386,  -6148,   1123,  -5320,   6638,   7242,   5463,  -3208,   1106,  -5091,  -1689,   4755,   5162,   6462,    -42,  -6413,  -4532,  -7098,   6421,   6170,  -2358,   8733,  -6937, -13604,  -5934,   4907,  -8939,   1670,  -6631,  11114,    208,   1613,  -8624,  -4108,    575,  -3901,  -7249,   7766,  -3491,    950,   3101,   8038,   7182,  10054,  -3839,   -713,   1004,  -4271,  -1480,   -113,   3435,  14543,   6202,  -1808,   3886,  -7808,  -2766,   -210,  -6677,   6594,  -3798,  -6890,   4870,  -3512,  -1416,   6931,   7650,   1337,  -5162,   4817,   4419,  -2468,  -2771,  -2617,   3652,    310,   6531,    -84,  -8940,   3458,   1729,   9697,   -131,   3002,    232,   8762,    208,   5164,   -183,   8777,  -3820,   3785,  -1577,   4892,   1174,  -3568,   3903,   5450,  -4815,  -2788,  -2968,  -2964,  -5115,   2641,  10414,   2704,   2862,   8657,  -7297,   1470,  -2687,   3184,    295,   3227,   2950,   3960,   6383,  -4397,    974,  -3772,  -4656,   2517,  -2653,   2917,   7254,  -2213,  -5997,   2633,  -6003,   2936,   4777,  -3913,  -2821,   2092,   5053,   -457,   3735,  -5995,   4604,  -4003,  -1071,    -63,  -7404,    749,  -1416,  -4352,  -4237,   -801,  -4306,   7943,    984,   2042,   4791,    483,    -85,  -3822,   4129,  -6135,  -4710,  -1682,   4910,   2493,   3160,   3537,   6330,   3473,  -2057,   3865,   4144,   9930,   1926,   2676,   5666,  -2293,  -3625,  -7932,    368,  -5600,  -7253,  -1398,    826,  -5414,  -6568,  -9212,  -1065,   2346,   2274,   9522,   3358,  -4158,  -3467,  12309,   5379,  -3946,   7920,   1903,    -42,  -4120,   4874,  -5299,  -1653,  -5358,  -8268,   5674,   2952,  -4037,   2922,   8657,   -992,   9050,   5585,   8759,  -3315,   7651,   5573,  11909,  -2557,    319,  12053,  -4031,  -3120,  -4992,   3623,   7918,   2360,   6392,  -2119,   7145,  -1513,  -9213,  -2955,   3385,  -1268,   3208,   9095,   2746,   5938,   5236,  11613,   9791,  -3178, -11401,   -278,  -7220,  -7052,   1611,   1656,  -8867,  -1952,   3936,  -5347,   4368,   1731,   5619,  -7988,   2517,  -3375,   -841,  -4824,   6524,   7317,   3964,  -1551,     23,   6038,  -4762,  -1924,  -3303,   1005,  -3311,  -6861,  -4057,   8247,  -5717,    899,   3397,   1150,  11503,  -1795,  -7194,   7067,   -559,  10704,   -826,   6311,  -4697,  -8151,   2397,   5015,   3406,   -168,    505,  -3056,   1464,     29,   4327,   2284,   9684,   1615,  -2781,  -4504,    193,   2325,  -1042,   8635,   -234,  13051,   6633,  -7349,   5333,   -293,   1840,    450,  -3596,   -292,   1233,   3559,   6036,  -1069,  -5669, -10261,  -8325,    163,  -4339,   4888,  -8250,   3516,  -6042,  -1143,   9369,   5999,   5677,  -2821,   9223,     62,   5178,   2873,  -1581,   7251,  -3572,   5593,  10660,  13071,   7899,  -6853, -10269,  -8398,  -6079,  -5587,   4934,  10722,  10548,   -929,  -5875,   4158,  -7113,   1662,   5526,   5218,    900,   2382,   2366,   1249,   7265,   -305,   5422,  -8773,  14318,  10317,  -3603,    226,   2325,    -94,  -4516,  -3412,    549,   8113,  -4847,   4901,    505,   6338,  -3638,  -6339,   -832,   6075,  -6498,   1432,  -9531,    258,  -4029,  -1023,   -223,  -1180,   2452,  -4510,   3900,  -7681,  -4616,  -7686,   2110,   6740,   1860,   -392,  -4698,  -5946,  -6362,   6540,  -6072, -10211,  -1058,  -4011,  -2197,  -2480,  10243,  14338,  -5050,  -2809,  -5832,   7024,  -2970,   7023,  -5813,   3020,  13826,  15340,   1996,  15387,  -2782,
          6724,  -4339,   3128,   2682,   3613,   5548,   2834,   -470,   5098, -11618,  -4634, -11394,    -55,   3138,   4097,  -4542,   6916,  -8142,  -6856,   7329,   9316,   5422,   9611,   5950,   3589, -10358,  -6480,   3605,   6477,   7782,   2144,   2516,  -4560,   3200,   4022,   2810,   1313,   9702,   2816,   3832,  -7912,   5487,  -1902,   3875,   5824,   6735,   -687,   1732,  -5068,   2870,   2199,   7429,  -7485,  -8978,  -3395,  -4867,  -5785,  -1106,  -4386,  -4727,   7172,   4091,    301,   8257,   1705,  -4626, -12672,   1857,  10428,  12435,  10543,  -7166,  -5871,  -7198,  -4293,  -5510,  -2534,  10641,   2859,   3128,   3949,  -2208,  -3302,   7658,   1141,    450,  11262,   5258,   3617,  -2315,  -2616,   4097,   1015,  -3698,   8240,   8918,   6003,   3925,   2358,  -2008,   7413,   1511,   -611,   7129,   6689,   1514,   7114,    982,   1621,   4857,   9631,  -4107,  -5488,  -1487,    485,  -1248,   3370,  -4085,   2522,  -5160,   -140,  -5589,   -467,   5026,   8959,   1375,  -3621,   6267,  -7579,  -4599,  -7528,  -1952,   4501,  -3767,   1126,   1293,  -7793,  -4890,   7759,  -5757,   1538,   2959,  -7400,  -3853,   -494, -11215,     70,   1972,  -3087,   3058,  -2402,  -3035,   5208,   4971,    793,    514,   8445,  -2991,  -1884,   4793,  -1224,    541,  -5641,  -5397,   8367,  -1200,  -2550,  10154,  -6733,   4811,   4485,   7862,   4951,   2751,   6533,    152,   3972,   7814,   6221,  10829,   7462,   4267,   5558,    125,   3766,  -5828,  -7280,   9954,   7757,   9621,  12263,   4331,  -6188,  -2368,   2511,   1913,  -5259, -15680,   3318,    530,   4923,   2729,   5943,   4801,   5890,  -4648,  -7069,   -493,  -6065,   4655,  -6361,  -3928,   3800,   6222,  -4798,    722,  -6709,    163,   5316,   1309,  -3853,  -8440,   6905,  -1159,  -7518,  -2952,   1789,  -8348,   4469,  -3184,  -1105,   4033,  -7878,   8618,   3927,   1875,   3433,   7824,   4146,   7670,    686,  -6027,  -7671,   -277,   4907,  -2080,   2855,   2491,   2988,  -7518,   4369,   1458,  10792,   4837,   3167,  10760,  -7804,  -6329,  -1133,    -17,   5151,   9652,  11942,  -2126,   5813,   7826,  -3730,   9028,  -4227,   2545,    965,  -6356,   -466,  -5669,   4017,  -8465, -12389,  -4297,  -2809,  -3861,   6396,    313,   8584,  -8709,  -6549,   -773,   7150,  -5954,   4834,   -381,    647,   7006,   9139,  -2691,  -3916,  -6990,  -1168,  -3943,   9279,   3473,  -1042,  -6217, -13163,   7758,  -7281,   9505,  16241,   1543,   6757,  -6460,   -894,   3343,  -5739,   3069,  -1142,   3298,   -357,  -3433,   6819,  -1011,  -6862,  -7394,   3828,  10778,   7187,   8754,  15772,   2033,  -8052,  -3933,   7412,   9905,    261,   2787,   2318,  -5863,   -596,   3072,  -8583,   2142,  -2195,    507,   4106,    275,  -1929,  -3338,   6404,  -4873,   7574,    892,   4717,  -3869,  -5758,  -7281,  -4744,   6324,  -4224,  -5032,   8926,  -1680,   3261,  -2843,   1973, -13930,  -9730,   1720,  -8278,  -9486,   5353,  -1006,   8784,  -1381,   -414,  -8904,   1855, -10005,   3610,  -5720,  -9922,   9795,   7605,  15972,   4585,  10840,    556,   1117,   5613,  -4477, -11041,   4425,  -2159,   7333,  -3337,  -1637,   5590,  -4092,   4974,   4185,   3776,   7017,  -1369,  -8496,     27,  -3853,  -1595,   -221,   -512,  -1326,   -742,  -2579,   3358,  -7461,  -3687,  -3047,   9250,  -4058,  -1936,  -2675,   3635,  -5372,   6312,  -6525,  -1642,  -3114,  -1323,   7425,   6742,   4827,   5987,  -5735,    -56,  -3595,  -1732,   3106,   6716,   1403,  -6225,   4712,  -1356,   2642,   2017, -14256,  -5990,  -9331,   5991,   5015,  -4823,   7241,  -6259,   3162,  -3940,    757,   7352,   7197,  10323,  -7498,  -3180,   3155,  -7965,  -2054,   4655,    226,  -2986,    354,  -2116,   3579,  -9944,  -8634,   -455,   3216,  10163,  -2869,  -2065,  -2239,   2208,   7258,  -6566,   -397,   2967,  -6588,  -8249,   -969,   1727,  -9281,  -6659,    524,   3088,   -111,   4353,    425,    735,   -163,   -664,  -8243,   5894,   6521,   5884,   3892,   1059,  -4346,  -2068,   4529,   3903,  -6953,   2147,   -258,  -6834,  -5601,  -3851,  10337,  -1467,   4871,
          6937,   4295,  -1216,   2190,  12585,  -6088,   6760, -10763,   3130,   1240,   6158,   -995,  -1870,   3642,   1556,    -20,   1226, -12388,  -7468,   6007,   -389,  -2811,   9329,   3343,   6222,   4290,   8483,   9154,  -3624,  -1145,   8129,  -7107,   3745,   6012, -10143,   7033,  -3884,  -5274,  -2352,   8214,  -8279,  -4202,  -2275,   -798,  10901,   5998,  -1258,  -6844,   5631,  -6718,   -522,   5431,   9234,  -2698,   5863,   1411,   2313,  -1272, -11463,   4743,  -3065,   9756,  -4375,  -1512,   2324,   1721,   1337,   4453,  -2014,  -7535,   5396,  -9696,  -8343,  -5786,  10316,   3552,   2404,    985,  -5277,   2163,  -1484,   -489,   4320,  -7059,   2831,   2859,  -8523,  -7684,  -1636,   -518,   3234,    539,    804,   2623,     74,  -5374,   7074,  -6619,  -4500,  -2645,   7759,  -6396,   6719,   7656,   6395,     58,   4767,   6795,  -2605,  -3313,  -2705,  -7892,   -247,  -1082,   -266,   2213,   7818,   4160,   1774,   4991,   4533,  -1068,   3654,   8501,  12221,   4802,  -3081,   1516,   2860,  -4186,  -4250,   6646,  -7460,   4193,  -2438,    814,   1696,  -1601,   9228,   8380,   6720,  -9791,   7236,   -835,  -4347,   3710,   -873, -12592, -12630,     70, -10658,  -3590,   2379,   4604,   5397,   -872,   -480,  -1218,   2852,   4467,  -8667,   9946,  11684,   2063,  -5762,  -8587,  -1959, -10872,  -4452,  -7855,  10921,  -3626,  -6024,  -5640, -12425,   5537,  -5053,  -2708,   7477,  -1204,    190,   4396,   2939,   1832,  -5828,  -7292,   1900,   9431,  -2831,  -8376,    980,  -5981,  -2894,   8359,  -9993,  -2687,  12218,  10524,   2424,  -2577,   -183,   6405,   6222,  -3467,   9893,   5980,   6766,   2256,   6056,   7741,    135,   6006,  -1842,  -8415,   6912,  -2561,  -5988,  -4424,   1270,   -395,   1644,   4936,  -1703,   4733,   2243,   1738,  -9213,  -8145,  -6087,   3168,   2416,  -4857,  -2299,   1487,   5439,  -4400,    324,   4669,  -3507,  -2077,   -680,   7937,   3862,  -7483,   -389,   1621,   5253,  -1635,   6047,  -8249,  -9388,   1612,   8960,   2468,   1781,  -3772,   2632,  -4749,  -5307,  -2206,   4616,  10930,    149,   6254,   1348,  -6963,  -6087,   3980,  -9321,   6322,  -6892,   6183,  -3356,   2130,  -8783,   2869,   3133,  -1648,   1154,   2074,  -1801,  -4945,  -5653,  -7243,    118,  -4983,    898,   1872,  -4586,   2866,  -7107,    437,   -869,   7688,  -4953,  -6501,  -1247,  -6004,   -331,   5264,  -2780,   7083,   5764,  -4550,   5483,  -2920,     37,  -3151,  -5852,   7089,   3392,  -7892,  -7321,  -3506,   4346,   2467,  -5974,  12992,   2504,   5095,   5828,  -3083,  -1192,   6726,   6538,  -1493,  -5752,  -7099,  -4960,   1539,  -1736,   7061,   1041,   4306,  -1062, -10098,  -8234,  -4879,  -8952,  -6534,   7361,    122,   1940,   3187,    669,   3647,    422,   6836,   3175,   3828,   5122,  -5886,   5909,   2420,   -914,   6449,   4434,   6251,  -2248,  -4514,   -944,   2692,   2300,  -2582,   7135,   9076,   -835,  -3959,  -3208,  -6060,   1351,  -7312,   -270,  -1933,  -3369,  -1994,  -4890,  -3590,  -1390,   2562,  -4486,   7543,   6590,   1895,   -664,  -1332,   6081,  -2955,   2492,  -8651,  -5176, -11046,   3621,  -3941,   1792,   5422,   2948,  -4767,  -4044,   4077,  -5153, -11313, -12212,    685,  13130,  -2837,  10489,  -7125,  -5015,   -423,  -5023,   -392,  -1102,   1174,   4822,   -107,   6962,  -2948,   1939,  -3371,   6402,   4301,  -2553,  -7290,  -5761,   4470,   -688,   -813,  14316,   1290,   3476,   1180,   -433,   -590,  -8020,   8857,  -1670,   3815,  11771,   6575,  -4816, -13280,  -8595,   5142,   8905,  12442,   6746,   -267,   5302,   9386,  -4329,  -1750,   5663, -10032,  -4139,  -5805,   -519,   5647,  11327,  -6139,  -9874,   2431,  -4031,  -9616,  -2539,   1110,   2704,   4559,   3296,  -3663,   6412,  -2337,  -7039,   2286,   8493,  -5129,   4112,  -9085,    643, -10347,   -425,  -6004,     78,   5956,  -3852,   6833,  -5386,    810,  -2549,   9958,   -602,  -8667,  -3605,  -2617,  -2697,  -1739,   6366,  -6971,   -550,  -5424,   9275,   6445,   6665,  -1187,  -7383,  -3021,  -9810,   7855,   5245,  11716,   9193,    756,
          -989,    445,    132,   1857,  -4684,   1524,   -148,  -6833,   5382,   9899,    823,  -2562,  -6665,  -2355,   1967,   5849,   3120,   3357,   1361,  -6129,  -4344,  -5295,  -6124,  -7358,   5708,  -6416,  -4653,    826,  -6085,  -9563,   4535,  -2240,  -4695,  -5645,   7814,   6570,  -8561,  -8900,   2268,  -5290,   2419,   7344,  -4004,  -4139,  -6112,    696, -11562,   4179,  -3454,    533,  14656,  -9875,  -1892,  -9228,  -7001,  -6221,   5649,  -4466,    -66,  -6069, -11698, -13236,  -6360, -10792,    404,   1660,  -5907,   9138,   8975,  14174,  11812,   7696,   2534,  12004,  -7703,   7804,   4680,   -908,  11852,  -8223,  -6864,   6575,   1419,   2255,   2314,  -1096,   9188,   -929,  -5461,   8855,   3820,  -7014,   7419,  -1834,    577,   5964,   3401,  -2216,   -777,  -4134,   1827,   7236,   3380,   1384,   6330,   9104,  -3515,   3586,   4445,   -638,   4966,  -4554,  -5034,  -1174,   9288,  -6285,   2579,  -5400,  -7785,   2625,  -1137,   1483,   2000,   9059,   7589,   -528,    765,  -6034,  -3691,   2874,   2592,    246,   8974,   1553,  -3173,   4489,  -8130,   3364,     46,   4793,    379,   3700,  -1297,  -7764,   -520,   3577,   4137,   2450,  -1949,  -2485,   1077,    675,  -2263,   4086,  -8489,   2552,   6229,  -7585,   3755,   -696,   -186,   3152,   9740,  -4943,   7786,   4311,  -5470,   6589,  -5349,   7649,  -3255,  -1673,   4433,  -6104,  10483,  -5373,   3667,  -6121,  10581,   -518,  -7267,  -7048,   4881,   6982,   1004,   1707,   2117,   9122,   2491,  -2160,    950,   4671,   -428,  -4087,   -433,  -5850,   2964,  -4327,  -7034, -11327,   5440,  -8400,   1794,   5287,  -3253,   3429,  -3505,   2791,  -1866,   3277,   -646,  -3198,    811,    242,   7277,   5462,   5611,  -8701,  -6013,   5497,   7032,   1288,   6967,   3184,  -7169,   1833,  -5996,   3116,   3221,  -3126,  -5059,  -8602,  -1450,   2497,  -1346,   4734,   6324,   2340,   7566,   4391,   3909,  -4240,  -2909,  -1441,   5126,   7559,   -773,  -5041,  -5587,   6706,  -2357,  -3681,   4493,   1811,  10778,   -931,  -2918,   1628,   1997,  -9355,   5148,   6581,  -3977,  -1905,   6374,  -4448,  -6741,   2274,  -4694,  -5960,   6443,   6352,  -4609,   3544,  -4877,   3730,    302,   7706,   8009,  -3476,  -7635,  -4895,   7718,    535,   1969,  -1515,  -2250,  -5499,  -4420,   1597,  -9482,  -2414,  -3820,   6289,  -1162,  -6611,  -5178,   3842,  -5289,   5991,    186,  -3705,   4953,  -4487,  -6774,   -737,  -6868,   6039,   2553,   5839,  12733,  -1622,   1507,    162,   -416,   7381,   7189,   1418,   1942,   7831,   1317,   2719,  -3900,  -5007,   6473,   1344,  -1207,  -2615,   7482,   1942,    341,  -2169,   3561,  -4594,   -503,  -9591,  -4141,   1324,   1655,  -1441,  -4099,  -4621,  -5464,   4109,   2248,   9572,   -421,  -3999,   5873,   4584,  -3831,  -7950,  -2621,   3419,  -7154,  -2236,   4917,   3369,   3953,   -491,   3208,  -1027,   6044,   3960,   7112,  -1647,   9211,   5793,  -2690,   2012,   2690,   6015,  -2905,   8263,   -187,   2524,   2539,  -5022,   1401,   3948,   5794,   -888,     -8,   5044,  -6048,  -8835,   8080,    233,  -8641,    275,    -57,   -323,  -1763,   2564,  -5660,   -363,  -7864,  -2490,   1420,   3621,   4439,   3908,   -831,  -6254,  11558,   9365,   9397,   5251,   2351,  -2390,  -1835,  -2827,  -5765,   1271,  -2458,  -8971,   4789,   6094,  -1014,   4027,  -4228,  -8144, -10214,  -9459,  -4639,   2014,    981,  -3294,   4285,   4463,   6346,   1609,  -4794,  -3745,  -5211,  10735,   8581,  11174,  12472,  19479,  -2249,   8498,   7679,   -939,  -9495, -15273,  -3671,    756,  -4579,   6033, -15262,  -1970,  10952,  18554,   3601,  15133,   7189,    712,  -5924,   8794,   2510,   8019,   9060,  11296,   5812,  -3534,  -4651,   8684,  19268,  10946,   9951,   2565,  -1203,   5564,  -6237,  -2088,   7058,   8149,   7752,   7559,  -5153,  -4037,  -5556,   7018,   2136,   5837,  10926,  10616,   7171,  -7724,  -8940,  -3077,   5526,  11900,   8210,   2480,  -6646,   -101,  -6364,   1781,  13139,  11475,  10628,  -1847,  -7315,    621,  -5564,   9555,   7157,   7769,  -3278,  10733,
          6037,   5740,  -5358,   -135,  15151,   2647,   4769,  -1330,   3426,  -2277,  -1825,   1461,  -5347,  -2817,   3361,   3313,  -1934,  -2949,   5461,   2470,   -458,  -1530,  -1553,   8276,  -8188,   1457,   6148,   8226,   5431,  -5554,  -4484,   -658,   3533,  -1364,  -1332,   5236,   7399,   7540,  -4593,   5484,   2098,   5411,  -3264,  -1393,  10136,  -1060,   4109,   -835,  -4770,  -6643,   6556,  -5975,  -3194,   1039,   7655,   1375,  -6356,  -4151,  -1211,    278,   4321,  -2665,   1794,   5420,   1479,  -5905,    963,  -8522,   8059,   5768,  -3391,   9898,   7112,  -4168,   -157,  -6141,  -2670,   7381,   5081,   2711,   3386,   2742,  -6942,   3807,  11349,   8063,   6947,   8163,  -6836,  -2575,  -5729,  -7494,  10688,  -5177,  -1399,   4160,  -2980,   7812,   5791,   6724,   1260,  -2879,    529,   7246,   5642,   2939,  -3330,  -2948,  15150,   9382,  14036,   -795,   1627,  -8458, -10302,  -4999,  -1575,  10197,   2326,  -1710,   1186,    324,   1388,   3284,   3042,  -6598,  -2003,   6171,   1598,  -1788,  -9630,  -6104,  13042,   8092,    -79,  16829,   7055,  -6442,   -668,   -461,   3641,   8075,  -4303,  -3398,  -7540,   -249,  -5825,   3013,   4672,      4,   9851,   1678,  -4589,  -2328,  -5222,     53,   2755,   1391,  -1119,    368,   2020,   5025,  -7778,  -3640,   2922,  -4826,   9411,   2741,  -7423,   5519,   6313,  -3251,   3066,   6052,  11105,   7830,  -3368,  -6407, -10271,   9469,  17568,   2596,   5001,   5485,  -7745,  -7164,  -1653,   4571,  12185,   5203,   -771,    599,   6282,   8332,   9241,  -6534,   3300,  -8026, -10361,   3103,  -3565,   -382,   4299,   2932,   3315,     11,   1063,  -4838,   3852,   5970,   3355,  -3801,  -2519,   8463,   5957,     -2,     99,  -4841,  -1064,  -8221,  -1273,  -1502,  -8755,  -6415,   2179,   1646,  -6981,  -3979,   2559,   5457,   6661,   2805,  -1031,   6133,  -3748,   4492,  -2355,  10942,   5339,  -4171,   -866,  -3108,  -6005,   5738,  -1011,   9364,   2258,    330,  -4125,  -3388,   4766,   9970,   1190,  -2852,   5388,   -604,   -692,   6777,    396,    456,  12745,   -755,   1004,   5785,  -3624,  11325,  -1956,  -2531,  13535,   4241,  -1226,   3561,   1185,   4537,   2303,   2706,   6398,  -5807,   7194,  -6224,    168,   1478,  -6245,  -6747,   7509,   4884,    394,   1907,   5211,  -4688,    842,  -3311,  -1847,   5747,  -7469,   -112,   1309,   7255,  -7219,   4411,   8336,  -4317,   7801,  -9142,   1896,  -6508,   4970,  -3339,   -349,  -2428,  -1775,   7030, -12367,  -1502,  -8572,   3503,   1524,  -1938,   4688,  -6848,   5684,  -3397,   7252,  -1782,   4280,    -37,  -7941,    344,  -5572,   5677,   6223,   7302,   7943,    -65,   -709,   5823,   3469,   6149,  -4068,   2848,   4545,  -7429,   3087,    863,   5788,   4856,  -3024,   5924,   9475,  -3851,    690,   3179,  -9052,   7431,   3478,  -1105,  12340,  -3638,  -5638,  -2891,  -3319,   6023,  -3140,    966,  -3783,    767,   1135,   2286,    -55, -11402,  -7831,  -5555,   3789,  -1734,   7882,   3748,   1631,   1318,  -2251,  -8210,  -1260,  -8020,  -7265,    949, -11875,   -914,   3923,   4123,   8872,   6954,  -9474,  -7432,   4301,   8043,    909,    293,  11897,   1489, -10587,   4665,  -6027,   2572,   4175,   8982,   1501,   4584,  -6020,  -4945,  -3320,  -1874,  -7961,     88,   5022,  12295,  -2488,   6404,  -5380,   8243,  -7991,  12523,   4484,    663,   1049,    -15,   -611,   1558,  -6706,  -6436,   -397,    172,  -2595,  -9223,   1880,   2576,  -6306,    845,   5738,  -5827,   9144,  -7424, -15515,   3057,   6515,  11384,   9159,   4419,  -4551,   2757,   2736,  -2751,  -5305, -13153,  -1861,   5078,  -4838,   6585,   5616,  10099,  -5218,  -3496,  -5887,  -2793,   1104,  -1093,   1470,   6571,   -865,   8151,    -26,   2213,   2386,   5715,  -2900,  13257,  -7627,  -6015,   4146,   -354,  -3996,   6577,  -4412,   2664,  -3924,  -5766,   5852,   1647,   4233,   2893,  -1909,   5156,   -308,  -6199,   5668,  -5808,   3263,  -7698,   6307,  -4216,   1526,   -336,  -2023,   -519,   1573,   1227,   5451,   1787,   4327,   4369,    310,   1825,  -6699,   1402,
         -6383,  11769,   1046,   1759,  -4910,  -6113,   4296,   4927,  -7007,   7631,  -3470,   4606,   2769,   9321,   4134,   1783,   1030,  -6962,  -5328,   7814,  10823,   5232,  -2832,  -7982,  -3236,  12211,   5683,   5930,   -693,   4478,  -4958,   2549,  -2865,  -3762,   3079,   -712,   7867,  -3352,  -9884,  -4956,    365,   7726,  -2777,   1582,   -732,  -6319,   4560,   4599,   6324,   2964,   -399,  -1155,   5948,   3290,    192,  -4645,  -5484,  -3849,   6002,   2498,   9872,  -2273,    848,  -4944,   1523,  -1610,  -5271,  -5154,  -8192,  -4630,   8349,  -2497,   7840,   6355,  -6780,    214,  -3909,    904,  -4924,   3836,   6795,   1782,   3917,  -3402,   5332,   4103,  -4017,   4116,  -3810,   5474,    104,   4794,    538,   6518,  -9301,  -2085,    611,   3424,   4086,  -4152,   9513,   6704,  -5880,  -2412,   3118,   9948,  -4369, -10000,  -3958,   4109,  -3577,   1320,  -2916,   7940,  -1464,   3832,   -886,   4225,   -835,  -6545,  -3501,  -5084,  -1222,  -5820,   8824,   5644,  -3612,   1243,   3440,   6548,  -8067,  -5636,   4515,   4289,   1140,  -7382,   2784,  -1583,   -268,  -7618,   5500,  -3728,   -660,   1898,   -699,   -604,  -2684,  -5151,    414,  -5839,   1305,   5374,   8821,   5307,   2323,   2358,  -7044,   3021,   7938,  -3538,  -7493,   6990,  -1398,   2036,  -5225,   4245,  -1840,  -1208,   2713,  -9920,   1139,  12862,  -3152,  -2059,   4948,  -6348,  -6383,   4690,   1718,   4856,   8550,  -6721,   5045,  -1288,   -335,  -7188,   -938,   2963,   4091,  -6600,    868,   6537,  -9194,  -6818,   -148,  -4635,   4783,  -2418,  -4452,   -905,   -128,   1391,   -292,   3203,  10167,  -3507,   5472,  -1537,   1749,  -5774,   6063,  -2613,   2719,   3695,   6847,   2594,  -3949,  -1444,  -7667,  -9112,  -2359,  -7950,   6766,   7310,   4557,   7120,  -5077,  -8257,  -8463,   -536,   9433,  -5857,  11286,   5390,   -439,    397,  -6362,   4548,   7516,  -3496,   7517,   6150,  -8902,  -8978,  -1014,    422,   9497,   4459,   6770,  -1891,  -8922,  -2569,  -1008,   1800,   2873,   7093, -13889,   4128,   5811,    456,   8526,  10751,  -7809,   1851,  -8835,   6783,  -6957,  -2622,   -139,  -4198,  -4987,  -7537,    170,   -354,  -2982,   -178,   2354,  -6466,   8182,   1354,   3722,   6549,  -8396,   6423,  -2137,   4784,  -6368,   1826,  -5256,   -287,   5737,  -2537,  -4843,  -2615,   -477,  -7148,   4263,    -92,  -7544,  -4447,   1645, -10360,   5468,  -3489,   8026,  12556,   3449,  -6124,  -9055,  -5480,   6609,   -742,  -4764,   9406,  -6107,   -126,  13100,   7402,   1409,   5730,  12532,  -1626,  -8055, -11702,   2929,   1916,  -2690,   7168,  10982,   7121,   5178,  -4935,  -5091,   5691,    864,  -4938,  -1819,   8494,  -4655,   4398,   2426,   1203,  -7112,   1430,   7314,  -1336,  -3748,   1238,    867,  -7070,   7674,  -5997,   1347,  -4398,   2300,  -6827,  -4113,   3276,  -3071,    -18,   3637,   5495, -10264,  -2500,  -3008, -10570,   5361,   2720,  -5767,    889,   1653,   4097,   3246,  -1058,  -1677,   3998,  -4605,    179,   3961,   4578,   7971,    469,  -6845,   1904,    133,    795,  -3735,  -2195,   7706,  -8867,    522,   3439,  -1093,   5942,   1293,   8624,    865,   6335,  -8360,  -3728,   2622,  -8054,  -4519,   -838,   9305,  -2333,    167,  -3407,   -621,   5626,  -4424,   -572,   -976,   2254,  -3614,   3211,   -617,  -5051,   1836,  10489,   5412,  -4977,  -5860,  -8120,  -6669,   3666,  -6417,   9355,  -4442,   1895,   2375,  -5777,   7579,   2640,   -518,   7640,  -3505,  -4030,  -7798,  -2191,  -6044,   2726,  -3367,   9971,   4982,   4520,  -2001,    901,  -3835, -12949,  -8490, -12609,  -6644,   2196,   6952,   6519,   1492,   5738,  -8561,  -8580,  -4716,   -518,  -3780,   6235,  -1197,    719,   3660,   6128,  -7349,   3788,   7763,  -4622,    564,   5247,  -5862,  -5053,  -9557,  -5937,    574,   1183,  -3561,  -6537,  -2971,   3565,   2387,  -1422,  -3027,  -5854,   3846,   3922,    983,   3969,   2695,  -2829,   3969,  -6743,  -3803,   7725,  -8479,    961,   8756,   1587,  -3296,  -4186,   3562,    312,  -5970,    144,   1663,   5364,   6620,   4600,
         -2570,   2825,   6113,  -3427,   1279,  10112,    953,  -1694,   2336,  -7565,   -271,   7191,   6579,  -1417,     23,   -687,   1205,   3982,  -3949,  -9042,  -9592, -10157,  -3877,   2510,  -3233,   1730,   -243,   2171,   -229,   1326,   7065,  -3740,  -5306,  -9317,  -1907,  -3843,   1154,   1584,  -3422,   4613, -16580,  -5218,    571,  16636,  10951, -11103,  10235,  -2675, -12366,  -8065,   4607,  11614,   1771,  -4900,   3087,  -6830,    270,   7007,  -9403,   5371,   -446,   5688,   7517,  -4949, -12855,   3577,  -3553,   8509,   1915,  10731,  -6014,  -7775,  -1321,  -4321,   6860,   3664,   7796,  -4622,  -3825,   3399,  15540,  -3576,  -5458, -11744,  -1887,   3269,   4504,   5090,   6998,   5491,  -7733,  -1010,  -8948,  -9640,   6907,   5040,   5908,   2776,   7061,  -3773,   -152,   -867,   4884,   3181,  18586,  -3288,    547, -10854,  -8731,    990,   2126,   6011,  12630,  -5955,  -3379,  -6729,  -1932,  -4951,   4276,   -452,  -8043,  -3704,   6115,  -3457,   7200,  -2193,  -7259,   3402,  -2571,   4422,   4248,   3144,  11803,  -1386,   -136,    203,   9148,   5175,  -5381,   3651,   1931,   1369,  -1181,  -6176,   5829,   1198,   4380,  -5430,   5481,   -111,  -5087,  -5963,  -2915,  10366,  -3193,  -2783,    484,   7573,   2895,    -44,   2989,   4811,  -2166, -10865,   -838,   6812,  -5194,   4887,   5783, -12928,  -7597,  -6507,   1213,   3232,  11781,   5032,   5548,  -2672,   1207,   2525,   2863, -10953,   5898,  -2850,   -442,  10077,  -3815,   4482,  10330,   -487, -13905,  -5166,   -849,   -118,  -5547, -13713,   2430,  -1159,  -5164,  -4820,   5653,  -1940,   4106,   -506,   5023,  -5804,   2672,  -7959,   5219,   1368,  -8558,   7993,   8544,  -5730,  -6501,  -1124,   2759,  -3277,   2826,  -5838,   1026,  -5272,   1443,   5820,  -4360,   9153,   -569,  -5478,  -7007,    479,   1234,  -1613,   3392, -13606,   2734,   3990,   8273, -12557,  -1002,    -26,   5899,  -1332,   4059,  -1940,   5826,   1831,   9791,   5775,   7469,   8877,   4260,   -664,   4762,   -964,  -3484,   4288,  -5953,  -4870,   1132,   -332,  -4163,  -1535,   7132,   6372,   2243,   8519,   6852,   -375,   7556,   5658,   5419,  -6450,  -7971,  -3895,  -5872,   -184,  11818,   1995,   -192,   6730,   4019,  -5462,   5139,   8343,   3690,   6903,   8315,   5616,  -7095,  -1083,  -1425,   8275,   -970,  -3697,  -3554,   2762,    -21,   -999,   2706,  -1622,  -5335,  -6399,   -746,  -4211,   5021,  -7242,  -6760,  -1016,   4093,   5222,  -3389,  -8456,  -1048,  -6441,   1567,   8074,  11788,  -6138,   -476,   2181,  -5631,  -9694,  -2959,   3337,  -8402,  -8400,  11381,  -5327,   1713,  -1837,  -6225,   1168,  -7392,   5191,    343,  -7408,   3018,     77,   5808,  -5712,  -2083,  -4680,   3747,   4425,  -4733,   2639,   1686,  -3189,   2219,  -7773,   7909,  -3933,  -1536,  -4188,   3900,  -1854,  -7793,  -4673,  -1323,   3743,   3519,   4356,  -1057,   3012,  -8151,  -9579,  -3020,  -2088,  -4031,   5290,  -6461,   7683,   8791,  -3823,   3658,  -5268,   6410,  -1664,   -218,  -5301,   9436,   6954,  -8598,   2870,   -118,   4874,   5353,   3678,    679,  11262,   3473,  -2726,  -6294,   3005,   3566,   2843,  -4833,   1837,  -1612,  -5228,   4818,   7933,   2467,   7401,  -8372,   4957,  -9952,  -1558,   9720,   2448,   1058,   6393,  -8180,  -3946,   7279,  -4782,   4750,   2902,  -3792,  -6012,   7959,  -4064,   5527,   6008,  -8305,  -2492,  -9756,  17000,   1673,  -9036,  -7267,  -4142,    272,  -4398,   2165,  10526,   8385,  -7647,   1237,   6581,   7546,   9907,   4794,   6610,   1297,    359,  -2548,  -4382,   2312,  -9033,   3880,  -7441,   4604,   2162,   4830,   7498,  -9768,  -3766,  -4468,  -7137,  -1983,   7835,   4982,  -1678,   7968,   2170,   -764,  -4978, -13980,  -7520,   2896,  -5388,  -1818,  -4723,   6444,  -3656,    261,   1179,   5190,  -7277,  -1723,  -4933,   5848,   3037,   6650,  -4742,  -8390,  -2638,   3842,    248,  -1851, -12358, -13533, -13736,  -5920,  -4018,  11713,   8245,   5930,  -5756, -17218,  -5326,  -3370,  -7608,   6845,  -3117,  -6286,   3067,  -4703,  -1040,   -973,   4945,
         -7296,  11679,   6327,   2524,   2438,   5716,  -7938,   6436,   6294,  -2675,   1000,   5201,  -5279,  -4902,   3330,   1821,   7284,   5501,  -5227, -10933,  -3011,  -5116,  -3476,   -706,   3936,  -9383,   -374,  -9919,  -7043,   4697,   7288,   1796,   5091,   2193,   6359,  -8757,   6052,   3278,  -5263,   2351,   8891,  -9717,  -7095,  -5503,   -659,   -170,  -2248,  -6451,   8693,   8411,  -7872,  -5672,    693,   3812,  -5482,   6262,   2344,  16950,   4295,   5400,  -3012,   8875, -12588,   4691,   -323,    809,   3372,   4658,  11553,   5946,   3993,   2759,  -2099,  -3829,   2420,   7122,  -2216,   5344,  -4282,   2631,   3831,   9258,   1273,   -689,   3674,   6297,  -2698,    217,  -3366,  -4532,   4500,  -4194,  -5035,  -3475,   6921,   4298,    149,  -5606,  -4261,  -4203,  -3884,  -5352,   6842,  -6633,  -2332,  -9468,   -835,   8655,   2382, -13303,   6024,  -8210,   1459,    -59,   5600,   1561,   1195,   2998,    -39,  -1633,   -854,   8366,  -2059,  -1685,  -6260,  -3671,  -6302,   1742,  -2430,  -3553,  -8358,   4710,  12667,  -3709,   2834,   5104,   3654,  -6406,  -4397,  -1282,   1545,   4022,   5516,   3565,    853,  10138,   6012,   2265,  -1203,   2280,  -9141,   1591,  -8842,  -7659,   2563,   9776,  -5842,  -9069,   2208,  -1669,    864,   -643,   3998,   5943,   -816,  -6695,   1274,   6681,   3852,  -5739,   2113,  12302,   8139, -10124,   1918,   4015,   5013,   -466,   4481,  -1998,  -4292,   1542,    -43,   6545,  -3958,   4873,  -9156,  -4668,    219,  -6156,   2258,   3764,   2287,  -7566,   7219,   2333,   6320, -15071,   1272,   4951,  -3166,   4494,   -773,  -2781,  -1799,   6661,  -1018,   -525,   -801,   1816,  -4400,   4013,   1442,    148,   5653,   5528,   5792,  -5718,  -6352,  -2657,  -5079,   1018,  -5961,  -3653,   -654,   4707,   4227,  -2253,  -3180,   1783,  -3305,  -7477,  -3732,   3254,   -698,  -2233,   2743,  -8282,   9499,  -4628,  -3829,   8431,  -3020,   4007,   5800,    530,   5657,  -5848,   1347,   4050,   2768,  -4632,   9051,   3493,  -9453,   -362,  -8444,   5776,  -5710,   -715,   5398,  11356,   1441,   1378,   -712,  -5839,  -3496,  -2993,   -206,   1554,   4003,  -7338,   8895,   3492,   1105,   5779,   4528,   3121,  -3065,     93,    819,  -6295,  -8180,  -2520,  -6997,    371,   1135,  -4839,   5609,   1816,    151,  -4135,  -9589,   1147,  -2612,   5823, -12318,   2997,  -8762,  17817,  14729,  -7873,   4343,   4632,  -8029,  -6116,  -4065,    355,   8799,   7504,   7621,   -958,  -1475,  -8428,   1311,   7525,   3706,   2196,   -534,   1590,   4999,   2885,   5972, -10746,  10636,   5501,   6662,  -2284,     86,   1256,  -1757,   -466,  -2442,  -1203,  -6854,  -7393,   7246,   3364,   6271,  -1545,  -7621,  -3785,   8179,   5039,   9589,  -1159,  -7450,    815,   -681,  -8342,  10139,   3082,  -3525,   5451,   5568,    904,  -2703,  -6218,  -3141,   6563,  16997,   8582,  -1501,  -5854,  -6329,   2934,  -1580,  -1940,   7684,  -8990,   -982,   1427,   -731,  -7451,   2343,  -7802,   6034,   -112,   5209,  -4527,  -3478,    943,   3058,  -2947,   1149,     -1,  -4112,   9757,     51,   9012,  -9256,  -1332,    773,  -4426,   5483,  -5180,   -123,  -7851,    -65,  -2429,   5831,  -1573,   4386,   -480,  -4457,  -7464,  -2472,   1648,  -3259,  -2904,  -2990,    573,   2402,   -780,  -4515,   1678,   5733,  -4450,   3817,  -5037,   7027,    581,   5184,  -4512,  -6712,   -187,  -3930,   4247,   4101,  -4879,  -5207,  -5800,  -3863,  -6188,   4047,   5580,   -574,  -5644,   2092,   5184,   3630,   3484,  -1084,  12497,  11742,   8629,  -4801,   -152,  -6632,   4686,  -5211, -12090,  -6571,   2185,  -7668,  -7053,  -1901,   7455,    -37,  -2013,    396,   -670,   4998,   5337,  -1914,   6016,  -4487,  -4188,  -5503,   8372,   2221,  -4940,    -64,  -3991,   4809,  -2447,   6227,  -6974,   1836,  -6069,    165,   6263,   -348,   1750,  -3541,  -2369,   -476,   4808,   1482,   5914,  -6236,  -5147,   7873,  -8355,   7362,  -1112,   4048,   9997,   -975,  -7216,   6200,   4140,  -1073,  -8232,  -3175,   2748,   6152, -11759,   5808,  -4837,   5207,   6684,
         -6713,   5985,  -8315,   7236,  -2361,  -9917,  -1130,  -8252,   2168,   5634,   3476,  -1903,   -184,    284,  -1262,   5896,  -6771,   8516,  -4241,  11017,   1628,   4367,   3554,   5013,   7244,  -2129,  -1191,  -5462,   5461,  -3178,   2598,  -7695,   1993,  -3890,  -2278,  -1354,   5717,   6795,  -4813,   2073,   -474,   9071,  -5987,   5493,  10894,  -8965,  -6695,  -1791,    913,  -1232,  -4250,   8849,  11520,  -2745, -10317,  -5156,   3468,   7835,  -6236,   9447,   3500,    601,  -3845,  -1585,  -8185,  -6136,  -1396,  -8310,  -2352, -13904,   6281,  -8173,   3702,   -909,  -6428,   5087,    318,   1082,   3308,  -5058,   4898,   -944,   5599,  -5597,  -4293,   7767,  -7970,   -305,    304,  -7365,   6890,    717,    645,    558,  -1823,  -3171,  -4966,  -4419,   4664,    530,   7333,   6239,  -4328,   7159,   8833,   3707,  -6103,   2617,  -8364,  -9570,  -3073,   -867,  -7230,   1370,   -954,   3390,   2791,   3617,   4088,   5572,  -6889,   1503,  -7045,   2024,   5212,  -5994,  -3813,   4208, -11425,  -7814,  -7162,   2966,    225,   9480,  -7740,   2618,   6643,   6683,  -7715,  -6279,   5259,   8374,  -1905,   2025,  12931,   6363,  -3309,   1965,  -9476,  -6444,   3992,  -2684,   1390,   3970,  -2757,  -8783,   3747,  -5887,   1750,   7358,   -400,   -771,   2206,  -1931,  -8810,   -936,  -2974,   2922,  -4566,   1445,  -9446,   9438,  10699,  -2446,   2266,    803,   2638,  -2433,  -3989,   5317,  -5631,  -3307,   1325,   -781,  -8284,   2914,   5198,   3136,    342,   5248,   2900,  -3959,   9074,  -7739,  -7126,  -7054,   8279,  -3109,  10250,  -4755,  -6117,   2404,  -5120,    211,   3360,  -8091,   9728,  -2407,   4859,  -3842,  -7816,   3215,  -6226,   5743,    835,  -2903,  -5254,  -3326,  -8472,   3224,  -6964,    -71,   5687,  -7429,   5081,   -159,   5033,  -1443,    982,   5944,   -138,  -4963,   6666,  -5401,  -3585,  -7780,   4796,   4727,   2995,  -1130,   6817,  -1374,   2367,  -3904,  -2459,   2068,   4655,   1295,  -2800,    429,  -7778,  -6526,   7143,  -5940,   4063,  -5853, -11310,   1980,  -6509,   5270,   4306,   4745,   3663,   5154,  -4967,   3167,  -7236,   5229,   7184,  -5787,   7414,   3424,   6404,  -4530,  -7811,   6463,   2625,    392,   1172,   5886,  -9753,   4489,  -3247,   2469,  -5181,  -1812,    591,  -2059,  -5777,   2601,    619,  -1869,   6154,  -5861,  -1263,    204,  -6212,  -2634,  -9448,   2997,  -1901,  -3305,   3735,  -8319,   7059,  -5841,  -2308,   3191,  -1639,   6008,  -1067,   6123,  -2175,   -466,  -7489,   1242,   6071,   1691,  -2533,  -4220,  13506,  -2518,    278, -17828,  -2126,  -7010,   6380,   1374,  -1125,   2108,   3208,  -5827,    826,  -8091,   2793,  -1834,   3873,   4137,    235,   8939,   7461,   8657,   4127,   6257,  -3727,   6188,  -6012,  -5966,    200,   -856,  -5506,  -4820,   1116,   7241,  -4881,  -7810,   2246,   4501,   6597,   2414,   6043,   4127,    -52,   3322,   1707,   5740,  -1456,   2412,  -5553,   3312,   3290,   3484,  -7452,  -2739,   5398,  -3745,  10272,   2122,  -8274,  -2225,   -224,   2773,    804,   -437,   3892,   8578,   3135,  -3850,  10434,  -6839, -11285,   2727,   1820,  -4088,    958,  -4949,  -3688,   1934,   6153,   6788,  -1824,  -5266,  -4459,   4783,  -1610,   4065,  -7535,    761,   4159,  -4252,   5454,   5406,   5091,  -4376,  -3053,   7006,  -1382,   2334,  -2591,   -796,   9991,   5035,  -6790,  -3188,  -7252,  -8797,   4632,    924,   2785,    703,     53,   6109,   4137,   5631,  -7692,   6550,  -4637,   5542,   1356,  -8396,     81,   -778,   2191,  10027,  -2474,   2325,   1330,   2340,  -1665,  10404,  -3920,   8810,   1713,  -3500,  -7423,  -3988,   1145,   -594,     -3,  -2986,   5200,   7611,  -2068,   4816,   7423,  -5562,   4558,  -3540,   4025,   5786,    349,  -2869,  -1928,   4358,  -2103,  -2478,  -1414,   3166,   8190,   2399,  -8233,   6568,  -4471,   2358,  -5257,   1457,   1680,  -7175,   -565,  -3989,   3156,   3965,   1388,   4148,   5115,  -1879,   5068,  -4773,   6176,  -3394,   7460,  -2750,  -3414,  -7236,   5097,  -4460,  -6234,   6813,   7808,  -4000,  -8358,  -4882,
        -13387,   8287,   4250,   9170,   2483,  10417,  -3371,   -394,   3337,   2789,  -5273,   -713,   5660,   9043,   5105,  -5267,   5796,   5171,  -4817,  -2428,  -2672,   9393,  -7179,  -6931,   8220,   2253,    391,  -3359,  -8335,   5398,  -4570,   -220,   7823,  -4340,  -3226,  -6471,   1253,   2932,   8155,  -4815,   7050,   8663,   3148,   6474,   1283,   1757,   4192,   6397, -12949,  -3970,  -4319,   8477,  18305,   6193, -10050,  -8196, -11284,   -741,  -8385,   6909,   8121,  -1539,  -2100,  -6976,   6420,   8321,   3417, -11833,   -956,   1419, -11007,   3652,   3612,   5765,  -3547,   4758,   5425,   7731,   1406,   5118,  -2250,   4280,   5348,   2758,  15143,   9199,   3151,    991,   1695,   5002,    442,   5143,    -55,  -5340,   3919,  -5784,   -663,   -965,    457,  -9786,   4652,   8959,  -3302,   -274,   4835,   2394,   4652,  -2153,  12299,   7092,  -1016,   6331,  -9304,   7058,  -2470,  10225,   -949,  -5463,   4243,   5272,   1843,   1500,  -1903,  -8351,  -4258,   -886,    385,    239,   1146,  -3695,    338,  10779,   5700,  -2851,   5578,  -6203,  -2329,  -4311,   4384,   -729,  -4137,   2478,   5760,   5989, -11451,   5280,   3968,  11564,   4835,   -471,  -8245,  -5152,  -3845,  -8334,   2772,  -1925,   8930,   7794,   3497,   5894,    321,  -7972,  -4051,  13694,   8961,   8967,   -376,   2070,   8336,  -2085,  -6313,   1930,   3462,   -494,  -1655,   5207,   2934,   2972,  -6946,   1274,    639,   -351,  -2979,   1512, -11486,   2240,  -5343,   6045,  11862,   8471,  -1036,  -6665,  10218,    161,   5575,  -2160,  -3419,  -7990,   7181,   5806,   -849,   5081,    740,   5333,   4621,   -847,    965,  -1926,   2571,   -267,   6945,  11577,  10608,  10145,  -6465,   -642,   7314,  -3886,   2837,  -1402,  -4148,   7066,   7734,  -6212,   8651,  -4257,  -1472,  -6574,   4962,   7743,   2685,  -5080,  -3380,   4412,  -7731,   2237,  -2236,   1638,  -5725,   1364,   6529,   1607,  -2910,   9809,  10634,   9262,  -5126,   5584,  -1039,   2732,  -1767,  -3897,     65,  -4334,  -1739,   6659,   6701,   4839,   2208,  -9006,   1458,   5893,  -7349,   4555,   -515,   2511,  -2423,  -1322,   6693,  10975,  -9491,   2473,   -205,   -965,   1509,   6695,   8485,   6623,   1186,   2402,  -6962,   1457,   7061,   3246,  -2884,    161,   4699,   1702,  -6517,   -323,   2059,   4360,  -3101,   -314,  -3122,   3074,  -2062,  -6235,   4196,   3744,   6502,   1575,   6196,  -3309,  -7422,   5540,  -5025,  -3078,  11971,   8732,     60,   3048,  -5435,   4455,   3154,   7537,   1228,    861,   1035,   4792,  -3644,   3259,   5671,  -8062,   1814,  -2653,  11363,  -1074,  -2767,  -2182,  -7217,   6872,   2587,  -5579,   6206,  -3667,  -2651,  -5724,  -4871,  -3552,  -6637,   -461,   2758,  -4069,   6879,   5341,   -570,  -5518,   4862,   5511,   2407,    158,  -6340,  -5971,   2202,  -7445,  -7400,   1634,   2291,  -8250,  -3138,   2860,  -1594,  -8326,  -6566,   4681,   5227,  -1932,   6110,  -4036,   3690,  -1601,   5572,  -3792,   5179,  -8551,  -4360,  -2686,  -5423,  -3783,   1425,   4134,  -5040,  -5802,   1906,  -2164,  -1637,   7318,  -7891,  -9048,  -6031,  -6455,  -2269,   6965,   1738,    351,  -2859,   5087,   1052,   6197,   3948,  -8848,  -3365,   2569,   5162,   1478,   3545,  -4278,  10183,  11130,   1226,   7060,   3020,   5843,   -257,   6655,  -4226,   1290,  -5684,   8774,   6578,   3861,   5086,   6113,   1031,   8533,  -4327,    513,   -432,  -3779,   -914,  -7642,  -3026,   8068,   8150,   1994,   4368,   -878,  10348,  -7399,   2555,   2652,   9745,  -2422,    460,  -4053,   8007,  -9723,   6834,   5140,   1368,   -549,  -6736,  -3117,   5024,  -2803,  13723,   1208,    222,  11018,   1077, -11358, -10787,  -6123,   5048,    706,   6609,   8592,  -7314,   8792,  -5005,   9153,  10729,  10593,    444,  10666,  -1874,   5241,  -4741,    309,  -1994,   9566,  -1210,   8183,  -8196,  -2959, -10822,  -2442,  -2204,   6243, -12550,   1180,  -3514,   2337,    471,   2965,   -834,   6602,   7352,  -3285,  -1290,   2877,  10978,  -9168,  10060,      5,   7712,   2766,  -3374,    -25,  -4995,    544,
