#include "birdnet_default_int16_coefficient.hpp"
using namespace dl;

namespace birdnet_default_int16_coefficient
{
    const static __attribute__((aligned(16))) int16_t statefulpartitionedcall_sequential_conv2d_biasadd_filter_element[] = {
          8432,  20594,  14361,  21676, -12102, -24553,   5438,  12315,   2764,   7519,  -4756, -16463,  -5603,  22274, -11191,  -9557, -12382,  13829,   4283, -18131,    210,  11241, -19471, -14430,  17100,  15146,   2485,   6826,   3444, -20021, -17929,  17853,  -6895,    -30,   3012, -24514,   -296,  27219,  19140,  11414,   9397,   7002, -17072,  -9407, -11925,   7810,  18183,  -4753,  -1213,  18819, -10419,   5861,  -6069, -21376,   4766,   3507, -26058,  -3317,  11897,  -1509,  15882,  -5479,  -4955,  13843,  11860, -12999,  -9493,   6956,   4748,  13019,   4876,  12660,   5360, -18182,   9875,  17576,  -6838, -29585,  -3951, -18366,  -6644,   1459,   4182,    494,     17,   9659,  -5599,  -5542,  -1621, -12567,  13068,  13380,   3763,  -6214, -12855, -11022,  -6249,   9392,   8070,  20296,   2465, -14342, -16110,  11029,  13534, -12709, -16305, -14684, -14984,  22532,  -5968,  -2216, -18048, -11957,   8522, -12093,  -2647,  11080, -13020,  16910, -10866,  11672,   8479,  -5718,   3933,    658,      7,  12871, -12552,   -772,  17971,  -4356, -10565, -17243,   9267, -25550, -20058,  -6852, -18915,  -3384,  10817, -20429, -13279,  -1090,  11917,  17659,   1818, -10182,  23846, -16410,  13292,  23448,  10157,  16652,  17801, -14005, -27710, -15787,   2605,   3694,  16098,  -7875, -20343, -16524,   2834,   5252,  12578,  26885,  -6933,  -5017, -16803,    701,  -1169, -12669, -10758,  -3139,   4528,   3083,   7236,  -8026,   -354,  16035, -12921, -30771, -20022, -22893,  -9253, -17436, -13186,  -2955,  17759,   8979,  10182, -14535, -11785,   8096,    130,  12431,  -6615,  11766,   -874,    973,  22372,  -9307,  -7015,  16901,  19483, -27212,  -4560,  11751,  16725,  -8475,   7089, -21293,  -5703,   6673,   4790,   3129, -12563,   6100,  22951,   1958, -21633,  13733,   5921, -21685,   6457,   4732,   7456, -17995,   7118, -28883,  13937, -16397,  -8013, -13942, -18696,   -876,  16062,  10466};

    const static Filter<int16_t> statefulpartitionedcall_sequential_conv2d_biasadd_filter(statefulpartitionedcall_sequential_conv2d_biasadd_filter_element, -17, {5, 3, 1, 16}, {1, 1});
    const Filter<int16_t> *get_statefulpartitionedcall_sequential_conv2d_biasadd_filter()
    {
    	return &statefulpartitionedcall_sequential_conv2d_biasadd_filter;
    }

    const static __attribute__((aligned(16))) int16_t statefulpartitionedcall_sequential_conv2d_biasadd_bias_element[] = {
            61,   1600,  -2390,   1474,    -94,    798,   -119,   -965,     98,   2578,    217,      0,    983,    219,   -903,   1572};

    const static Bias<int16_t> statefulpartitionedcall_sequential_conv2d_biasadd_bias(statefulpartitionedcall_sequential_conv2d_biasadd_bias_element, -15, {16,});
    const Bias<int16_t> *get_statefulpartitionedcall_sequential_conv2d_biasadd_bias()
    {
    	return &statefulpartitionedcall_sequential_conv2d_biasadd_bias;
    }

    const static Activation<int16_t> statefulpartitionedcall_sequential_conv2d_biasadd_activation(ReLU);
    const Activation<int16_t> *get_statefulpartitionedcall_sequential_conv2d_biasadd_activation()
    {
    	return &statefulpartitionedcall_sequential_conv2d_biasadd_activation;
    }

    const static __attribute__((aligned(16))) int16_t statefulpartitionedcall_sequential_conv2d_1_biasadd_filter_element[] = {
         -8652,  -8405,  -5161,  10972,   6986,  -2524,   3332,   8400,  -1178, -10620,   6925,   4922,   8160,   1094,   8628,  -8225,   2626,   3990,  -2937,   5105,  -4976,  -8452,  10911,  10092,  -4128, -10052,   7473,   4999,   7039,   2167,   5451,  -1226,   5636,  -9063,   2625,   1229,  -4585,  -9280,   3269,  -8762,  -1731,   2366, -12547,  11898,  -6201,   8929, -11624,  -7884,   6025,   3049,   6234,   7711,  -4119,   2461,   8034,  -1763,  -8834,   4267,   5750,  -6937,   5740,  -2368,  -2753,   9025,  -4310,  -2347,  -8731,   7541,  -3407,   5581,  -1654,   -701, -11118,  -4544,   -198,  12847,   -727,  15697,  -4866,   5977, -11878,  -9164,   4378,   8936,   6495,   7107, -12585, -21988,   5249,  -7853,   5036,   9315,  -2067,   5289,    746,   1710,   2154,   5923,  -6342,   5400,   8492,  -2022,  -1902,   7822,  -5148,  -7885,   5351,   -835,   -909,   6300,   5605,   6532,   3475,  -9302,   4125,   5045, -13155,  -3318,  -1450,   9274,  15883,   2211,  -1300,  -1215,  18713,  -5596,   7453,   5083,  -4423,  -7345,   5136,  11375,  -6788,   3586,   3783,  -1976,  -1695,  -5818,   5174,  -4327,  -7148,  10414,  -3587,  -6786,   2042,   4309,   7286,  -2278,  -4432,  -3489,   4791,   2846, -14624,   3991,  -5179,   7643, -10522,   1431,   4782, -14667,   -762,   7282,  -1698,   3485,  -3090,  -6390,   9142,  -9038,  12333,    298,   8545,  -5566,   8458,  -6647,  -5657,  26611,  -2985,  -8560,   -435,   8236,  -7020,   6912,   3542,   1790,   1829,  -7835,   8093,  -3511,  -5256,   9832,  -5832,    681,   7870, -10662,  -4590,    216,  -2549,   3675,   1912,  -8237,  -5371,  -4271,   1650,   8024,   2061,   9588, -10731,   5143,  14828,  -1275,  -1245,  -2338, -13794,  -8881, -11276,  13990,  -9088,   5553,   3431,  -2927,    387,  -6793,  -3833,   3774,  -5343,  -4463,  -5779,   8123,   -289,   -475,     66,  -5718,   8422,  -6935,  -2578,  -3604,  -2373,  -6957,   3419,  -3313,  10659,  -6792,  -1909, -11232,   2827,  -9930,   6642,   5927, -18540,  -1878,   -688,  20116,   5202,    914,   9557, -17775,   9879,  -7434,   6113,   5224,   1107,  -8745,  -3033,  10125,    221,  -8263,  -1941,  -4172,  -5410,  -2941,  -3425,  -5206,   8259,   3404,   6902, -11984,  -1973,  -7937,  -8963,   3542,   -674,  -1105,   1079,  -6420, -11014,  10123,  -8229,   1350,   1057,   9076,   4435,  -1659,  -8849,  -6022,  -5039,   4750,  -3576,   1059,  -2475,   6918,   9301,  -8530,   8936,  -8028,  -6863,  -5559,  -1024,  -7925,  -4313,  -1803,   3917,  -4927,  -7371,   1423,    585,  -9241,   3102,  -5036,   2673,    852,   3894,  -2800,  -5397,  -8452,   4601, -10222,   -558,   6448,   8940,    430,    531, -12176,  -6103,   9469,  -8599,  10660,  -5186,   2699,  11313,  15229,  16087,   3763,  14603,   7752,  -4770,   1929,   4872,   6258,   5623,   1423,  -1423,    793,   2616,  -6598,   5195, -13319,  -2217,    481,   1353,   9296,  11354,  -3657,   3259, -11624,   6544,   9392,   -588,   -388,   6400, -11253,  -6425,   -630,   8573,   7412,   5841,   6422,  -2146,   3862,  -4637,   3211, -10011,   5436,  -3344,  -9881,   4821,  -9229,   1594,   1390,   6880,  -5917,   -826,   4666,  -2763, -10142,   9387,  -5331,   7204,  -1814,   9758,   4983,   4110,   6407,   -283,   -164,   7881,  -7443,  -2553,  -4850,   7751,   2867,   6584,   1284,  -2161,  11377,   1139,  10437,  -8609,  -6817,     37,  -2951,   5943,   2839,   2168,  -1827,  -7086,  -5756,   2427,   5066, -12408,   8652, -21476, -10201,  -5582,   5456,   9441,   3186,  -3213,  -9379,  -8824,   2852,    175,   6688,   6405,   8996,  -9656,  -3695,  -2907,   4783,   3741,   6922,   3956,   7971,  -7295,   7530,   2135,   7173,  -5081,  -3005,  -1688,   5852,   2121,   6259,   3522,  -7084,  -7780,   1155, -12262,  24008,   3785,   3090,  -9241, -17089,  -6693,   1830,   2494,    247,  -6986,   7700,  -6333,  -7027,   8783, -11246,   7477,   4457,   2255,  -3317,   4443,   7537,    759,   4139,  -8354,   1274,    135,   7133,  -5669,   2421,   7584,  -4775,  -8212,  -1717, -12473,   1585,  -5449,   8346,  13624,  -7828,  15336,  -4645,   5067, -17961,   9522,  20731,
        -10373,   -284,   5829,   6460,  -7199,   2089,   1174, -10058,  -2312,    -98,   4681,   9243,   4587,  -5796,  -1307,  -2962,   1289,   6866,   3183,  10046,  -7503,   6911,  -4748,  -7551, -17071,  -4347,   2680,   -835,   4645,   5778,  -7962, -14882,  -8205,   9021,   4959,  -5750,  -2390,  -1624,  -3701,  -6393,  17997,  -7690,  13146, -11122,   1568, -14734,   5144,  16660,   5524,   1121,   2055,  -6429,   4254,  -3083,   8608,  -7561,    799,  -6131,   -816,   7191, -10132,  -6462,   4070,   1480,   4700,   5454,  -5426,    765,   5012,  11050,   6457,   6826,  -1694,   -934,  -1192,   2233,  -8115,   -786,  -2173,    265,  11830,  -4555,   -478, -10263, -11719,  -4097,  -5705,   5762,   6468,   2903,  -4338,   4781,    441,  -6862,  -5584,  -2748,  -4141,  -1786,    940,  -1999,   5272,  11326,  -7157,  -1256,  11206,  -3123,  10086,   -206,   2752,  -6837,   2354,  -8770,    122,    552,  -2400,  -8395,  -1635, -12268,   2795,  -2919, -15215,   8578,  -5559,  14146,   9802,  -5432,    -50,  -8094,   9700,   5888,   9583,  -6295,   -248,   6527,   7335,    607,   1783,   6263,  -2305, -10131,   3198,   3635,  -4100,  -6201,   1419,  -8494,   2958,   1448,  -8983,   4160,  -7153,   7121,  11902,  -9704,  -5402,   1367,    394,   8179,  -6765,  13045,  -7253,   8241,    178,   1480,  -4605,   5562,   4082,  -7836, -12616,  -9142,  -8975,   9434,   3943,  -4226,  22483,  -8009,  -6694,   1757,  -8660,   8406,  -6756,  -4925,    878,   4529,   9852,   2822,    312,  -9110,   5089,   7127,  -2048,  -7753,  -4306,  -9751,   5772,   1938,   3455,   4177,   5068,    342,  10818,  -7028,   5186,   -494,  -7874,  -5292, -14166,  -2282,   8416,    549,   7545,   1336,   7213,   1324,  22725,   6520,   9277,  -7544,   6069,   3578,   7971,   3331,   2255,  -8057,   2751,  -3017,  -6513,   -371,  -4944,  -3619, -12364,  -2616,  11691,    100,  -2225,  -2078,   2942,  -7645,  -7953,   -109,    974,   -915,    835,   4616,  -2647,   5833,  -3968,   1909,  -2627,   8161,  -4075,   6821,  -1095,   4116, -14113,  -6422,   2260,    -57,  -7892,   3546,  -8364,   6505,   1364,  -5758,   2713,  -7312,   6293,  -2863,   -822,   6133,  -4476,   6774,   5897,   6276,   1949,   4829,  -8590,   1769,  -6456,  10489,   2678,   5095,   4954,  11488,   5936,  -7625,   5335,   8835,  -4418,   -785,  -2390,   7017,   6013,  -2906,  -6674,  -4093, -12158,   1573, -12352,    314,   2372,  -2854,  -3620,  -6397,  -1796,  -3587,   6202,  -6588,  -8287,   2776,  -9016,   7412,  -1054,   -594,  -1285,   2838,   3518,   -856,   5064,   5586, -11263,   1923,   4614,   4120,  -3380,   9490,    461,   6655,   2629,   1244,   9270,   2725,   3282,   8580,   -771,  11607, -15383,  -5329,   2237,  -1213,  -3944,  -1571,   4604, -22885,   8125,   6750,   5362,    822,   -329,  -6129,  -1425,   4722,  -4402,  -3739,  -5892,   5838,   3850,  -3106,  11123,   3308,  12898,   6042,   7909,   -637,  -7381,   8038,  -8417,   7058,  -8650,   2277,   4942,   4130,   3431,   7555,   -771,   3517,  12719,  -9923,   4027,   9032,  10657,  -5385,  14631,   6916,   3496,  -8130,  -2303,  -3827,  -8885,  -5211,   2987,  -3352, -10522,   1631,  -5851,   1316,  -8912,   4035,  -5940,  -1770,  -9495,  -1964,  -4906,  -3977,    870,   2579,     15,  -8234, -18524,   2883,   -618,  -6487,   4888,  13803,  -5267,  -8987,   5990,  -9173,   6191,   3214,   1702,  -5600,  -7949,   7663,   7816,   5185,   7632,     54,   3529,    -82,   9997,  26667,   3921,  -9310,   3189,   7415,   6426,   -385,  -6643,   4798,  -5126,   5228,  -7091, -11019,  -5573,   1961,   1918,  -9301,  -7591,   3148,  -2279,   1749,   2697,  -3912, -10155,  -8475,  -5250, -10327,  -6687,  -1069,  -4087,   6684,  -6909,   4861,    753,   4887,  -6848,  21262, -10106,  -4768, -13108,  11126,  -5792,   2960,  -9177,  -8717,   7898,  -9457,   4549,  -3563, -15255,   6672, -10505,  -5186, -10892,   6636,   2240,   1181,   -830,  -6677,   5764, -10279,  -4710,    388,  -3909,   3379,   6248,  -4996,   8060,  -3814,   4465,   1617,   3690,   -386, -16279,   8817,  -9323, -10929,   -103,    791,  -3563, -19120,
         -3236,   1579,    789,   3755,   1312,  -2258,   3859,  -2351,   3463,   3030,  -6105,  -3547,    199,  -1853,  -6138,  -6086,  11106,   4303,  -2500,  -4808,  -3262,   4147,  -9297,   1887,  14596, -10451,  -3868,  15624,  -6247,  -1710, -11845,   7094,  -3739,  -6285,   4641,   7082,   8235, -10407,    881,  -5905,  -9770,  -9591,  -6278, -15861,  17688,  -1240,   7025,   6788,  -2237,   6719,  -2342,  -3247,   6943,   8356,  -8089,   7960,  -7295,   3546,  -5394,  -5779,  -6918,  -3275,   2754,   3889,   3319,   6357,  -2879,   4402,  -1761,   8805,   2246,   3513,   4044,  -3434,  -8962,   3192,  -5444,   3060, -12661,  10181,   2447,   1767,  -5018, -16125,   6308, -13104,   8227,   5052,   6134,   9314,  -1027,   9427,   3433,  -4813,   4803,   7003,   3788,   -954,  -2099,   1669,   3385,  -8653, -10200,  -2805,   7591,   9078,   4234,   8265,   3501,   8377,  -6499,   1780,  -6979,   6778,  -6797,    275,   8381,  -1577,   2974,   7531,   6406,  -6301,  -7706,  15846, -12636,   4227, -12253,  -3503,  -7543,  -8010,  -5624,   -982,   3827,  -8796,   4862,   8460,   4252,   2827,   6932,   4496,   4136,   8299,  -8621,   9217,  -2927,  -1080,   7667,   4235,   7989,  -5736,   2242,  11435,   3058,  -7842,   -812,  -5678,  -2601,   1498,   3481,  -1960,   5086,   1844,   -451,  -7763,  -8096,  -9495,  -2551,   6893,  -5684,  -5825,  -5154,   6718, -15527,  -7799,   4665, -12891,   9294,   7000,   1123,  -6939,    395,  -3477,  -6534,  -6921,   6791,  -6765,   7372,   5068,   8357,   7222,   3355,    491,  -7794,  -5941,   8964, -11483,  -6933,  -3657,  -6161,   5256,  10655,   1752,  -1427,   3624,  -1870,  -8402,   -648,   -484,  -6130,   3468, -17799,  15390, -19751, -10282,  22339,   1891,  -7451,  -2536,     91,  -4637,  -5742,   4543,  -7024,  -7902,   1393,   6008,   4017, -12163,   8026,  -4723,   -748,   -296, -10218,     51,   5082,   5927,  -1762,  -1907,   4774,  -3349,  -8770,  -1736,  -8236,   9940,  -5615,  -1358,  11530,  11902,  15212,  -8379,  10068,   2950,  10886,  10862,  -1154,   3883,   2188,  -3890,  -3931,    624,  -6186,   -362,   8080,  -5643,  -8156,   3304,  -4383,  -5559,  -5573,   3620,   7007,   3663,  -1655,  -6515,   8843,  -9205,   6071,  -9053,   3946,   1590,  -3034,   4369,  -6177,    714, -15797,  -3877,   9158,  -6061,  -1079,  -6023,   -177,  -5900,  -6890,  -5783,  -4082,   5884,   3165,  -4072,   7809,  -1513,  21465,   7913,  14203,  -3737,   1411,  -8511,   -432,  -9411,  -3211,   2372,  -8163,   1701,  -8965, -10377,   5602,  -8549,  -7004,   9446,  -6117,  -2745,    538,  -4783,   4853,  -1898,   5673,  -4259,  -2391,   1384,  -2105,   3920,  10635,  -7422,   4699,  -9627,   8632,   9796,  -9115,  -5889,   1361,    607,   9437,  -9440,  19237,   8807,    377,   6960,   6372,  -3929,  -2342,  -2413,  -8533,   5069,  -7157,   1461, -10658,   6798,  -1159,  -1198,   -134,  -6081,   2059,   2672,   -798,   8927,  -8866,   4166,   1780,  -4270,  -6473,   3322,     99,   2024,  -2256,  -3835,  -4736,  -5846,  -1463,   4217,  -4554,   6211,   5903, -13287,   3871, -12170,   8956,   6301,   5928,   6196,  -3495,  -5774,  -3807,   5983,   4675,   5870,   -255, -11506,  -2746,  -9986,  -5084,   4874,  -8392,  -3838,   3979,   2587,   7594,   2087,   2537,  -2066,   5036,  -7314,    187,   4308,  -5885,  -2862,   2671,   5803,  -2489,   1972,   6808,  -7705,    -67,   4077,   3696,   8783,  -1598, -10028, -10213,  -4953,   5016,   5513,  12599, -16443,  -7852,  -7584,   8000,  -2808,  -2075,   8981,   1874,   -269,  -8363,   5765,   6340,   6026,  -6945,   8924,   5763,  -5202,  -6493,  -4445,  -4674,  -5971,  -7048,   3799,  -2617,   5300,   5800,   4187,   4050,    -26,   8753,   4262,   6367,  10422,  -4025,   7851,  -3254,  -4562,  15275,   7937,   1561,  -1309,  -6601,   1773,   6725,  -2024,  -8528,  -3014,   6551,  -6942,   2767,   4613,   9920,  -2004,   -494,   8236,  -8054,   2059,   9238,  -4315,   7204,  -6105,   -126,   5156,   9500,    614,   5274,   3288,   3105,   8272,   3007,  -6362,  -4636,  -3899,  -1919,   2558,   8904,  14414,  -8695,  -1976,   6041,  -5288,
          5509,   -183,   6145,   5370,   4970,   3500, -10350,   6036,   4280,   1046,   3785,  -1581,   2599,  -2326, -13064,   1782,   3044,  -7250,  -6515,   7168,    -42,   -995,  -8714,   6395,   8008,   3521,  10275, -10097,  10500,   7959,  -8923,    456,   2975,   1557,  -5756,  -2986,  -1456,    820,  -5051,   7922,  -5870,  -9009,   5619,  14464,  -1921, -17366,  14609,   2671,   2545,   2138,   8322,  -3039,  -4135,  -7057,  -2297,  -6308,   8011,   3005,    507,  -6757,   3785,   8591,  -4551,   7757,   5136,  -7805,  -7802, -11987,  -6839,  -1069,  -9257,  -1049,   5316, -11071,   5928,   2504,  -3564,  -4661,  -9712,  -7193,   2360,  -1017,   6242,  10846,  -8847, -17409,   4430, -10780,   6399,  -1267,  -1640,  -5068,  -3141,  -5580,   -627,   7500,   1636,  -1733,    857,  -4179,   1579,   3940, -15008,  -4206,   3575,  -1880,   3097,   6419,   -714,     34,  -3473,   4964,   -279,   7151,   1377,  11640,  -1960,  -5257,   5128,   3573,  11672,   1933,    317,  -6353,  16247,   4656,  -4065,   8787,  -8046, -10089,  -3151,     98,  -1279,    140,   5576,  -6427,  -5293,   1983,   2076,   4661,  -5427,  -8483,  -2288,   3097,  -4271,  -5439,   4936,   6773,   2893,   1656,   3051,  10480,   3107,   2817,  -7046,  11698, -12791,   -832,  15159,   1344,  -6472,   5929,   8557,   1473,   8063,   4759,    995,   7190,   4292,   2366,   6086,   -924,  18713,  20273,    189,   9200,  -4094,  -4990,   4391,  -3159,  -1705,   9402,  -2290,  -3380,   9321,  -9056,   -314,  -3034,  -1489,  -8514,   3898,  -5833,   3111,  -1080,  -8033,   3423,  -1543,    920,  -8012,   6973,   -560,  -5057,    954,  10843,  -9956, -10211,  13642,   8670,    -96,  -8078,   2805,  19649,   6822,   2548,  23115,   6853,  -1922,   2363,  -7722,   1369,  -7151,  -4148,  -1553,   7795,   2311,   5736,  -4513,  10932,   2494,   2155,  14496,   8210,   1048,  -8761,  -6850,   6288,  -2030,  -1319,   1328,   8257,  -7886,   4563,   2115,   6388,   5135,   5685,  -6652,  -6585,   4963,  -4357,   5554,  -4945,   8509, -19016,   3358,  -4105,   7048,  -4874,   6340,  -2027,  -1226,   6250,   2500,   4385,  -3114,   6553,   -428,  -6025,   6637,   7539,  -5617,   1108,  -1937,    825,  -2966,     30,   2031,  -6122,   5794,  -3963,  -4419,    992,  -3827,  15812,  -3675,  -3572,  18324,  -4335,   1677,   2104,   6337,   3205,  -6119,   5075,   1947,   1404,   6780,   4863,   4955,  -8286,   4362,   8564,  -3671,  -3508,  -3899,  -3518,  -7336,  -3776,  -4733,  -2834,   1877,  -3645,  -6084,  -5169,  -5650,  -3156,   -862,  -4930,   3594,   2378,   2493,  -8428,   1449,  -8038,  -2522,  -3720,  -1514,   8532,   -204,  -2361,   6123,  -7683,  12828,  -9179,  -5792,  -1918,  -7085,  -5241,  11125, -15796,  17821,   3037, -10550,   -805,  -3816,  -6277,  -6973,   1385,  -7439,   5203,   1577,   3197,   3916,  -8677,   3457,  12779,  -5563,   5219,   8555,   3260,  -4004,   5998,   8967,  -4436,  13234,   2460,   4881,  -4371,  -7296,  -3450,  -5249,  -5146,  -1059,   9049, -12028,  -3810,   1776,  -9988,   6018,  15711, -10029, -11230,  30445,  -1598,   5492,  -9882,   6737,  -6088,    114,   1662,   1463,  -4467,   6272,   5359,   8149,   2135,  -4442,   3391, -12756,  -1498,   5343,  -3673,   9253,   5915,  10665,  -3777,  -4155,  -5801,   5595,   5625, -13134,   -205,  14097,  -2558,   4211,   4735,   3881,  -2599,  -5769,  -3431,   2740,  -2541,   1865,   2106,  -9300,   6612,   -560,  12621, -12814, -10288,  10586,  -8917,  -1835,   6854,  -2032,   1310,  -9089,  -4745,   9078,   7598,   9708,   4237,  -1590,   7018,   3699,   5310, -10293,   7140,  -1590,   1341,   9893,   3089,   3633,   2724,  -4786,  -3351,   7950,   2231,   9330,  -2785,   4500,  -5814,   1448,   3864,  -7748,  -5076,   2007,   8538, -10698,  -6607,   2690, -13985,   9033,   7843,   -436,   1314,   2987,  -1445,   3295,  -8358,   9239,   4706,  -1852,   7693,   1019,   5043,   5731,   2565,  -9069,   6638,   6514,   -923,  -3586,   -666,   1282,   3693,   6998,   -372,   2669,   4700,   -815,  -7130,  -9367,   3155,  15039,  -8196, -21662,   4554,   8242,  13795,   1170,   6420,
         -8839,  -8474,    893,   8016,  -5504,  -4543,   5154,   3309,   5784,  -7301,   1805,   3232,   -379,   8277, -10316,  -6397,  -8155,  -1909,  -1398,  -2895,  -7151,  -5181,  -2556,   2230,   9087,   7105,  12288,  -4694, -13677, -13179,   9170,  -7229,  -7556,   3052,  -3252,  -9740,  -7573,  -9041,   2725,   9442,   1830,   -471,  -7236,   9653,  20670,  25453,   7687,   -860,  -3167,  -6400,  -2542,   9218,    396,   4595,  -8313,  -8100,  -1853,  -4623,   2283,   2361,    736,    781,  -9239,  -7630,  -1746,  -4115,   3410,  -4746,   2408,   6559,   7295,  -5562,   3419, -10991,   7919,    936,   1444,   3663,  12800,  -1452,   2765,   7318, -15192,  17959,   2383,   4036,  12064,   8887,  -4523,   3110,  -2426,   6439,   3555,  -8381,  -8679,  -2466,   -960,   4830,  -6959,   1489, -14289,   -365,   5221,  -8486,   8953,  -3141,  -3919,  11309,  -7254,   2070,  -1612,  -7724,  -8544,   2418,    408,   4519,   2491,  -2562,   -565,  -1062, -10795,   2533,  12523,   2249,   1033,  -9047,   3080,  -4861,  -7466,   2939,   -934,  -5785,   2476,   6718,   9540,   7460,   -322,  -8739,   2428,  -3705,  -6363,  -4556,     59,  -7493,  -8265,   5373,    873,  -3944,  -4990,   1242,   1951,   6477,   7998,   -972, -10819,  13137,  -1764,  -3449,   2575,  -2988, -10738,   5748,  -5128,   8972,   6951,    329,  -6490,   4273,   2306,  -3484,   4988,   6336,  14903,  -3482,  -3729, -16241,  -8252,   4644,   6203,  -4395,   5808,  -3768,   -485,  -3350,   6874,  -8771,   5597,    358,  -1595,  -7347,  -6978,   5467,    463,  -8725,  -2200,  -5161,   6171,  -4801,  -3763,  -9656,   6926,   2578,   5577,  10656,  13565,   -285,  -4947,  -2503,   7310,    672,   1436,  -4252,  20213,    -69,  -4952,  -5811,   5076,   2992,   4478,  -8012,   2912,   2888,  -5306,   2858,  -3881,  -1223, -11730,   -930, -10023,  -7370,   3272,  -2355,   3713,   7071,   1894,   3725,   8913,   3960,  -3607,   4175,  -9202,   2756,  -4026,   4544,   4145,  10586,  -7359,  -9251,  -9016,  -5514,   2714,   7120,  -3849,  -4057,   7440,   5428};

    const static Filter<int16_t> statefulpartitionedcall_sequential_conv2d_1_biasadd_filter(statefulpartitionedcall_sequential_conv2d_1_biasadd_filter_element, -16, {3, 3, 16, 16}, {1, 1});
    const Filter<int16_t> *get_statefulpartitionedcall_sequential_conv2d_1_biasadd_filter()
    {
    	return &statefulpartitionedcall_sequential_conv2d_1_biasadd_filter;
    }

    const static __attribute__((aligned(16))) int16_t statefulpartitionedcall_sequential_conv2d_1_biasadd_bias_element[] = {
           -90,   -424,    813,   -805,    655,   1098,    558,     14,    735,   -475,   -869,   -775,   -661,    997,  -1078,    718};

    const static Bias<int16_t> statefulpartitionedcall_sequential_conv2d_1_biasadd_bias(statefulpartitionedcall_sequential_conv2d_1_biasadd_bias_element, -14, {16,});
    const Bias<int16_t> *get_statefulpartitionedcall_sequential_conv2d_1_biasadd_bias()
    {
    	return &statefulpartitionedcall_sequential_conv2d_1_biasadd_bias;
    }

    const static Activation<int16_t> statefulpartitionedcall_sequential_conv2d_1_biasadd_activation(ReLU);
    const Activation<int16_t> *get_statefulpartitionedcall_sequential_conv2d_1_biasadd_activation()
    {
    	return &statefulpartitionedcall_sequential_conv2d_1_biasadd_activation;
    }

    const static __attribute__((aligned(16))) int16_t statefulpartitionedcall_sequential_conv2d_2_biasadd_filter_element[] = {
         20929, -12369,  -4572,  -8181,  -8609, -11230,  13497,   -160,  -1701,   3221,  -1032,  -5385,  -1392,   -934,  -9503,  -4816,   6966,   3824,  -3237,   3846,  -2078,  -4160,    828,  11321,   7310,   6973,   5267,  -7019, -20664, -11029,  -8015,  -8885, -13732,  11236,  14295,  12907,  16339,  18001,  10930,  13479,  -2560,   2376,  -8330,  -7889,  -6853, -14691,   1791,  -8332, -14421,  -1171,  11451,  11465,   1657,  10994,  -5180,   1021,  14853,  -1459, -12867,  -6610,   -785,   7446,   9998,  -1658,  -4589,  -2575,   7815, -11490,  -7361,  -8339,   2224,   6672,    422, -10116,   7432,  -5592,   9890,   6109,  -5061,   -594, -11435,  -6108,  14851,  10795, -10072,  -8844,  -2063,  -2686,  -2426,   3034,  20095,  -1758,   8344,  -2769,  -7958,  -7541,  -2106,  11913,  -2873,    365,   9700,   1186,  12879,   6819,  -8488,   2396, -12033,   5001,  -5100,   1356,   3905,   8342,  -5555,   3403,   7782,  -4491,  18170,   9169,  12541,  -4390,  -4503,  -3283,   -575, -11503,   6324,  -3791,  -3211,   4732,   8535,  -4136,  17346,  -5334,  -7046,   3165,  -5295,  -3894,   6456,  -3894,  -9862,   3631,   1640,  -9673,  -5511,   8221,  -8425,  10091,  11262,  -3072,  -1734,  -5207,   9549,   9733,   3097,   7958,     -7,   3304,  11968,   3123,   8287,   -227,  13762,   5058,  -5747,   2956,  -9594,    164,   8390,  -7227, -13297,  -6805,  -2903,  -8793,   8724,   5609,   1108,   6408,  17003,   9738, -18720,  -2365,  -3583,  11508,   6648,   9079,   2614, -13070,  15863,  -3693,   -432, -12940,   5331,   4743,   7798,   8021,  -3074,  -7929,  -5247,  -3543,   7917,  -7882,  -1822, -10103,   7695,   5318,   -668,  -3425,  -2913,  -8786,   5952,   2315,  14323,   3706,   8685,   -464,   9582, -10585,  -3632,   6554,  10334,    -58,  -2949,  -3079,  -3605,    -23,   7582,  -8531,  16350,   1058,     75,   4721,   4489,   6157,  -9666,  -9695, -10163,   3564,  10481,  -3171,  -6884,   4443,  14040,   6283,   6050,    284,   3138,   -672,   -743, -10268,  10700,  -9592,   7903,  11764,  -9888, -11193,   9059,   4290,  21661,  -9654,   3061, -10734,   9140,  11119,  14033,  -1218,  -5198,  -6919,   -595,   3484,   3055,  -4656,  -2940,    -95,   5457, -12173,   5417,  -6574,   3706,   7943,  -7046,    753,  -7254,  -8154,   5226,   1601, -13919,   4559,   -273, -10497,   3953,   2687,   3226,   3166,  -8485,  -4265,   -711,   6310,   4917,   7905, -20071,  -5944,   4788,  -9894,   3659,   1745,  11812,  14161,  -2145,  -7162, -10619,  -4852,   2764,   6507,  12790,    612,  16802,    909,  -6596,  12851,  -2584,  -4381,   4380,   6617,  -1131,  -7897, -12192,  -1637, -11424,   8114,   7167,  -3383,  -7809,   7988,  -5240,   6417,   4624,   2588,   4533,  -5151,   9857,   2257,  -1673,  10846,   2695,  -4346,  -5609,   -613, -11589,  -3319,  -9879,   8172,  -7034,   9613,  12345,   1094,   2476,  10405,  -7625,   8644,   -577,  -5093,  13198,    111,   4756,   7297, -10882,   4526,   5923,  -1129,   9694,  -1548, -12817, -13580,  10884,   -256,  -1076, -12566,  -2720,   6190,  11801,  -3376,   4763,  -6693,  -4241,  11296,  14655,   4149,  -7178,   1857,    398,   4509,   -559,  -5538,  -6331,   4223,   6923,    540,   3781, -10232,  -8702, -10938,   5425,   -195,  -7878,   2466,   8553, -12385,  -3125,   7976,  -7443,  -6680,  19496,   3749, -26455,  14080, -20902,   -368,  -1058,  -8942,   7714,   5289,   8056,  17450,   2454,   8565,  -4223, -12277,    396, -13441,   4135,  -7780,   3673,   6181,  -5198,  -2538,    233,   6138,  11726,   8106,   5254,  -3918,   4717,  -9212,    452, -18194,  -1970,  -5725,   7056,   9591,   1475,  -4341,   3502, -12429,  12256,  -3962,  10011,   6808,  -6032,  -5316,  -3922,   8242,   4416,   6067,    743,   3900,  -1706,   8727,   -580,  -1854, -10910, -10553,  -8568, -12440,  -5806,   -429,   1405,  13516,  11595,  -1135,   6464,  -8507,   6240,   7346,   -987,  -9553,   6921,  12337,  -1245,  -1263,  -2293,   9464,   4548, -12967,  11379,   1438,   4796,   6217,   2006,   3409,  15644,  11795,   7152,  26059,   -755,   1546,   2928,  -8840,   9714,   7510, -13631, -11278,   7808,   7185,
          9459,   5356,   3552,  12485,  -8861,  12969, -11372,   3501,   3113,  -7061,    663,  -4095,  10336,  10910,  10205,   8608,  -3986,   6762,   3060,   3522,   8158,  -1261,  10279,  -7631,   3545,  11468,  13110,  -3602,   6276,  13949,   3527,   -526,   9684,  -4856,   7277, -11514,   8719,  10240,   4110,  -3744,   3144,   3780,   6476,   2478,   6784,  13605,  11969,  -5977,   1022,  -2072,  -8311, -13950,  10121,   5476,   6751,  -3826,   5328, -12946,   9056,   5078, -16575,  14321,   3172, -12825,  -2181,   9951,  -7915,   8754,   4468,   6917,  -1211,   7414,  -2174,   8634,   3300,   5688,     26,   6943,    756,    629,   1882,   8301,    -63,  15550,  -8999,    151,  -2295,  -5211,  -7557,  -4022,  13302,  -1466,  -6965,   7671,   4922,  -9022,   7199, -11008,  20021,  12167,  -3224,   6953,   6613,  -8527, -10411,   9064,     28,  -1648,  -6386,   1534,  -7167, -10377,  -2408,   2072,  19702,  -2193,  15665,   2258,   5814,   1729,   1485,   -166,  -1635,  13550, -12767,   7044,   4129,    -29,  14819,  -7069,  -4236,   1326,     78,  -6896,  -3419,  -2721,   -839,   3955,   1925,   6857,  -9139,    613,  -1309,   4480,  -3844,  -9613,  -4319,   4722,  -3595,   8344, -10953,   7047,   6431,  -6534,  17113,    300,  -1737,  -3867,   2579,  -2902,  -6811,   7894,  -1004,  11856,   7844,   4120,   7615,  10285,   8929,  -9595, -17786, -10143, -12743,   3152,   7147,  -5995,   3895,  14314,   -995,   8391,  -3098,  15743,   3501,   1025,   1642,   5840,  10731,   5423,  -7795,    376,  -4151,   5533,  -3683,   4000,   2667,  10253,  -7979,  -4602,  -8188,  -2357,  -1179,  -4017,   8670,   8662,  -7906,   3668,   3562, -10855, -15155,  -8817,   7136,   9890,   9470,   -526,   -300,  -1260,   2286, -11594,  -1316,   4446,   2514,   1872,  -4768,   9825,  13827,  -8800,   4497,  -5043,     44,  15631,   7325,  -2382,  -3025,  -2051,  -4866,   2570,  -3980,   9560,   1966,   2295,   5114,  -9161,  -7987,  -9530, -10621,   7832,  -1556,   3956,  -3960,    348, -12380,  -8601, -13705,  -4318,  -8991,  -5918,  19219,   5925,    563,  11937,  12885,  -9867,  -2682,   9876,   -413,  -3482,   1357,   6745,  -7508,   9722,  10476,  10149,    992,   9961,   4400,  -5296,  13459, -12904,  12414,  10543,   7010,    905,   4716,   5048, -12094,  12387,  -6010,  -6888,  -9897,   6419,  -1832,  16519,  21943,  10975,   9208,   8768, -10871,    842,   2966,    481,  -6460, -11742,   3395,  -7711,   4860,   4491,   4798,   1900,  25606,  -2106,   7606,  -2737,   1571,   9051,  -6557,  -3704,    643,   5265,  12345,   5235,   7309,  -5260,   8287,   2282,  -1576,  -3097,  11670,   4439,   5114,  -3173,  -1000,   3418,   3618,  -3873,   4161,   6096, -13686,  -8731,  -3562,   8614,   7156,  -5490,  -5977,  -6761,  11766,  10624,  16424,  13980,  12033,  10334,  -3530,   8892,    235,  -1899,  -1988,  12876,  14815,   -329,  13153,  -1793,  10583,  -1193,  -9983,    821,   8778,  -2364,  -1060,  -8544,   6166,   4655,  10339,  20481,   2383,  18980,  -9722, -10420,  13940,  -3569,  -6263,   -125,   -894, -15193,   1474,   7533,  13515, -10302,   3145,  19855,  -7609,   5451,   7197,  -3341,   4963,  10356,  -4634,  -4433,  -3706,   3924,  -5913,  10207,  -9969,   6277,   2711,  14207,  -6902,  11346,   8360,   3957, -11693,  -5531,  10853,   2973,  12288,   5804,   5066,   2286,  -4778,  11595,   5353,  -1395,   -560,  11536,  -1723,   2508, -12391,  11752,    593,   7321,  15857,  -2685,  -2799,  10597,   5885,  -1861, -11252,    745,  -1183, -10728,   -655,   4965,  11963, -15496,  19611,  13525, -15343,   -155,   9803,  -1524,   1011,   8314,  10890,  10707,   9484,  -2789,   6828,   1980, -10202, -10289,  -2131,  -5732,  -8553,   8508,  10712,  -8107,    784,  -5882,  21280,   1086,  -5736,  14824,   7196,  -7589,   -888,  11054,  13399,  -3751,   4934,  -3025,  -6854,   5707,  -4977, -10683,  21828,   1347,   6151,  18580,  -4372,   4247,  -4066,  -3926,   8444,  10771,  -4351,  -5890,   4268,   7487,  -6218, -11395,  17123,     98,   9756,  -2426,   5947,   2087,  -3867,   6876,   7358,   6440, -13565, -10867,  -2063,  -9337,
          2866,   -507,   7178,   5704,  -4828, -10406,  -2688,    -25,  -4783,   1638,   2820,  -7963,  -7177,   3341,   7356,   4544,   3004,  -2768,   6170,   5471, -10167,  10026, -11475,  -9662,   -920, -10324,  13703,   7592, -15976,  -3197,  -9257,   3085,    616,  13003,  10218,  -1398,  12864,  -5746,   5226,   7108,   1806, -14312, -13855, -17760,   4672, -11141,   6823,   -821,   2288,  12418,  17982,  14486,   7314,  12663,    855,   3573,  10198, -10595,  20726,   5590,  -2550,   1424,  -3432,   2162,  -1048,   7641,  -1896,  -2146,  -8026,  -2553,  -1641,  -1487,  -6833,  -6805,   4170,   -860, -10580,  -1139,   4624,   5707,   -803,   6510,  14381,  12623,   3461,   6449, -12445, -11107,  -5345,   9064,  -1248,  -5213,  -5242,  -2743,   3963,  -3013,  14741,  11221,  15594,  -2211,   8854,   2768,  -6737,  -6906,   6457,   3517,  -7952,   9812,   1265,   5514,  -4717,   6706,  12194,  -3620,  16069,   4024,   9605,   7131,  -2255, -15578,   9434,  -5771,  -9379,   3850,  -1114,  -5453,  -5126,   9062};

    const static Filter<int16_t> statefulpartitionedcall_sequential_conv2d_2_biasadd_filter(statefulpartitionedcall_sequential_conv2d_2_biasadd_filter_element, -16, {3, 3, 16, 8}, {1, 1});
    const Filter<int16_t> *get_statefulpartitionedcall_sequential_conv2d_2_biasadd_filter()
    {
    	return &statefulpartitionedcall_sequential_conv2d_2_biasadd_filter;
    }

    const static __attribute__((aligned(16))) int16_t statefulpartitionedcall_sequential_conv2d_2_biasadd_bias_element[] = {
          -329,    175,   -123,    -22,    121,   -109,    216,    249};

    const static Bias<int16_t> statefulpartitionedcall_sequential_conv2d_2_biasadd_bias(statefulpartitionedcall_sequential_conv2d_2_biasadd_bias_element, -12, {8,});
    const Bias<int16_t> *get_statefulpartitionedcall_sequential_conv2d_2_biasadd_bias()
    {
    	return &statefulpartitionedcall_sequential_conv2d_2_biasadd_bias;
    }

    const static Activation<int16_t> statefulpartitionedcall_sequential_conv2d_2_biasadd_activation(ReLU);
    const Activation<int16_t> *get_statefulpartitionedcall_sequential_conv2d_2_biasadd_activation()
    {
    	return &statefulpartitionedcall_sequential_conv2d_2_biasadd_activation;
    }

    const static __attribute__((aligned(16))) int16_t fused_gemm_0_filter_element[] = {
          5420,   -314,   3529,  -3941,   -144,  -4025,   7468,   6447,    689,    366,    867,   5904,   8543,   5692,    170,   5218,   7233,  -6919,  -5383,   -935,  -5212,   4623,   7415,  10144,  -6132, -11190,    -43,   2775,   6243,   9102,   5777,   4216,   3678,  -5196,   2473,   2480,  -9347,   2551,   3601,  -1053,   9319,  -2147,  -4384,   6199,  -5414,    638,   7194,   1999,   7162,   2478,   6870,   3279,   1638,  -2989,    579,   6350,  -7360,   7442,   1519,  -5128,   -817,   7526,  -1691,   5372,   5228,  -5859,  -2694,  -4843,  11419,   4907,    -85,   5416,  -6528,   2032,   7387,  -1164,   5324,  -8260,   7291,   8342,   5701,    774,   1633,   6509,  -7491,    906,   1972,  12830,   5339,  -7472,  -4005,  -5164,    864,  -1226,   1587,  -4573,  -3576,   -918,   2827,   3574,   5566,  -3015,   9935,   6108,   4527,  -4737,  -2809,  -4683,  -8570,    658,  -4999,   6594,   1332,   4616,   6994,   -880,  -2839,   1986,  12180,   -578,  -2223,   5419,   2154,   6095,   5925,   4488,   4734,   3907,   7982,  -5621,  -3770,  -1308,   3028,  -6915,   -585,  -5804,   -533,   1868,  -4905,    708,  -1210,   2752,  -3555,  -5215,  -4338,   4109,  -1648,   5134,  -1428,   4345,   8964,   2489, -11919,  -3499,  -5741,  -2216,   3202,   9952,   3268,    729,   3530,  -2318,  -4210,  -4354,  -4760,   2032,  -3249,   5137,  -3384,  11852,   2722,   5837,  -1289,   4293,  11168,   4298,   5116,  -2648,  -7706,   -539,  -4590,   1821,   1501,   3175,   4564,   -941,  -5317,  -3388,   1277,   3564,    139,   6864,   2037,   3321,   7177,  -2129,   1075,   -649,  -3009,  -9079,  -6930,   -264,  -3210,  -9384,  -2784,  -1501,   9450,  -3316,   -176,   4355,  -1467,  -2187,   6620,   5547,    502,   -330,  -3294,   9077,  -1153,   4939,  -2831,   7313,   7326,   5638,   1182,  11699,   6855,   3020,  -2408,  -5444,   9171,     21,   1642,   3690,   1161,   3091,   4279,  -2291,   7881,   6927,  -9424,    -40,  -7464,  -7743,   6524,  -5937,  13720,   9795,   4633,  -2800,   7189,   1129,    462,  -1678,   5340,   1114,   6402,  -5068,    440, -10278,  -8854,  -3133,    343,   1709,   3788,   4555,   5416,   3269,  -3644,   8317,   -734,   3727,  -9900,   9432,   6107,    990,  -1569,   2513,   7254,  -1942,  -3014,   -744,  -4935,   5165,  -8059,   4539,   7027,  -5295,  -8714,   5180,  -7795,  -1510,   4105,  -2497,   -399,   -134,  -6385,   2135,  -4009,   4191,   8548,   7910,   2467,  -1337,  -9236,  11770,  -7016,   4149,    330,  -5227,   -811,   9138,  -7188,   9612,   2200,  -1490,   4442,  -1834,   6634,  -3993,   -986,  -6920,  -5186,  -6365, -10487,  -2637,  -1078, -10479,  -2458,   2811,   5755,   1353,   5737,   1711,   8609,   5515,  -4830,   6406,   1183,  -3640,   -405,  -7352,   5646,  -2759,  -3533,    170,  -6867,   2419,  -1806,  -5398,   2064,   7526,    910,  -2855,  -4080,   1675,   9687,  -2378,   5425,   2804,  -1365,   3318,  -1470,   3664,  -3374,   1661,   2952,   2085,  -3884,  10291,   3163,  -1724,  -6307,  -5918,   3977,   4797,  -6914,   4683,  -1650,   4986,   1025,  -1681,   8914,   3757,  -2093,   3098,   4111,   7271,  -3502,   -270,  -2297,   1962,  -4104,     23,   4057,    920,   6451,  11971,   6257,   2504,  -7446,  10045,   1044,    -17,  11768,   2213,  -6450,  -1297,   2911,  -8166,   4610,   5463,  13264,   3362,   5266,   6178,   7061,  -5346,  -3500,   -570,  -7540,  -4550,  -5199,  -8715,   8490,  -9200,   4675,  -5494,   7169,   4331,  -7806,   -517,   8034, -11586,  -4127,   -705,  -7502,  -9587,  -5721,  -2979,   5231,  -8141,    807,    139,  -9327,  -6432,  -4341,   2382,   3876,  -3789,   -125,  -1660,   1246,   7287,  -5408,   3779,  -7920,   -762,    176,   1530,   3084,  -6130,   4688,   6920,   7305,   1652,  -5703,  -3364, -10498,  -4960,  -6283,  -6118,    831,  -2300,  -6760,   6945,  -3519,  -4508,   7946,   6976,   5463,   6051,  -6778,   6993,  -3343,  -5570,   6219,  -6592,   5985,  -4652,   5301,  -1847,  -2630,    260,  -5076,  -1031,  -2546,   9910,  -4612,   3254,  -3750,  -3711,   -685,  -3799,  -1263,   9236,   2088,  -1811,   6416,   3570,   2436,  -2292,
         -1192,  -1281,  -1044, -10295,   -542,  -2234,  -6516,  -6316,   4111,   2033,   2413,  -7198,  -2147,  -4907,   -330,   6585,  -1155,   2467,   3646,    885,   5645,   6851,  11003,  -5418,   -485,   2773,  -5995,  -3600,  -2775,  -1180,   5895,  -3531,   3549,  -6235,  -5805,   6730,    762,  -7191,  -3078,   8285,  -8504,   9305,   7865,   7665,   4141,   -840,   4315,   4794,   3257,  -5319,  -6705,   3343,  -1132,    654,   9950,    895,   2754,   7025,  -3261, -10717,  -1572,   1433,    961,   2434,   4181,    337,  -5755,   4470,   1143,    620,  -6871,  -8075,  -9990,  -7232,   2638,   -458,  -2422,   5404,  -2446,   5731,   3097,  -2122,  -8067,  -8754,  -1701,   2551,  -4960,   3499,   3266,   8231,  -2136,   4411,   7929,   2136,  -5352,  -7182,  -9746,   1648,  -3975,  -1249,  -4722,   6238,   7219,  -3441,  -1685,   6969,   5742,   2385,  -5834,   3974,  -3080,      1,  -3322,  -3060,   2833,  -3011,   2655,  -7395,   9845,  -8056,  -5250,    473,   -304,   2954,   7731,   -781,   9042,  -1617,  -4496,  -7201,   4846,  -1927,  -5158,  -9613,   4527,   7906,  -8326,   1810,  -2929,  -5641,  -2918,   2926,   2518,   8334,   1505,   1208,  -4563,  -3587,  -4303,  -1826,   6770,  -4142,  -9915,    565,   4135,  -6289,   6026,   1981,  -5476,    820, -10377,  -7164,  -6926,   3819,   1154,  -7240,  -3194,   4502,  -9635,   1945,   1259,   4883,  -4249,   6677,   2456,   3813,   2984,  -4737,  -4160,   1106,  -4215,   5251,  -3860,   1738,  -4572,   3774,   1369,   2941,  -6011,  -5203,  -1349,   5107,   8156,  -3528,   4662,  -3355, -22296,  -5886,  -3738,  -2709,  -9835,  -5312,  -8244,  -4460,   4646,   1927,   7253,   9693,  -4382,  -6534,   1453,  -8762,   3148, -10244,  -6073,  -1601,  -3325,  -7240,  -3078,    378,  -5840,  -2680,   3188,   6458,  -5839,  -4142,  -6798,   2691,   9390,    126,  -3841,  -1721,  -1246,  -7246,   -287,  -3052,   1308,   3762,  -3480,   1309, -10462,   8328,    419,   -206,  -6870,   2728,  -2130,   2019,  -2654,  -1297,   5369,  -4214,  -3473,  -1261,  11144,   6530,  -4172,   9134,  -2552,  -6061,   3208,   5101,   5131,   -934,   7774, -10314,   3285,   1934,   6416,  -2547,   3032,   4231,   8442,   7455,  -4438,  -5809,  12256,   3228,  10745, -10722,   3176,   9943,  -5052,   2108,   2397,  12755,   7525,   7350,   5404,  -4541,  -5054,  -4752,  -5095,   9599, -10255,  -1545,  -2300,   3136,   7510,   1957,   4876,  10666,  -3043,   1708,   1348, -13183,   2447,  -1826,   1219,   6655, -11933,  -3213,    762,   3393,   1598,  -4474,  -3775,  -6429,  -7285,   5755,  11294,  -4995,  -7911,     13,  -5428,   6938,   1520,   1144,   -370,   8611,   3588,   1508,  -1046,   1480,   -643,   -249,   8092,   2870,  -4240,   2459,  -6892, -10552,  -5369, -10781,  11245,   8667,  -1985,  -8332,  -3442,    928,  -4072,  -1952,   2843,  17100,   7035,  -8306,  -7715, -11978,   -701,   -835,   3341,  -3753,  -2469,  -4888, -11242,  -8010,   3349,  -3660,    620,  -1103,  -3371,  -7740,   3336,  -5629,   6142,   7267,  -1043,   7284,  -3806,  -8923,   3483,    290,   4003,   2415,   5249,  -3810,  -7496,  -1088,  -3843,  -1648,   1540,   6817, -10878,   6641,   2966,   2938,   7509,  -4224,   6108,   4187,  -5055,    364,   5062,   2053,  -1916,   1692,  -1715,   6372,   -284,   1570,  -4455,  -5666,   3918,   5798,  -5547,  -6339,   -405,   -364,  -6030,  -8859,  -2805,  -4314,   -862,  -6284,    -67,    198,  -2154,   4008,  -6178,   2377,   3724,   3950,   2061,  -3376,  -7696,   2547,  -6573,  -4004,  -2868,   7514,   9721,   2199,   -687,  -2720,   5727,   -816,   8070,   -220,   4243,  -5186,  -6651,  -4863,   3087,   2715,  -4019,   2174,  -2262,   2107,  -8343,  -3225,  -4796,   -232,   3689,  -3449,  -2254,    739,  -1118,    199,   5071,  -7950,   3904,   3064,  -2700,    201,   5743,  -8730,   8415,  -6393,   1470,   2087,   1521,  -1918,   3664,  -6123,   -910,   6235,  -6518,  -8134, -11936,   6194,    595,  -6334,   1212,  -7175,   1067,   2201,  -6164,   2091,   5733,  -5115,  -3621,  -5288,   4333,    976,   2264,  -3824,  -5452,  -9148,  -3034,   1556,   9850,   9765,
          -241,  -5393,  -7469,  -9746, -12896,   2381,  -1508,   8952,   1742,   5994,   7202,  -4116,   4784,   2880,   2916,  -1094,  -5851,   3692,   4664,  -7268,  -4234,  -5362,   9049,   3372, -13008,  -4643,  -4174,  -1598,   6032,   1467,  -1913,  -5566,    857,   -454,  -7339,   -610,  -3875,  -1803,  -1878,  12366,  -1639,   4606,    -62,   2516,  -7688,    820,    521,  -1380,  -7509,    424,   2344,    940,  -5218,     34,   6136,   -866,  -1786,    992,  -4192,   4907,   8079,   4219,  11914,   5019,  -1787, -11113,   5705,   1484, -11546, -12217,  -9252,  -5623,   -485,  -2854,  -4853,  -1979,   5936,  -5862,   8644,   3734, -10521,  -4904,   5328,   3403,   3727,   1208,  -1604,  -3857,    397,   1810,   4886,  -1617,   6281,  -5347,  -5425,  -4544, -10428,   1791,   5052,  -3230,  -1380,  -5534,  -1122,    117, -10150,  -5959,    856,  -1467,   2618,  -4671,   9025,    284,  -7844,  -1436,   7170,  -3476,   -410,   3142,   7400,  -4464,   2854,  -4887,  -7513,   1090,   -585,   -519,  -1740,   1761,   1460,  18768,  -2466,  -7427,  -1065, -14551,  -5103,  -9597,   8755, -11781,   6953,   5190,   5498,  11038,  -4443,  -6500,   8881,   8026,   -669,  -9884,   4560,  11391,  -2516,  -5545,  -1353,   5960,  -2512,  -4663,  13778,  14179,   -408,  -1227,   -795, -17882,   2436,  -4876,  -5712,  -2630, -15199,   2122,   6391,  -3901,  -4770,   -376,   1514,   9440,  -6230, -14301,   7281, -13930,  -1807, -10326,  -9261,   1680,    -42,   7819,  -5987,   -650,  -6651,   4577, -10774,  -6161,  -5350,   3635,  13068,  -4458,    192,  -1643,   5271,  -1798,    787,  10044, -11309,   8794,  -8439,   3739,  -5275,  -4294,   3160,   5061,   1681,   8050,  -3768,   3527, -14056,  -9882,  -3672,    599,   4000,  -4233,   1475,   1852,  -9316,   3929,   5375,  -4327,  -2109,   6997,   6736,  -2151,    855,  -1273,   4337,  -3931,  -2809,   8582,  -6516,  -2746,   1701,  -4110,  -1535, -12451,   6958,  -1164,   5254,    683,  -7042,  -4590,   -915,   4398,   -729,  -4599,   2699,   1651,   4790,  -7154,   4668,  -3664,   8078,  -4906,   6720,   1855,   5302,     36,  -4529,   4475, -10152,   5732,   4612,   5308,   2546,   2697,   6602,  -4064,   3975,   3988,   1045,   1000,   6641,   -463,  -6173,   2140,   1914,   5018,  -6202,  -6975,   4840,   1613,  -5013,   3938,   9988,   6883,   4348,   1599,  -7890,  -3114,   7555,   2007,  -5413,   5677,   -387,   1205,  -3066,   1626,   4894,   2531,  -3669,  -4066,  -1229,  -7381,  -5532,  -7428,  -1304,   6123,   9323,  -6235,  -6318,  -4644,   2025,  -2312,   3243,  -2025,   1166,    -52,  -1202,    853,   3712,   1466,   7826,  10845,  -7026,  -9452,  -3174,  -6996,  -2118,  -4471,   4058,   2647,  -3534,   5491,  -3775,  -3510,   3673,  -9353,  -1892,   4587,    906,   8239,  -6757,    946,   5929,   3119,   2290,   8668,   -176,   4521,  -2305,   2589,  -5224,    425,  -9225,  -8091,   1173,   3608,  -7043,   -695,   5372,   6829,  -5756,   2082,  -4330,  11565,   -107,  -2874,  -6757,   5956,   5675,   -511,  -1182,   6970,  -8460,  -7521,   5022,   6656,   6741,   -952,  -4989,  -5016,  -6415,  -3453,  -8406, -14245,   3599,   7682,  -4285,   4829,  -4888,  -3402,   6123,   8318,  -2344,  -3412,  -8303,  -1338,  -2161,  -2614,   1723,  -6063,   2490,   8341,  -7231,   1044,  -7145,   4177,  -3912,   4246,  -2946,    175,  -1846,  -6045,  -5359,  -6232,   1063,  -5976,   9066,   1320,  -3466,   -251,  -3652,  -4174,   6222,    446,  -4093,   8023,  -7702,    215,   -412, -11263,    827,   7181,   3159,  -1923,  -5707,   -994,   -634,  -7116,  -2420,  -3069,   7324,    412,  -2374,  12230,   6600,  -8382, -11476,  -7027,   2121,   6071, -10012,   4449,  -4791,  -4027,   -912,   2913,   7984,   7021,  -4472,    -39,   5323,  -7131,     21,   3444,   3273,  -3094,  -3808,   3914,   2285,  -8550,   2535,  -8064,    697,  -3544,  -1261,   7040,   -240,  -1894,    101,   7714,  -6001,   3333,  -9028,   4134,  -2924,   1044,   6881,  -4173,  -3488,  -1002,  -9399,   1642,   1464,   4089,   3376,   1586,   4513,  -4833,  -5090,  -2840,  -7678,  -5161,  -3519,   7975,   7704,   3616,
         -6793,  15098,  -6834,   4966,   2295, -11454,    967,   5762,   6890,  -1379,  -7301,  -1123,    457,   8607,  -2274,   3462,   8567,  11704,  -6166,  -6269,  19228,   9904,   -433,  -2381,   4959,  -5124,  -4081,  -5218,  13912,   4584,   6464,  -2161,   3992,  -4094,  -3347,   -793,  -6163,  12237, -12317,   2010,  -2904,   1160,  -7529,  -3981,   5044,   7142,   1705, -10157,  -4861,   3123,   5249,  -3821, -12681,  -6991,  -9769,  -3465,  -7083, -10920,  -7652,  -7942,   1757,   2820,  -9961,  -4814,  17352, -18522,  -5366,     77,     66, -12239,   3888,    173,  -7136,   1124,   1290,  -3218,   3351,   3355,   7633,   4627,   4197,  -1036,    132,  -6389,   -841,  -9718,  -4654,  -1514,   3427,   3377,   7062,  -5643,  -2396,  -5576,   1116,   1745,   3950,   9835,   4481,   4408,  -1666,    781,   5524,    661,   -732,   -612,   5000,  -3747,  -5119,  -3634,  -8430,  -2253,  12165,  -3854,  -2409,   3221,  -9863,   2392,   -613,   1966,  -1345,   2650,  -7072,  -8687,   2276,   4912,   9226,   9666,   2093,  -7791,  -6989,   4414,   1317,  -5570,  -9413,  -2414,   -298,  -5481,   5512,  -5123,   5232,  -4340,   5083,   2093,   2224,  -2488,   6739,  -6727,   8577,   7278,  -2008,   3095,  -3274,   6153,  -3498,  -3028,  -5283,   6924,   8265,  -2990,  -5270,  -6217,   6846,  -2474,  -3603,  -7432,  -5194,  -5920, -10137,   1841,  -3320,  -8736,  -7988,  -8418,   4379,  -1601,  -5964,   3409,  -2417,   1796,  -1259,  -1611,   9017,   8270,   6189,  -8082,   2033,    254,    783,   -719,  -6194,   4302,  -2500,  -5926,  -3703,   1720,  -3473,  -7302,   -138,   6449,   -434,  -8545,   4707,  -8824,  -5897,  -2904,  -7834,    760,  -2916,   5651,  -8294,   5674,   3532,   2368,  -3817,  -2064,   1350,    857,   4377,   4961,   5542,  -2493,   4404,  -4385,  -3907,  -5235,   4072,   6898,   1590,  -2414,  -7743,  -3665, -10697,   4230,     44,  -3097,   6498,   3423,  -7700,  -4774,  -5668,  -4225,    202,  -3132,   2580,   8777,   4941,   1911,  -3946,  -1545,  -6067,  -1809,  -6257,   9672,   8545,   -104,  -9929,  -4466,   6132,     81,  -5084, -14820,   -646,  12066,  -8397,  -5954,   2406,   3564,  -4371,  -5954,   6492,   5637, -10433,  -1786,  -7261,  -7755,   3192,  -4329,  -2099,   1856, -11005,   -481,    -78,  -8115,   -338,  -9074,  -4303,   3802,  -2967,   -835,   3663,  -6258,   2542,  -7721,  -9117,   1933,  -9571,  -4910,   6953,   7701,   7113,  -1718,  -2522,    927, -11070,  -4927,  -4370,  -6807,  -4148,  -3286,   5502,   1203,  -9526,    873,  -8121, -10152,   3736,   3132,  -3799,   4724, -15521,   -954,   3482,   1064,   7672,   9087,   8520,   2611,  -2806,    618,   -395,  -1277,  -5695,   6063,  -2099,   7237,  -8161,  -1769,   1920,  -3872,  -4197,  -1869,  -7223,  -1492, -15167,    745,     78,   5372,  -3850,   3900,  -4271,    468,  -4015,  -1905,  -7596,   5200,   5903,  -2657,  11668,   6832,  -2059,   5292,   -323,   4887,  -2468,  -5531,   1633,   6566,  -5833,  -2420,  -5036,  -2334,   8423,  -3109,   8681,   5796,  -9943,   9949,   3814,  -9455,  -3339,   6304,  -2968,  -5752,  -8659,  16968,  -6484,  -7216,   8919,   -167,  -4862,  -1354,  -5843,  -5105,  -2806,  -5003,   1173,    -39,   1511,  -7633,   -237,  10340,   5794,   3394,   8686,   6870,    777,   -539,  -4334,  -3311,   2993,   4061,   6722,  -2056,   -411,  -1412,   4322,  -3282,   3683,   8472,  10676,   3162, -12242,  -7326,   1049,  -9691,  -2210,   8424,   3565,  -4997, -10053, -10157,  -7638,   7615,   2308,  -5449,   7043,  11286,   1651,  -9471,  -6239,  -7136,   1765,  -1321,  -5297,   6140,   2281,  -8088,   4116, -12336,   4486,  -5568,  -4459, -11505,   4378,   7909,   -584,   4017,  -1994,   2706,   1293,  -4330,   1398,  -2858,   9511,   1324,  -2424,  -3966,  -3137,  -2368,  -4922,  -5013,   -406,  -5568,  -8104,   5021,  -7612,  -4006,  -7818,   4454,   5917,  10244,   5064,   6709,   4797,   4435,   2019,   9290,   8336,   1282,  -3129,     42,     44,   6704,   4737,  -7508,   8231,  -1045,   5140,  -5726,    714,    880,   6510,  -6056,  -2848,   5226,  -3479,   2591,     37,   6361,   4413,   1791,
         -4429,  -9035,   3240,   3107,    -20,   5955,  -5412,   2009, -11828,  -6046,  -5801,   5752,  -4617,   3958,   2253,  -5944,   1417,   3446,  -2441,   5539,   3710,   -662,  -1049,   1083,   2799,   6442,   6694,  -8971,   1981,   9503,   -890,   4475,  -3700,   6704,  -4018,   4198,   5899,   6228,  -6071,   4384,  -3800,  -7499,  -7207,  -7114,  -2634,   1087,  -5895,  -6060,   1736,   3542,   2910,  -2443,  -4597,   8975,   6766,  -2439,   6023,  -4245,  -2699,  -9236,    142,   4964,   5713,   1489,  -1129, -14536,   3148,  -4844, -13169, -16013,   1312,    931,  -8127, -10088,  -6419,  -3164,  -2424,   8057,  -5430,   6752,    810,   4957,   2267,    910,  -1502,   5350,   3943,  -3910, -11271,    863,   -382,  -5715,  -3941,   6048,   3194,  -6821,  -4467,  -5097,  -4399,  -5214,   8658,   7959,   2721,   2900,  -9835,    518,  -6462,   -896,   3325,  -1698,  -1930,   2558,  -4437,   2583,  -6174,  -1929,   3410,   9334,   5325,   2791,  -3399,  -3659,  -4083,  -7284,  -6116,   -366,  -1699,  -2513,   -131,  -5561,   7508,  -8795, -14617,  -2555,   -851,   2001,  -3674,  -7277,   3521,  -9368,   8517,   3119,    425,  -4352,   2093,   3701,  -2976,   5143,  -7548,   1164,  -7060,  -3779,  -6652,   2319,  -5923,  -7508,   4829,   6762,  -1514,   7197,  -1861,  -4489,  -1831,  -3425,   8830,   7330,   -494,   3650,  -4426,   2372,  -3364,  -1076,   5822,   5000,   2066,    610,  -2984,   1430,   4764,  -8386,  -5416,  -3100,   7307,   8039,   1447,   5522,  -5018,  -8085,  -2104,   -895,   3218,   -680,   2555, -10268,  -6496,   4703,   2644,   3701,   4703,   7910, -11985,  -3020,   5862,   5995,   5724,   5978,   2604,  -4328,  -5366,   4751,    630,  -3944,  -2778,  -6612,   5448,   4411,  -5837,  -6983,   -339,  -7141,  -2589,   3792,  -7798,   5246, -14840,  -5859,  -5838,   8613,   7738,   7087,   1604,   7878,  -1761,  -4584,   3876,   4049,   7600,   9116,  -2574,   2368,  -6424,  -5715,   1196,  -9645,   5942,  -6219,  -3925,   5695,  -8504,  -1349,  -1039,  -6414,   5123,  -4081,  -2826,   4341,   7821,  10375,  -7112,  -8526,   5696,  -9264,   5432,   8509,  -1445,   3119,   -288,  -4662,   -293,   3227,  -2474,   2453,   1660,  -2148,   1856,   8421,  -2698,   3728,  -2696,  -1525,  -1177,   -488,    632,   -516,   2180,  -5911,  10427,  10425,   4367,  12279,   2455,   6342,  10780,  -7272,  13117,   6099,   1809,   2712,  -4787,  -5523,  -4471,  -9337,   -982,  -1042,   3244,  11497,  -6045,   6754,  10123,   3990,  -3215,   5449,  -4140,   6175,   4010,   -342,   3351,    451,  -4444,  -5212,  11530, -11543,   5239,  -8504,  -2138,  -5566,  -2192,  11971,  -8018,   7049,  -6785,    786,   7090,   4298,   7818,   6989,   1085,  -5937,   3581,  -1379,   -378,  -6690,   6987,   8736,  11257,  -5267,  -7899,   -841,   -772,  -4912,    552,   8075,   4928,   9066,   7089,   5400,   1190,  -8647,  12466,  16602,   2717,   1575,   5701,   3874,   7702,   6801,   -267,   4412,   5784,  -8931,    189,   5358,  -4707,  -8870,   4168,   8620,   3226,  10683,  -1739,   6162,  -5756,  -4451,   5338,   9037,  -5163,  -2419,  -2432,  -6800,    771,   6914,   4496,    743, -10429,   4909,   2028,   -272,   2384,   7538,   -356,  -3985,   2226,  -5805,  -1021,  -8999,   5562,   4182,   7317,   7057,  -1895,     99,   2470,   -659,   4678,  -3454,   1669,  -2673,   1330,   1293,   6726,   3056,  -7333,  -2755,  10728,  17530,   3102,  -4831,  -1453,   3652,   3237,   3348,   3971,  -5601,   4096,  -6703,   6971,  -7466,  -3166,   2580,   6782,  -5589,  -6669,  -1325,  -7519,  -2914,   -341,   6358,   2615,   6067,   2992, -16109,   7297,   4667,  -9582,  -7855,   6114,   4552,  -3247,  -8511,   4205,  -5665,   2132,   3610,     46,   1115,  -3404,   8178,   6910,  -1050,    301,  -9241,  10088,   5336,   -601,   4070,  -5679,   6263,   6800,  -7414,    461,   9135,   4421,   4229,   3711,   4300,  -3724,   5546,   1878,  -1048,   5337,   8684,  -5180,   4438,   2221,    686,  -2839,   7868,  -9644,   6565,   4833,  -7573,  -8047,  -1152,   7656,    782,  -8787,  -1265,   7162,    312,  -4592,   -233,   5727,  -6766,
          4903,  -8922,  -7447,  -3287,  -7301, -13082,   7146,  15747,  -2095,   5131,   3516,  -5724,   -708,   8217,  -2042,   5446,   1698,  -5952,  -2605,  -2193,  -4319,   6442,   2284,  -2655,  -3265,  -1104,   -402,  -3208,   6318,   7837,   6433,  -1333,   4243,  -3339,  -2324,  -5970,   3672,   3181,  20592,   5688,  -9845,   3427,  -5164,   7576,   1323,   4238,   6832,  -1516,  -3810,   2694,  -6475,  -7420,   6129,  -4816,   2750,   4837,  -4072,  -4566,   2090,  -5390,  -1528,  -2331,   5211,  -2892,   3560,  -9813,   7350,   1059, -23919, -17022,   -575,   1715,  -8376,   7780,   5987,   4585,  -3898,     22,  -5283,  -3871,  -1063,   3886,   -161,   5343,  -4934,   -335,   3304,   8347,   5286,   1026,   2393,  -2320,  -7844,   5493,  -1611,   3800,    880,  10645,   3476,  -5611,   5909,   5395,  12785,  12645, -12297,  -3445,  -3419,  -1298,   2666,  -1527,    729,   6791,   2620,   9476,  -6859,   3821,   6383,  -7455,    899,  -5771, -11488,    639,    905,    387,  -3367,  -1828,   -700,  -4074,  -9528,   9003,    692,   -418,   7236,  -7860,  13035,  -5970,  -4991,  11014,  -1555,  -4838,  -4777,   3967,   5445,  -6610,  -1681,  -7970,   2929,   1103,  -4706,   5671,   6738,  -7323,  -4205,  -5532,   1329,   7078,   5718,  -7032,   5527,   4526,   3050,    533,    951,    123,   5667,   1350,   2225,  -7575,    718,  -1214,   -955,  -5413,    911,  -4003,  -3158,  -8285,   1043,   8118,  10559,   4965,   3040,   1110,   -422,  -7539,  -4389,  11139,    196,  -3688,  -5119,   2394,   6246,  -7583,  -3758,   4631,   2478,  -2293,    984,   2885,   -846,  -5972,  11522,   2872,   5095,   3192,  -6502,   3505,   2782,   3386,   3930,   7514,   3265,  -7976,   -203,  -3641,   5911,   2720,  -5142,  -8466,  -2808,  -5616,   6617,   2448,  -1396,   6745,   7854,  -7475,  -7178,  -1118,    507,  -8575,   1328,   7309,   2778,  -4725,  -1325,  -8468,   2247,   -103,   4324,   4813,   -915,   7808,  -3310,   5112,  -6534,  -6219,   3723,  -2885,    493,   7463,   2934,   -268,  -8288,    -87,   2858,  -1424,   1263,   9224,   1146,   7485,   3890,  -8687,    317,  -5828,   9031,  -4953,  -2644,  -2833,  -3109,  -6499,   8309,  -5410,  -2490,   1811,  -4914,  -7498,  -6231,   -292,  -6363,   5201,   4593,  -4620,  -3604,  -3601,  -5107,  -2873,  -9602,  -5645,  -3789,   6304,   1607,   6114,  -6229,  -3327,   1519,   1789,   4006,  10911,   2575,  -2416,   5041,  -8588,  -6492,  -5621,   8848,   5856,   2355,   5809,  -5222,   3358,   7830,   3729,    543,   8012,   1078,  -4628,  -7107,   3418,    975,   6988, -15759,  -5831,   -640,  -2332,  -1932,  -3282,  -8501,  -2983,   8206,  -2277,   2322,  -3914,    948,  -9345,   7993,    408,   4731,   2645,   3306,   5813,   4441,   -401,   4143,  -8838,   -666,   1234,    987,  -3803,   2797,   -389,   6249,  -7214,   3310,   1176,  -5380,   6233,  -8225,   -927,  -6129,   2955,   2752,  -1244,   3418,  -5195,  -9133,   1731,   2322,   3893,    690,   -242,  -3485,  -9319,  -4818,   -688,   8128,   6427,   2703,   3481,   5285,  -7376,    -73,  -9608,   2517,  -1870,  -2004,   6273,  -2447,  -1530,  -7244,   5864,   3956,  -6836,    977,  -3068,   2086,   3242,  -3825,   5042,  -4622,   2365,   9060,  15063,  -1906,  -6535,    472,  -3647,    300,   5350,  -6022,   7130,  -3894,   4703,   -509,   4998,  -4046,   3227,  -4000,  11583,   8334,  -4362,  -9077,   2870,  -6100,   3332,    923,  12197,   3434,  -3350,   -329,   1845,   8095,   5475,  -3088,   6267,   6368,  -5710,   -578,   -410,  -3542,   4893,  10783,  11473,  -2400,   1572,  -4364,   5204,   4527,   -402,  -5866,   1742,  -3404,  -2133,  -3683,  -3671,  10046,  -2436,   4570,   1738,   -140,    279,  -4526,  -9752,   7784,   3489,   5736,   9263,  -3342,  -4990,  -2687,  -8282,   -131,   3315,  -4130,   3108, -10025,  -7759,  -2911,  -2903,   -618,   3369,   5638,   7619,  11100,  -6401,   4073,  -6208,   -122,   2392,   -754,   1316,   4958,   3880,  -7132,   3261,  -2771,   2084,   2822,  -1571,   2352,  -8728,  -5120,   1480,  -1826,   4510,    349,  11170,   5313,   4285,   3619, -10477,   2984,   6465,
         -9721,   -861,   3854,   2397,  -4269,  -6897,  -4120,  -5273,  -3551,  -4104,   9990,  -4861,  -4685,  -7952,  -1465,  -3727, -11207, -11085,  -1146,  -5972,  -7007,  -8707,  -7425,   1668,  -3935,  -1744,  14516,  -4057,  -8084,   1759,   1114,   4271,  -4242,   5409,  -2490,  -3850,  -9029,   3300,  11397,   4051,  -7678,  -3087,   8294,   6376,   6002,  -2194,   1586,    202,  -3056,   6886,  -5950,   5747,    945,   4496,  11833,   4073,  -1818,   3871,    557,   6505,   3651,  -2221,   -776,  -6272,   1133,  -7445,   2784,  -8231,   5613,   -380,   6851,   2616,  -3755,   7825,   4242,  -1471,   2546,   4461,  -2593,  -8602,   7335,  -3189,  -4660,  -5657,    878,   3105,  -3638,   1906,   2970,  -1796,   2846,  -2759,    679,  -2065,   6363,   3526,    184,  -5422,  -6852,  -7256,  -6809,   7258,  -5562,   2542,  -3503, -10251,   -120,  -8003,  -4918,   3456,  -4355,   1006,  -2787,  -6047,   2474,   3966,   4814,  -2666,   5958,  -1360,  -3377,   2117,   8719,   3113,  -6779,  -6791,   -532,  -2154,  -9753,   2397,   4043,  -3582,   6551,    827,  -4242,   6194,   8831,    927,   5400,   4274,  -1471,   -123,    293,   3971,   7155,   6200,  -5486,   2702,   3145,  -1777,   6276,  -4395,   4194,   4895,   3247,   1147,   4801,  -4367,   4593,   3102,   6526,   4518,  -4654,   4784,  -5227,  -4575,   7640,   8269,   4753,   2895,  -5307,  -6925,    163,  -4074,   7123,   1220,   8601,  -2854,   7586,    545,  -3809,  -8677,   7678,   3645,  11500,   4294,  -2349,   2675,   -252,  -8209,   1713,   6719, -10422,  -5101,    649,   6323,   2437,   4439,  -1768,   6391,  -1223,  -2768,   8234,     39,   -701,  -6139,   4644,  -8203,    596,    879,  -5741,  -6266,   2688,   2144,  -5564,  -1431,  -1706,   -833,   6885,   1107,  -1328, -10042,   3186,   1666,  -5768,   5073,   -623,  -6511,  -4725,   -980,  -5597,  -6166,  -6333,   -838,   4629,   1374,  -1604,  -8418,    859,  -7539,    519,   1224,  -2844,  -9182,   5068,   6199,    587,  -3818,   1596,   4730,   5388,  -3208,   4839,  -3641,  -7063,    817,  -3780,   4173, -10746,   5254,  -5194, -10107,   6800,  -5431,  10080,   6827,   9141,   1163,   5287,   4142,  -5024,  -4108,  -5124,   -535,  -7110,   2325,   2042,  -7823,   2860,   1042,  -3609,   3732,   2518,   4776,   7296,  -4930,  -5295,  -8429,  -3167,  -4293,    222,   -640,   4678,   2534,   2246,  -4663,  -5668,   5747,   8090,   3070,  -4319,  -4442,  -5516,   6769,  -1832,  -6708,   2670,  -3638,   5720,    721,   8118,  -6885,   9697,    547,    261,   3603,  -2089,  -4266,  -5648,   3945,   -895,    422, -12430,   2636,  -6357,   -112,   4037,  -5089,    646,   2652,   7076,  -7922,  -2137,   4318,   5507,    861,   8155,  -3184,    563,  -2438,   4434,  -8868,   7699,   -888,   6223,  -4263,   3233,   4490,  -1707,  -7405,   8072,  -7066,   7925,   1686,   3529,  -9330,    836,  -8473,    955,  -6174,   8595,  -1286,   5162,   1804,  -1738,  -1262,  10559,   -500,   2554,   7576,  -1388,  -6151,   -228,   3330,  -5377,  -6023,   9316,   5902,   8544,   1479,   4127,  -6921,   2469,    206,  -7228,   -838,    231,    205,  -6786,  -6372,  -3922,   3060,   2070,  -2667,   -888,  -6516,  -6706,  -7745,   9912,   6766,  -7539,  -6190,  14560,  -2690,    927,   3160,  -4581,   5506,  -6434, -11104,  16389,   -106,  -7230,  -5233,   2141,  -4812,   7222,  -6149,   5952,  -2340,  -3587,  -1464,  11895,  -7356, -12145,  -5042,  -1749,   4697,   4264,   4053,   -191,  -4609,   5541,   9960,  -2388,  -5637,  -3597,   5527,   3911,  -6096,  10960,   -182,   4694,   -313,  -4176,   5676,  11626,   6617,  -2369,  -5167,  13535,  -3879,   6507,  -3265,  14208,  -5291,   5517,  -6023,   1094,  -4624,   -528,  -8975,   7785,  -6069,   2165,  -1777,  -5624,   1955,  -7470,   5108,  -2154,   -410,  -4819,  -6729,    438,   3526,   5447,    -92,   3390,  -4132,   9152, -11112, -16419,   5010,   2670,  -1239,  -9866,   3030,   -133, -11357,  -7828,   4227,   5246,  -1926,   2500,    137,  -7492,   2705,   9164,   4881,  -7422,   2179,  -1873,   4098,    158,  -5876,   7052,  -3106,  -1464,   4098,   3532,   1813,
          -466,  -6041,   5043,   3287,   7152,  -7223,  12926,  -1966,  -5635,   1741,  -6758,   1321,   3906,  -7844,  -5032,  -1221,   2284,  -2166, -10345,   2103,  -4850,   -604,  -1145,  -8065,  -7505,  -6207,   -292,   5216,   5651,   6384,   2977,   5259,  11079,   4204,   -486,  -9178,   2376,    932,  -5409,  -6011,  -3750,   2631,   2862,   -454,  -8179,  -6900,   5198,   7132,   4272,   5958,  -7679,   -104,   5287,    941,   4631,  -5549,  11994,   5155,  -4626,  -4438,  -3698,  -5411,   9666,   5137,   4857,  -7713,   7054,  -2493,  -1917,   3162,  15457,  -7111,   2445,    412,    187,   6888,  -1730,   4931,   9625,  -7580,   7386,   5575, -10237,  -3271,   5876,  -7236,   8033,   3526,   -308,   7909,   2256,    476,  -6396,      2,   5472,   2708,  -1250,  -5594,   1883,  -3211,   3924,  -1794,   3827,   2665,   9560,   6190,   4343,   6781,    -88,  -8203,   8657,  -5184,  -4947,  -2968,  -6417,  -1215,  -4538,   1647,  -1857,   4991,  -2345,   6979,   -473,  -1608,   2458,  -4269,   5409,   5565,  10145,  11792,  -4052,    780,  -6440,  -3365,   9592,   4895,   -244,   6586,  -6732,  -6180,   6156,  -6748,   5225,   7122,   8271,    -72,   1321,  -2185,   -977,  -8128,     29,   2574,   5371,   6813,  -6673,   -493,  -2003,   -508,  -4596,  -3664,   9550,   9238,   3144,   6055,  -2756,   5346,   3655,  -1898,  -5550,   9350,   6864,  -4582,  -8617,   -503,   9480,   1823,  -4502,   -561,   -926,  -5932,   6400,  -2868,   4755,   4301,   3399,  -2786,  10147,  -2946,  -5180,  -2833,   5499,  -2585,  -1058,   4543, -10660,  -3767,   1271,  -3955,  -1018,  -5139,   8634,  -3681,  -5577,  -7437,  -2567,  -7060,   3805,   1845,   7417,    811,   1189,   3202,   3466,  -5232,   3993,  -2618,   7931,  -5565,  -9089,   5535,   -647,   4059,  -1385,   2338,    511,   9447,  -1427,   4699,  -5772,   4042,   1335,   3891,  -3455,   -676,   4200,   7580,  -5903,   6181,   -263,  -6141,  -3674,   6072,  -5673,   -152,   1784,   2114,   7327,  -5498,   1761,   1084,  -2313,  -8838,  -4872,  -8621,   3585,  -6688,   -473,  -4722, -13415,   4473,   2850,   3317,  -8393,   1082,    501,   5007,   4559,  -4492,  -3994,  -2174,   2230,  -2676,  -2593, -13018,   9020,  -7245,   5004,   7934, -13075,   1624,  -9593,  -2394,  14690,  -7365,  -6182,  -2620,  -5613,   2825,   3923,   4179,   2109,   1679,   3959,    364,   1514,  -7441, -14070, -10510,   1958,  -8324,   3034,   5979,   2862,   2173,   3836,   7474,   3393,   1994,   6709,  -4418,   8174,  -8009,   4794,   8116,  -3491,  -6119,  -8809,   4496,   7563,    585,   7434,  -4137,  12656,  -5972,   2024,  -9026,  10619,   7294,   3524,  -2069,  -6294,   1385,  -6204,  -7995,   4319,  -6837,    209,  -5364, -14615,  -6568,  -7106,   3414,  -7027,   5957,   2572,   -408,  -8152,   1725,   2738,   6392,  -6163,  -5693,   6010,  -8518, -17442,   4582,   4931,  -2158,   5186,  -4183,   4845,  -8876,  -2711,   1061,   2003,   6086,  -7772,   2150,  -6553,  -2905,   5307,  -3691,  -7441,   5100,   3384,  -5347,   4069,   3709,    771,  -4171,  -7228,   3897,   4083,   -422,  -3749,  -4159,   5798,  -6817,   5897,   8033,  -6228,    496,   7032,  -3276,   1062,   6730,  -2317,  -3757,  -1522,   6988,   1710,   -769,  -9309,  -2277,  -6752,  -5938,    681,   5288,  -3974,  -3094,  -3138,  -1826,  -2195,   4938,   5423,  -6764,   1482,  -4455, -11082,  -8280,   1613,  -8803,    388,  -1447,  -7774,  -3569, -12854,     -5,  -9496,  -3859,    556,   2094,  10746,  -5691,   5464,   6484,   4961,   5757,   5953,  -7992,   5213,  -4540,    661,  -8512,   2130,  -7958,   3241,   5024,    228,  -2960,   4508,  -1948,  -5763,   6746,   4217,  -6420,   6542,  -6252,  -6255,   5057,  -4305,  -2347,  -1031,  -8672,   5653,  -4542,  -4327,  -2342,   1561,  -2031,  -1049,   2982,   5711,   2526,   6060,   6141,  -3449,  -1023,   5061,   1508,  -6499, -10220, -11037,  -7983,  -4297,   8003,  -4240,   5299,   -904,  -9720,  -5322,   3581,   2138,  -3187,   5866,    459,  -1637,  -2873,   4568,  -5827,  -4675,    262,  -2288,   2736,    415,   7868,  -4518,  -5272,   1379,  -8471,  -5774,   2148,
          5645,   6611,  -8878,   -454,   6402,  -7183,  19422,   6334,  -4715,   8056,  -4381,  -6741,   5737,   4726,   5220,  -2226,   5866,   2087,  -8345,  -1739,  -1362,  -1605,  -3244,  -8749,   4217,   1970,   4160,  -8513,    242,  -9311,   -314,  -4949,   3127,   2848,  -2087,    245,   3797,  -7167,   8891,   7684,   8863,   4404,   4262,   7290,   3992,  -7848,  -1213,  -3594,   8752,    347,  -1479,   2949,   3117,  -2342,   1254,  -7128,   8682,   9493,  -2184,  -3850,   3205,   4672,   6568,  -7477,  -6083,  -2072, -16654,  -5188,   5398,  -9099,   6795,   6675,   3991,   -495,   8278,  -6759,   1694,   1536,   1847,   -473,   6632,  -6937,   1297,  -7377,   -949,  -1752,  -6624,   3664,  -3681,   5029,  -3205,  -7720,  -2300,  -1008,   2337,   -704,   1749,   3327,  -1911,  -4575,   6833,  -3839,  -1728,   1445,  -3508,   1882,  -5151,  -2060,  -1487,   -921,   2000,  -2700,   7027,   4279,   -481,  -6778,  -6301,  -1329,   4923,   1545,   3057,   -106,  -5583,  -1777,  -2951,   -985,  -1512,  -6146,  -1789,   3509,  -1004,   4673,  -2246,     55, -11079,   7409,   6504,  -2347,   5198,  -5714,   5733,   -537,  -2313,   -348,  -8352,  -5623,  14007,  -3682,   5281,   6790, -12760,  -6339,  -3441,   8268,  11591,   5829,   6342,   4344,  -5615,   1939,   2095,  -7582,   6238,  -2953,  -4953,   5566,   2994,  -3866,  -5722, -10055,   5288,  -8895,   1089,  -2965,  -3750,   -110,  -3753,   8117,   3754,  -5330,   3192,   1643,   3273,  -7780,    214,   -889,    743,  -2776,   2313,   5801,   9454,  -2364,   6837,   2467,  -2689,  -3815,  -1631,    274,  18665,  -2668,   8541,  -4552,  -1099,   2916,  -2479,   2129,  -1526,  -7634,  -6333, -12578,  -6356,  -5507,  -8016,  -6018,  -1881,   5580,  -5959,  -8148,    309,  -3901,   5447,  -8039,   2620,   2075,  -3752,   1270,  -3306,   3103,  -6412,  -3723,   1111,   4228,   4349,  -9571,  -8559,  -2390,   3131,   3932,  -3454,    380,    702,  -7974,  -5605,   3784,   4799,  -1184,  -4791,   1220,  -3114,   9121,   3810,  -7784,  -2219,  -8457,  -2298,   -209,   -588,   -946,   -188,  -4392,   4786,  -5695,   9300,   2544,   6642,   3043,  -7983,  -6555,  -1065,   6005,  -5178,  -3791,   3399,  -5927,   2037,   7291,  -4544,  -2230,  -7687,   2355,  -6013,  -2761,   7506,    977,   4765,   -151,   1971,  -6149,   5689,   7044,  -7510,  -8413,   2872,   5752,   5730,  -4436,  -5977,   2395,  -8951,   6383,  -2460,  -5299,  -6878,   7005,   8407,   5387,   2735,  -2470,   -826,   -367,   2065,   6369,   5976,  -1693,   6733,   6936,   -919,   4671,  -4279,  -1039,   1025, -10428,  -2170,  -6180,   5809,  -1863,  12526,  -4497,   -262,  -3267,    563,   1762,   3132,  -4271,  -4952,   -699,  -3176,  -8130,  -4349,   2094,  -1107,  -4827,  -6052,   -346,   3915,   6092,  -6720,  -7639,   6866,  -6919,   2626,   2095,   -266,   -234,  -1994,  -5921,  -3752,   1055,   1171,   -905,   7694,  -2797,  -8004,   5921,  -4629,   6083,   8218,  -2680,   5443,  -6497,   -742,   1667,   6330,  -5745,  -7283,  -6199,  -1818,  -1617,   6459,   4325,  -5282,  -3473,     39,  -4592,   1989,   3143, -20142,   6628,  -6955,    677,  15790,  -5691,   5308,    827,   8965,   6923,  -2595,  -7531,  -1088,   7005,   3763,   1279,  -2812,  -6727,  -5148,   3933,   5819,   5411,  -1564,    930,  -6589,  -7312,  -3778,   -883,   8035,   3793,  -3330,  -4729,  -2371,   -279,  -4755,    -15,   7547,   3653,   4076,   8004,   4116,   5919,  -7326,   3831,  -2513,  -4259,   1254,   5597,  -8882,    167,  -2015,    915,    920,  -6718,   1618,   9583,  -4499,  -5397,    681,    228,    974,   2294,   2730, -11324,  -3108,    143,   1551,  -2295,  -1720,   2323,   2406,  -2054,   -307,   5595,  -2305,   4926,  -2665,  -8225,   2329,   1853,  -5907,   1641,   -490,  -5353,  -1192,  -7324,   1493,   4121,  -7631,   6161,   5326,   2498,  -4983,  -6322,   5637,  13920,   -332,  -3027,    781,   2918,  -1552,   1287,   5740,   -421,   3869,   6830,   6686,  -3987,  -3828,   5011,    687,  -5948,   3944,  -7729,  -5127,  -2927,  -1330,  -8134,   9532,  -2528,  -6181,  -7013,   6539,  -4456,  -4764,  -5311,
         -5048,   7439,   3225,   6552,    -83,   -680,   -278,   6073,    941,   4902,    960,    634,   2724,   1901,  -4477,    869,  -7932,  -1599,  14142,   6135,  -6946,  -9416,  -1771,  -2493,  -5869,  -6789,   -105,   1910,  -2347,  -6132,   -590,  -3924,  -6476,  -8671,  -6486,   1730,   -714,   4294,   2606,    436,  -5813,  -3237,   3398,  -9002,   5166,   7741,   -886,  -1027,   2611,   2240,  -3128,   4979,    690,  -2265,  -9233,   1911,  -2344,   5204,   2404,  -6609,  -2913,  -5767,   4907,   -858,  -2157,  -1021,  -8493,  -4667,  -6348, -10584,   6590,   4698,   1569,  -5215,  -1255,   4736,    279,  -7929,  -4057,   6649,   8320,   1570,   -971,   5406,   6786,  -6280,   -873,  -3258,   -965, -10239,   2099,  -6197,   2620,   5262,  -7083,  -3782,  -2591,    199,  -5946,  -9295,   7374,   5372,   5996,   3063,   4112,  -6551,  -9846,  -3123,   4100,  -2997,  -4221,  -1788,   9207,  -1232,  -3362,  -6911,  -2997,   2620,  10564,  -8066,   9133,  -3637,   3971,  -6186,  -8538, -10101,  -2796,   -433,   3546,  -1424,   -813,   3708,   3761,   2196,   9725,  -7728,   1031,   4071,   3269,   2597,   5182,  -5600,   6287,  -2795,   6522,  -6651,    310,  -7862,    876,   6792,   2985,   1232,   -952,    375,  -4693,  -5933,  -3245,   2584,   -220,    860,  -2810,   1331,   4080,    763,   -321,  -4915,   7700,    809,   6991,   5117,   2234,  -3586,   3636,  -3178,  -5804,   7131,   -892,    304,  -2548,    -51,  -4972,  -5970,  -5528,    645,    335,   3946,   6418,  -6221,   6021,  -6457,   6157,   2853,  -4909, -15103, -13076,  -5230,   2827,   4178,  13226,  -5905,   -122,   4198,  -2854,  -6723,   -623,  -2277,  -4270,   2433,   5996,  -6914,  -4512,  -7784,   3517,  -7871,   -661,   3656,   4809,  -2515,  -5094,  -5504,  -3234,  -4795,  -1908,  -2714,  -4369,  -6896,  -2888,  -1816,  -1057,  -4473,   5177,  -3368,  -4642,    998,   3092,   -275,   3683,  -4036,   4654,    660,  -7431,  -6565,  -4672,  -7370,  -7697,  -6417,  -7435,   1397,  -4894,   7044,  -2851,  -2210,  -4356,   5392,   3532,  -8245,   6122,  -4738, -11544,    236,   5456,  -2004,  18820,    382,  -6264,   3059,   1290,  -2455,   2144,    211,   2039,   1662,  -3479,  -9376,   1573,   4300,  -8523,   4459,  -2227,   2922,   3932,   4143,  -6506,   5074,    509,  -5890,  -1310,  -5380,  -1466,  -5353,   1676,   4890,  -2996,    327,   3411,   5749,  -1108,  -3949,   2290,   1140,  -6912,  -7915,  -2379,   5502,   8872,    887,   3410,  -2003,  -5992,  -2267,    871,  -7461,   3569,   8620,  -3347,  -5446,   4678,  -3309,   4148,  -7966,  -3395,  -4348,  -7944,   5940,  -7301,    855,   6501,   2560,   9347,   5122,   2214,  -8110,  -6875,  -7041,  -6444,  -3672,  -4527,  -4356,  -8055,  -2195,   1143,  -4549,   3144,  -8277,  -3624,   6564,  -4940,   -233,   2159,   -618,  -5113,  -1669,  -1415,   7088,  -4698,  -6868,   1858,  -4552,    557,  -7365,  -7885,   9648,  -2523,   5102,   1331,   4393,   3728,    397,   7575,   5488,  -7396,  -8139,  -4262,  -3779,   5980,  -4490,    411,    309,  -6340,   -522,  -4488,  -5801,   3670,  -3510,  -1734,   7466,   2581,   5731,  -2251,  -8949,   6932,  -5249,   1504,   5592,   8438,   4942,  -4424, -11305,   3498,  -7614,  -7108,  -1943,    345,  -9497,  -6504,  -6939,   7323,  -7120,   -877,   1345,     52,  -6445,  -2954,   5084,   7692,   4019,    578,   6299,   1215,  -1849,   6755,    888, -12259,   7915,    618,  -9980,   1668,   3120,  -4180,  -2829,   6335,  -5470,   6790,  10831,  -4844,    -54,  -2111,  -7398,  -4598,  -3188,  -3721,   2662,   2724,   1984,   3408,   1682,  -9639,   6794,    788,  -3238,   3070,  -4845,    828,  -4928,  15115,  -6970,   9547,   3877,  -4349,   3907,   3959,  -4149,  -5559,   6196,   9354,  -3399,   -359,   5182,    993, -10192,     44,  -1040,   9558,  -2271,   8384,   2458,  -7640,  -9343,  -2174,   2712,  14054,   7506,  -1009,  -3991,  -1853,   1123,   6555,  -6728,   -483,  -1734,   6681,  -5092,  -8199,  -7712,  -3561,  -2585,  10709,   2119,   5859,  -5845,  -2974,  -6094,   6565,  -2219,    704,   7427,  -3232,   2080,   2010,  -1412,  -4727,  -2574,
         -2316,   1842,  -4886,   -755,   -415,   3142,  -2310,   6216,   4195,   2998,   -736,  -8498,  -4940,  -1184,  -2952,  -7846,   4887,  -1059,  -1842,  -1784,  -8328,  -4114,   5830,   3339,   7419,  -5419,   4252,  -6134,  -2480,   4413,  -3785,  -2193,  10332,   5828,   1837,  -3325,  -5020,  -8980,    715,   1704,   6736,   4609,   1191,    -83,   -652,  -5394,   9628,  -7858,   -388,   5670,   7150,   -295,  -1849,   4907,  -2184,   6076,  10315,  -1449,   9194,   -460,   -819,   1730,  -3429,   1530,  -5955, -16098,  -7011,   -249,   2322,  -2993,  17942,  -7499,   8727,   1742,   7032,   6231,   2682,  -7348,   7771,   4802,   9046,  10682,   6977,  -2637,    582,  -5557,  -1745,   4507,   9496,   2316,   5922,   3912,   4103,  -6598,    246,   3496,   1434,   3498,  -5769,   4201,   6274,  -1170,   4760,   3135,  -3850,   5447,   6430,  -6143,  -2372,    319,  -6093,  -7025,   3788,  -2589,   1659,    856,   4780,   2693,  -2542,   5377,   -899,  -1902,  -1287,   1763,    297,  -3305,   1716,   3871,  15535,   -465, -12627,   4103,  -1580,  -7475,  21502,   1036,  -4432,  -4121,   2893,   6527,   5602,    996,  -5534,  -5310,   2572,  -3622,   3346,  -3857,   6185,  -8349,   1200,  -7315,    -32,   9035,   -155,   3592,   1965,  -4115,    270,    -41,  11871,  12138,   9173,  -4597,    -13,  -4468,   5733,  -8532,   6099,  -3361,    586,  -4421,   6621,  -3460,  -4261,  -1433,   8138,   7074,   4741,  -3543,  -8038,  -3401,   4949,  -7763,   3330,   -514,   7516,   1641,    718,   5056,  -1838,  -1142,   6484,  -6291, -20871,   5831,   5132,  -1000,  -2077,   4308,  -5319,   8585,   6489,  -6591,   6861,  -8631,   4271,   4396,    280,   1482,  -5262,   7005,   3913,  -1726,   2426,   4262,   2251,   1587,  -1228,   2510,  -5405,  -7274,  -5603,   7287,   7487,   8787,   9867,   6092,   2834,   6216,  -1269,   6266,   6113,  -2438,   8384,   6514,  -6190,   2433,   1649,   5155,  -1019,  -4298,  -6513,   6046,   4233,   2641,  -1181,  -1425,   3750,   3301,   4744,  -8872,  -2407,   3278,   7112,  -7762,   9999,   2622,  -5686,   7340,   1757,   3894,  -5839,   6965,  -3229,  -2722,   4383,   8117,  -6950,     18,  -3350,  -7668,   9462,  -5624,   3576,  -1912,  -4723,   7923,  -3361,   -994,  -5615,   3860,  -1462,  -1511,   2931,  -7734,  -5186,  -6664,   4225,   -120,   1527,   4398,   4496,  11665,  -1158,  -6912,   -783,   8521,   4836,   3166,  -8406,  -3775,   1852,   3884,  12074,  -2765,   1461,   7644,   1108,   7170,   7314,  -7022,  -1776,   6857,   5687,  -2100,   2062,  -1490,   3475,  -6915,   2356, -11139,  -9608,   2725,  -9680,   7785,  -4610,  -1950,   9274,  10812,  -7193,  -2595,  -9042,   1503,   2398,  -7459,   3493,   2304,   5020,   7205,  -3704,   4970,   9551,  -3980,   5604,  -1355,  -3965,  -4133,   5352,   4390,   4140,     86,    139,   8021,   -374,   3792,  -6144,   9233,   8378,   4893,   1698,   2559,   -506,  -3153,  -9451,    663,  -2414,   1677,   2488,   9364,  -8097,    976,    376,   1036,    795,  -1221,   5229,  -4867,  -3124,     91,  -7598,    383,   9378,   4420,   5223,     -8,   3767,  -3626,  -2779,   2203, -13161,   4161,   2189,   7273,   -904,   7610,  -1593,   -420,   3831,    377,  -1239,  -5557,   5213,  -3586,  -7647,  -5120,  12229,  -2282,  -2441,    979,   1027,   6972,  -8741,  -4193,   4074,  -6828,   3024,   8880,   3020,   1682,   4586,   9053,  -4273,  -6459,   2274,   4534,   6639,  -4086,  -2865,   7613,   2678,   1880,  11371,   -835,   3805,   9876,  -4841,  -3347,    927,  -1301,   2510,   2774,  -4274,    245,  -4170,   1019,  10933,   5106,  -5872,   2732,   -545,   4803,  -1793,   1288,   2585,  -4761,   3088,   2310,  -6766,  -3259,   2871,   -147,   3993,   8002,   5728,   8587,  -7423,   -228,   -831,   3930,   9963,  -7424,   3054,   1742,   6382,   8185,  -1577,  -5042,   3787,    571,  -8333,  -4600,   3299,   1673,   -294,    429,   1060,  -4569,  -3925,  -4070,  -6185,  12029,  -2515,   5896,  -5360,  -7103,   1122,   3179,  -3554,   4418,   -569,   3429,  11553,   7944,     66,  -4262,   1126,   9377,   4707,   6427,  10987,  -7674,
          1945,  10734,  -2123,   2374,  -3648,    232,  -2396,   7619,    549,   3600,  -5685,   4806,   4408,    581,  -3887,  -7674,  -1440,   9149,  -4086,   6744,  -4663,  -4682,   7620,   4356,   5754,   2008,   3036,  11019,  -4459,   9035,  -6877,  -2969,  11848,   5392,   -530,  14179,  -5578,   3513,   -813,   -432,  12244,   1749,  -1603,  10437,  -2328,   2199,    264,   1821,   9742,   3142,   8167,   -392,   1248,  -1274,  11437,   7175,  -2806,   4355,   4509,   1810,  -4671,  -2832,  12952,   -414,  -9928,  15974,  12940,   1609,   7906,    641,   -968,   4591,   8265,   7280,  -7570,  -1047,   2690,   1900,   -761,  -6460,  -5069,   4849,   -264,  13035,  -8870,  -5130,  12753,  -1202,   6246,   7233,  -1261,   1352,  -8552,    342,    -29,   7441,   5517,   2788,    800,   4646,   6358,   -390,   1741,  -4615,   7460,   3648,   -331,   4293,   1983,   4910,   3340,   6733,  -1327,   1262,  -2567,    -97,   4224,  -4280,   4785,   4713,   9252,   8785,   -946,  11161,  -4637,   4436,   1713,   3599,   1615,  -4882,  -5030,     18,  -8582,   3954,    312,  -5576,   4407,  -2626,  -3846,  -7443,   5484,   4142,  -3806,  -6071,   1522,   -594,    209,   1214,  -1483,   1166,  -5162,  -3190,  -2939, -11713,   8504,   6570,  -8469,   2946,  -8614,  -1152,  -2355,  -2056,   4537,  -5879,   2279,   6647, -12749,   5899, -11772,  -7307,  13044,  -1542,   1420,  -1135,  -3871,   5799,  10787,  12290,   9642,  -3222,   6575,  11492,   5584,  -6727,   -649,   7014,   7816,   1578,   3662,   5436,   5694,   4264,   4756, -13371,  -2405, -14153,  -9930,  -5283, -13812,  -4833,   3584,   9443,  -1630,   6521,  -1476,   4307,  -4850,      1,   1656,  -1442,  -4608,   1508,  -5596,   1844,  -4808,   1010,  -1917,  -4171,   6856,   -799,   1154,   3048,   -831,   4600,   4421,   9810,   7557,   3476,   5693,  -2463,   9521,   7397,   2441,  -1243,   2212, -11468,   -605,   7071,  -6556,    708,   6311,  -6692,   3252,   1586,  -2677,  -2026,   2905,   6237,   -721,  -1598,    112,   5305,   5737,   -739,   6164,  -6496,  -9804,  -5211,   -315, -16100,   1195, -10343, -10871,   5165,    301,  -5483,   1126,   5012,   6035,   3417,   3365,   5076,  -4074,   6479,  -1016,   8188,  -5880,  -4665,  10089,   2089,  -3697,   4018,   6759,   7637,   6470,     75,  -4099,   7098,   7597,   4992,   1162,  -5312,   -110,   8625,   3706,   2400,   2381,   7527,  10632,  -1190,    935,  -4211,  -2559,   4172,   7391,   7967,   1588,  -2679,   6219,   4276,  -2040,   1720,   6003,   3681,   -198,  -4103,  -6414,   9278,   5766,  -3948,  -3444,  10473,  -2344,   -967,   2472,   3110,  -4940,   1129,   1819,  -4668,  -3874,   4593,   1816,   5205,   7371,  -1879,   5629,   4679,  -5006,   6187,   5231,  -6688,   -450,   1000,    542,   6086,  -6865,  -4271,  -6680,    367,   7484,   6518,    733,   3551,  12880,  -4581,  -3325,   -223,   6078,  -5677,  -2436,   1134,   9266,  -6261,    273,  -2362,   4626,  -1922,   6653,   8257,  -3792,   5823,   4365,    977,   1698,  -6667,  -6456,   2278,   4698,   5869,   4519,   4951,    825,    269,    586,   6282,  -2115,   2538,   6049,   -171,   2674,  -6936,   3598,   1828,   1771,   9569,  -3177,   1543,   1217,   2752,   6260,  -3989,  -4446,    552,     16,   8828,   9141,   1682,   1106,  -3350,   -383,  10016,  -2589,   4804,  -4287,  -7131,   8104,   6980,   8055,  -3272,   5826,  10326,   8140,  -6432,   -428,  -6003,   3582,   8107,  -3534,  -4882,   3746,   3616,   1155,   2659,   4534,   9926,  -3031,   5352,    718,   4587,   3802,  -3625,   7295,  -3380,   4375,   3461,   9239,  -3218,   4573,   3667,   6907, -10417,    995,   7649,   3089,  -4910,   5545,  -5415,  -6404,   4294,  -6845,     31,   4158,  -6202,   5421,  -1523,   7998,  -1508,  -4712,   -480,  10486,   7364,   1152,    -69,   2355,  -4365,  -2320,  -4602,   -576,  -7064,   5107,  -5802,  -3308,  11884,   2095,   7282,   1997,   4970,   8020,   -511,  -2433,   9165,   -622,   8197,   6102,    436,  -3653,  -2598,   7932,    655,  -4663,    462,   -289,   2747,   -846,    -99,  -7120,   9758,   -471,   7180,  13295,  -3654,
         -3208,   2853,  -2056,  -3229,   7434,  -7396,  -7119,   -656,   1910,  -8412,   2583,   2146,    153,   4693,  -1825,  -6148,  -6033,  -7951,   -486,   1700,  -2931,  -2682,  -8592,  -3828,  -4713, -10443,    673,  -1232,   4026,   2476,  -3517,   5068,  -4270,  -4160,   6852,   3033,  -2282,    922,  -2557,   6742,    153, -10627,   -317, -10405,  -5835,  -8014, -10566,  -5104,   4715,   -459,  -4451,  -4527,  -5365,   7623,   -893,  -5597,  -4263,   5604,   4312,   8618,  -7161,   8360,   3501,  -6348,  11171,  -8290,  -8307,  -3800,  -3141,  -3495, -13532,   4772,  -2507,   6917,  -3449,  -2922,   4595,   8020,  -5165,  -4415,  -5009,  11818,   7410, -16629,   7815,   7027,   4384,   4449,  -9028,   8673,   3054, -12920,   7257,   8062,   3375,  -4073,   5188,   7373,  -1388,   5494,   4647,   9963,   8416,   4696,   2168,  10590,  -3014,  -8572,  -4754,   3747,   3127,   5314,   -385,    432,  -4041,   -924,   6733,  -1917,   2798,   2944,  -1334,   -261,  -6252,   3401,   2004,  -5061,   1814,  -3909,   -831,   -488,  -4010, -12072,  -1393,  12108,  -4626,  -3110,    776,    912,  10107,   1999,   -689,   -224,  -1957,  -2313,   2974,   7115,  -1019,  -7321,   2727,    769,    298,  -5025,   2186,  -1378,   -800,  -4280,   6281,  -5032,   3554,    787,  -1455,  11179,  -4132,    -29,   2451,   3573,   4062,   1962,   8374,   8517,   -459,   4641,    419,   1879,   9624,  -6645,   7520,  -2521,  -4670,  -3514,  -8252,  11338,   4222,  -6492,   8952,   6493,   4051,   3520,   6419,   4180,   2689,  -4827,  -1158,  -6642,    942,   5920,   2529,  12817,  -7977,   7520,    763,   8151,  -5608,   8611,   5966,  -2172,  -3830,   5673,  -5884,   9398,   -581,   4972,   3425,  -5728,  -1087,  -6833,   4372,   2310,     14,  -3476,  -7419,  -1332,   3291,  -7048,   -674,   1411,   3459,  -8453,   3665,   1065,   2058,  -5982,  -7169,   7918,   5809,  -5412,   2754,  -1735,  -6495,  -6078,    684,   6904,    608,     38,   4420,   3502,  10461,   7544,   6057,  -3466,   2768,   9143,  -6972,  -3512,   7349,  -7692,   2470,   5870, -10137,    743,  -3486,  13596,  -4083,  -2690,     47,   7486,    124,    440,  -6103,  -6417,   3924,   7729,  -1302,   5827,   -332,  11260,  -2570,   1276,   6713,  -5629,  -1103,  -4753,    185,    716,  -4305,   2589,  -1495,   2965,  -1483,   4838,   3011,  -3899,   3932,  10354,    333,  -7834,  -3928,   -533,  -6158,   4925,  -7904,   1995,   1976,  -1172,   5300,   -770,   -201,  -2434,  -8509,    354,  11552,   -579,   1320,   -281,  -3681,   6856,  -3823,   8698,   -925,  -7966, -10524,   9254,   8274,  -3696,   3925,   5667,  -3291,   -369,    396,  -2065,  -1324,   4587,  -5786,  -2712,   6398,    237,   4668,  -2023,   8345,  -1986,  -6660,  -4476,  -2479,  -7711,  -5368,   6537,  -2423,   4890,  -5141,   7812,   8011,    326,    919,  -6775,   7048,   4040,    102,  -3609,   3554,  -3695,   -394,   7985,  -6666,  -2006,   -860,    528,  -5690,   7116,  -5657,  -1355,  -6014,   4332,   1258,   5165,  12422,  -7757,   4285,   3213,   -224,  11065,    -73,  -4468,  11251,  -5477,   2040,  15344,  -7037,   5710,  -3958,  -4003,   4001,  -4877,  -7341,  -5070,   -462,   1890,   4006,  -2250, -10417,   7925,   2794,  -8078,  -1077,  -6807,   4606,  -9425,  -2452,  -3191,   8059,  -9424,  -2804,   1179,  -3615,  -5015,   -593,  -4810,   2034,  -2088,    509,   -156,  -4496,  -2939,  -8181,   -581,  -8052,   2755,   5294, -11054,  -4299,  -6884,  -3350,   1661,  -2391,   5248,  11276,  -2119,  -2246,   8471,   1122,  -7940,   -372,   2214,   3762,  -6430,  -5255,  -2896,  -3656,  -3718,   8380,   7716,  -7174,  -3076,  -7879,  12559, -12155,   2455,   4630,  -2130,  -4473,   2382,   6590,  -5775,   4654,    740, -13447,  17140,  -1601, -18645,   7729,  -5781,  -4968,   6786,  -4541,   9473,   5815,  -1056,  -1449,  -3623,   4064,    611,   7817,  17015,  -4311,  -7613,   6308,   8601,   6362,  -1728, -12933,  16353,  -4710,  -7904,   6654,    765,  -6657,   4318,  -6709,  -2299,   5717,   -365,  -6652,  -2255,   -891,   4055,   -431,    479,  -1468,   7811,   -961,  -3937,  -3787,   4714,
          3031,  -3925,   2946,  -3822,   -261,  -1723,  -2532,  -4608,   1365,  -6192,   3066,   2814,   4190,   2691,   1614,  -5680,   4083,   8146,  10262,   -253,   -387,  -5634,   1998,   5099, -11086,   4965,   4108,    913,  -6407,  -5686,   6988,  -3253,  -2952,  10407,   -195,   -559,   3213,   8268,  -2657,  -6889, -10514,   1315,   2454,  -2120,   3981,   -295,   7565,  -5457,  -6232,   7607,  -7784,  -6506,   -800,   3229,  -2828,  -4412,   -615,    559,  -6263,  -2121,   -955,   3147,  -2614,    382,   3067,  -7201,  -2499,   -662,  -2411,  10007,   4308,   -174,   1996,   8631,   8554,   5999,  -3211,   5801,   4003,   2678,    805,   2942,  -1589,  -5273,   1845,   8386,  -2437,  -1621,    139,   1884,   4356,   3645,   1457,  -5450,   3794,   6567,    622,   -484,   8858, -11420,  -2728,  -1868,   3770,  -6310,  -6449,  -2633,  -1132,   4377,   5210,    890,  -4768,  -3109,  -6259,   9297,  -3134,  -1969,  -7894,   6038,  -3835,   4758,  -4065,  -2749,   3529,  -4682,  -5614,   2791,   -687,   1716,   2757,   3954,  -5139,   8094,  -3819,   9020,   3539,  -8018,   -282,    383,   4847,   1011,  -4969,   8252,  -3483,    846,   3140,   6457,   6419,  -4519,  -8768,  -5243,  -2714,  -7118,   2753,   1744,  -4339,   3933,   6859,   3238,  -2788,    -77,  -4592,  -2622,   6238,  -5522,  -2473,  -1710,   8669,   3981,  -4448,   5239,  -6490,  -5147,   7822,   3954,   7002,  -2594,    806,   7741,  -3800,   5033,   2612,   7124,  -1865,  -1868,  -2276,   6139,   5689,    378,  -6650,   3365,   6516,   1783,  -4720,   6393,  -5470,  -9523,  -5158,   2545,  15534,   -508,  -4653,   -299,  -4303,   4602,   4202,    223,  -3043,   7355,  -9545,   4853,  -5813,  -3075,  -7568,  -5350,   9138,   -297,   5705,   7294,   3140,  -4062,   5314,  -4731,   6160,  -8014,  -1607,  -5303,    169,   2931,  -5973,  -2131,   4426,  -4947,   6415,   6384,  -9083,   5181,   -114,   8462,  -5569,   -944,   4817,   3879,  -2975,   1641,   4291,   6679,   1134,  -4648,  -3400,   3981,   2556,   3682,  -2606,   8832,   5135,  -3200,  -5982,   3014,    425,   3038,   7183,   5108,  -4465,   5939,   5233,  -8700,   8092,  -9537,  -8484,  -5995,  -3789,   2554,    -20, -14754,  -4795,   5167,    363, -11137,  -1104,  -7812,   -453, -13629,  -4392,  -3602,  -8723,  -2679, -11989,   2821,  -8641,    737,  11939,  -1727,  -4821,   9116,  -9151,   7310,  -8012,    322,  -2375, -11712,  -3852,   -910,  -6192,  -1961,  -4842,  -2261,  10993,   1280,  -4183,   -919,    -82,  -1124,  -3662,    321,   -318,   4540,   2839,   4482,   6610,   1816,  10299,   6815,   1373, -10770,   2562,  15992,   1563,   2979,  -5613,   2462,     57,   6953,   5288,   -402,  -2712,  -2533,  -5036,   3684,   8667,  -3974,  -2444,  -5898,   2076,  -3872,  -9136,  -1614,   9930,  -1842,   2343,   7651,  -4378,  -3332,  -2788,   4520,   -177,  -4585,   3293,   4503,   7434,   6598, -11480,  12432,   8695, -10171,  -4661,   8549,   1979,    100,   2527,   3002,  -4663,   5710,  -1806,  -4452,  -5608,   3093,   4628,   -903,  -4754,   9425,   1753,   3011,  10711,   2492,  -5571,  -7385,   7061, -16622,   1693,      7, -12400,  -7856,  -9708,  -6922,  -3362,     41,  -5484,  -4827,  -5596,   1586,  -6638,  -5140,   1300,   3133,  -4487,  -1130,  11397,   1004,  -6252,   6413,   4806,    748,  -2136,   3835,    589,   2653,   4719,  15608,   -200,   3610,   3610,   9023,  -4660,   4492,    338,   5677,   7963,  -6585,   3982,  -6165,  -3072,   7734,   5920,   3949,   8151,  -1555,   5546,   -730,   9518,   5266,   2350,   -441,   5764,   3889,   2505,   8555,  -1368,  -5566,  -6173,   2154,   1232,  -2715,  -4512,   6238,    696,   3921,    319,   6109,  -2002,   4742,  -4701,   3074,  -8257,   3932,   4015,   7571,   7516,   6282,  -6318,   2176,  -2987,  -1564,   5823,   1023,  -4626,   6753,   5978,   3874,  -2634,  -7553,  -1419,  -5608,   4567,   -538,  -7812,  -1433,   3791,   3302,  -5789,  -4893,   5980,   2785,   5954,   2835,  -7654,   3269,  -1104,    574,   8199,   1009,  -7758,  -5055,   5974,    133,  -8377,  -3691,  -4656,   7233,   5610,   7031,  -3044,  -7085,
          5191,   8427, -10293,  -3662,   2097,  11614,   -121,  -3883,   2583,   -520,  -2119,    247,  -7766,    898,   -111,   4437,   1825,   -851,  -6198,  -6295,  -5706,   5064,  -3310,   3426,    798,   -895, -10768,   5586,   4344,  -1542,  -1353,  -3194,  -9379,  -7872,   2958,   1010,  -1245,  -1558,  -7282,   3331,  -5080,  -5418,  -2032,   2417,  -6758,   3919,   7588,   3984,    733,   4484,   8796,  -7320,  -3182,   8658,  10486,  -6247,   1419,   3392,  -6828,    595,   5176,   2304,   4031,   4307,   -217, -17694,   2367, -12084,   4997,   -665,  -8783,   1983,  -1948,  -5417,   1171,   6247,  -7954,     -7,   3361,  -7189,   -226,  -7072,   2887,   5486,  -2173,  -3745,  -1539,    340,   5528,  -2523,  -7777,   3321,  -5829,  -8928,   -835,  -7455,  -3000,   3391,  -1350,  -2487,  -3581,  -2522,  -1986,  -4194,  -5627,  -2471,   2840,   6257,  -5356,    652,  -1707,   3383,   2301,   4565,   -929,   7600,   -603,  -3089,   2993,   2088,   5426,   1478,     72,   5961,  -5006,   1250,   6669,   3783,  -1235,   1860,  -6646,  -4440,  -7408,   -911,  -8759,   2679,   2319,   4208,   -631,   5898,   4515,  -7726,  -7213,   1380, -11622,    606,  -4313,  -5030,  -1731,  -5977,  -4071,  -1707,   7064,    273,  -2677,  -2025,   1123,    809,  -5572,    107,    568,  -4006,  -3240,   1062,   -298, -12385,  -3773,   7847,  -8451,  -2482,  12137, -13371,  -4336,   5324, -13515,  -5282,  -2401,   -499,  -2682,  -4491,  -1652,  -8860,  -5444,  -2024,  -5578,   6961,   1554,    324,   6145,  -5323,  -5571,  -1235,  11808,  -1542,  -4135,  -4952,   4318,   6077,  -4220,  -6616,     60,    230,   9431,   5401,  -6167,  -1498,   5355,   4693,  -1580,   9243,   7545, -13303,   3768,  -2401,  -1441,   7843, -10068,   6705,   8211,  -9399,   3044,  -3738,    465,  -1467,   5743,  -1659,  -3064,   3093,  -4052,   2907,    932,   -178,   4045,   6545,   1551,  -9316,  -4099,  -6206,    451,  -1899,   7552,   7015,  -6263,  -5559,  -4223,    456,  -2799,   -809,   7770,  -5282,   7231,   2175,   6238,  -3292,  -2413,    111,   4792,   -507,  -3781, -18453,   3705,   6388,   -863,   2670,   2592,   -708,  -2256,   -227,   4109,  -5594,  -1781,  -3623,   3550,   2077,    448,  -8874,   2368,  -1849,  -1285,     69,   4513,  -4173,  -2370,  -6761,  -1428,   1550,   5078,   6046,  -5520,   2607,  -5166,   2305,   4104,   9043,   3140,  -6874,   2250,  -6864,   3099,  -4404,  -3126,   7750,  -1456,   -393,   2733,  -3636,   7267,   -552,  -2677,   2943,  -4748,   5259,   -287,   4374,  -2397,   4626,  -3037,  -5161,  -1361,  -5937,  -1299,  10386,  -7442,  -6514,  -4237,  12594,   3586,   4372,  -2966,   4953,  -4197,   2984,   4631,   2527,  -4560,   1205,  -2444,   1041,   4011,  -4165,   4545,   2063,  -3105,  -7916,  -3194,  -2623,   7830,  -1861,  -4002,   -140,   5179,    908,  -8990,   4877,   -858,  -8435,   1722,   5688,   3259,  -3969,   3851,   3920,   2423,  -4265,   5313,   -971,  -6840,   4035,   -655,  -5825,   1737,  -2289,  -4759,  -3997,  10165,  -6451,  -3081,   8274,  -4054,    622,  -3099,  -1989,   -903,  -5519,    102,  -3159,   1596,  -4985,  -4799,  10425,   1901,  -2458,   1905,  -6255,  -4404,   3058,  -1624,  -5857,    857,  -6413,  -6358,  -2763,  -3799,  -1374,  -8340,   5000,   6903,  -6599,  -8609,     72,  -2170,   5392,  -4420,  -6566,  -3261,    752,  -5368,   1839,   8669,  -5686,  -2429,   6267,  -2338,  -3078,  -7121,  -9486,  -3976,   5573,  -5611,   1251,  -4504,   7609,  -5276,  -2260,   -733,   1665,  -1826,  -7154,   4576,  -1022,  -6087,  -5554,  -4021,  -2285,  -1242,  -1127,  10687,   2291,   1446,  -1875,   -967,    283,  -3384,   3211,  -3623,   1148,  -3177,   7979,  -4024,   -540,  -4839,   4478,   6394,  -7137,  -8495,   5105,  -5470,   3283,  -6988,   4151,  -4532,  -6028,  -9777,    985,   7235,  -4754,   -345,  -8061,   2495,  -6997,   3692,   2348,   4225,  11452,  -6407,   3227,  -2482,   5875,  -7907,  -5754,  -8200,   5315,  -7271,  -1422,  -7647,    463,   5333,   2959,   1596,   8646,  -3065,  -6137,    845,     19,   1160,  -3886,   4761,   9034,  -6657,   4073,  -1897,  -2876,
         14585,   1826, -14194,  14116,   4356,   7430,  10574,  -1397,  -4801,   5453,  -2775,   2628,   2193,   -464,    686,   6758,   3500,   3759,  -2054,   1885,   5300,   6069,  -4266,  -2383,  11571,   3684,   3371,  13758,  -8798,    634,     80,  -5367,    421,   4234,    559,  -3206,   4414,  -5137,   8072,  -6604,   1554,   4393,   1154,  -4403,   1575,   6395,  -5539,  -2730,   7573,  -4604,   2336,   6502,  -3337,  -9246,   1646,   4655,  -1218,   5721,   4585,   7046,   1605,  -2403,   3350,   6787,  -1063,   9181,  -4601,  -4166,  -3447,   2703,  -4455,  -6540,  10007,  -2714,  -1419,   2758,   3729,   9507,   7489,  -1001,  11577,   3257,  -7350,   -221,  -7249,   2101,   6565,  -2802,  12590,   -475,  -7086,   6591,  -7269,  -1306,   2849,  -4198,  18101,  -1657, -13571,   6430,  -8550,   6884,  12361,   5857,   2797,   4107,     -4,  -4531,   1612,  -2056,  -6275,   2686,  12085,   4715,  -5172,  11309,   -191,   1236,   2305,  -1647,   7408,   8890,   3683,   5743,  -2169,   2566,   2426,    955,  -4739,   3002,  -1296, -12853,  -8641,   1741,   3015,  -5075,   3710,  -1129,   -490,   4605,  -1956,   5138,   2072,   3550,    170,  -5472,  -3582,  -5625,   6803,  -7094,   9228,   2428,   2673,   5292,  -5991,  -6652,  -5930,   6076,  -2340,   -938,   3181,   9058,  -8565,  14305,  -7115,   2667,  -3620,  -7069,   1063,   1904,    662,    -24,   -199,   1089,   4219,   7711,   3874,  -1556,   2243,   4756,     49,  -4806,   3177,   4354,   9786,   7073,   -402,  -4590,    245,   4248,   7853,   4397,   6392,   2308,    856, -14279,  -8576,  14208,  -2219,  -1397,   5328,   5857,  -5868,   6738,  -6878,   5135,    931,  -6969,   6584,  -3567,  -7205,   -440,    196,   1219,   1102,  -3988,  10063,  -1159,  -7960,   8774,  -1393,   7727,   4496,  -6040,  10749,  -3372,  -4317,  -2439,  -1038,   7878,   3668,   6663,   1859,  -4945,  -8396,   7947,  -7663,   3864,   2959,   5750,   -866,  -2060,  -1826,   4448,   1023,  -4082,   3859,   4887,   2622,  -4741,   4015,  -3913,  -2812,   -754,   6662,  -6307,   3979,  16246, -10455,   7692,   6127,  10854,   2001,   4833,   1179,  -4398,  -3347,   9285,  -5164,   3404,   -779,   6361,   -571,   3526,   4438,    817,  -2964,   1059,   5352,  -2641,  -4179,     42,   1092,   7299,  -7397,   2678,   2436,  -6732,   5501,  10082,  -2394,  10220,   5572,  11225,  13622,  -7121,   4914,  -1102,  -4013,   6532,   5737,   5688,   7787,   -318,  -4762,  -4303,   3233,   4545,   4107,   1605,   8469,   -167,   -976,   -742,  -4690,   4246,    947,  -6101,   3747,  -3766,   -522,  21713,  12128,  -2539,  -1975,  10049,     54,  -1306,   4885,    102,  -3830,   9540,   1276,   4302,  -4474,  -1267,  -3290,  10414,   2832,   5470,  -4849,   3003,   -451,  -6048,   -990,  -2010,   6477,   2028,  -3557,   4407,  -3204,  -7352,  13064,   -897, -11467,  11800,  -1652,   9269,   -599,   3502,   7955,   5218,   7181,   5710,   1967,   3865,   2958,   3185,   3190,   6586,   7786,   1943,   2397,  -6934,   9453,   5621,  -2659,   3007,   4126,   6770,   5148,   4327,   7023,    881,  -5067,   5031,  -3846,   8257,  -2027,   1632,   1828,   6694,  -5640,   7489,   7876,    492,   2466,  -1504,  -5282,  -4143,   7071,  12655,  -5034,  -5171,     93,   6183,   1151,   1178,  -5827,   6249,  11043,  -9165,  -2915,   1216,   -472,  -1161,  -7302,   5231,   -458, -10933,  -3045,   3505,  -6310,  13598,  -7147,   8215,  -4846,   -360,   3080,  -3995,  -1940,  -7777,  -7470,    398,   6087,  -4297,   5386,   -233, -12026,   6869,  -1912,  -6224,  -3310,  -5382,   4483,  -1793,   -191,   9794,  -1578,   1876,   9519,   6585,   5542,  -3034,   -800,   2495,  -7031,   1716,   8027,   8308,  -6121,  -9425,  -1688,   4421,   4921,   1821,  -7398,    252,  -6025,   -553,  -2799,    191,  -4854,   6471,   -596,   8103,   -707,  -6256,    973,   -677,   2700,   5626,  -1427,  11690,    822,  -9091,  -2991,   9006,    586,  12327,  -8280,   8771,   -127,    682,  -6114,  -5283,   2802,   1068,   6337,   -551,  -4948,   3965,   5270,   4078,   -763,  -1625,  -5907,   6522,  -6832,      7,   -900,   5420,
