#include "birdnet_default_int16_coefficient.hpp"
using namespace dl;

namespace birdnet_default_int16_coefficient
{
    const static __attribute__((aligned(16))) int16_t statefulpartitionedcall_sequential_conv2d_biasadd_filter_element[] = {
          3938,   -578,   2889,   4640, -14252,   5163,   4004,   5430,   3290, -17395,   6555,   -765,   1642,  -3805,  -5036, -11792,   4906,  11488,   1374,   8147,   6449,  -2057,   9507,  -1526,  10297,   2296,  -1430,   1065, -12640,   9810,   4854,   8313,  -7784, -19197,   3599,   9583,   5982,   3746,   7158,   5769,   -299,  -1158,    174,   7121,   -313,   8943,  -7259,   6008,   3217,  16155,   6468,   3964,  -2498,   -635,   1214,  -1477,   2525,  -7940,   6348,  -8908,  -2748,   7826, -11132, -11743,   4650,   7551, -11042,   -439,  13883,  -3255,   6105,  -7654,  -8638,  15324,  -3920,  -5381, -12252,   6472,   6060,   6044,  -5950, -15169,  -2253, -10819,   4993,   5204,   1125,    409,   1012,  11368,   -563,  -4083,   5488,    992,   5953,   6817,   4973,  -3786,   7928,   1682,  -2182,   1256,   7134,     76,  -8901,   -825,   -128,    171,  -1347,  -6039,  -8511,  -6242,  -6783,   3033,  -7179,  -8584,  14130,  -1003,   7235,   2026,   5986,  10939, -10274,   6829,   7950,  -4842,   1923, -12471,   7662,    739,  13229,  -8000,  -7879,  10085,  -3254,   2744,   -100,  10154,   6288,  -2512,  -3676, -12244,   6320,   9553,  -8524,   4638,  -3746,  13090,   8074,  -7886,  -4071, -11610,  -6431, -10682,    -44,  -6948,  -3175,   9004,   9364,  -6471,  -2837,  -7801,   -924,  -2223,   7546,   2072,  11366,   8433,    188,  12362, -10009,   9976,  11110,   6255, -12299,  -3181,   1493,   9628,    233,   2630,  -7737,   6401,   4612,   8100,   5065,  -4600,    395,  -5021,   -895,  -5353,  11935,  11248,  -5913,    214,   1320,   3812,  10537,   2964,  -8461,   1965,  -6004,  -1532,   -676,   9429,   3962,   5089,  -7063,  -7469,    423,  -4957,    631,  -7391,  -2852,   -867,  -6003,  -3695,   7897,  -8613,  -3206,  -1143,   4410,  -8320,   3115,  -3642,  -2598,  -4006,  16182,  -8066, -12140,   1000,  -4672,  -1639,  -9622,  -6735,  -5990,  -6996,  -1787,  -4683,  -4518,   7038};

    const static Filter<int16_t> statefulpartitionedcall_sequential_conv2d_biasadd_filter(statefulpartitionedcall_sequential_conv2d_biasadd_filter_element, -16, {5, 3, 1, 16}, {1, 1});
    const Filter<int16_t> *get_statefulpartitionedcall_sequential_conv2d_biasadd_filter()
    {
    	return &statefulpartitionedcall_sequential_conv2d_biasadd_filter;
    }

    const static __attribute__((aligned(16))) int16_t statefulpartitionedcall_sequential_conv2d_biasadd_bias_element[] = {
           161,   1341,    507,   1224,   1403,  -1179,  -1528,    668,   -391,    131,    832,   1031,     16,    644,    345,     62};

    const static Bias<int16_t> statefulpartitionedcall_sequential_conv2d_biasadd_bias(statefulpartitionedcall_sequential_conv2d_biasadd_bias_element, -15, {16,});
    const Bias<int16_t> *get_statefulpartitionedcall_sequential_conv2d_biasadd_bias()
    {
    	return &statefulpartitionedcall_sequential_conv2d_biasadd_bias;
    }

    const static Activation<int16_t> statefulpartitionedcall_sequential_conv2d_biasadd_activation(ReLU);
    const Activation<int16_t> *get_statefulpartitionedcall_sequential_conv2d_biasadd_activation()
    {
    	return &statefulpartitionedcall_sequential_conv2d_biasadd_activation;
    }

    const static __attribute__((aligned(16))) int16_t statefulpartitionedcall_sequential_conv2d_1_biasadd_filter_element[] = {
         -5881,   6304,  -6019,    -48,  16474,   6734,  -3688,   4914,  19301,    135,   6455,  14157,   1444,   8257,  -5992, -19593,   3474,   9351,  -5957,  -4581,    308,   7172,  -5562,  10187,  -4643,  -4591,    106,  -5588,   5642,  11286,  -6578,   2822,   7027,  -4217, -11263,   9403, -11709,  -8708,   8800,  11131,  -7853,   8488,   1270,   7827,   8017,   7892,  -3096,  -3497,   7890,  -5006,  -2383,   8360,   6705,  -1805,  -5780,   -789,  10156,   9639,   5522,  -1903,   9667,  11064,  -3967,  -9979,    134,   4175,    318,   7193,   9725,  -2092,   6975,  -8904,  -8685,  10745,   -443,   6477,  31605,  -1019,  -4374,  11475,  10235,   4187,   7277,   -596,    183,  -4474,   4961,   3797,  -4574,   7773,   7656,  -6789,   9216,   4224,   5374, -12616,   6998,   6107,  -8555,  -3073,  11113,   6614,   3608,  -4607,   4584,   6706,   5017,   1885,   3534,   2381,   4447,   8772,  12514, -11133, -12775,   6430,   7294,   2553,   3642,  -6053,  21024,   3866,  -5474,   4160,   5333,  -1618,   2408,   2022,  -8848,   4681,   8439,   4026,   1533,  -5271,   -828,  -1157,  -4427,  16877,   2813, -14055,  -5931, -18736,  10878,  -6101,   3394,   6379,  -9885,   2717,  -3379,   7732,  -7768,   4974,   7060,  -8360,   7519,  -1304,   1101,    325,  10150,   8357,  -3498,  -4669,   4543,   7802,  -3254,  -5539, -11372,   2186,  -5119,   3057,   7310,   1764,   6623,   1961,  -5015,   5702, -13310,    903,   2712,  -9023,  -5557,  -1870,   8094,   4135,   2015,  10621,   7870, -11167,   9423,   3831,  12838,    -57,  13512,   9403,   3420,   8373,   3117,   3817,  -4296,   5120,   8605,   4974,   7513,  -1316,  20229,   6200,  11230,   3814,  11801,  -8676,  -1591,   6192,  -9276,   1193, -13634,   -618,  -3907,  -1055,   9069,  -8307,   5671,   6759,   4701,   2922,  -9504,  -3951,  -8666,  -6192,   5568,  -3432,   8184,   6202,   6104,   5662,  -7893,   2986,  -7037,   5662,  -1537,  -2276,  18492,  -2948,   6375,   7136,   1186,   8022,    -25,  -6409,  10643,   5774,   5182, -11559,   -192,  -2346,   5848, -16350,   1031,  -4612,   -651,   8260,  10509,   1432,   2652,   1107,  25211,  -4606,  -8613,  19223,  -1368,    779,   5070, -12549,  -6820,  -4628,   3105,   5511,   6179,   6993,   3282,   2691,   7002,  -5556,  -4480,   6680,   8971,   2453,  -7292,  -9567,  -4123,  -1431,  -1804,  -2535,  10824,  -9395,  -1922,  -8316,   2158,  -1824,  -5509,  -8771,  -6941,  -7500,   5425,  -6159,  -3863,   4491,   6394,   4031,  -5179,   4382,   2775,   5849,   5433,  -6109,   7169,  14414,  10779,   -827,  -1851,  -9199,   8496,   6022,   9314,   9734,  -8726,   1814,  -2517,   7809,  10278,  -6902,   5177,   4928,  21688,   8472,  -3176,  -9769,  -2995,   1184,   7210, -15334,  11450,  -5963,  11885,  -6382,   9780,  -7523,  -1540,  20711,  -1213,    115, -10055,   -547,  12259,     76,  -9202,  12280,  -2841,  -7228,   7146,  -4958,  -6881,  -4932,  -5271,   2450,  -1757,  -6503,    669,   9107,   -719,   2017,  -2228, -14651,  14242, -16523,   2027,  -4618,  -1160,  10807,  -6046, -15608,   -230,   -464,  13014,  -4134,  -7198,  -2456,   4897,   -765,  -4857,   1342,  -9157,  -7023,  10221,   2105,   -131,  14060,  -3258,  12828,  -3956,  -8509,   -994,   8446,  -3119,   -666,  -2215,   5185,   6930,   4828,  10927,  -8353,   -732,  -3721,  -3463,   1109,  -3817,  -8884,  13324,   7195,   5946,    335,  -2645,  -1723,  -1806,   3110,    946,   6755,  -8002,  -4009,  -5168,  -1360,  -9255,  -6147,   1621,   4354,  -4969,  11819,  -8004,  -1053,   4146,  -6348,   4789,  -3715,  -6147,   2951,  12411,   -918,   1374,  -7355,   4795,  -5998,   7698,   -476,   6065,   3591,   6868,   6707,  -7238,   2691,  -5070,  -1031,  10535,  -3202, -10493,  -6600,  10060,  -3051,   9738,  -3208,   2950,  -4839,   1232,   4392,  -2820,  -1350,  -6607,    957,  11873,    431,  -1279,  -5014,  -1340,   5784,   3396,   8369,  -2594,   6047,   -367,   2319,  -7920,   6086,  10144,  -4409,  -6346,  -9375,   9754,  -2401,  19867,  -1126,   1832,   8163,  -6053,   8654,  -1883,  -5636,   7755,    848,   7457,   8126,  -6005,  -7861,  10256,  -8643,
         -4816,  -2571,  -8237,  -9743,  -4588,   5470,   2050,    786,  -8764,  16566,  -4064,  -6508,  -2103,  -5377,  11347,   6320,  -8239,   8079,   8290,   9773,   1035,  -6028,  -9173,  -4857,  -4524,   5432,  -4437,   3154,   -752,   1351,   6713,  12241,  -5376,  -4162,   6422,  -6235,  -1267,  -2777,   3670,   4235, -10146,   1677,  -5807,   5920,  -6552,  -8628,  -2226,   1087, -13890,   -100,  -2180,    965,  -6067,  -9454,  -5737,   3014,  -1155,   5519,  -6438,   -662,   1744,  -8676,  13283,   6270,   9605,  11832,  -4222,   3755,    691,  -6943,   4653,   5778,   6295,   9157,   3118,   8619,    780,  -1322,   4781,   4173,  11792,   -314,   5870,   -126,  -2937,   6908,   -897,  -4175,   9100,   6981,   5379,   6303,  -5154,   4397,  14638,   6841,   2140,   8145,   9330,   8046,  -7820,  -5019,  -1511,  11260,   2702,   3609,   4573,   7839,  -4708,   4107,  -8554,   6780,   2522,   1368,  -1943,  -7836,  -8412,  16410,  -4529, -10337,   -253,   3460,    898, -11320,  -8820,  14346, -13719, -12388,   1278,  -6118,   8160,  -3835,    420,     61,   7580,   1451,  23657,   9036,   -816,   6950,   5324,   1917,   1054,  -4345,   4726,   7972,   -325,  -1699,  -9136,  -1308,   7861,   7491,  10374,  -1059,  -4625,  -8010,   8917,   9383,   2037,  -4136,  -5395,  -3290,   -828, -11462,   3007,   -828,   7181,  -4100,   4415,  -8699,  -5288,  -4434,   2943,   -266,  -2186,   8166,  -5938,   5787,  -1008,  -4361,   4003,   6488,   8206,  -3543,   7611,  10146,    449,  13543,   1554,   9377,  -4628,   3749,   1977,   6392,   6335,   8167,   6821,  -3589,  12119,  -4640,   6434,  -6460,   4519,   3578,   5389,  14783,  -6568,  -5197,  -9639,  10909,  -3696,  -7244,   6137,  -8013,  -5005,   8997,  11122,  -6635,  -1579,   9219,  -8460,   3885,   6739,  -5717,  -3563,   2241,   2808,  -5630,  -8915,    -14,  -4469,  -3896,  -6753,  -5516,  -9706,   2441,   1110,   7628,   1752,  -8273,  -7203,  11599,   2597, -11674,  -1645,   3134,   2645,  -6689,   -808,  11688,   5988,   2817,  -5932,   3406,   3110, -15758,   2108,  -2113,   1894,   7172,  -6432,  -1531,   -504,  -3424,  16694,   -742,  -2485,     35, -10253,  19446,  16588, -10666,  -7398,   9717,   5325,   9695,    506,   3574,   7824,  -6442,     55,   6652,   3262,   4001,   4494,   7189,  -1648,   1391,  12594,   8256,  -8748,   1077,  -2655,   4380,   5613,    438,   -216,  -7230,  -2889,   5168,  -4329,  -3326,  -6080,  -6177,   5810,   4505,  -9049,  -3794,  -8604,   -843,  11819,   2466,   -384,   2656,  -4676,  10828,  -1616,   8491,   9032,  -2987,   6634,   4766,  -2759,  -4188,  -4399,  -1095,   -400,  -8818,  12686,   6321,   6759,  25048,   6134,  -6701,  -4782,   -856,   7738,   8949,    451,  -5741,  -2172, -16007,  -9686,  14636,   6355,  -5325, -11263,  12236,   -753,   1122,    672,  -4869,  -7214,   5345,   5256,   7551,  -2482,  10662,   -976,   6989,   3468,   -736,   5705, -10612, -11326,  -4499,  -5092,   5341,   2944,  -2631,   5361,   6066,  -3682,  -6744,   7207,   9984,  15331,   6986,  -7992,  -1829,   3293,  -9068,   1310,   5738,    648,   -112,   7968,   1311,  -1912,  -4701, -12208,   9355,  -6034,  -4571,   7536,  -4529,   -904, -10502, -19449,  13500,   3703,   2418,   1006,   6169,   6871,    871,    352,   7332,   3279,  -8670,   4633,   6604,    227,  -8518,  -8957,  12019,   3072, -13792,  -1707,  -7551,   -752,   -646,   7801,   1497,   4792,  -4074,   9572,   8355,  -1236,  -4526,  -9039,   3839, -13469,  11134,   7901,   -273, -11240,   3876, -10815,   7284,   -988,   6682,  -5704,  -2138,   5002, -13434,  -1953,  16406,  11939,  11417, -10367,   -117,   3146,  -8471,    479,  -3948,    983,  11625,  17305,   7160,  11051,  10699,  -4610,   4352,  14227,    894,  -8189,   7858,   6244,  10832,  -3602, -10574, -12868,  11879,  -1866,  -5944,  -5968,  -7806,   5233,   6096,  -7031,   1531,   9678,  -1706,  -3235,  -4936,  -2093,  -4102,  12493,  -1577,  -6729,   9534,  -9904,   2315,   6224,  -5116,   9543,  -2784,   3576,  -7060, -10455,   9812,   2755,   -152,  -3664,  -6246, -13339, -17768,  -6067,  14376,  -6417,  -9834,
          1373,  -7181,  -2064,  -1120,  -9981,   7883,   6134,  -8655,   2381,   4402,   5755,  15126,   6137,   8530,   5370, -20380,  -2280,   5817,   -313,   5193,  -9039,   6899,  -7788,   6451,  12420,   -217,   1915,   6247,     20,   7405,  12074,  -6781,  -6882,   2029,   1984, -13848,   4570,   -467, -11137,   2019,   4085,   6399,   2299,   6963,   7653,   5190,   8547,  -6204,   4743,   8007,   2030,  -7939,   7971,  -2662,   4736,   5893,  14377,   9774,  -1148,   7748,  -3603,   9930,   4194,   4699,   6493,  -2863,   8026,    433,   1203,   1794,   6401,   7279,   5339,   1052,   6525,   7994,  -5846,   3361,  12137,  -4793, -12377,     -5,  -2945, -12076,  -3503,  -9251,  -5265,   3912,   7320,   3961,   6555,   6133,   6421,   5714,   9867,   3338,   5763,  -3496,  -8927,  10614,   4881,  -6471,  -7512,   8134,  -1075,  -3739,  -3081,  -3484,   6965,  -8461,  -3597,  -2977,   6406,   6227,   1358,  -8389,   -357,  -7479,   5295,  -1867,  -8047,  -4055,  -2239,  -4182, -10179,  -3474,   3938, -10101,   9895,   3005,   2823,   7303,   9842,   9067,   -738,   1820,   3820,  16314,  -3224, -12535,  -3635,  10840,  21403,  -6029,  -8378,   5643,  -2163,  -6240,   4094,  -5222,    641,  10363,   5559,  10783,  -5329,   7874,    803,   6688,  -5526,   5964,  -4064,   4818,  17614,  -8083,   6735, -11971,  -1597, -11922,  -2873,   7230,  -7094,   6009,   4291,  -4380,   4764,   3617,   6980,  -6781,  -1265,   5796,   5084,   2965,   2007,    328,  -2390,   7593,  -7820,  -7458,  -1590,  11902,   9839,  -1047,   4683,  -6613,  -6582,   -167,   4968,   6699,   -224,  -1496,  -2844,  -9642,   3110,   8928,  14514,   4284,   2837,  11858,  -2912,   1499,   2103,  -3140,  -6671, -11803, -16687,   4252,     31,   2910,    441,   5881,  -2713,  11944,  -7017,  16132,   5809,   7654,  -1748,   1470,   8366,   5438,   4403,   -572,  -7217,   2400,   1407,   7607,   2555,   6051,  -5749,  -4233,  -1409,  -1256,  13772, -19580,  -8393,   2424,   6422,  -9941,   4701,  -9276,  17077,    545,   8782,  -7224,   2791,  -3987,  -3595,  -2293,  -4165,   3416,   7334,   5797,   4041,  11670, -12872, -12404,  -2727,  21410,   3156,  -5409,  -1999,  13523,  -1625,   7182,   8025,  -3624,  -7846,  -3593,   3203, -11745,   2515, -10909,   1047,  -7300,  -5890,  -8191,   2746,   4157,  12913,   8531,   -938,   8399,   2835,  12706,  15965,   6348,   3203,   7610,  -7324,   2747,  -4431,  -6360,  -2944,  -7922,   1499,  -8845,   8957,  -3219,    333,  -9185,   5072,   -418,  -9379,  -6097,   1622,  -2404,  -5136,   3620,    881,   6018,   4293,   8445,   4661,  -6307,  11278,   6692,   5551,  -4259,   1701,  -1875,  13296,  -5241,    640,  -1477,  -2596,  -3516,   -976,   7696,  -3861,  -3146,   2617,   3668,  15479, -11197, -10487,   7252,  13797,  -9873,  -6605,   2789,  -8173,   -512,    152,  -5044,  -1126,   6847,  -5120,   1680,  -2332,    401,  -1553,   4970,  -1065,   1688,  -4855,  -1555,   3526,  -4892,  -3415,   7156,   -631,  12406,    880,   9842,   7859,   8682,   3688,   6690,  -4970,    679,    590,  16971,  16290,  15446,  -9119,   4394,   7038,  -2670,   7028,  -9144,   -819,  -7460,  -8587,   8836,   7718, -24555,   -540,  -9261,  11754,  -5959,  -7419,  -7581,  -1457,    135,   3050,   7002,   2933,   1509,  -6964,   5677,   6616, -14775,  -4169,   -154,  -5705,  -2399,  -7185, -14977,  -4773,  -4685,   4522,   -673,  -7434,  12536,   2300,  -8231,   4846,  -2124,    952,   7243,  -5456,  -4425,   7603,    150,  -7615,  -4840,   2122,   6526,  -4334,  -5683,   9094,   2176,   9638, -14189,  -2761,   8442,  -2810,  -3000,    907,  -3900,   5100,  -4945,   2518,  -3655,   7110,  -4331,  10915,   6509,  10298,  -8750,   3064,   9378,   5024,   3733,  -8806,  -2808,   2913,  13190,   7782,   2307,   1918,   7937,   -155,   5773,  11395,  -8090,   1205,  -5294,   3071,  -2570,   2813,   1412,   5632,  -5073,  -2558,  -4295,  -2751,   2874,   2390,  -6015,   8849,    761,  -7521,  -7307,   4456,   -166,  -9560, -13065,  -2009,    -24,   2533,    -45,  -5820,  14746,  -6084,  -3980,   6550,    827,   6974,   8943, -10596,   4779,
         -1703,   9568, -10905,   9322,  -5874,  -1389,   3659,  -6663,   7231,   9390,  -7547,   2169,    837,  17414,   9392, -16437,  -4278,  -3840,    742,   3200,   1088,   7836,   3644,   7408,   7944,   8647,   4350,    246,  -2433,  10920,    897,  -8615,  -6308,   6298,   4090,   -828,  -2514, -10952,  -2586,   3696,  -8410,  -9312,   2531,   4563,  -1124,   5161,   8713,   7919,   3256,  -4756,   1513,   7308,   9011,  -6472,  -7271,  -9420,   4476,   9172,    979,   2902,  -3705,  -1353,   5193,  -3576,   3851,    604,   3477,   8444,  12430,   5105,   8025,   2017, -19228,  -1837,   8326,   -163,  13537, -11442, -11765,   4347, -15162,   6901,   3463,  -7259,  -6456,  -7276,   1828,   7090,  -9353,   3443,    978,   4895,    -44,  11486,   1361,  13935,  -9627,  -1476,  -1784,  -8267,  10524,   8963,  -2491,  -7879,   -612,  -6034,  -1150,   5033,   2977,   6709,   -796,   7508,   3715,  12875,  13989, -12747,   -674,   2559,   1120, -14513,   -980,  -5419,  10896,  -7867,  -8441,   3592,   6385,   4266,  -8231,   2176,   5581,   2639,   4608,  -8936,   6218,  -1679,  -5065, -12419,  -7771,  26674,  17079,   3670,  -2614,  23447,   9267,   2548,  10107,  -6807,   3783,  -9136,  -5911,  -5826,  -4721,  -6503,  -6781,   8943,  -7287,  -9295,    842,  -2276,   7359,  11841, -11155,  11043,    545,   9366,   6012,    271,    310,   3186,  -7686,   2517,   4200,  -9078,  -7621,   2941,  -9712,  -5540,  -8348,   7196,   6769,  -8110,  -1103,    122,  -8528,  -6963,   4318,   -974,  13068,  -1110,    575,  18840,   5137,   3666,  -8453,   7537,   3519,  -3098,  -7802,    777, -13512,   1420,   9416, -16759,  -4237,   3825,  -4138,   5785,  11953,   1203,  -4030,  -8529, -12716,   7851,  10631,    765,  -4888,  -3171,  11837, -12630,   4673,  -4076,  -9426,   5378,   6009,  -2854,   4829,   2147,   5909,  -4644,  -9012,  12324,   3927,  -6685,   4864,  -9460,   8346,   4639,  -5436,  -8245,  10432,   7665,  -1540,    649,   4917,   7532,  11460,   8426,   8391,   8635, -12484,  -1545,  11798,    363,  16760,    868,  -2819,   8290,  -2055, -11559,  -4465,  -7110,   3027,  -9276,   1002,  -5148,  18351,  -8281,    -13,  -3859,  -1955,  -2733,  10834,   9938,  -1730,   9932,   2909,   4539,  -4953,  -6931,  -2713,  -8273,   4960,  -9454,  -4496,   4895,   7803,  -6443,   1180,  -9531,  -4663,  -7026,  -7651,   5849,   3613,  11377,   7343,   1562,   -718,   8561,    323,   8893,  -8919,  -5180,  -8226,  -5174,  -7795,  -5693,  -5444,    484,   9258,   2510,  -5975,   2467,   4349, -18465, -10537,  -4047,  -1523, -13645,  -6414,   4291,  -2355,  -2572,   1949,   5958,   4915,   4147,   4936,   3460,   3136,   6425,  -2252,   5138,  11789,  -5282,  -7830,  -5526,   1886,  18407,  10767,  -3863,  -8049,  15510,  14213,  14048,   8419,  -7672,  -3112,   1444,  11355, -18238,   5367,   1105,   9821,   7659,    657,   2936,   3888,  -9176,   -663,  -1057,   2112,  13839,   3641,  -1352,   7161,   2819,  -8305, -10932,  -1318,   5737,   9957,  -5990, -17330,   8065, -10383,  -5030,  -5779,  -2051,  -3651,   -322,   -509,  21906,  10439,   9106,   2312,   -305,   1676,   3168,   5418,  -5798,   3931,   6089,  -5000,  -4103,   2160,   3829,  12839,    734,  -9772,  -5746,   2054,   5581,  -4768,   8531,   3549, -10165,  -1754,   5022,  -4047,   4820,   3673,   6325,  -5483, -10885,  -4174,   -804,  13154,   -358,  -8182,  -3319,   2024,  -1865,  -3055,  -4004,   1623,  -2362,   2384,  -7522,  -6509, -11159,   1372,   8370,  -3115,  -3747,   9033,   9516,   4008,   -227,   5237,   6109,  -8894,   -689,  10947,   2919,  15328,  -1306,  -2563,   1711,  -5638,   9747,   1209,   4400,   7675,  -5251, -18882,   2336,  -5365,   5118,   -621, -10014,  -1471,  -8120, -13757,  -3195,  -2190,  -4476,  -5405,  -1919,  -2403,   7522, -11202,   1495,  -9525,  -3547,   4504,   4567,  10080,  -4013,   7622,   5032,   1170,  -1726,   1071,   4828,   6183,    576,   3005,   4248,  -1640,  -3384,   3354,  -1431,  -9217,   9312,   6123,  14135,  14851,  -5164,  -1516,   6611,  -3375,  -6119,  -5945,  -1334,   2685,  -2526,   2135,  -8194,  -7999,   6204,
          -440,  -1494,  -3796,  -5169,   2474,     27,  -4316,  -4346, -12776,  -6240,  -6590,  13705,   -169,  -4901,  -6840,  -2463,   6123,  -3696,   7061,   -389,  -5467,   7753,   -771,   4328,   -734,   4691,   2659,  11022,  -9851,   7920,  -3273,  -5547,  11170,    859,  -4235,   7408, -10253,   3197,   6808,   5612,  -5259,   2397,   6768,   4069,  -3604,  -1594,  -3573,   3443,  -9748,  -9197,   3774,  -3333,  11054,  -4706,   1469,  -7093,    846,  -2698,  -2957,  12764,   3260,  -8920,  -3639,  -1927,   -380,  -6313,   7609,  -5310,  10411,   5877,   4205,   5003, -10545,  -2103,  -4716,  -8476,  -5582,   1223,   1072,   3281,  11984,   3233,  -5217,  -9109,  -8020,  13591,  14434,   1231,   5592, -10212,   2877,  -8759,   3218,  -7641,   6159,   8787,   7914,  -2260,   -947,   7348,   7294,  -7203,  -7404,   4754,   7719,    774,  -8242,   -726,  -8751,    569,   6799,  -8305,  -1160,  15653,  -2717,   2765,   -424,   -791,  18111,   1626,   1000,  15999,   -453,   7638,  -5855,  10140,   9499,   8936,   6383,   -472,   2175, -11975,     46,  -1285,  -3769,   1411,  -3191,   3363,   2518,  -7127, -14396,  -7104,   6744,  -8916,   7424,  -3306,   4367,  -5872,   6609,  -2814,   5342,  -9544,  -2445,   3329,  -8628,  -8584,  -6777,   1098,  -2151,   8595, -10238,  -4324,  -3780,  12214,   6313,  -5978,    188,  10425,   7558,   5904,  -8304,   6848,   1302,  -3850,  -6609,   5188,   7429,   -399,  -7109,  -5658,  -5265,   1573,  -7540,  -8091,  -2995,  -9544,  14009, -11648, -11164,   4221,   6814,  -7475,  -4943,  -6682,   3932,   3253,   7434,  -3144,   2519,  -6112,   9096,   2370,  -3325,   7466,  -3878,   5459,   2194,  -5224,  -1879,  -4395,  -1139,  18899,   8105, -11020,    347,  -6476,   5837,  -5105,   1918,    528,   5371,  -6178,  11966, -12240,  -1629,   4760,   4622,  -6552,   -812,   2271,   9383,   5029,   9623,   -608,   2707,   5012,   -486,  -2484,   3487,  -5390, -20432,  -3139, -10876,   7178,   3037,    880,   2681,   9198, -19922,  -2620,   8763,   7486,   2294,  -3474,   3097,   9718};

    const static Filter<int16_t> statefulpartitionedcall_sequential_conv2d_1_biasadd_filter(statefulpartitionedcall_sequential_conv2d_1_biasadd_filter_element, -16, {3, 3, 16, 16}, {1, 1});
    const Filter<int16_t> *get_statefulpartitionedcall_sequential_conv2d_1_biasadd_filter()
    {
    	return &statefulpartitionedcall_sequential_conv2d_1_biasadd_filter;
    }

    const static __attribute__((aligned(16))) int16_t statefulpartitionedcall_sequential_conv2d_1_biasadd_bias_element[] = {
          -301,   -493,    -50,   -100,    213,    218,   -469,     62,    422,    154,    398,    -60,   -400,    436,     89,   -319};

    const static Bias<int16_t> statefulpartitionedcall_sequential_conv2d_1_biasadd_bias(statefulpartitionedcall_sequential_conv2d_1_biasadd_bias_element, -13, {16,});
    const Bias<int16_t> *get_statefulpartitionedcall_sequential_conv2d_1_biasadd_bias()
    {
    	return &statefulpartitionedcall_sequential_conv2d_1_biasadd_bias;
    }

    const static Activation<int16_t> statefulpartitionedcall_sequential_conv2d_1_biasadd_activation(ReLU);
    const Activation<int16_t> *get_statefulpartitionedcall_sequential_conv2d_1_biasadd_activation()
    {
    	return &statefulpartitionedcall_sequential_conv2d_1_biasadd_activation;
    }

    const static __attribute__((aligned(16))) int16_t statefulpartitionedcall_sequential_conv2d_2_biasadd_filter_element[] = {
          1840,   9957,   8083,  18006,  -1385,   7715,  14279,   8072,   7585,  -5768,  -1354,   9864,  11343,  -2388,  -9023, -10164,  -8976,   1928,  10866,   6968, -10090,  -9020,   6315,  -9492,  10646,   4912,  -3396,  13489,   4567,   8248,   8856,   8916,  -4443,  -9968,  -9406, -11045,  -4369,   6062,   2374, -10839,   -339,  -6955,   9782,  -8249,   5425,  14084,  -4297,   6367,   1398,  12369,  -1044,  32168,  11106, -11565,  -8284,  -5492,   2442,  -7967,  -9880,  -2397,  -8872,   7778,  -2861,   5090,    584, -15734,   8002,  -6018,  -2592,  -5478,   5813,  -2290,   4659, -15876,   6594,   6092,  -6371,  12498,   5839,  12833,   9578,  13059,   3725,  24814,  14222,   3998,   4393,  -1115,   1363,  15222, -14675,  13560,  10700,  -5377,  -9162,   5055,  -8352,  -5195,   2843,  13396,   9084,  -7047,  -2021, -10187,    115, -15856,   1644,   7068,  -7765,   8857,   8099,   3621,  -7255, -15410,   5625,   4755,   -641,   3948,   9993,   4147, -13902,  10697,  -4294,  19755,  15658,   2178,  -3704,   6876, -10172,    981,  -3721,  11849,  14003,  -4592,  -6898,    -39,   7035,   4291,   2665,  12953,   9104,  -8338,   5620,  -8439,  -2545,   -240,   2240,   2449, -10138,  -4603,   6827,  -9314,  -2911,  -4334,   5060,  -4520,   4177,  -7844,  -1272,  -3013,  16468, -14353,  10628,   8278,  -4605,   1322,  -1329,  -4332,  -1084,  12987,  -5734,  15017,  11297,  -4379,  -7537,  -3350,  10162,   9915,   6148,  20939,  20357,   1589,   2938,  -1484,  -8211,   3612, -12122,  -8404,   7619,  -1802,  -9285,  -8543,   9974,  15359,   9236,   7632,  11694,  10540,   1627,  -4293,  -4544,  15634,   7338,  14211,   9281,    948,   -327,   3792,  -2782,   9526,  -9356,   4225,  -4702,   5191,  -6107,    203,  -4509,  -8173,  -5559,  -7786,  -3034,  10512,  10784,  -6490,   9190,  -8763,   2711,  11981,   1450,     -9,   6125,  -9670,   4580,   2181,  12018,  11707,  -6340,   8405,   7229, -10440,   4973,   4215,  -7350,  15435,  14980,   6154,   8323,  -5736,   5260,   1791,   4284,   3852,   6571,   1361,  14576,   7881, -11064, -12492,   5764,  13699,  -5869,  -3500,  -3527,   3940,  -2789,  -4694,  -4917,   9541,   6151,   4805,   3033,  -1621,  10208,   3292,  12042,   5894,   -375,  -9422,  11384,  -4004,  -1808, -11993,  -9204,  -7426,  11063,  -5969,  -1977,   8661,   3386,   7717,   8815,   7786,  -5977,   5406,   4351,   7098,    766, -12446,   5098,   7088,  10997,  -8198,   1441,  11415,  -8631,  -6286,  13210,  19117,  -2516,   8987,  -4166,  -4399,   6515,   -810,  -1891,   3903,   -883,   -368,   2112,   7525,  10157,   4233,   2097,  -8348,  -4522,  11342,   1216,   5743,  -5959,   5453,  -3921,  12823,  11249,  11037,  10138,  -3010,  -6433, -13032,   4661,   -239,  -3561,  -6656,  -3219,  11709,  10867,   3929,   8264,  -4998,   4125, -10102,    810,  -5630,  -9149,   4198, -13167,   5933,  10603,  10151,  -3482,  -9475,  -2272, -10556,  -7556,   7394,   9765,   -442,   -465,  10127,  11277,    928,   2263,   5054,  -4140,   -345,   9901,  -2993,   8923,  -3087,   -719,   -937,   5743,  -7423,  -1029,   8909,  -1215,   7484,  -6840,  12789,   9587,   1719,  15878,  -7064,  -9088,   3671, -10534,   3955,  -1434,    901,  -3499,   9121,  -6949,   1987,  -6400,     66,  -5071,   7459,  -2313,   1137,  -4539,  -9926,  -5574,  10853,   6059,  -3046,    100,   4273, -10126,  -3736,  -7780,   2377,   4688,     22,   3415,   1399,  10301, -23802,   1550,    579,    511,   2131,  -3295,   6187,  -4747,   8850,   4780,   7291,  21235, -14043, -11181,  -5004,  -4984,  -8150,  -7948, -14009,  -5742,  -3875,  -4196,   3557, -10798, -13103,   2893,  -8314,   3886,  -6099,    725,  -5759,   1707, -17575,   9499,   3422,   4212,  -2723,   6315,   2161,   8818,  11366,  -1941,  17729,  -2119,  -4210,   7803,   4315,  -5885,  16100,   6487,  -6291,   7465, -10127,   5040,   4437,    854,  11334,  -5033,  12014,  14872,   -475,   3711,  -9500,   6981,  -8385,   6310,  -2545,   6049,  12889,   7345,   4770,   8211, -16304,  -4987,   1844,   7968,  -5395,  -4513,   4162,  -2412,  21019,   -927,  11544,   5815,  -1999,   9817,   2365,
         -8659,  18487,  14527,  -3568,  14041,  -5129,  -3880,  -2643,   4289,   8200,   -541,   -355,  -2418,  -9613,  10706,  -6578,   -227,   6693,   1160,   4329,  -5572,   8741,  -4634,  -2927,  -9761,  -2494,  -2256,   5099,   5344,   -901,  -2123,   5912,   -296,    870,   -219,   4406,   4495,  -9703,   9746,  -3684,   4072,  11926,  11947,  13956,   9301,  11476,   -738,  -4294, -10134,  10988,   4184,  12089,   4354,   5490, -10568, -10784,  -8794,   3610,   9698,  -9689,  14477, -12785,   9339,   7384,   5365,  11085,  -7943,  -1191,   6482,   4345,  -7064,   5163,   1642,   1452,   6024,  10696,   2296,   1746,  -3590,  -5774,  10196,  15591,  -4875,  -4909,  -7300,  -7202,  10881,   7895,  -1392,    690,  -2257,  -6381,   3059,  -7129,  -8110,  -3537,  -1915, -12064,   4949,  -7654,   3825,   1321,  -8459,   2529,  11038,   6865,  -4814,  -3548,   7112,  12202,  -3944,    694,   2010,   9594,   8471,   8911,  -4978,  -4016,   1770,  -2409,  -3993,  -9214,  11832,   3925,  -3583,  12244,  -3535,  11405,   2432,  -8430,  14747,   1002,  -6629,   2655,  -7014,  -3007,   5977,  -9449,  -9421,   7844,  -5397,   6469, -10254,  -9121,  -2055,   9191,   9377,   -326,  -6292,   3016,   2028,  -3060,   9075,  -3033,    313,  -3380,   4928,    341,  -2869,   -435,   8588,   7440,   2738,   3256,  -3430, -11739,   4695,   9542,   7215, -10933,  12407,   9287,  -6692,  -1471,   -848,  -3199,  -7150,  -6279,   5060,  18416,  -4591,   3660,   7302,  -8573,  -2685,   4119,   4283, -12105,  -8115,  10190,   7705,   5631,  -2724,   4177, -10725, -13172,    554,   6188,  -5059,  -5516,   -397,   3476,   2379,   3580,   6357,  10580,  -1209,  -8523,   6591,   3669,   8307,  -4040,   1547,   9502,  -7703,  -8316,   -744,  -4100,   3640, -11652,   7181,    344,  -4340,   6720,    188,  13947, -13048,   5173,    820,   9884,   -683,    205,  -3552,   7478,    989,   3614,   3550,  -1705,   4503,   9592,  -5016,   2644,  -6399,  -5823,  -1351,   2374,   3049,  -8762,   6782,   9307,  15947,  -5081,   1035, -11357,   8514,   7545,   9684,  -6337,   6568, -11499,   7403,  -6258,   8610,  -4107,    436,  10278,  -4230,   5142,   8667,     13, -10123,  -9516,  -9548,   7684,   3667, -11847,  -5469,   7015,  10430,  -7135,  -4252, -12733,  -3453, -13933,    552,  10950,  -4072,  -3529,   1929, -15123,  -6800,  19006, -13825,  -3341,  -8516,   4179,   1404, -12653,   1122, -13102,  -8857,   4864,   6681,   -744,   6948,   1737,   1321,   4187,  17577,  -6376,    986,   1007, -11695,   5727,   3370, -12280,  -2239,  -1867,   9480,   9313,  -3308,  -8431,  -6068,   7425,   2639,   1226,  11645,    971,  -4382,    314,   -611, -15188,  -1131,  -6116,  15087,   9542,    526,   1018,   7142,  11333,  10199,  -6228,  12625,  -6354,   2637,   6202,   6865, -14529,  10297,  -3480,  12031,  -5652,   6339,  11117,    405,   1603,   4680, -11076,   8159,  10816,   5862,  -8993,   5342,  -8774,  -9478,   4724,  -4414,  10641,  -1066,  -5844,   7288, -13660,   -695,    -28,  10941,   1184,   -576,  13435,  14957,  -5958,   5335,   6912,   5992,   3118,   8051,  21328,  -5397,   1490,   5026, -14887, -13524,   3822,   8762,   7627,   3451,   2164,    239,  -5646,   2482,   7106,   5720,   6237,   2312,  -3439,  -1050,   4501,  -5255,  11266,   1510,  10994,   5913,  -3969,  -4386,   6264,   5763,  -1553,   7889, -13871,  -1609,   9072, -12304,  -2005,   5709,   -730,  -9608,  10152,  -3339,  -5088,   6661,     60,   7163,   1284,  -6605,   3241,   6360,  13218,  11352,   3652,  -9469,   8953,  -8067,   2652,  -2363, -10492,  11933,   2684,   4338,   2224,   -253,    567,  -1427, -12693,  -3582,  -6871,  -9793,   2627,  -7412,   7564,   6254,   3516,  11311,   2207,  -9785,   5885,  10255,   6748,  -1393,   4357,  -3994,  -2537,  12280,   3951,  -2413, -15378,   2686,  -5625,  -8376,   2556,   8858,   9183,  -6348,   2874, -15635,   4312,   1390,  -6752,   -914,  -6856,   -382,  10147,   1155,  -3959,   -831,  -4150,   2621,  -7276,   5433,   8183,   3890,   8113,    -11,  -5968,   -698,  -5404,   5463,   9044,  12482,  14046, -11844,   9552,   8589,  -2498,
         -6543,   7703,   8499, -10518,  -7564,   5107,  -1139,  -4703,  -2981,   7278,  -7400,  -9657,   2406,  -9960,  -1843,   9901,  -6109,   9017,  -9174,   4184,    739,  11066,   4812,   7643,  -2202,    464,  -2123,  -7798,    928,  -5273,  -4039,  -3049,     12,   9029,  -6608,  -9366, -12905,   2312,  -9972,  -9011, -10566,   2643,   5836, -10516,  -8813,   -778,   9450,    578,   7771,   5975,    737,   2634,  -7750,  -4847,   7096,   3803,  -1429, -11434,   -617, -11008,  -1721,   7085,  -7868, -10178,   -543,   9021,   3417,  -6075,  10684,   7092,  -5291,   9880,   6743,   -610,  12618,  -9433,  -5259,  -3957,   6146,    588,   8489, -10538,   8653,  -5008,   2731,    624,  -3766,   8201,  -1002,   3355,  -7902,   2445,   2265,   9946,  -5629,  -8302,  -4833,  13728, -15935, -12955,  -3978,   4019,  -4835,   3446, -10571,  -1967,   2157, -10167,    -85,  -1750,   1739,   3256, -12433,   7704,  14548,  -7564,   -122,   2781,  -8325,   4462,  11027,    443,   6720,  -5382,  -1902,  -1915,  -4131,  -5126};

    const static Filter<int16_t> statefulpartitionedcall_sequential_conv2d_2_biasadd_filter(statefulpartitionedcall_sequential_conv2d_2_biasadd_filter_element, -16, {3, 3, 16, 8}, {1, 1});
    const Filter<int16_t> *get_statefulpartitionedcall_sequential_conv2d_2_biasadd_filter()
    {
    	return &statefulpartitionedcall_sequential_conv2d_2_biasadd_filter;
    }

    const static __attribute__((aligned(16))) int16_t statefulpartitionedcall_sequential_conv2d_2_biasadd_bias_element[] = {
           264,   -177,    -13,   -430,     33,    206,    144,    208};

    const static Bias<int16_t> statefulpartitionedcall_sequential_conv2d_2_biasadd_bias(statefulpartitionedcall_sequential_conv2d_2_biasadd_bias_element, -12, {8,});
    const Bias<int16_t> *get_statefulpartitionedcall_sequential_conv2d_2_biasadd_bias()
    {
    	return &statefulpartitionedcall_sequential_conv2d_2_biasadd_bias;
    }

    const static Activation<int16_t> statefulpartitionedcall_sequential_conv2d_2_biasadd_activation(ReLU);
    const Activation<int16_t> *get_statefulpartitionedcall_sequential_conv2d_2_biasadd_activation()
    {
    	return &statefulpartitionedcall_sequential_conv2d_2_biasadd_activation;
    }

    const static __attribute__((aligned(16))) int16_t fused_gemm_0_filter_element[] = {
         -1352,  -6254,   7221,  -6567,  -2868,  -3051,   2134,   3208,  -8835,   -841,  -3071,  -7953,  -7274,    622,   4404,   6049,  -3553,  -5334,    -78,   5503,   1656,  -4615,   9250,  -3804,  -2781,  -9305,   -720,  -6003,  -4745,  -3878,  -1217,   5256,  -6271,  -2253,   8108,   5748,   -891,   5680,   5917,  -6196,  -3034,  -3937,   9243,    735,   -850,  -2631,   2423,   7168,  -3216,   5437,   9616,   6160,   2690,  -8296,   1240,  -3446,   6675,  -6137,  11736,  -1106,  -7360,  -5798,  -3931,  -4798,   1271,  -3399,  -1655,  -1326,  -2480,  -1951,   3680,   3857,  -6299,  -5427,  -7526,  -7653,  -2740,  -1662,  11937,  -2192,     49,  -3608,   5758,   5356,   6984,  -8987,  -3451,   9726,   -672,  -1003,   1096,  -2820,   5187,  -2739,   9700,   2969,    609,   2882,   4670,  -1987,   6984,  -4780,  -1880,   6895,  -3837,   1503,  -1833,  -7967,  -7669,  -1694,   8080,  -5810,  -8195,  -5803,  13685,   5174,   3786,  -3522,  -2160,  11287,   1052,  -9854,   6696,  -1054,   3487,  -5807,   6270,   8548,   -196,  -7272,   2827,  -3649,   5596,  -6158,  11979,  -1574,   1297,   -421,    852,   1621,   1968,   6127,  -4456, -10188,  -4217, -11517,   4474,   4609,  -2045,  -5463,   5282,   5739,  -5797,  -2831,   1852,    452,   5874, -10536,   6633,   1807,   4035,   2106,   6869,  -3325,  -4890,   3923,  -7614,   2268,  -4731,  -9539,   3280,   6680,  -7020,   5152,  -2121,   -285,  -8579,  -6043,  12988,  -5148,  -4751,   2672,   4187,  -1006,   6521,   3634,   -108,  -6728,   4149,  -6251,  -6314,  -1967,   1970,  -9292,   1111,   2692,   4347,  -1040,   8023,   8541,  -4238,  -6317,  -7679,  -5233,   3068,  -3582,   3874,   3455,   2075,  -6862,   3131,  -1206,  -1948,  -8694,  -3858,  -6161,   6147,   1509,   9789,  -5256,  -3659,  -3241,   2017,  14326,   3011,   4119,   5933,   2511,    787,  -1415,    880,   7234,   1147,  -7328,  -4874,   -209,   4292,   1893,  -3534,   4601,  -4550,  -9881,   4428,  -4080,  -6663,   4534,   8274,   9918,  -2946,  -3656,   4429,  -3325,   3000,  -3334,   1482,   5895,  -1970,  -6882,  -1169,  -2132,  -2678,  -5059,  11580,     65,   4473,   1402,  -8807,   5187,  -6159,  -8784,  -1984,  -5834,   1252,    -68,   6504,   2529,  -7170,  -3069,   3469,   2516,    -47,  -7724,   9114,    422,  -1139,    449,   2319,   5302,  -1476,   1557,   3716,  -6088,  -5633,  -8058,  -4213,  -6334,  -1362,   2712,   3498,  -3872,    370,   5808,   -307,   1653,  -8484,  -2543,  -2119,   3561,   -613,  -4819,   1475,   8919,   4412,  -2695,   8817,  -6911,  -4129,  -1015,   3650,   7408,   2383,   3300,   5502,   5467,   -561,   4033,    553,   5352,  -3915,  -3801,   1361,    770,  -3244,   4243,   4061,   9476,  -2691,   4866,   6186,  -6458,   6412,   7460,  -4051,  -5196,    -22,  -7975,   8091,   7006,  -3616,  -8640,  -1647,   4162,  -4656,   5184,   2231,  -7224,   4968,   3593,   1763,   3926,    219,   3850,   6612,   3413,  -5582,   -799,   3160,   4573,   6354,    604,  -3192,   2602,  -1036,    691,  -1216,   1098,  -3750,  -1818,   6953,   3721,   6352,  -3739,   1567,   4725,   -595,  -9882,   4330,   4022,    -60,  -7209,   2848,   7686,  -2200,   5655,    -59,   3159,  -2610,  -7486,   1384,    901,  -2201,   7730,   -601,  -4602,  -5156,  -3293,   -847,    868,   -632,   7525,  -2130,  -7932,   3413,  -1883,  -1984,   3302,   3139,   2324,  -5063,    703,  -7246,   -745,    195,  -5048,  -6673,  -2335,   1700,  -2522,   -450,  -1500,   5746,    525,  -6587,  -8384,   3780,   -379,   -294,   1729,  -3132,   6266,  -6504,  -7530,   7065,   2161,  -1093,  -7316,   1233,  -1771,   3261,   3165,  -1360,  -6485,  -6915,  -3792,  -1219,   1442,  -8314, -13505, -12346,   5886,  -7073,   6089,  18697,  10920,    175,    425,   1515,    390,   7469,     74,   7485,  -7278,   1120,  -4667,   8144,  -3774,   -720,  -1988,   4513,  -5452,  -7277,   7778,  -3619,  -6908,  -3075, -10250,   5540,   5893,   -510,   9928,  -3668,   -727,   -713,  -8199,   3321,  -6195,  -4144,  -1407,    233,   3981,  -5529,  -1045,   -214,   1553,   3301,   6730,   9160,  -3300,   6331,  -4261,   8070,  -3332,
          5038,    691,   2321,   5758,  -4720,   3196,   2907,  -1268,   1871,  -3957,   2692,    548,  -3117,   2520,   1795,   3991,   1716,    375,  -3343,  -4335,   1376,  -4501,   4502,  -6524,   7338,   5203,   4351,  -7534,  -5750,    239,   5185,   6301,   4051,   3293,  -5169,   2764,  -5584,   5662,  -1130,  -1282,   5392,   1988,   7061,   5637,   5369,  -6971,   6629,   3527,    504, -10015,   9212,   4824,  -2105,  -7441,   4120,   1370,  -6996,   5589,   4727,  -6992,   6381,   4818,  -4062,   4939,  -6490,  -8350,   -628,  -8023,  -6834,    -20,   6236,   3854,  -8417,   3329,   8011,  -5530,   5556,  -1191,   5284,   6305,  -1407,   6679,  -3937,  -3342,   7175,   6589,   -125,   3685,  -2183,   5952,   7408,   4808,  -1283,    851,   -241,   6421,  -7938,   7880,  -1179,  -1908,  -5430,  -5539,   4345,  -7262,   7501,  -8503,  -1226,   3026,  -2718,   -848,   2434,   3299,  -6549,   4100,   8945,   2167,  -7502,  -6962,   2210,  -2727,   4644,  -4544,   6691,  -6015,   3193,   -606,  -8461,  -1138,  -8017,   -140,   5503,   3676,  -6498,   5567,   5248,   4209,   1566,  -5832,   2116,  -6137,   1160,   1801,  -7253,   6172,   5489,  -4880,  -3877,    633,  -4366,  -8414,   2498,  -1678,   1502,  -3443,   6055,   6693,    768,  -4308,     23,   1294,   3501,  -5718,   2659,   -468,   6481,  -5740,  -9448,   -767,   -448,  -5735,   6974,    302,   7218,  -7745,   3197,   1872,  -5742,  -7517,  -3474,  -4009,  -8377,   5290,  -2451,  -1657,  -3044,   7283,   -331,  -3179,    563,   5644,   6865,   6028,   6519,   2210,   -765,   1335,   4096,   4922,   -140,   -661,   4909,   2082,   9272,     42,  -3764,  -2246,   3101,   7623,  -7332,   2573,  -7320,   -312,   5618,   4257,   -962,  -8454,   1830,   6544,  -2274,  -7817,   7501,  -8884,  -1664,   2938,    -96,   6751,  -3086,  -4493,  -4746,   3193,  -1453,  -1022,    305,   4100,   6628,   3021,   5518,  -4032,  -9045,  -7856,  -2809,  -1290,  -1926,   6799,   6836,   3173,  -7718,  -6735,  -5010,   1319,   -164,  -4851,  -6237,  -6248,   -909,  -7909,  -2404, -10636,  -4307,   1892,   2829,   8018,  -4380,   5745,  -7222,   4094,   4382,   -661,  -3218,    375,  -4999,  -1528,    437,   9271,     88,   6141,  -3747,    638,    753,  -7466,   1744,   1842,   5848,  -4377,    901,  -1379,  -8044,  -7549,  -8218,   2224,  -1477,   6714,  -3453,   4554,   3369,   2966,   3102,  -7863,   8275,  -5647,  -4394,  -3723,   7046,   1261,  -4421,   -792,  -5031,  -9056,  -9685,  -7957,   6443,  -6874,   3621,   3466,   6309,   6001,    427,   4930,   -745,   8729,  -3021,  -3997,   -164,  -6501,  -5693,   5774,   -882,   6188,  -3331,  -9020,  -2955,  -4952,   3269,  10437,  14936,  20034,  -7493,  -1001,  -3572,  -5979,  -3123,   -253,   4705,   2777,   1084,  -1619,   3888,  -3628,   2814,   2747,   4423,  -4423,  -2287,  -3093,  -5206,      0,  -8416,    731,   6205,    412,   1715,   2224,  -4694,   4991,  -1560,   4375,   1266,  -3964,  -3148,   7812,    840,   2134,   3584,   5794,  -9030,   2145,  -5576,   1211,  -6812,  -2302,   2851,   4204,  -1214,   1771,   4467,  -8538,   5470,  -1893,  -2232,  -4429,  -1942,   2834,  -5528,   6427,  -4552,  -1440,  -8101,   1490,  -6193,   5411,  -1930,    353,  -3619,   1708,   4671,   6246,    510,  -8808,    -93,   3668,   2342,   4800,  -2857,   6317,   -867,   5472,   -162,  10253,  -1348,  -7842,   7185,  -2468,    588,   2533,   5629,   1732,  -4874,  -8260,  -2976,   4235,   3711,   9131,  -1935,  -2628,   2282,   1215,  -2465,  -6401,  10271,   8558,    327,  -5328,  -6171,  -8025,   1224,  -3601,  -5195,    548,  -8113, -12254,  -4883,  -5968,   6008,   4741,  11644,   5651,  -2146,   3916,  -1778,   7538,   3002,   8267,   6548,  10039,   3578,   9699,   4093,  -5405,   5294,  -2706,   1920,  -2208,   1874,   2948,   8699,   4741,  -2420,   3698,   -819,   6144,  -4234,   2572,  -6317,    919,   3469,  -8665,  -6097,   4482,   3800,   3126,  -4984,   5402,  -4880,  -7481,   1516,   3175,   3522,  -2753,  -6763,   5087,  -3603,   3316,   8151,   -338,   3715,  -2346,  -5241,  -3163,  -2549,  -7443,   2155,  -8575,
         -8019,   1259,   -752,   5460,   -371,  -5855,   9000,   5657,   5865,  -8666,     -4,   7369,  -8552,   3767,   1580,   2757,  -2876,   4894,  -3888,   5311,   5904,   2883, -11523, -10389,   1852,   -271,   3152,  -2310,  -1610,  -7889,  -5629,   4540,  -4414,   7534,   1436,   6426,   6931,   -103,  -6770,  -2405,   4245,  -4623,   -701,  -3569,    -78,   4728,   6297,   5508,   2609,  -5536,  -2778,   6885,   5869,  -8791,   1243,   6286,   -336,   8131,   6592,  -3142,  -6603,   4529,  -3769,  -6085,   5049,  -1479,   -361,  -6097,  -7212,   1722,  -2329,   7841,  -4628,   -951,   9602,   2126,   5098,   7467,   4402,   2224,    191,   4242,  -8534,  -1578,  -3535,   7554,   2213,  -2378,   4891,  -4673,   7148,  -5852,  -6238,   2394,  -2200,   6359,   1358,   7873,   5303,  -1974,    -93,   5640,    490,   8195,   3122,    204,   5204,   6784,   6060,  -1865,   1803,   2317,   4969,   3285,  -1432,   3639,   5409,     32,   5108,   2665,  -7429,  -6254,   4610,  -5217,  -7609,   4824,   4207,   3715,   3438,  -9630,  -1021,  -2374,  -1599,  -2159,   -789,   7561,  -2824,   8640,   9994,  -5528,   1371,  -3213,   1714,   2092,   5803,  -1109,  -5503,  -6175,   1271,  -2738,   2012,   7224,  -8139,  15136,    517,  -2050,  -2723,    735,  -3893,  -4194,  -2073,  13412,   7288,   6488,   4540,   6102,  -5844, -10008,  -8253,  -9863,  -4623,  -8357,  -1633,  -2952,   8657,   9174,   3962,  -4926,  -3613,  -1777,    934,  -5833,   3350,  -5202,  -5734,  -4708,  -5922,   3396,  -1474,    954,   1595,   4735,  -7821,  -2188,  -2271,  -6438,   5986,  -6442,    971,  -2173,  -7563, -14719,  -6306,  -6667,  -6072,   7420,   6434,   7850,  -5369,  -8646,  -6279,   4558,   2658,   1713,   -516,   2089,  -2488,  -1058,  -8402,   2326,  -4568,  -3966,   3574,  -1609,   1506,  -6330,    -61,  -8283,   6861,  -3675,   3638,   5552,   4444,   5360,   2443,  -6707,  -6283,  -4361,  -3076,   4056,   2927,  -4879,  -6833,   5628,   6858,  -7671,  -5636,  -5633,  -2298,    170,  -9346,   3237,   1691,   3387,  -6810,    542,  -3799,  -9034,   2279,   6734,  -1822,   -101,  -1499,  10971,  -8142,  -6232,  -6207,  -2163,  -4722,    517,   5877,  11673,    -33,  -3349, -12165,   6572,  -6510,   3599,  -1195,  -1892,  -7171,   3290,  -7953,   6206,   1082,   3352,   4659,  -4942,  -7070,   5911,   4068,  -7796,   1302,   4492,   1177,  -1148,  -2771,  -3644,   2994,   4390,  -1044,    858,   1984,   9813,  -7257,    236,   5429,  -5984,  -6643,  -1055,   -489,   5863,   4010,  -4887,  -2240,    976,   -808,   5178,   1111,  -3930,  -6090, -12332,   9125,  -8842,  -6296,  -6446,  10412,   7180,  -7200,    366,  -3607,    145,  -8884,  -3544,  -6835,  -8009,  -3005,   8167,  -9357,   6949,   4767,   4446, -10859,  -3151,  -5582,   3082,  -6861,  -1364,   2361,  -3877,     20,  -4964,  -6084,   -587,   3040,   2644,  -1783,  -3284,   2593,  -5767,  -4814,  -7355,   1173,  -6540,   4398,   3525,   3169,  -1332,  -7857,  -4977,  -7935,   3917,  -6084,   4558,   3948,  -2110,  -6304,   2513,  -1710,   6557,  -4558,  -6587,  -4022,   6194,  -4095,  -5227,  -5310,   4528,  -7592,   4951,   9477,   1882,   2562, -10241,  -4726,  -2065,   2928,  -4785,   5094,   1524,   2460,    457,  -5085,  -6143,  -5854,   6622,  -4705,   3260,   4871,  -1605,   6359,   2319,   5638,   3006,   4860,   3297,  -1553,  -2919,  -5697,    680,   4471,  -7105,   4348,  -4582,    820,   4635,   2843,   5238,   3290,  -7005,   1635,   1696,  -3187,  -3163,  -4245,  -6844,   4765,  -2504,   6752,  -6098,    269,   5242,   -727,   5972,  -5410,   2726,    767,   4052,   5613,   6764,   6746,  -1451,  -1554,   3445,   7476,   -977,  -1802, -12309,   7437,  -3428,  -2497,   7267,  10662,    529,   4493,   9491,   3437,   6113,   3487,   -631,  -6981,  -4930,   3164,  -6066,  -4497,  -1942,   -451,  -7741,   -754,   -916,  -7874,   3144,  -4782,  -6661,   1676,    650,  -9271,  -1195,  -4153,   6400,  -6459,   3650,   5192,   5685,   2963,   4618,   5784,  -2720,   3098,  -4040,   4467,   -840,   -392,  -8268,      3,   5555,    -73,    162,   6064,  -7320,  -8747,    692,
         -7561,     48,  -4402,   3108,   3633,    -33,   4441,    167,  -1798,  11571,  12030,   6099,   7027,  -6123,   2159,   3323,  -4097,   6632,    589,   7762,   6368,    347,  -7481,  -8124,   1991,   7795,   6515,  -2412,  -8258,  -6471,  -3036,  -5618,  -5998,  -1739,   8607,  -1033,   1381,  -1510,   3320,  -9104,   3454,   6232,  -6046,  -6269,   7209,   1051,   5022,   5512,    199,   8356, -10875,  -2549,  -5368,   4992,  -4046,   3303,  -2464,   6651, -10128,  -5544,  -7205,  -2264,   1263,  -2139,  -1239,   2621, -10853,    949,     28,   5765,  -6956,   4080,   -448,  -6537, -16237,  -6343,  -5926,   8848,   5474,  14655,   3274,  -4830,    350,  -6543,   2811,   1675,   3300,  -4686,    912,  -1972,   -270,   7702,   5563,   6283,  -8805,   3695,  -2809,   6530,   3729,   2623,   2090,  -2725,   3703,   8826,  -5640,   2901,   4585,    596,   6485,  -3595,   2157,  -3938,   2106,  -6837,  -7652,   3599,  -1295,   3400,   5247,   9621,   3664,   4691,   2153,  -3420,   3235,   3269,   5926,  -5633,   5338,    152,  -5059,   -994,  -2324,  -7187,   3088,  12856,   -928,  -8937,   -919,   2243,  -2160,  -5348,   9579,  13635,  -7366,  -6064, -12411,  -6319,  -4157,  -1519,  -1561,   5872,   7363,   6382,   3691,    664,   1666,   2694,   -785,   5190,    463,   5264,  -8696,  -2578,   4212,   5170,   2913,  -6816,    -42,  -9007,   7631,   4371,   5714,  -5671,   5532,   1132,   2071,   2335,   -965,   5548,  -5175,    107,  -5147,   6931,  -4410,  -4207,    453,  -1754,  -5298,    669,   6444,   4347,  -2927,   3205,   3070,  -3374,   1966,  -2182,  -3614,   4448,   -871,   4506,   3963,   3533,   3471,  -4222,   4688,   1806,  -1806,  -3045,    -66,   -706,   5375,   3540,  -7957,  -3107,  -6328,   -933,  -8460,  -4422,  -7730,  -4357,   6128,   7966,  -5943,   8075,  -7593,  -2106,  -6489,    114, -11200,   5500,  -7843,   1844,   1427,   3580,   4512,   5372,  -6647,   5923,  -8094,   2649,   1021,   5063,  -3719,   5462,   3911,  -3334,  -6696,   1819,  -8635,  -1990,  -4721,  -4685,   4785,   2552,   3318,    593,   8274,   1340,   2466,   -722,   2575,   6555,  -7565,   3107,  -6286,   2344,  -8102,   8055,  -1278,   -541,  -2382,   5723,   5256,  -4379,  -1281,   5454,  -3767,   2228,     31,   -787,  -1820,  -1767,  -4807,  -5058,   4375,   1930,  -4849,   5504,  -5343,   3712,   6347,  -7255,  -8214,  -5443,  -6052,   2382,  -5991,  -2072,  -8412,  -1513,  -6307,    286,   4912,  -1861,  -1050,  -2396,  -5376,  -2495,   6449,   -401,   2622,   6459,   4750,   4943,   4849,   6153,  -3650,   3223,   4703,  -1897,   7910,   4610,   -140,  -5151,   2423,  -1895,  -6235, -13927,   5299,  -6708,   6200,  -4918,   3439,   3420,   6601,   2762,   2953,    330,   1531,  -6672,   4114,    589,   3746,  -1667,  -9777,  -3845,   -716,    404,  -3135,  -6500,  -7675,   1219,   3666,  -6751,  -7714,   -347,   -362,   5619,    612,   5854,   5975,  -1734,  -3154,  -1376,  -5617,   3718,   2242,   6642,  -3842,    536,  -5267,  -2748,   5281,  -1684,  -6169,    892,  -6769,  -7124,  -6494,  -8796,  -1666,  -7701,   6169,   4164,  -5042,    336,   6812,  -1595,  -3323,  -4976,   1388,   5300,   9295,  -4724,   6171,  -6575,    545,  -6855,  -4748,   9985,   2541,   5476,   1871,   5039,  -7456,   3208,   4750,  11944,   2246,  -5520,   -591,   -812,   2612, -13077,   6599,   2056,     78,   5388,  -7882,  -3212,  -4321,  -2764,  -2900,   6693,   1420,   1590,   1483,  -4065,    511,  -2100,    868,   8439,  -3310,  -2683,  -5070,  -7716,   2640,  -3515,    426,  11432,   2012,  -7633,  -2828,   -884,  -5597,  -3586,  -2830,   2681,  -1766,   2165,   2366,   4233,  -3210,  -2327,   5094,  -3537,  -8068,   4848,  -1919,  -2737,  -3872,   2765,  -5363,  -6848,  -8606,   3725,   4347,  -3521,   8464,   -467,   7680,  -4265,   -150,   1624,   2364,   2574,  -3601,  -9694,   4043,   -868,   2448,   2010,  -5761,  -3665,    186,   5708,   -632,    672, -10521,   6543,   5327,  -6263,  -4405,   3503,   5248,   5017,  -1093,   6646,   4117,  -8794,  -9606,   3424,   6678,  -1792,  -9176,  -3850,   4218,    937,  -9506,   1001,
         -4227,   6191,  -3471,   4118,   4950,  -6626,   6040,  -5916,  -4576,  -4207, -12128,   -863,   5005,   1380,  -4629,  -2021,   -722,   2887,  -6143,   3577,   -803,    362,  -2741,   4884,    506,    498,   3229,   -717,  -7962,  -6116,   1359,  -5781,  -4190,   5199,   -367,   5662,   -632,   3510,  -6235,    864,   3771,  -1783,   4994,   3802,    477,  -8360,  -7264,  -3892,  -6936,   1026,   6308,  -6147,  -8875,   5138,  -6254,   2932,    624,   7143,   1664,   4398,  -2115,  -7737,  -2826,  -1594,  -5567,   5466,   4984,  -3529,    529,   3224,  -2898,   8538,   -365,   3490,  -7016,    189,    272,  -7216,  -5848,  -6893,  -2173,  -3437,  -6962,  -2162,   7071,  -7148,   -551,  -2854,   6230,    705,  -2059,   6210,   4885,   2538,   -133,   1304,   1611,   -182,   2300,  -7613,  -3826,   -125,  -3140,   3947,   3835,  -4252,  -4767,  -6995,   1088,  -4705,   4367,  -2587,  -7316,   5213,  -2736,  -3409,   4454,  -6122,  -7090,   7180,  -2904,  -5125,  -4811,  -7323,   6297,   3056,   1030,   -756,  -4952,  -9101,   4920,  -5421,   2711,  -1767,  -5386,   1453,  -8321,   2529,  -1821,   2457,   2818,   1205, -10794,  -2000,   1290,   8702,   2248,   3681,  -2752,   7554,  -2867,  -7689,   7290,    548,   1100,  -6855,   5922,   -842,  -7548,  -2574,  -5406,   8226,   3894,   2578,  -3854,  -8984,   3139,   3442,  -8133,  -1633,   3312,   3103,   4137,  -5170,   5295,   1507,  -1722,   3901,   1089,  -4230,   2411,   5220,   1333,  -2024,   4984,  -5287,   7284,  -8289,   2126,  -1119,  -6253,  -8856,   5318,   6509,  -2055,  -1493,  -7733,  -5105,  -4170,   6091,   2529,   -657,  -2803,  -6525,   6499,  -8842,    -92,   3113,  -8141,  -6638,   5719,   2266,  -3117,  -1448,  -6782,  -1316,  -1605,    796,  -4665,   7633,  -5413,   5412,  -5082,  -6506,  -4279,  -5294,  -2889,   5929,   7224,  -9826,  -9097,   5255,  -5268,  -2321,  -5022,  -3102,  -4962,  -3829,  -4617,  -5492,  -1977,   2685,   2201,  -4839,   5701,   2192,   4236,   8272,   -691,   8830,  -2128,   -357,  -2508,  -4281,   1505,   2912,  -8388,   5089,   5042,  -1333,  -4339,  -2536,   2622,  -7599,   3563,   5340,   9313,  -6547,    -88,  -5449,   9266,   5746,    982,  -1222,   2959,  -7645,  -2847,    283,   6821,  -1594,  -1884,  12451,  -4365,  -1362,  -2820,   5581,   4198, -12221,   3055,  -4476,   1151,   -157,  -2419,  -8200,   6071,   7785,  -5413,   4406,  -3798,   7106,  -4867,   2528,  -8445, -12303,   5611,  -2655,   7317,  -7213,   -680,   -214,   7262,  -6678,  -4616,   2787,  -4844,   6546,   2075,   3421,  -5089,   2947,  -3366,   1466,  -7227,   4665,  -2992,   2430,   -234,   4439,  -7918,  -4329,   7019,  -2398,  -4784,   5834,   3114,  11844,  -4853,   1616,   4259,   7135,   4824,  -2137,  -1301,   4484,  -3978,   2556,   1590,  -1217,   4123,  -5059,   1010,   3103,  -5135,   5853,  -2874,  -7387,   2148,  -2220,  -2086,   8181,  -5197,   3382,   4561,   5507,  -2942,    638,   -352,   3672,  -5200,   3352,   5379,  -2833,   4436,  -4283,   5654,  11305,   4102,   -936,  -4759,  -4225,  -2998,   4987,   7996,   2185,   6762,   7066,  -1871,   6724,  -4487,   1101,  -3488,   8176,   1394, -10267,  -2445,   2893,   4711,   1832,    813,   -368,  -7894,  -2054,   3915,  -1097,   4752,  -7473,  -1708,  13176,   3839,  -5826,  -6155,  -2236,  -7965,   4847,   2503,  -4667,  -7655,   4395,  -7019,  -6809,   -910,   1176,   3753,  -1565,   5615,   2945,   5686,   1014,  -3516,   5088,   4470,  -5741,    937,  -6770,   6262,   1052,  -3326,  -5943,  -2182,   6382,   5321,  -7518,   2331,  -2912,  -1610,  -4601,  -5003,  -7030,   5141,  -6488,  -3422,    453,  -4432,   3403,  -4715,    727,  -8340,  -7099,   9212,   -964,    751,  -7289,   -350,   5924,   1239,  -5832,   8109,  -7929,    211,   4828,    939,   2674,  -2916,   -248,  -7269,  -7421,  -1451,   3553,   2607,  -2339,   4523,  -3831,   6208,   5609,  -8060,  -7783,    111,  -6375,  -1283,   7860,   2168,   1082,  -6136,   -939,  -1009,   -776,  -5348,  -4241,    197,  -8659,   4930,   3526,   8247,   3868,   3947,  -3285,  -2357,   -481,   7431,  -8340,   2383,   5330,
          2485,  -7744,   6503,   6653,  -3731,    621,   7845,  -6857,  -9557,  -1111,  -2770,   6318,  -5502,   6019,  -2101,   8210,  -5849,   5291,   9914,   3497,   -481,  -3578,   6400,   5600,   7127,  -4115,   6191,   -328,   3333,  -7781,  -6989,  -5047,  -1259,   4853,  -8371,   7017,  -7809,  -2012,  -3129,  -2872,  -4312,   4729,   -131,    399,   3959,  -9647,  -3230,  -2225,   -896,  -8181,    935,   4325,  -1839,   1856,   8351,   5563,   4959,  -2924,   7814,  -4653,  -2173,  -5229,    786,   5661,  -7317,   3147,  -7280,  -2502,  -3055,   3095,   6328,    768,  -8451,  -2353,  -2330,  -3367,    735,  -4669,  -2672,   5887,    524,  -5831,   4022,   7578,  -5453,  -4315,   1857,  -4385,  -4677,  -6375,   3029,   4839,   4590,   2714,  -4959,  -4668,  -3899,   1615,  -1769,   -597,   -971,  -9975,    905,   1376,  -5281,   7949,   4585,  -2655,  -4939,  -7701,  -7487,    306,  -2003,   3009,  10091,  -7939,  -3763,   7407,   7222,   5186,  -1808,  -2652,   -270,  -8273,  -5834,  -3587,    474,   2029,  -1607,   2514,   6513,  -1749,  -8839,   -479,  -7203,   5114,   6054,  -7141,   6089,  -5065,   6452,  -5444,   8706,  -7258,  -1902, -11587,  -3365, -17384,   2274,    818,    942,  -1632,  -4361,  -6257,   3582,  -9286,   3245,   -503,   3258,   3442,   6618,  -4884,  -1759,   1939,  -2525,   3859,  -5814,   7310,  -3110,    869,    -35,  -8115,  -7610,  -8249,  -4546,    841,  -4942,  -9913,  -3632,  -8224,   5659,  -1608,   1809,   8936,   2006,    532,   1661,    882,    -43,  -7991,  -6117,   6142,  -5442,  -1183,   4906,   3281,  -4633,  -3673,  -2369,   9926,   2986,   8857,  -6782,    -31,   -957,   3574,  -1844,   1117,  -7571,   2406,  -3851, -12692,  -4514,   3585,  -3527,   -814,  -4071,  -6635,  -6559,  -1284,   3455,   5219,  -9464,  -1656,   4986,   1460,  -1523,   3549,  -3211,   6531,  -7355,  -6440,   3484,   4687,  -5931,  -9157,   3905,  -8397,   5019,  -1444,  -7113,  -5427,   5069,  -9739,   -566,  -7144,  -9293,   2067,  -6971,  -2617,   6850, -10195,   -307,  -7614,  -2805,  -2990,  -7955,  -1706,   3516,  -5471,   4808,   -191,  -7332,   1326,   3804,   6463,  -6726,  -5328,  -5204,   1374,   2848,  -4145,  -6529,   1313,   7715,   -312,  -1694,  -2634,   6188,  -2088,   5129,   1441,    660,   -971,  -4601,  -1292,   6733,  -2195,  -4552,  -4870,    968,  -7832,  -8670,   3792,   4994,    684,   -215,  -8840,   7278,  -5227,  -4856,   4644,   3677,   1512,  -2539,  -9207,  -7782, -12017,   -921,   2218,  -8108,  -5447,   -332,    605,  -6133,  -3497,  -1159,  -4161,  -4050,   6530,   -702,  -9278,  -3510,  -3956,   3818,  -2505,   -322,   4419,  -8171,  -5330,  -7770,   2137,  -1965,  -1216,  -4833,    833,   6827,  -8243,  -3231,   4911,  -1170,  -4262,  -3015,    987,   5289,  -8605,    910,   2015,    295,  -7484,  -7965,   4004,   3131,   1820,  -6156,  -3154,  -5883,  -8599,  -3657,   4747,  -1415,   1776,   7121,  -8431,  -2587,   7305,   4016,   -829,   2859,  -2248,   2671,  -4835,  -1220,   7716,  -5828,  -7314,   5985,  -1570,   -909,   -879,   6206,  -1011,  -6247,    327,   2087,   5336,  -1996,   2968,   6022,   6364,   5785,  -5296,  -1167,   5265,  -7128,   3648,  -7181,   6908,   -948,   5051,  -5418,   -398,  -5329,   5410,  -7060,   1679,  -5971,   1346,  -3193,  -1457,   5591,  -7565,  -2791,  -4457,   -502,   -615,   6578,  -6639,  -7563,   6408,   5044,   6219,   5376,  -2627,  -3712,  -1063,  -5921,   1065,   4742,    238,  -5254,  -3246,   6394,   4810,   4728,  -1815,  -1352,   -494,  -6838,  -5241,  -1747,  -6639,  -4066,   1330,   1049,  -2845,   2495,   2347,   6232,  -7087,   3761,  -3890,  -3623,   7264,   3490,   5341,   5523,   9789,   2488, -10710,   -970,   2486,   8309,   3265,  -4935, -14734,   2143,  -8547,   4165,  -6119,  -4113,  -6765,  -1967,  -3969,   1103,  -6731,  -5696,   4985,   4460,   1572,   4134,  -8448,  -3889,   7455,  -5276,   5870,  -7676,   6563,  -1402,   2634,  -4223,  -4166,   6917,   1114,  -7762,   1774,   2699,  -6092,   5247,  -2703,   -899,  -5359,    496,  -4695,   6826, -10239,   2917,   4927,  -7565,  -2095,   2389,  -3935,
          3545,  -1302,   6892,    171,  -4110,   2458,   4678,   9456,   4000,  -2041,  -1329,  -6003,  -8369,   2266,  -7908,  -3192,  -7456, -10171,   1512,   2793,   -124,   5564,  -6996,  -7024,  -8616, -10107,   1963,  -4310,  -4400,   6695,  -8599,   3800,  -5690,  -2837,  -7551,  -1430,  -3105,  -3269,  -3445,  -7507,  -6974,  -7956,   1517,   3749,  -3420,  -7365,   2114,   8969,   4677,   1234,  -4167,  -6752,    495,  -6524,  -8634,   7945,  -4461,  -4883,   3453,   2147,  -7277,  -3788,   -507,   3644,  -4959,  -1062,   4627,    940,   5505,  -7464,   2133,  -5937,  -7813,   2060,   2345,  -3612,  -5155,   7092,   2784,  -1917,   2632,   2556,   6303,   2134,  -3317,   5810,   5855,  -6557,  -6147,   -313,   5498,  -3860,   3695,   3915,   6365,  -1951,  -3006,    835,  -7200,   2203,   4079,  -8942,  -6979,   3545,  -3018,    671,  -1912,   7734,    773,   3450,   6313,  -7776,  -1671,   3508,  -4250,   4357,  -9170,  -4049,    110,  -5773,   1786,   2405,   4764,   4664,   3736,  -3361,  -3654,   3893,  -8610,   1894,   2453,   3134,   6008,  -1788,   5568,     55,   5723,  -1407,   5903,   1259,   3712,  -6185,  -2465,    -22,   -734,  -2185,   7543,   -554,  -3960,    222,   7355,  -3070,    660,    128,   5461, -12630,   5138,  -5139,   5076,  -3728,   5476,   7658,   -883,    975,  -5743,  -7331,  -6382,   3954,   2472,  -9167,   4086,    309,  -5312,   6243,  -2870,  -7200,  -3623,  -3954,   -418,   -103,   2597,  -7610,   3868,   5401,  -5597,   3436,  -5454,  -2054,   3754,   1176,  -2366,   8183,  -3327,   2497,   3206,   1299,  -1734,  -1858,   -386,  11107,  -2573,  -2088,   2421, -11436,  -7163,   -496,   6341,   5517,   1149,   1132,   6087,  -3540,  -2975,   1727,   6721,     49,   -756,   -324,  -2784,  -8359,  -6057,   3575,   5030,   2075,  -1705,  -7231,   5884,    124,   6480,   6086,   -655,   -104,  -4855,  -5633,   2671,   4396,  -3379,  -5022,   -241,   -377,  -4027,  -5140,  -4829,  -8035,  -4986,   1513,  -6799,   3474,  -1515,   7034,  -1356,   4501,   -257,  -4757,  -2946,   4009,   3332,  -5514,   5472,  -5092,  -3545,  -1511,   4323,    752,  -4906,   4039,   4498,  -2519,   -210,  -1206,  10643,   6098,   3142,   1563,   1599,   -754,  -3411,   5509,  -3803,    403,   3883, -11494,  -3625,  -8939,  -4108,  -5931,   6513,  -6929,  -2610,  -4308,   1964,   7619,   2980,  -8162,  -1147,   3840,   -577,   3431,    396,  -7169,  -5438,   7057,  -3931,   2596,  -1771,  -7518,  -4846, -12771,  -7764,   2483,   6927,    521,  -6127,  -7480,   -272,   3220,   3232,  -3062,   6228,  -5002,  -4651,  -5890,  -7503,   1761,   4561,  -4326,   -873,  -5409,   3756,   2765,   6445,    409,  -6470,  -7495,  10176,   2831,   1890,  -2886,  -1041,  -1176,   2712,  -5165,  -3674,  -1651,   1546,   1298,   6400,   1202,   1223,   3161,    898,   5135,   4886,  -1517,  -2894,   7313,  -6300,   2384,   3325,   3385,   -742, -10662,  -4908,   6611,  -4564,   1973,   4157,  -1398,   -377,  -8830,   -241,  -8844,  -6895,    584,   4494,   2716,     40,   1983,   5316,  -2309,   4472,   -729,  -4774,  -4947,  -5211,  -6457,  -4554,  -2900,   3195,   5559,  -1960,   -812,   -293,   6095,   1558,   6289,   4964,  -7291,   7874,   4307,  -5972,   6344,   1402,   2834,  -3397,  -3420,   1274,  11610,   -915,    171,  -6995,   7314,  -1285,  -3099,  -7347,  -7703,  -7977,   7863,  -2686,   8542,   3303,   -872,   7749,   5375,   5895,  -5106,   3521,   3498,  -1217,   1057,    403,  -4257,  -5868,   4137,  -1370,   6461,   1547,   6657,  -6368,  10286,    -51,   6941,   -678,   5586,   -270,   3672,  -7187,   2772,  -8558,   -730,   4414,  -8594,  -3959,  -3496,   2014,   2107,  -8652,  -3689,   1054,  -5926,  -8008,   5056,  15337,  -4380,   6249,   1232,  -2380,   1070,  -6645,  -6428,   5832,  -5692,  -5505,   6628,   2225,     12,  -9245,   1948,  -5472,   3111,   4148,  -3020,   5208,   2456,   1992,  -6698,  -5143,   7359,  -4791,   1527,   3004,   8633,  -3258,   1969,   5759,   9195,   6321,   6680,   1935,    261,  -4068,   6442,   1281,   2944,   -958,  -4430,   5021,   3303,  -5042,   2218,   3590,   6598,
          3163,   9100,   4521,  -8310,  -3949,   2871,   6714,   6574,   5358,  -3279,   5244,  -3819,   -503,   5398,  -2465,   7160,  -2646,  -2923,   4801,  -5004,  -8241,  -6477,   6260,  -1769,   6510,   4653,  -3402,  -5921,   3032,  -1837,   7198,   6395,    464,   8976,  -8267,   2091,   -895,   -229,  -2134,  -4924,  -8139,  -5698,   2741,   4618,   2503,  -8245,   3249,   1040,  -4195,   -326,   6424, -10186,   2757,  -2420,   2300,  -2194,  -7682,  -6168,   -861,   5498,  -7224,   4816,   1850,   5559,   3756,   7487,  -5935,  -5058,  -7168,  -7573,   2266,    892,  -6878,   1153,   7618,  -1064,    532,  -6590,  -2035,   3397,   2911,   2485,  -5310,   2123,  -3628,    389,  -4985,  -1923,   3286,   7958,  -2040,  -8222,   3272,  -4896,    210,   4479,   1109,    -38,  -7454,   7497,  -7369,   3916,    648,   2446,  -6782,   4298,  -8247,   -683,  -2309,  -4583,   5400,   -615,  -5793,   1771,  -3391,   5144,  -4712,    944,  -7618,   1784,   4051,  -1827,   7204,   8465,   1957,   2975,   5839,     93,    405,   -767,  -2397,   3301,  -7091,   2993,   5591,   8040,  -8067,   6408,  -2661,  -3244,     67,   2942,   1549,   2536,  -5793,   -120,  -4770,   7691,  -1654,   1767,   -906,   -721,   4001,   1012,   -783, -10578,  -8883,   4204,   5064,   8215,  -1566,    -78,  -4715,  -4322,   5681,   1113,   2688,  -2116,   -400,  -4493,   1977,  -4668,   5962,    417,  -5890,   1556,   3688,   3465,  -3854,   5235,   5784,   2511,  -2391,   7987,  -4522,   3708,   1397,   1721,   4931,   5245,  -4854,  -5710,   2489,   -973,  -4215,  -6147,  -2924,  -1375,  -7362,  -2843,   4928,   4723,  -3942,  -4510,  -7344,   5086,   7039,   8356,   6040,  -2104,  -1222,   9595,   3148,   5780,   4326,    697,  -3146, -11437,   5877,  -9726,  -5519,  -7135,  -3537,  -1929,  -8965,   3559,    795,   7441,  -2171,   2217,  -3387,   9945,   6270,  -4754,   2002,   7690,  -3132,  -7972,  -6000,  -3589,  -2862,   3254,    432,   1747,   3380,  -4478,   1698,  -3847,  -6613,  -7884,   5783,   2653,   2640,  -6907,  -3962,  -5987,   4531,  -5551,   2916,  -8307,  -3655,  -7771,   4440,  -3305,  -2199,   7758,    593,   -864,    138,   3142,  -1666,  -1741,  -3204,  -9877,  -7891,   6977,   2823,  -3961,  -5178,  -2113,  -6985,  -5621,  -2188,  12603,   5774,  -3813,   3132,   2316,   6425,    945,  -2985,  10356,  -5698,  -6233,   7830,  -8947,   3093,  -6927,   1622,  -7719,   2714,    319,   4702,   4972,  -8649,   -114,  -1088,   -589,  -4445,  -2134,   7440,  -3695,  -4208,    -78,  -2133,  -6478,   2419,  -3355,    737,   6069,   -448,   4404,  -6205,   -311,  -8774,   1454,  -4971,   3057,   4397,   8601,   -863, -12331,   4070,  -7157,   5803,  -1918,   1521,    530,    -16,  -9683,  -2445,   2296,  -1511,  -6589,  -4220,   9486,   3277,   7278, -10355,  -3673,   4435,   2603,  -1067,    970,   6237,  -4237,   1994,  -5807,  -3616,   4282,   7054,   5130,  -2754,   3370,  -3263,  -5865,   4349,  -1247,   -413,   3930,   2584,  -2344,   -189,   4598,  -3557,   9278,  -3404,  -5110,  -2703,   1731,  -7333,  -4220,   5974,  -2612,   -118,   8776,  -2435,  -1137,  -9665,   -112,   8300,   6011,   7043,   2953,   5517,  -3271,   6328,   7335,   1810,   2638,  -8013,   4909,  -5629, -10078,   3165,  -4457,  -3391,  -7871,  -6681,  10057,  -4768,   1538,   -968,   4973,   6805,  -2377,  -5721,   -859,   3748,  -1453,  -5171,  -6265,   2573,   9010,   3551,  -2767,   4417,  -7829,  -4361,    195,   5852,   3980,   5049,    -79,  -4707, -11776,  -5222,  -2456,  -5334,  -2408,   2233,   -578,  -1325,  -6215,     32,   5326,  -1251,  -6377,   -533,   5129,   6183,  -8292,  -6098,   1369,  -7218,   4689,   -886,   3781,  -2680,  -4477,   3406,   7353,   3713,   8405,    453,  12922,   4566,    875,    -59,  -7412,   5916,  -5550,  -2219,   6325,  -3168,  -6965,   2547,   6478,   -175,   5153,  -1278,   9037,  -5524,  -3808,    256,  -4462,  -4924,  -4291,   7011,   -976,  -4136,   1320,  -6479,   6166,   2114,   2036,  -4819,   2030,  -7473,  -8849,  -7235,   6960,  -6059,   -646,  -6634,  -1328,   2271,   9292,  -7381,   7143,  -5033,  -6078,
         -7767,   7180,   4655,   5148,  -7972,   7852,  -2603,    112,  -1392,    933,   5465,  -5528,    559,   6290,   3442,   -954,  -5385,   8616,   3442,  -1764,   1641,  -5793,   5807,  -1845,   -224,   1482,   4228,   -974,   2160,  -4582,   -596,   5129,  -7476,   2015,   5940,   4189,   5734,   4740,  -2063,  -3672,  -7797,  -4420,  -1396,  -1904,   4245,   4390,  -6923,   9503,   5484,  -2584,   2277,  -3227,  -4122,   6677,  -5758,  -1901,  -3229,  10625,   6336,   5646,   2264,  -7813,   3305,   4939,  -1172,   7483,  -5749,  -7118,   1152,  -4122,   6785,   8190,   3716,  10222,   2988,   3907,   -752,   2711,  10618,   -510,   6441,  -7952,  -1443,  -3765,  -3663,   3727,   4891,  -1601,    483,   2831,  -3634,    699,  -4907,  -1966,   7115,   1491,   -214,    -71,  -3454,   6094,  -5817,   1158,   2644,   5458,   2718,  10064,  -4845,  10157,   2345,  -4566,    585,  -2930,    869,  -2001,   2011,   6969,  -4276,  -5188,  -4436,   8173,   6307,   5750,  -1514,   5441,   -549,  -3405,  -3857,    696,   5404,  -6396,  -4834,  -2933,  -6205,    908,  -6843,  -4519,   -811,  -7398,  -4289,  -3219,   4372,   2248,  -4737, -11403,   -717,   5084,   5286,   1762,  -8053,   5625,  -7939,  10393,   4412,  -7103,  -4371,   6392,  -8383,   2815,   -976, -13194,  -5152,  -2677,  -2826,   8442,  -8452,  -8662,  -3902,  -3600,  -5796,  -6506,  -6878,   1061,  -2651,  -3133,  -5873,    -17,   2523,   3742,  -1668,   1987,  -3195,   2676,   5471,  -4085,   1652,  -5901,  -2305,  -2820,  -7051,   -269,   1345,  -1529,    -18,  10500,  -7793,   9394,   5530,    481,    509,  -1808,   4151,   2358,  -4065,   2391,  -7211,   6140,   6697,    312,    661,  -2029,   2167,  -3577,   -486,   1416,   2123,   -428,  -2624,   5647,  -4561,   -821,  -4832,   6382,   6498,   4939,  -5635,   1552,   6582,    750,    -77,  -2010,   2413,   -884,   -512,   5624,  -2387,   -510,   2724,  -1175,   2464,   6897,  -7968,   7159,  -7243,  -1046,   4297,   -983,  -6949,   5353,  -7464,  -4366,   1139,   9619,  -2840,  -5474,  -6132,  -3296,  -6644,  -5011,  -7364,  -9926,   5245,  -1387,  -3150,   6587,  -5385,    971,   1145,  -3149,   -220,  -1867,   6726,  -5992,  -4733,   6542,  -1307,   1655,   2310,   5847,  -4052,  -7071,  -6397,  -3809,   -864,   1970,  -6131,  -7131,   2920,  -2806,    247,   8404,    -36,   8844,  -1657,    784,  -8175,   4706,   1657,   -810,  -8033,  -1289,  -1844,  -5629,   1192,   5809,  -7726,  10562,  -1787,  -4855,   1330,   4712,   5633,  -6165,  -3654,   4624,  -6976,   -195,   6992,  -8092,  -7632,   2820,   1386,   3140,  -6033,  -5160,   4864,   3138,   2802,   8814,   1682,  10952,  -1442, -11571,  -2566,  -3636,  -5576,  -1672,   7883,  11715,   4822,  -6117,   6338,   6818,   8103,     13,   6792,   9654,   6463,  -4016,    700,  -3196,   -507,    740,  -4299,   -847,  -1404,   4528,   3174,  -8912,  -2727,   1721,  -6862,   5273,   5456,  -5866,   4729,   5424,   4450,   4418,  -7296,  11560,   7372,  -5898,   5003,   3144,  -4886,  -7211,   2021,   8383,  -8072,    617,   6722,   4496,   3507,   1922,   1953,   2765,   1889,  -2737,    -43,   5404,  -4720,  -1611,  -4104,  11574,  -5542,   5413,   1633,  -7035,   3247,  15104,   2586,   1362,   2679,   -309,  -6323,   1760,  -5099,   1644,  -5940,  13486,  -7623,   5527,  -9037,  -2815,  -5910,  -5338,   5084,   3490,   3604,   3703,   7128,   6441,   -584,    526,    572,  -3716,  -3673,   2773,   2747,  -1525,  -3714,   6046,   6431,  11412,  -4661,  -3271,   -250,   -752,  -3429,   4022,   3064,  -1769,   1213,  -5118,    392,   2111,   2220,  -1421,   2885,   5695,    572,    445,   2682,   1819,  -3518,   6556,   3754,   9588,  -6237,   1568,  -3267,    188,     -9,   4487,   4330,  -8820,   2903,    790,   2114,  -7720,  -1370,   2139,   1169,   3149,  -3909,  -4292,  -1718,   3629,  -3654,  -2277,   1288,   9055,   4984,   -197,   3116,   1292,  -6337,  -5489,   1136,  -4340,  -6240,   1093,   5079,  -7364,  -6704,  -5876,   2657,   -517,   5993,   2333,   -632,   4354,  -3677,  -3377,  -5282,   4253,   2603,   2351,   6540,   -720,  -8184,   2925,
         -3660,  -2364,   6628,  -4589,   4966,   4887,   3442,  -4365,  -7658,   6057,  -4668,    834,  -2482,  -3046,  -3038,   4813,   6852,   3556,  -6432,    451,  -9102,  -3920,  -9392,  -2635,    927,   -280,  -7566,  -5150,   -555,   6064,   6023, -13214,  -7296,  -6306,   4180,   -450,   5916,  -2384,   2506, -10259,   3619,  -3475,  -2702,  -4046,  -3282,   1202,  -1672,   5953,   3377,   5177,    396,  -9315,   1058,  -6614,    325,   7837,  -1458,  -2161,   2361,   1585,  -4379,  -6974,  -1396,   1686,  -2698,   2850,   7739,  -3013,  -2157,  -4570,   -996,   6031,  -3397,   5388,  -4126,   5432,   4373,    340,   4480,   8858,  -8389,    638,  -5805,   2455,  -7139,   1266,  -4773,   1385,   4764,   8225,   5328,  -5039,   3992,     20,   2241,  -1210,   1164,   -903,  -2488,   -115,  -2746,  -1018,  -7442,   7338,  -6356,   3858,  -2745,   8274,  -3059,  -4166,     18,   7097,   4132,   4504,   -942,  -2171,   3471,   5734,    -36,   5544,  -7531,   6353,   6156,   3006,   1933,  -5037,   4843,   5772,  -2632,   2980,   1897,   3241,   1445,  -3453,   1376,  -6339,   6878,  10507,   -412,  -5049,   1550,   -415,   3800,   1380,   2648,  -5432,   1181,  -6406,  -3352,  -7892,   4093,   5915,   -871,   1660,    663,  -4648,  -2998,  -6150,   6026,   2330,   6687,   1513,    579,   5295,  -5984,  -3464,  -7643,   2348,    988,   4688,  -4974,    635,   3181,  -4264,   3864,   2386,   3646,   8214,   6953,  -6969,  -7868,  -6267,   4697,   5647,  -1178,   7619,   5050,   2554,   2615,   1128,   6628,  -1243,  -7255,  -4613,  -4249,   6073,      4,   5839,  -4517,   7901,   5225,  -2242,   2539,   9070,  -4411,  -5964,  -7381,   -748,  -4793,   6855,  -7764,    850,    692,   2190,   1990,   2026,   5665,  10249,   2179,  -7950,   3380,  -1982,  -2110,  -4037,   3054,  -1570,  -7244,  -4899,  -6619,   5903,  -8355,   4545,  -2677,   7681,  -6402,   9132,  -1668,   -492,   2697,  -1549,   5767,   3119,  -4874,     49,  -3159,  -5085,   1467,   3097,   5271,  11042,  -5827,   8268,  -4484,   4971,   2420,   3549,   6358,   7349,   4400,  -3132,  -4723,   6960,   2672,   9403,   3947,  14508,  -5926,   -427,    585,  -2536,  -4645,   5161,  -7604,   7501,  -1871,   8289,  -5802,   1996,  -5961,  -2310,  -4168,   1355,  -4567,   3524,  -5477,   6546,   1624,   4546,   -384,   2274,   1032,    103,    -91,  -2320,    -12,   6728,   -463,  10968,   1140,  -5482,   5518,  -5219,   2858,  -3438,   3724,   8384,   6317,  -1670,   5126,   -666,   4740,   4489,  -4311,    369,   1399,  -3905,  -1819,  -2186,  -7123,   7877,  -8811,   1127,  -5787,   -291,  -5546,   3396,    687,   2970,   4177,    672,   6542,   -446,  -1611,  -3018,  -8535,  -6009,  -5928,  -6963,    904,  -3068,   6345,   8019,  -7577,  -4755,  -5211,  -1939,    172,   3441,  -2030,  -8521,   -325,   1757,  -3835,  -1583,  -6921,    980,   5358,  -7296,   6528,   8882,  -4899,   1377,    122,   7494,  -3694,   2056,   -320,   5293,   3620,   7785,  -8026,  -2446,   2932,  -5074,    629,   5792,  -1415,  -5440,  -6825,   2411,   6824,  -8407,     93,  -2552,   5095,   4632,   4425,  -6433,   1984,    902,  -4055,  -5770,   1517,   1422,   2217,  -3414,  -2443,  -1951,  -2859,  11705,  -3648,    754,    231,  -5257,     57,  -7554,   5175,   7507,  -8982,  -5844,   2217,   2684,  -8273,   6080,  -7087,    759,   2130,  -4106,   1786,   2071,  -8645,   6516,   1175,   -552,   3847,   1225,  -2439,     11,  -5710,  -6401,   4792,   -676,   5274,  -7832,   1172,    621,  -4247,  -1445,  -9131,  -7329,   4765,  -8134,    229,  -8660,  -5148,   3925,   2298,   1073,   1046,  -7024,   4695,    736,   5898,   4620,   3639,   9190,  -6548,   1735,  -5109,   3017,  -6691,  -7805,   6886,   6309,   6280,  -2151,  -2857,  -3658,  -4246,  -1775,  -8786,  -2355,   -904,  -2383,   6686,   1322,  -3947,  -6929,  -5036,  -3687,   -179,   2976,  -6689,  -2965,  -5782,   2723,   -494,   6951,  -6708,  -2954,   7309,   9834,   -441,   7543,   2744,  -2760,   5487,  -2033,  -8491,  -7540,  -5405,  -7201,  -2589,   9916,   4554,  -9187,   -566,   6711,    873,  -5307,  -2291,   9126,
         -9289,  -2355,   4793,  -7047,   4484,  -6169,   2910,    249,   5394,   2630,  -8010,  -3879,   -531,  -3008,  -1306,  -4945,   2838,   5980,   2309,  -7994,  -8155,    575,   1500,  -3618,   4095,  -6777,   -599,   5002,  -2135,  -6587,  -1765,   3168,  -6091,   3450,   6068,   5011,   6492,  -7264,  -5926,  -5718,  -5946,  -1347,  -6398,   3304,   4872,  -1769,   2531,   6948,   5808,  -2660,  -7708,   5740,  -7498,   1589,  -3584,   1840,  -3926,   4551,   4742,  -2837,  -1603,  -2030,   4508,  -1443,    985,  -6584,   4226,  -4527,  -5833,  -2655,  -8051,   6902,   4767,  -5296,   7004,   2719,  -6034,  -1898,    -84,  -2087,  -7172,  -8315,   5965,   2594,   5624,  -1871,  -4512,    691,   2516,   6207,  -7212,  -3076,  -5577,  -3446,   6975,  -7042,  -6744,   8291,   7049,   3008,    546,   3954,  -7275,   5888,  -4584,    -42,   5384,  -2168,   -512,    177,   6587,   7594,   2276,  -2694,  -4816,   1021,   1684,   5243,  -8241,   -230,    322,   2413,  -8632,   4456,  -7434,   4834,  -4834,  -3491,   5523,  -1062,   7755,    371,  -5977,   5598,  -5049,  -3955,  -2811,  -4148,   2803,   9032,  -3360,   7737,   6662,   5224,   4348,   3623,  -1626,    341,  -1919,  -2355,  -8523, -11641,   6942,  -3427,   7724,  -2318,    111,  -5499,  -3532,  -2014,  -8853,   1943,  -4217,   1364,    608,   -818,  -7533,   8155,   4234,  -6409,   5557,  -5633,   1368,   7635,  -6783,   3194,  -1234,  -8221,  -5628, -10096,   6068,   1136,   5232,    242,   -788,  -5592,  -7123,   1473,   -951,   7635,  -8126,   8836,  -8052,   5109,  -5175,  -4067,  -4847,  -4901,  -3890,   2696,   1246,   5385,   5781,   3004,  -4860,  -2796,  -8727,   9706,   4316,   -885,   4025,   3641,   4183,  -2876,  -1776, -10140,  -1243,  -7350,   3136,   7132,   -690,  -1245,  -6066,  -1616,  -1033,   -214,   4373,   1628,   3326,   3405,   6846,  -5146,  -6456,  -9958,   6488,   1605,  -3029,   5234,   2592,  -1696,   4151,   2676,  -7395,  -3386,  -7221,  -5484,    788,  -6487,  -7923, -10784,   1157,   8724,   -913,  -1194,  -5524,   7262,  11826,  -6337,  -4322,   5746,  -5043,  -2961,   9991,  -5292, -16520,  10488,   -504,  -3099,  -4336,    -29,  -6857,   3068,   3114,   6674,  -7810,   4366,  -5017,   5230,   8885,  -7477,   7007,  -6087,  -7037,  -3001,  -5321,  -5912,    538,   5090,   -652,  -1148,   4055,  -9482,  -5351,  -2627,   1538,   2647,  10299,  -8723,   3013,   1102,   7278,  -8844,  10307,   4896,  11489,  -1271,   3436,   6486,   2919,   -329,  11859,   6849,   4266,    655,   2368,   6569,  -5488,  -1024,  -2377,  -3754,   7504,   -116,  -2697,   1023,   -230,   -519,    536,   6165,  -6363,  -2700,  -3501,   3709,   4689,  -1392,   2997,   3297,  -9406,   8675, -11672,  -3417,    443,  -9361,   2150,  -6747,   9408,  -7015,  -2194,  -4897,     45,  -2007,   7780,   6899,   8299,    182,  -4321,  -1654,   2376,   7070,  -2984,  -1353,  -5628,  -4039,  -4065,    544,  -5879,  -4181,  -2877,  -1504,   7589,  -1335,   5768,   -210,  -7663,    644,  -2638,  -7352,   1761,   6972,  -1070,  -4666,   1682,    -94,   9067,  -4106,  12612,  -6764,   3733,  -3628,   1987,  -2609,  -1973,  -5367,  -7462,  -1110,   2418,  -3655,   5528,  -1793,  -5952,   6050,   4231,  -6007,   3404,  -6451,   6007,  -5458,  -7283,   4599,  -1832,   2478,  -1462,   7320,  -7178, -11790,   7014,  -7238,   7399,   8286,  -1917,   4566,  -6368,   8143,   1685,  -8201,   4173,    274,   1402,  -6568,   6076,  -6524,  10221,    610,    758,  -2632,  -3224,   -545,   2294,  -4165,   3356,  -8224,   3628,   2533,  -1742,  -7426,  -3275,   2293,   9113,   4027,   6398,    228,  -1027,  -8189,  -4881,  -1351,  -1454,  -7385, -10094,  -5720,   5436,   5923,    178,   7460,   6063,   5977,     -3,   6121,  -6539,  -1364,   7129,    380, -13862,  -1136,   2876,  -3050,  -4294,   7412,  -1069,  -6523,   6954,  -3595,   1914,   2075,   2166,   5347,  -3328,   5261,  -6378,  -2554,   7536,  -4146,   1841,    706,    555,  -6578,   1309,   3835,   8119,   2564,  -1488,  -8768,  -5527,  -3395,   1689,  -4994,   -488,  -6072,  -2084,   4674,  -4357,  -5753,  -3931,   5629,
         11127,  -7762,    722,  -1790,   2154,  -2512,   -855,   1647,   1562,  -6553,    155,    384,   6112,  -5836,  -6039,   7437,  -2020,  -1447,  -5179,   6602,    252,  -6238,  -6683,  -2753,  -3781,  -6286,  -5169,   8785,   3595,  -4981,   4464,  -1566,   7291,   2793,   3078,     18,  -2870,  10318,   6586,  -2436,   5017,  -3762,   5758,  -7582,   5162,  -2907,  -3447,  -7815,   4767,  -7408,  -4989,    151,   2122,  -8124,   2967,  -2344,  -4560,  -6000,  -6532,  -2905,   3379,  -7623,  -3457,  -5434,   7976,  -6493,   7093,   3043,  -3925,  -7136,   6995,   6301,  13421,  -2949,   7120,  -5418,  -4219,   5524,   3897,  -2254,   3126,   5511,  -9156,  -7977,    499,   1032, -12440,  -5274,   5781,  -6731,  -3715,   -339,  -4213,   3104,  -1095,  -5311,   4218,  -1903,    593,   1488,   5172,  -3305,    555,   6493,   1942,  -4706,  -2841,   6629,  -1459,   1668,  -5022,  -6462,   9007,  -7278,   6939,  -2522,  -7641,  -8560,   -787,  -5096,  -1805,   6406,   5733,   3508,  -5027, -11404,  -3987,  -3607,   5438,  -9649,   4308,  -3867,  -3213,  -3751,   -231,  -8559, -11021,  -4770,  -4855,   2544,   5287,  -1050,  11657,  -2258,  -6079,  -1438,  -5331,  -2216,   3426,   6337,  -3892,  -2527, -11271,  -2434,  -4442,  -2700,  -7080,  -8531,   8202,   2545,   4408,   5009,   2944,  -7051,   3504,  -4544,   2903,   2499,   1037,  -5026,   7404,  -4576,  -3888,  -4452,   6218,   -500,    870,  -4472,    688,  -2171,  -3603,   5804,   4263,  -7276,   7824,   6205,   1438,  -7122,  -4979,  -5998,    639,   -310,   8813,   6250,   4574,  -1778,  -2474,  -8190,   2231,   1225,  -3159,   3818, -12463,   3633,  -5309,   7279,  -5515,  -6443, -12390,   8505,  -5167,  -4090,   -853, -10839,  -3128,    608,  -6518,   1144,   5361,  -4045,   7864,   -738,   4089,    211,  -5886,   -757,   -288,  -5860,   6212,   9001,   1058,   2475,   5021,  10126,   2119,   3433,   5555,  -6261,   -133,  -3906,   4475,  -1851,   -367,   3122,  -2519,  -9717,  -2164,  -4088,  -6657,   1150,  -6924,   1735,   4364,  -4091,  -6309,   3351,   5151,   -191,   8682,   4727,  -2268,  -9749,  -4671,    113,  -9733,    -60,   9600,   2520,     53,   -117,   1927,   2734,    397,   3641,  -3349,   6250,   -794,  -1045,   3148,  -2885,   6545,   9237,  -3525,  -3807,   5710,  -5520,    328,   6096,  -7441,  -3541,  -7289,  -2077,  -6946,  10536,  -4391,   6914,   1149,  -5675,  -3305,  -1352,   -747, -14481,  11136,   4869,   7837,   1599,  -1050,  -3161,   3577, -16993,   8591,   4012,   9005,    475,   4184,  -6559,  -4876,  -8562,  -4366,  -8622,   6642,  -5941,   5325,   3931,   5760,    -52,  -4330,   5473,   2319,  -4506,  -1654,   3076,  -1278,    557,  -4768,  -6447,  -1832,   6894,  -7919,  -2147,   7615,   3325,  -6814,   -763,  -2105,   1660,  -7100,  -6652,  -1685,   -739,  -3101,  -8457,   6705,   8470,   1801,   5682,   1062,   2192,  -6704,  -3323,   7686,   2285,  -1244,  -5424,  -3500,    479,  -1009,    250,  -4075,   7522,    848,    335,   3806,   -414,   -780,   1255,  -6901,   3017,   4554,  -6174,  -1417,  -7817,   1771,  -1989,    319,   6502,  -3553,   4780,   1434,  -4990,  -2144,  -7525,  -6045,  -4197,     88,  -3974,  -5028,   4576,   7014,  -4941,   3091,  10587,   4045,   1768,   5818,   2242,  -8599,   -650,   5347,   5300,   6764,  -3859,   2494,  -8263,   1585,   5731,   7755,  -6703,  -6166,  -5909,  -4561,   2619,   7180,  -7791,   -688,  -2958,  -6124,  -4908,  -2523, -10940,   -571,   2135,  -2969,   4960,  -3593,    647,   2860, -16979,   -764,  -1195,   3588,   3586,   8246,  -4716,  -4166, -12807,   2494,   3064,   7961,  -7864,   -188,  -9035,   6049,    685,   5484,  -6995,   6486,  -7637,  -4121,   1487,  -4691,  10243,   -660,   -336,    -39,  11555,    -88,   -899,  -6634,   6648,    180,  -1144,   7908,  -1446,   -350,  -5465,   1322,   8731,  -6199,   6828,   5073,   1726,  -5251,  -9405,   7223,   1521,  -2959,  -8673,   2605,   3052,   -133,  -2024,  -5936,  -7237,   4792,  -4102,   3424,   2272,   7403,   2077,  -4417,  -9893,    -80,  -3159,  -3684,  -3770,    177,   4069,   -173,   -469,   3097,   5936,
          4338,   1889,   7536,   2069,  -1490,  -6934,   3510,   5946,  -9184,  -9548,   8168,     24,  -7250,  -6356,  11022,   -237,   5480,  -6015,   4577,  -2562,  -4142,   4022,  -5225,   4501, -14356,   9868,   -349,   3737,  -3715,   1400,   2431,  -7221,  -6694,   5216,  -1766,  -1513,   6933,   9936,  10761,  -6843,   4507,  -6402,   7911,  -4995,  -7478,    916,   5644,   -262,   -528,   3783,  11315,   1824,   4496,  -3869,  -1182,  -4185,   1126,   4971,   9861,   3930,   1804,  -4532,   9744,  -1451,   7259,   4996,  -5111,  -2551,   1191,  -5684,   3351,  -3783,  -1284,  -2681, -14271,   3617,  -5486,   1688,  -8633,  -1739,  -7810,   -790,  -6951,   2975,  -4708,  -3157, -10335,  -1999,  -6886,   6844,  -2544,  -1792,  -5471,  -8544,  -3798,   7082,  -4478,  -1839,  -4508,  -1030,  -4785,   3645,   3566,  -4654,    517,  -1358,   3126,  -5628,  -2526,   2943,  12776,   2136,  -3488,   1958,   8860,  -7183,  -5152,  -1270,   -627,  -8636,   -175,  -2267,  -1363,   -882,  -6751,   3214,  -1039,  -3809,   3034,  -4674,  -5922,   2276,    824,  -4241,  -2998,  -2374,   3887,   6566,  -4150,  -1036,   1127,  -4223,  -1154,  -4530, -10747,   -998,   4275,   4715,   2554,   2474,  -4992,  -6343,   -901,    -39,   6230,  -7949,   6511,   1338,   5181,   1285,   4959,  -3942,   3098,   3194,   3211,    419,  -4700,   2135,   -790,   3330,  -2314,  -5426,   1832, -13183,  -2113,   3063,   9450,  -7721,   5222,  -3403,  -3725,  -9274,  -1905,    722,   3782,   4722,   4804,  -7045,    528,  -1815,   3365,   2200,  12963,  -4373,  -6050,   2573,   3654,    175,   1700,   5153,  -2705,  -1422,   9117,   1837,   6446,  -1627,  -2113,   3878,  -5247,  -1465,    851,   4809,   7855,   3663,   2947,  -7355,   2739,  -1564,  -2432,  -2197,   7341,  -8823,  -3178,  -1893,   7701,  -6403,    654,    436,  -1103,   7727,   8612,  -3018,    100,   3543,   5960,  -4416,  -4504,  -5267,   7776,   -919,   5956,  -8218,   6978,   5996,  -4526,  -5906,   2372,    -60,   7214,  -7362,   2034,  -4690,   -922, -11442,   2667,  -3117,   6082,  -4466,   1192,  -7309,   5599, -12885,   5678,  -2077,   9399, -11833,  10135,   -844,   6452,  -2687,  -5298,   -942,    626,   3644,  -4112,  -5215,   3421,   3713,   -794,  -4161,  -1699,  -9236,   8197,   3459,   1283, -11261,   -383,   3104,  -3281,   8099,   3814,   1243,  -3287,    952,  -6497,   6976,   6363,  -5501,   4098,   3844,  -7413,  -9504,   8566,  -4382,  -4552, -10073,   3810,   3099,  -2973,  -6996,   6062,   2174,   3237,  -3819,    793,  -6688,  -7552,  -6891,    601,   4147,   3485,   2286,   3096,   2328,  -1620, -10214,   8282,  -7786,   5573,  -8006,     66,   8668,    241,   4409,   1254,  -1351,  -2702,   1860, -10390,   -582,   6079,  -1985,  -4368,  -2342,   7132,  -6864,   1489,  -1769,   6068,   3810,  -6568,   1781,   6432,   7084,   2508,  -6842,  -6749,    155,   2266,  -4695,  -6518,   2265,  -3719,  -8668,    235,  -3260,   1740,   4224,   8611,  -6506,  10925,   1804,  -2742,  -3846,   9326,  -2148,  -5358,  -7217,   5141,  -7024,   6818,  -6688,   7508,   4229,  -1929,   6524,   -233,  -2728,  -7154,     19,  -6498,  -2442,  -7490,   2800,   3995,   -282,   7101,   1304,  18106,  -5630,   4072,  -4311,  11549,   5170,  -2572,  -5391,   7484,   1715,  -3147,   9862,  -1952,  -8679,  -1827,   8068,  -5191,  -8420,  -4337,   3918,   1082,  -5090,  -7147,   4475,   7077,   3698,  11675,  -6507,  -3988,  -6044,  -2102,  -6730,  -2536,  -8547,  -1772,  -3538,   5357,  -3543,  -2715,    153,    411,   2834,   4591,  -6644,   4116,   -567,   3670,   7690,  -2042,   4701,   1129,  -6821,  -2858,  -5568,  -7593, -11405,   2797,  -4857,    330,   4430,  -3725,     17,    699,   -393, -16491,   3555,  -8540,  11013,  -4003,  -5516,   6034,   1836,   -772,  -6396,  -1517,   7005,  -2821,  -2858,     33,  -7926,   -193,  -5206,   6213,   9550,  -3856,   1551,  -2608,   9832,  -2112,   6921, -10403,  -7613,   8489,  -2088,  -7237, -10570,  11653,  -4679,  -8999,  -9779,  11502,   4552,   7985, -10726,  -2026,   6454,  -3880,   5802,   3211,   2302,  -7321,  -4465,  -4337,  -5749,
         12325,  -3802,   6751,  -2601,  -6866,   -975,  -2580,   2911,  -2607,  -4939,  -4946,   2153,   3278,  -8337,   -182,  -7607,  -9804,  -4700,  -6508,  -4665,   2401,  -5245,   1615,   5072,    536,   4309,   3176,  -2712,   4914,  -6635,  -1949,  -7163,   2684,   1645,    212,    661,  -5238,  -1288,  -7056,   1134,   -970,   1118,   3496,  -8106,   3037,   1021,  -2289,  -4114,   1664,  -7354,  -8743,  -6921,   5403,  -3143,  -6241,  -6721,   4355,    841,   8952,  -5129,   4874,  -6628,  -2217,   2614,   2324,  -6987,  -4137,  -1893,   4437,   1018,   4576,   6085,  -8840,  -8592,   -801,    439,  -4317,   6229,   4115,  -3870,  -6775,   -500,   4370,  -5233,   -203,   1081,   3172,   1960,  -5710,  -5279,   6696,   6539,  -1859,  -4747,   8507,   5596,  -2715,   3101,   9582,    735,  -2748,  -2590,     28,  -2406,   7726,   -910,   1743,   1710,   -713, -10976,   -893,  -4202,  -4464,   5532,  -3414,  -7255,   2512, -12481,  -6571,   6887,   3048,    664,   4304,  -7790,  -2197, -13092,   -987,   4297,   9992,  -5813,   -302,   5591,   6922, -11054,   -337,  -2357,     92,  -1042,  -4714,   7259,  -2531,   2276,  -6968,  -3184,  -7508,   1982,  -1323,  -2615,  -2883,   3623,  -2903,   5035,  -6150,   6150,   4252,  -2155,    343,   3073,    572,   2928,   8125,    452,   2748,  -3901,  -7146,   -903,    -46,  -8108,  -5732,  -7036,   6953,   2569,  -2023,  -7073,    445,  -2837,   3902, -11459,   3780,  -3582,   -356, -19681,  -2255,   6787,   2110,  -1128,   9051,   6215,   4267, -15987,   6279,  -5310,  11118,  -3032,   1551,  -8118,   5087,  -2330,  -2260,   6033,  10539,  -1577,  -6326,   4047,   7481,   -739, -10405,  -3414,  -9561,  13740,  -2255,   6117,  -3247,  -3919,  -7963,  -3900,  -7684,  -6303,   -325,  -3467,  -3000,   -964,  -5456,  -8621,    987,   1792,   5465,  -5306,  -2296,    910,  -1777,  -5060,   5336,   3397,  10569,  -6790,  -5314, -11410,    153,  -3661,   8372,   7415,   8951,   3598,   2744, -14706,  -3483,  -4159,   1906,   3695,  -1308,  -4897,   2113, -11215,  -4188,   6162,  -2941,   4476,    404,    518,   2596,   3617,  -2098,  -8244,  -6767,   9159,  -7715,   -582,   6323,  -4098,  12891,   7977,   5424,   1767,  -1368,  -7891,  -4424,  -2057,  -8378,   5572,  -5714,   1858,  -6069,  -7508,  -2602,  -4129,   3783,   3969,    662,  13202,   2363,  -4326,  -6636,   -314,   6992,  -1738,   6205,  -3497,   9720,  -5874,  -7885,   2642,  -1786,  -3820,   6081,    740,   4677,   6160,   5909,   8199,   1832,  -5385,  -3354,  -1485,   4713,  -1282,   8009,     63,  -1410,  -5295,   3437,  -4072,   4917,  -7951,   2953,   -542,  -7635,   -424,   -690,   7939,   3390,  -7420,   4860,   2384, -12877,  -5315,     72,  -2215,   3778,  -8114,  -7766,  -7484,  -8434,  -7622,  -2734,   6134,     23,   2062,  -4517,  -8626,  -8176,   4761,    434,   1024,  -4408,  -8414,    428,   1314,  -5573,   4367,  -3619,  -6775,  -2231,   5191,   6505,  -9974,    158,   2421,  -3671,  -3933,  -2245,   1067,   7482,  -7788,  -6427,   2347,  -1314,   7104,   -495,  -7847,   -461,  -8941,  -6862,   6257,  12250,   5731,  -5897,   4180,   -665,  -2466,   1753,    696,     50,   5914,  -3552,   1922,  -3761,  -3019, -10336,    852,  -2076,    637,   5054,   4977,   1221,  -8219,   -352,  -6961,   2830,   9514,   -202,     92,   2808,   2402,   2583,   3787,  -8427,   1831,   7750,  -5427,   1589,  11347,  -3473,   2251,   5571,  -4225,   3337,    141,   5619,  -2395,   -896,   5127,   7244,  -6041,  -3132,   4088,   3869,   3607,  -8805,  -8604,   6775,  -1128,   3428,  -6678,   1812,  -5524,  -6893,  -7241,   8388,    424,   5609,   5312,   7755,  -7850,    757,  -7319,   3681,   1265,   2540,  -3074,   4754,   5595, -10041,  -5687,   2673,   4761,  -4431,  -1012,  -3073,    849,   1678,   4586,   3590,   1163,   3916,   2344,   4340,   5369,  -4904,  -1717,   7020,   3100,   9686,   3903,   6865,   6237,  -3533,  -7150,   -927,   3860,   -325,  -4094,    153,  -3460,  -6296,   4239,  -3273,   6579,   5753,  -9379,   6211,  -4175,  -5211,  -2122,   5550,    -97,    970,   5331,  -4680,    713,  -1891,  -4175,
         -2675,  -4440,   2399,   3262,   2009,  -8939,   2423,   -221,   9157,      7,  -1991,   2749,   3514,  -2338,   5780,  -6564,   4382,   4529,  -7282,   6479,  -6956,  -9990,   -687,  -6182,  -1052,  -7452,   6138,  -8863,   7109,  -3173,  -7173,   2802,   8619,   4108,   8387,  -8081,  -5033,   6392,  -1808,   5756,  -3077,  -6872,   9088,  -7866,   1284,  -4965,  -7301,   6726,   7917,  -4349,   -409,   3578,   7844,  -7427,   1147,  -4101,   2619,   1860,   8992,  -7545,  -3942, -12357,  -5508,   6766,   4314,   4228,  -3887,  -8383,   -435, -11021,   9092,  -1787,   9526,  -2045,  -4661,   2636,   2789,   4789,   1757,   -980,  -7661,   7889,  -5047,    451,  -1536,   2918,  -7527,  -6774,  -4083,   5394,   4949,  -5660,  -6846,   5483,  -7822,   7091,     16,   -229,  -4798,   -640,   4016,   8384,   5071,  -7849,  -5334,   6165,   6486,  -6309,  -1272,  -7332,  -5193,   6026,  -5599,   3809,   4511,   1002,  -5348,  -4076,   -499,   -315,   7871,   3988,    155,  -2334,   7912,  -6484,  -1185,  -1159,   4513,   9033,   8903,   -686,   1843,  -3197,  -2010,  -7812, -14151,   7569,  -4111,  -2134,   7913,  12324,  10899,   5639,   5153,    238,  11988,   2461,   2793,   1424,   2258,    839,  -9780,   4727,   2034,  -3537,  -3634,   7408,   7907,  -3063,  -5282,  10085,  -1220,   3691,  -6833,   2984,   8514,   6428,   5986,  -3307,  10250,    755,   -871,  -1243,   5634,   2648,   3336,  10608,   2498,   2284,   5327,   6704,  -5345,   4474,   4494,  -1822,    478,  -1787,   4444,  -2898,   5081,  -8409,  -3092,  -1845,  10334,  -2487,  -4619,  -5546,   4023,  -3000,   2556,  -5088,  -5626,    584,   7242,   8403,  -3892,   1239,   1392,  -4908,   4469,  -5062,  -6678,   4571,  -6895,   1005,  -8234,   5720,  -4209,    642,  -5575,  -5884,    847,   5313,  -3405,  -6725,  -1013,   4287,   3313,   -170,  -7677,  -4882,   5004,    936,   -214,   3249,  -5508,  -5916,   -229,  -7721,   3001,  -1956,    206,    440,  -7649,  -2742,   4026,  -7299,  -8227,   4666,   9099,  -7726,   8004,   1548,   6563,   -649,  -3401,  -7928,  -6036,  -4395,  -6217,  -4922,   6056,  -2728,  -8903,  -1773,   2711,  -5157,  -3976,  -5765,   2265,   1260,  -7110,  -4967,  -3955,  -7308,   -453,   3183,  -6108,  -7462,   2378,   9089,   2747,  -2431,  -1745,   3983,  -8767,  -2376,  -4401,   7520,  -4496,  -6606,  -5884,   8237,  -6833,  -7202,  -4988,  -4743,   7162,   5877,   7462,   5408,   7141,   5469,   2082,   7809,   2545,   4026,   2213,  -6383,   4829,  -1535,    793,    -30,  -4629,  -1590,  -2097,   1022,   1767,  -1329,   3863,   5710,  -2872,   -236,   1614,  -1981,     46,   2167,  -2167,   -623,  -3111,  -1625,   5784,  -4069,  -7049,   4637,  -8605,   3291,   2244,   6372,   6629,  -2806,  -1314,  -5314,   6748,  -1660,  -3383,   4045,   1765,   4214,   3600,  -3058,  -7909,  -3768,   3009,  -9349,  -7312,  -1516,    173,  -5016,  -5922,  -2815,    728,  -6175,   5155, -10237,  -7693,  -2056,   7013,   -294,   5070,   -383,   5085,  -3701,  -4533,  -6046,   3747,  -2016,   4545,   4886,   2280,  -3967,   4092,  -4696,   9863,   3711,  -2773,  -2513,   1930, -11218,   9784,  -7755,    429, -13310,   6768,  -7485,  -5256,  -5028,  -5704,   7011,   1216,   4223,  -6230,  -6796,   3179,  -6900,  -1587,  -3268,   -916,  -5411,   7522,  -7853,  -3585,    299,   5389,   6659,   6150,   6321,  -4507,   4247,   7283,  -1376,  -1085,  -3444,  -5680,  -5025,  -2725,  -3927,   2076,  -4752,   5314,  -5895,   -626,  -6886,   4699,  -5388,   5960,  -3864,  -4347,   6269,  -5556,  -6002,   9073,   4058,   2280,  -4441,   6627,  -7392,   3709,  -3662,   6694,  -5398,  -5342,  -6519,   1717,    -34,  -5039,   5920,  -6004,  -7457,   6757,   8618,    856,   5643,  -1940,  10310,  -3870,  -7810,   4199,  -3547,  -9797,  -1035,   3523,  -7632,  -5998,    795,   5611,   6320,   6194,   1360,    627,    124,   6216,   1889,  -7360,   2593,  -2381,   6661,   6578,   2048,  -2442,   2669,   4012,    157,   1990,  -8710,   1685,   -234,    568,   1677,   4285,   -159,  -5649,   2295,    585,  -4451,   2352,   4202,  -5977,  -2651,   8136,  -2805,
         -2722,   8135,  -3945,  -2644,   7111,   6507,  -1884,   5797,   3015,  -8571,   4701,  -2075,   4507,   3311,   9454,  -4374,  10856,    483,    593,   1827,  -2827,  -3623,   3237,  -3950, -13236,  15261,  -5714,   4097,  -2332,   3899,  -8507,  -2188,  -3299,   5332,   5362,   2020,  -4269,   4075,   2220,  -4456,   5280,  12789,   1445,   6660,  -1456,   7555,   8280,   2494,   1688,  -3532,   3727,  -6440,   2678,   -209,   3970,  -4373,  -6114,   2586,    192,  -5430,   3237,   1279,   3375,   5231,   5347,   5899,  -4102,   -888,  -7354, -10874,  -3685,   1422,   2392,  -4433,     12,  -1572,  -5011,  -3272,   3453,   7694,   1406,  -8211,   3164,  -3291,  -2023,  -1548,   5408,  -2638,  -5560,  -7744,  -2987,   2824,   7091,  -1361,   1879,  -5119,   -518,  -7973,   2841,  -5741,  -6865,   6437,   6900,  -7488,  -7925,   1419,  12145,  -7589,   6017,   1271,   8552,  -4591,  12120,  -7049,   4131,  -2732,   4827,  -6356,   4266,   4841,   5519,  -4761,   9351,   3966,  -5063,    940,   1214,   6644,   1617,   7508,  -3844,   5802,  -3910,   1192,  -5105,  -4217,      6,  -7984,   3330,    314,   7237,  -6116,  -6679,   5649,  -4655,  -8301,   4712,  -2175,   6401,  -8015,   7530,   7131,  -7355,   4070,  -6696,  -2442,  -5147,   1691,   5306,     -5,  -2680,  -5459,   5064,   4579,  -5281,   3982,  -2963,    -82,   4175,   1560,  -2879,   2457,   1215,  -2040,   1323,   1033,  -3736,   -126,  -1700,   2517,  -1429,  -6191,   -798,  -2188,  -4773,  -5157,   3205,  -7276,  -1142,  -5423,   5405,  -7711,   9529,   4939,  -3363,   1809,    -41,  -3192,   6179,    369,   -168,  -9447,  -4897,   8217,  -4369,  -4679,  10634,  -7820,   3112,  -2833,  -2906,  -2922,   5353,  -8467,   2500,   5055,  -6309,  -5859,  -7719,  -2917,   -595,  -1163,  -5747,   5327,  -2543,   2277,   8070,  -5470,  -5145,   5062,  -5470,    713,  -2705,    703,  -2225,  -6940,  -6497,  -2879,  -8921,  -1511,  -2173,  -6321,  -2402,  -8191,  -4481, -13090,  -4030,    926,  -2983,  -1027,   3415,  -2803,  -3178,  -4819,   9535,   4435,  10073,   2180,   8786,   3563,  -7380,   2818,  -1152,  -3634,  -2077, -11923,  -2427,   1610,   1675,    465,   8403,   5575,   8502,   1173,  -7157,  -6326,  -4805,  -3049,   -803,  -3552,  -2155,    878,   6219,  -8002,  -7111,  -3416,   6977,   2412,   8223,  -2722,  -2709,   -495,  -1919,  11504,   8281,  -4905,   6257,  -1562,    821,    479,    -67,  -6596,   8615,   3983,  -1570,   -216,  -6055,  -9111,  -6845, -13908,  -1689,  -1122,  -5894,   3483,  -3777,  -1835,   7439,  -3572,    838,   3067,    -82,  -3624,  -1956,   5724,  -4643,    185,   -438,  -2816,   9599,  -4037,  12042,  -4424,  -2610,  -2301,   2372,  -5648,   -524,  -3488,  -5163,  -1550,  -2004,  -3198,  -2086,   7159,    473,  -3647,   2306,  -5220,  -4520,   2868,  -1192,   3965,  -4881,   4821,   2631,   4700,  -5467,  -3139,  -4970,   2921,  -7408,   -648,  -6484,   2810,   2962,  -2576,   1467,  -5608,    -34,  -7031,   4133,  -5943,   7615, -12477,  -1887,  -1067,   2167,  -1026,   4523,  -8153,  -3871,  -7138,   5776,  -4251,   5516,   -691,   2140,   8635,   4040,   2546,   4352,   -547,  -7723, -16084, -11881,  -1406,  -5318,   4523,  -6820,   3375,  -3887,   1795,  -1087,  -6445,   4695,  -7304,   3159,   2285,  -5866,   3762,   8849,   9823,  11411,   6296,   3296,  -8427,  -8260,  -4331,   8515,   4037,    631,  -3194,  -8153,   5382,   -319,   -690,  -1378,  -5962,    628,   5645,  -5046,   5075,  -7483,   9557,  10551,  -6123,   5731,  -2297,  -7606,   5720,  -4142,  -4043,  -1440,  -7807,   5190,  -2412,  -3396,  -8698,  -2552,   4181,  14547,   2842,   1524,   5983,   2200,  -6509,   2726,   7436,   1042,  -3487,   1715,   4483,   6381,  -3151,   4022,   -132,   1091,   2080,  -7412,  -6553,  -7587,   5594,   3840,   -788,  14064,   4612,   7472,   2282,  -1286,  -6656,  -1236,   5170,   1395,   -252,   8315,  -7734,    190,  -3447,    746,  -7233,   9622,   7064,  10131,  -2573,   1071,   -217,   -438,  -2083,   4002,   4617,  -1131,   5511,  -3412,   1507,   -113,  -4054,  -4300,   7360,  -1085,  -2379,  -6776,  -2410,
