#include "birdnet_default_int16_coefficient.hpp"
using namespace dl;

namespace birdnet_default_int16_coefficient
{
    const static __attribute__((aligned(16))) int16_t statefulpartitionedcall_sequential_conv2d_biasadd_filter_element[] = {
         -3940,   6999,  -3842,   2660,  -5723,   9474,   4531,  11324,   1934,   5819,   7578,   2186,  -5017,  -3787,  -2891,   5460,   1308,  -4256,   8486,   -949,   2877,  -1496,  -9520,  -1974,  -3137,   2137,   7278,   5771,   8717,  10656,   2664,   3186,  11006,  -4150,  -4756,  -4067,  -7138,   6015,   2251,   3426,   8833,  -8459,  -3257,   -210,  -5799,  -7468,    847,   8048,  -8407,    712,   2577,  -4894,   6678,   5643, -11126,  10167,   3029,  -5201,  -7817,   2184,  -6359,  -4074,  10850,    574,  -6978,  -1088,   6904, -11315,  -9693,  -5801,  -4938,  -7656,   2484,  12765,   6852,  10732,   6270,   2502,   2755,   5566,  10253,   1684,  -4289,  11205,   7116,   5572,   7400,    321,  -9185,  -5420,  -1309, -13477,   7959,   1085,   1447,   -575,   -743,   6998,  -6673,  -7340,  -5838,   4386, -15347,   1384,   2636,  -9226,   5873,  11182,  -3422,  -7376,   8751,  -4151,   7234,  -5244,  -5784,  -6854,   -785,  -7573,   1482, -11297,  -7015,   4667,   9511,   -678,   3175, -14142,  -8493,   9053,  -9574,  -1808,  -1487,  11579,   4960,   1273,   -853,  -9127,   8912,  -5206,  -7079,  -9589,  10605,   3428,  11519,   2877,  11683,  -5355,   5966,   9306,  -7932,  -6365, -11802,  -1200,  -3635,  -3247,  -9963,   -835,  -7642,   8341,   -898, -13868,  12083,   8217,   3102, -12532,   7334,    148,   6296,   7358,   9949,  -3673,   6929,   1480, -11308,   5650,   2274,  12869, -20408,   7612,   6919,  13636,   -708,   -949,  -3938,  -8410,  -2313,   6079,  -1884,  -7615,  10182,   -788,  11539,  -4154,  14518,  -4963,  10493,  -4742,   4930,   9340,  -5821,   7208, -16236,   7317,  -3863,  15504,   -171, -11430,  -7814, -14373,   7240,   1124,   5228,  -6967,   4257,   9205,   8126,  11233,   4047, -10573,   7799,  -4715,   4877,  11864,   -594,   6324, -20162,  -2664,    661,   9602,  -9229, -16305,  -6815,  -9851,  13041,   -978,  -1927,  -7337,   2847,   4403,   3920,  -3534};

    const static Filter<int16_t> statefulpartitionedcall_sequential_conv2d_biasadd_filter(statefulpartitionedcall_sequential_conv2d_biasadd_filter_element, -16, {5, 3, 1, 16}, {1, 1});
    const Filter<int16_t> *get_statefulpartitionedcall_sequential_conv2d_biasadd_filter()
    {
    	return &statefulpartitionedcall_sequential_conv2d_biasadd_filter;
    }

    const static __attribute__((aligned(16))) int16_t statefulpartitionedcall_sequential_conv2d_biasadd_bias_element[] = {
         -1286,   1998,  -1749,    658,   1170,   1067,    655,   -640,   2329,   1911,  -1345,   -912,  -1107,   -371,   -174,   3258};

    const static Bias<int16_t> statefulpartitionedcall_sequential_conv2d_biasadd_bias(statefulpartitionedcall_sequential_conv2d_biasadd_bias_element, -15, {16,});
    const Bias<int16_t> *get_statefulpartitionedcall_sequential_conv2d_biasadd_bias()
    {
    	return &statefulpartitionedcall_sequential_conv2d_biasadd_bias;
    }

    const static Activation<int16_t> statefulpartitionedcall_sequential_conv2d_biasadd_activation(ReLU);
    const Activation<int16_t> *get_statefulpartitionedcall_sequential_conv2d_biasadd_activation()
    {
    	return &statefulpartitionedcall_sequential_conv2d_biasadd_activation;
    }

    const static __attribute__((aligned(16))) int16_t statefulpartitionedcall_sequential_conv2d_1_biasadd_filter_element[] = {
         -1706,  -2975,   2189,  -8034,   5247,   3827,  -7896,   3001,  -3760,   4100, -12856,   3168,   2425,   3250,   8935,   8577,   4936,  -2956,  -5132,   4254,   4255,   8253,  -7767,  -7003,   8632,   3772, -11411, -12053,  -8411,   2853,    349, -10917,  -4665,  -4415,  -9750,   7329,  12590,   5755,   9040,   -584,  -5233,  -5129, -13722,   2582,  10432,    231,  -8922,   1442,  -5535,   9030,   8060,  -1219,   -283,  -9769,  -6570,  -1522,   5037,   1496,   7247, -11287,   8338,  -7455,   3169,   4706,    489,  -3333,  -9440,  -4002,  20961,  19646,   8533,  15309,   4374,  -2721,  15170,   6807, -25730,  -6398,  11835,   4713, -10931,  -1640,   5819,  -7453,  -2249,  -1628,   -382,  -3336,    546,  10110,   5012, -14468, -10042,  -3482,  -1059,  -2651,   3706,   2294,   3556,  -5034,   1109,   -651,  -7044,   1289,   1684,  -4747,   7464,  -4315,  19729,   8804,  11327,  -2857,  15531,   7462,   9272,  17535,  -2448,   9867,  23548,  14040,   -700,  -8948, -10738,  -4314,  16553,   7840,   5827,   7497,   5009,   7624,  -1631,   9712,  -5041,  -5674,    491,   9797,  15075,   7575,   5623,   -943,   -383, -12615,  -4492,  -8523,   3139,   8703,   2368,  -6303,   2405,  -8380,  -1892,  -3689,  15680,  15536,  12009,  -5379,   8399,  -6744,  16604,  -1198,   5458,  -6611,   7033,   5309,  -5144,  -8331,  -4294,   3267,  -1044,  -6669,  10809,     23,   5489, -12066,  -2155,   2216,   7118,   8789,   5867,   2683,   8535,  -4980,  -6246,    565,   7947,   3736,   5388,  -5365,   2748,  -8478,   1119,  -8389,  -4053,    897,  -8292, -13891, -13895,   8265, -11585,  -1276,   3477,  -4408, -10789,   2071,  10735,  10511,   8582,   8454,   7297,  -1787,    462, -16539,    327,  -2644,   6960, -11177,   6961,   7713,  16102,   3970,  14397,  -2525,  17302,    684,  -7258,  10189,   1217,   3906,   -799,   -452,  -9845,   5892,    487,  15958,   5427,  -7509,   2296,   9884,   1358, -12892,  -8108,   1316, -13635,   -243,   2116,  24201,   6927,  11951,   4630,   8635,   2415,   1918,  -9536,  -9278,  -9979,    -50,   7103,   2291,   5893,   9093,  -3349,   9565, -10297,  -3960,   5117,    722,  10057,   1019,   8908,     58,  -3905,  -6856,   4865,   3983,  -8263,  -2809,  -8180,   8037,   8503,   4369,  -8435,    313,  -2708,   7032,   -880,   4555,  -4534,  11961,   8133, -11772,   8061,  -1395,  -4489,   6715,  11445,   6511,   1005,  -3929,  -5117,    885,   1828,   5330,   1675,  -3151,  -1871,  -6910,   4078,  -8965,   4412,  -6235,  -8324,  -2033,  -5951,   -118,   9848,   7285,  -9935,   6596, -10290,  -3192,  20775,  17521,   4121,  10366,  -1472, -12527,   6639, -13821,  -2020,  -6564,    162,   3713,  -6671,   8926,  -2614,   5945,   5375,  -2721,   4138,  -4165,  -1075,  -1037,  -5967,   8706,  -2057,   4565,   3864,   -274,   1068,  14470,    564,   9120,    828,   3889,   8328,   1296,  -4510,   4566,  12404,  -8913,  15213,  15529,   5429,  -4517,   2212,   -226,  15537,  -1291,  26171,  14067,  20723,  -5011,  -6724, -10357,  20088,   4187,  14230,  -2014,   8170,   4725,    880,  -4659,  10749,  -6747,  -7950,  17477,   3139,   2685,  -8748,   -546,   2583, -10770,   2108, -10276, -16702,  -2977,  10323,   4762,  -1873,  -5067,   2978,   9709,   3040,  -8661,   1329,  -4362,   -397,  -8528,  -2547,   4146,  -8318,  -1678,  -7827,  -1498,  -9470,  -8543, -13952,  -7883, -12529,     30,   4152,  13296,   7104,  -4196,  -7220,  -2181,  -1916,   -868,   4926,  -5980,  -3671,   2574,   2870,   4728,    121,  -4319,  -7931,   1055,   1866,   1167,  -1162,   -665,   1970, -12690,   -593,  -4910, -11259,  -5487, -10999,  -4381, -12180,  -2128,   8200,   4303,  -1482,   4131,  -4080,  15051,  17211,  -5316, -21820,  -3356,  -2426,   5210,  -6546,   4900,  -7388,  -8771,   6954,   1626,  -3542,   3608,  10212,  15209,   2286,  -7591,   4395,  -9450,   1987,   2938,  -2723,    -72,   6346,   1296,   7535,  -5969,   9312,   9776,   5034,  11927,  -3132,  -9555,   -833,   7678,  13747,   6442,  16458,    549,  19774,  11528, -11196,   2170,  23371,  21762,  -6907,  -7716, -13291,   8118,   4638,  12731,   1013,   7884,
          1412,   5460,   1553,   -701,    784,   4652,  -4607,   2919,   9815,  12851,   4744,  -9026,   4010,  -9989,   4871, -16072,  -9690,  12379,   4830,   2796,   6726,   7841,  -3064,   4267,  10910,   8501,   6970,   1472,  -3542,   7521,  11795,  -5854,   9407,   8770,  -5720,  -6247,   -792,   6253,  -1288,   2998,   6987,  -1315,    762,  -2490,  -8642, -11220,  -3531,  -3088,   7048,   6088,   7094,   7986,   7720,   1210,   9680,    236,  -6278,   3786,   7449,  -2568,   1330,   3891,   -459,  -9959,   8893,  17176,   2694,  -3252,  -4120,   6234,  -4504,  -3111,   3154, -16688,  -1585,  15696,   6644,   4001,  -4553,  10760,   5766,  14671,  -6908, -10107,   4275,  -3760,   2706,  -5030,   4805,  18805,    591,   -269,  -2017,    785,  13590, -11722,  -9573,  10834,  -1496,  -1499,    -47,  -4440,  -1183,    566,   7830,   8281,   6144,  -8545,   2570,  -3926,   7636,  -6850,  -5883,  -1678,  -9086,   7957,  -1831,  27017,   6312,   8094,    354,  20298,  -9971,   2418, -18949,  -4084, -10953, -10275,  -5110,   4785,  -6655,  -2888,   2146,  -7224,   6108,  -5954,   4953,  -9290,   2874,  -1381,   1890,  -4095,  -5655,  -7913,  -5276,  -5899,  -6235,  -4968,   7576,  -2653,   3278,   5145,   4185,   4534,  -1530,  -4483,   3796,   4879,   3344,   8724,   4834,   -365,  -6079,  -5719,  10619,  -8585,   5514,  -7640,   4985,   -436,  -1489,  -3863,  -5958,   1306,  -3864,   6331,  -2266,   8335,   -416,   1224,  -8509,   9428,  -1457,   4520,   2491,  -7453,  -1031,   3685,   -369,  -1875,   2844,   8927,  -4770,  15449,    913,   5993,   4561, -11674,  12083, -10400,   5962,   6798, -10070,  -5145, -11165,  -4033, -10921,   -752,  -3558,  10693,   8626,   2777,  -1739,   4736,   2777,   9052,   5906,   5121,  10788,  -9810,   7694,   5097,   2900,   5120,  -4935,    -81,     18,  -7875,   3675,   2013,   9306,   2624,   2953,   1689,   7491,  -6707,  -9503,  -4935,   3929,   4350,  28837,  21536,  15596,   3189,  -5187,  -1761,  19187,  -3831,   3171,   8718,   7268,   3886,   9605,  -4703,   1110,  -3556,   3314,   9199,   6172,  -5551,  -8929,  -8397,   3812,  -5322,  -7058,  -1304, -11546, -11677,  -7047,   8138,  -2682,   3415,    426,  10194,  -4089,  -1738,   5888,  -2753,  -2035,  -7042, -10301,  -2423,   1093, -10516,  -3632,  -6446,  -5657, -14391,  -7431,  -5693,  -8767,    602,    275,   1872,   4654,   1426,  -2254,   4349, -10042,  -2981,   3005,    558,  -2307,   6667,   5709,   8151,    878,  -5838,  -6787, -10586,    378,  -8298,   3501,  -4102,  -9166,  -4367,   3082,    562,  -9828,   7937,   7950,  12805,   1979,  11245,   7580,   6419,  10259,    607,  -4372,  -5736,  16511,   8662,  -7490,    402,    890,  -5634,   2035,   5553,  -8106,  -8703,   6060,   2054,  -9938,   9584,  -2806,  -7101,  -4683,  -6182, -14260,   5157,  -6480, -11346,   4402,  12782,  -8056,   2835,  11499,  -2297,    915,  -6349,   6197,   6751,  -5387,   6475,  11715,   6091,   6846,    514,   3369,  21748,   3981,   1136,   7286,    263,  27853,  16659,   5745,  -2445,  -7334,   4980,  16814,  -3414,   2157,    338,  -6195,   -643,   3848,   6830,   2494,   -114,   4235,   5780,  -9262,  -5965, -10284,   1919,  -6149,   2351,  -7806, -13967,   3547,   6603,   6708,   3759,  -6060,   2783,  -1417,   7704,   8630,  19159,   -410, -13797,  -2438,   6866,   1791,  -7648,   5769,   3502,   7481,  -7765,    356,   7850,  -8246,   -751,  -4591,   5771,  -1261, -12058,   -149,  -2288,   2518, -14275,   7615,  10763,   5275,   8209,   9241,   5605,  10131,   5123,  -4247,   5205,  -3367,    411,  -6321,   1751,   -544,  -5250,   2205,  -8146,  -7936,   3848,  -3222, -11403,  -2676,  -5032,   7763,   1825,   7958,   6474,  21225,  10211,  14414,   3578,  -5043,   1756,  -2764, -17502,   2961,   3840,  -5145, -11948,   4504,  14019,   1157,   1757,  11125,  -5775,   3180,   3206,   7349,   -405,   7517,   2134,   2665,   6658,  -4072,   5142,  10047,   3528,   7540,  -8507,  -2451,   4721,   -791,    257,   4464,  -7706,   5514,  -2617,   5981,   6353,   4518,   6506,   -977,  -7179,   -728,   4451, -10115,  -3104, -13884, -11857,
          2319,  -5199,  -8467,   1954,  -9127,  -5280,  -6249,   9053,  10433,   7358,  -4605,   1842,    181,   7804,  -7846,  -4867,   5583,   -777,   9335,   2677,   6459,   2850,   -883,   8671,  -1608,   1954,  10099,   5246,   8595,  -7372,   1310,   7642,   1515,   7292,  -4118,   4146,   2866,   1079,    597, -11833,   3078,  -5459,  -3514,   1914,   4795,  -9081,   8873,   3004,   2874, -10369,    706,  -4168,   2449,   3549,   3880,  -3614,  -5165,   2758,    358,   2396,  -1705,  -9646,  -9575,  -7424,  -4995,   9421,   7245,  -1496,   -565,   -944,   3676,  -2224,  -4839, -10509,   5899,  -3703, -13912,  -6006,   5863,  -9022,  -7542,  12405,  -1125,   1753,   -558, -10477,   4026,   1147,  11231, -14833,   2971,  -7069,   2254,   1672,   -865,    441,   6606,   7521,   4665,   6708,  -7426,  -3126,   5097,   1449,  -6829,  16285,   8451,  -5359,  -5298,  -6763,   2732,   6093,   3710,  10957,  24065,   7752,  10697,   6402,   3892,   8581,  -6405,   8369,   -313,   2859,   -540,  -5309,  10422, -11104,   9779,  -7746,  -2928,   6452,    723, -13633,  10900,  -4394, -16143,   1539,  13674,  -6930,   8015,   8950,  -2522,   4530,  -6626,  -2057,  -1172,  -3428,    357,   3566,   -725,  13725,  -9353,  -2405,  -1160,   4207, -14070,  -9284,   7256,   3086,   7274,    550,   1167,   4870,  -5548,   2681,   5019,   3850,  -7230,  10301,   6212,   6326,   2666,  10161,   7701,  -8366,   2534,  -2611,   -186,  -5142,    288,   2017,   9025,  -4675,  -1144,   2551,   2141, -10103,   6687,  -3244,   8550,   1573,   2222,  -1940,   8861,   6864,  16215,   7524,   1246,  11873,   1448,  -9222, -11034,   2781,  -7519,  -8446,   1303,   8666,   5200,   9562,   5566,   2255,   9232,    639,   3760,    285,  -2601,  -7052,   -576,  -5335, -17704,  -8772,  10500, -20451,  11061,  -7028,  -6703,   7320,   7928,   4724,   4681,  -2432,   3495,   4621,  -4967,   3367,  -2037,  -4757,  -3764,   3022,   1337,   8993,  15703,  -7332,  -8654,   9801,   -252,   4565, -12548,  12097,   9699,   2524,  14126,   4001,   4073,   5643,   7469,  -2406,  -7203,  -5251,   8088,   4751,  -7463,   5978,  -2025,   6721,  -1435,   8523,      6,  -5450,  -1475, -11734,   7397,   6965,  -4062,   -401,    950,  -2065,   4672,   3036,   -654,  -7827, -10142,  -9017,   8266,   -632,  -2283,  11084, -15042,  -3389,  -6002,  -9097,   1946,  -3459,     21,   6655,   9886,  -3032,  -7485,  -9753,   7861,   3667,   8273,  -5142,   -457,   -244, -10336,  -5086,  -5492,    290,   4505,  13582,   9868,  -8728,  -3536,   4971,  -3806,  -2806,  -9852,   5811, -16250,   2657,  11060,  -7853, -12612,   1536,  10216,  -8973,  -9242,  10838,   6859,  -9533,   2279,  13139,  -9437,  -3104,   7602,  -7785,  -9957,  -7095,  -3665,   5360,   2062,    201,   8074,   4599, -10420,  -7467,   6255,   7069,   6083,  16663,   5951,   8856,   7926,    808,   4492,   5114,   4346,   1547,   -286,   4676,    345,  -3274,  -2373,  -4984,   -937,   3979, -11078,  12040,  24105,  -9627,  10078,   9440,  16427,   5188,  -1515,   5079,  13266,  -1142, -11150,  -1173,  12038,  -9109,   6056,   8513,   8290, -10065,  -1336,   8285,    -46,   9884,  12412,   5442,   4044,   5238,     57,  -5978,  -8971,  -4453,   6850,   6899,   9381,    919,   5665,   6309,  -7606,  -2057,  -1601,   1765,   -502,  -5388,   2054,   9615,   1135,   2177,  -9607,   -757,  -3732, -10106,   2355,   3679,   7346,  -1515,  -2047,   8407,   1481,   -669,   6689,  -6281,  -6547,   2091,  -4664,   2013,   2425, -10453,  -6684,  -3722,   6444,  -3591,  10643,   8990,  -2015,   2859,    316,   -269,    261,  -9965,  -7006,    565,  -4041,   2984,  -5254,  -6631,   2473,  -2684,  -1165,  -6923,   2509,   3318,   1883,   9597,  -5253,    354,  -5925,    326,  -8835,  -1393,   3699,  -2195,  -6910,  -8110,   2762,   1833,    230,   3107,   1943,  -1855,   9089,   2957,   3852,  -7600,  -1868,  -4178,  -9016,  -9199,   1664,   3780,  -2431,  -9693,  -6190,    722,   2870,  -7843,  -1880,   8351,  -5203,  -3311,  -1868,  -4402,   2036,  -1992,   7630,   8064,  -6855,  -1507,   2460,   5670,  -2143,  -6326,  -7226,  11974,
         -1304,   1449,  -4933,   3891,  -5608, -11205,  11345,  -1917,  -8734,  10312,  16621,  -3934,   1351,   6662,  -3801,  -7866,  -3088,  -3714,  -2229,   6948,   3561,  -1203,  10638,   5123,  -8015,  -4163,   3413,  -5273,   3451,   3500,  16378,   5937,   3688,   1075,   3805,   5532,  -4631,   -179,   -803,  -2697,  -3785,   1097,  11317,  -5025,   4243,  -6078,   -394,  -2829,  11220,  -3091,  -3790,   8529,  -4267,    469,   5786,   3348,    324,   9060,  -2270,  -6968,   9227,  -3641,   2790,   1598,   4263,  -2344,  10727,   1102,   1307,    -67,  -3127,  11074,  -8438,  -9192, -11895,  -1115, -15996,   3935,   5944,  -5389,   9383,   7529,   6212,  -3026,  -3221,   1790,   2445,   1205,   1363,  -4453,   4255,  -3868, -14247,  -5809,  18083, -12067,   6826,   -964,  -1756,   5156,  -1736,  -6069,  -2575,    671,   1929,   -814,  -7222,  -5089,   8724,   2316,   8322,  14986,   2539,   1456,  13290,  -6020,  -8827,  19987, -11251,  -2978,  -9257,  11550,  -1836,  -9489,  11644,   -679,   6763,   9782,   8822,   1790,   2111,   2049,  -1214,   5107,   2010,  -1124,   2448,  -3183,   1706,  -9081, -14177, -13281,  -6133, -12413,   4451,   7874,   6179,  -7845,   1530,  -5499,   3546,   2043,  -4585, -10171,  -9112,  -4375,   9306, -12569,  -3679,   -589,    379,  -7706,   9129,  -8033,  -4638,  -2992,   1961,  -2802,  -4428,  -8690,  -1232,   3215,   1028, -10793,  -3345,    745,  -3513,   -768,  -8767,   -982,  10471,   -459,  -1869,   9462,  -1499,    518,   5633,  -3691,  -7254,   6934,   6200,    612,  -8900,   9229,   4741,   1463, -12026,  -1865,  15178,   8401,  -3206,  -6352,   3193,  -7601,  10160,  14811, -10239,    397,   9655,  -1731,   2516,   6093,   1923, -12167,   9819,  -6790,   5841,   1634,  -7374,  -7692,  -6278,    660,  -5650,   2640,    209,   2425,   7162,   -477,  -9801,   3187,   -396,  10668,  -6826,   2156,   7503,  -4461,  -4498,   3833,  12135,   7712, -13113,  16189,  11710,  -9714,  -2107,  11737,   -538,   6516,  -5298,  -4675,   4962,   2725,  -6973,  -9384,  11980,  -1613,   4296,   7918,   7661,   2652,   8947,   3082,    518,  -6465,  -9219,  -8021,  -4485,  -4906,   3851,   6803,  -4950,   -151,   6745,    365,  -1110,   3986,   5271,   3571,  -7950,   7526,  -5636,   3888,   4732,    482,  -4460,   8224,  -5891,  -3799,   6880,  -6413,   1999,  -8679,  -3319,  -5240,   3521,  -1774,   9321,   4094,   4854,  -8786,  -7902,  -5164,  -8942, -11353,  -5467,   3970,   2896,  -1552,  -9395,   -620,  10034,  -5373,  -7579,  -8059,  -9386,   7807,  -4172,   9319,   8006,   2533,  10096,  -1752,   4963,  -2047,   9223,  -3090,  -1147,  11209,   -547,  11366,  -2715, -11809,  -1007,   9083,   5183,   2541,   3002,  -2892,  -6276,  -5287,   9385,   6840,   5977,  -4414,   7571,   9509,  -1746,   5753,   5428,   1117,   7812,   -151,  -6068,   5727,   6774,   5656,   3699,   2676,   7879,   3373,  -1786,   7312,   1017,   -867,    498,   1325,   8235,  13179,   3896,  11357,   2733,  -6685,   7850,  -2080,  14070,  10770,   2845,   3095,  -2861,   4567,   7326,    663,  -6078,   -779,   3389,   -470,  -1830,  -7173,   4575,  -6389,   9393,  12163,    -26,   6789,   1196,  -3096,  11000,    803,  -1147,  -5592,   6752,   5699,   1309,   1668,   -635,   4058,   3068,   7178,   2218,  -9621,   3744,  -7287, -17907, -12598,   1680,  10452,  -7866,   3987,  -5190,   5505,  12490,   5128,  -6360,  -8344,   6684,   7182,  -1602,   7799,  -4066,   4598,  -8244,    519,  -2422,  -3720,   -590,  -2376,  -5067,  -6728,  -2982,  14622,  -4119,  -4088,   8225,    343,   5522,   8513,   6082,  -9066,   -126,   9298,   7864,   3227,  11281,   6783,   8676,   3425,  -5149,  -2079,    657,  -7571, -10083,  -8525,  -6542,   8353,  -4233,   3628,  -4633,   1450,   5567,   3433,  -5847,  -3334,   3134,  -2090, -12578,   7842, -12108,   2042,   3126,  14292,  10449,  -4412,  -7509,  -9372,  11764,   3717,  -1051,  -6247,   7442,  -7485,  -9763,  -4428,  16534,  -4384,   9869,  -7869,   3402,  14384,  10591,  -7017,   6828,  12538,   8098,  -2348, -10802,  -2517,   1780,   4072,  10922,   -557,   6191, -14215,
          1825,  -6480,   7196,   4037,  -2759,  -5253,   -604,   -477,  -1661, -12054,   3113,   7306,  -1103,  -6749,   -628,   4281,   9237,  -9461,  -7407,  -6776,   6432,  -7319,  -7270,   8627,  -4652, -10041,  -7748,  -4348,  11866,  -4206,  15279, -12192,  -9734,   2740,   3478,  -2478, -12894,   1070,  -7149,  14543,  -3451,  -5808,  -1793,   -171, -10594,  -5573,  -4088,  -4274,  -3356,  -2343,   2625,  -5287,  13228,   6403,  -3573,  -3868,   3621,  -2338, -10005,  -4047,  -2296,   -324,   4378,  -5644,  -5556,   2724,  -9336,  -1176, -22288,  -7731,  -3619,   7766,  -2318,  -2363,   7238,   4915,   3658,   -550,  -6705,  -5719,   5722,  -4388,   2961,  -7630, -11218,  -7240,   8697,   3432,   5773,   -960,  -1525,   3959,   9006,   4545,  16872, -15227,   1314,   4106,   3758,   7850,  -5298,   4764,  -8923,  -4685,   -972,  -1717, -13253,  -6745,  -7744,   1951, -12067,  13109,  -3820,  15276,  -3259,   1805,  15546,  13727,  -6948,   9380, -14837,  -4708,   5240,  -1370, -21186, -13263,  -4971,  17996,   9485,   -476,  -4043,   5713,   1651,  -2304,   6422,   8306,   5259, -10650,  -3740,   7056,  -1273,   9375,  -8374, -10383,  10020,  -7549,  10469,  -4406,  -7805,   1131,   2549,  -4791,  -8457,   4748,   -384,    853,  -6772,  -1475,  -4160,   1027,  -1087,   1313,   4307,  -1051,    908,  -1450,  -1561,  -5865,   3892,   1663,  -7005,  -5932,  -3337,  -1582,  -4663, -13866,    545,   -492,   3747,  -8099,  -3645,  -1827, -10032,   3487,   9532,  -4155,   8040,  -8452,   3955,   4846,   6872,  -3513,   9489,  -6534,  -5272,   2723,  -1394, -10310,    227,  -3418,  -2739,   7175,  -7709,  -1475,  -9025,  -2258,  -8728,   5589,  -2536,   -282,    979,  -5366,  -6107,    870,   6000,   2827,   9092,   2437,  -5614,  -5999,   4627,  -5912, -18234,  18254,   2649,   7323,  -6992,  -6251,   7028,  -6377,   8390,   9313,   5390,   2533,  -5391,   4050,   2249,   5064,   8867, -10558,  -4313,   6850,  -4458,    -20,   3105,   7830,   6790,   8033,   5883,  -1458,   4703,  -9188,    945,  -5056,  16772,  -2982};

    const static Filter<int16_t> statefulpartitionedcall_sequential_conv2d_1_biasadd_filter(statefulpartitionedcall_sequential_conv2d_1_biasadd_filter_element, -16, {3, 3, 16, 16}, {1, 1});
    const Filter<int16_t> *get_statefulpartitionedcall_sequential_conv2d_1_biasadd_filter()
    {
    	return &statefulpartitionedcall_sequential_conv2d_1_biasadd_filter;
    }

    const static __attribute__((aligned(16))) int16_t statefulpartitionedcall_sequential_conv2d_1_biasadd_bias_element[] = {
           138,   -153,    314,    237,   -403,   -194,    -85,    359,   -710,    349,    416,   -152,     21,    183,   -365,   -282};

    const static Bias<int16_t> statefulpartitionedcall_sequential_conv2d_1_biasadd_bias(statefulpartitionedcall_sequential_conv2d_1_biasadd_bias_element, -13, {16,});
    const Bias<int16_t> *get_statefulpartitionedcall_sequential_conv2d_1_biasadd_bias()
    {
    	return &statefulpartitionedcall_sequential_conv2d_1_biasadd_bias;
    }

    const static Activation<int16_t> statefulpartitionedcall_sequential_conv2d_1_biasadd_activation(ReLU);
    const Activation<int16_t> *get_statefulpartitionedcall_sequential_conv2d_1_biasadd_activation()
    {
    	return &statefulpartitionedcall_sequential_conv2d_1_biasadd_activation;
    }

    const static __attribute__((aligned(16))) int16_t statefulpartitionedcall_sequential_conv2d_2_biasadd_filter_element[] = {
         -5301,  -1725,  16789,  -4005,   7021,   6763,  14011,  -2133,   2415,   3523,  17680,  -7700,    440,  -9350,   3472,  -5496,  -4044,  14580,  -7407,   9307,   5779,  12423,  12484, -13432,  -6082,  -1200,  -6562,   5598,   2749,  12528,   3026,  10583,   8112,   9987,  -7440, -10029,   2425,   2497,  12221,  -7441,  -9150,  10617,   -128,   8550,  -3815, -10181,   7913,   2460,   2853,  15337,  12210,   7987,   9486,   6385,  21012,     77,  -6559,  16451,  -3804,   5786,  -1404,   9091,  -1589,  13077,  -2597,   1691, -12850,  -9307,  -9182, -10831,  -6817, -11229,     -9,  11437,   1545,   7770,  -8767,  10982,  14164,   9510,  -5416,  -6395,  16800,   -673,   9873,  -5935,   4255,  12295,   6163,  -3571,   5165,   1439,   8699,   4682,   1051, -11128,   3156,   6174, -16461,   3068,  -5343,   4842,  15672,    854,  -9701,   6931, -11015,   1223,  -6596,  -6464,  -1312,   8487,  -2122,  -4331,  13186,  -4686,  12353,  -3436,   5831, -11705,   9126,  -5480,  15097,  -8107,  10466, -16661,   3873, -14470, -11869,  -9990,  15689,  -3287,  -8099,  10615,  11393,   7719,  -2512,   3378,   3849,  -6033,  -8183,   5141,   9933,   3527,   8021,   2661,  16594,   4421,   6631,   7286,  10087,   2121,   2392, -13440,  -8996,   9310,  -2102,  -2968,   6858,    273,   1359,  10287,   8936,   5615,   6980,  10182,  10333, -11837,   1432,   7358,  15488,   2529,  11490,  11995,   3053,   7040,   3549,  -6959,  14752,   3547,  15691,   4198,   7286,  -9582,    -56,  11789,  13951,  -1015,   4798,  17249,   5178,  18923,  -2923,  10024,   2925,  -3802,  -2602,   2822,  -9463,  -2201,   9521,   8953,   4030,   -784,   3527,   6393,  10075,  11241,  -9926,   1521,  -8082,  -8729,   8957,  10224,  11770,  12872,  -8959,   7946,    310,   5250,  -7594,  -8236,  -7446,   5140,  -8518,   4850,  10453,   7005,  16722,    178,  -2357,  -2999,   4911,   3783,   6353,   9794,  -1690,   7051,  13557,  14909,   5049,  -5966,   1529,  -1272,   4779,  -6147,  11132,  -8826,  -1689,   5373,  12929,  11831,   3656, -10963,  23900,  -2002,  -1853, -10705,   1623,  -4997,   9806,   9955,   4332,   8237,  -9510,   -331,   5664,  -5183,   6770,   9132,  -5610,   7580,   3063,   4278, -29009,  -1547,  -1844,  -4134,  -2249,  18071,  -7362,   2338,  -7350,   2220,  -4474, -12990,   5470,  10249,  -6083,  -3489,  -7871,  -8213,  -2979,   6229,   -101,   3974,  -1648,  -1247,   -666,   9535,   -426,   -761,  15996,   7747, -10200,   3348, -15111,  -7382,  -3876,  -7257,  12332,  11781,   2086,  13454,  10459,  -1756,  -4864,  -5100,   6882,    327,  -9689,  -3219, -20357,  -3053,  -3225, -10095,   3363,   9955,   1549,  -4520,   2550,   -271,   3419,  12667,   2938,  -6236,  -5073,  -5197,   9529,   2753,   5510,   5838,    837,  -3862,  -8127,  10065,  10002,   3368,  -8716,   5869,  -2064,  -9057,  -4387,   1765,  -9752,   6218,  14143,    364,  -3949,  -4666,   6190,  -4953,   8601,  -6916, -14729,  -4176,   8175,    356,  -4983, -10577,   5961,   7989,  11906,     34,   -584,   7649,   5406,   4883,  15401,   5172,  16644,   4692,  16157,  -4652,  -3863, -10809,  -2924,   -219,   9019,  -2954,  -2774,  -3177,  -8003,  -8583,  16181, -11540,   6445,  -3634, -12155, -11111,   3809,  -1944,   2567,   7496,   2149,  -8652,  10620,  -4184,   4421, -10346,  -6836,  -5943,  13715,  23061,  -1494,  10910,  -7265,   7810, -16140,   9572, -12110,  10241,   1778,   3578,   4092,  13902,  10403,  -7718,   7312,  -1965,  -3920,  -8485,   -793,  -2901,   1386,  -3888,   5357,  -8516,   6819,  -3109,   8994,  13119,  -5814,   5683,  12080,   7555,  -5704,  17427,   2034,   2799, -15874,   8695,   6242,   3973,    691,   -312,  -7139,  -5874,  13439,  -2690,  10060,    710,   3905,  -3129,   7930,   1211,  -2226,   6271,   9788,  -4652,  12892,   7392,  -2745,  -6092,   1717,   7097,  -5188,  -4989,  -3975,  -3442,  -9196,   9498,  -1629,  -8387,  -2715,   4612,   3923,   -794,   3563,   4345,   1149,  -3304,   3307,   6927,   3928,  10677,   7997,  -2351,  12393,  -6346,  14458,  -9028,   6172,   5998,   7374,   7524,   8198,   1264,   8157,   2662,  -6485, -13362,
         -1979,   3946,   9220,   4310,   8054,   6540,   -971,  -6475,   3591,   -783,  -7414,    858,   9001,  -1539,  -9526,   8940,   6562,   4045,   5879,   4274,  -7497,   7623,   7994,   7271,   7464,  -9325, -10550,  -2004,   1733,  -4141, -17501,   2060,   7882,  10239,  15208,   2889,  14395,   9868,  -7243, -11416,   5983,  -5387,   6006,  -3171,  -2821,  14148,  -7689,  11128,   4695,   9582,   -967,  -2560,  10260, -10454,   2638,  -7436,   5198,  11166,   3137,   8209,  -8261,   5404, -10193,  18916,  -5466,  -5773,  -6001,   9821,  -5036,   1790,  -9289,   1440,    492,  -9721,    290,  -2019,   2387,  -2199,  -4299,   4982,  -5009,   4873,    969,   1953,   3427,  -6163,  -4053,  13357,   1365,   4977,   3124,  -3778,  -4012,  -7234,   1124,  10296,   8487,  12735,   2435,   5775,   3425,   9670,  -3252,  -1008, -10867,   8769,   8388,   5453,   7946,    758,  -4441,  12042,   2223,  -2089,  -6200,  -9214,  -3947,   -591,   1375,  -7989,  -8570,   5784,  10778,    813,   4349,   5561,    961,  10980,   7397,  -4600,    554,  -2672,   6222,   2649,   5640,  -4300,  -3508,   4251,  -2557,   -108,   9156,  -7756,  -7372,  11577,   4674,  -2642, -16167,   7842,  -2712, -10594,  -9096,  11034,  -4148,  16394, -13619,  -5522, -10221, -13164,   7517,  18930,  -2389,  -1777,   5853,   8335,  11156,    672,  -6019,  -6415,  -8986,   8198,   6762,  -5701,   5267,   6500,   3061,  13626,  -8317,   2917, -11481,   1706,  13224,   5023,   9958,  11655,   8811,  -8564,   3171,  -1385, -10414,   6722, -10346,  -2073,   6424,   8141, -11346,   -354,   9684,  -3220,  -4374,   3637, -11198,   -467,   8915,   8692,  -9981,  15029,   4871,  -2794,   6148, -12828,  15274,  -3779,   7024,   4612,   3731,   -504,  -2813,  -5250,  -1967,  -7803,    729,  -4639,  -2130,   7996,    269,  -6219, -12058,  -4222,    917,   5948,  -2949, -10578,    633,  12564,   1270,   3447,    384,   9832, -10674,   5383,   2730,  -1654,  -5129,  -8111,  -3721,   3746,  -4538,   5507,  -5156,  -4059,  20561,   6215,  14585,   4181,  11670,  -4724,  -3077,   7511,  15020,     93,  -3737, -10366,   3399,   1866,  -7594, -11913,   3073,  -6895,  13299,   -144,  -8692, -12371, -12038,   7227,  10663, -10790,  -7536,  11084,  -2181,  -4589,   6171,  -9711,  -8378,   1612,   5649,  14871,   3055,  19843,  -5578,  12309, -10820,  -5122,   6629,  -4791,   2538, -10236,   3935,   1592,   -325,   4734,  11453,   6447,  -1459,    -19,   6390,  12740,   6532, -10957,   3173,   7721,  -8042,   5663,   7314,  -6578,  -1680,  -3561,  10203,  17620,  -6306,  13901,  -6115,   1063, -16765,   -197,  -4117,   3268,   6035,  -9075,  -4672,   3764,   4466,  -9038,    220,   9265,   -637,  -6518,  -5172,   -336,  10117,   3035,   3254,  11196,   7367,    371,  -3362,    715,   7151,  -1291,  -7577,  -7876,   -709,   8512,  -5861,  13507,  -2515,   5738,   -584,  -3820,  -9494, -11449,   2686,  10285,  -9636,   9668,  13036,  12664,  -7414,  -1454,  -5325, -10004,   8621,   4119,   8925,   2640,  -9944, -10678,  -1676,   3744,   3402,  -4578,    582,   5855,  10745,  -8089,  -9927,   3256,   2244,  -4235,   6173,  -1012,  -3505,   8704,  -9029,   5262,   1187, -10617,  -2632,  -6187,  -5370,   1293,   6815,   1755,   8632,  -8600,  -8214,  -5734, -14599,   1675,   6845,  -9947, -10626,   4694,  -7431,   1171, -28642,  -9944, -10332,  -3525,  12036,   7407,  -3856,  -1647, -17352,  -6664,   4355,  -4847,  19281,   8013,  -8439,   2737, -14800,   7585,  -6216,  -4693,   1724,  -6559,  17661,  -6078,  -6600,  -3989,  -5957,  20061,  12418,  -1920,   -894,   5972, -12295,    122,  -6683,   7279,  -8548,   1581,  -1989,  -9814,  -2317,  -5450,   3016,  -1415,   9511,  -2521,  -6242,   2982,  -8776,  12790,  -5088,   8261,   -458,  -3035,   2853,  -6186,   4951,  -1452,  -1689,   1258,   6684,   8852,  -2153,  -8927,    842,  -7902,  -4024,  12691,   4079,  -2015,  13224,  10632,  -6979, -11982,  -5183,  20162,   2278,   8518,   1073,   7508,  -3596,  -8709, -12092,  -4024,   3534,  -3285,  12262,  -2179,   2519,   7442,  -3446,  -3567,  -2634,   4229,   9730, -10209,  -5347,  -3454,
        -10840,     82,   1528,   7043,  -8080,   6543,   5098,  -2593,   8095,   3561,   3872,   8934,  -6735,   -299,  -4147,   8113,   5360,   6658, -15713,    684, -13749, -10377, -12574,    177,  -7717,  14146, -10285,   6447,  -4441,   4636,  -5391,   8187, -11685,  -6526, -14813,    510,   7702,    677,  -1110, -12772,   5246,   -945,   2012,   2841,   7324,  12740,  -2425,  -1523, -10503,   3517, -17777,  -5780,   4870,  -8559,    221,    598,  -3783,   -403,  -8360, -10081,  -6965,  16133, -12409,  -2409,  -6276,  -6509,  -2623,  -8617,  -5487,  -1746,  -7955,  -5380,   2137,  -5991,   8018,   4132,   -566,   2304,  -9228,   7032,  -7325,  -5702,  -3239,  -8346,  -6269,   8871,   3824,   6543,  -6778,   3801,  -9062,   2863,   3911,  -6664,  -1869,  -9502,   -854,  -3893, -13351,    469,  11973,   9414, -12613,   1514,  -7717,   -401,  -4145,   6955,  -7500,   6957,   2067,  -5639,  -3598,   4606,  -7769,  -5387,    -72,  -3561, -12641,  10040, -10009,   2971,  11785,   6362,  17597,  -2908,  -5544,   4838};

    const static Filter<int16_t> statefulpartitionedcall_sequential_conv2d_2_biasadd_filter(statefulpartitionedcall_sequential_conv2d_2_biasadd_filter_element, -16, {3, 3, 16, 8}, {1, 1});
    const Filter<int16_t> *get_statefulpartitionedcall_sequential_conv2d_2_biasadd_filter()
    {
    	return &statefulpartitionedcall_sequential_conv2d_2_biasadd_filter;
    }

    const static __attribute__((aligned(16))) int16_t statefulpartitionedcall_sequential_conv2d_2_biasadd_bias_element[] = {
           -83,     30,    -17,    -60,    -89,    261,    -21,    313};

    const static Bias<int16_t> statefulpartitionedcall_sequential_conv2d_2_biasadd_bias(statefulpartitionedcall_sequential_conv2d_2_biasadd_bias_element, -12, {8,});
    const Bias<int16_t> *get_statefulpartitionedcall_sequential_conv2d_2_biasadd_bias()
    {
    	return &statefulpartitionedcall_sequential_conv2d_2_biasadd_bias;
    }

    const static Activation<int16_t> statefulpartitionedcall_sequential_conv2d_2_biasadd_activation(ReLU);
    const Activation<int16_t> *get_statefulpartitionedcall_sequential_conv2d_2_biasadd_activation()
    {
    	return &statefulpartitionedcall_sequential_conv2d_2_biasadd_activation;
    }

    const static __attribute__((aligned(16))) int16_t fused_gemm_0_filter_element[] = {
          5298,  -6925,   3897,    911,   1293,  -2305,    250,   6016,  10135,   4051,  -7001,  -3965,  -7875,   3115,  -2330,  -5151,   8384,  -6378,   4211,  -4882,  -1066,  -7526,   4403,   1352,   6970,   -725,  -4704,    156,   5564,   7536,    833,  -6405,   7540,   6588,    541,  -5205,   4908,  -1808,  -2447,   6671,   1938,   3499,  -3317,  -4057,   4625,  -3402,  -7703,  -4202,  -2728,  -3260,  -5252,  -5047,  -8249,  -5801,  -3598,   4530,  -8767,    768,  -7381,   7748,   6668,   3597,  -2543,  -2795,   3138,   7561,  -5148,  -2236,   7638,  -8001,   3957,   4806,   5695,  -3773,   6058,  -1791,   6510,  -4984,   7328,    636,   5922,   3879,  -2340,  -1088,  -5816,   5174,  -6090,   6527,   2199,   6080,    603,  -5679,   7602,   4310,    237,    986,    240,  -7697,   6424,   8842,   7203,  -1768,  -8464,  -6234,   8519,  -7312,  -2432,   7761,   7137,   -844,  -2197,    180,   5417,  -5980,   6644,   5857,    543,   1717,   2597,  -7050,    560,  -4235,  -1386,  -1871,  -7169,  -2097,  -1279,   4451,   4885,   2539,  -6297,   6574,   5001,   4614,   7584,   2344,   5994,   4258,   5652,  -3668,   7347,  -5652,  -6593,  -4939,   2519,   7035,  -4336,   8108,   2409,  -8751,  -4780,  -1206,   1340,   2565,   4906,  -3602,   3117,     72,   7847,  -1934,  -3516,   1035,    117,    503,    817,   2418,   1687,  -1916,  -5991,  -1610,  -1226,   5411,  -4499,  -5499,   6148,  -4567,   2429,   4545,   3858,   1374,  -5302,  -3035,   -999,  -5394,  12744,    865,  -3661,   1429,   7157,   4350,   -294,  -6754,   6581,   6617,   6857,  -4154,   -941,   3689,   2254,  -1728, -14039,   -374,   3320,   -765,   4046,  -2062,     90,  -5833,   5724,   1798,   2058,   3113,  -3210,  -5158,   6232,   5531,   -729,  -6170,   2542,  -2458,  -6099,  -7551,  -4093,  -6346,    -57,   -650,  -3342,   1691,   7248,  -2496,   4127,  -7264,  -6380,   6369,   1242,   1816,  -5449,  -5105,   5081,    196,  -4956,  -8195,  -7911,   8796,  -7866,   7350,  -6954,  -6875,    254,   3865,  -5391,   1990,  -2953,  -3897,   3548,   3055,   1457,  -2261,   4838,   5978,  -7900,  -3646,   7532,  -5604,  -4233,  -5114,   3961,   5689,  -4839,    495,   1301,  -3305,   5817,   -532,  -5315,   7654,  -4804,  -2452,    800,   7159,   4687,   5081,  -6771,  -6734,  -3969,  -6683,    220,    957,   -855,  -5334,   2687,   5330,   4848,  -8386,  -4248,  -7761,   7963,  -5723,   2891,  -5180,   2508,   1432,  -6960,   5311,    352,   -787,  -3472,  -1759,  -1019,  -1964,  -7129,   6513,  11596,  -9993,    123,   5868,  -7659,  -5925,  -4273,  -8024,   1542,   5348,  -7085,  -6914,  -2546,   1462,   4988,  -2324,  -2889,   2824,   1924,  -2467,   5036,  -3459,  -5896,   1055,   8218,  -6621,   1296,   9261,   7579,    282,  -2013,     53,   3809,  -8257,  -6995,   -595,   2015,  -6709,    679,   6265,   2477,  -7029,  -4652,   5608,   7154,  -3100,  -8027,   6041,  -4414,   6220,   4472,   6471,   2249,   1664,   3574,   4737,  -2670,    326,  -4855,   6376,   -274,    649,  -4514,   -277,   -571,   -566,   5620,   1638,   2562,  -6526,  -3180,   7645,   7773,   5529,    948,  -4226,   3750,  -6065,  -6634,  -6462,   8506,  -4243,   3502,  11004,   5220,   6641,    945,  -1667,   2124,   5428,   3204,   -494,    118,  -6962,  -7093,  -7589,   4239,  -5674,  -3892,  -1102,   7036,  -5098,    107,   1985,  -5041,  -5362,  -5035,  -6777,  -8236,  -7020,   6333,  -6922,  -2892,    284,    696,   1295,  -1175,   2305,   4842,   3326,  -1617,   1975,   2700,  -6243,  -4946,   4732,  -5197,  -5583,  -8098,  -5982,  -6669,   8046,   3855,   5478,   6298,  -4395,   4849,  -5828,   6608,   7021,   1575,   4124,  -6161,   2917,   -306,   3743,   1673,  -2042,  -1312,   6071,   6440,  -2254,  -1841,  -8427,   4789,    514,   4854,   6642,   2958,   1584,   4645,   2309,  -3400,  -6945,   6227,  -6998,    288,   6649,   2753,  -4461,   -301,   8805,   -396,  -8388,  -1631,   2015,   5885,   3473,   2044,  -4174,    909,   2802,   3877,   -993,    762,   5302,  -7291,   4320,  -3899,   2979,  -3401,  -4926,   6986,   4527,  -8693,   4038,   -971,   -269,  -5861,   -994,
         -4520,  -1898,  -3473,  -4353,   3606,  -1399,  -5290,  -5350,   1841,   4182,  -6738,   -807,  -2748,   6743,   5195,    136,  -4636,   1572,   4979,   -518,    211,    795,   -732,    482,   6556,  -8140,  -2520,  -3150,    339,    776,  -4084,   7835,   2807,   6084,   5478,  -6092,   6905,  -2577,  -3271,   5713,  -7896,  -2906,  -7976,   5552,    147,   6448,  -1714,   6465,  -7784,   6059,   6352,   -503,  -5504,   -847,  -2409,   7769,  10360,  -8615,   -307,    739,  -4374,    455,  -7744,  -7693,   2982,  -5280,  -7545,  -2401,   1637,   4617,  -5789,   4192,  -5218,   6786,   5887,   4339,   4357,   6197,  -4343,  -2857,  -1634,  -1701,  -2645,   6367,   -529,  -4642,  -2322,  -1207,   4198,   -885,   -202,   5774,  -3643,  -6968,   7581,    414,  -4222,   2332,  -4934,    787,   2095,   1384,   2314,   5716,  -6497,  -4143,  -2153,   2907,   -500,  -2048,    280,   6283, -10932,   6772,   7455,  -9195,   3174,  -2774,   -831,   2482,   7804,  -2160,  -6273,   -100,   6199,  -6056,   3580,  -2323,   1731,   2653,   4152,  -1835,   1196,  -6382,     28,   6102,  -9421,   4338,  -5210,   -754,  -4595,   6603,   4292,   2773,   1267,   -728,  -7275,  -3447,   6618,   3496,   2755,   7039,  -2424,   -833,  -3228,  -7214,  -2650,  -3524,   4564,  -3587,  -2986,  -1684,  -7231,   6853,   4233,   5606,    281,  -1553,      1,   3425,  -3249,  -1277,   3033,   -314,   -934,   4735,  -9593,   7130,   4576,  -3919,  -1883,  -5189,  -7828,   3082,  -1732,  -2764,    726,   1809,   7306,   -890,   1120,   8023,  -4820,   -496,   3936,  -5956,   4606,   4669,   2316,  -6410,  -7422,  -4119,  -7674,   2794,   -632,   3166,   -998,   2138,   4616,   1465,   5766,   5109,  -3495,  -1596,  -7964,  -3928,   3608,   1632,    284,  -6310,  -2978,  -6424,  -6065,  -5140,   1345,   2773,  -6414,   8979,   7132,   6345,   7382,  -7147,   3828,   4542,   -529,   7450,  -7671,    710,   8117,  -6442,    721,   2689,    142,   2062,  -3642,  -3668,   6652,   7020,   -331,   4900,  -3836,   -632,   3880,   3170,   1970,  -6308,   2066,    101,  -1012,  -5312,    242,  -5895,  -7791,  -7481,   2849,   1393,   -130,   9000,  -6557,  -4774,  -3686,   3190,   -364,  -1766,  -8430, -13974,  -6993,   3037,  -4667,   -855,   4216,   3214,  -3952,   1276,  -5701,   1806,   5041,  -2601,  -5748,  -1017,   6937, -11548,  -7003,   4557,   5167,   1454,   6462,   4335,  -3183,  -3284,   -774,   4328,   2528,   1657,   5533,   6854,  -2574,   4699,  -3459,  -7832,   3928,  -7816,  -4038,  -5455,  -3262,  11691,  -5557,   1352,   6996,  -3094,   5046,   5052,   -307,  -3784,  -6635,   6022,    456,   -488,   -168,  -5154,  -1552,   6961,  -1305,   3136,   7733,   4189,  -6648,   1861,  -5144,   9276,   3100,   -486,  -1195,  -1389,     31,   1276,   2833,  -2446,  -8283,   2211,   1416,   2581,  -1151,  -1135,   5203,    118,  -2454,  -8830,  -7890,  -6341,     31,   -441,  -7633,   4906,  -5916,   1268,   5496,  -6252,   4610,  -3133,  -1038,    180,   4688,   4430,   4711,   5422,   3896,   2859,   1424,   7906,  -7772,   6372,  -8758,  -5092,   3310,   -769,  -1419,   4936,   2766,  -3838,  -6500,   6472,   1597,   6524,   -444,  -2489,   6358,  -7995,  -2686,   7323,  -2639,   5572,   5002,    232,  -4926,  -6500,   3873,   2416,  -4572,   2685,   3331,  -4710,   5968,   -893,  -7940,   1915,   1073,  -1041,  -3930,  -5453,    156,   6336,   2381,   7444,    503,  -2664,  -8709,   3027,  -6167,  -6234,  -5826,  -7127,   1666,    126,  -7667,   5263,  -2726,  -5758,   4530,   2019,  -2836,  -6022,  -3656,  -2150,  -4813,   2332,    563,   4418,   1287,   3800,   2856,   6900,  -1825,   4141,  -4626,   2033,  -2162,   3050,  -3753,   3111,   2484,   6480,  -1065,  -6169,  -2074,  -5136,   -826,   2605,  -1530,    683,   1908,  -6475,    375,   7229,  -1574,  -1264,  -2863,   5284,   -881,   2868,    531,  -6433,   3348,   5597,  -1246,   1192,  -4228,  -4185,   5669,  -8373,   1396,  -3607,  -6206,  -3824,   2761,  -4932,  -2543,  -6545,   5990,   8005,  -1633,  -1153,   2438,   2615,  -1579,   3765,   1706,  11565,   -340,   3641,  -8575,   2490,
          3327,   4287,  -6436,   3606,   7716,  -3067,  -3244,   2058,  -4514,  -3160,   7212,    163,    409,  -5192,   7236,   1835,  -6078,  -4587,  -7773,   6174,  -8394,  -8679,    988,   3524,    242,   -314,   1343,   2158,  -7895,  -3073,   4211,   2720,  -5057,  -5090,   2395,   2824,    640,  -5872,   2850,   2827,  -3939,   -402,   4342,  -2639,  -3724,   1812,  -7423,   7664,  -8028,  -4664,   3181,  -8883,   3169,  -8144,  -2920,  -7458,   1123,   1881,  -6659,   7152,  -7871,  -9019,   6662,   7003,  -5819,   6466,  -2405,   1662,  -3613,   -842,   5522,   4595,   -613,   2174,   7346,   1873,  -3401,  -7467,   3614,  -1643,  -5117,   5925,    175,   4941,   7129,  -8592,   1906,   5740,  -3565,   4330,   2845,   3438,  -2762,   4810,   -848,   1221,   5001,  -3708,  -5438,  -1856,    189,  -8034,  -1357,  -4738,   6327,  -7059,  -8988,  -1664,    458,   1647,   6984,  -1887,  -2120,  -3248,  -8349,   7750,   3899,  -5296,  -7307,   6966,   5681,   5412,  -2670,   5299,  -3537,  -8747,   2134,  -7081,   2676,   2417,  -6035,   6188,   6151,   6897,    662,  -3900,   5469,   1414,   -349,   9714,   4804,  -5258,  -7863,  -1074,  -8754,   4445,   1389,  -6441,  -1459,  -7048,   1208,   5662,  -2032,  -5546,  -3857,   -160,    573,  -1209,  -5988,    555,   1369,   6201,   3465, -10276,  -2583,    -58,    750,    493,   5405,  -1546,  -1587,  11581,    795,   7056,   7229,    141,  -4850,   -479,   6024,   6712,   3841,  -3076,  -7241,  -1281,  -2797,  -5217, -10394,  14483,  -6536,   3135,  -2163,   7160,  -5825,  -7481,   1886,   4994,  -7543,   3591,    711,   5187,   3093,  -8254,  -2028,    -49,   4627,  -2695,  -4999,  -6170,  -8193,  -2619,  -8350,   4267,  -7817,  -8360,   3931,  -4791,   4546,   2887,   3316,   8406,   6673,   2893,   -654,  -4084,   -638,   -996,   2090,   6660,  -5891,  -6902,  -4225,   5732,   1458,   6254,   1170,   7443,  -3816,  -2794,   6183,   7838,   3080,   2151,   1143,  -1276,  -6616,  -5488,   5517,  -2793,   2323,   2932,   2906,   1317,    713,   5218,   6270,    -95,  -3851,   6940,    690,   1700,   1720,  -4786,   5737,   6743,   2220,  -1551,   5071,   1053,  -5392,   2149,   5447,   1644,   3123,   2990,   3040,  -2100,  -4275,  -2641,   -536,  -3481,   3964,   7632,  -4827,   5895,   4725,  -2046,   4215,   4195,  -6487,   -227,   6983,   -654,     44,    109,   -280,   1778,  -7452,  -7039,  -1081,  -1829,    536,  -3933,  -3026,  -7270,  -3671,  -4628,  -7142,   5150,  -4751,   4787,  -6044,  -6899,   3647,   -590,  -9580,  11418,  -6899,  -3151,    577,   5820,  -5678,  -3312,    -76,    762,  -7977,    652,  -4938,   4035,   4377,   1060,  -5451,   4934,  -7352,   6623,  -2074,   1666,   9016,    141,  -5059,  -2978,   2353,  -6013,  -3212,  -5519,  -2951,   1509,   6138,  -6505,   1590,   3009,   1387,  -1805,    434,   3754,  -5187,  -1393,   6008,   2027,  -2734,   3059,  -3001,  -1293,    376,   4315,  -4011,   1463,   6265,  -8005, -11112,  -3433,  -1505,   4077,   2358,   4563,   -402,   7704,   9532,  -3401,  -4805,   6832,   1187,   5556,  -6450,  -5480,  -7447,    521,    892,    952,   2688,   6887,   7611,   6083,   4786,   2570,  -7967,  -3767,   4226,  -9252,   3652,   4406,    -39,   3306,     75,   1223,   5319,  -5573,   2423,    583,   6894,   -123,  -8083,   6022,   6952,   5488,   7908,  -1571,  -1822,    397,   1217,   3179,  -6575,   -146,   4948,  -5574,   4098,  -4491,   5558,   2007,  -3152,  -4318,   4642,   1147,   1519,   3355,  -2716,  -6173,  -7349,   1125,  -3658,   5812,  -5289,  -5763,     -7,  14267,  -6087,  -6174,  -8132,   5854,    497,  -2748,   3853,   5440,  -4759,   5195,  -3965,   2085,  -4529,  -1296,  -3629,  -4404,   5378,  -4570,  -5931,   6455,   4188,   4107,  -1591,   3270,   -650,   1928,   1611,   -471,    385,   3688,  -4851,   8037,   6064,  -4620,  -6600,   3504,  -1019,   -407,  -2458,  -3197,  -7292,   3777,  -3853,  -7147,   3848,  -4166,  -1352,  -2771,   7138,  -4681,  -4282,  -7181,  -7870,   6996,   5824,  -4101,   5068,    -74,   5994,  -5377,   2290,    230,    534,   -346,   2999,  -6486,   5552,   2455,
         -7755,   2490,  -6133,    988,  -4303,    358,   5755,   -139,   1295,   2976,   -802,   2104,   6906,  -2362,  -7690,   1369,   -943,  -6016,  -7111,  -2528,  -1404,  -5961,  -1670,  -3642,   8021,   5801,   3476,    720,   6596,   -707,   5463,   3171,  -8312,    454,  -3369, -10145,  -7091,  -5253,   3789,  -7798,  -6240,  -2140,   1180,   7233,   6494,  -2922,   3332,  -2666,  -3144,   -534,   6539,   5451,  -5482,  -8364,   -729,  -3471,  -1420,   5127,  -4088,  11999,  -6177,   -314,   -739,   6056,   5671,  -6876,   1560,  -6334,   2851,  -8023,  -2790,  -7132,  14719,   3505,  -1045,   2186,   5583,   4784,  -6845,   4842,  -2665,   -149,    876,   3344,   5708,  -6227,  -1533,  -6800,    802,   3616,    385,   6694,  -7439,  -6540,   -179,  -1863,   2493,    457,   3379,  11068,   6068,  -3205,  -5747,   7299,  -3704,  -1480,   5104,  12006,   -701,  -4109,    784,  -1981,  -7456,   3265,   4420,     56,    152,   6376,   5022,  -4279,  -8000,   -703,  -9848,  12422,   -654,  -6145,   -999,   1386,  -1169,   -560,   2850,  -4601,   8006,  -2412,  -1375,   7854,   7493,   6054,   4477,   4768,  -2361,  -1426,   1109,  -7975,  -6936,   3627,  -3785,   7902,  -7041,   4187,   2921,    345,  -6010,  -6212,   2656,   8250,  -4821,   5984,   6645,  -5540,   3984,   5925,  -1452,   9360,  -1292,   6083,    724,   1436,   1353,   -694,  -3200,  -3817,    946,  -2264,   6649,   5490,  -5748,   4001,   5360,   6191,   7173,   2775,  -1414,    691,   4987,  -1862,   2331,  14706,  -7269,  -3375,   1202,   4256,   7880,   7722,   -460,  -7361,   7074,    -49,   7698,  -6115,  -6806,   4944,  -4935,   6847,   2177,   3825,  -5906,   3349,  -1217,   2381,  -2718,   5673,   5187,  -7077,  -6602,  -7271,    704,  -1440,   3946,  -5613,   1979,  -2842,   2567,   7549,   3383,   -802,  -1467,   5399,   5516,   4614,  -1668,  -1946,   9449,   5138,   2061,  -3804,   -565,   -331,  -3669,  -1017,  -2191,  -4278,   5683,  -1307,   5997,   6862,  -3189,  -7823,  11467, -10303,   -112,   7200,   1657,   2212,   1542,    -52,   4600,   2542,  -2371,   6674,  -6292,   6396,  -2144,  -1574,  -3675,  -6588,  -8492,  -2649,   4296,  -7956,   1825,  -3464,   9284,   4172,  -6396,   9293,  -2445,  -4373,  -1375,  -2896,  -3974,   4404,   4326,    278,    816,   7122,   7530,   5373,   5906,    175,  -5092,  -5159,  -4082,    321,  -3153,  -4280,  -3598,   3110,  -1377,   9293,   4995,   4674,   4713,  -3247,   6494,  -1552,   2124,  -5249,  -1397,   1990,  -5740,  -3135,   6476,  -1273,   -740,  -1685,  -6028,  -2278,   -368,   5566,   2462,  -6544,  -3225,  -3643,   4602,   2664,   5287,   5987,  -5700,   5245,  -7032,  -8170,  -3067,  -6697,   7997,  -7824,    881,  -5590,   3648,  -1372,   6355,   1459,   3746,  -6974,  -5994,   3305,   5674,   2285,   3633,  -7872,   7828,   4923,   6929,   4080,   -206,   3492,  -7412,  -5666,   1941,   7015,  -7390,  -6857,   1818,   7987,    666,   -281,  -5548,  -2423,   2686,  -2516,  -5310,   4974,  -2872,  -3376,  -6296,   2789,  -1834,  -3096,   -954,   6241,   1851,   3330,   2193,   6181,   5065,   4670,    990,    -59,    263,  -2831,    150,  -6631,   3876,    852,  -4950,   1943,   3412,  -7242,   4182,  -4253,   6084,   -841,  -8143,  -3119,  -4095,   5698,  -7858,   3990,    -43,   -382,  -4364,  -5863,  -4833,   6278,   7642,   5864,  -9477,  -6645,   2700,   1010,  -8051,   6520,  -2576,  -3420,  -7083,  -4046,   2946,  -4327,   5810,   6628,  -5543,  -4491,   4103,   6505,   -903,  -7808,  -3335,   2910,   3039,   5644, -11366,   -294,  -6525,   1836,  -4757,  -8667,   4866,   3369,  -7859,  -3400,  -3910,   3274,  -6534,   4295,  -3611,  -3203,   -284,   5368,  -5485,   4077,    -83,   3509,   2710,    685,    416,  -8512,  -2154,  -4269,  -5980,   6652,  -4443,   4335,    876,  -3682,   5448,   6311,   6549,   -826,   6398,    -37,  -5953,  -5497,  -1734,    293,  -6734,   5878,  -2014,  -7993,   5135,   4757,   -854,  -2275,   6438,  -7119,  -7851,   7069,   3245,   5109,   3175,   2086,  -3319,  -2635,   4489,    927,   1115,   5275,   4985,   -896,  -3944,   -957,    470,   7462,
         -1239,    -69,  -7470,   1004,   7089,  -4005,   3183,   5649,   4533,   -855,   5699,   2185,     38,  -3774,  -6083,  -5939,   4768,   6323,  -4169,  -6085,  -5565,   4325,   3092,   5143,   1635,   4783,  -2900,   -258,  -6338,  -7740,  -3770,   7425,  -3115,  -2673,  -2745,   2237,   2763,   6664,   5470,    678,   -520,  -1921,   3653,     62,   3993,   2762,  -1677,   5950,  -8744,  -6836,   6604,   5397,  -7699,   1807,  -7982,   3819,     91,    513,   6050,   9610,   5480,   5311,  -6668,  -1009,  -5235,  -2207,  -2555,  -3741,   1692,   5720,   3164,   4741,   1313,  -6127,   -527,  -6139,   7148,  -1516,  -7091,  -1797,  -7666,   2357,   2964,   2395,  -7879,    642,   7503,  -1727,    450,   5172,  -1645,   3670,    -12,  -6090,    432,  -5421,    258,  -4012,  -7004,   5075,   5480,  -7237,  -6975,   4049,  -6654,  -3716,  -5870,   8082,   -762,  -5148,   4875,  -3809,  -8372,   5012,   7360,   7143,  -1262,   3782,  -2917,   6416,    168,   2421,   -354,  -4651,  -3403,  -5726,  -3266,   3647,   6027,    965,   7910,   3211,   4278,   6692,   1667,  -3550,    387,      1,   1026,  -8607,  -4429,    690,   6309,   4528,  -3862,    945,   4603,  -4343,  -6163,  -4707,  -2283,  -7203,   -721,  -3566,   5355,  -5090,   1907,   5791,   1857,   5236,   2857,   5587,  -2835,   4265,   4455,  -3418,  -2486,   2011,   6286,   2717,   5164,  -3021,  -1502,    296,  -7716,   2020,   6557,   -704,   7560,  -6220,     43,   4722,  -7208,   3150,   7861,  -3929,   -450,   5776,   -334,   6198,   1718,     89,  -7804,  -5110,  -3944,  -1663,  -2701,   2218,  -4674,  -6158,  -8319,  -4683,  -8312,   9111,   7509,   -620,  -3350,   6473,   3905,  -3338,  -8081,  -4220,  -5238,  -2285,   2696,  -1573,  -7265,   2878,  -5115,   1244,   -108,   3521,  -6354,  -4697,   6491,  -8094,   1709,   7300,  -8306,  -7357,   3446,  -7886,  -2540,  -3324,   4514,   1806,  -6728,  -4726,  -4264,  -4177,  -1284,   3789,   5236,  -2009,   3000,   3858,  -7276,   5291,   3851,  -8183,   1972,   6781,  -6275,   3694,  -6820,   1402,  -1337,  -6858,   5884,  -3966,   6424,   3742,  -6996,  -3365,    800,   -594,  -9574,   6896,   1525,   -165,   1116,   5316,  -3721,   4035,    972,   1282,   3281,   6675,   2520,   6755,  -4893,  -2393,  -5405,  -4062,  -6071,  -5190,   3931,  -2284,   4983,    686,   3709,  -6646,   -279,  -2818,   4889,  -4855,  -1430,   4353,  -7060,   4610,   2978,   2603,   -873,    -97,  -3646,  -9041,  -5867,  -9354,   5478,    813,   -773,  -2920,   -113,  -6288,  -2490,    924,  -2230,   -177,   3721,   7796,   1315,    746,  -2871,  -7909,    235,    308,   1798,  -4369,  16645,   6957,  -3355,   2792,   3531,  -7627,  -6168,   5766,   5498,   2682,   1278,  -2972,   -145,   1434,   -862,   7898,   -693,   6577,  -2916,  -6979,  -4235,   3547,  -3356,   4780,  10741,    138,   -817,  10300,  -5769,  -5816,  -2947,  -5994,   -911,  -5567,  -4139,  -4583,   7174,   3591,   7096,  -3681,  -8871,  -4447,  -2266,   4020,   3435,  -5405,  -4384,  -6951,  -7489,  -4046,   4230,   2890,    868,  -2508,  -4828,  -3955,  -4863,  -1755,   2480,  -6279,  -2167,  -7043,   1006,   4711,   1318,   4576,  -6756,  -4106,    198,   6195,   7829,  -3770,   4522,  -2483,  -5531,   1176,  -6825,    625,  -7493,   2294,  -4922,  -5095,  -5079,  -3225,  -3807,  -5513,  -7628,  -2906,  -2751,    551,  -5186,  -5027,   -296,    566,    339,  -4074,   3708,   3320,  -3695,  -5598,  -4236,     60,  -6762,  -3083, -10525,  -5890,   6943,   5055,  -4833,  -2486,   1894,    833,   5202,   2276,   -122,   4178,   7195,   6919,  -2575,  -3224,   1074,   3522,   1209,   1212,     18,   3793,   3782,  -1499,   5558,    -10,  -2663,   3308,   6726,   1799,   7892,  -7857,   1799,  -8169,  -6981,   4379,  -8391,    926,  -5109,  -6425,  -1297,  -2913,   7396,   1159,   5810,   7440,   7725,   5566,  10184,   1768,   1486,  -3601,  -6157,  -1378,   -830,  -1981,    -44,   6867,    -81,  -1743,   5772,   6172,  -1645,  -3798, -12937,   3955,   3357,   -196,  -8177,  -3822,   5370,    526,   1449,   4063,   1795,   6202,  -7655,  -2037,  -4559,  -2858,
         -3285,  -2904,  -2072,  -7752,  -1280,   5386,   4602,   7804,     -9,  -6248,  -8718,   4034,   5141,  -6681,   5382,   7183,   3661,   5106,    257,   3300,  -6680,  -2380,   3015,  -2123,  -1083,  -2699,   -910,  -3278,  -7080,  -1454,   7959,  -7483,   6796,  -6836,  -7072,   4731,  -5646,   2822,  -2583,  -2391,   -630,  -6338,   2666,   2494,   1361,  -2326,  -7281,   3962,  -5967,   2085,  -2667,    169,   1113,  -4062,   3076,   3885,   8432,  -6154,   -692,   3558,  -6616,  -4527,  -2513,  -6430,  -7450,  -6339,   4098,  -7505,   3724,   5324,  -6265,  -3549,  -5554,  -4526,  -7816,  -7988,   7608,  -5002,   3912,  -7555,     69,  -5423,  -2416,   1444,  -2703,  -9023,  -3618,  -5548,   2066,  -6994,   3979,   3227,   5329,   5144,   1736,  -7423,   8161,   2324,  -4381,     66,  -5327,  -6606,  -6291,   5124,  -6903,  -5392,   6110,   -440,  -2627,   4956,  -7585,  -1124,   3432,  -7117,   2122,   3928,  -2402,   1206,  -3088,  -1956,   8542,  -4062,   3099,   4397,    632,  -4782,   2652,  -6324,  -5977,   2824,   -305,   1552,  -3158,   4433,  -5961,  -5544,  -3855,   -972,  -7097,    988,  -4549,    -76,   3629,  -7508,  -6881,  -2971,  -4227,   1879,  -5039,  -8942,   2849,   3235,   2717,   6703,  -5678,  -5736,   4957,   5479,  -1864,   6246,     49,  -2220,   1737,   5856,   4429,  -2206,   4907,  -8513,  -3915,  -4465,   3154,   8657,   4892,  -3335,  -1904,  -8386,   2424,   5539,  -2778,  -2924,   1133,  -2341,   1408,  -4434,   7969,  -3588,  -1765,  -6804,  -4995,   5550, -11657,  -1023,   2494,  -4181,   6522,  -1479,  -5139,  -6841,   3753,  -7096,   7170,   4211,  -5696,   3017,   2452,   5611,   6668,  -2691,   3967,  -3168,   1902,   5394,  -6956,  -6325,   5520,   -112,    244,   1563,  -3035,   -825,  -6450,  -1285,  -2235,  -6886,     82,   6818,    785,  -2372,   2949,  -2178,   5929,   -461,   2950,   2032,  -4515,   1100,    -16,  -3127,   7111,   -172,    439,  -7444,   1696,  -1591,  -2193,   2413,  -5766,  -4522,    446,   2334,  -7652,  -3697,  -4710,  -2375,  -4431,  -5271,    430,   4425,   4710,   3111,   1137,   -103,  -6220,   6086,   2789,  -7243,   -482,   1946,  -3034,   5646,   4550,  -1880,  -4469,   6577,  -3823,     -3,  -2231,  -3110,   3841,  -5859,    733,  -7471,  -4124,  -3462,  -7147,   -452,    977,  -5791,  -5945,   8259,   2779,  -8524,   1585,  -4216,  -6516,    545,   7092,   4693,   7103,  -4426,  -4791,   1723,   6704,  -5361,   3519,  -5328,  -2391,  -7370,   3516,   3780,   3592,   1161,   6129,   4935,  -1138,   8645,   3718,   1975,   2887,  -2604,  -3210,   6094,    814,  -2366,  -4184,   4944,  -4504,  -1889,  -6086,    639,  -7451,  -3155,   7735,   3629, -13376,   1800,  -3953,  -6939,   5891,  -3994,  -1470,  -9370,   4073,  -6038,   1764,  -6519,   7250,    966,    875,  -6060,  -2972,   7809,  -7749,   5702,   3719,   6101,  -7780,   -459,   3523,  -8338,  -7838,    876,   2277,   6540,  -4378,    606,   6915,   5360,   7097,  -7661,  -8100,   2148,  -5715,  -6718,  -5384,  -6303,  -4573,   5944,   5006,   -331,   1564,   6343,   -846,   7667,   2640,   3568,   6853,  -7870,  -2058,   2570,   6699,   5516,   7351,  -3461,  -8228,   3364,   2719,   3922,   6809,  -8765,  -5738,  -6652,  -1267,   5727,   6714,   4440,   6620,   5045,   4225,  -6744,  -1896,    167,   2023,   2935,  -6650,  -1166,  -2494,  -7654,  -3445,  -5959,   7002,   4293,   3225,  -9200,  -5067,    340,   3166,   1059,   2721,   1550,  13261,   4806,  -3838,  -2505,  -8020,  -6092,   3150,  -2664,   5608,  -7360,   1180,  -8055,  -3840,   3722,   3152,  -7267,   4355,  -6576,  -6865,   1242,   5089,   7946,  -1450,  -1796,  -7485,  -1012,   -143,  -2654,   -615,    601,  -6740,   1364,   -140,   1982,    129,  -3102,   6287,   8091,  -4724,  -9320,  10727,  -8163,  -5089,    579,   2787,   3525,  -3925,   7375,   7672,    969,   -448,   3131,   5609,   4158,   7909,  -1173,  -2870,   3054,   5353,  -2443,  -2329,   -236,   7240,  -1593,   8077,   2127,  -3111,  -9051,    -53,   8512,   4991,  -8474,  -1313,  -7079,   5820,  -8127,   3964,    423,  -4920,   5706,  11146,  -1063,
          6421,    -46,    760,   1922,  -4040,  -5812,  -6114,  -2569,  -2760,   2902,    690,    -38,  -6486,   4329,  -5336,   2581,   3909,   6397,   5572,   3715,   4781,   1582,   1600,  -9224,  -1227,  -8633,  -5632,   5211,   3794,  -4522,  -6941,   6150,   2895,   -293,  -8561,   3668,   4154,  -7264,  -5886,   2939,   3060,  -4934,  -4342,  -3247,   3442,   -136,  -5629,  -4250,   4788,   6902,  -5753,     57,  -1348,  -6368,   8963,   1310,   2368,  -1921,   5098,   3814,  -2145,    428,  -8585,  -6072,   6173,  -3639,   3343,  -3282,  -1623,  -2165,   4816,  -1614,  -7517,   3017,  -5457,   1033,  -1109,  -8556,  -8243,  -2678,  -2290,   3335,  -4175,  -1736,  -2742,  -5320,  -2397,  -9513,  -3490,   2345,  -3609,  -3732,   4893,   5055,  -3327,   3490,   7328,   6578,  -1890,   8031,  -7874,  -6450,  -9306,   4957,   4647,  -2414,   3753,   5815,  -2366,   6296,  -4622,  -2803,   1342,   3899,   1768,   2542,  -5972,  -5688,  -2824,   6285,  -7595,  -7485,  -5738,   3589,   -788,  -3041,   1924,  -5795,   5775,  -6294,  -4394,   -725,   1257,   3540,   3355,   5410,   4476,  -5440,   3439,   8462,   5003,  -2329,   3625,  -4112,  -1748,   2777,   -449,   5927,  -4443,  -4913,   1713,  -1163,   5849,  -6941,   5456,  -2084,   -680,  -8172,    845,  -4446,   7304,   6634,  -3544,  -1152,  -4978,  -8753,  -3923,  -5638,   -890,  -3158,  -5350,  -7732,  -3382,   4667,  -2963,  -3165,  -6645,   2756,   5255,   4638,   7378,  -5772,  -4071,  -5932,  -6118,   3491,   1817,  -6655,   2591,   6165,   -779,  -4119,   2210,   6326,   2213,   3609,  -1419,   1351,   6972,   3243,   7084,  13031,   2080,  -3429,  -4153,   4570, -16047,  -1940,  -1437,  -1392,  -5140,   -193,  -7189,  -6467,   6980,  -7564,   6562,   1561,    380,   5029,  -6438,   6296,  -4629,   2917,   6058,  -1854,  -3874,   2635,  -1002,   5162,   2406,  -1221,   3094,  -2182,   5807,   2152,  -6542,   5295,   3741,  -6160,  -4545,   6396,  -7707,  -8478,   3907,   -680,  -9884,  -6837,  -7529,  -6547,   1133,   4703,    893,   6207,   7415,  -4706,  -3458,   -415,  -5551,  -4303,   4637,  -7318,  -7320,  -2358,  -1102,  -4267,    955,  -4977,   -118,   5908,   -332,  -1978,  -3389,    771,   6832,  -3699,  -4433,  -8672,  11847,   2003,  -3661,  -4618,    197,   -143,   2148,  -2355,   6624,  -2880,   5764,   -359,  -4635,   4040,  -7116,  -5862,   8380,  -6271,  -7535,  -1917,  -7703,   5901,  -7509,   -980,  -4402,  -2193,  -2733,  -1079,  -6689,  -4112,   7858,   -454,   4872,  -1242,   3550,  -5284,   1590,    275,   3967,  -6650,    712,  -6918,   5565,  -6829,  -1060,  -2849,   4913,  -7618,  -6274,  -1006,   5777,  -3179,  -7452,  -9836,  -7990,   6508,  -6844,  -8111,  -7751,   5812,    600,   7064,  -3913,  -5208,   5030,  -4793,  -3315,   5696,   4431,  -6556,  -4869,  -4656,   1338,   5887,   4876,   3639,   2364,  -3693,   4806,   1127,    -59,   6059,     61,   4213,   1257,   -348,   5151,   4333,  10524,   7629,   6534,   2745,   2934,   8434,    309,  -4285,  -4435,  -3637,   5991,    234,   2703,   6031,  -7423,   6492,  -1172,  -4990,   1273,  -1509,  -7539,   6187,   6485,  -2394,   2148,   3014,  -3302,  -2374,   2534,   3632,  -3660,  -5961,   8796,   -676,  -5109,   1865,   -278,   1337,    316,  -5267,   7201,  -1100,  -3922,  -3497,  -7168,   6024,   7175,  -4811,   4023,   2534,   4070,   7515,  -1937,    725,  -5484,   -367,   -408,   5240,  -4120,  -1230,  -5390,   4998,   4133,   2284,  -5505,   2623,   2090,   3361,   4830,  -4637,   7175,  -6185,  -5599,   2146,  -6253, -12597,  -4111,  12591,  -4089,   6999,  -9133,  -7460,  -3515,   -653,   4050,  -7748,    298,   6758,  -6043,  -4256,  -2573,  -8453,   6905,  -6437,   1484,  -6006,  -3407,  -1784,  -7283,   4784,  -5767,   2482,   -365,  -2127, -11353,   -302,   1806,  -7310,  -1299,   1572,   4336,   4646,  -4033,   6194,  -4500,   -397,   3778,  -2131,   5721,   -197,   -699,  -5674,  -4338, -10640,  -8339,  -2629,   7982,   3834,  -9643,   5781,   2181,   6330,  -6170,  -4784,  -3277,  -7402,  -4919,  -1575,  -6099,  -7497,  -4767,   2628,   3554,    385,   -484,   1347,
           -37,  -3016,  -1780,   2214,   3571,  -2763,  -6440,   1988,   -246,  -4660,   3278,   6766,   1333,  -5157,    947,    -79,  -6929,  -7266,   1012,  -1920,  -2500,  -2288,  -5423,    891,    778,  -4769,  -4841,   2614,  -3009,   6365,  -1531,   2977,   1407,   6520,   1735,  -1409,   7996,    383,  -2743,    349,  -2075,  -2080,  -7078,   4672,  -6629,   1303,   6263,  -5033,   6591,  -4436,   6909,   -191,  -1498,  -5778,    718,   7867,  -1588,  -2706,   -670,   9971,  -4709,    513,   4309,  -7207,   3281,  -2241,   -487,   2452,   5166,  -3178,   2871,  -3632,  -7307, -10605,  -2902,  11717,  -5074,    727,   -682,   4745,  -1424,  -7000,    477,  -2618,   7444,   1111,   8059,  -1477,   1185,    666,   4912,   4223,   3491,   3810,    -31,  -4476,  -7656,  -4715,   5439,  -1102,   4427,   2122,   4556,   1029,   3724,   3804,   5134,   3691,  -7119,   5811,   2510,  -6830,  -2651,   3798,  -4715,   -118,   1324,   5141,  -4891,   -270,   1577,  -6475,  -3019,  11614,  -1657,  -2557,   8307,   5904,   5446,   1801,  -2135,  -5496,   4935,  -3662,   1824,   3258,  -6200,     28,  -6083,   2430,  -5464,  -8533,  -4573,  -8015,   3440,   3876,  -4554,   8629,   4057,  -5137,   4170,   1512,  -7779,   6795,  -6136,   5381,  -3297,   -438,   4988,   -746,   2353,   2702,  -8401,   8436,   4227,    168,  -3309,  -2820,   2750,  -8592,  -7858,  -1209,   2804,  -2181,   3230,  -3910,  -4281,   -740,  -6310,  -3276,   2046,   4970,   1700,   5800,   5196,  -8658,    128,   -490,  -5767,   3975,   8417,  -3221,  -6345,  -6838,   1816,    930,  -7128,   6324,   2599,   1284,  -7362,   2305,   6328,   1563,   2663,   4464,    157,   1383,  -7305,  -5233,    723,   4950,  -6234,   3242,   2060,   4188,  -5916,  -8004,   4210,   7771,   7613,   4522,  -1389,   -812,  -5996,   6304,   5895,  -2993,   2274,   1476,   6232,   4223,  -6074,  -8190,  -1270,   2733,  -6437,  -5632,   5450,    -24,   7146,  -6018,  -7413,  -3012,   1661,  -2686,    618,   5607,   3959,    310,    789,  10241,    977,   3038,  12708,   7216,  -2260,  -2220,   3344,  -5269,  -7833,   5177,  -7347,  -4519,   2820,    783,   5345,   1729,  -2431,  -4113,   6836,  -4585,   2907,  11987,  -2813, -14690,  -4365,  -4720,   5739,      6,    629,   4898,  -7988,   1842,  -6074,   4018,   1142,   -397,   2546,   6704,   5824, -15222,  -6970,  -4029,  -8750,   -977,   4308,   -652,  -3095,   8867,  -5047,   4433,   4357,  -8038,  -5602,   -956,   5641,  -7777,  -6608,  -1634,   3046,  -1342,  -1514, -10660,  -3987,  10616,   -873,  -3169,  -9182,   1900,  -3222,   4412,   4150,   5718,   7742,   2604,   3551,   7834,   7191,  -4070,     89,    357,  -5349,    132,  -9809,   4390,  -2174,  -1172,   5190,   -810,  -1546,   -606, -12008,  -7975,   7294,  -5742,   3523,   3483,  -3759,   3490,  -1011,   5221,  -4717,   7988,  -7256,  -2675,   -105,   3621,   -536,   -752,     10,  -5194,   3119,   5461,   3983,  -7673,  -3073,  -8273,   2157,  -2880,    925,   1075,  -3835,   1073, -11914,  -7658,  -7656,  -3206,  -3797,   -742,   4895,  -6855,   1985,  -4132,   1070,   4114,  -7556,  -7967,  -5307,   1205,   1066,   7516,   7235,   1388,   3298,   3287,  -6637,  -8871,  -1274,   1852,   1767,   1788,   2032,  -3039,   6357,  -2279,  -2219,   3730,  -5514,  -8262,   6583,   -180,     78,  -2639,   3355,    240,  -6964,  -4001,    368,  -8392,   5144,   2558,  -8085,  -6489,   7025,  -8739,  -1453,  -5193,  -5509,  -9700,   5166,  -8956,  -8355,  -1328,   2990,   -191,   7009,    558, -12845,   4759,  -4091,   4531,  -4649,  11073,    835,    732,  -4585,   4884,   2983,  -5546,  -5440,   3683,   -276,    851,   1952,  -4126,  -2063,  -6403,   3650,   4919,  -1553,   6595,  -4319,  -8602,   2901,  -4138,  -8034,  -4734,   5542,   1245,  -5332,  -4530,   7099,  -3324,   -707,   2998,  -5834,   5782,  -1701,   6215,  -3413,  -3254,  -4701,   2040,  -7750,   -806,   6899,  -8618,  -5926,    942,    970,   7467,   4927,  -7233,  -4871,  -7314,  -8173,  -2568,    675,   1208,   2832,  -5899, -14341,  -3247,  -4354,  -6641,  -6914,   9975,   2880,   4066,   3748,  -1387,
         -7845,  -3673,   7579,   7661,   4581,    -75,   -764,   7661,   2390,    927,  -5840,  -3809,  -5071,    977,  -3074,   1533,    466,   4284,  -3823,  -2948,  -5857,   -114,  10076,   3789,   5606,   6232,   2873,   6986,  -4603,   3318,   -854,   4889,  -3830,   3610,  -5479,   -700,  -2110,  -3326,   2827,   1001,    582,  -4547,  -1391,    221,   4421,  -7207,   2719,  -3783,    658,   -934,   3431,   4426,   3969,  -4706,  -8327,   2331,  -4463,  -4079,   2090,   7476,   7801,   4241,  11402,   3098,   1999,  -3140,  -1138,   1634,   4975,  -2944,   5126,   2762,  -6822,   9357,  -4852,  -8394,  -6426,   2273,  -3952,  -1965,   1461,   2135,   4303,   8996,   2190,  -6658,    685,  -3425,  -7246,   2533,  -5896,  -2721,  -6633,  -4960,  -2889,  -7126,   2930,  -6346,  -6501,  -1975,   3727,   5995,   6556,   2885,   1738,  -3286,   1101,  -3039,   2858,  -8144,  11981,  -1915,  -5398,  -8290,  -3812,   1756,   5168,   2370,   4393,   7094,   -393,  -4343,    845,   9951,    151,  -5184,   4168,   -837,  -2011,   5581,   -409,   4412,   4125,  -5147,  -5289,    910,  -8436,   2817,  -1227,   5731,  -3340,   3253,   3443,  -4203,   7370,  16369,   1930, -10725,  -1823,  -7990,  -4288,  -9503,   5110,   4801,   -293,   3868,   2850,  -3419,   1821,   -499,   2039,  13549,  -5830,  -8890,  -2144,   -733,  -8479,    161,  -7401,   7142,  -6990,   7128,  -1035,   2962,   5086,   1673,  -3719,  10192,   4046,  -7371,   1389,  -7173,  -2490,  -3615,  -2716, -14796,   3091,   4498,  -3432,  -3414, -11189,   2754,   5258,  -1339,   7099,   -678,   5011,  -2210,   7137,   6218,   -837,  -6887,  -4279,   2734,  -1300,  -8784,  -1773,   1022,    171,   4704,   3289,   2847,   6103,   4930,   -276,   4026,   2689,  -3334,  -2046,   7940,   6163,  -5036,   5133,   1262,  -2902,    621,  -2217,   1356,  -4797,  -5498,   2575,   5553,  -1544,   3905,   1889,    511,   6705,  -4841,  -4637,   2193,   7139,  -7424,  -7713,   5658,  -7257,  -4645,    191,  -7647,   3132,   3109,    268,  -3529,  -1983,   1418, -13148,  -8811,   7740,  -5077,   5517,   7883,  -2961,  -4782,  -7081,  -3479,  -7063,  -9488,   -294,   4838,   -375,  -8639,   5790,   4293,   3869,  -4169,  -6162,  -1010,   2774,   3487,   3782,   4939,   -487,  -8449,   2080,   1092,   3541,  -5325,  -4003,   3010,   1897,   1546,    194,   6529,  -6504,  -3027,   3564,   2789,  -5146,  -1530,  -7697,   3537,  -3223,  -1143,   4458,   5508,   -708,   6402,  -4287,    985,   -292,   2050, -11777,  -1186,   -875,  -8183,   6376,  13298,   1848,   2732,  -4878,   4576,   -345,   7368,   4996,  -3775,    517,  -5314,  -6551,  -1951,  -4538,  -2956,   1082,   7108,    685,  -8879,  -7467,   2167,    954,   4153,   4850,    860,   6444,  -7879,  -5997,   2705,  -1575,  -4183,   4052,  -5892,   -306,   4304,   4984,  -6267,   3306,   1178,   6944,   6932,  -4116,  -2656,   5730,  -4269,   1422,  -3343,  -3991,  -6778,   2153,  -3504,   8310,  -7550,   2645,   9252,  -7526,  -9032,   4907,   1248, -12856,     37,    -87,  -6564,  -5362,   7403,  -6646,  -4684,  13092,   -615,   3358,    231,  -4195,   6704,   4784,   5281,   3974,   5289,  -5506,   -594,   2724,  -8022,  -2775,  -8591,   8308,  -7189,   6810,   5841,  -3976,  -1532,  -3327,    203,   6743,  -7785,  -3750,  -4095,  -2415,   1582,   7794,  -3785,   1688,   -895,  -2940,  -6330,   2786,   4902,  -2496,   3594,   5302,   3531,  -3063,   -920,  -5913,  -3312,    111,  -8707,  -2676,   -461,  -7449,  -3160,   6274,   1187,  -1963,  -5841,  -3264,  -6570,   4419,   5541,  -7005,  -2612,   5916,   5432,  13866,    169,   4387,  -2883,  -1494,  -4897,   6509,   -609,   3448,  -5183,   2267,   4703,   1212,  -4319,  -3958,   3529,   8530,  -6791,  -2540,  -7663,   6898,   3809,  -4936,  -9848,   6733,   4998,   -789,   7360,  -2405,   1021,  -1593,   6059,  -4705,   7941,  -6231,  -5918,    424,   1976,  -3651,   6244,   4238,  -6451,   5476,  -1733,   1365,  -6522,  -6709,  -7801,  11074,  -2133,    230,    395,  -3531,  -8504,    266,   5065,  -7366,   6394,  -2223,  -4552,   2782,   5634,    459,    429,  12551,  -2164,
          4845,  -6738,   2533,  -7135,  -1059,  -1883,  -6524,   7560,   5049,   6513,  -1328,  -7416,   2590,   5191,    705,  -3508,   7321,  13691,  -2798,  -4038,   3358,   5689,  -1521,  -2849,  -2162,    895,   6326,  -6669,   2908,  -6942,  -6308,   5776,  -6384,    -20,   -228,    405,   3442,  -5578,   4526,  -4038,   4943,   1258,    230,   3425,   4196,  -4545,  -9375,   4406,  -7010,   5815,   4994,  -2317,   -333,   3437,  -6705,  -5969,   -211,  -3621,    522,    608,   5116,  -2728, -17648,  -6581,  -2630,   -963,   4175,   6178,  -7028,  -7337,  -4983,   5146,   1892, -10691,  -6156,   1695,   6889,   2862, -19691,   4092,  -2621,   4998,  -6930,   7342,   6587,   4774,  -6215,  -4103,   -643,   5070,    313,  -2964,   6003,  -1032,   6124,  -7757,  -5182,  -2937,   3986,  -5850,  -3236,   -702,  -4034,  -8150,   4874,   7173,  -1067,   4599,  -7150,  -3989,  -4308,   2593,   7318,  -6057,   2031,   2071,  -7341,   2838,  -8773,    175,  -1002,  -2637,   4744,  -4831,  -4287,  -5619,  -7861,    146,   2022,  -1794,  -3084,  -4820,   6026,  -3616,  -5242,   6559,  -3735,   -830,   4603,   3062,  -5607,  -4347,  -5095,  -6615,   2848,   6384,   5480,   5919,   5619,   -482,  -8093,  -2075,    806,   4084,   1200,  -3315,   4226,   6497,   3971,  -1010,  -4398,   5265,  -5181,   4220,   3182,   2501,   1362,  -4146,   2443,  -3387,  -5019,   2866,  -5014,  -6070,   2463,   1125,   1427,   1312,  -8022,  -1595,  -2692,  -3551,  -7964,  -2967,   3466,   7112,   1052,   -967,  -7260,  -3204,  10214,  -1102,   1326,  -3190,   6375,  -6021,   7406,   6453,  -6369,   3420,  -5399,  -1267,   2064,   5230,   -344,   2970, -15669,   4186,   2671,   3668,  -1101,   7095,  -6992,  -4903,  -6808,  -5204,   3691,   2708,    554,  -2563,   1347,   2256,  -6598,   4077,  -7974,   1261,   4448,   5108,   3243,   5511,  -2898,   4681,   3491,  -1905,  -1836,   1005,   4397,   3369,   1121,   1817,   2121,   -468,   6791,   8240,   5095,  -8773,  -5300,    -70,   7821,   8073,  -7640,   3960,  -4242,  -5302,   3880,   6744,   3261,  -8010,   1068,   6346,   3786,  -4276,  -3684,  -2468,   4315,  -3342,  -5662,   2570,   1537,  -8304,   -835,  -1930,    308,   -681,  -7612,   4900,  -6081,    148,  -2151,  -1368,   6111,   5530,   2492,  -6431,  -7285,   7453,  -6348,  -6754,  -6147,   7196,   5870,   2899,  -7714,   2581,  -4106,  -6822,  -6369,   4540,    525,   7553,   3031,   -906,   6535,   6754,   1859,  -4309,   6635,   1432,   6436,  -9074,   6869,   1384,  -2503,  -4694,  -2734,  11873,   2099,   4136,   1786,  -5254,   7551,   2881,  -6140,   6196,   4994,   -297,  -7633,   7492,  -3461,  -1339,  -2391,  -2258,  -5043,  -4428,   5533,  -1045,  -1120,  -6236,   4029,   1035,   2698,   -990,  -3361,  -8028,   1866,  -4169,  -2186,   -938,  -5112,  -6726,     33,    994,  -5951,  -4722,  -7169,  -3625,   3548,  -4637,  -2788,  -1859,   6513,   1406,   7356,    555,  -6104,  -5315,  11312,    554,  -6023,   1720,   5197,    977,   1392,  -6043,   3834,   1999,   4253,  -1862,   3769,  10115,  -3725,  -6811,   2073,  -5718,  -2042,  -7192,  -5972,   6592,   6221,  -5088,   7842,  -2378,  -5369,   2421,   -615,   4718,   6007,   3870,   -570,  -4125,  -4367,   -122,  -4441,    182,    511,  -9981,   1535,  -2579,  -2615,   1127,  -6305,  -3294,   4446,   -734,  -7687,   2381,   1163,   1819,  -2088,   4466,  -5074,   1252,  -1195,  -7593,  -8167,   4588,  -2136,  -4247,   6215,  -8208,  -5395,   5802,   6249,  10873,  -4350, -15507,   4530,  -7044,  -1062,  -5173,  -4028,   9483,    322,  -8649,    964,  -5512, -13604,  -7583,   1145,  -4000,  -6441,   1358,  -7728,  -7858,   -910,   5096,   5615, -18633,    731,  16260,   3866,   6187,   -119,  -7973,    762,   2623,  -4802,   9072,  -6960,    345,   2991,  -7906,  -5852,   4978,   7342,  -6712,    940,  -7468,   1390,   4660,   2230,   6190,   3808,   6602,  -7452,  -8341,   5791,  -7056,  -4823,  -3974,   2313,   6283,   3387,   3757,  -5045,   1904,  -7922,  -4041,     77,  -4062,  -3549,  -8873,  -2598,   -470,  -2442,  -5042,  -6842,   4350,  -7331,   1665,  -7643,   5603,
           797,   5672,   3202,   3294,   1925,   -725,  -7351,  -1752,    574,   1400,  -5438,  -5753,   7395,  -8993,  -1759,   -206,   6186,  -5780,   1909,   3915,    747,   1460,   4787,   3315,  -3768,  -2131,   3958,  -5315,   -166,  -7620,   7950,   6266,   -979,   4906,  -3060,   2289,  -6051,  -1114,  -3665,   1994,  -4699,   -230,  -1801,   5818,   5895,  -6651,  -1183,  -2445,  -6487,  -3597,  -2149,   3091,    -87,  -6519,  -9394,   5139,    226,  -6110,   -850,  -1151,   7092,   6784,  -2226,   -772,  -1169,   5449,   6467,    350,  -1776,  -7359,  -2106,   -299,   7029, -11132,   4935,   7098,   6191,   -354,  -9314,  -6602,  -5697,  -9631,  -8359,   4722,   1839,   1974,   3836,  -3665,  -3920,   1089,   -682,  -2103,   5610,  -2778,  -3898,  -7759,   2579,  -5887,   3293,   1863,  -3659,  -6754,   7922,   2618,    189,  -3484,  -5360,  -1546,  -4428,   3848,   1444,  -3567,  -3580,   7270,   2037,  -8299,   5158,   3834,  -6847,  -2087,   1758,  -6433,   1029,    952,  -4433,  -2535,   5632,   1752,   2403,  -2049,   1547,  -3691,   4217,  -3858,  -6146,   5384,  -1654, -14532,   7096,   2980,   6334,   4668,   5705,  -6199,   4531,   -490,   3870,    986,  -7565,  -1679,   5693,  -8720,  -3318,    982,   6111,   5630,   4456,   6702,   2044,  -2592,     76,   7706,   -808,  -3890,  -7523,   -397,   7131,    -11,  -1264,   2299,  -6021,  -1974,  -1184,   4810,  10114,   5978,   6193,  -2221,  -5599,   -675,   1606,  -2158,  -2723,  -6766,  -4806,  -1090,  -4942,  -2768,   7967,   1271,   9146,  -2342,  -6405,  -3949,  -4894,  -6515,  -5954,   2703,  -6588,   2881,  -1280,   9929,  -8489,    390,  -7260,  -3113,  -2937,   -721,   3365,   1989,   3300,   8016,  -5035,   -622,  10087,     -1,   1749,  -1146,   2465,  -4428,  -5677,   4583,  -1619,   4112,   6237,   5207,   2357,  -2823,   1397,  -4938,  -6754,  -1940,   2173,   3061,   5321,   7651,  -4807,  -2185,   2598,   2377,  -7626,   8712,   4327,  -1050,   1964,   4019,   4980,   6819,   1397,   7316,    775,   -221,   2396,  -4141,  -1062,  -7291,   4445,  -1995,   3436,  -3648,   6587,  -1387,    121,    494,  -1341,  -4452,   3028,  -4021,  -1610,    429,   6591, -10052,   4672,    527,   8231,   2274,   8396,   5713,   6744,  -6989,   1167,  -6293,  -4008,  -7273,   8367,  -6298,  -5955,   5930,   5455,  -1478,    148,   4608,  -1120,  -6011,   2385,   6707,   7499,   7034,  -1651,  -8914,   4709,   3465,   5739,   1626,  -1349,   5649,  -9388,  -4777,  11473,    311,  -4771,   1915,   2693,   4504,   5951,   2768,   3415,   5350,   1006,   8906,   6905,    612,   5793,  -1896,  -5627,   4495,  -7921,   5287,  10988,  -5105,   1144,   -101,  13783,   3339,   2560,  -3752,  -1198,  -3863,   5323,   3814,  -4288,   4741,    694,  -3991,  -5508,   1445,  -2043,   2574,   6903,   5031,  -2682,   7847,   -141,   5578,  -3624,   5513,  -5677,  -1097,  -2531,   5802,  10575,  -2382,  -2882,    527,  12141,   5457,   4910, -10336,    679,   3280,   4919,   1875,   9462,   1215,   4109,   2473,   1319,   1565,    608,  -7531,    948,  -9202,   3713,  -1543,  -6499,  -1243,   6146,  -6183,  -3850,  -6032,   -657,  -5699,  -1339,    688,   2303,  -4331,  -3240,  -1869,   2582, -12940,  -3304,  -7168,  -4920,  -9565,   7903,   4717,  -3562,   7754,  -4539,   2309,   2908,  -5364,  -5536,   -681,  -5811,   7583,  -3198,  -1879,   7264,   7052,   7103,  -4694,   -410,  -2990,  -4256,  -7566,     15,   1701,   2834,   6542,    -30,   1963,   4260,   4537,   7615,  -7379,  -8132,   -207,  10418,   -715,  13584,   7333,   -214,   -548,  14784, -16784,  -3258,  -1129,   4570,  -1737,   -772,   2093,   6625,  -2206,   4257,   -689,  -7232,   2317,   1559,  -3060,  -1472,  13943,  24201,  -3659,  -4169,  -3715,  -3436,   3744,  -5350,  -3587,  -1848,   5084,  -6948,   2756,    644,   2281,   7782,   1596,    884,  -1936,   1240,   -329,   4125,   2254,  -3279,   6904,   4395,  -2282,   -938,  -5471,  -4967,  -7301,    662,   3039,   2270,  -8725,   6593,   4459,   4529,   1655,   -977,   7918,   3707,   9245,   9915,   3205,   6317,   2795,  -1696,   1716,   -390,  -5147,
          2268,    382,   -920,  -7594,  -7694,   6414,  -1875,  -2189,   4238,  -6841,   -273,  -2324,   5510,   8691,  11707,  -3566,   1012,   7584,   7866,    692,   4403,   3794,   2718,   1454,   3062,   6660,  -3393,  -1680,  -6775,   2791,  -5094,  -1823,   4998,   7204,  -5021,   3059,   3375,   6657,   3994,   6889,   4442,   4207,  10148,    273,    977,  -3700,  -1938,  -6588,  -4672,   1863,   6535,   4074,   3690,   2802,  10950,   7257,  12175,  -6099,    991,  -5796,   4560,  -5377,   2906,  -2959,   3928,  -5273,  -3258,   -858,  -1127,   -429,   4642,     17,   -313,  -2995,   6424,  -3240, -15079,  11336,  11554,  -9731,   3670,  -6841,   7997,  -5449,   -967,  -5886,  -5082,    259,  -6532,  -3000,  -6224,  -5114,  -6030,  -1790,   1099,   1785,   5017,   -663,  -5342,  -6818,   3312,  -2559,  -6018,   6753,   -368,   6800,  -1595,    650,  -7632,    887,   7053,   -215,   1058,   2778,   6217,  -7683,  -7542,  -6062,  -6471,   1114,   7449,  -6163,   2067,    584,   9872,  -5899,   4968,  -9289,  -3821,  -3435,   6570,      0,   5870,   5169,  -3070,  -6030,   9560,  -4372,   3876,  -4539,   9363,  -1595,   2312,   1441,   1546,  -6363,    228,  -1173,    -81,   3995,   5868,  -6861,  -3557,   7273,  -6089,  -1233,     47,  -5090,  -5717,   5126,   5146,  -4930,    933,  13414,   5530,  -3253,   -480,  -7001,   7984,    -74,    513,    100,   -844,   4790,  -2136,  -6279,   -718,   -239,  -2720,  -5646,  -6581,  -1457,   2043,    435,   4320,   1183,  12836,  -3530,  -6646,   3146,   7341,   4503,  -2752,  -3635,  -5774,    276,  -7960,    493,   -673,  -1579,   6022,  -1549,  -1770,  -1380,   4594, -10376,   -480,  -6689,  -5813,  -6475,   9678,  -4245,  -7925,   7295,  -5511,   3279,   1997,  -2338,   4567,   4832,  -6925,   1388,   -808,  -3966,  -1624,  -7712,  -2889,  -3109,   1905,   6391,   -701,   1033,   9491,   3146,  -3001,   1546,   1452,  -7511,   4736, -12899,  -2960,  -1023,   2450,   -534,  -4176,  -5029,  -4138,  -3260,   6485,   7622,  -4304,  -8729,   7974,    466,  -3860,  -4240,  -6871,  -3119,   -152,   -583,   2736,   1769,   4697,   5383,   3235,  -3295,   4047,   5497,  11834,  -9977,   7758, -17921,  -3009,  -1256,   3332,   5596,   2959,   4785,   8387,  -6619,   5344,   3946,  -5832,    437,   1095,   4798,   1817,    345,   5874,   1846,  -7975,   6943,  -6046,   1354,   3436,  -2498,   6966,   3987,   1720,   6844,  -2904,   5823,    787,  -2367,   2552,   6271,   3012,   1634, -11319,    -64,   4974,   8357,   1699,  -6697,  -4476,   5282,  10035,   1858,  -6272,  -5989,   -607,   3179,   4817,  -5013,  -4816,  -7165,  -6667,   5983,  -3641,   1530,   5278,   7083,  -4064,   8031,   2622,  -7947,  -6626,    -63,   3809,   3651,   1540,   1708,  -1271,   2347,    846,  -3195,  -3876,   5197,  -1356,   6481,  -5242,  -2910,   6970,   5667,   2060,    261,   5442,    882,  -1892,  -5784,  -6088,   2001,  -3409,    707,   2277,  -4590,  11291,  -1195, -10994,   3528,   4414,   4703,  -4293,    975,  12258,   2663,   2788,  -6456,   -277,  -6913,   9360,   4129,  -4479, -12902,  -2646,   1170,   7482,  -4330,   5985,   1454,  -3880,   4624,  -8199,  -3494,   1146,   1114,  -8811,  12494,   8602, -13049,   4796,   2770,   4215,  -1240,   9673,  -3166,  -8558,  -2494,  -2485,  -6144,  -3695,   2310,  -5585,   6360,  -5284,  -2061,  -3400,    814,   7317,   2997,   9821,   2127,  -2045,   5928,  -1904,  -5697,   7748,   -448,   7034,  -3544,  -5290,   2261,  -5702,  -7111,   8552,   3210,  -3976,  -4709,    661,    611,  -3491,   4725,   -770,  -8452,  -1205,  -4105,   1420,  -7540,  -5635,   7307,   1515,   2547,   4692,  -5912,   5980,  -7479, -12114,   -518,   8262,   5029,  -4346,  -1519,   -348,  -2700,   3701,  -2283,  -1247,  -3516,   3347,  -2771,   1758,   -816,   3420,  -7803,    984,  -3164,   2585,   2966,   5401,   7522,   9787,   5622,  -5947,   4785,    723,  -1728,   1558,    674,  -7574,  -6507,   5562,   4929,  -4606,   -898,   5647,  -9636,   3428,  -7856,   -866,    -46,  -3099,  -4402,     99,   7266,  -1931,   2897,  -5708,   2699,   2512,  -8012,   4846, -13234,
          6141,   1304,  -7001,   2241,   4594,   -997,  -6330,   1490,   4923,   2704,   8263,  -5246,   7277,  -2626,  -1611,  -6283,  -6987,   2901,   2021,  13546,  -2446,   1752,   4813,  -8031,    -18,  -6849,    301,   5828,  -5436,   2371,  -1970,   6216,   2763,  -7502, -11902,   1454,  -7536,  -7568,    929,  -3276,   5729,    636,  -3226,  -5571,  -4448,   3135,   7118,   1434,   6561,  -3742,   2147,     -9,  -2933,   -947,   8110,  -9231,   -471,   -264,  13467,  -6610,  -3433,   6879,   4455,  15909,  -4666,  -5593,   2670,  -5321,  -5201,   7545,   3417,  -7899,   7930,  -6162,   1130,   -370,   7578, -12273,  -3973,   5473,  -8765,   4875,   9767,   5091,  -4292,   7151,   8408,  11137,   2306,   2435,   3617,   3054,   2589,  -3326,  -6875,  -4505,  -1829,  -2869,   6559,  -3773,   1235,  -5505,  -4113,  -1684,   7906,   4009,   -594,  -6646,  -1173,  -2814,   2633,  -7696,  -1732,   2170,  -7458,   1908,   5037,  -4994,  -6035,  -1913,   8777,  -3828,   8697,  -8220,  -4139,  -9842,   4276,  -7966,  -2300,   4150,  -3463,  -6029,  -3315,   1081,  -5987,  -3709,   -414,  -3587,  10146, -12871,   4883,   4808,   -504,  -7776,  -6087,   1476,   -630,   -114,  -9211,  -3120,   4301,   5153,  -3693,   3604,   4597,   5183,  -6794,  -2456,   6331,   1639,  -5768,    891,  -2724,   1922,   6832,  -6111,  -2563,   3486,   6391,   2089,   5761,  -6327,   2357,  -4389,   1641,   -236,  -5465,  -5498,   3391,  -3147,   -474,  14480,   7645,  -3362,  -2488,   3151,    564,   4188,   2552,   3230,   -684,  -8593,   4994,  -2216,   -957,   4116,  -1231,  -5418,   -146,   3737,  12035,   5736,   8475,   -891,  -2817,  -9428,  -4244, -12435,   2168,  -7611,   3782,   -785,    298,   4018,   -473,  -5202,  -2754,   1384,  -3881,  -2062,   8473,  -7379,  -4010,  -2786,    614,   3581,  -8854,  -4381,   8347,    565,  -1139,   6655,  -2558,   1820,  -2371,   4075,   9925,   4074,  -6008, -10758,   -512,   1467,  -1594,   8259,  -9401,  11967,  11539,  -3503,  -2458,   5768,  12666,    932,   1711,   2900,   6872, -13735,  -2864,  -7620,    882,   6680,   6239,   4417,  -5737,  -1470,   9607,   4089,  -3042,    530,   2959, -12018,   2637, -12626,  -1042,  -3868,    212,   7229,   1222,  -5907,   6231,  -5192,  -1256,   4801,  -3353,   6735,  -1080,   7211,   2702,   2904,   1506,  -3663,    997,  -1476,   6268,   4596,   5722,  -4023,   1640,   5672,   5138,   1572,   7885,  -1882,  -1559,  -9252,   5279,    -48,   4929,   1507,   4017,  -3044,      1,   7482,  11581,  -1211,   7054,   2205,     96,  -7896,   1842,  -1552,  -5980,  -6159,   7675,  -6703,  -5772,  -6563,   3901,  -5463,  -4790,   1160,   5911,   4658,  -8199,   9445,  -3017,  -4235,    893,   1380,   2003,  -9136,  -2541,   5316,   2115,   3140,   6378,   2555,   2699,  -5235,  -4260,  -6010,  -1270,   -932,   6968,  -4837,  -6706,   3124,  -1502,   5907,   3804,  -2602,   4148,   6919,   7726,   -861,   7692,   4415,   5462,  -8163,  -4639,   7538,  -2130,  -1774,  -7623,   1544,  -5431,   2109,   8240,   7207,   2843,  -8692,  -1805,  -6670,   3489,   -177,   5508,    -56,  -1801,   4708,  -5129,   7714,    836,   -134,  10934,    547,   1438,  -9829,   8655,     54,  -8148,  -9896, -10065,  -3485,  -1120,  13351,   5180,   7171,  -4904,  -4688,  -6033,  -4486,   3116,  -2837,   7588,  -1266,  -2050,  -1137,  -3756,    117,  -4866,   8981,   -615,   1026,   3488,    861,  -3673,   3378,   9983,  -8775,   2545,   9854,  -9320,   7692,   6711,   2570,  -9471,   8805,   6186,  -2976,  -9912,  -5816,  -3520,   4513,  22049, -16260, -12238,  17830,    820,  18551,   3708,     53,   4265,   4566,  -1206,    -72,  -2494,   3819,     20,  -3328,  -4045,  -5309,  13249,  -3283, -17270,    219, -11754,  -6351,   1983,   4790, -13240,  13026,   8215,   4632,  -2208,   7488,  -6650,  -3236,  -5117,   5257,    824,   7705,  -5961,   -616,  -4735,   2811,  -9934,   4200,  -5793,   8055,   8457,  -3397,   9002,   2907,  -3824,   3067, -13630,   1331,  -7440,  -4893,   5993,   8147,  -7040,   -658,  -6158,   -601,    -61,  -5421,  11486,  -8595,  -9665,   8360,  -7614,   -328,
          6400,  -4362,  -7568,   -463,   6439,   3141,  -5214,   2642,  -3263,   5216,   -436,  -5153,   2035,  -6007,   -445,   3429,   4287,   6662,   8569,   5449,  -4240,  -3626,  -6436,   2137,    236,   2181,     52,  -4013,   4424,  -3321,  -7924,  -3552,   5553,   -105,  -2834,  11271,  -2159,  -5745,  -6961,   2259,  -5948,   3691,     21,   3451,  -4407,   -219,  -2071,  -5103, -10711,   -435,   2387,   5011, -10641,   6151,   3799,  -1162,   4827,   4450,   4680,  -1170,    895,  -3943,  -7235,   -665,   2450,  -2959,   1784,  -1784,   4066,  -4264,  -5099,   5425,   4085,   1559,   7725,   1132,   5847,    638, -13278, -12915,  -4381,   5566,  -1728,   7103,   2402,   -652,  -3531,    108,   1208,   1170,  -4970,  -4932,  -5187,   2768,  -6217,  -5413,  -5036,  -5850,   5182,  -1771,  -1995,  -9726,  -4391,  -5723,   -130,  -6899,    834,   2967,    734,   1292,  -7810,  -2280,  -6977,  -2615,   3034,   7597, -10316,   5722,   3678,  -8402,   7683,    545,   1136,   -745,   4300,    238,  -5096,    -38,  -3848,   6576,  -2858,  -3832,  -2333,  -4971,  -7528,   6221,  -2216,   1762,   3874,  -4851,   7491, -12341,  -2686,  -8626,   7033,    283,   4397,   6821,  -3333,   -584,  -7514,   1209,   2635,   -849,  -6253,  -7974,   7818,  -3579,    116,  -5821,  -3459,  -1408,  -1377,  -2816,   4902,  -4806,   5381,   5006,   5775,  -7834,  -4141,   5007,  -3857,   3160,  -9548, -13742,     67,  -7225,   3160,  -1712,  -2980,  -9385,  -4098,  -1622,    440,   6378,   9334,   3535,   8740,   2654,  -2275,  -5885,   2927,   -107,  -2569,  -1799,  -7670,  -4837,   2198,   7211,  -3281,    183,   5367,   8524,   5121,  -3638,   6023,   1557,   7042,   6849,  -2828,  -5851,   2248,   -543,   2625,   7675,  -4624,   5177,  -7240,  -7436,   5065,    536,   2342,  -1046,   2280,   1690,  -4463,   4717,  -4406,   6356,  -6632,  -1064,   6773,   2632,   1417,   1524,  -2886,   1353,  -3024,    793,   6869,  -7641,   6188,  -4790,   2895,   5437, -10592,  -4861,   9536,      8,    640,  -1163,   4402,  -1572,   3885,   1607,  -7233,   6223,    532,   3874,   5433,  -6399,   4804,  -7131,   6387,   7167,   5806,  -1244,    217,  -2104,   1519,  -6096,  -9686,  -7611,  -8556,   8517,   5895,  -2515,   4579,  -3259,   4231,   4649,     29,   5601,   3540,  -6359,   1983,  -2184,  -5142,  -6730,  -3584,  11625,  -1510,   1734,   7117,   6898,  -9558,  -6019,  11774,   2149,  -2129,   6957,   5153,    455,   2857,  -5020,   2612,  10841,   1257,  -3975,   1102, -12360,   3116,   5623,  11645, -12734,   -479,   9465,   5809,   5848,  -5374,   3232,   4567,    878,  -5119,  -5109,  -7319,   1388,   2483,  -4678,   7138,  -5436,  10758,  -4835, -13796,  -5827,   3069,  -5612,  15857,  -9984,  -3818,   1991,   1343,   6165,  -6125,   6638,  -6421,   5320,   3682,   3086,   4167,  -3564,   -727,    931,   8959,  -2317,  -8592,   9139,    923,   2826,  -3043,  -1317,  11274,  -4093,   -593,  -6447,  -7253,   5252,  -7340,  -5937,   -172,   6394,   4296,   5254,   3114,    591,   2841,   1304,   8835,  -4895,   1425,   -877,  -3688,  -2675,   6854,   5347,   7511,   -990,   3053,   1005,  -7840,   1739,  11649,  -7610,   7903,  -2077,      7,   7038,   3178,  -8240,    563,   7549,   4094,  -4559,  -3128,  -1729,  -2806,   1644,   8475,   7126,   5117,   5905,   2178,   -135,    183,   7942,   5149,  -7559,   4494,   6996,  -4848,   1102,   4277,    441,   1966,   1332,   6077,    491,   2254,   5246,  -2765,   -626,  -5371,  -5714,   7533,   6010,   -637,  12638,   1795,   4496,   4373,  -2305,  15134,  -6567,  -2431,   2145,   1622,  -3940,   5189,  -5834,   1206,   6142,   -614,     -6,   1164,  -4200,  -5588,   7544,  -2283,   6289,   7621,  -4406,   2602,   6667,    396,  -4535,   6695,   4834,   5105,   2824,     40,   4467,   6683,   7777,    757,   2136,   3239,  -6476,   1215,  -2904,  -2985,  -1282,  -4620,  -5373,  -1295,   -174,  -8534,   7180,   8313,   7608,   2728,    171,  -2865,  -1102,   4442,  -2564,  -6054,  -3902,  -7803,   6792,  -6799,    227,   6627,   2826,   9345,  -2873,  -3070,  -3945,  -2383,  -1325,   7004,   -835,
          4990,   6265,    -54,   5338,  -3129,   -278,   3085,   5566,   5795,   2142,  -7852,  -7820,  -3512,   9651,   1257,  -3852,   -902,  -7546,   5901,  -6042,  -2251,  -9388,   2545,   1372,   2191,  -5882,  -2008,  -4876,  -6411,  -3632,  -6881,   1060,  -1153,   7777,  -7061,    610,    923,  -2338,  -8239,   6055,   2002,  -6620,   3639,  -7924,   6042,  -4491,  -2176, -13199,   1606,  -5193,  -3426,   4326,  -3558,   6878,   1196,    559,   -562,   4745,   3151,   1247,   6551,   7361,  -5218,  -7080,    -10,   6457,  -4210,  -3972,  -2781,    165,  -7881,   -568,  -9202,   5191,  -1654,   -269,  -7185,   -198,  12828,  -1885,  -5528,  -3369,  10008,   4763,   -758,   1714,  -1799,  -3898,   5260,   1177,  -3894,   1064,   -620,  -6102,  -6581,  -2317,    -11,  -3462,   2992,   1264,    388,  -2568,   -923,   7509,  -7127,   3636,    799,  -4165,   5412,  -3227,  -4650,    905,  -6847,  -5878,   8268,   1072,   1136,   4682,   6073,  -6298,  10354,   7668,    245,  -6278,   3883,  -1446,   2385, -13575,   3582,   1668,  -5065,   2705,  -5788,  -4429,   -349,  -4354,   5843,   6636,  -9384,   4292,   3899,  -6156,  -3718,  -6907,  -4327,   3813,   -513,   5996,   2195,   6611,   7858,  -8722,   7521,   3711,   1434,   2424,  -7659,    276,  -4361,   1749,  -5802,   7845,  -8542,   8264,  -7233,   8028,   8164,   1537,  -5034,   3535,  -2564,   4154,    602,  11403,   2472,  10046,  -2341,   4419,    330,   3537,    324,  -4488,   5265,  -4864,   4156,  -5739,   9762,    139,   2502,   8362,  -2312,  14687,  -1933,   2067,   2578,  -5440,  -1649,    670,   7776,   4325,  11773,  -4381,   7241,  -7629,  -2166,   4025,    332,   6222,  -3736,    454,   7365,   4805,  -2783,  -2826,  -4231,  -2839,   4370,   2657,   6499,   1044,   5814,   7297,  -1206,    860,   2607,  -7705,   6666,   5558,    644,   6580,  -2499,    815,   1065,    275,    162,   -506,   1713,   1555,  -5047,   3384,   1723,   -695,  -3808,   8498,  -3379,   5863,  -2701,   -828,  -4643,    691,   4646,  -5439,  -2048,   5735,  -2167, -13274,   6814,  -1683,  -1536,  -5608,   5059,  -6838,  -3002,  -7124,  -5345,  -5714,  -2433,   -521,   1655,   1201,  -1352, -11710,  -4615,  -2437,    945,   7376,   5085,   5613,   4978,   5536,  -6097,   2469,  -1297,   1021,    195,  -7620,     55,   2539,  -5968,  -6947,   3472,  -4786,  -1581,  -5797,   3117,  -1979,  -6969,  -7675,   4700,   6866,   1649,   -570,    548,  -6851,  -7548,  -1897,   7472,  -6603,  -8088,  10485,   -984,   6764,   -361,  -6423,   2798,   5926,   9704, -10675,  -2404, -14493,    320,   2230,   2788,   7464,   -118,   1547,   2471,   6676,   5031,   7290,  -2803,    868,  -2492,  -6323,   -771,    963,   4296,  -2930,   6517,  -6581,   2606,  -1241,   3911,   6523,   5331,  -7671,  -5768,   1249,   4712,   4867,   4981,  -6243,  -2954,   2060,     60,   7148,  -1990,   -186,   5271,   6146,   6378,   7708,   8399,   -315,  -4752,    957,   1581,  -8631,  -7042,  -3380,   4811,   4007,  -3937,  10086,    390,   8482,   2632,  -6267,  -5232,   2529,  -2709,   3203,   5346,  -9411,   4940,   6428,   -506,   4055,  -4780,   5806,  -1235,  -7015,   4343,  -5634,  -2411,  -7637,   3324,   7805,   -841,  -4047,   6660,  -3913,  -4039,  -6309,    104,   6216, -10090,   6696,     91,   1677,  -5176,   2869,  -1137,  -3133,   7446,   7200,   1727,  -2615,   4934,  -1121,   8799,  -3886,   2690,   7684,  -1805,   1317,  -1908,  -2940,   5292,   1476,   -534,  -6804,   2680,  -1054,   6624,   6150,   3867,  -8121,  -4983,   1876,     36,  -4325,   2700,   -650,   3158,  -8983,   1070,  -3501,     19,   1928,   -831,  -3196,  -4166,    956,   6295,   2939,   1012,   4012,   1467,   6452,  -5469,   9491,   1317,  -5438,  -1213,  -3772,  -4814,   2487,   8645,   2331,  -7147,   9151,  -1751,  -1131,  -6370,  -5048,   6465,  -7018,  -7372,  -4215,  -3309,   -448,  -6309,  -2792,   5248,   2610,  -6844,   4668,    -30,  -6299,   2266,   1218,   5703,   8090,   6471,   4095,    521,  -2082,   5378,   7925,   6542,  -2328,   5027,  -5651,   1147,  -6483,   3713,  -3465,   3958,  -5928,   4680,  -8131,
          2930,   2418,   -623,   3914,   3547,  -1985,  -3334,  -1043,   2726,  -3321,  -2727,  -3574,  -1722,  -4241,   9629,  -5147,   7271,  -5653,   3911,   -128,   2105,   5369,  -2676,   2665,   1202,  -3100,  -7473,  -1323,  -3004,  -2196,   7901,   2999,   2613,    174,  -3092,   3107,  -6482,  -2783,   7949,  -2287,   2061,   4729,   7092,  -4595,  -5629,   8779,   4024,  -4341, -11561,  -6836,  -2212,  16048, -11290,   -979,   3650,  -6214,     73,  -6190,   -814,  -3006,  -1096,  -4334,   6696,   2218,  -1014,   2596,  -1797,  -4678,  -1144,   5282,   6481,  -6728,   7034,  -6356,  10433, -18512,   9778,  -9360,  -3287, -11148,   9676,  -5058,  -5597,   4781,   3676,  -1826,  -4797,  -8606,   7436,   7954,   3910,   5347,  -3840,   5703,   -310,  -3419,  11027,  -7143,   4382,   2858,   7936,  -3970,  -4403,   6034,   6446,   4331,  -2779,  -5407,   3594,  -5403,  -9682,  -6211,  -5559,    874,  -4518,   3014, -11740,  10060,  -6903,   1288,   4392,    750,    270,  -2589,   4434,  -8176,   7168, -15890,  -3572,   6821,   -380,   7742,   5639,    511,   6829,  -6564,  -1562,  -5954,     52,  -7642,  11711,   3714,   2584, -11441,   4310,  -4552,   -916,   6923,   7167,  -7908,  -5279,  -3341,  -4801,  -4684,  -5473,    768,   5509,   7382,   -366,   5540,  -3755,   2477,   -342,   -325,  -1292,    -90,   1335,   2812,   4723,   1509,   4699,   -704,  -2590,  -8972,  -3677,  -4454,   2376,   4222,  -5091,   2323,   2260,  10762,   9308,   8999,   3820,   3491,   -247,   6437,  14196, -16493, -13072, -11240,  -2048,  -2430,  -3788,   1664,  -2934,  -1747,    929,  -2644,   9175,   6757,  12724,  -7096,   6669,   5777,  -6304,  -1462,   9518,   6406,  -1483,  -8551,   5106,  -4033,  -8511,   2782,  -7363,   7649,  -5379,   7249,   8297,    629,   4530,  -7765,  -3430,    279,  -3818,   3705,    866,  -9783,  -1065,  -4955,   1049,   2970,   9782,  -5608,    386,   -912,    231,  -6231,  -7498,   4661,   -753,  -1064,  -9281,   9918,   7177,  -4918,  -3448,   6651,   8785,  -1322,   1165,  -6777,   -988,  -6429,  -6117,  -3649,  -3689,   1385,  -4146,   3225,   1746,   7447,   7197,  -5615,   -471,    392,   4383,   1032,  -7914, -14309,   1779,   6885,   1878,  -1627,     11,  -1174,   1992,  -7296,   6837,   7709,   8127,   4204,  -5731,  -4586,  -5688,   6724,   1597,  -1215,   -622,   4744,  -2856,  -2657,   1486,   3721,   3080,   7462,   6851,  -2500,  -4025,  -1575,   -847,  -8445,  -1635,  -2278,   2947,   3005,  -1614,  -1410,   4146,   5243,   4283,   3952,  -2382,   5434,   2586,   4686,   6238, -12036,  -5583,  -3755,   -637,   4280,   3638,   6535,  -3993,   4782,  -6435,   7222,    996,   9608, -12742,   2807,  14494, -14016,   7272,  -1428,  -4562,   6618,   2926,   3134,   5002,   1465,   7598,  -7315,  -1217,  -6269,   6810,   7464,   -776,   7779,   -430,   5647,   5408,  -4553,  -3097,   2372,  -7515,  -2066,   2819,   6508,  -4701,  -5736,  -5323,    967,  -4212,   3230,  -2358,  -4598,  -2867,  -4968,  -6611,   8655,   9580,  -5293,  -2326,  -6535,  -1785,  -3535,   1169,  -9664,   6320, -11961,  -2046,   5058,   2488,   5344,   -208,  -4789,  -3024,  -4938,   1783,   3016,   7139,   5190,   3697,  -5499,   1571,   8381,  -4606,    236,  -5371,   5790,   6402,  -3838,  -6978,   -746,   1080,   7367,   7767,  -6331,  -4411,    787,   4704,  -8599,   4868,   -302,   6169,   6756,  11781,  -7207,   4870,   5892,  -5560,  -6393,    -48,  11452,   4740,  -4986,  -5264,  -2592,  -5060,    987,   4066,  16110,   9145,    709,  -8133,  -7287,  -4681,  -1600,   6575,  14831,  12049,  -3868,   -730,  12140,   7514,   -287,   2002,   -211,  -1149,  -7809,  -7761,  -5508,  -7345,  -1023,   9064,    594,   9041,  -1082,   3815,   5609,  -1305,   2759,   -278,   1237,   2576,   2436,    780,  -5435,  -5398,  -3139,  -4749,  -2358,  -6751,   -724,   7919,   4251,  -5698,   6855,  11831,   4688,   4113,  -3033,    101,   1662,  -4207,  -1458,  14107,  -1275,  13026,  -2191,  -8355, -13061,   5493,   5760,    937,  -4756,  12269,  -3373,   4675,  -7464,   5016,   2512,    248,  -4244,  -2093,  -3006,  -1787,  -9523,
