#include "birdnet_default_int16_coefficient.hpp"
using namespace dl;

namespace birdnet_default_int16_coefficient
{
    const static __attribute__((aligned(16))) int16_t statefulpartitionedcall_sequential_conv2d_biasadd_filter_element[] = {
         11313, -11915,   8584,   9964,   8562,  -7239, -10077,   4512, -10087,   4189,  -9938,   5934,  -8263,   8227,  -2858,  -5799,  -6510,   8757,  -4281,  -5604,   6589,   5665,   6936,   1154,   6886,    244,   3228,  -7354,  -2813,    847,  -9828,   6816,   6919,  12160,  -8511,  -3848,   -468,  -4263,   7864,  10217,   4568,  -9227,  -4860,   2858,  -5869,   2293,  -9664,   5000,   6758,  -3353,  -3007,  -4606,   5486, -11717,  -2889,  -6252,   5232,  10198, -12059,  -7386,  -4064, -12122,   8291,   9848,   2289, -10854,   1115,  -7469,   3313,  -1495,   7873,  -1252,   8761,  -6278,   3193,  -5961,  -6326,   7621,   1952,  -9839,  -6754,  12066,   2932,  -7723,    184,  -4163,  -1791,   3834,   2390,  -6598,   4638,    153,   2252,  -4868,   7197, -13562,  11754,   7059,   8170,   7662,  -8142,    963,   1827,     62,  -8611,   3543,  -1778,    283,   7962, -11044,  -6327,   5563,   9155,  -7798,   8790,  -7057,  -5706,  -9902,   1526,  -7277, -11565,  -9401,  11143,   8944,  -1776,   9974, -14216,  -7866,   8089,   7103,    808, -10705, -12702, -13581,   4452,   3684,  -4812,   8748,   8156,  -3742,   3472,   5038,   -692,  -1853,   3810, -14920,    572,  14282,  -3073,   8402, -16939,  -6799,  -3679,    764,   4295, -13799, -14302, -16082,  16434,  -7160,  -1043,   6317,    536,   7392,  -3237,  12222,   2685,  -8982,  10238,  -8355,  10743,  10806,  -8101,  -2091,  -2429,  -5201, -11254,  13303,  -5893,  -9800, -12920,   2658,   5273,  -5497,   5068,   7814,  -2054,  -3703,   4151,   1137,   2521,  -2692,    642, -12224,   8021,  -1953,   5312,   8706,  -3020,    135,  -1730,   8578,   -749,   2842, -12157,  -8168,   9004,   8156,  13353,   6094,  -2762,   9145,   8350,    822,  -4648,   2470,  -1991,  -7692,  -1595,   7897,  12204,   8135,  -9593,  -7984, -13391,  11218,  -5835, -11768,  -3222,  -7323,   8739,    856,  10392,  -4310,  -2600,  -3072,   3414,   2108,   3606,  -1784};

    const static Filter<int16_t> statefulpartitionedcall_sequential_conv2d_biasadd_filter(statefulpartitionedcall_sequential_conv2d_biasadd_filter_element, -16, {5, 3, 1, 16}, {1, 1});
    const Filter<int16_t> *get_statefulpartitionedcall_sequential_conv2d_biasadd_filter()
    {
    	return &statefulpartitionedcall_sequential_conv2d_biasadd_filter;
    }

    const static __attribute__((aligned(16))) int16_t statefulpartitionedcall_sequential_conv2d_biasadd_bias_element[] = {
         -2078,    681,   2921,   3640,   1809,   -737,   1820,    784,    -10,   1463,   -926,   1543,   3007,  -1435,   1376,      0};

    const static Bias<int16_t> statefulpartitionedcall_sequential_conv2d_biasadd_bias(statefulpartitionedcall_sequential_conv2d_biasadd_bias_element, -15, {16,});
    const Bias<int16_t> *get_statefulpartitionedcall_sequential_conv2d_biasadd_bias()
    {
    	return &statefulpartitionedcall_sequential_conv2d_biasadd_bias;
    }

    const static Activation<int16_t> statefulpartitionedcall_sequential_conv2d_biasadd_activation(ReLU);
    const Activation<int16_t> *get_statefulpartitionedcall_sequential_conv2d_biasadd_activation()
    {
    	return &statefulpartitionedcall_sequential_conv2d_biasadd_activation;
    }

    const static __attribute__((aligned(16))) int16_t statefulpartitionedcall_sequential_conv2d_1_biasadd_filter_element[] = {
        -12765, -10560,   6365,   3028,   8299,  -1990,   4957,  -8941,  -1375,   5383,  -2554,  17790,  -7856,  -1089,   -887,   1049,   7769,   1449,   2367,   1195,  -1400,  -7048,  -2979, -21992,  -8940,  -6401,  -4376,   -458,  -1410,   1873,  -1229,  -4699,  11246,  -2370,   7834,     13,   -968,  14032,  19340,  -7136,   5681,  -9733,  -6456, -12870,  10954,  16438,   2561,  -3665,   5699,   2786,  -1965,  -7221,   1677,  -5628,   2868,  -7315,  -8721,  -2695,  -4692,   7679,    316,   1381,   1632,    659,   9266,  16770,  15327,  -2373,  18474,    893,  11258,  -8505,   2870,   -543,  -9516,   2293,   1390, -10795,   2784,  11532,  -4424,   -631,  -1125,   8691,   1177,  -7693,   3026,    501,  -3741,   1992,  11823,   3748,  16986,   9812,   2788,  -8594,  -3625,   7156,  13049,   -871,   8385,  17509,  12316, -14992,   4025,   6272,   9471,  15134,  16554,  -6163,  12862, -10205,   4271,   -532,  -6997,  -2118, -13705,   1031,   1937,  12815,  -5818,  -1023,    655,   5969,  -2227,   1723,   -782,  -3342,  -6518,   8005,  -7507,   1595, -13108,  -3743,  -6828,  -2250,   2182,   1160,  11625,   6081,  18053,  16062,  10458,  -3482,   7611,   4364,    452,  15115, -10344,  -7002, -11328,   7073,  -6203, -14127,   9254, -10128,  -2799,  16751,  11301,    733,    492,   2905,  -4031,  -3650,   2899,  -2033,   9183,  -4706,   -114,   6289,   -423,  -2544,   -985,  -2604,   4667,    661,   3108,  -4164,  -3012,   7913,  -2960,    210,  -7321,  -5753,   1966,   1219,  -1105,  -4348,   1986,   -143,  -9863,  -6200,  -1522,  18194,    981,  27205,   2984, -10588,  -5320,  -2961,  -1078,  18372,   -804,  -1697,  11627,  14724,  10788, -17691,   3398,  -9411,   -968,  -5197,  -5191,  -1684,   -761,   -895,  11754,   4102,  -7432,   8723,   1027, -17435,  -2165,  12640,  12795,  -9323, -14633,  23189, -14994,   -918,   1651,  10720,   3312,  22035,  -4914,  13890, -13240, -14762,  10419,   3350,   2996,  -1874,  15719,   5932,  16805,   4386,  11422,  -4345,   4328,  -5546,  -7574,  -6674,  -6148,  -1872,  -2145,   9371,   5822,   5824,    -30, -11354,  -6928,     -6,   7416,   4322,  10349,  25199, -10987,  16162,   5045,  -5691,  -1434, -15442,  -6826,  -7187,   1999,   1988,  10599,  -2344,   1669,  -2267,    408,  -8512,   4411, -14493,  -5528,  20218,  12020,  -1414,   5410,  -4193,  -5210,   8828,  11618,  11552,   2831,  -3513,  -1752,  11044,   2293,   8111,    975,   7086,    227,    443,   4600,   6679, -10260,   5751,   -237,   5503,  -5542,  -4053,  -3477,   5603,  -7660,   2225,   1857,    -75,    848,  -2033,  10533,   2410,   1069,    310,    -81,  -8230,  12931,  13085,   3637,  -3065,   1867,  14596, -13093,    -31,  -6418,   7596,   4682,  -9172,   6226,  -1636,  -5121,    748,   6463,    987,  -4609,  -2193,   7095,  -4559,  11935,   8021,  -1867,   2676,  -1786,   4297,  -3276,  -8193,   2489,   5525,   5000,    623,   3832,  -5193,   9420,    889,  19104,  -5221,   2969,  15870,   2440,  16543, -13480,  18997,   3220,   1959,   4127,  -8023,   6233,   6417,  -5653,     83,   3973,  -4962,   -290,   7536,   3954,  -3310,   5039, -10741,    145,   7868,   2236, -10101,  -3668,  -4364,    942,   7426,  -2307, -16026,    560,   9657,  -9195,  10976,  -6760,  -6395,  -2191,   9116,   4484, -13656, -12395, -11513,  -6001, -11118,   1326,   1189,  -2793,   5543,  -4633,   1765,   7878,   3563,   8256,  -3626,  17699, -10563,  -1902,  -1133,  -3574,   7604,   5791,   1643,   1533,  -2849,    573,   8804,   6632,  -8619,    701,  -2093,   1333,  -6551,   4934,  -8123,   4779,  -5223,  -6037,  -5268,  -7239,   8573,  10367,  19767,    358, -10106,  -6982,    365,  18850,  -4636,   9759,   1124, -11299,   5537,  -3359,   3801,   3731,   3667,  -3210,  -9058,   6772,   4290,   2643,   9010,  -4135,  -4566, -19315, -10088,   3767,  -9238,   6689,   6704,   6239, -20043, -10664,   8829,  -4392,  -5985,   1097,   -909,  25857,  -8000,  -4364,    -45,  -6268, -12549,  -2561,   5109,  16824,  -9544,   7567,  -6094,  -2527,   8313,  -1656,  -8207,  -3253,   1892,  -2186,  -8552,  -2847,   8364,      3,  -8669,  -7838,   1433,
          2255,  -8460,  -8749,  -6823,   -656, -11155,  -4106,   6647,  11629,   3121,  -4078,   1698,  -7844,   -672,  14804,  -5529,   3000, -14663,   5719,  -1487,  -1502,   2435, -18025,   2670,  -8047,    484,   3465,  -4920,   8431,  15956,  -4484,   1945,   1857,  -2326,    442,   4523,   6611,  -6586,  14622, -11978,  -2136,   4518,   1352,   7337,   3047, -10871,  -5050,   7780,   6310,  12695,   5490,   3702,  -4065,  -4131,  -5655,   -911,   2151,  -9295,   4891,  -5403,  -6882,   4348,  -2762,  -7632, -11499,    -80,   -139,  -8893,  11026,  -7133,   5327,  -6491,   8424,  18428,   6754,  -5475,   -736,   9348,  13435,  -4400,  -2974,  -9868,  -5112,   2731,   -983,  -8939,    386,   3093, -10037,  -4982,  -6377,  11975,  12479,   2017,  -3537,   3162,  10082, -11758,  -5371,   -634,   4885,  -4486,  -7859,   1446,   7283,   2646,  -7022,   9764,  13116,  -9494,  -3357,   8280,  -3344,   9075,  -3188,  -7370,   3250,   4638,  21217, -12924,   9425,    604,   -647,   3759,  -7910,    595,  -2575,   5638,   1192,  -4785,   4344,   7054, -11919,  -2649,  -5926,   1605,  -5897,  21965,   3548,  -9502,   8946,   4744,  -7333,  -2770,   6979,  -8651,   7855,   2860,    -65,   7740,  -6408,   5446,  -5445,  -1184,  -3913,  -3585,   -436,  11269,   -223,   6913,   7862,   2313,   4969, -11054,  -5021,   8797,  -1959,   4354,  10327,  -1580,    206,  -6663,  -1844,  -5116,  -2846,    -34,   -679,  -3638,   5619,   5516,   7153,   1949,  -8464,  -4016,  -1426,  -2733,  -4512,   2900,   4921,  -2327,  -1005,  -4111,  13441,  -9861,  -4345,  11163,    -19,   1642,  14818,  10190,   6538,    -67,  -1800,  -4829,    135, -13935, -11106,   6813,  -9736,   6248,   6894,  -3272,   1059,   5719,  -8772,   2998,   3938,   7019,  -8110,  13123,   7797,   2115,  10308,  -1101,   3722,  -6949,  -5428,  -5204, -15277,   7802,  18588,   2793,  10055,   8268,   9989,   3820,  -2357,   5931,  17406,  13320,  -1149,   7586,   -508,  -9612,   7595,  -4874, -15146,  -2470,   8766,  -8184,  -8315,   6321,   7595,   7082,  -1410,   1059,  -9833,    898,   1347,  -7209, -11434,  -5592,   -879,  -4794,  -4638,  -7860,   5179,   9710,  12644, -21627,   6155,   9497,    305,  -8130,  -8598, -13877, -13699,  11369,   4606, -10808, -12406,   5690, -13975, -12497,  -3688,  14204,  -3494,   3004,   7974,  11958,  -1449,   3200,   7556,    339,   6072, -11308,  11307,   3751,  -5191, -10306,  -4488,   9128,  -3535,   1042,    -34,  12338,   5131,   8026,  -5492,   8576,  -6792,   8133,   3361,   4964,   8055,   5172,  10189,  -9096,   5563,   8859,   4397,  16298,  16266,  16640,  -2854,  12949,  15602,  -5403,   6916,   1381,    -36,  17553,   7461,   3805,  -4292,  11055, -11689,  -8088,  -8622,  -1306, -14748,   1475,   3014,  -5931, -17498,  -9115,   4259, -18388,  -4383,    348,  10778,  -9757,   1989,  -2484,  12011,   2028,  -8701,  18716,  19145, -16237, -10007,  -1914,    695,  -2731,  -9365,  -2535,   8729, -11779,   7883,  -9744, -13948,  12164,  12296,  -2994, -16033,  12481,   6431,   5366,  -6762,   9336,   -103,   2148,  -7515,   9000, -12493,   2794,   5844,  -4452,   7818,  -5417,  -6568,  12387,   8989,   1830,  -1973,  18476, -11406,    -14,  10863,  -4873,  -6398, -12361,  -3314,   4294,   6058,   1838,  -8010,   9190,   1626, -12993,  -3158,  -4150,   5914,  24148,    448,  -1672,   6008,  -5679,   2047,   6880,   8647,    119,  10973, -17642,   5265,   3628,  -3906,   4120,   1704, -10183,    566,   1235,   7555,   1220,   4626, -10154,   1104,  -2326,  -5013,  -3877,   7576,  -6126,  -3946,   3524,  -4801,   -404,  -5337,   3240,   5417,   5047,  -6540, -17640,    899,  -2762,   9026,  -2618,  -6130,  14855,    556,    349, -10655,  13486,   5327, -15286,   1837,   -262, -10225,  -2641,  -7324,  -3682, -10059,   5203, -15226,   1890,  -5900,   6380,  14211, -17585,  -5031,   2468,   5981,    173, -12539,   4414,  -3727,   7409,  -7891,  10240, -16289,  -1253,   -925,   3318,   5537, -29982,  -1860,   1097,   2300,   2119,  11718,  -4946,  -8310,   2600,   5752,  -2587,   2868,   3840,  -4727,  -8825,   5903,  -5669,    223,   6611,
         -1996,   9515,  -7040,   6702,   4363,   9517,  -5470,   3864,   1038,   1956,   4484, -17504,  -5662,   8405,   6393,  -6443,    357,  -9392,   7704,   5429,  -7225,  11000,   3559,   8157,  -8691,  -6554,   -428,  -1701,   6559,  14901,   1186,  -1184,   3085,   6212,   3623,  -2496,   7044,   1803,   5490,  -6620,  12860,   -964, -10066,   7717,   3928,  -1370,   2856, -13813,   1980,  -6690,  -8014,  -8000,   2369,  -6342,   -681,   6297,   4185,   2692,  -2705,  -7167,   1128,   -593,   3645,  -2773,  -2624,   5977,    161,   8916,   9075,  -6552,   6978,  12431,  -1218,  -6990,  -7322,  -7582,  -4755, -11667, -10769,  -5894,  -9889,   3021,    486,   5356,   1864,  -4637,   2645,  -3859,   4398,  -3030,   1614,  25237, -12235,   6964,   4522,  -5586,  12284,  -5519,    132,   4720,    117,   6570,  14158,   3222,   2693,  -2623,    575,  16869,  -2892,  -1835,   5519,   8882,   -976,    763,   -156,  -4913,  -1478,  -7084, -12735,  -7796,  -1533,   5304,   1610,    982,  -3167,  -7051,  -5876,    141,   8191,    512,   1758,  -5363,   8508,  -8994,   -650,  -6013,   4996, -11613, -16346,  10699, -10055, -12518,   2186,   1675,  -9371,  -4444,   9201,   6159,  -2523,  12132,  -2948,  -2354,   1418,   5875,  12826,   4321,   4309, -19102,  -6843,  -1215, -10904,  10195,   7529,   8268,    606,   6005,  -8112,  -1785,   3706,  -1250,   5036,  -1124,   4456,   7918,  -7646,  -4417,  -9283,  10636, -15802,   6002,  -4038,  15026,   6478,   1611,  -8172,  -8910,  -9060,  -4011,  -4706,  -5841,   1290,   2887,  11030,   9892,  -3210,   3169,  12062,   5868,   7227,  -5405,  -4704,    349, -19566,   3934,   4571,   -345,  -3994,  -2125,   6389,   -327,  -7487,  -8862,   8521,   3715,  -7316,   5168,  -2198, -11020,  12115,  -8680,   7662,  14585,  -7416,   1112,  11301,   3251,  15471,   4637,  18210,  10645,  -2038,   3080,  10210,   2403,  14098,  -2713,  11059,   9405,  -8411,  -5681,   6473,  -3803,  -7066,  12233,  -7433,  -4492,   6795,    802,  -8649,   4130,   9142,   3749,  -6353,   4602,   1086,  -8660,  -5520, -11777, -14107,    926,   5355,   6744,  -5623,   9094,  14033,   5116,  -6119,   4892,  -1489,   -216,   9593, -12418, -11357, -10016, -11395,   6469,   3911,  -2657,  -8502,   8683,  -5473,  18302,   4567,  10683,  -7715, -10275,   2043,    591,   4079,  -5117,  -7738,  -4218,  -6259,   9412,  -7167,   9462,    588,   2318,   -555,   5163,  -3282,   -665,   9174,   7420,  -5500,   1522,  -3996,   6727,  -9512,   6156,   3928,  -4303,   3665,  -4078,  -7851,   3372,  -7277,   3643,  -4996,   3564,    912, -12518,   8876,  -4076,   7626,    394,  -6267,    450,   8090,   5111,   1216,   2052,  13007,   9428,   3523, -10135,    775,  -6336,  -4612,  -1223,  -2735,  -8577,   2535,   2654,  -6165,  -1578, -10803,   8159,  -7537,  -8819,  -6155,   2406,   5236,   4525,  -7479,  -3201,  -2505,  -7155,  -3646,  -3299,   1690, -15880,  -8077,  -8709,     38, -16272,   8037,   6382,  -6594,  11280,  11277,  -4755,   1156,  21635,  -1764,  -7513,   4819,   4666,  -2882,   6927,  -1236,  -5099,  -5230,  -6894,   7914,   9566,   4202,  -8532, -10323,    653,  -5272,  -6519,  -8907, -16972,  21284, -10917,  18395, -12767, -10582,  -3508,  -5873,   8646,   2655,   1237,  -7786,   6134,   6461,   8169,  -7167,   4202,  15650, -10314,  -3772,   1193,   4337,  -4330,  -4120,  -8442,  -5016,   3156,  -4323,   2979,   7653,   5445,  -2448,   -616,  -2986,  -2172,  -7358,   5300,  -2576,  -1756,  -6702, -10349,  -8205,   -492, -10449,   8126,   6930,   5996,  -2226,  -4304,   6556,   4605,  -6430,  -5940,  -8822,   1093,   -155,   -130,  -6157,  10154,  -5212,  11500,    819,  11738,  -3227, -13214,  -3029,   4898,  -8052,  -3544,  -1030,  -1755,   6903,  -5891,  -5633,   4596,  -9417,   4261,    287,   6568,  11073,   2648,   -594,  15295,  -1064,  -7974,  12987,  -5018,   7941,  -3238,  10584,  -2946,   1434,  -2078,   -830,  -5679,  14561,   7650, -12168,   6256,  13359,   1402,   1955,   7420,  -3327,  -5235,   9875,  -7211,   -298,  -3949,  -1423,  -4627,   8112,    -10,   6023,    451,  -8000,   6539,  -5628,  -6467,
           -42,  -9545,   5053,  -2828,   6193,   5958,  -1487,  -5283,   2348, -14591, -15103,   9676,   2207, -10268,   5626,  12136,   7483, -10439,   5575,  -4838,   2733,   9282,   4931,   1580,  -2227,   8362,  -1301,  -3325,   2702,   -835,   9620,   9887,  -9980,  -4965,  -4946,   2867,   2543,  21809,  -2412,  -3528,   7869,  -3353,   1703,   2956,   6859,  -5829,   3262,  -5475,   -603,  -6391, -14135,   9502,   5610,   3627,   4165,  -2080,   2321,  -5404,  -2220,  -1926,    489,   2322,  -2254,    131,  -5097,   7256,   7222,   6776,   9224,  12881,   6008,   2055, -10350,  -2022, -15672,   9388,    968,  -2844,  -4971,  -7171,   6885,  -5755,  -5834,  -4107,   9254,   2594,  -7321,  -3679,   5621,   -915,   2654,  -2280,    869,   4608,   3108,  -2892,   -656,   9320,  11831,  -6289,  13317,   2028,  -5942,   7798,  14377,   7455,  14634, -13654,   8784,  -1992,   5420,  -2912,  -2265,  -5173,  -1034,   1435,   -410,  -7560,   6070,  -5414,  -6374,   3938,   -706,  -4689,   8894,   3525,   4215,   6730,   4053, -17759,     41,    528,   -708,  -7329,   4573,  -5733,   3230,   8362,  -8580,  16963, -10073,   6222,  -2218, -10142,  -5134,   3636, -12630,  -8914,  -5792,  -4565,  -6112,   2666,    433,   9739,   2977,   1333,  -8073,  -1242,   4028,  -1731,  -7276,   7028,   7692,   6036,    765,  11840,   4029,  12154,  -1631,   5030,   6389,   8603,  -3885,  -5692,  -5796,  10132,   2442,   9030,   5976,   5355,  -2173,   2741,  -5177,   1467,  -6512,   1942,  -2677,   8122,   -263,  -3447,   5818,  -8488,  -7381, -18960,   8829,  -7246,   -617,   2020,   4543,   6223,  10314,   2149,  11556,   1602,  -4253,   3057,  -2744,  -7103,   2502, -15373,  -9842,   1315,  -1564,  -8235,  -1704,  -5086,  -3677,   3028,  -1302,   7052,  -4263,  -5070,  -5218,   8355,   -741,  11274,  -2380,   7125,    431,  -6729,   -990,   9244,  -4538, -17356,  -1765,  -2886,  -5415, -17035,   5909,   6058,   7716,   2844,  10879,   7390,   3553,  16911,   6135,   3663,   4776,  -5143,   4635,   4185,  -4632,  -8938,  -2112,   4303,   3268,    -42,   3061,  -8855,  -6155,   7122,   9021,  -2321,  -7100,  -4516,   2382, -10957,   5958,   -962,  -7618,  -2954,   4626,  -1687, -11940,   6384,  -9136,  -2523,  -5890,  -6722, -13691,  -1598,   5477,  -6321,  -8037,   8763,  -6366,  -2757,   1869,  -9182,  -3425,  11857,   -477,   5121,  -2903,   2695,  -5825,   -451,   4066,   8184,  -2036, -10325,   7469,   5719,  -1442,  -9346,   5965,    520,  -9068,  10734,  -3619,   6706,   2765,  -8520,   8643,  -6340,   5076,   7930,   6387,   3706,  -4925,   -614,  -1545,  -4174,   2166,   5725,  -7371,   6975,  -1816, -14213,   2726,  -5321,    442, -10328,   6876,  10569,  -5461,   3039,  -4959,   4224,  -7078,  10769,  -2043,  -1017,  -5409,   7636, -12547,  17184,  -8318,   6940,  -4201,  -7800,  -2785,   5326,   9490,  -3675,   4317,   4539,  -9541,   -455,  11255,  12849,  -8932,  11365,   1264,  -4222,   8867,  -6695,   2994,  -7616,   2414,  -5830,  14732,   -281,   3736,   -309,   1621,   -990,   6522,   -804,  -4555,     40,  -1945,   9109,   8217, -10856,   6852,  -8691,    570, -14117,   -763,   -108, -10483,  -8606,   -662,  10269,  -6366, -12765,  -1993,   2128,   2294,   3838,  -1759,  -6945,   4861,   6562,  -9066,  -9478,   2433,  13254,  11196,   3556,   8434,   2669,   3780,   1379,  -4479,   2270,  -7620,   4239,  -1127,  16064,   3774,   1838,   4866,   1819,   1732,   3558,  17830,   2400,  -8388,   4518,  -1973,  -1838,    670,  -3862,   1226,   4734,   8710,   7163,   5696,   -516,   1035,    742,    757,  -9243,   1717,   4850,   7946,   8578,    166,   5342,  19773,    309,   7663,  -4764,  -6857,   3195, -21183,   4627, -15908,  -1117,   6031,   4597,  -6139,  -4642,  -4585,  -5999,  -5046,  -5581,  -8543,   6313,   -780,  -8322,   4620, -15659,  18703, -15200,   1218,   3367,  -1793,   4651,  15911,   -932,  18945,   -639,   6120,  -8528,  -3060,  -7719,   7064,   5656,  18173, -11082,   2209,    966,   1087,   6069,  -6289,  16098, -16744,  -3696,  -4989,  10791,   7394,   8063,   7045,   6475,   7720,  -5276,  -3957,   7346,
          7715, -13859, -12274,   6430,   2409,  -3555,    934,   2971,  -9365,   7689,   -537,  14102,   3315,  -5488,  -6783, -10168,  -8427,   1110, -15123,    804,  -7052,  -7402,  -4221,   4524, -10664,  10178,   9887,   6991, -10755,  -4582,  -6437,   6675,  -8718,   7267,  -3944,  11275,   6811,   1746,    693,  -3379,   2481,    188,   2859,   8075,    704,  -9304,  -1237,   5181,   7578,   9358,  -7283,   3932,   5534,   5064,  -9547,   7036,   -329,  -1154,  -9991,   3719,   1128,    912,  -4243,   -700,  -3434,   1022,   2608,  -8499,    -75,  -1687,  -7473,  -4247,  -4260,  -2729,  10751,  -4202,  11106,   3813,   2912,  -6928,  -2685, -13684,  -8700,  -2552,   2492,   1310,   7513,  -1503, -12615,  -5666, -14753,  -4581, -10886, -27975,  -6092,  12196, -10070,  -1264,  -3607,  -2922,   7159, -14490,  -4574,   1344,  -6399, -13723, -13667,  -6665,  -1044,  -8363,   1155,   7618, -10887,   8030,  13756,   1328,  16815,  14668,  -2554, -10687,  -6173,  -2123,  -9070,   7267,   3464,   9066,   5162,   2560,  -1490,  -3413,   1110,   6389,  -9782,  -1229,   3423,   2164,   3135, -12187,   5894, -15026,  22397, -15915,  -8154,   5162,   4589,   6631,  -4652,     91,  -4586,  -1812,  -8703,   7489,  -8207,  13545,   3075,  -3690,   2027,   3318,   2820,   4280,   1741,   4605,   -460,  -4277,  -6225,   1643,  -7835,    327,  -1941,  -1390,  -1899,  -3186, -14466,  10446,   8928,  -1114,   5573,   2436,   6061,   7155,   6755,   7025,   3756,  -3151,  -5705,  -3633,  -7370,   2008,   5500,  -2934,   2402,  -7322,    333,   9535,  -7337,    957,  -9948,    159,  -6671,  -2215,  -4278, -10777,   9357,  -5237,   -994,   1250,  -9883,   5636,    940,   7451,   3964,    -47,   6908,   8979,   -233,   1221,  -6915,  10957,  -3884,  17088,  -9135,   2445,  -1270,  -7667,   6337,  -5954,   3548,  15995,   4777,  -1386,  -4508,  -1312,  -1035,  11050, -11903,  15604,  -6029,  -7138,   3023,   7037,  -3243, -14651,   7312,   1717,   1282,  -2492,  -2193,   -902,  -1543,  -3261,   1523,  -3250,   1283,  -7106,  -7502,   8869};

    const static Filter<int16_t> statefulpartitionedcall_sequential_conv2d_1_biasadd_filter(statefulpartitionedcall_sequential_conv2d_1_biasadd_filter_element, -16, {3, 3, 16, 16}, {1, 1});
    const Filter<int16_t> *get_statefulpartitionedcall_sequential_conv2d_1_biasadd_filter()
    {
    	return &statefulpartitionedcall_sequential_conv2d_1_biasadd_filter;
    }

    const static __attribute__((aligned(16))) int16_t statefulpartitionedcall_sequential_conv2d_1_biasadd_bias_element[] = {
           101,    -76,    257,   -379,   -133,    258,   -695,   -157,   -577,    -33,    102,    360,    -19,    297,    -43,    625};

    const static Bias<int16_t> statefulpartitionedcall_sequential_conv2d_1_biasadd_bias(statefulpartitionedcall_sequential_conv2d_1_biasadd_bias_element, -13, {16,});
    const Bias<int16_t> *get_statefulpartitionedcall_sequential_conv2d_1_biasadd_bias()
    {
    	return &statefulpartitionedcall_sequential_conv2d_1_biasadd_bias;
    }

    const static Activation<int16_t> statefulpartitionedcall_sequential_conv2d_1_biasadd_activation(ReLU);
    const Activation<int16_t> *get_statefulpartitionedcall_sequential_conv2d_1_biasadd_activation()
    {
    	return &statefulpartitionedcall_sequential_conv2d_1_biasadd_activation;
    }

    const static __attribute__((aligned(16))) int16_t statefulpartitionedcall_sequential_conv2d_2_biasadd_filter_element[] = {
          1522,  -4625,   6091,  -4998,   1166,   4061,    546,   4164,  -6596,  -4099,   1702,  -5334,   1989,   5117,   1454,   1792,   4975,  -4464,   1357,   2888,   3866,   1433,   -557,  -5646,  -2700,   1919,   5735,   2895,  -4890,   -842,   -202,   9421,  -1013,   2941,  12637,   2037,    390,   2074,  -6487,   2587,   6211,   1767,  -1750,   7616,    -25,  -1977,   2536,  -3354,   2479,  -2109,   4263,   5630,   4324,   7789,   6536,   2084,   5954,  -8983,  -7379,  -7386,   5897,  -4819,  -2144,   3158,  -5206,  -6008,    617,   4154,  -5163,  -1863,  -6074,   3065,   6267,  -3157,  -2902,  -1788,   9371,   5591,   9559,  -3359,   6196,  -3386,   3899,   2204,   6072,  14450,   8690,   3897,  -1372,   2111,   9390,  -3895,   1952,   7251,   3977,   -119,   -280,  -6815,   3322,  -3180,   4372,   5365,  -2654,   1957,  -1159,  -3874,  -4165,   1312,   -156,  -1668,  -6163,  -6274,   4172,   5163,   5036,   1088,   2253,  -3706,   -331,  -1645,  -1179,   2525,  -2002,   2717,   1326,  -1417,  -1967,  -1170,   4046,   -171,  -2655,  -3947,   1633,   1000,  -2094,  10296,  -2589,   3159,   4897,    976,   2581,   5577,  -1492,   3464,   3310,   2011,    856,   1092,  -1855,  -2511,    629,  -5544,  -5858,   5364,   8101,  -2407,  -2518,    993,   4198,   9405,  -5939,  11244,   6941,  -1868,  -2092,   7534,    -60,   6548,   1111,  -5860,  -2215,  -3937,  -4903,  -2667,  -5606,   7291,   -734,   2246,   5874,   3071,  -2938,  -5378,  -2887,   6330,  -3522,  -7678,   2548,   1711,   4783,   8879,   7278,   4756,  -1290,   1005,  -2864,  -5300,   -961,  -3956,   1954,   6427,   3772,   3743,   6406,    217,  -2794,   3466,   2119,   9374,   2561,  -4232,  -3114,   -947,    952,  11987,   8699,   6686,  -4914,   4683,   3245,   3359,   5176,   1311,  -4383,   1737,   2464,   1035,   6991,   2610,    486,   4278,   1656,   5962,   2258,  -7312,   4830,  -7191,    984,   4454,   -907,   3047,  -4883,   4360,    109,  -2456,  -3219,    111,   2556,  -1214,  -1813,    746,   8150,   3990,   2943,   6192,  -2624,   1769,   -470,   -575,  -5798,  -6524,  -3855,     48,   2735,   1748,    973,   1030,   3144,   8496,   4585,   4112,   5242,   6657,   2165,  -2314,   2855,   4127,  -5107,   3223,   1354,   3170,   1973,  -1622,  -2383,  -1267,   5475,   5773,   2020,  -3723,  -4171,   9507,   9671,  -3255,  -3774,  -1194,  -1490,  10186,   2763,  -6950,  -3767,   -674,  -5400,  -4996,  -4321,   1967,  -3116,   -378,   7303,   2862,   2781,   -415,   2672,    659,  12973,    494,  -8930,   5294,   3092,   9100,   2705,  -2732,   1457,    822,   5157,  -2274,    372,  -5702,   1625,   1359,  -1035,  -4516,   -471,   4329,   2823,   -520,   6648,   2814,  -1633,   2729,  -3646,   6625,   8714,   5746,   6260,   3651,   4927,  -5924,  -6777,   3692,  -4800,   5971,  -4915,  -2893,  -3667,   1857,    -64,   3237,  -3556,   -464,  -1421,   9706,  -5858,  -3137,   2909,   3481,  -3482,  -3197,   2859,   6289,   2218,  -2762,   1477,   -184,   1565,  -2934,    705,   5147,   4766,  -3070,  -3311,  -3751,   3017,   8347,    709,    553,   1157,   -556,   2443,    790,  -1144,   1358,   3784,   3942,  -7822,    332,  -6001,  -6136,  -1514,  -3396,   1643,  -1116,   4145,  -6651,   4552,  -1808,  -4241,   2658,   2035,  -8184,  -5521,   3989,   4341,   2556,  -1331,    150,   1955,   3819,   1747,   6749,   6517,  -4545,  -4775,  -4736,  -1311,   2700,   6661,   -474,  -4974,  -3535,   4867,   1398,   1178,   4630,   4254,   1479,   4915,   -865,  -1650,  -3126,   -836,  -4922,   3775,   3699,  -8915,  -7872,   6918,  -9758,   -849,  -1852,   1836,   -745,    644,  -2759,   2133,  -2052,   3996,   3078,    304,  -3362,   -338,  -2449,   6170,   5818,   2064,  -3403,   1197,  -1738,   4799,   5484,  -2295,  11886,   2123,   5858,  -3317,   1625,   7622,   3349,  -7064,    180,   3713,   4426,     89,  -4225,   4196,  -3196,   2923,   1262,   4106,   3888,   5177,   3067,   2730,   4310,  -4114,   4287,  -3456,  -5444,  -4108,    980,    383,   2933,  -3390,  -1683,  -3593,  -1771,   5835,   7217,   5027,    609,   4090,   -153,  -8190,   3620,
         -2858,  -4322,   1876,  -7971,  -1564,   4487,    551,   7279,   4231,   9071,   3194,  -3972,   2877,  -5141,  -7560,   2965,   1795,   2809,   5893,  -5924,  -2625,  -3756,   -924,  -1876,  -1850,   2326,   4439,   1517,  -3891,  -3937,   2765,    751,  -6254,   7818,  12326,    803,  -3452,  -3311,  -2183,  12145,   6515,  -3726,    804,  -3721,   3622,  -4025,  -4896,   1560,    -93,  11103,  11982,  -5194,  -2188,  -1275,  -1262,   5988,  -2300,    317,   3038,    782,   7296,   9357,   3177,    474,  -3643,  -4506,   6872,   2822,  -3961,  -4782,  -7169,   4238,   7325,   1310,   2633,   1056,   1663,  -5290,  -1254,   -834,   1319,    808,   -898,    383,    708,   3240,   2545,  -2311,   2796,   6328,   -582,   1770,    952,   -637,   4208,   1782,   2860,  10863,   1278,   1450,   1786,  -5631,  -4741,   2279,   -661,   3484,    768,  -4454,   1609,   1317,  -4808,  -3066,   1346,   4542,  -1171,  -4201,  -1068,   4998,   -552,   1302,    324,  -7010,  -1582,   5067,  -5398,   3968,   6219,  -6373,  -3218,    359,   3455,   2490,   2136,   5750,  -3354,  -6218,  -5460,    863,   5830,   4168,  -1433,   5598,   -702,   5100,  -4196,   2037,   3153,   4256,   3585,  -4687,    730,   -991,   5944,   2699,  -6965,  -2674,   5025,  -4679,   2787,  -4181,   2201,    573,   2347,  -1264,   3753,   3177,  -4779,  12723,  -1810,  -4464,  -3948,  -2519,  -1617,  -9474,   1192, -10992,  -4940,   1078,   6064,   -780,  -3217,   1254,  -1293,  -6272,  11472,  -7804, -17291,  -1740,  -5420,  -6807,  -5384,  -6130,  -2478,  -2138,  -2395,   1353,    405,  -5152,   1373,  -1980,   9219,  -7930,  -5451,   7983,   2878,    201,    511,  -6928,   -545,  -4166,  -1498,   1417,   5300,   2080,   7315,    991,   -870,   -192,  -3574,     70,  -4199,   3215,   1361,   -856,   1286,   2665,   4016,   3831,   1366,  -5827,   4269,   2015,  -3546,  -5621,    630,  -4430,   2254,   2061,  -6393,   4484,    426,   5067,   4815,  -1318,  -3398,   3423,   4516,  -4733,  -3684,  -4710,  -7014,   1829,   3441,   5410,   3701,   2562,  -3859,   7203,   2889,   3434,  -4083,  -4480,   1983,   7765,    867,    691,    786,  -2417,  -5374,  -3567,  -2047,   -328,  -2239,   5229,   3299,   2476,   1552,  -4292,  -1955,  -4561,  -5811,   9162,   7100,   1059,  -3668,    693,  -1542,   8065,  -2077,  -4442,   7176,  -8082,   -891,    891, -13407,   7431,   7760,   1397,  -6459,   7184,  -3263,   3834,   2606,  -3853,   7410,  10474,  -2854,   3214,  -2796,   -818,  -1073,  -1875,   5304,   -520,  -9332,  -1606,    606,  -4799,    528,   3305,  -4154,   5870,  -2984,   4605,   2133,   -345,   4470,  -3340,   6465,  -2039,  -1902,  -4263,    812,   5287,   2049,   4994,   1933,   2026,    492,  10305,   1207,   1654,  15187,  -2424,   2644,   6262,  -4896,   1651,  -4551,    161,   5690,   6409,  -4158,   2654,  -6548,   5131,   2886,   5829,  10942,  -6305,   5437,  -6113,   1427,  -1602,   4910,   1004,  -4890,  -2753,    717,  -1856,  -2977,   3701,  -2381,   2579,  -4199,   -665,   1498,   3333,   1862,  -2085,   3966,  -1172,   1126,  -2454,   3420,  -1597,  -1170,  -3923,  -2610,   4638,   2023,   5187,   -795,    100,  -7097,   -996,   2292,  -2030,    868,   1732,  -1225,   3200,   3237,   1887,  -2450,   2637,   2869,  -5452,   -861,  -1721,   2747,  -3254,   5501,   3741,   1587,   1049,  -8555,  11643,   7316,   -650,  -4642,     18,    574,   3851,   6548,   7013,  -4996,    615,  -1194,  -4854,   2400,   5634,   3532,  10927,   4659,  -3808,   -437,  -2715,  -6184,   -413,  -4831,   3771,  -3946,   9121,   6865,  12741,  11154,   -268,  -3599,   6767,   4660,  -1224,  -5036,   4068,  -7221,   2346,   9176,    177,   2338,   1064,  -5384,  -4117,  -2500,   5654,   5836,   3440,  -4438,   2297,   3119,   3815,   4298,  -3584,   3626,   2917,    714,  -3603,   4009,   2839,   5359,   -999,   3897,   6268,  -6547,  -4230,   -985,  -4541,  -1308,   1977,  -4356,   2065,  -2989,  -2578,   5784,  -2398,  -3768,  -3660,   4732,  -4850,   4024,  -3200,   -749,  -3181,   3730,   2641,  -4832,  -3488,   6436,   3980,  -4483,   2011,   1308,  -1362,
         -1812,   1386,  -3862,  -1535,   2939,   5053,  -3851,     13,   -723,   3124,   5592,    738,   2451,   2591,   5940,   4350,  -2020,  -2035,  -4931,   -195,   1287,   -987,  -2736,  -1018,   2081,  -1517,  -6585,  -3585,   2132,   1902,    668,  -6869,    -15,   8586,    162,  -7596,  -1364,  -3012,  -2041,   7688,   5683,  -4426,   -825,   8457,   -458,  -7127,  -2063,  -9085,  -5364,   2744,   1177,   6004,  -3324,  -3126,   -427,  -1344,  12929,     85,  -6353,    647,  -2707,  -2346,   1542,  -5511,  -5078,  -2080,  -3807,   4579,  -3760,   -963,  -3926,   6172,   6828,   -436,   5528,   4592,  -2852,   5998,   2055,  -9503,   5144,  -3342,   -834,    552,   1757,   6157,    947,  -7586,   4463,  -5600,  -6065,  -3859,   2777,   -217,   1446,  -1750,  -2260,   6839,  -3605,  -3546,  -1970,  -2314,  -4950,   -292,  -4476,    465,  -3188,    -64,   -480,   4217,   1887,   -237,   -769,  -1288,   2596,   -381,   3251,   4543,  -2669,   4327,   -576,  -2169,  -1930,    859,    180,   5728,   -780,  -3734};

    const static Filter<int16_t> statefulpartitionedcall_sequential_conv2d_2_biasadd_filter(statefulpartitionedcall_sequential_conv2d_2_biasadd_filter_element, -15, {3, 3, 16, 8}, {1, 1});
    const Filter<int16_t> *get_statefulpartitionedcall_sequential_conv2d_2_biasadd_filter()
    {
    	return &statefulpartitionedcall_sequential_conv2d_2_biasadd_filter;
    }

    const static __attribute__((aligned(16))) int16_t statefulpartitionedcall_sequential_conv2d_2_biasadd_bias_element[] = {
           313,    359,   -316,    359,    671,    672,    315,   -477};

    const static Bias<int16_t> statefulpartitionedcall_sequential_conv2d_2_biasadd_bias(statefulpartitionedcall_sequential_conv2d_2_biasadd_bias_element, -13, {8,});
    const Bias<int16_t> *get_statefulpartitionedcall_sequential_conv2d_2_biasadd_bias()
    {
    	return &statefulpartitionedcall_sequential_conv2d_2_biasadd_bias;
    }

    const static Activation<int16_t> statefulpartitionedcall_sequential_conv2d_2_biasadd_activation(ReLU);
    const Activation<int16_t> *get_statefulpartitionedcall_sequential_conv2d_2_biasadd_activation()
    {
    	return &statefulpartitionedcall_sequential_conv2d_2_biasadd_activation;
    }

    const static __attribute__((aligned(16))) int16_t fused_gemm_0_filter_element[] = {
         -2914,  -7041,  -7953,   4903,  -4151,   5019,   4064,   8611,  11709,  -2357,  -4763,    276,   7878,   2595,  -3961,  -2692,   6924,  -5402,   2352,   5971, -11159,   9564,  -4576,   1492,   8239,     15,  -2794,  -2697, -11670,   7277,     44,  -3590,   1726,   1882,   5917,   -817,  -2161,   2128,  -2921,  -5660,   1177,    686,    449,  -7296,  -8852,   3235,  -4462,   -473,   -199,   5271,  -4491,   4712,  -2519,   -477,  -3653,    785,   6400,   5026,  -2239,   -122,  -1499,   9079,  -5699,   -397,   3929,  -2676,   4703,   3645,   5333,  -5202,   2556,   7560,  -1696,   4347,     73,  -2316,  -3864,  -3931,   1829,  -6257,  -7706,  -3336,   2157,   -832,    984,  -4249,  -1815,   3033,   1919,   6713,  -1308,  -1514,  -8518,   8291,  -3004,  -8359,  -1515,  -6635,   2268,  -3485,  -4432,   3532,   1077,   9811,  -4348,  -7707,   4592,   4619,   4614,  14641,  -5023,  -4611,  -1504,    597,  -9074,   4160,  -8459,   9086,  -6230,  -2865,   -851,   2468,  -5367,   5369,  -8217,   5540,  -2631,    848,  -4937,   -129,   4985,  -7925,  -1010,   4664,  -4258,    508,   1339,  -2971,  -2630,   1250,  -3203,   8478,   5301,   5047,   3743,   5166,  -5063,   5836,  -2514,  -4562,   3224,   7499,   5945,  -7294,    723,  -1863,  -6151,   5217,  -8276,   2257,  -2292,  -6446,   -132,  -1591,    128,   3048,  -2596,   2902,  -2617,  -5500,  -4529,   5285,  -6374,  11565,   4922,   2901,   -548,   4744,  -1376,   5027,  -8394,   7903,  -6688,    652,   4417,  -6979,  -6990,  -2349,  -5812,  -4846,   2752,  -1031,  -9222,  -4374,  -6092,  -2530,   5991,    168,  -6824,  -5311,   -168,   1353,   4387,   4897,   4614,  10252,  -4733,   5460,   6411,  -8560,  -3366,  -4679,   2021,   7588,  -7170,  -7745,   5119,   3827,   2900,  -7658,   4773,  -5690,  -1377,  -2699,    277,   1297,  -4042,  -5542,  -9263,   5393,  -3257,  -1179,  -8937,   2957,   3622,   3135,   1340,  -2863,  -4330,  -2189,  -3761,  -1110,  -7097,  -3865,  -7686,  -3974,  -1362,     -2,  -8167,   4766,   -309,   3274,  -7652,  11913,  -3977,   7791,   5397,   -993,   7799,   3304,   1100,  -5055,  -2369,   -492,    447,  -6495,    854,  -7753,   2152,   6911,   -524,    208,   -570,  -5335,  -7752,  -5186,   2993,  -2237,  -2535,   3398,   5042,  -2078,   5182,  -6981,  -3390,   7660,   6037,   1386,  -5075,  -5803,   -470,   7215,  -3890,   2390,  -6298,   6051,   5750,   1932,  -5596,    500,  -3036,   3739,  -2125,   5639,   1434,  -6565,   -380,   5651,  -1729,  -1179,   3247,   2998,   2511,   6721,   3951,  -6904,  -6194,   4264,   1561,    834,   -825,  -2615,  -3866,  -7543,   6039,   2340,   4462,     10,  -3744,  -2373,   1930,  -4542,   -791,   3604,  -7374,  -4255,  -3944,  -4518,   -409,  -4302,  -5985,   1449,    256,  -6348,  -1411,   1038,  -2072,   5800,   3223,  -1646,   7301,   6192,  -4539,   4114,   1207,   1747,  -7335,   3566,  -1687,   -819,   3242,  -6624,    403,   1920,   5484,  -1446,   6512,   2594,   2935,  -5186,   3178,   4611,  -8367,   -431,    691,  -6151,  -2086,  -3781,    858,  -1354,  -3531,  -1220,  -3595,  -1378,  -2489,   3187,  -2790,   2536,   7235,   6353,  -5764,  -1099,  10830,   5106,   5490,   5671,  18227,  -4364,    332,  -6701,   4797,  -8489,  -7020,  -4472,  -5994,   6907,   6718,   -142,   2072,   5215,  -5374,  -7905,  -5831,  -5915,  -6468,  -4546,   4601,  -6339,   6273,   3047,  -4453,   5442,    348,  -1584,   8409,   4038,  -1117,  -6819,  -2904,    710,   5884,   2667,  -2290,   3536,   3864,  -3225, -10565,   5281,   5068,   6076,   2685,  -4868,   2301,    412,   3580,  -7392,   3289,   5244,   6569,  -6893,   1410,   5414,  -6644,   3130,   1321,   5833,   2655,  -7329,   -549,   4711,   8170,  -5633,  -3833,   3547,    463,  -3659,   6566,    912,   7054,   2086,    736,  -5246,   5743,    234,   -836,   2208,   1422,   9449,   -427,  -1260, -13407,   5481,  -6154,  -7495,    774,   8935,    362,   2931,  -9765,   1780,   1766,  -7816,   -771,   4564,   -810,   8053,    866,   2306,  -3847,  -8139,  -2934,  -1770,   -278,   6562, -12926,   -810,   -746,   4229,  -5107,  -7755,   3335,  -3610,
          -346,   1442,   4506,   -705,  -1780,   6882,  -7552,   5755,  -4060,  -5219,  -6647,  -1376,  -6413,   -410,  -6398,   1264,   1296,   6652,  -2947,  -6981,   6386,   3688,   -922,  -2489,   4441,   5046,  -7738,   4616,  -2964,   7056,  -6336,  -4424,   6538,    824,  -8395,   3107,   5023,   9379,  -8665,   5161,  -5085,  -3535,  -7083,  -8391,  -7312,  -3318,   6296,   1425,   5135,  -4022,    919,   4520, -10283,   2623,  -1739,  -2063,  -4439,    798,  -2480,   3089,  -3066,  -4622,  -2700,   5519,    387,   3431,  -2175,   -353,  13569,  -4615,  -6074,  -6096,   4825,   3132,  -8600,   -540,   4351,    878,   5435,   1918,   2345,    164,  -6113,  -4820,  -3285,   7497,   3184,  -3753,  -5047,  -4701,  -8563,  -4715,  -3924,  -7696,  -3834,   3527,   -504,  -6485,  -5905,  -2934,   1084,  -4356,  -6630,   1864,   -248,  -2026,  -4936,   -399,  -3669,   2848,  -2580,  -5892,   5251,  -4715,   -889,   3771,  -2075,  -7843,  -1764,  -4908,  -8391,  -6875,  -7765,  -8106,   8482,  -3997,   6293,  -1502,   -664,   5509,   1412,   3851,  11196,  -4016,   2426,  -8831,  -6502,    500,  -1381,   5743,  -9755,   4481,  -8137,  -2246,  -1094,  -2931,  -2828,  -7652,   6731,  -2805,   6260,   -618,  -5094,  -7656,   2637,   3641,   8525,  -3801,  -8218,   -336,  -1284,   3381,  -6053,   2176,  -3815,  -1436,   3818,   5838,   8842,  -7494,  -3738,  -6326,  -1161,   5213,   6711,   5406,   7159,   -528,   4539,  -8149,  -2008,  -5121,  -1457,  -6115,      1,  -6699,   2602,  -1943,  -4329,   1807,   3478,   9005,   5916,  -3231,   3752,    181,   1450,  -2007,  -7485,   -268,  -6248,   5011,   1035,  -6490,  -7626,  -3636,   3352,  -2716,   7454,  -6447,   4869,  -6205,  -4446,  -1891,  -1719,  -1419,   1856,  -3501,   6615,  -5682,   7887,   3611,   6998,  -2310,    469,  -8255,   3999,  -3374,   1449,   5600,   3640,   5423,  -1437,  -5241,   -679,  -4366,   -663,   5170,   -325,    874,   7710,   6610,   4577,  -3495,    409,   1931,  -4732,  -2701,  -1819,   3262,    175,  -1212,   5915,   1343,   4207,   9786, -19331,   6016,  -1861,   -837,   7909,   6799,   1340,   2080,   6391,    877,  -6961,  -4863,  20633,  -5743,   -574,  -5779,  14029,   3325,  -1751,  -9256,   2084,  -3312,  -3596,  -2190,   3046,  -1032,  -2517,  -3497, -11162,   4730,  -5204,   9716,   5737,   5288,  -2038,   3627,  -2040,  -1990,   4331,   1837,  12311,  -6219,   3477,  -3190,  -9564,   3443,  -6662,   6022,   8507,    412,  -3755,  -8997,  -7893,   -123,  -5564,   6462,    284,  -1192,   2714,  -3730,   -495, -10188,    276,   1854,   1579,  -4477,  -2191,  -9108,   -218,  12293,  -6350,  -4646,  -4956,  -4150,   6104,   -274,  14298,   3197,  -4989,   3042,   6828,   3857,   -269,   4968,    897,  -6483,  -6958,  -3006,   4596,  -1637,  -8251,  -2801,   5353,   4643,   6713,   -634,  -6262,  -7846,  -2942,  -2982,   5472,  -5393,     49,  -4960, -13236,   5212,   3482,   4932,   8895,  -3768,  -2854,   4907,      8,    742,  -1429,  -1059,  10343,   3408,  -6511,   2308,  -9077,  -3707,  -7799,  -7196,   -190,  -3876,    197,  -2394,   3202,   5610,   -826, -10333,  -9683,   1892,  -5889,  -1613,   6102,   5681,  -4567,  -4312,   2284,  -7052,   -561,  -7724,   4445,   1236,  -9086,  -9223,   2280,  -3576,  -4858,  -3595,   8615,  -6145,   1653,   2522,  -5223,    859,  -2233,  -1843,   4067,   1548,  -5836,   4085,   7091,   3277,   5464,   4997,  -8415,   -943,  -6068,    724,  -3989,  -4804,   5916,   1204,  -4582,   3930,    463,    343,  -1608,   4846,   5463,   7245,   5738,   4571,   3103,  -3764,  -2639,  -4147,   3304,   2901,  11214,   2459,  -4453,  -7418,   4961,  -2984,  -7050,  -3230,   3092,  -8331,  -6791,   1252,   -629,  -5474,    655,   1957,  -9779,  -1977,    991,   4490,   2457,   1123,   1235,   -509,  -4844,  -3179,  -5037,  -3829,  -3373,  -6296,   3512,   5181,  11281,  -4498,  -8729,   6338,  -4055,   9991,    672,   9968,   7279,  -1115,   1864,   5409,  -1883,  -3802,   3569,   3592,   8091,  -7636,  -3252,  -8386,  -2656,   4699,   3547,  -6227,   3213,  -7599,   1664,    340,   1549,   3679,  -4960,   3239,
          5845,  -5819,   5977, -10585,    999,   4842,   5910,  -2534,  -7796,   7049,   5507,   -267,  -6170,   4664,   5289,   3888,   4710,   -933,  -3038,    113,   5784,  -6408,  -1798,  -2766,  -5865,   1891,  -6980,   6935,   8812,   8489,    572,   2364,  12743,  -7053,   6543,   2379,  -7230,   8419,  -8586,   9295,  -3989,  -8686,  -5257,  -7126,   2906,  -2734,  -7309,  -4601,   4999,  -4851,  -7362,   6348,   5504,   5799,   7134,  -6689,  -6084,  -3888,  -6658,  -6818,  -2847,   4547,   3969,  -4304,   7351,  -7777,   -872,    426,   9707,    690,  -7653,    738,  -5959,  -1167,  -5625,  -7998,   4593,   8858,  -2840,  -2984,   4683,  -7012,   1033,  -3112,   3755,   1487,   6887,    283,  -3355,   2641,  -2364,  -6629,  -3860,    219,   7416,  -3774,   -985,  -2742,   1029,  -6954,  -2412,  11552,  -4181,   7872,   7033,   3590,   -401,  -4175,  -2672,  -3898,    243,   1731,   7168,  -6084,   6154,  -1489,   1700,  -7125,   5999,  -5856,   -417,  -3219,   6615,   2195,     36,   3012,  -4602,  -3513,  -3967,  -3907,  -7183,  -5289,   4412,   8622,   1481,   2631,   6759,   -859,   3850,   4984,  11784,  -5901,  -4332,  -2016,   7108,   1194,  -4549,   5557,   6731,   5820,  -5855,   9822,   1246,  -1572,  -4932,  -6388,   3771,   1041,  -7973,    770,  -6417,   4702,  -3148,  -3972,     83,  -5847,   1054,   5033,  -1096,   1726,  -7586,   5617,  -1287,   1754,  -2755,   8522,  -2865,    258,  -4023,   6803,  -8169,    165,  -1198,  -1291,   1318,   3752,   4248,    315,   9103,   5038,   3245,   4337,   6996,    785,  -7205,  -1481,    527,  -3082,  -5742,  -1738,  -1481,   7227,   6618,   5019,   4060, -15676,   6548,   6144,  -2262,  -7729,  -5602,  -6619,  11012,   1347,   1735,  -1426,  -6179,   4284,  -7234,  -5176,   2569,   4985,   5227,   7669, -10889,  -1294,   1540,  -4942,   8469,  -4125,   5039,  10098,  -1763,  -5572,  -7708,  -4986,  10451,  -6099,   5291,  -4787,    805,  -2410,   4099,  -5119,  -1466,   2682,   6658,  -6142, -11369,   -567,    139,  -4506,   3975, -13532,  -5027,   9153,  -1490,  -7896,   5025,   3631,  -4948,   8261,  -1197,  -2435,  -5140,  -4770,  -7703,    463,   -176,  -4704,   1952,  -1617,   7739,   2815,   1532,   2503,   4603,  -4313,  -2918,   -829,  10428,  -3154,  -3731,   2329,   -844,   6534,  -6083,  -7222,   2726,  -8936,   5368,    985,  -3908,   2282,   2167,   5173, -10017,  -4453,   -739,   4974,   2686,  -7430,    739,   4169,  -2239,   2836,  -2095,  -8000,   -470,  -4281,  -1492,  -1508,  -8770,   -692,   5474,   5214,   -559,   4039,   -353,   7872,  -4026,   3744,  -2442,   2430,   1898,  -3054,   -283,  -1153,   -962,  -4718,  -5416,   5719,   1110,   6990,  -2668,  -5533,   6535,  -8575,   3477,    -40,  -4586,  -2775,   4997,  -2554,  -5713,   -333,   4312,  -1351,   5170,   -584,  -1465,  -6272,    339,  -6111,   2177,   2717,  -2075,  -4800,  -4994,   7821,  -5784,  -6584,  -2473,   2103,   4803,  -2906,   6418,  -1770,     15,  -5827,  -8295,  -6313,   7487, -10404,  -7125,  -2629,  -9058,   1789,   3588,   4181,   7931,   7732,   1705,   -185,     92,  -3351,  -4924,  -2948,  -1748,  -4306,   2690,  -4450,  -1624,  -7128,  -4907,   5054,  -1526,   5075,   6655,   1774,   8673,  -1522,   1438,  -3385,   5178,  -5873,   5315,  -4893,  -4114,  -8174,  -8855,   5402,    380,   3722,   6721,   1259,   7626,   -340,   3107,    874,   1183,  -3366,     53,   9401,   8241,   5414,  -7392,  -7657,    309,  -2061,  -5448,   7405,  -3369,   1276,  -6446,   6509,   3785,  -3721,    498,  -1408,   4273,   2178,  -4211,   2078,    -25,   1865,   6841,  -5932,   1836,  -5394,   4846,  -8235,   7054,   4206,  -8532,    596,   4815,   2491,  -1797,   5059,   8444,   -415,  -2999,     52,   1534,   5104,  -2036,   3143,   2401,   -274,   7246,  -6915,   1738,   5338,     60,  -3873,  -4251,  -3984,   3386,  -1767,  13030,  -8630,   4947,  -3626,  -6531,   3884,    605,   1704,   5933,  -5162,  -1552,  -5462,  -1885,   7555,   4580,   4063,   7248,   7431,   -119,  -1965,  -3159,     66,  -4099,  -5036,  -6595,   5352,   3733,    271,   8927,  -3838,  -3167,   3476,
        -11897,   -704,   5261,   6930,   4422,  10313,   -268,   2054,   4904,   4213,   3465,  -9111,  15025,   3103,   -390,   2115,  15866,   4429,  -2413,  -3038,   5554,  -7757,  -2954,  -3688,   6093,  -2188,   4120,  -8102,   3048,   2961,  -8017,   3041,   7769,    998,   5673,   2520,    754,  -2030,    869,   2781,  10940,  -1087,  -1462,  -5933,  -7225,  -9622,  -8399,   5546,   -561,   3219,  -4240,   4843,  -6051, -12858,   2782,   2982,  -3560,   4470,  -4154,   3030,    373,   -166,   2565,  -1886,   1918,  -1962,  -5438,  -7985,  -7156,   4606,   6699,   8011,  -8443,  -3714,   2190,  -6479,  -2873,  -4304,    886,  -2392,    876,   3713,  -3050,   5170,  -2388, -10083,   7147,   -294,   5995,   -437,   -504,  -8824,   6663,   -262,  -2977,    193,  -8128,  -8163,   4006,   -538,   5226,  -6459,   4606,   6749,   -157,   1037,  -8898,   4125,   1204,   -562,  -4987,   5355,  -9310,  -2604,  -4473,   2628,   7719,  -2043,   5497,  -5328,  -4193,  -6985,   3421,  -5191,   6618, -10885,   2490,     90,   7813,   3412,    716,  -1562,  -6604,   6001,  -1233,   5980,    213,   1251,  -4109,   5686,  -4785,   6950,  -6968,   2394,  -1470,   1332,  -1953,   -454,   -758,   2207,   4463,   7583,  10961,  -3590,   5679,    965,   7435,   2964,   2660,  -5198,   5038,  -8520,  -6862,  -2592,  -4874,   3037,   3417,   5628,   6330,  -5557,  -5563,  -1235,   7598,   4233,   3696,   9796,   1598,   2670,  -6564,   2583,   3144,   5232,  -3796,   1979,  -9216,  -5654,   5847,  -3246,    570,  -5700,  -2838,   9176,   1932,  -5882,   5217, -10482,  -5684,    273,  -7143,   7160,   4076,   1919,  -6368,   -564,   3237,  -4055,  -3419,  -4796,   2939,  -2287,   1877,   2045,   2504,  -1620,  -4221,  -2433,  -1533,  -1616,   3584,   5810,  -1356,   -209,  -6796,   1192,   6979,   5202,   1640,  -2513,   2604,  -2411,  -1763,   9609,  -5747,  -7766,    426,  -6857,  -1264,   4654,   1025,   -742,   -656,   3603,   2965,  -7846,  -4598,  -5152,  -5621,   4337,   5487,    232,   3859,  -1666,  -3980,   1815,   7441,  -3960,   9188,   -142,   1691,   4992,   5741,   1797,  -6752,  -4004,   2644,  -1424,  -4143,   6221,   -702,   8309,   3935,   5022,    882,   4186,   5366,  -8769,   5014,   4157,  -2841,   -411,   6812,  -3058,  -2985,   4857,   1042,   5448,  -5331,  -7334,   3814,   2625,  -4193,   5205,   5041,   2212,   2433,   3689,  -4818,  -3860,  -2735,  -4669,  -1731,   2464,   6151,  -1660,  -4149,   3023,  -7783,   4811,  -6080,  -5044,   1467,  -3289,  -2363,   1383,  -3114,   2126,  -4428,   6000,  -6540,    123,   8463,  -3644,  -6659,   2417,   8004,  -7027,   4574,  -6159,   6659,    187,  -2619,   1670,   1705,   3419,   6530,  -1857,   3741,  -4051,  -5336,   2362,   -448,   2770,   4877,  -2638,   1389,   3811,   4444,   3719,    208,   4563,  -4363,   5951,   5318,    179,   2911,   2730,  -6088,   6772,  -4090,  -1257,   2328,  -6479,   3033,   1850,   1623,  -4104,   5813,   5767,  -3394,    -64,  -1723,  -5752,  -3111,  -3340,  -7642,   4455,  -3576,  -5081,  -6614,   5668,   1729,   -547,   6068,   5579,  -2466,   2797,    -48,  -1943,   2322,   4430,     19,   3491,  14084,   2846,  -3095,  -7517,   3386,   1951,  -6766,   -989,   5592,   2270,  -4109,  -9112,   -222,  -4884,  -6222,   5626,  -4319,   2188,  -6927,   6271,  -9482,   5556,  -1146,   7223,   6354,  -6885,  -3616,   1972,   1607,  -3803,   -663,  -3367,   -258,  -8748,  -1708,   5658,  -1780,  -3642,     76,   7501,  10122,   3027,  -3465,  -1525,  -7902,   1216,   -103,   4097,   4673,  -3877,   6031,  -3881,  -3119,  -5092,   2077,  -3794,  -5992,    466,   4908,  -5104,  -4623,   3979,   1151,  -6723,   2375,   -593,   -403,  -3886,  -4102,   2956,   4246,   5560,  -4760,   1895,  -7159,   6055,   1733,  -2666,  -2547,   1412,   1812,   6187,   5761,  -4686,  -7824,    924,  -1338,   1009,  -7427,   -691,   -902,  -3166,  -2279,   8468,   5395,     28,   4101,  -2150,   6242,  -9035,    897,   -174,    794,    265,  -2259,  -6315,   5666,    454,    120,   4821,    592,    126,  -1015,  -6874,  -3416,  -2998,  -9643,  -1940,    442,   -205,
         -9273,  -2753,   2855,   2621,   1006,   7198,  -5268,   6760,  -7483,   3687,   2378,  -1990,  -1473,   -146,  -2746,   5038,  -4480,  -7769,   3064,   3560,   5401,  -7508,  -8060,   -478,   7767,  -6572,    595,   4850,  -5524,  -7635,   2326,  -5066,  -7654,  -6562,   4575,  -6149,   4969,  -3865,  -8785,   8934,  -1450,  -8658,  -7007,  -3768,  -4930,   9857,  -5160,   1946,   9702,   3028,   2507,   5896,  -4324,   5036,  -5086,   -396,  -8015,   6475,  -4309,  -2178,  -2673,   -606,  -5163,  -1246,  10286,    305,    -24,   3137,   6582,  -2384,  -2332,  -6216,  -7871,    982,   4455,  -6866,  -4742,  -2271,   2709,  -1079,  -7363,  -7643,  -4803,   2416,   6074,  -4861,  -7681,   4241,  -7602,   6305,   -157,   3336,   7121,  -2731,  -6121,  -5145,   -973,   1646,    800,  -6281,  -6450,    810,  -9112,  -2723,   -318,   3951,   2309,   5649,  -6692,  -7369,   6671,  -3360,  -3506,  -7187,   3370,  -1121,  -7880,   4513,   7427,   7787,  -8878,  -4930,  -2899,  -8187,  -2999,  -8439,   -168,   2561,  -6413,  -6399,    518,  -4752,   4651,   3364,   6072,     16,   7924,   3779,  -5440,  -1272,   3134,   8724,  -5404,  -6077,   4945,  -8672,  -7592,  -6810,  -2346,   2285,   -203,  -8331,  -6196,  -4782,    210,   -598,  -3213,   4502,  -3807,  -2231,  -1003,   -408,  -4835,   1033, -10912,  -5114,   3890,  -4522,  -2610,  -3388,   1737,  -8867,  -2646,    530,  -3931,   7370,   1212,  -6622,   7766,   1039,   5083,    325,  -5325,   3719,   4375,   5488,  -3177,    469,  -7102,   6579,   6325,   9485,   2450,  -1243,  -7629,  -7157,  -1061,    651,   -414,   -681,    222,  -4664,  -3190,   3996,    728,   8842,    469,   7657,  -3691,  -2140,  -8843,  -2733,  -4598,   1153,  -6379,  -2945,  -1934,   1214,  -8461,  -5816,   5341,   4310,   -548,   -893,  10966,   4365,   -719,  -1818,    224,    341,    961,  -4687,  -2297,  -3598,   2674,   2686,  -7082,   3539,     80,    867,  10921,  -3625,  -5255,   2765,  -4971,  -5950,  -2402,    498,  -6183,    313,   6170,  -1014,  -7838,  -5253,   4291,   9064,  -3928,    744,  -8253,  -5004,   1916,   7456,  -2537,  -1779,  -5643,   2137,   6525,   3273,   4595,   8040,   6458,  -2663,    469,   3622,  -6703,   6204,   8800,  -7168,    -38,   1727,  -9391,  -4706,   6123,  -2554,   2642,   9869,  -4275,   4427,   5315,  -1027,   2921,   4343,  -2143, -12481,  -9619,   2738,  -2807,   2389,  -8978,  -4738,  -4242,  -4399,   -856,   7164, -11221,   1226,   3939,  -8956,   5541,   3796,   6828,  -5435,   1086,  -3609,  -8577,   1520,  -2801,  -8396,   1331,  -2092,   8450,    326,  -2796,  -5440, -13178,   8326,   2286,  -3847,  -7367,  -2199,   2977,  -6545, -11070,  14534,   -966,  -2016,   4868,  -2695,  -4805,  -2442,    263,   2659,   5024,  -3737,   4225,  -3664,  -8194,  -2040,   1920,   8718,    817,  -2275,  -9620,   6294,   5087,    834,  -9630,  10725,  -7205,  -1291,  -1984,  -6619,  -6680,   1555,   4565,   9105,  -2931,   8749,   2342,   2918,   1896,  -5868,  -9654,  14232,  -3029,  11209,   4769,    486,  -7176,  -8391,  -2404,   -101,   4971,   3413, -13622,  -1548,  -4830,  -9434,   4350,  -3892,    130,  -1271,  -1172,  -4581,  -3304,    486,  -5035,  -1598,  -8398,    400,   3883,    895,  -2091,   3452,  -6498,   4778,  -2579,  -4134,   -543,  -2220,  -6434,   5811,     26,     56,  -2606,  -7403,  -5116,  -7019,  -7188,   3770,  -6495,   8454,  -3051,  -1305,  -4265,    632,   5797,   2160,  -2783,   8629,   4043,  -3580,  -5707,   1158,    523,   2528, -11893,   5277,   -405,   5578,   3226,  -3444,    150,    955,  -9865,  -4571,  -7509,   9330,  -3925,  -6023,  -4974,  -1757,   2071,  -1214,   6575,   6685,  -5518,  -4754,    567,   4339,   1544,  12278,   3913,  -1807,  -2448,   6284,    141,   -281,    141,  -2537,  -2095,   6961,  -5732,    569,   5766,   6821,  -4063,  -2451,   3743,  -1348,  -5284,  -7305,    413,   3560,  -2855,   2058,   1823,   2803,  -2106,  -6446,  -5081,   3511,    182,  -3965,   5690,   -158,   1835,   6132,   6391,   6870,    741,  -5406,   1602,  -3683,  -6553,  -2610,  -2429,  -4795,   1630,   4704,   4867,  -5322,
         -1916,  -6067,   7180,  -5778,   3480,   1498,  -4741,  -8478,   2511,  -6186,   2597,  -7997,  -3316,   -981,  -7951,  -4586,   5159,  -5220,  -9098,    547,  -2016,  -5677,    529,  -3467,  -5626,   1617,  -2370,  -4859,   7282,   4461,   1621,   2183,  -5922,  -6335,  -1571,  -4408,  -9446,   2166,   4450,     90,   2729,   2330,   2816,  -7548,  -3568,   8896,   3651,  -3873,    734,   4499,   5161,  -1168,   1485,   9777,  -4224,   8947,  -1619,  -2769,   -945,  -7960,   3538,  -2714,   1242,   2594,  -5991,     79,  -6378,  -2175,   2073,  -2219,    559,    914,   5006,   5023,  -6840,   4203,   1468,  -2545,   3971,  -8028,   1189,   3722,  -4891,   6482,   4170,  -4330,  -2819,   6443,  -3649,  -7753,   6676,   1294,   8417,   2933,  -3599,  -3642,  10024,   2278,  -1728,   2540,  -3702,   2118,  -9739,   -560,    859,   4001,  -2391,   6114,  -6692,  -3173,  -5183,   4854,  -2247,  -4044,  -6136,  -6588,    781,   4497,    -75,   6778,  -9158,    566,   2050,   3851,  -1764,   6819,   5797,   1646,  -2837,   -610,   5322,    110,  17297,  -9210,   3530,   1256,  -4176,   4743,   4681,   4179,   1197,    563,   5442,  -6550,   2877,    148,   3712,   -732,   -444, -12277,    967,   1298,   6860,  -4212,  -7583,  -8487,   5753, -13379,  -4597,   8040,   2945,   2991,  -4747,  -4152,   6153,   2729,  -7857,   8812,   -603,  -6376,   2156,   3433,   6039,   -336,  -4293,   2481,   9789,  -2913,  -1088,   1432,   6069,  -9343,   4739,   5442,   -672,  -6784,  -1270,  -3582,    264,  -1900,   1948,   1373,  -3657,  -2616,   5299,  -1730,   1397,  -6216,   5391,  -7179,    544,   6280,   4150,  -6988,   7134,   2049,   3782,   3231,  10196,   6878,  -8832,  -5255,   9682,  -4081,   2508,   8668,   6896,   4625,  -2857,   -269,   4915,  -8015,   1591,  -2123,   8643,   2897,  -3829,  -1212,  15219,  -2813,   3654,  10290,   4070,  -3029,   5672,   7160,  12917,  -4589,  -6109,   8825,  -2830,  -6487,  -5164,   5905,   2513,  -3895,  -4340,   2034,  12427,  -3420,  -6280,   3168,  11420, -14107,   5886,   5781,  -5261,   4593,  -7199,    752,   4989,    901,   6264,   9504,   7734,   5559,   -465,   6862,   6929,   1252,   2652,   5345,  -1346,   5728,   3378,    -73,  -3524,   9316,  -4694,  -5869,   9462,  -5971,  -2430,   2752,   2155,   3313,  -4700,   5103,   9901,   3480,  -3484,   5706,  10731,  -3040,  -2295,    -10,   9151,   3492,   2420,   7132,  10631,   2996,  -6938,   3571,   -313,  -3971,   2298,   6252,  -5277,  -1175,  -1202,   4903,  -4194,  -7754,   2517,   1733,   9447,   4648,  -8056,   2940,  -3044,  -4653,  -3235,   2158,  -1605,   9231,  -1106,  -9761,  -4450,  -2758,  -5518,  -4526,   5818,   6250,  -2605,   5858,  -4703,   6233,   2479,  -4331,  -4162,   6250,   1048,  -4119,  -1933,   6546,  -4222,  -2162,   9907,   1198,    156,  -4133,   7921,   3333,  -5977,   7902,   5291,    191,  -4377,   4876,   1463,  -2561,  -1085,  -5426,   3448,  -5417,  -5487,   7737,   4827,   3749,   5732,  -4549,   6847,   9037,   -415,   2892,   -269,    -20,   2343,    155,   3789,  -1680,   1709,  -4345,    811,  -6809,  -4311,  -3721,  -4758,  -3803,   3656,   4591,   -149,   2286,  -4138,  -3277,  -2499,  -6313,   4542,  10239,   4973,  -4265,   1606,  -7742,   2302,   3557,   -418,   2602,  -3397,   2015,   3849,   6255,   8291,   8075,   3105,  -7733,   4349,   2801,   -848,   2484,   4379,  -9971,    -12,  11620,   1324,  -2662,   -547,    416,  -1823, -11064,  -6662,  10724,   3237,   6828,   6126,   3579,  -2253,  -3053,   4087,   9412,  13616,   1531,  -3180,  -8372,   9407,  -9923,   2984,   3166,  -5417,  -3935,  -6431,   5152,  -6088,   7040,  -2296,   2884,   2921,   1310,   -821,  -2280,   2915,  -7244,   4536,  10247,   1374,  -3679,  -7128,  -1295,  -3871,   5852,   4823,   -290,   8663,  -7788,   2377,  -7502,  -1266,   -495,   3289,   3373,   9626,   4920,  -3832,   2253,   -338, -10747,   4420,  11524,   2059,   2989,  -7973,  -8531,   8648,   6738,   3995,  -2834,  -3199,  -1609,   7402,  -3857,  -6207,    553,   2468,  -4587,  -4826,   -275,   4495,   2471,   5140,   1695,   1316,  -4698,
          -330,  -7524,  -5192,   7602,   4727,   1673,  -1157,   5974,   2594,  -5611,  -7173,   1400,   3362,  14984,  -2887,  -8956,    754,  -7695,   4294,     91,  -8469,  -5983,   5576,   1483,   9098,   5251,   1583,   6637,   2507,  -3549,  -4934,   2896,   1099,   4873,   3941,     54,   -784,   6824,  -5027,   -803,  -3985,   6535,   2646,  -3103,  -7134,   4438,  -6062,   3652,   7014,  -8184,   1561,   6365,  -3599,  -5761,  -5949,   1390,   2807,  -4397,   4970,  -8087,  -2915,   6368,   3327,   1123,  -4886,   7186,  -5615,   5767,   -255,  -2244,    596,   -248,  -6785,   -803,  -2979,  -6464,  -3638,   4825,  -8915,   7575,   5363,   3228,   4141,  -4710,  -6846,   3651,   1147,   5826,    599,  -2970,  -1091,  -3990,   5190,  -5460,  -2002,   3112,   8489,  -7371,  -6528,  -5999,   6887,   1556,   5189,   1887,   5562,   3292,   1131,  -3946,  -3727,   9308,  -2859,   1696,  -5735,   2526,   6002,  -7882,  10144,    856,   5749,  -5501,   7178,   4064,  -6957,  -2784,  -1071,  -2992,  -1786,   -777,  -2518,  -3407,  -1986,  -3212,   9999,  -4015,  -3517,  -2639,   3662,  -2486,  -4851,   4623,  -5038,  -2584,  -7772,   9902,   1578,  -6456,    267,   5118,   7471,  10956,    375,   4014,  -1452,  -6408,  -6354,   5466,  -7869,  -8487,  -3648,  -4248,   9268,   2849,   -592,   5096,    128,  -2994,  -2872,   1249,  -3419,  -6940,   5675,    367,  -3690,   5160,    874,  -1671,   4230,  -8046,  -7764,   3163, -10733,   6196,   6849,  -3074,  -5629,  -7631,  -3936,   5110,   2898,   5880,   2426,  -6223,  -1946,  -1131,  -1919,  -5525,  -8976,   7401,  -1749,  -2707,   5159,  -3049,  -2741,  -1739,   -774,  -4894,  -5153,     61,  -2093,   4244,  -8522,  -5697,  -6096,  -4702,   1390,   3856,   4977,  -5052,  -6097,   3469,    111,  11711,  -1245,  -6928,   -369,  -2689,  -1178,   -491,  -4481,  -3097,   -329,  -5240,  -7374,   6224,   7738,  -3874,   5658,  -2798,  -3337,   6451,   3709,   3262,  -7657,  -3392,   5038,   7348,  -6421,  -2333,    510,    -39,  -1534,   2099,    778,   6507,   2538,  -1880,  -3564,  -6641,   3580,  -2546,    240,   7574,  -4074,   5817,   6219,   6761,  -2246,   6025,   5866,   1922,   1121,   6890,   6133,  -2378,  -8650,  -5317,  -3319,  -6771,   3920,   7349,   1403,    690,     77,   6231,  -6691,   6335,   4434,  -6981,  -1893,  -3530,   2459,   6477,   1405,   2976,  -1197,  -1311,   -660,  -7107,  -1760,  -6840,   8883,  -8254,  -7941,  -2793,  -5484,   4090,  -8495,   7249,   6315,  -3134,  -4517,    561,  10119,     38,  -7527,   4517,  -1448,  -6682,  -5670,   4910,  -7657,  -7875,  -3292,  -4618,  -5958,   9737,   2138,  -9285,   2376,   4313,    950,  -3831,  -3378,   2847,   4017,  10664,     68,   6883,   5955,   6551,  -5344,   8162,  -1980,   2539,  -5761,   6208,  -4772,  -7852,   4317,  -3293,  -1813,   2173,   9735,   5618,   1502,    832,   2841,  -9087,  -1213,    218,  -5045,   6316,   6555,  -3461,   6753,   7792,   1519,    289,  -5063,   4732,   4815,    -24,  -3493,  -1975,   5007,  -6504,  -1973,  -3297,  -5136,   1765,   6839,  -4014,  -1478,   2950,   -599,   3601,  -3100,   5361,  13889,   4810,   1697,  -8126,  -4134,   6455,  -6722,  -4305,   -835,    794,   6206,  -7696,  -5320,   2717,  -7215,  -6189,  -3674,  -4731,   2562,   4080,   8313,  -1926,   1235,  -4476, -11486,  -9363,   2808,   7245,   1373, -10545,  -4940,  -2501,  -5292,   2420,   3539,   1886,  -6069,   2517,   -558,  -1482,  -7721,   1490,   3233,  -4131,  -8458,   3945,  -6517,  -1348, -11589,   3638,   3338,   -502,  -6905,   1174,  -7807,  -3751,  -3936,   5054,  -5974,  -3986,   4589,   3806,  -4720,   2751,   5642,   -906,   5767,  12113, -10261,   3957,  -9157,   1592,  -1907,   1768,   6520,   2378,    925,   4534,   4190,    585,  -8798,  10271,   1511,   3696,   2664,  -1495,  -6862,  -3925,  -4077,  -4180,  -8325,   -332,   8452,    -24,   5025,  -6331,   -266,   1679,  -6776,  -2552,   2880,   1139,   1553,    746,   4236,   2001,  -2007,    186,  -1355,   -885,  -5124,   2444,   2030,  -3746,  -3753,  -8060,  -7344,  -5397,   -880,  -8453,   6869,   6308,   4314,  -6528,
         10660,  -5512,  -4234,  -1035,   6950,  -8717,  -3621,   5860,   6270,   2985,  -9114,  -6529,   3571,  -2923,   4466,   -431,  -6555,  -4509,  -8524,  -8644,   7531,  11035,  -6144,   2181,  -2959,   4332,  -2605,   5875,  -3212,   6611,  -6221,    811,   3829,  -1445,  -6257,   6446,   4293,  -2193,   2480,  -4338,   4002,   2774,  -1795,   4770,   7464,    236,  -6345,   1948,   1759,  -3691,  -2042,  -2053,   1939,   1202,  -2088,   4876,  -3538,  -1047,  -8780,  -1179,    958,   7900,   2579,  -2276,   5321,   -890,   1327,   2601,  -4965,   3698,   7089,   6522,  11002,  -4643,  -7477,  -3366,  10359,   2082,   -609,   7809,   3222,   6538,   2042,  -7808,   9354,    548,  -8607,   7920,   4144,  -3830,   2675,   4177,  -6397,   1963,  -3487,  -6024,   5074,   -799,   4749,   4481,    124,  -8211,  -5376,  -2243,    963,  -3034,  -1807,  -6031,   7398,  -2506,   2870,  -1468,   3169,   3167,   2132,   6713,    667,  -3563,   6085,  -6990,   1279,  -8277,  -3052,   4675,  -4333,   4166,  -6974,   5570,   6973,  -2752,   4802,    423,  -1287,    155,  -8322,   4101,   7745,  -3612,  -3324,  -5638,   8038,  -3902,   1543,   -975,   2116,   2356,   2182,   2651,   7629,   4504,   2226,   5066,  -4970,    260,  -3120,  -5453,   4954,  -5583,  -3289,   6971,   1220,  -2578,   6208,   1546,   7627,  -8224,   1959,  -2922,  -2812,   6523,   3428,  -1907,  -2396,   4619,   3061,   -816,   3372,   1385,    897,  -8170,    140,  -5633,   2038,  -3000,   5712,   3863,   -280,   6757,  -5731,  -3835,  -5174,   6186,   2073,  -5945,  -4846,   3308, -11169,   8949,  -4840,  -9711,   5516,   6029,   5718,  -5267,   9416,  -3534,   6081,   -267,   4357,   6341,   2373,   3750,   9455,  -3946,  -5698,   5874,   6644,  -5070,  -2465,  -7245,  -1759,   3471,   7337,  -5359,   4324,  -1403,  -5068,   1799,    389,  -6017,   3365,  -1318,   2669,   3068,  -7999,  -7436,   3785,  -5910,  -1974,    595,   -784,   2241,  -3316,    210,   1901,  -4367,  -1651,  -6213,  -6193,  -1898,   1466,  -4023,   1977,   2441,  -1332,   6232,  -2186,   -492,   3939,  -4375,   2626,  -3765,   3077,   3416,  -5823,   -677,   3869,   5943,   8953,  12973,  -5469,  -9229,  -2822,   3613,  -1142,  -1074,   -928,   -348,  -6673,  -2660,   5428,   5559,  -3287,  -3344,  -5744,  -2228,   2667,  11837,   3681,  -3698,   5484,  -1473,   2911,   5714,  -4576,   4526,   3844,  -4940,   1270,  -6746,   -430,  -4829,  -5117,   3219,  -2545,   3889,   2816,  -2022,  -6475,   7530,   5456,   5557,  -4809,    861,  -8584,   2106,   2526,   7464,   5519,  -4410,   3583,  -3130,   3262,  -5145,  -8376,  -6637,  -4024,    -98, -12415,   -915,  -5606,  -5108,  -3240,   3813,  -6539, -12002, -10770,  -5599,  -6748,   3176,   2155,   5043,  -8359, -12754,   5892,  -3050,  -5198,   6013,   -159,  -2241,   -740,    659,   8098,  -9492,   4576,  -3006,   9505,   9539,  -1092,  -1174,   -840,  -7483,  -1559,    232,   9215,  10730,  -4421,     61,   -203,   7250,   1795,  -7753,   5288,   -748,   1500,     14,  -3210,   -702,   2415,   5833,  -3949,   7426,  -8177,  -9212,   9219,  -3577,  -6807,  -5877,   8332,  -2871,  -2723,   5902,  -2573,  -1103,   6398,   5131,  -2326,  13253,   6307,  -4235,  -7091,  -3256,    808,   4469,  -1303,   8580,  -2451,   4748,   5852,  -5374,   -856,  -2707,  -6518,   5744,  -2512,   6157,  -1061,  -9613,  -6171,  -3055,  -2668,   4040,   1809,   7105,   -498,   -746,   4301,  -6633,   5720,   7363,   4067,  -4210,  -7960,   1196,  -3596,   2143,  -6223,   3337,  -2583,   -901,   3976,  -6420,   5481,   3879,   4971,   -480,  -1906, -10814,    740,  -4936,   3407,    397,  -2316,  10525,    168,   3545,   8335,  -6327,  -7316,  -1217,   3747,   3507,    294,  -9600,   7503,  -8394,  -3072,  -4696,   5969,   7889,  -3593,   1081,   -768,   1380,  -2117,   5621,   4151,   3496,  -2997,   2033,   9165,  -1568,   1057,   3393,   3773,  -9786,  -3669,  -2484,   2674,  -6216,   5714,  -3073,   4267,   7740,   -345,  -3840,   6776,   -880,   6682,   3335,     79,   1561,    135,   2649,   2649,   6471,   5048,   5763,   1617,   1436,  -6985,  -1401,
          3660,   5948,  -6858,   7044,   8221,   8289,   2222,   2730,   8958,   6367,   1096,   6491,   7079,  -6751,   4758,  -1696,   6478,    895,  -9100,   6463,     28,  -5157,  -8677,  -2200,  -6807,  -8603,  -5772,  -1056,   1200,   7782,  -4686,  -4071,   2131,  -6623,   4164,  -3331,   -497,   -684,   1662,   5074,  -2180,   6320,  -7820,  -6656,  -4133,   6567,  -1731,  -3210,   4609,   5522,  -3363,   4021,    769,  -2522,   7155,   3805,   4801,  -8383,  -2270,   6855,  -2061,  10702,   4550,   5067, -12318,  -7667,  -1835,   1795,    269,   5489,   3535,  -1187,  -3152,  -4929,  -7264,    -98,  -1858,    212,    868,   1007,   8893,  -4458,  -7346,   2525,   9657,  -1669,  -1524,   6897,  -7856,  -1474,  -5620,   2564,  -5678,  -3271,  -8129,   2430,   2062,  -1979,   5038,   1745,  -1819,   4155,   2112,   6849,   2623,   5392,   1462,   1958,   2494,  -3963,   2996,   3986,   2473,   1878,  -6888,   1398,   4545,   7839,  -2064,  -5399,  -4647,   2688,   5202,   5772,   8789,   3097,   2340,  -1048,  -7663,  -6604,  -8138,  -3160,  10845,   3448,  -7262,   6421,   6385,   5847,   4866,  -7512,  -3998,  13084,   -954,  -8448,   -650,  -8744,   6207,   1389, -10645,   2994,  -5491,   8712,  -6256,   1162,   4283,  -2789,   -821,   4401,      4,   8431,   3157,  -9990,  -2900,  -3701, -10575,   8374,  -2944,  -5255,    679,  -2602,  -5467,   5499,  -2554,   1346,  -7263,   2843,   2841,   -971,   3303,   -544,  -2358,   1183,  -8421,   5644,  -4012,   4150,   4553,   1154,  -2500,   3783,  -5603,   9050,   7972,  -2753,  -2661,  -4620,  -9453,   1591,  -7579,   2926,  -3727,   3718,   2815,   -549,  -1363,   7019,   6310,   3063,  -5705,   4510,  -2874,  -7841,  -2062,   2321,  -7974,   2227,   4299,   2404,  -3508,  -5536,  -2093,   1079,   4988,   -835,   3782,   3922,    920,   6669,  -1575,  -3497,   -657,  -4126,  -2064,  -1165,    479,   1524,   9829,  12604,   2815,  -1129,   7639,   2533,  -8233,   4679,   6980,     62,  -7030,  -1436,    606,   4867,  -1201,  -6855,  -3802,  13022,   6739, -12429,  14727,   3405,     49,  -6102,   7769, -10913,   7071,   -933,   1296,   6555,   -458,  -1177,  -3496,    698,  -2360,  -6899,   7277,   5634,   1737,   3839,   8469,   7713,   1294,   -647,  -3648,   3419,   4879,  -2406, -10528,    970,  -5680,   -380,   1665,   1940,  -5656,   4660,   6569,  -3377,  -5212,   5448,  -6701,  -3630,  -4632,  -8395,   5273,  -2626,  -1919,   1236,   2758,   1754,  -3600,   4160,   3669,   4401,  -2538,   -134,  -3846,   5546,  -2281,   4373,  -1747,   6016,   5086,  -6132,   4484,   2317,   1894,   -298,  -1873,   -459,   3393,    824,   7054,  -7749,   3756,   4963,  -4949,  -4591,  -1466,   9021,    -30,   6232,  -4338,  -2116,  -1858,    862,    384,  -6367,  -8108,  -6195,  -8608,   3886,  -2836,   3314,  -2267,  -7081,   5387,   4654,   4618,  -7584,   8546,  -3309,   3511,   5994,  -4518,  -3380,  -7096,  -1331,  -2164,   7587,   3053,   -211,  -5639,   6809,   1274,  -4274,   2884,  -1505,  -1812,  -3973,   3698,  -4014,   3698,   5426,    382,    683,  -1622,  -4570,  -3072,  -7749,  -6949,  -3458,  -4934,  -2475,  -7571,  -1284,  11727,  -7634,  -3787,   4252,   3389,  -4251,  -4668,  10849,   3430,  -5807,   -728,   4249,  10531,   4294,   6879,  -5557,   4161,  -1893,   3830,  -6241,   8921,   2505,   6736,  -7242,  11661,  -9758,  -1325,  -3416,   2770,   -521,  -2352,   1961,   2832,  -7259,  -2921,  -3227,   5047,  -6617,  -7761,   8513,    910,   4722,  -3335,  -5002,   6182,  -2785,  -8304,  -4903,  -4337,  -3374,  -6960,   5911,   3888,   1660,   -361,   5813,  -6444,   7617,  -7982,  -3487,    678,    -63,   3551,    228,   6486,  -7198,  -2907,  -5133,   7708,  -3849,   5925,   -254,   -290,   4537,  -8323,  -3907,     37,   5175,  -4569,  -6523,   1088,  -6190,  -6876,  -5152,   7463,  10272,   1535,   2842,   7384,  -9857,  -1552,  -4485,   -861,  -5186,  -4008,    -29,   4459,    227,  -2102,  -5934,  -5708,  -2029,   2720,  -3266,   3700,   2820,  -7537,   -113,   5734,   5482,  -4210,   2222,  -4171,  -3434,   5448,    517,  -2903,  10115,  -1843,  -7153,
         -7118,  -7967,   4178,   1273,  12169,  -4229,  -4741,  -2136,   6010,  -6066,   2051,    540,  -3159,  -1494,  -8691,  -7969,  -4676,  -2678,  -3199,   3036,  -6293,   -520,   -470,  -7979,  -6156,   1816,  -2609,   -504,   1904,  -4161,  -3450,    338, -10928,    660,  -2966,    101,  -3363,   -674,   -408,  -2701,    -24,  -5178,    573,   2464, -11304,   9394,  -4299,   1227,  -7595,    160,   3162,   4280,  -2083,   5051,  -1135,  -4421,  -4055,  -5746,   2692,  -4794,   2987,   2656,   2805,  -3943,   3266,   -347,  -2800,  -2465,  -1306,   7266,  -4658,   9849,  -4578,   7243,  -4987,   1469,  -8189,   1187,   5423,  -3814,  -8959,  -5060,   6022,  -5836,  -8521,   1055,  -5475,   4820,   2584,  -8563,  -8245,  -7070,  12651,   1922,   6450,  10582,    294,  -1570,  -1609,  -7687,  -3395,  -4922,  -5502,  -1331,  -4838,    882,  -2624,  -3510,  -5947,  -3545,  -7856,  -1283,   5246,   5002,   2938,   3676,   7723,   3074,   -291,    820,   1709,  -4031,   5337,  -1092,   4349,   6200,   5355,  -5914,   7937,   5751,   5411,  -1065,    292,  -8117,   1474,   7132,  -7801,   6218,  -6887,    561,  -5398,  -2867,    871,  -1887,   6430,   4155,  -1528,    471,   1683,   1501,  -5287,  -2924,  -1679,   5922,  -7509,   3433, -12143,   1468,    776,   4947,   5179,    -84,  -6209,   7813,   4694,    946,  -6439,   3728,  -5349,    522,  -1736,   1118,   1983,    670,   -338,   1204,  -8303,   6953,   2063,   1826,  -7681,  -3884,  -2273,  -1263,  -4057,   2523,   -653,  -7531,   7919,   3569,  -2974,   6011,   -933,   6533,   6045,   5607, -12015,   1874,   1863,  -6511,  -3898,   4881,  -2879,  -1186,  -3173,   1996,  -2895,   2701,   7075,  -4386,   5254,    961,  -2555,   3442,   4288,  -2411,   4007,  -5215,  -2586,   4189,   1068,   3569,  -3768,    223,   5713,  -6526,    878,   4825,   -298,  -2353,   5018,  -4538,  -5049,  -4829,  -2744,  -5133,  -4158,   3241,   5653,  -4086,  -4634,  -8398,  -4948,  -7184,   2984,   3097,  -7949,   2190,  -3551,  -5220,   2168,   -164,   4931,   4673,  -2750,  -7844,  -5061,   2173,  -7567,  -3623,   6597,  -1707,  -3981,  -4715,   4392,  -1672,  -6757,   6394,  -3691,   5289,  -1603,  -4599,   4951,   4114,  -3396,   7232,   3614,   2816,  -2954,   4064,   6598,   3208,    297,   2930,    414,  -5199,  -3393,   2496,  -1334,  -8756,  -6013,  -4110,  -3882,   3201,  -2875,  -4768,   -196,    545,  -1330,   2788,   2079,  -3454,   3774,    556,   8102,  -8550,  -1595,  -3138,  -3135,  -2771,    948,     40,   7837,  -5804,   5646,  -8142,  -3568,   1621,   1014,   6496,  -6066,   2713,  -2388,   4852,  -9788,   3616,   4074,  -2560,  -2801,   3313,   4709,   7005,   4558,  -4666,  -8309,  -2960,   1680,   1524,   5905,  -4521,   8015,  -6822,   1089,   5529,  -1904,   5747,  -8409,  -2376,   8417,   1349,  -1210,   7675,  -1423,  -3280,   6516,   2109,    332,  -3794,  -8066,   8062,  11438,   -902,   -188,    373,   4090,  -5114,   1865,  -1581,  -3797,   -125,   6400,   4212,   5769,   4598,  -6366,   3696,   8485,  -4844,   6689,   3539,   1184,  -3158,  -1661,   1406,   7985,  -1358,   3322,  -7336,  16889,  -8627,  -6041,   7316,  14122,   6420,   5451,   1941,   3770,  -6594,  -8430,   7163,   -674,   -827,   3927,   7006,  -9821,   5885,  -6811,    190,   4593,  -1277,  -3668,   7287,   2348,  -4362,  -7882,   4800,  -8455,   3611,   4564,   6562,  -3992,   7711,  -4878,  -6762,  -2590,  -8355,  -9456,  -7749,  -8225,   2127,   4728,  -2706,  -4897,     45,  -7447,   1259,   1554,  -7315,   1338,   4005,    795,  -2406,  -4674,   1904,     84,   3575,   5932,   -830,   4206,    -12,   3741,   2129,  -6879,  -2949,   5872,  14393,   6085,  -8011,   5286,  -4098,   4394, -11969,   5408,   6559,  -1315,  -4774,   -951,  -3177,   4729,   3790,   -468,    169,  -2875,   5835,    166,   1209,  -1455,  -7267,  -1613,   7476,   6945,   2392,  -3174,   1607,   3148,   -510,   -956,   6629,   6344,   1457,  -4970,  -4791,   7562,  -3096,   1679,  -4540,  12322,  -5417,  -6100,  -3456,  10408,  -7147,  -4805,  13068,   6811,   3219,  -7715,  -8118,    958,  -4776,   6165,   5315,
          3020,    690,  -3320,   7214,   9685,  -5201,    451,   3603,   5431,  -6328,  -7111,   6848,   3674,  -3877,    184,  -3125,   3874,    698,  -1136,  -8266,  -4293,   9332,   2781,  -7710,  -3956,   -141,  -6360,  -1433,   4154,   -933,   4993,  -8205,   -215, -10031,  -5716,  -7921,    499,  -3899,  -6807,    170,   8820,  -4433,  -4256,  -2221,   2696,    373,  -4120,   7457,   8143,   -330,   4257,  -1476,   7205,  -2395,   -685,   3424,  -1047,  -4509,  -8150,  -4061,   5383,   2554,    581,   5146,   -655,  -1588,  -7835,     81,   3634,   6359,  -1688,  -3453,   7176,   1669,  -7870,  -2948,   9341,  -2329,  -4107,  10937,  -1474,  -3501,  -7534,   6850,  -5300,   6558,   -845,  -2067,  -9062,  -4492,  -3751,  -8026,  -7211,  11714,   1762,  -6879,   5141,   4920,  -8201,   4129,  -4315,  -5657,    661,   8817,   7299,   3066,  -4908,   1428,   7077,   -855,  -6681,   1078,   8450,   3976,  -6554,  -2638,   3680,   -728,   4127,  -1439,  -3698,  -5797,  -8118,   5546,  13503,  -3643,  -3351,   2876,  -7261,   3349,  -7305,   7742,   6496,   9192,  -4723,  -1520,   3895,  -5720,   -616,  -8294,   9095,   -629,   -959,   6061,   2899,  -7964,  -8518,  -1695,  -1000,   6074,  -5550,  -4676,  -3234,  -2296,   5158,  -8445,   1016,   5550,  -4364,   9153,   7003, -10118,  -4070,  -1604,  -2396,   1826,  -3118,    252,   5297,  -4722,  -2878,    601,  -2890,  -4193,  -4073,   6549,  10046,  -8252,   2686,  -3927,   7878,   4272,   4967,   3191,  -7122,   5909,    223,   3848,  -4033,  -5146,  -4669,   6060,  -6096,  -7353,   4946,  -5738,  -1638,  10537,   5486,  -3054,   1984,  -2718,  -1279,  -2587,  -1312,  -2356,  -6037,   5882,  -1865,  -2811,   1105,  -5388,  -3310,  -1753,  -5050,  -3722,  -5294,  -4220,  -2116,  -8101,  -8846,  -2469,   6045,  -5579,   6975,  -9235,   7480,   6078,  -3997,  -7120,   2248,    390,   7807,  -1477,  -3816,  -2438,  -2931,   5332,   3498,   7390,  -2514,   3215,   2637,   5503,    736,  -5334,    764,   9200,   6855,   5863,  -4002,   5377,  -2351,    554,   5273,   2487,  -5962,   2985,  13363,  -5602,   2093,  -5248,  -7312,   3256,  -5660,   2359, -11293,   3671,  -7882,   2565,  10985,  -9512,   9163,  -7254,  -4521,   3958,   2249,   2951,   1899,  11164,  -4180,    624,  10402,  -3366,  -2127,   5192,  -7212,    696,   5939,  -7264,   2583,   6611,    422,  -2111,   -230,   3789,  -4463,   3256,  13480,  -7092,   5024,   1506,  -8705,  14217,  -4295,   1311,   4133,  -4346,  -3629,  -6322,  -6171,  12014,   4371,   4654,  -3845,   -811,  -2869,   4603,  -1756,   3064,    284,  -6881,  -7724,  -3215,  -1074,    551,  -7781,   -139,  -3386,  -4372,   5595,   4024,   1725,   6588,   8264,   7612,  10147,  -3223,   6318,  -5347,  -3198,  -2669,  -5650,   4300,   4866,   5074,  11400,  -8625,  -1022,  -2805,  -2564,      0,   6971,   -234,   9920,   7077,   4279,  -5877, -12217,    271,  -1977,  -5929,   2048,  -2428,  -3778,  -4417,  -5428,  11134,     99,  -4109,   7368,   2802,    974,   6257, -10274,  -1694,  -4925,    -20,    770,   6825,  -6712,  -1944,  -2720,   4298,   6144,  -4389,   1753,    167,  -4590,  -2130,  -5302,   4789,   2308,     76,  -3585,   6490,   3872,  -1235,   3155,  -4658,   5312,   -808,   3855,   2494,     68,   4425,  -5254,  -7146,  -4253,  -2080,   8425,  -3531,   3842,  -1490,  -1513,   8379,   8735,   5986,   4807,  -2045,  -1689,  -8140,   1906,   5300,  -2922,    277,   3966,  -2175,   2744,    192,   1611,   9736,   1489,    212,  -1723,  -2155,   -180,  -1379,  -4530,   2524,   7641,    216,  -2769,   2203,  -2974,   2715,  -6121,   1794, -10549,   4036,  -6214,  -5421,   4778,  -8679,  -7333,   -475,   1922,   5213,   4875,  -6773,  -6259,   6365,   3465,    515,   7036,  -4579,   3426,  -6733,   2504,  -1688,   -735,   4553,  -3269,  -1801,   6819,   4343,   3354,  -3590,   -704,   8452,   4583,  -4247,   2167,   -943,   6055,  -6729,  -4918,  -1950,   5942,   5752,   5259,  -7182,  -2325,   5418,   4052,   8109,   2266,   3736,  -1158,   6678,   3921,   5336,  -2405,   2131,   -449,   3201,   3731,  -7686,  -7786,   6169,   1335,   9027,
         -2351,  -5645,  -2852,  -7799,  -7598,  -3121,  -7380,   8379,   -216,   3192,   4090,   3971,    605,   -522,   1095,   4953,   3764,   5137,     97,  -1451,   2766,  -3082,   5628,  -4309,   2410,  -1359,   3118,  -3105,   1139,  -5595,  -8837,   9629,   7417,   2904,  10903,   2782,  -7086,  -4061,    361,   4480,   9648,    596,   7112,   1099,   5217,  -6530,  -9593,  -1500,   4802,   2186,   2344,   2739,  -4924,   5058,  -6179,   2820,   7958,   6803,  12042,  -5840,  -2659,   3849,   3729,   2823,   3489,   7334,   1437,  -8843,   2925,   2732,   6204,   -963,  -9143,  -2755,  -4342,   -878,  -1193,    898,  -2360,  10448,  -5130,   1494,  -1670,    -26,  -4716,   5760,   5352,  -2376,  -4949,   6167,   5432,  -1540,  -5434,   5336,  -9841,  -3902,   7815,   1798,  13699,  -5660,  -3621,   4751,   1426,   7679,   2742,   1790,   2653,  -2802,   4105,  -8735,  -5844,   4117,    609,  -8256,    -74,  -3969,   4266,  -5179,   1609,   6372,  -5879,  -4559,  -5388,    260,   1850,  -1901,    451,  -3873,  -2205,   2628,   9404,   1548,   -357,   4874, -11604,  12362,   5000,   4670,  -9724,   -705,   4043,  -3792,   3370,     22,    802,   5854,   1701,  -4526,    959,   5334,  -1992,  -3171,  -1999,    871,   3447,  -8116,  -2231,   5372,  13847,  -5515,  -7209,   -262,   4275,   2728,  -5832,   1998,   6814,   3605, -13425,    541,   4983,   -153,   -484,  -5560,  11076,   3820, -14024,  -7974,  -2750,  -1470,    815,    685,  14382,    716,  13379,   2250,  -6086,  -2951,  -7000,  -3080,   1261,  -4674,   1717,   5185,   2064,    -31,   -505,   2834,   3594,  -4995,   1528,   -651,  -7335,   1535,  -6276,   4526,   4313,  -4095,  -3717,   -387,  -2367,  -3057,   7223,  -4730,    609,   2463,  -5621,   7160,   4310,    521,  -8143,  -5143,  -8469,    204,   4935,   -343,  -1810,  -5548,  -6860,  -9373,   1619,   4733,  -5843,   -454,   4896,  -8715,   -803,  -8610,  -5206,   3250,   4614,  -6563,   -898,  -5538,  -4417,  -1308,  -4600,   2808,  -1676,    253,  -7956,   3462,   -213,   1265,   9425,  -4228,  -3970,   5047,   4097,   -387,   4655,  -6732,    112,   5617,  -5978,   5818,   1972,  -2118,  -4656,   2492,   4150,   1937,   2107,  -8712,   1175,  -4862,  -5793,   6680,   5377,  -4499,   4525,   2617,  -8718,  -3684,   5569,   2787,  -2006,   5346,    837,   6645,  10793,  -2678,     85,  -4135,   6106,  -3123,   -176,   2595,    348,  -2731,  -8395,  -5661,   2851,  11215,  -4887,   1545,  -5510,   3748,  -5781,   3488,   3548,  -7134,  -4942,  -4586,  -5575,   3884,   3126,  -1441,  -5484,   4543,   1348,    476,  -8836,  -6762,   5386,  -3731,  -3463,  -3719,  -3567,  -7113,  -4005,   1778,   2658,  -1850,  -7076,   7356,   7246,   1156,   1348,  -7552,   1972,   3795,   7243,    -35,   2580,    907,   5018,  -2431,  -4710,   2796,  -1497,   1674,   5427,   1400,   -175,   2470,     93,   4756,   9253,   5291,  -2036,  -5336,   -879,   1576,  -6978,   3376,  -5035,  -4197,   -597,   1003,  -7740,   3801,   3242,  -5829,   6091,  -3180,  -4925,   2365,  -1303,   -647,  -1261,    454,   -281,   1285,  -2122,    626,  -5017,  -3878,   6175,  -7111,  -3751,   3312,    206,  -1439,   4286,  -8319,  -4278,   -346,  -2128,  12353,   7414,    338,  -5393,   5410,   2976,   2118,   -601,   9146,  -7546,  -5967,  -8055,  -6517,   -574,  -3385,   6220,  -2844,   7469,  -5155,    856,   -617,   7088,  -3716,   7439,   5901,   1971,   4555,  10656,  -4925,   1183,   5168,  -7325,    642,   3522,   4869,  -1934,   5249,  -2458,   1730,  -4986,  -3995,   8810,   4211,  -5634,   2574,  -3385,   4937,  -8657,    456,   -179,   7055,    962,  -7299,  -5690,  -5256,  -8347,   1202,  -5173,  -7832,   5404,   1531,  -6514,  -1932,   2884,  -4436,  -6117,  -5379,  -5227,   4277,    968,  -3359,   2966,      3,   -561,   3228,   2652,   4764,  -6428,  -8186,   1444,  -2144,   2636,   2700,  -1551,  -3064,  -5750,  -9195,    862,   -793,  -3733,   3175,   8919,   -110,  -2645,  -6752,  -8269,   8050,  -7852,   2303,  -2277,  -8831,  -4938,  -6647,    205,   6897,  -6346,  -2431,   -242,   3505,   4775,  -2745,  -1963,  -3714,
         -9228,   1237,   6130,   -849,   1270,  -7966, -17899,   2291,   7712,   -661, -11778,    357,   2824,  -5447,  -5900,  -9439,  10073,  -3860,  -4328,   1082,    814,   -720,   2424,  -7242,  -2997,  -7170,  -5243,    303,   3075,   1720,  12056,  -1337, -11389,  -1881,   3486,  -3602,   5399,  -5578,  11726,   8245,  -2662,  -8518,  -1995,  -2769,  -7945,  -5089,   5306,  -6690, -11784,  -2968,   3522,  -4845,  -6694,   4581,  12367,   1340,  12796,  -2346, -11405,  -5225,  -4304,  -1446,   1905,  -3570,   1436,  -4563,  -6380,  -6110,   3315,    383,   5087,   3301, -11961,   6153,   -196,  -8192,    -14,  -6630,    647,  -5049,   5193,   2671,  -8565,   -159,  -7663,  -7316,  -1951,   4552,   1333,  -3038,   5864,  -7096,     19,   3946,   2345,   8679,   3846,  -6436,    494,   4277,    815,   3145,   1182,   9191,   9412,   5444,  -2547,  -1945,  -4802,  -4481,   2613,   9421,   1903,   7096,  -3744,   4540,  -1065,  -5758,  -8056,     65,  -8930,  -7273, -10147,   5334,   3911,   2773,   5090,   3457,  -2281,  -1287,   8669,  -6759,  -2388,   4763, -11047,  11124,   3378,   3439,   6743,  -7795,   3885,   2442,   2645,   2582,    268,   5998,  -1366,    157,   7034,  -4180,   9251,  -2352,  -4037,  -4831,   2625,  -2630,  -5815,  -6875,    100,  -7010,  -1929,  -5554,   9157,   4825,  -7457,  -3687,   9497,  11944,  -2714,  -1210,  -3055,  -4948,   2840,   4386,  -1901,   1383,   6643,  -7214,   7105,   -937,   2169,  -6481,   -702,   7526,  -5517,   2998,  -3104,  -7748,   4905,   4210,   4022,  -1710,   1162,  -5926,  -5012,  -7657,  -1331,   -931,  -7432,  -3186,     98,   1920,   5530,   1425,   -173,   4175,  -2471,   6150,  -3903,   -235,  -6148,    577,  -8086,   3456,   4422,   6708,  -9740,   -995,  -4993,   -239,   5369,   3012,  10994,   6104,  -4003,   -496,   2739,   1436,   6345,  -7310,  -1687,   9340,   1684,  -5396,   3890,  -1057,   5077,  -2245,   4901,   5789,    680,   -194,   5732,   6281,   4688,   6845,   4973,  -7204,   2441,  -2871,   5409,  -2950,   6518,  -7438,  -9248,   9882,  -3312,  -1754,   5982,  -7091,   7200,   1153, -11349,  -4054,   3191,  -4933,  10725,  -7135,  -1173,   6950,  -1432,   5246,  -6207,   6499,   2318,    -64,  -5769,  -6748,   -699,  -6706,  -6237,  -3876,  -4206,  -2580,  -4161,   2440,  -3687,  -4894,   5719,   5662,   1775,   4567,   6517,   4008,   2599,   6301,  12521,  -2563,    101,  -8473,  -1050,   3697,   4506,  -1785,   2707,  -1504,  -1054,   4702,   7393,   7023,  -3891,   6816,  -7169,  -4963,  -6097,   2617,  -3854,   6029,   2543,  -1479,  -7074,   1421,  -2031,   2658,   4603,  -2044,   3718, -11442,   4065,   4858,   5641,  -2814,  -7116,  -3923,     51,   -294,  -7195,   -440,    712,  -1236,   1545,   1701,    941,   8200,   4638,  -5594,    172,  -3536,   1799,   5703,  -3792,     22,  -1834,  -5711,   9100,   6694,  -7322,  -2418,  -4147,   6740,   7592,  -3226,  10956,   5156,   1580,  -1218,  -6356,   9432,   5153,  -1778,   3086,  -8217,  -2749,   4445,  -7951,   1111,   -772,   2959,  -3604,  -1302,   6120,  -6871,   2477,  -1950,  -1497,   6578,  10445,   5862,   5933,   3752,  -3579,    748,  15212,  -6691,  -3239,   6809,   1834,   5046, -11365,   -940,  11134,  -1569, -10009,  -6064,    720,   2311,    864,   4732,   5136,  -7041,    682,  -1435,   4996,  -5181,   7646,   2318,  -2432,  -5746,   2613,  -5716,  -4313,  -3577,  12385,    235,  -6165,  -5997, -10438,   5197,  -3173,  -4608,  11077,   1530,   -698,  -1700,  -7208,  -3594,   3650,  -4981,   7780,    620,  11360,  -4390,  -9391,   2491,   -187,  -2778,   2913,   1199,  -4552,   7310,  -6002,   3145,   -825,  -4196,  -2691,   3920,  -6156,  -1039,  -1021,   5446,  -5470,  -5476,  12012,   1524,  -3480,  -5292, -13291,  -6676,  -6172,  -5665,   8749,  -8939,   6040,  -7570,  -4133,  -6636,   5726,   2218,  -5256,   8115,   5792,  -4300,   4489,   2542,  -2310,  -2418,  -1169,   1257,   8414,  -7935,   3022,    358,  -4347,  -6428,  -5682,   1769,   1928,  -2065,  -6825,   2414,   3454,  -6750,    -91,   1216, -13618,  -1908, -13085,   5430,  -7782,  -8478,   1208,  -8984,
         -3941,  -1142,   -723,  -5275,  -8057,  -3138,  -8697,   5632,    877,  -6242,  -3704,   -839,  -7358,    162,  10026,  -4785,   1281,   1867,  -4512,  -4396,    772,  -4284,   7204,   3426,    123,   2816,  -3402,   1433,  -3450,   4178,    515,  -6205,   7667,  -7968,    107,   5921,   2771,     80,  -2105,   1466,  -2740,  -5896,   8141,  -5018,   5256,   3065,   1831,   6362,  -3357,   -340,  -4370,  -7289,   4492,  -1610,  10343,   6208,  -2970,  -1432,     37,    173,  -3158,   -118,   5497,   2580,  -2016,  -7717,   3903,   2584,   4594,    574,    250,  -2425,  -2598,    745,  -5096,   2410,  -3779,   2829,  -2953,   4675,   -526,  -6396,   3270,    175,  -1959,  -3691,  -7804,  -2286,  -7096,   5246,   2355,  -2228,   -281,   3758,    952,  -1371,   7468,  -7696,   1652,   -792,  -6870,   5482,   7883,   3814,   3711,   6124,  11483,   3918,   7462,   3885,   4714,   9727,   -949,   6297,  -8084,  -7264,   -256,   3717,   2867,  -2294,   -825,   -990,   -477,   5459,  -7080,   4358,  -4644,   6728,  -4894,   1073,   4314,  -7934,   6276,   2705,  -6091,   6622,   2725,  -3740,   8017,   5268,   5395,   -772,    304,  -4745,  -5430,   5435,   4392,  -3219,  -3901,   1974,   8430,   2157,  -8231,  -4649,  -3272,  -3525,  -6328,   3685,   5994,   7876,   -155,   -529,   5984,   3979,  -2404,  -7553,   5662,   2856,   4723,   4046,   4877,  -1173,   6940,   5459,   4614,    161,   3383,  -3794,  -2795,  -1070,  -2577,  -1333,   4240,   5670,  -1551,    221,  -4044,  -5273,   3193,    607,  -1479,   3803,  -2505,   -433,  -6081,   2220,   2427,   1103,  -4936,  -9751,  -2725,  -3107,   -156,  -7808,  -2753,   5149,   5919,   -446,   -211,  -1820,   1497,   6716,  -2237,  -6176,  -6309,   1793,  -3408,  -7999,  -8144,  -1460,    102,  -6434,   1552,  -6196,   3342,  -1043,  -2686,  -7375,   1629,   1091,   4030,   9199,   6439,  -2318,  11441,  -1284,  -6954,   3637,  -1239,  -2244,   3274,  -2964,   -814,  -3942,   3744,  -3187,   -245,   1007,    839,   2382,   -492,    335,  -3228,  -1644,  -7783,  -3776,   -653,  -4470,  14000,   1659,    328,   4149,    149,   6405,  19564,   3061, -10826,   -658,  -6047,  -6659,  -4989,  -7632,    400,   3688,  -1522,  -1443,   1175,  -3666,   2274,  -4539,  -4436,   4603,   4446,   6632,  -7677,   1397,   -881,   3349,  -7593,  -7692,   2974,   1329,   2119,   -152,  11327,   1863,  -5805,  -1967,  -4156,  -5478,    566,  -8137,   4509,  -6169,    928,  -4823,   1525,  -1521,   1579,   -258,   5435,   2484,   3526,   1224,    -58,  -2952,   4334,   5823,  -6672,  -6796,  -9483,    457, -12819,  -7224,   -790,   4012,   4827,  -6483, -13553,   1505,  -9055,  -5726,     68,   6992,   -501, -10506,  -3703,  -3346,  -7794,  -8621,  -1245,   3674,  -3282,   2874,   2947,   7114,  -3582,   1790,    -88,    608,   4268,   7612,   8072,   3868,  -2026,  -4565,   5186,  -9538,   -898,   8174,   4894,  -4058,    714,   7082,  -6945,  -8840,  -6449,   5308,  -7692,   -990,   3981,   2835,   1841,   5233,  -5661,   7977, -14958,  -4184,  -4828,  -7082,  -3230,   -554,   5328,   -452,   4797,  -6134,   3651,   -141,   4275,  -1821,   2857,   6997,   3081,  -2217,   4107,  -2397,  -3122,  -5045,   8078,  -6106,  -2006,   1364,    968,     41,  -4320,   4346,   7869,  -5972,  -7871,  -8197,   1978,   1751,   3500,    301,   1276,  -4611,  -2276,  -6659,  10429,   1622,  -5161,   4811,   6592,     -4,   7288,   -298,   8568,  -7785,  -6336,   5499,   3555,  -4356,   2652,   2836,   -203,   2571,   7435,   7085,  10371,  -3548,  -9246,  -1726,   -590,  -1403,   4963,   1052,   8349,   1028,   2932,  -7862,   2941,  -2734,   3845,  -2634,  -1866,   7925,  -4013,  -1527,   6905,  -6837,  -6496,  -5180,  10545,  -3356,   3983,  -7531,  -2280,  -6858,   2271,  -2653,   -745,   2301,   4667,   1672,  -1896,   3919,   4729,   4697,   1863,   1753,   9459,   4711,  10322,   3771,   4091,  -3247,   1211,   5816,   6147,   1724,   5801,   3476,  -1325,  -7881,   6336,  -5324,  -2579,  -5613,  -8581,  -7055,  -4890,   4880,   1023,   2055,  -4440,  -2530,   5365,  -1616,   5584,   3321,   -710,   8514,
          8151,    448,   7246,   6057,  -1872,   4401,   -961,     89,   9739,   1984,   5788,   2414,   5000,  -2329,  -5656,  10040,  -5152,  -1163,   2544,  -7436,  -7490,  -2772,  -4703,   4857,   1352,  -1732,   3964,     97,   -351,  -1996,   -920,   3344,   7616,  -4997,   5090,   5051,   3847,   2410,  -4001,   2707,   6929,   -846,  -2261,   -407,   3425,   2262,   7098,    855,  -2934,   1823,   8633,   5984,   -407,  -6287,    636,   3989,   6399,  -4146,   8084,  -1795,   6173,   5697,   1747,  -2740,   1063,   2990,   5141,   2403,  -3331,  -7338,   4569,   5263,   9061,  -8376,   -648,  -7745,   7569,   -284,  -4390,    717,  -1553,   2775,   3948,  -6750,  -4290,   5112,  -4594,   4705,   7148,  -7987,  -2636,  -7144,   1605,   2302,  -1475,  -3263,   8469,  -3150,  -1941,  -7877,   3708,  -3313,   -746,  -3977,   8830,  -4494,   3883,   3110,  -5908,  -3350,  -3667,   9380,  -1819,   5208,   3881,  -2842,   -398,   1460,    286,   4117,   8676,  -8336,    710,   7513,   5354,   2060,  -5402,   2283,  -2931,   2107,   3427,   -782,  -3511,   -643,   2354,  10157,  14383,  -6508,  -6299,   6587,    844,   5284,   3025,  -4527,   5036,  -6827,  -2924,   -796,  -1719,   3379,   6197, -10191,   2281,   6388,  -6673,   5364,   3801,  -8452,   8845,   6899,  -1962,   1908,   3909,   2009,   4484,   5833,  12791,  -6413,   -444,  -2435,    736,   2503,  -5727,   2717,    652,  -9907,   4143,   3124,   1441,   1225,   6000,  -7811,   7182,  -2667,   8544,    323,  -4831,  -6067,   2929,  -6429,  -1245,  -2272,  -9340,   2390, -12398,   5897,  -6302,  -4738,   2837,   9416,   1562,   5151,    -73,  -2263,   3173,   3553,   4691,   2553,   -327,  -1146,  -8711,   1936,  -8483,   1410,  12182,   3292,   4775,  -7155,   5076,  -8690,  -7204,   6790,   1508,   4993,     38,    488,  -1104,  -8203,   4057,  -2713,   4382,   -416,  -5005,   -938,  -4118,  -2399,  -7013,   3942,  -4784,   9967,  -2282,  -6875,    772,  -6722,  -6811,   6372,    929,   1380,  -2108,   5797,   2148,  -4593,   5549,   6459,   9641,  -1077,  -3018,   7250,   6051,   1217,  -6554,  -4456,   -147,   2813,  -9119,  -2485,   1611,   1297,   5751,  -2503,  -1851,   7381,     71,  -8780,   2500,   6563,  -1854,  -1782,   6082,  -6887,  -5543,    765,  -9922,   5248,  -5961,  -7398,   -222,  -8584,   1342,  -7150,    985,   6558,  -4486,  -2729,  -2993,   4583,   4522,  -1550,  -2702,   2391,   7086,  -3209,   -592,   6021,   5347,  -2381,  -8442,   3731,    673,  -7662,  11088,   -591,   3239,  -5295,   6055,   3528,  -6955,   2937,   4533,  -4360,  -7696,  -2714,  -4554,  -6454,   3175,   6170,   3141,  -3137,  -4804,  -7073,  -3797,  -2717,   6053,  -8168,   1582,   7371,  -7817,   3338,    201,   5664,   1203,  -8234,  -2438,   3633,   -879,   4237,  -1129,   3509,  -5010,  -4770,   1233,   1253,  -1966,    180,   3588,   4207,   1567,   3595,   5658,  -1994,   1406,   4407,   2340,    458,  -2545,  -8107,  -3567,  -3016,   4562,  -8296,   2474,   -809,   6412,   4000,  11272,  -3229,   1867,  -1551,   1754,  -3323,   2776,  -2533,   6838,   1449,  -3811,  -5547,   7077,  -7965,  -1026,   4904,   2715,    986,   4064,  -1858,   2384,   1394,  -6513,  -6455,  -5155,   6643,   1927,  -4644,  -3815,   5518,   4222,  -7643,  -1347,   7987,  -2253,   6670,   4788,   5919,  -1975,   4954,   1477,   4755,    -22,   5366,   5893,   3768,   1867,  -6709,   9229,   9107,   4268,   6658,    407,   6510,   2764,   4640,   2270,  10070,  -3691,   4929,   2852,   5554,   1811,   4733,  -2037,   1107,    817,  -2498,   5634,   1995,   3224,  -1434,  -9777,   6452,  -7873,   2220,   3742,  -5080,   2859,   4804,   -659,   2526,   3813,  -5609,  10313,   5345,  -2871,  -3456,   4946,    444,    142,   4392,   5771,    441,   2094,    804,   1024,  -3294,   5697,  -1095,   9330,  -6542,   3509,  -4232,  -8802,  -2926,   5338,    -79,  -1344,   2570,  -3228,   4982,  -1462,   3734,   6757,   6547,  13132,  -4723,   1780,   1292,  -4404,    917,  -4274,  -6011,   3463,   1850,  -2826,  -6889,  -6198,  -5998,   2951,    282,   8667,  -4281,   5074,  -2787,   2386,    270,
          7523,  -4018,  16547,   1032,  -5652,   5721, -18879,   2383,   1839,    945,   7555,  -4831,  -1649,  -2248,  -4467,   2407,  -5983,   3486,  -9377,  -3455,   -241,  -8077,    326,   2064,  12517,  -5723,   7147,  -5430,   -329,   1771,  -7279,   2185, -10271,   4193,  -7587,   3506,  -3084,   5634,  12865,  -2559,   1900,   6752,   7157,  -3248,   6093,   1982,   1098,   5042,   4920,  -8318,   8303,   6411,   6831,   -694,   -862,   3844,   -795,  -3838,  -5162,   4934,  -1972,  -3513,   -873,  -8393,   5946,  -4882,   6224,   4073,   5803,   1218,   -726,  12556,  -1652,    340,   2654,  -4776,   4671,   3365,  -3456,   2227,  -9566,   4590,   3912,   6305,  -5818,  -4456,  -2540,  -6959,  -6120,   2536,   1373,  -8132,  -2543,   2788,   4071,   -782,   2092,  -4583,  -2830,  -6819,  -1611,  -3568,   9356,  -2458,   6486,  -6072,    868,   3625,  -6185,  -2946,  -4348,  -3276,  -3229,  -7410,   2672,   4424,   -820,     29,   7019,   -613,  -5431,  -1339,  -2971,  -6300,   4108,   6446,   6604,    239,   3670,  -8211,  11598,  -5477,  -6467,  -3398,  -9311,  -1106,   6864,   -183,  -1480,  -4843,   6685,  -5888,   5161,    428,    731,   3220,  -2550,  -5151,  -7058,   -304,  -2712,     93,  -2463,  -8507,   6111,   4497,  -7333,   4780,    166,  -4927,  -2848,  -1078,  13463,  -7068,  -4432,   -569,    167,   8316,   2535,   6929,  11873,   4383,  -5993,   6956,  11113,  -1615,    953,   6448,   5408,   6135,  -5122,  -7121,  10982,   6198,   3584,  -1946,  -1691,  -3962,  -2809,  -1667,  -3700,  -3786,    496,   3802,  -5799,   3333,    189,  -3078,   3291,  -5894,   5850,   2650,   7986,  -2331,   6816,  -4821,   -736,   2735,   3039,  -3979,  -3879,     19,   3984,    909,  -3965,   6396,  -2696,  -4870,   6099,  -8386,  -6515,  -1429,  -2263,   2428,   3694,   2399,   -842,  -6994,   3632,  -7416,   -635,   5314,  -6019,   1431,   9486,   6641,  -5663,   1213,   8347,   4193,  -5792,  -3982,   6586,  -3900,  -4926,  -8301,   8675,  -2790,  -3373,  -5714,   7744,  -4318,  -7736,   -238,   -721,   1861,  -4732,   2843,   2597,  -7794,   7023,   1370,  -3269,   2208,   7085,  -2181,   1959,   4693,  -1743,  -3244,   5189,   8753,  -5603,    153,   5915,  -5401,    961,  -1179,   -323,  -6288,   7451,  -5670,  -2836,   -669,    382,  -6067,   6223,   -187,  -1144,  -5517,  -1112,   6076,   3143,   -608,  -6406,   7866,   4548,   4421,  12393,   6947,  -5394,    -41,    187,  -2530,   8532,    450,   2235,  -1479,  -2435,  -4467,  -2586,  -2946,  -6985,   6954,   5505,   1601,   3952,  -5222,   1610,   4193,  -3120,  -1221,   3754,   6109,   2440,  -1383,   1814,    580,   4786,   2922,  13448,  -2693,  -1930,  -2224,   4055,   -723,  -3044,   2726,   7339,   5460,   3390,  -6587,    831,   2919,  -8496,  -6439,   6699,  -4183,  -5108,  -4127,    548,  -5583,   9695,   3051,   2113,   6772,  -7617,   4849,  -6137,   7594,  -1346,  -7828,   8081,  -3664,  -1092,   3894,   3302,   2330,   9297,  -2229,  -4839,   2098,  -5381,   -941,   3351,   7529,   4114,  -5274,     56,   -448,   4614,  -5862,   2016,   5286,   2439,  -3223,   1869,  -6940,  15297,  -5945,  14025,   1156,  -5285,   8061,  -4183,   3554,  -3416,  -6054,  -7541,  -6070,   6099,    978,   7752,   -670,   5836,    343,  -3645,   2536,  11308,   7387,   1260,  -6536,  -5991,  -6496,  11515,   1639,   4034,   8875,  -4843,    882,  -5883,   2969,   4072,    223,  -2283,   8223,   4828,  -1478,  -5733,  -3172,  -1553,  -2695,   5910,   -661,   -383,   4511,   7327,  -6534,  -5989,  -4092,  -3252,  -3576,  -3043,  -7204,   2582,   5890,   8625,   -548,   5251,   2276,  -4388,  -6548, -10716,  -9054,  -1167,  -2507,    962,  -1806,    726,   3991,    440,  -7160,  -4315,  -2454,   6799,    558,  10514,  -8654,   -695,   3276,   8214,   3540,  -2977,  -7092,   2896,  -8405,  -4737,   -563,   -643,  -3498,   5063,    314,   5081,  -4818, -11640,  -3326,   5073,  -2530,  -6444,   1198,   2773,   2864,  -4968,  -3574,  11966,  -1374,   5718,  -5128,  -6862,  -4951,   6154,   -690,   1813,  -2079,   4551,   6442,    688,   1232,    361,  -6362,   1658,  -4515,
