#include "birdnet_coefficient.hpp"
using namespace dl;

namespace birdnet_coefficient
{
    const static __attribute__((aligned(16))) int16_t _conv1_conv_filter_element[] = {
          2153,   -897,  -6596, -19561,   6542,  24828,   5636,   3682,  11106,   4096,  14132,  16422,   6177,   6182,   8607, -19818, -11592,   9899, -11440,   9205, -12369, -18666,  10848,   1748,  -9921, -13817,  -8054, -13113,   3119,  11046,   5576,   4028,  -4358,  -9733, -12310,  -1371,   8017,  -6326, -17023,  -9294,   6918,   5329, -16315,  13180,  -4847, -21300, -12328,   7357,   1294,  10815, -10356,  16772,   -801,  24190,   7282,  16287,  15208,  -5964,  14058,  -3990,   2261,  16948,   2553, -24740,    645,  11525,   7080,   5877,   8271, -23626, -14689,  28706,   5794,  -5901,   7715,  17324,  14836,  12516, -11132,  19204,  -3430,   -770,    402, -22513, -15315,    544,  14749, -28225,   -825,  14316,  -9138,   6682,  -8455,  -9262,  10288,   8262, -14882, -18551,   2376,  -4536,   5369,   1855,  -9001,   8296,  -9791, -13605, -16287, -18947,  12255,   9950,  -5486,  -9188,  -4928,  -4586, -12694,  -5354,  12432, -15082, -17364,  15815,   3212,    317, -15836,  -4777,  -2804,  -9699,  -9001,  10906,  -1565,   1970, -14282,  -4979,  -6991, -10570,   3192, -20217,  -7374,   -883,  -3432,   8868,   7605,   4854,   9384,   3525,   4740,   5310,   9280, -22331,   -692, -10422, -14244,  -2277, -17059,  12301,   9148,   2547,   4523,   -782,   7902, -14169,  -8293,  16262, -16319,  17139,   1254,   -253,  10248,   8711,  -7571,  13071,  10555, -16135, -10042,  10313, -24759,  18332,  -7172,  17982, -13241,  19209,  -6835, -13263,  -1170, -12731,  -4001,   -817,  -3577,   8272, -18893, -12548,  21899,  22489, -16364, -13304,  -6861, -24725,   2881, -10453, -24912,  16934,  -3152,  -6889,  -3259,  14382,   9295,  11321,   5620, -24401,   4431,  11417,  -3322,   2032,   5861,  -6978,  26912,  13887, -14118,   1513, -15184, -16228, -17617,  13653,  -5728,  -4997,  -1437,  -6778, -14611,  16617,  -2984,   5611,   6942, -17483,  12080, -12992,  -2648,  -8666, -17355,   1271,  -2456,  10946};

    const static Filter<int16_t> _conv1_conv_filter(_conv1_conv_filter_element, -16, {5, 3, 1, 16}, {1, 1});
    const Filter<int16_t> *get__conv1_conv_filter()
    {
    	return &_conv1_conv_filter;
    }

    const static __attribute__((aligned(16))) int16_t _conv1_conv_bias_element[] = {
          2638,   3818,  -1484,   -126,    504,  -2736,   3577,  -1123,   2512,  -2310,  -2228,   1592,   3584,  -1395,    652,   -696};

    const static Bias<int16_t> _conv1_conv_bias(_conv1_conv_bias_element, -14, {16,});
    const Bias<int16_t> *get__conv1_conv_bias()
    {
    	return &_conv1_conv_bias;
    }

    const static Activation<int16_t> _conv1_conv_activation(ReLU);
    const Activation<int16_t> *get__conv1_conv_activation()
    {
    	return &_conv1_conv_activation;
    }

    const static __attribute__((aligned(16))) int16_t _conv2_conv_filter_element[] = {
         -3210,    998,   3868,    547,   4868,   4703,  -4584,   1611,   -860,   1535,    -28,  -2712,   3370,    149,  -6029,   1228,  -1532,    261,   -931,    351,     99,   1850,   2083,    399,   1904,  -2029,   9321,   -570,   5267,    550,  -4230,   4034,    360,   -159,   -760,  -2006,  -1129,    567,   1761,  -2618,   -790,   1514,  -4836,   -256,  -5031,    459,   7272,  -3453,  -2350,  -2557,   4308,   1242,   4355,   1992,  -3960,    501,   -832,  -2144,   5716,   -106,   6222,   -805,   5333,  -2989,   2085,   1570,  -5514,     29,  -5454,   5832,   7013,  11247,   2182,  -2104,   -595,  -1040,   2515,    405,   3899,  -2713,   1319,   -594,   1018,   2726,  -2520,   -320,  -1215,   -261,   -335,   2497,   -997,  -3715,  -3669,   8614,   -144,   4155,   1609,  -1558,    678,  -2553,  -1327,   1261,   2742,  -2618,  -1332,    241,   -610,   2455,  -1377,   1539,    405,  -1616,    885,   2510,  -3766,    418,   -669,   8118,  -1858,   2182,  -2121,    -13,   4951,  -1041,   1751,  -5691,   6756,   2793,    973,    203,   4788,    209,    825,   2657,  -3807,   2689,   -917,  -2306,   1774,   -117,   1758,  -3195,  -4728,   -344,  -2435,   2525,   1374,   2326,   1891,    149,  -2720,    710,      3,  -1918,   1528,   -172,   5546,  -1010,   4407,   -818,   -581,  -2836,  -1889,    205,    407,  -1880,   3929,  -1484,  -2223,  -1092,    348,  -2189,  -2168,   6104,   2887,   4724,   -406,   1530,   4539,  -1366,   -452,   1082,  -1920,   -770,   -486,    115,  -6666,   1377,  -8189,  -2104,   4570, -10506,  -2153,   -307,   1866,   1440,   4707,   2738,   -994,   5104,   1878,  -2999,   3059,    562,   2780,    725,   3930,   1274,   1489,    363,   -665,  -2621,   1675,  -2571,  -1508,   2470,   -778,  -2529,   2078,   -323,    658,  -3176,    473,   5868,   2717,    169,  -1346,  -2567,  -1639,   1672,  -5063,  -2243,  -2638,   1583,   2008,   2715,  -1661,   -932,   1721,   -158,   2041,  -1361,   2955,    736,   3716,  -2038,   2171,   4851,  -2263,  -1451,  -4137,  -1870,  -5962,  -1375,   3654,  -4790,  -1374,  -2042,  -1052,    126,  -1465,  -2313,  -3623,    385,    677,  -1183,   -179,   -149,     81,  -2172,  -2014,  -2800,   2394,    146,  -1767,  -1303,  -1153,    513,   -194,   1404,   1799,    243,  -8468,    693,  -5789,   2091,  -5053,  -3936,  -1097,    602,  -2122,   2083,    248,   -502,   1446,    552,    344,    800,  -4590,   1915,  -4939,   5904,   1868,  10441,   1015,    147,   -978,    495,   -108,   1641,  -1038,   -527,   -336,   1466,  -3451,   2162,  -4470,   1701,   1060,  -4073,  -3234,    957,  -5495,  -3104, -13264,   -187, -19886,   4923,   1611,    672,  -1265,  -2759,    -51,  -3442,   -864,  -4062,  -1712,   1354,  -1086,  -2433,   1747,   1070,   1114,  -1190,    510,   1171,   -659,  -1442,    753,  -5255,   1935,    876,   2365,  -1538,  -2754,  -1361,  -1946,    654,    265,  -1941,  -1550,   -272,  -1948,  -1582,  -1077,   -499,  -2607,   -876,    442,   -763,  -1682,  -1527,  -3144,  -6613,   5062,  -1672,  -2233,  -1787,  -3075,   -900,  -2261,    848,  -2794,  -3532,  -2406,   1759,   1236,  -2436,   2705,   4910,  -1363,   3238,   2216,   2319,    556,  -2004,   3610,   2091,  -3791,   5607,  -1773,  -1686,   2345,   1749,  -1452,  -1066,   1208,  -1292,    472,  -1939,    779,   1813,   4299,   1209,  -3798,   1851,  -2215,  -3234,    383,  -2675,  -1839,    538,   3751,   -271,   -332,   -631, -11128,   -892, -10536,  -2650,   7610,  -6722,  -1024,    541,    503,   1317,   3264,   -763,  -1436,  -1194,  -2519,    380,   6626,   -292,   7234,  -4647,   5367,   -715,  -1686,  -2679,  -2101,   3536,  -2484,   1478,  12339,   6177,  -1197,  -1030,  -2641,   1180,  -2840,  -1162,    611,  -2187,    783,  -1913,  -2552,   1677,  -2470,   2014,  -2382,   -935,  -3161,   1368,  -2696,   -546,    844,  13339,   1821,   4585,  -2286,    936,  -2733,  -1234,  -1510,    -34,   5511,    331,   2246,    831,    686,    486,  -2075,   -179,  -2269,   2396,   2373,  -1323,   -659,   2289,  -1038,   8478,   -413,   4578,  -3628,   -979,   4775,   -746,   5041,  -8726,   5536,    985,
         -1736,   1117,    782,   1080,   2461,   -407,  -5371,   3440,    859,   -640,   1277,    178,   2656,    661,   1323,   2063,   -311,    140,   -608,   -347,   1190,     10,  -1504,   -823,   1356,    263,   6546,   1868,   5716,  -2142,   9989,  -3105,   1362,  -3380,    -48,   1231,  -3499,   2519,   -762,    276,  -3130,  -3195,    447,  -2171,  -7156,   6061,   1144,   -688,    936,  -2940,  -1227,   1033,  -1707,   1109,  -3987,  -1618,   -552,  -2582,  -6417,     59,  -6358,  -5075,  13382, -10305,   2314,  -2332,     86,    675,   3899,   5460,   3405,   5462,  -1465,   1362,   -325,   1013,  -2011,   1746,    928,   1841,   -957,   2292,  -2057,    285,   1037,    656,  -2546,   1033,   -300,   1616,   6262,   -130,   7966,  -1959,  -2147,   4542,  -1741,  -1505,    658,    457,  -1079,   -927,  -4986,  -1462,   2236,   -659,   2568,    323,  -2183,  -2506,   1226,   2338,    847,   2726,   5159,   -723,   8251,  -5182,   5449,   6229,   1018,   -239,  -7583,  -2153,  -8322,  -5443,   9722,  -3876,   1479,  -2825,   4067,   1673,     83,  -2114,   -678,   2202,  -1472,  -2686,   1702,  -3091,    368,  -2030,  -4285,   -159,    782,   1309,   -490,  -1297,  -2377,   -525,  -1388,   2285,  -1334,   1565,  -4449,   2199,  -3358,    355,  -7223,  -4093,  -2527,  -3407,   -987,  -1928,    107,   -330,   1085,    411,    -82,   2265,  -1646,    352,  -7653,   4918,   1418,  11748,   2016,   -785,   3807,  -2102,   2320,   3058,  -2746,  -1670,   1101,  -2871,  -2251,  -1358,  -3393,   1132,  -1176,  -4951,   1379,   1274,  -4817,  -3008, -14693,   5205, -20618,    630,   1746,    936,   1588,   1312,    921,   -948,    859,  -2717,   2134,   -297,   1183,    158,  -2132,   -270,  -2692,    577,  -2292,   1556,  -2118,   1216,   2558,  -6168,   6296,    -99,   -225,  -1770,   1905,  -1947,  -1662,  -1905,  -2330,   -890,   1955,    957,   -375,  -1280,   1634,    -27,    984,    -74,   1463,   1912,   2282,   1190,  -1836,  -8820,   6760,  -4272,   1125,  -2180,  -2121,    291,  -2455,   1495,  -6885,  -5637,   1147,   1861,   -920,   -477,   -717,   4022,   -779,    128,  -1348,   -913,    288,    -21,   1829,   4961,  -7662,   5036,     87,   1355,   2140,  -2378,     44,   -424,   1320,   -888,    503,    179,   1453,  -2118,   5173,   2795,   -180,   4962,    591,  -1309,   1004,   -991,   -131,  -2691,   1144,  -3800,   -147,    715,  -4411,  -2276,  -1834,  -2375,  12138,  -3454,  -1303,  -3435,   -372,  -1212,    423,  -2312,  -1140,  -4213,   1879,   -842,   5800,   1921,  10075,  -4197,   3091,   -149,  -2406,  -1547,  -5196,  -1412,  -3238,   1661,  15535,   5990,    978,    758,   1657,  -2081,     73,   2942,   4739,    477,   -491,  -2288,  -1617,  -1512,   2068,   1354,   1176,   1505,  -3594,  -1472,  -3446,    -11,  -4210,   7793,   7747,   5406,  -1584,    -65,  -3016,   1475,  -5610,   -761,   4409,   -458,   2108,  -1978,   2120,   -943,   1551,   -110,  -2542,   -737,  -1171,  -2059,  -3564,   2321,  -5361,   7026,   3062,   2783,  -1824,    605,   6128,   -281,   5893,  -9735,   3203,   3460,   1723,   2074,  -1128,  -3158,   1932,   -931,  -7200,   4127,  -2986,  -1481,  -1390,  -2341,   2378,    498,   -483,   -865,  -1837,  -2496,   1372,  -2505,  -1256,  -2130,  -2616,  -1897,  -1546,  -2553,   3483,   -404,   5952,  -2030,  14075,   3110,  -1432,   1081,   1395,   1728,   -159,    671,   3980,  -3780,    155,   1960,  -1285,  -2340,    990,   7699,   4518,  -1205,    -16,  -1816,    936,  -1270,   3080,    755,  -3220,   1020,    712,    443,  -5455,  -1864,  -5572,  -2711,  15076, -12351,   1086,   1314,  -2978,   1780,    698,   4109,   7214,   7786,  -2146,   -637,    896,   2364,   1056,  -1439,   1619,   2110,   1063,  -1477,    392,  -1145,    857,  -1733,   1350,   2595,  -3407,    862,   3419,  -1848,   6680,   -136,  -6291,   4991,   1993,    222,   1619,  -2599,  -2291,   1592,  -5443,   -604,   2428,  -1606,   -841,    740,    364,   -245,  -1523,  -1687,    822,  -2214,   1808,  -1298,   4825,  -1180,    462,   2433,  -2539,  -1381,  -9412,    357, -11220,  -6786,  15855,  -4604,
          1110,  -1746,   3660,   1055,   -316,   1176,   1976,  -1971,    403,  -1282,   -891,  -1142,   1256,  -1600,  -1625,  -1796,  -2207,   -489,   2316,   2667,   1802,    -17,    647,   1852,   1189,  -1731,   1355,  -1568,  -2342,   5895,    670,  -2939,  -1809,  -3339,   2507,  -1117,   1838,   1276,   2580,  -3292,   -719,   1380,   -866,   -119,  -6010,   8959,   -862,   7884,   1158,    589,   2527,  -2798,  -1640,    -33,    -87,   -402,   -426,   1939,  -2467,  -2097,  -2529,    877,   3072,  -4960,   2034,  -1928,  -8179,  -2692,  -8442,   6717, -15699,   2129,   1923,  -1597,   -497,  -1987,  -3306,  -3281,    963,   1296,    485,   2416,    872,   -798,   2700,   2671,  -1696,  -1709,   1537,    363,  -5213,  -2469,  -2319,  -4941,  11902,   2170,  -1858,  -2084,  -1419,   -785,   -532,  -1159,   -668,    709,   -699,  -1386,   2198,  -1899,  -1492,   -546,  -2499,   1954,    -21,  -2825,    636,   1368,   1852,  -5775,   9330,  -2507,   1219,  -2077,  -6003,   -863,  -2917,   1725,  -1576,  -4066,   3137,   5294,   4382,   -204,   2393,   1968,   3768,  -1397,  -1606,   -504,  -2716,   1741,    503,  -3316,     90,   -716,   1861,  -2544,   1533,    103,    417,    490,    757,   2649,  12465,  -8524,   8670,   -921,   5393,   4383,   5945,  -1920,  -1021,     39,    704,    886,  -2656,  -2180,    557,  -1814,  -7663,   4716,  -6437,     92,   5343,   4519,  -6719,   -902,   -281,   4673,   2483,  -2554,   2877,   2182,   1987,    880,   6090,   1357,   5646,   5238,  -4342,   7212,   8075,    499,  -5115,   9748, -12709,   7901,   5400,  -8858,  -6753,  -1647,    667,  -4206,    171,  -1347,   2019,  -2899,  -1963,   1776,   2483,  -1967,   -718,  -2599,   2281,  -1674,   2191,    542,  -1028,  10234,  -4763,   -361,   -560,  -5651,  -1965,   -822,  -3068,   1823,  -2549,   2651,   2065,   1731,   1397,    558,   2407,    361,   2195,   -636,    407,   1585,   1063,   1176,   -181,   1216,  -3576,   -455,    136,  -4407,  -1204,  -1911,   8980,   2441,    364,   4068,  -1302,   3059,   3481,    545,   1392,  -1450,   5952,   1030,    728,   -855,   2890,    479,  -2628,  -3013,    803,   2411,    888,   4105,  -1661,  -3143,   1108,  -1557,    507,   2353,   1412,   -801,    383,   2274,   2184,   8856,   4041,    -42,  -1064,   7164,   3067,  -2060,    560,  -2047,   1369,  -1417,  -2122,  -1081,   -358,  -1737,   7710,   3039,  -2096,   4765,   -226,   5029,  -2673,   1706,   -578,    270,   5385,   -354,    227,  -1309,   4842,  -2689,  -2760,   9939,  -5042,    810,  -3687,   4047,  -5200,  -1665,   1592,   3828,  -3668,   -920,   3807,  -1904,   1954,    -70,   1052,  -9454,   -731,    311,  -2580,   -557,  -1705,  -2671,    -59,  -2628,  -2282,  -2387,  -1346,  -1814,  -2201,   2313,   3530,  -6909,   2841,   1482,   3191,   3977,   6336,   -163,   -637,  -3751,   2576,  -2343,  -2439,  -1378,   2119,  -3423,  -2242,   1381,    684,  -1023,   -221,  -1127,   -135,   2342,   -405,  -6939,  -1356,   2118,   1934,   4209,    558,  -1721,  -3703,   8327,  -6118,     29,   -228,   2289, -10643,  -1894,    634,   1738,   -756,    489,   2633,   -247,    162,  -2868,  -1951,     29,   -802,   -563,   3869,   2426,  -1296,  -2302,  -1297,   2047,   2299,  -1604,   1701,  -2588,   1760,   2481,  -4061,   2147,   2653,  -2906,    548,  -5964,  -3945,   2469,  -1705,  -1262,   -623,    265,   -158,    366,  -1096,   1430,   4190,   -401, -12373,   6107,   5421,    699, -10650,  -1353,   1116,  -1652,   3468,   -281,   -950,  -1158,    943,  -3089,  -2287,   3354,   1905,  -5577,   -385,  -4794,   4622,   -902, -10825,  -2944, -10659,    396,    449,  -1313,  -9545,  -2492,  -1553,  -7615,   -505,   2594,   -862,  -2621,  -4218,    431,   2203,   2200,  -2625,    227,    477,   2271,  -1887,  -1808,  -2402,   6093,  -1420,    492,   3541,   2922,  -7730,  -2304,   -860,    100,   -873,   -682,   -910,   1186,   -472,   1158,   -423,    951,   1489,   2013,   -633,   -106,  -1313,  -2055,  -5689,   5202,  -4635,     94,   3402,   2410,  -2444,  -2453,  -2051,   3608,   1922,  -2314,   1840,  -5143,   1411,    -38,
           112,   5553,   2412,   1381,  -2218,    920,   3691,   1361,   1933,    951,  -1356,   4975,   -143,  -1421,   1677,    117,  -2708,  -1400,    819,   2576,  -1326,   -315,    358,   -922,   -704,  -1875,  10142,   1103,      6,    289,   3254,   -903,   -989,   -917,  -1667,   -593,  -1384,   -270,      8,  -2140,  -8255,   3576, -10305,   -266,   5285,   6760,  -9176,   1290,  -1778,   2614,   1443,   -360,    687,   4371,   2455,  -1418,   6710,  -1285,   5494,   5656,  -5484,   8124,   8094,  -1413, -11103,   7416, -11744,   6721,   3020,  -6640,  -8100,    725,    365,  -1749,   2547,    292,  -3155,   1400,   1661,    399,  -2134,    -25,   1526,   1351,  -1402,  -1358,    200,   1458,   3503,  13733,  -1980,   1680,  -4022,  -6283,   -481,    454,  -3940,   4233,  -1260,    563,  -1117,   -226,  -1387,  -2778,   -251,  -1611,   2340,   2513,   1584,    -39,  -2382,  -1358,   2767,   9148,  -5704,    520,    557,  -5503,   -212,  -2395,   7899,   2521,   6136,   5771,  -3295,   6309,   4813,   1829,   4202,  -5673,   4090,    145,   1183,  -1333,   2423,   -315,  -2316,  -4737,   1815,   1939,   1530,   6713,  -1979,   -619,  -2203,  -1136,   2200,   2668,   -299,   2072,    676,   -932,   5571,   3043,   7795,  -3259,    418,   4832,   6485,   -539,   -511,  -2233,   -477,   3024,     75,   -957,  -3835,  -2769,   1726,  14591,  -5921,  -1211,    948,   -226,  -1834,    645,   2639,   3911,   2889,   1321,   2264,   1915,   2001,   1098,  -4017,   9381,  -4507,   -249,   -863,   4768,  -9913,   -661,    455,   6315,  -1806,  -2378,   3583,  -8827,    382,   1297,  -3389,  -5164,  -1757,   2582,  -2304,  -3567,   -633,    917,    940,  -1257,    186,   1834,    585,   -336,  -1082,   -313,   4641,  -2826,   4146,   4760,   3569,   3557,   7522,  -1466,    753,  -2819,   -670,   1505,    557,  -2666,   1395,   -761,   -989,    -24,    538,   -115,   2306,  -1785,   1736,    795,   3980, -10321,   2218,   2891,    563,   3944,   3714,   -343,  -5789,   8968,  -2223,  -3713,  -1452,   2420,  -6674,   1949,   3444,  -1878,    305,  -1342,   3605,   1906,   -754,  -2823,  -3385,   5677,   3650,   2345,   2176,   -350,  -2363,    -19,     51,   -767,  -2200,   2609,   1199,   2102,   -244,   -302,  -2168,  13870,   4361,  -5371,    908,   4249,  -2335,  -1840,  -3054,  -2683,  -3159,  -1173,   -444,   1303,    508,  -1158,   9867,  -2503, -12468,   8868,   -491,  -2929,  -6360,    304,   3462,  -1255,    467,   2077,   1990,   1001,  -1845,  -2057,  -4408,  15437,   4531,  -7902,   1696,  -7101,   3737,  -2379, -10367,  -1705,  -8159,   -799,   2865,  -7605, -12202,   2648,  -3573,  -3508,  -1820,    443,    597,   1240,    154,  -2612,  -1029,    924,   2177,    118,  -1266,   -421,    156,    872,  -4980,   6679,    845,  -1110,   1040,   5493,  -3087,  -1025,    -36,   -998,   2784,  -1855,    429,  -3719,   -457,   -156,   2331,    728,    928,  -1925,    356,    -74,   -549,    -88,  -5217,   7919,    813,   1216,   3287,   4174,  -1191,   1044,  -3149,  15249,   4633, -10021,   2296,  -7277,   4242,  -2706,   3758,   2665,   3544,   1940,  -2195,  -1220,   2902,  -3267,  -1225,   -649,   -303,   5211,   1342,  -1361,   1495,    309,   1878,   1167,   1981,  -1276,  -1323,   1367,    403,    807,   6996,   4820,   7150,   1934,    296,   8730,   7837,  -1526,   1683,    501,   1814,  -1231,   2374,  -2084,   -405,   1865,  -2069,   2624,  -7240,   4201,   7336,   5969,  -5879,   -186,   2291,    498,    755,    839,   2499,   1887,  -1390,   1798,   5789,  -1956,  10799,   6653,  -5206,   9310,  10922,  -3063, -13533,   8038,  -8105,   3631,   1716,  -6119,  -3677,  -2225,   2023,  -1065,  -1497,    940,    889,    830,   1535,   1218,  -1149,  -1022,   2173,   1151,  -1064,    470,   2412,   2130,     74,  12289,  -4095,   5986,  -4125,  -1735,  -3057,    242,  -3422,   1545,  -2852,   -887,  -2388,  -3329,   -877,    347,   -565,   -616,  -1751,   2225,  -1089,   2637,  -2302,  -1843,   3936,  10701,  -7176,   3274,  -5077,  -2558,   -689,  -1845,   6528,   -605,  12914,   3156,  -1584,   8493,   8975,  -1136,
          1302,  -3383,   1967,   2657,   -529,   3370,   3024,    863,  -3102,  -4741,      2,   3849,   2185,   3683,   -896,   -787,  -1106,  -1791,  -1255,  -1447,   2553,    396,   1001,   1105,    862,   7842,  12342,  -2309,  -3292,  11240,   7327,   -110,   1854,  -1161,   -122,  -2117,  -1393,  -2198,  -3621,   -140,   3318,  14529,  -3520,   3382,   4726,   4222,   -662,  -2216,   1729,   5795,   2012,   1518,    950,   1146,    332,  -1546,   -536,   3644,  -9805,  -3453,  -2457,   3668, -12883,    611,  -6376,   3596,  -1234,   2260,   3221,   1237,  -2761,   -331,   -866,  -3053,    -83,   1034,  -3123,   2155,  -1932,  -1918,   -570,  -1751,   1433,   1142,  -1828,  -2241,   -317,    741,    965,  -1761,   5719,   6290,  -2010,   6918,  10281,  -2198,  -2216,   1990,   2205,  -2045,   2081,  -3101,  -1852,  -2292,   2315,   2619,   -732,   -934,   2030,   2182,   2635,  -2298,  -1391, -11243,   6178,   1574,  -3532,   6987,   7025,   -281,  -4531,   8122,  -8237,  -5318,   1188,   3333, -12335,   -536,   2563,   -631,    739,   3074,   2460,   3343,    807,    736,   -801,   7861,   -340,   2115,   3388,   1956,     -7,    709,  -1486,    274,   -731,    173,  -1871,    679,   1863,   -243,  -4222,  14515,   6015,  -4118,    219,   4345,   -689,    980,   1306,  -4857,  -3927,   1828,  -1276,   2380,   -953,   -354,  10127,  -3279, -12677,   8235,  -1238,    632,  -8101,   2028,   3749,  -3479,    466,     49,   1524,   -218,    524,  -3173,  -1600,  21180,   4359,  -8614,   1604,  -8872,   5663,   -309,  -8991,    436, -11000,  -1762,   3680,  -7145, -11299,    943,  -4515,  -7781,  -4298,    940,   1332,   -694,  -2656,  -2412,  -1011,   1053,   1093,  -2357,  -2277,   2202,  -2328,  -2267,  -7446,   3553,  -2233,    659,    -10,   7489,  -4243,  -2314,    223,   -107,   1588,   1239,  -2973,  -2469,  -2095,   -351,     13,  -1053,    248,  -1258,   1716,   2080,   1329,  -2425,  -4014,   8176,  -4780,   1136,   4246,   4517,  -3619,   -595,  -1623,  21421,   4801,  -8680,   4406,  -5141,   1570,  -1062};

    const static Filter<int16_t> _conv2_conv_filter(_conv2_conv_filter_element, -15, {3, 3, 16, 16}, {1, 1});
    const Filter<int16_t> *get__conv2_conv_filter()
    {
    	return &_conv2_conv_filter;
    }

    const static __attribute__((aligned(16))) int16_t _conv2_conv_bias_element[] = {
          -262,   -332,    434,   -190,     95,    241,   -331,     46,    286,   -328,    -51,    278,    363,    338,    -78,    -82};

    const static Bias<int16_t> _conv2_conv_bias(_conv2_conv_bias_element, -12, {16,});
    const Bias<int16_t> *get__conv2_conv_bias()
    {
    	return &_conv2_conv_bias;
    }

    const static Activation<int16_t> _conv2_conv_activation(ReLU);
    const Activation<int16_t> *get__conv2_conv_activation()
    {
    	return &_conv2_conv_activation;
    }

    const static __attribute__((aligned(16))) int16_t _conv3_conv_filter_element[] = {
         -2667,  -1055,    402,   2384,  -2718,  -1343,   1970,  -1461,   1023,   1155,   -216,    -57,   -484,   1506,   2335,    -75,  -1864,  -1414,   3161,   3950,  -1641,   5434,   -401,   -784,  -1978,   -589,   1866,   1395,  -2680,   2402,  -1687,    357,  -1757,  -4686,   4363,    667,  -1363,   5417,    844,   -766,   2891,   -507,   2395,   4264,     37,   -406,  -3235,   2057,  -5380,   2694,  -6106,  -1982,   -847,  -3618,  -1350,   7444,    586,  -3754,   4968,   3194,     27,   -139,  -2289,   -235,   2858,  -7378,   3532,   3028,  -2805,   6370,     67,   5403,    456,  -1821,  -3523,   5368,  -1426,  -1062,    874,  14146,   -877,    790,   2649,   -836,    752,   6772,   -148,  -5413,   1725,  -4681,   -526,   4333,  -1401,     47,  -2590,   6115,  -1071,    274,  -1181,    245,    642,   -174,    194,  -2817,    240,   -220,   1661,   -631,   -208,   4419,  -1195,   3677,   1053,  -8220,   2328,   1731,  -1445,   6448,   1002,  -1785,  -2144,    930,  -1849,   1319,  -1589,   2603,  -2330,  -1026,    940,   2918,  -1571,   -729,  -2535,   1533,   2348,  -1604,   2663,   -152,   -540,   1079,  -1195,  -1373,  -1768,     69,   2443,   -997,    518,  -1271,   -734,   -607,  -1724,  -1176,    224,   1564,     34,   -906,    158,    733,   -474,   1125,   1268,  -1458,    617,   -511,  -1279,  -1292,  -2349,  -2428,    -90,  -6847,    226,   1973,   -397,  -2445,  -2836,   5343,    317,   6660,    820,   1891,  -2910,   -153,  -1855,   2957,     15,  -3856,   2156,   2161,    190,  -4279,  -2754,  -5299,   -390,  -6361,    869,    513,  -2106,   1188,  -2014,  -2748,   3805,    278,   4201,   3081,    680,  -2713,  -2540,   4834,  -1742,  -1053,   -706,   1347,   1236,   1548,  -2545,  -3755,   4587,  -1029,   3661,   2320,  -2034,   1702,  -2073,  -2821,   1972,  -3889,   1922,    652,  -1339,    103,    317,  -1040,   5408,    915,    788,   4558,  -1541,   1607,  -2150,  -1603,  -2869,  -1627,  -1425,   3006,   -703,  -2648,  -2083,   -546,  -2561,   1083,   -660,  -1017,   1401,   -832,   2696,   2602,   1339,   -132,   1455,   1534,     15,  -1217,   -998,   1242,   1143,  -2662,  -2979,   3339,    860,   -480,  -2639,  -1111,   2553,  -2658,   1471,    628,    -58,  -4004,  -2780,   2729,    554,   1875,   1963,  -1952,   1331,    377,    979,   -924,  -2216,  -3690,   2214,   2168,    176,  -5737,     35,  -2121,   4278,  -2568,    -52,   5118,  -2170,  -2334,  -2886,  -3477,  -2054,   6060,   3238,  -2873,    152,  -1116,  -1811,  -3407,   1009,  -4152,   1315,   2129,    144,  -5405,    867,  -2403,   1650,  -1943,   1618,   2300,    156,  -2969,  -1135,   4396,   8182,  -1569,   3351,   6832,  -1732,   3046,   -887,   1276,  -1795,    946,  -1452,  -3131,    337,   -671,  -1210,   2702,   1312,  -1069,   4006,   2643,  -3001,    -70,   2141,   -242,  -1912,  -5042,    417,   2727,  -2194,  -2046,   1294,  -3142,    172,  -6720,   -478,    390,   -441,    370,  -3188,  -1042,  -2629,      7,    168,    453,   -933,   -154,  -1725,   -770,    988,  -1784,   -264,  -2564,  -1511,   2271,  -2359,   2667,  -1319,   2529,  -2906,   -376,   -916,   2945,  -1337,  -1413,   -869,   2506,     -1,    823,   -537,   2472,  -1090,  -2614,   1635,  -3922,   3627,   -822,  -1589,   7035,    616,  -2315,    666,    921,    -73,   1220,  -1748,   1504,  -2210,    820,  -1795,   -612,   2183,    457,  -2809,   5920,   2613,  -6869,    277,   4009,   4156,   1825,  -1633,  -4775,  -3020,   3904,  -5874,   6946,  -4679,  -1273,   1055,  -2752,   1003,   7901,   2105,  -2605,   1897,  -1377,   1158,  -3374,  -1121,   -609,   1197,   1122,    782,   2479,    519,   1777,   -392,   1756,  -3614,   2648,  -4013,   1408,   -457,  -8566,  -1042,  10044,  -1396,   6143,  -2333,  -2538,  -2941,   7751,    808,  -4834,     20,  -1159,   2784,  -1054,    443,    890,  -1231,   5485,   1682,    146,    141,     -4,  -2505,   2364,   -312,  -2978,    466,   4001,  -3982,   2072,  -1035,   5563,   -255,   3283,  -1357,  -4397,  -2196,  -1109,   2324,   5482,  -2230,  -6735,  -2092,   1179,  -1259,  -1572,   2150,    283,   2324,   1364,
         -2939,    452,  -1224,  -1116,   1902,    917,    457,   1858,   1198,     51,    133,    363,   1306,   3145,    545,    348,    785,  -1730,   -448,   1338,   1056,    678,  -1198,    892,  -1451,    -27,   2491,  -1131,    676,   -364,   -234,   -265,   -354,    169,    661,  -1136,   1465,   -870,   1861,   1145,  -5088,  -7752,  -3738,    311,  -1510,  -2460,   -136,   3119,    125,   7135,   3984,   3756,   1843,  -2616,  -1432,   2148,     38,  -3315,  -2838,  -1796,    914,  -5626,   1228,  -8332,    856,  -3843,  -2997,  -1928,   2115,  -3415,  -2435,  -2632,   2516,   4020,   2208,   1582,   1182,  -1161,    720,   -391,  -1061,    733,  -1185,   -525,  -2556,  -3605,   -355,   2532,   4264,   1234,   2264,   -735,    969,   1162,  -1568,  -2695,   2447,   -947,   3616,   3709,   2014,  -2420,   -185,  -1697,   1023,   1012,   2805,   2767,  -2822,  -2310,  -2996,  -1707,  -1499,  -1157,    392,   -621,  -1851,  -4949,  -2107,    789,  -2726,   2062,   1944,   2655,   2644,   1370,    735,  -1630,   1908,      3,  -1870,   1498,    784,   1282,   1470,   -107,   1332,  -1134,   1126,   1003,    692,   -534,   1015,  -1005,   -505,  -2535,   2922,   -316,  -2353,  -6023,  -3055,   1265,     14,     21,    551,   -534,     11,  -1314,   -786,  -2099,  -3324,  -2557,    960,  -2554,   1358,  -5128,  -1647,  -4334,   5853,  -3544,   3169,   3519,  -1063,  -2014,  -1179,  -4752,    807,   5541,   -168,  -3625,   1866,    520,   -644,  -4158,   1640,  -5856,   3755,   1350,  -1895,  -5523,   -291,  -4828,  -3222,   4226,   1381,   1688,    785,  -7674,     12,  -1215,   4423,   1843,    537,   -483,    821,     -7,   -498,  -3864,  -2476,   5264,  -2605,  -1160,   1225,  -3282,  -2968,     13,  -2186,    237,   3854,  -1320,   -905,  -2101,  -2297,  -3362,   -131,  -2051,    826,  -1496,    558,  -1941,   -645,  -3855,    -41,  -7543,   1389,  -3310,  -2872,  -5223,  -1849,    430,     33,   6193,  -1700,   -804,   1960,   -207,    498,  -2402,  -1380,    176,   1567,  -2506,    175,   1920,  -2489,  -2349,   -816,   -423,  -1861,  -2592,  -2370,   -193,    674,   2446,   -399,  -2877,  -2139,  -1735,  -1182,   1820,   1056,  -2412,   2059,    869,   2149,     -4,   1052,  12979,  -2122,  -6850,  -1777,    271,  -1423,   -282,   2317,  -2717,  -1396,   3270,   1554,   1767,   -104,  -2123,    981,  12989,    310,  -5780,  -2375,   3904,   2849,  -1191,  -3011,   3474,    756,   7240,  -7133,   3508,  -3790,  -2221,  -2340,   2486,    949,  15907,   3731,   -697,    980,  -1971,   1450,   3642,    305,   3716,    227,   1536,    -30,  -1008,    559,   9316,   1400,   -775,   -136,   1638,  -3686,  -2890,  -1044,  -1495,   1897,  18486,  -1377,    971,   -150,   -480,   -928,   8018,  -2880,  -5453,  -1040,  -1532,   1109,   -499,  -3252,   2517,   1306,   8078,   4727,   4143,   1834,   -522,  -2822,   4148,  -2571,  -5168,   -449,   4299,  -3753,  -1559,  -2723,  12921,   2092,   6521,      2,  -4521,    275,  -4012,  -1833,  12770,  -1287,  -4402,  -1912,   1391,  -2170,  -2133,    584,  -1511,   2378,  -1768,    391,  -1700,  -2026,   1469,  -2461,     21,   -569,     28,  -2920,  -2293,   -223,    -50,  -2189,    994,  -1582,  -2087,  -1080,  -1258,  -2136,  -1574,   -140,  -1081,  -2065,   1132,  -1783,  -1750,   2582,    990,   -578,   1777,   -606,   1393,   3206,  -2360,  -2158,    108,   1438,     19,  -3004,   1726,  -2504,  -9302,  -2285,   1133,  -2446,   2397,   -679,   6929,   2944,   8541,   -531,    517,  -1307,   -123,    169,   6695,   2027,  -4003,  -1358,   -396,   1303,  -2199,  -2985,  -5450,  -1507,  -2068,    101,  -3100,   -525,   1766,    130,   4871,    764,   1270,   3492,  -2226,   -466,   2214,    180,  11270,   -231,   -574,  -3603,  -2856,   1075,   3388,    588,   1347,   1720,  -1403,   3691,   1187,  -2190,   -922,   -886,  -1857,   1691,  -2424,   3385,  -1196,  -2270,   -307,  -1098,  -3118,   5406,   2007,   3122,   1373,  -1575,   1062,    693,   1512,    973,   1580,  -2391,   1093,  -2884,   2547,   2261,   6708,  -1076,  -1034,   -273,   -197,   2546,  -1820,   -743,   -683,
          -995,  -1929,  -2796,   2612,   1875,   1749,  -1737,   2292,   -450,  -2394,    871,   -803,   1478,   3134,  -1048,   -870,  -3429,  -1696,   1771,  -3476,    570,  -1356,  -1359,   2435,    941,   3001,   1343,   -426,     19,   2538,  -1157,   2270,  -3963,  -1039,   1353,  -2317,  -1456,   -392,   2130,  -1177,   5071,  -1281,   4184,   1429,   -642,    189,   -385,  -2546,   -742,   2125,   -557,  -1485,  -1727,   4031,  -1073,  -2954,   1636,  -7384,   -666,  -1704,   -122,  -5306,   -387,  -8458,  -2311,   1090,   -342,  -3590,   1257,  -5670,   2226,   1935,   6594,    544,  -1009,    830,  -1947,   7983,  -2166,   2639,  -5454,   3911,   -626,  -4313,   1410,   1779,  -2560,   5206,   2339,  -4214,   3654,  -3074,   -579,  -4118,    122,  -4109,   -735,  -5228,   3209,   2246,  -2749,   -926,   2118,  -2043,  -1885,  -8752,   3768,  -5803,     -7,    177,   1084,   3796,  -4298,   3467,  -1384,   -507,    282,  -2375,  -1290,   1026,  -1719,    542,    918,    869,   1619,  -2700,  -1126,   1547};

    const static Filter<int16_t> _conv3_conv_filter(_conv3_conv_filter_element, -15, {3, 3, 16, 8}, {1, 1});
    const Filter<int16_t> *get__conv3_conv_filter()
    {
    	return &_conv3_conv_filter;
    }

    const static __attribute__((aligned(16))) int16_t _conv3_conv_bias_element[] = {
            90,     95,    362,    191,   -116,      3,    -28,     93};

    const static Bias<int16_t> _conv3_conv_bias(_conv3_conv_bias_element, -11, {8,});
    const Bias<int16_t> *get__conv3_conv_bias()
    {
    	return &_conv3_conv_bias;
    }

    const static Activation<int16_t> _conv3_conv_activation(ReLU);
    const Activation<int16_t> *get__conv3_conv_activation()
    {
    	return &_conv3_conv_activation;
    }

    const static __attribute__((aligned(16))) int16_t _fc1_gemm_filter_element[] = {
          8081,   6576,   5484,   -753,   3542,  -1245,    660,  -1347,    183,   -472,   2325,  -1254,    -49,     42,   1037,  -1440,   1625,   3262,    773,    226,   3868,  -1451,  -1498,  -1853,    643,   -617,   -599,   -249,    104,   -601,   -373,   -905,   2389,    948,   1012,  -1288,   1032,    144,  -1206,   1558,   1428,   2689,   2068,    917,    -69,  -1120,  -1022,    913,   4330,   2672,   3463,    715,  -1073,    288,    257,  -1503,   -137,    616,    973,   1028,    638,   -686,    100,   -568,   -487,  -1790,   -937,    930,    298,   1361,   2111,    679,    592,    226,   -923,  -1546,    644,  -2001,   -643,    965,  -2233,  -1359,   1455,   1367,   2454,   1215,    555,   1230,   2126,   1060,   3271,   -439,   -227,    888,   2748,  -1184,   -656,   -227,  -1753,  -2176,  -1092,  -2133,   3049,   -947,   1630,   1698,   2353,    826,    446,     43,   -267,    877,   1341,  -1958,    212,  -1640,   2134,   -660,   1705,    254,  -1494,  -1241,    283,  -1305,   -335,    491,   -906,  -1164,  -2222,  -2335,   -139,    -22,   -135,    985,   2229,  -1630,     90,   -386,   1945,    972,  -3708,  -1448,   -755,   -280,   2687,  -1063,    804,    -90,    794,  -1511,   4482,   1473,   -300,   -497,   -285,  -2049,  -1762,  -1819,    793,   -932,  -1906,    282,   -882,  -1713,   2768,    988,   1272,   -436,    835,   -627,  -1324,    318,   2656,  -2034,  -1860,    562,    958,    116,    -79,   -928,   2836,  -1613,  -1104,  -1779,   -757,  -1303,  -1608,    129,   -999,   1325,     81,   -949,    814,  -2362,   1788,   1284,    425,    589,   1819,    106,    304,     32,   -742,  -1656,   2759,    917,   1656,  -1049,    895,   -522,    845,  -2066,    379,   1251,   -774,   1342,   1951,   -632,   -238,  -1046,   3119,  -2100,  -1318,   -441,   -458,  -2211,   1482,   -548,   1897,   -894,   -588,    650,  -1062,   -603,   -793,  -1048,    318,   -574,  -1221,   -525,    450,  -2270,  -1945,   1486,   1180,   1381,    850,   -391,  -2350,  -2206,   -385,  -1552,    -96,   -962,   5833,   1594,  -1430,  -2170,  -3329,    720,    684,   -542,  -1397,  -1705,   2193,   -265,   -195,    352,   1611,    682,   1923,  -1511,  -2578,  -2816,  -1707,   1379,   2550,    596,  -2390,   -886,    207,    770,  -1552,  -2256,  -3396,  -1669,   1678,    199,   1059,   4204,   6305,   1000,   5152,  -1677,  -9137,   -567,   1301,   1841,   3997,  -1811,  -1500,   -729,   3710,    607,   2146,   2949,   2928,  -1877,   -669,    616,   2170,   -891,   3109,   -940,   2401,  -1131,  -2209,   1837,   3659,    716,  -6657,  -4084,  -7049,    113,   2122,    871,  -2177,  -1801,  -7361,  -5225,  -7727,   -203,  -2627,   1117,    153,     73,   2398,   6805,   6569,  -2138,   6599,    594,  -9310,   1024,   1548,    483,    892,   -732,  -5335,   -491,   1293,    336,   7248,   4118,   5226,  -1274,    105,   -319,     83,   -850,   2573,    631,    -90,   -560,  -2442,   1624,   1209,   -720,  -4563,  -3307,  -4214,  -1198,   -849,    411,     -8,    420,  -4096,  -7476,  -6322,  -1674,  -1401,    386,   1835,  -1332,  -3407,  -3585,  -1868,   -306,   5061,   1130,  -8828,  -1499,   -362,   -936,   1226,    452,  -1591,   1392,    518,    -25,   3543,   2697,   2574,   -168,  -1694,    551,   2005,  -1648,   1041,   -280,   -900,  -1832,   -889,   -195,   2556,    432,  -2817,  -5161,  -3872,  -1170,     84,   -854,   2107,  -1276,  -7507,  -6933,  -7354,   -829,   -168,  -1173,   2834,   1067,  -4772,    824,   -913,  -2322,   7780,   -965,  -5423,   1126,   3513,   1359,   2569,    442,   -323,   1571,   3043,   1559,   1830,   1105,   3416,   -177,   -751,   1537,   1740,  -1229,    342,    717,    399,   -360,  -3552,  -1021,    729,     90,   -654,   -240,  -2446,    592,  -1174,   1629,   1806,   1792,  -8618,  -8871,  -8490,  -1451,  -3267,   -499,   2528,   -483,    612,   7116,   4666,    258,   6710,   -488,  -2945,    689,   2867,   1752,   4640,  -1422,  -1305,    613,   1828,   1047,   6635,   2926,   5563,    360,  -3769,  -1570,    291,     67,   3451,   2250,   2173,  -2358,  -5721,  -1142,   4884,   -677,
         -1743,  -3041,  -5947,  -3085,   -979,   -282,   -958,    504,  -7685,  -8828,  -9929,   -200,    -13,   -607,    -42,    527,   6665,  10714,   8448,   -534,   3656,    975,   1346,  -1493,    320,   2615,   5008,  -3028,   1220,   -457,  -1406,   -704,   5917,   4798,   4111,   -358,  -1359,  -1645,   1280,  -1626,   4041,   2707,   2051,  -1609,  -1447,  -1681,   2669,  -1632,  -6434,  -4403,  -8744,   -411,    924,   1864,   1688,   1421,  -5304,  -6187,  -7318,    557,   1313,    871,  -1006,   1357,   8305,   7991,   9593,   1117,   4118,  -2335,   2144,  -1484,    -82,    475,   2413,   -329,    740,  -2000,  -2029,  -2034,    741,   4093,    749,    554,   3564,  -1635,   -342,  -1736,    639,   1800,   2367,  -2188,   2537,   1333,   -237,    748,    484,   2070,    645,   -254,   3915,    635,  -1012,   1441,   4198,   3039,   1760,    225,    653,    215,   -255,   -457,   -192,  -1344,   1955,    569,   -130,    682,   3415,   -833,   -534,   2283,   2379,    301,  -1689,    -89,   -516,  -1722,   1601,  -1884,   -216,    899,   -499,    960,   1012,   -239,  -1055,  -1730,   -372,   -263,   2568,  -1971,    355,    903,  -2417,   -156,    -61,    232,   -656,   1102,   -534,    763,   4728,   2700,   4165,  -2293,  -1112,    466,   2202,   -958,   -686,  -2235,    447,  -1323,   -350,    229,    258,   -954,    935,   2348,    103,    485,    215,    819,  -1539,    177,    716,    174,   -166,    271,   1114,   -795,  -2111,    768,     94,   -888,    601,    428,   1299,  -1333,  -1077,   1413,  -2852,    230,   -724,    384,   -169,   -940,    766,    241,   2658,   2954,   2750,  -2028,   1294,  -1865,   2328,   1037,   3039,   -908,   1632,    241,    592,   -398,   2546,   1406,    779,    141,   1271,   -974,   -884,    577,    263,   -211,    652,  -1827,    573,   -709,   1400,    -57,  -1554,   -600,   1868,   -985,   -526,   -549,   1883,   -482,    595,    987,    885,    606,   1975,   1233,   2705,    315,   -510,     25,   -477,   2114,   1224,   1333,    687,  -2176,   -261,   1680,   1334,  -1210,  -1559,    560,   1096,  -1683,    463,    877,   2438,    238,   2658,  -1149,   -670,  -2101,  -1979,    271,    473,  -1121,  -1226,    176,  -1069,   1503,   -869,  -1944,    259,   -577,   -980,    268,    131,  -2171,    588,   1019,   -949,    744,    859,   1083,   1863,    501,  -2079,   -843,    834,    408,   2301,   -244,    304,    973,   1236,   -513,   -586,   1066,   -663,  -2218,   3916,   -958,  -2521,    696,   1658,    535,    456,    379,   -885,   -717,   1186,    366,  -2142,   2337,  -1500,  -1933,    666,   1171,  -3466,   -693,    512,    338,   1283,   -145,   1054,  -1994,   2104,   -277,  -2069,  -2945,    -20,    866,   1451,  -2341,   -272,  -1642,   2187,   1638,   1986,    401,    180,   -699,   -530,   -979,   5136,   3324,   4084,   1404,   3005,   -661,  -1656,   -653,   2618,   1764,    685,   1465,    698,  -1207,  -3150,   -156,   -245,   2757,    827,  -2164,   4689,   -264,    -34,   -654,   1952,   2274,   1292,   -350,   2085,    613,  -1158,    900,    945,   3676,   1982,    162,   4982,    619,  -2486,   -268,   3052,   3797,   3265,   -778,   -303,    147,   -295,  -1379,   2143,   2160,   1965,  -1405,  -1342,    948,   3551,    362,    894,   -426,  -1344,   1464,   -404,  -1317,    693,   -804,    130,    203,  -1112,  -1556,   -814,   -285,    120,   1211,  -1138,    760,  -2137,  -2181,    437,    232,    389,   -223,  -1860,  -1769,   1027,  -2159,    521,    206,   2677,   1504,   -494,    522,    145,  -1447,   -561,  -1107,   2197,   1505,   1550,    669,   1839,   -192,   2245,   1155,    832,   1736,  -2824,   -472,    487,    909,  -1605,  -1894,  -2150,     39,     72,    271,  -2471,   -515,  -2372,  -1332,    606,   1300,  -1330,  -1281,   1347,  -1911,  -1670,  -2268,   -632,   -191,     -7,    526,  -1414,   1038,   2019,   -183,   -382,    462,    349,   1400,  -2301,   -537,  -3066,  -1916,  -2091,  -1071,    265,  -1816,   1302,  -1093,  -2744,    958,   4441,  -1703,  -2194,  -2347,  -1926,   -452,   -479,  -1709,    959,  -1650,
           233,    -47,  -2292,    446,  -1609,     93,    -79,  -2005,    -42,   -196,  -2318,   -636,    367,   1299,  -1177,   -608,    527,   1147,  -1226,    366,   -219,   1342,   1988,  -1828,    113,   -584,  -1630,    413,    153,    226,   1526,   1333,    207,    520,   -292,  -1668,  -3324,    292,   1662,  -1781,    653,  -1292,  -1198,   1341,   -866,    -74,   -390,   1307,   -683,  -2342,  -1803,    885,   1004,    697,   2198,    251,  -2246,   -616,    302,   -487,  -1310,   -549,    278,  -1557,   1456,   -600,   -795,    850,   2087,  -1863,    -91,   1478,   -344,     33,   1336,   -927,    -81,   1291,    488,    473,  -1330,  -1581,   1256,   -809,   -232,  -1868,   2651,   -323,   -593,   1214,     -3,    412,   -145,   1461,   3129,   1361,  -2340,  -2972,  -2540,  -1827,    174,   -307,   -488,  -1791,    447,    718,   -671,   -862,  -2304,    472,   2389,   1223,  -1450,    862,   2559,  -1679,   3611,   -360,  -2465,   -337,   1184,   1334,   1225,   -560,  -2783,    408,    781,   -112,   2007,    452,    224,   -763,   1395,   1316,    744,    706,  -1919,   1097,   1150,   -639,   1364,  -1822,   -748,   -791,   1537,  -1310,  -1701,   -422,    822,   1099,   -102,    -26,  -1135,  -1393,  -1307,   1486,    682,   -653,   1645,   1392,    456,   1000,   1814,    475,   1089,  -1738,    634,    769,   1787,   1200,  -1917,  -1865,  -1231,  -1548,   1892,    933,   -777,   -546,    227,  -1337,   1457,    173,    -89,   1649,   -794,   1547,  -1030,   -150,   -415,   1503,   -699,  -1247,    557,    637,  -1823,    638,   1492,  -1827,   1698,   -353,  -1208,  -1094,    317,   1202,   -129,    560,  -1214,   1684,   -752,    931,   -841,   1765,    895,    779,    901,   -686,  -1619,   1920,    380,  -1303,   1426,  -1779,   1633,    550,    656,    -63,   -290,   1824,    367,    427,  -1092,    765,   1206,   1500,    641,   1297,   -374,   -948,   -389,  -1750,    517,   -596,    255,  -1536,    788,    302,   1743,     26,   -344,  -1812,  -1918,  -1588,  -1924,   -734,   -156,   1784,   1830,  -1526,   1231,  -1507,   -198,   1570,  -1694,   -326,   1507,   -649,   1194,     38,   -393,  -1773,  -1071,  -1890,   -622,   2098,   -974,   -495,  -1343,   1172,  -1818,  -1759,   1105,    811,    576,  -1887,    -91,   -726,   -376,    294,   -443,   1665,   -914,   -548,    449,    543,   1068,   -613,    623,    979,   1326,   1210,  -1877,    193,   -258,  -1286,    210,    -27,   -929,   -138,   1581,  -1798,   -360,   1568,    845,  -1276,   1211,  -1541,   1094,   -918,    158,  -1091,   -552,  -1323,   -794,  -1268,   1905,     81,   -156,  -1392,   -931,   -647,  -1040,    721,   -830,     59,   -343,   1311,  -1101,   -853,    786,    604,  -1369,   -977,   -612,   1466,  -1250,   1738,    526,   -838,   1179,   1104,    238,    661,   -833,   -466,   -882,  -1581,   1815,   -926,   -117,   1929,    463,   -233,   1420,    820,  -1125,  -1024,   -277,     49,    980,    782,    798,  -1031,  -1133,    845,   -489,   1449,    366,   1585,    923,  -1691,   -142,   -207,    503,  -1145,   1437,   -199,  -1145,   1771,   1642,    603,   -736,  -1573,   1468,   1013,    467,    776,   -299,   1199,   -111,    216,   1558,  -1332,    467,   -328,  -1849,   -760,   -296,  -1284,   1202,  -1840,   1124,    283,   -799,    549,   1360,    -54,   6239,   2812,   6921,    358,  -2477,    707,   5363,   -194,   5137,   4770,   5905,  -2572,   4373,   -480,   -340,    297,   3447,   3795,   6336,  -1391,   1297,   1483,   -210,   -474,   -773,    614,   -874,  -1773,   3141,    349,  -4926,   -138,    900,   2457,   -247,  -2524,   2648,    659,  -3133,  -1753,   -225,   1181,   2267,    583,   1234,   1040,  -5061,   -814,   3472,    845,   1510,  -3033,  -2177,    334,   2360,    887,   1811,   4069,   2311,  -1416,   3485,   -196,  -1120,   1679,   2246,  -2995,  -1734,    243,   -530,    733,    408,   1695,  -1983,   -853,  -2265,    819,    404,    790,  -1960,    365,  -1200,   -749,    677,  -1145,   2500,   -587,  -5683,   -374,   1425,   2021,   1697,    911,  -2810,    -76,    300,   1478,
           992,   1663,   2974,   -638,   -785,  -1457,   1988,     87,    674,   2003,   1816,  -2431,   3420,   -537,   -231,    -36,    551,  -2191,   -176,  -2446,  -2516,    583,  -2234,     70,    221,  -1791,  -1237,  -1546,    -64,   -557,  -1005,  -1196,  -2997,  -3327,   -540,   -665,  -1364,  -1109,    432,   -566,  -2412,    877,  -2629,    915,  -1511,     72,  -2198,  -1741,   1158,  -1130,     73,  -1423,   -880,   -468,   -412,   -181,   1632,    407,    856,   -945,   1309,   -242,    352,  -1864,   1023,   2597,   3626,    675,   1946,   -820,  -3180,    294,    365,   1052,    772,  -1125,  -2304,   -425,   1265,     -3,   -498,  -2451,  -2408,    184,   1539,   -871,  -2953,    683,  -2357,  -4685,  -2978,   -815,  -1005,   1218,  -4781,  -1205,    782,  -2057,   -237,  -1352,   -950,  -1715,    539,    -13,   2687,   3472,   4520,  -1896,   -131,  -1878,   -946,   -538,   3138,   3278,   3648,   1250,  -1562,   -781,  -1278,  -1153,   1009,  -2368,  -1552,  -1686,   1241,   -262,   3475,   1506,  -1184,  -1633,  -1403,   -454,   1830,    864,   -619,  -1904,  -3993,  -2974,  -3773,     19,  -2040,    129,  -5668,   1367,  -8006,  -4014,  -4601,   -239,   1799,   -437,    -89,   -478,   -198,  -3294,  -1429,   -800,  -4308,  -2233,   7852,  -1081,   1609,   4259,   1250,  -1018,  -1542,  -1318,   4032,  -1875,  -3913,  -6492,  -2923,  -1462,   -158,     97,   4395,  -1832,  -3612,  -3669,  -2758,     15,   3342,  -1024,   1474,   -666,  -8453,  -4997,  -5867,  -1214,  -2244,  -1588,  -3803,   1246,  -1381,   -901,     83,    720,    953,    487,  -1806,    383,   1206,   1385,   1119,    995,   1659,   1378,    677,  -1410,  -1294,   -676,    757,    685,  -1585,    238,   -848,   1629,    458,  -1299,     71,   -909,   1252,   1446,   -611,   1582,  -1411,    845,    -64,  -1328,    488,   1666,   1474,    802,   1392,    365,    855,   -527,     84,     48,  -1760,   1890,   1554,   -971,    273,    617,   1913,   1931,   -259,   1286,  -1009,   -907,  -1217,    208,   -802,    638,   -655,    274,   1657,   1688,   -599,   1887,   -532,    637,   1415,   1335,   -582,  -1930,  -1267,   1304,  -1435,    700,  -1463,  -1100,  -1876,    276,    461,   -903,   1626,  -1788,   -379,   -250,   -312,     39,   1449,   1387,  -1411,    787,   -770,  -1006,  -1457,  -1542,  -1109,  -1101,   2274,   1622,    886,   -340,    403,    839,    647,   -652,  -1421,    360,   1516,  -1528,    373,  -1734,  -1491,   1431,   1107,    116,     40,   1313,   -852,    -58,    795,  -1419,   -964,   -330,    775,   -763,   -557,   -408,  -1811,   -537,   1697,  -1517,   1929,    595,    569,   1086,   -758,  -1587,  -1293,    245,  -1659,   1771,   -278,    366,    -22,    896,  -1250,    778,    821,    652,    794,  -1786,   -328,   1384,   -557,    736,   1761,    102,  -1430,   -147,   1087,   1697,  -1552,   1754,   -505,   1918,   1128,   1520,   -770,   -673,   1835,  -1155,  -1430,  -1910,   -919,  -1112,    640,  -1428,    714,   1700,   1710,   1788,  -1612,   1627,    848,   1019,  -1049,   -432,   1829,  -1674,    923,   1781,    528,  -1249,  -1460,   -563,   1835,   1914,    204,   -220,  -1871,   -643,   -638,   -977,   1451,    154,  -1426,    -60,  -1071,  -1589,    290,  -1291,   -166,  -1185,   1697,   1599,   -474,   1506,   -869,    415,  -1340,   -659,   -697,     31,    -32,   -194,   1122,   -412,  -1708,   -991,   1272,    262,    741,    257,   -948,    355,    802,   1158,   -499,    159,   1358,    113,    575,  -1879,   -541,   1659,   1291,    145,    399,    276,   1390,   -626,   1888,   1168,   -931,  -1676,  -1322,   -846,  -1369,    992,    216,   1412,  -1342,  -1115,  -1919,   1892,  -1508,   -939,   1252,   1862,  -1576,   1782,   1729,  -1751,  -1847,   1784,    124,  -1702,   -986,   1150,      7,   -253,    363,  -1282,   -444,    812,  -2153,   -527,  -2151,  -2122,   4336,  -1409,  -2920,    158,   7316,   8723,   6880,  -2295,   3027,   1046,  -5064,    997,    854,   2201,   3479,     94,   2123,   1415,  -4751,    377,   4251,   5471,   4773,    555,   3034,    563,  -1508,     54,
          1841,   2082,   3910,     68,   2720,    787,  -2734,   1117,   1115,   3905,   2230,   -204,   4519,  -1601,  -2941,   -946,  -1497,    700,   -497,    327,   2676,    111,  -2072,  -1471,   3854,   3233,   4456,     67,   1910,   -461,  -2966,  -1384,     53,    719,   -734,  -1453,     36,  -1208,  -1488,   1386,   1114,   3452,   2208,  -1713,   1151,    108,   -932,     41,   1752,   1856,  -1273,   -318,    406,    532,  -2558,  -1570,  -3173,   -146,  -2909,    310,   2586,  -1728,  -2674,    668,    218,  -2110,  -3356,    459,    609,   -458,  -2225,    -63,   1936,   1474,   2312,   -901,   1200,    235,   -245,  -1145,    202,  -1006,   -277,   1070,  -2124,   1616,   2181,   1692,   2945,   -760,   1062,  -2241,  -1251,  -1767,    -35,   1121,    236,    837,    376,      9,  -1499,   1484,  -1679,   1635,  -3220,    696,   -417,    819,   2060,   -400,   -126,   -479,  -1509,    598,  -2739,   -685,  -2278,    211,   1876,  -1194,   1917,   2868,   2683,    281,   -571,  -1883,    155,  -1633,   -486,    733,    544,    904,  -1073,  -1926,    757,    226,   1451,    762,   -178,  -2320,    913,  -1240,  -1356,  -1353,    173,   1997,    817,    421,   1741,   -367,  -2107,   1152,   1807,     64,   3056,     16,   3966,    114,   -720,  -1911,    785,   1952,   -462,    212,  -1549,   1511,   3220,  -1374,   5174,   1906,   2813,    141,  -1734,   -518,   3099,    280,   2360,    -75,    709,    404,   4396,   1133,   2940,    473,   1424,   1850,   -502,   -202,   2509,  -1826,    737,   -254,   -217,   2820,    267,    254,    768,    873,  -1406,   -402,    403,   2685,   3408,  -2605,   1526,  -1889,  -4353,   -979,   4411,   -867,  -1736,  -2761,  -9487,  -2068,   7755,   -558,   3518,   2628,   2398,    166,  -3088,    887,   6324,    250,  -1180,  -5333,  -2866,   1160,   2305,  -1471,   8123,  -1733,  -2907,  -2091,  -1461,  -1403,   2862,  -1338,   3427,   -335,   -845,   -318,   -240,    681,    978,  -1357,  -2626,   -305,  -6571,  -2528,  -2791,  -1001,   1575,   -756,  -3971,   -113,    956,  -5084,   1312,  -1433,    464,   1893,   -484,  -5862,  -2097,  -1556,    -28,   1319,    527,    316,   -159,   1314,    188,  -1005,    857,   -340,  -3693,   5262,   -795,    146,    237,    773,   -931,   1306,  -1980,    232,  -2008,   1405,     58,  -2687,  -1834,  -1040,  -3449,   1578,   -750,    475,  -1031,    774,  -2059,   -856,  -1771,   1587,   -399,  -1421,    643,   -735,   -845,    726,    132,   1235,    -71,  -3827,  -1845,    900,    993,    247,  -2688,   1344,  -2131,   1815,  -1257,  -1136,   1017,   1107,  -4033,   1590,    734,   2488,   -531,   -764,    392,    824,  -5412,    645,     99,    812,   -762,    807,    349,   1546,  -2635,    424,    -11,    263,  -2385,   2057,  -1494,  -1423,  -1098,    644,   -106,  -1410,    557,  -1713,   -770,    436,  -1994,   2333,   -936,  -4051,    662,  -2193,     36,   1434,  -3404,    137,     93,   1126,  -2193,  -1347,  -1882,   -875,  -5207,   2074,    740,   3570,   -475,   -231,  -1953,  -1207,  -2150,    988,   -791,   4361,  -2102,   1923,  -1662,   1900,  -1557,  -1067,    604,   3880,   -827,   1469,    402,  -1617,   -197,   -589,    933,   1205,   -249,  -5345,   -446,  -1402,  -4367,   4512,    195,  -1119,   1200,   -380,   -539,  -1634,  -3579,   -102,   -654,   1149,    879,    141,   1005,    478,  -1910,   2457,    202,   4384,    517,   1690,  -1488,    468,  -4086,   1669,   -157,   4650,   -190,   -409,  -1391,  -1695,  -4660,   3336,    982,   3253,  -2259,    454,   -638,   1182,  -2063,    528,   -763,    686,  -1102,  -3572,    989,    554,  -4371,   3163,   -402,   -452,   1242,  -2036,    112,    654,  -3061,   4362,   -388,    433,   -320,   3854,  -1862,  -1890,  -3314,  -2578,  -2091,   3232,   -914,    609,   1170,  -1766,  -4463,   3641,    211,   1245,  -1143,    598,  -1318,  -1587,  -3796,   1921,  -1598,   3809,    932,   3705,   1310,   -792,  -2090,   -589,    788,   2244,    736,  -5363,    506,  -2649,  -4827,   4395,   -969,    352,   -647,  -5119,    308,    978,  -7052,   6889,   -148,   2965,
            87,   5189,   1402,   -262,  -4491,  -3006,  -1679,   3755,    943,  -2000,    513,   -761,  -2775,   2404,    596,  -1678,    814,   3953,  -2101,   1678,  -6537,    878,    953,   5717,    574,   2426,    571,    255,  -1277,    373,    519,   -248,    840,   1248,   1464,   -685,  -1501,   2733,     10,    670,    226,   -672,  -1211,  -2019,   4954,  -2270,  -1115,  -2250,     51,   -592,   1004,  -1503,   1972,   2020,   1170,   1085,  -2379,  -1223,   1153,  -2564,   2898,   1930,    -27,  -1086,   -858,   1953,   -865,  -2118,    418,    400,  -2382,   3426,  -1055,   1181,   -407,    984,   -477,    -20,   -602,   4503,    -46,   2453,   -659,  -2194,  -2216,   4134,     55,   -783,  -1033,  -1287,   1299,    125,   5123,   -909,    661,  -3319,  -1761,  -2381,    399,    393,   1736,   1692,    359,  -2746,   1137,  -1180,    958,    327,   3134,   -611,    950,   1365,  -1316,    610,  -2137,    647,   1352,   -600,   -767,   5201,  -2312,   -831,  -1193,    722,    572,   1238,   -881,   1976,  -1282,   9036,  -1868,    102,   2683,  -3662,    -85,    -28,    405,    601,     13,  -1038,   2288,   -708,   1168,  -1274,   -656,  -1774,  -1163,  -1429,   1721,   1355,  -1694,  -2729,  -2407,   -993,    150,  -2778,    953,   1293,    946,   2288,    164,   -541,    596,     82,  -2413,   1686,  -1299,   4165,    266,   1016,   -920,  -1372,    882,   1994,    490,   5088,   1320,   8034,   -182,   -632,    -48,    493,  -1299,   6028,  -2386,    698,  -1832,  -1370,    920,   -238,   -695,   -505,   -843,   -580,   -632,    313,   2327,   -373,     71,  -1750,  -1215,   1969,    -97,   -873,   4314,   -268,   -788,    936,  -1148,  -1500,    968,    449,   -897,   -475,  -1792,   1307,   -437,   2471,    371,    509,   -831,    603,  -2305,   3215,   1321,   6422,    105,   -337,   4471,   2840,  -1606,    313,   -202,  -3770,    593,  -1092,    122,   2781,   1820,  -2224,   1174,    208,   1101,    -40,   4868,    188,    398,  -2592,   -211,  -1232,   -228,  -2073,   4722,  -1755,  -1188,   -627,  -1485,   2543,   1450,    424,   2215,    402,    625,   2989,   -665,   2430,  -1587,    561,  -3424,   1147,   -824,   4534,    516,   7385,    245,   -683,   5847,  -1941,   -109,  -1680,    665,  -1192,   -403,  -1128,  -2110,   3475,  -1173,  -1691,  -1119,  -1570,   1019,   -457,   1824,   1431,  -1750,  -1413,   -715,   -195,  -2252,    765,   2898,   -124,    731,   -889,  -2093,    202,    527,   -479,   -849,   1785,   1367,   5399,  -1708,   3332,  -2070,  -1912,      6,   1788,  -2476,   6636,   -989,  -7428,   -776,  -1347,   2261,   3872,   -363,  -3438,    672,   1991,   -821,  -2830,    472,  -2300,      5,    400,   -360,   -632,   -843,   -983,  -2838,   3719,  -1574,   3184,    541,   -635,  -1135,  -2692,  -3314,    710,  -1173,   2207,  -2090,  -2403,  -1771,   -496,  -1597,   4675,  -1641,   2269,    -81,   -881,  -1887,   -684,    772,   2448,    355,   1398,  -2039,  -3270,   -593,    865,    -96,   -904,   1238,   -238,  -1043,   2084,   1379,  -1509,     74,   -812,    276,   2881,   1097,   -302,   -715,  -1033,    -98,   -269,   -865,   2818,   -398,  -1366,  -1502,   -938,  -2198,   3077,    144,   1827,  -1924,    673,   -748,  -1640,   -553,   1421,  -1508,   4435,  -2374,  -2750,  -1789,  -1617,   2053,    -74,  -1169,   -733,  -1063,  -1480,   -304,  -1731,    496,   3035,    -45,   -513,  -1236,   1765,   1388,  -1747,  -2135,   1967,   1328,    988,  -2272,   2354,  -2082,   -710,  -1705,   1042,   -647,   2726,    578,   -698,    845,   -188,  -2606,   1838,   -933,   4679,   -440,   2659,   1234,   -546,  -3638,    391,    -57,   1516,   -296,  -1621,   1195,    612,    795,    255,  -2096,   1010,   1013,  -3110,  -1345,  -1177,  -3502,   3649,    575,  -1937,  -2308,   2257,     28,   -369,   2213,   -642,  -1828,    280,    137,   -956,    891,  -2530,   -334,    181,  -1224,   5195,    951,   -978,  -1852,    280,  -1043,   1894,  -1971,   3035,    -62,  -1649,   1286,    668,  -1296,   1474,    297,   4430,   1035,   -297,   -339,   -192,    321,   2189,  -1009,   2894,
          -685,  -1555,  -1899,  -2176,  -5384,   3912,    -29,   1095,  -2297,   -121,   -693,  -1004,  -2500,     45,  -1855,   3623,   1325,   2325,   -142,  -2543,  -1728,   -369,    821,   1461,  -2395,    -70,   -984,  -2687,   -815,   1443,  -1628,   3060,  -1265,   2402,   -981,    528,  -4546,   3165,  -1888,   4268,   1750,  -1589,   -396,    -33,    139,    649,  -1990,    669,   -924,  -5231,    465,    526,  -4085,   3630,   1507,   4222,   -861,  -1053,    677,    312,  -1228,   3936,    228,   4379,  -1469,   1778,  -2085,  -1191,  -1021,  -3067,  -1561,   4553,    -83,   1974,   -321,    -39,  -2198,   1391,   -646,   4665,  -1174,   1078,    281,  -1849,  -5894,   -932,   1179,   5772,    721,  -1495,   1361,  -2503,  -1591,    794,    422,   -445,   1404,  -6922,    767,  -1215,  -3709,   6038,   1253,  -4831,  -1929,  -1666,   1114,  -1906,   1510,  -1010,   -772,    881,    785,  -3452,    374,   1800,  -4240,   3219,   -667,    810,   -965,    234,   -388,  -1570,   -505,   1610,   1129,  -1438,  -2403,  -4020,  -1266,   1802,  -1906,   4323,   -351,   -802,    361,  -2491,  -1001,   -327,    596,   1046,  -1924,  -2585,  -1770,  -1540,    424,   -557,   1877,    439,  -1026,  -1810,    657,  -2186,   -604,    872,    -34,  -1573,    886,  -1606,   -815,  -1205,   1578,   -893,   -594,   1068,    275,  -1079,  -1645,    768,  -1410,   -715,    667,   1442,   -708,   1252,  -2160,   3018,   1114,    799,  -2951,    903,  -2149,   -228,    -63,    848,   1037,   -489,   -540,   1333,   1139,   1614,  -2340,   -861,   1075,   -661,  -3967,   3150,   -955,   1715,    582,   1086,   1314,    317,  -1611,   -681,   -921,   -129,    259,   2421,  -1315,     93,  -2335,    488,   1224,    898,  -2117,  -1054,    917,   1314,  -3598,    567,    724,   1667,    531,   1362,  -2111,   -846,  -3228,    199,    340,    468,  -2001,   4669,  -1235,    785,    772,  -1263,    378,    -40,   -283,   -798,   -507,   -728,    643,    -48,   -590,   -646,  -1036,  -2465,   1427,  -2287,  -1520,    664,   -432,   2297,    812,    -14,   -588,   -215,   -169,    997,  -1529,   -204,  -2111,  -1398,  -1747,    755,  -3394,  -1486,    369,   3320,  -1086,   -329,  -1922,  -1189,  -2921,   1230,    674,   1837,  -1164,    417,   -163,   1639,   1349,    410,    755,   1488,   -645,   2724,    -56,  -2002,   -570,    381,  -1591,     47,   -283,  -1519,    270,   1052,   -614,   -436,   -443,   2831,  -1687,   3082,   -740,    218,  -3240,   1858,   -489,   1136,   -216,   -619,    445,  -1122,  -1509,  -1872,  -1403,   4046,   -391,   1781,      3,   1456,  -3332,   2250,    149,   2640,  -1459,   3217,   -706,   -440,   -796,    -85,    779,   3523,    -21,    357,    788,  -1216,     98,    -65,   -433,    270,    939,  -5238,  -1593,   -555,  -2887,   3327,  -1405,    498,    515,   1917,  -1199,  -1915,  -1644,   2243,   1225,   5616,    144,  -4371,    278,   1141,  -2165,   3323,  -1290,  -3232,  -1329,   3491,   -751,   -875,  -3955,   -345,    488,   4120,  -1876,   1129,   -246,   1157,   2424,  -1873,   -263,   1229,   1154,  -1228,   -692,    918,    402,  -1283,    675,    -88,    298,   1677,   1101,   1046,  -1625,  -1006,    747,  -1477,    150,   1437,   1819,    689,  -1289,   -203,  -1804,  -1283,    984,  -1010,   1654,    622,   1192,   1737,    471,    926,   -889,     41,    501,  -1628,    926,    -96,     -1,  -1879,  -1917,   -519,  -1224,   -108,   -912,   1895,  -1552,  -1143,  -1326,   1470,   -675,   -799,   1810,  -1911,   1212,   1286,  -1808,  -1734,   -879,   1460,    937,   -395,    180,   -495,   1202,  -1735,   -373,    747,    846,    274,   -556,  -1876,   1176,    945,   -962,     48,    101,   -892,    -86,   -811,   -885,     92,   1151,  -1749,    917,     60,   1362,    245,   -432,   -565,  -1832,  -1775,   -440,    -12,   -721,   -765,   -403,    989,     84,  -1616,  -1228,   1350,  -1050,   -926,   -785,    793,   1395,   1351,   -499,   -246,   -601,  -1104,  -1324,  -1314,  -1531,   1208,    390,   -305,   -469,   1635,    608,   1103,   -338,  -1711,   -972,   1103,    816,   1601,
          -684,   1121,   1059,  -1662,    777,   -703,   -359,  -1320,  -1258,   -273,   -675,   1608,   1768,   1253,    892,   1269,    362,  -1671,   -914,    779,   1037,   1795,  -1534,   1887,   -775,    811,   1028,  -1217,   1257,  -1134,    240,   -758,    382,   1150,  -1337,   -223,   -185,    239,   1494,    749,    -73,  -1918,   1927,   1190,    -82,   -487,   -205,  -1920,    623,  -1787,   1732,   1020,   -551,   1510,   1551,   1570,   1272,   -233,     86,    -76,   1685,   -245,    603,  -1019,  -1697,  -1693,    312,   -803,  -1018,   -367,  -1847,  -1673,   -917,   -964,   -983,   -650,    841,   1253,  -1110,  -1193,   1893,   1507,    450,   -577,    776,    300,   1536,  -1882,     86,    353,  -1459,  -1198,   1778,   1279,   -323,   1718,   -317,   1154,   -503,  -1275,   -233,   -728,   1840,  -1749,   1525,    455,   1544,   1367,   -838,  -1686,  -1878,  -1639,   1682,   1888,    563,    320,   2301,    319,  -1035,    585,    678,    799,   1399,    634,  -1364,   1611,   1472,   1102,  -1521,    569,   1274,  -1403,     22,   1458,   1778,   -899,   1842,   1462,   1844,    358,  -1185,   -833,  -1758,    929,  -1748,   -767,    489,   1720,   1383,   1710,    626,   -210,  -1917,   1655,  -1415,   1058,   1286,  -1200,  -1901,  -1353,   -186,  -2483,  -2160,  -1019,   2541,   4628,  -1962,  -6686,  -1045,   1729,    785,   -889,    702,    768,    305,  -2397,  -2275,  -5544,   1156,   1650,   -479,   2748,  -1523,  -1248,   1022,   1699,   1489,  -1724,  -2621,    -38,   -708,   1968,   -245,   1403,  -1724,  -1430,   2182,   1457,  -1282,    348,  -1515,   1302,   1352,     92,   3316,  -1172,  -2297,   1658,    198,   2257,  -1100,  -1482,   2810,   -882,  -2301,  -4170,    927,   3921,     92,    -76,   2151,   -787,    233,   -920,   -684,  -2708,    926,  -1336,    684,   3745,    613,    192,    946,   2395,  -1902,  -2047,  -1819,  -1208,   -908,   4947,    717,    567,  -2265,   -817,   1778,  -1631,   1003,    642,   -151,   2511,    872,    -87,   3166,  -3098,  -2003,    824,  -1504,   -244,  -2207,  -2819,   -195,    132,  -1062,  -3447,  -1956,    498,    524,    674,    197,   2641,  -2249,  -1073,   -507,   -172,    705,   -626,   2554,  -1929,   1210,  -3631,   -994,    887,   1001,  -1241,    175,   -350,   -198,   1023,  -2218,   2560,   -365,    568,   -901,   -663,   -500,   3158,  -2286,   5503,   -905,   1261,   2260,  -5395,  -1517,   5701,  -1704,   3321,   -160,   -319,   2243,  -2373,  -2295,   1158,   -442,   3306,   -679,  -1683,   3022,   -312,   1137,   1108,  -1352,   -782,  -2232,    460,   1589,   -576,    298,  -1417,  -2101,    172,     44,     61,   2488,   1187,   -916,  -2294,   -812,   1782,  -1545,  -1021,   1161,   1310,   -450,    711,  -1330,   5661,   1017,   -831,   -386,  -5754,    543,   3802,   -466,   3782,  -1319,   -897,  -1569,   1062,  -1476,    992,    689,   3633,   -789,  -2535,   5270,   1619,   1320,    600,    641,   2089,  -1910,    599,   5169,    -91,   -270,  -1980,    780,  -2833,   1367,    190,   -654,   2578,   -467,    195,   1448,   -201,    708,  -1733,   -884,   -463,    650,  -2167,   -345,   9098,   1279,    184,   3034,  -6497,  -1846,   5859,  -1027,   1289,    715,  -1947,  -5900,   3894,    571,  10867,   -681,   3539,  -1602,  -1231,   4721,  -1440,  -1378,  -4532,   -170,   -721,   1414,  -2168,   5625,  -4011,  -2071,  -8154,  -1168,  -1380,   -672,   -414,  -2943,   5035,  -1125,   1660,   1060,  -4725,   1365,      2,  -5794,   8205,  -1326,    645,    536,  11535,   -141,  -1529,   2708,  -8433,   1208,  12004,  -1400,   -845,   1223,   1039,   1149,    851,    242,   1022,    183,   -839,   -766,   1369,   1464,    337,  -1329,   -864,    182,    818,    759,  -1738,    244,  -1432,  -1439,   1098,    599,   -107,    -12,  -1249,   1743,  -1837,   -968,  -1369,  -1287,    186,  -1541,    176,   -294,   1195,  -1911,    985,   1899,  -1444,   1496,  -1031,   1032,   1557,    -90,  -1478,   -668,   -850,  -1051,   1279,   1525,    -50,     28,     14,    727,    970,  -1279,   1689,     93,  -1679,  -1799,   1726,
          -955,    887,   1549,  -1085,   1462,     79,    368,   1404,    657,  -1770,  -1771,    237,   1228,  -1264,   -410,    878,   -669,  -1341,    667,    124,    719,    661,   -314,    131,  -1021,    561,   1570,   1621,   -720,   1765,  -1631,   1066,  -1727,  -1516,   -308,  -1546,  -1995,   1929,   1066,    573,    680,  -1022,  -1827,    665,    765,   1592,   -282,   1579,    265,  -1092,  -1565,  -1374,   1139,    443,    341,   1077,    596,  -1474,    -96,  -1647,  -1732,   1896,    135,   1905,  -1060,   -943,   -306,   1715,    -34,   -373,    485,   -629,    411,   1355,   1341,   1132,      0,    -64,    953,   1013,   -790,  -1776,   1543,  -1908,    374,  -1326,   -278,   1426,    537,   1279,  -1194,   1155,   1133,    803,   -520,    939,   1803,  -1674,   -510,  -1386,   1656,    754,   -100,  -1089,  -1618,   -521,  -1517,   1634,   -675,    782,  -1602,    711,    741,   -645,    430,    314,    783,   1390,    423,   -954,  -1245,   1225,   1415,   -617,   1436,   1670,   -775,  -1693,    592,  -1564,   -660,    180,    545,  -1824,   1479,   1668,   -421,   -961,     64,   -348,   1038,   -547,   1845,  -1820,    788,  -1901,   -150,     -5,   1875,  -1544,    477,   1699,  -1441,   -568,  -1675,  -1326,   -141,   1467,   -647,   -422,   1358,    768,   1882,    953,  -1801,    -60,   -527,   -582,   1091,   1827,    417,  -1336,  -1706,  -1717,   1460,  -1328,  -1328,   1673,   1811,    133,   1591,    820,   -381,   -693,  -1363,   -514,  -1679,  -1399,  -1251,  -1184,    936,    434,   1055,  -1028,   -564,  -1047,   1779,    -36,  -1368,   -999,  -1515,    428,   -509,    222,    372,   1030,   -347,   1715,    754,   1281,    635,    173,  -1499,   1074,    885,    628,   -954,   1730,   -489,  -1752,   1882,   1200,   1363,   1612,  -2209,  -1339,  -1421,   -410,  -1573,   2119,   -840,  -1541,    120,  -4665,   1006,   -314,    674,   3692,   -510,  -4063,  -1290,  -2421,   1200,  -1827,    786,    813,  -1262,  -1090,  -1753,  -3553,   1531,   -713,   1045,   -496,  -1627,  -2155,     96,    946,    796,  -1956,   1770,  -1218,   1110,   -841,    414,  -3505,    942,  -2603,    397,   4205,  -1537,    397,   1082,  -2519,  -1634,  -1260,  -1272,   1417,  -1409,  -1748,   1409,  -3342,    -30,    342,    576,   -139,    678,  -1107,    189,   -941,   -932,   -864,    553,    380,    862,   -446,  -1037,    427,   -575,  -2301,   3428,   1270,  -1394,  -3049,   -810,   2973,   -334,    568,   2850,  -3192,  -1443,    587,    979,   3680,     52,  -1239,    427,   -265,  -2129,   6112,  -1980,    229,  -1504,  -2636,   -531,  -1545,    551,    396,    908,   -835,   -426,   -297,   2326,    126,  -1106,  -3706,    412,  -2688,  -1214,  -2516,    344,    548,  -1521,  -2696,    263,  -1901,   -878,    318,   2933,   1638,  -2350,    108,    118,   1104,  -1673,   -545,   2446,  -1447,  -1304,   3791,  -2082,   1556,  -1374,   -370,  -1500,   -145,   -102,   3924,    293,   2905,  -1713,  -2631,   5137,  -4223,  -2029,  -1479,   -596,  -3307,  -1860,   -424,   1461,    722,    187,  -2212,   -454,  -3500,   -468,  -1112,  -2636,   2827,  -2189,   -539,  -1376,     99,  -2060,  -1353,   2468,    509,   1124,  -1615,    917,   1690,  -2263,   -387,   3091,  -3289,  -2059,   4366,   -802,    141,    992,  -2673,    321,   -774,   1035,   4091,   -463,   2831,  -1830,  -2315,   9056,  -4752,   -721,  -3566,  -2128,  -3501,    784,  -2694,   2225,   -255,    389,  -4926,   1004,  -5937,   -210,  -1615,  -3035,   7192,   -871,  -1790,  -2261,   -282,   -744,    -81,  -1586,  -1184,  -1691,   2237,    716,   2530,   1100,    123,   1054,  -2465,  -1054,   4555,    368,   1209,  -1925,   -438,   -193,  -1058,     75,   4580,   -185,   2879,    447,  -1696,  11056,  -8583,    309,  -7347,  -2348,  -4140,    806,   -859,   2712,   2085,    993,  -6879,  -1369, -10119,   1178,   -176,  -6898,   9409,   -659,   -535,   -607,  -1853,  -2170,  -1798,  -4763,   2546,     -3,    533,  -1909,   3550,   -342,  -2772,   2814,  -2770,    552,   5165,  -1104,   3821,   -659,  -1325,  -1689,  -1469,  -1521,   8933,
          7413,  -1361,   4943,   4247,  -1264,   5573,  -1589,   7010,   1807,   -288,    910,   -552,     73,   2175,  -1218,    962,   1992,  -1469,    666,   4705,  -2083,   5465,   -156,   3517,   1955,   1137,   1539,    986,   1097,   1345,  -1585,   2056,  -1192,  -1040,   3342,   3516,    638,   2071,   -498,   2096,   4113,  -1142,   2825,    523,   -290,   2037,   1045,   2277,   1614,  -1829,   2276,      3,  -2139,   3028,   1746,   3028,    280,    271,   2945,   -383,    833,   1935,  -1117,  -1181,  -4024,   1490,  -1207,   1477,  -1313,  -1524,   -462,   -589,  -3197,   1019,  -1060,   3264,   -918,  -2705,  -1456,    -17,    607,  -2402,   2630,   1549,    998,   2970,    586,     98,   -330,   -887,   1822,   -249,  -1033,   2523,    276,   1041,    -77,  -1186,  -2080,    496,   1220,  -2651,   -141,   -103,   1269,  -1246,   -166,   1414,   -810,   2373,  -2598,   1473,    245,  -1859,  -3102,    746,  -1768,   -230,     94,   -845,  -2369,   1537,   1336,    793,  -1047,    447,   -853,    427,  -1464,    811,  -1143,    226,  -2410,   1459,  -1090,  -2124,   2132,  -1910,   2514,    219,    566,   1370,     12,   1438,  -1849,    494,  -1966,  -1710,    304,   -691,  -2546,   1875,   -990,  -1315,    712,   1421,   -262,   1196,  -2119,   -554,  -2648,   1295,  -1694,   3256,  -2303,   1157,    459,   -595,  -2852,   -671,   1791,   3409,     10,   -251,  -1263,   -452,  -1978,    321,   -141,   3384,    485,    450,   1301,   -428,  -1956,   -785,  -1009,  -1089,   1047,   1111,  -1602,   -828,   1544,  -1272,   2672,    895,  -1426,   2463,  -1320,    831,  -1028,  -2505,   3089,   3641,    167,   1783,   -125,   2783,  -1673,  -1984,  -2692,   -730,    293,   -246,  -1188,   -446,    357,   1221,   3725,   1904,   -856,    844,    506,   3457,   -372,   1463,   1363,   1582,   -438,     87,   1374,   -122,    279,   1169,   -215,    573,    610,   -241,  -1463,  -2297,  -1823,    633,   1378,   1387,   -451,   2342,  -1307,    441,  -2451,  -2467,   3284,  -1243,  -1181,   3797,   -335,   2304,  -2120,  -1974,  -2643,   2554,    132,  -1134,     64,  -3255,   1612,   -310,   1440,   1871,   -482,   2583,   1672,   3306,  -5040,  -2351,   -630,   1828,  -1258,  -1915,   1517,  -1658,    326,   -822,   1307,   -208,   -806,   -842,  -1045,    585,   2580,     77,   4754,   6077,   1123,   4126,    295,   3747,   2433,   -952,   1705,  -1275,   1909,  -3902,    153,    159,   1629,   -145,   3903,   2107,   -510,   6485,  -2444,   3597,   1241,   -207,  -2146,   -346,   1499,  -3185,    231,   1077,  -3503,  -1142,  -3465,   2776,   1864,  -5064,    897,  -8348,  -4800,   -203,  -5666,   -896,   1135,  -6824,  -1417,  -6038,   3379,   -156,   8937,   8880,    949,   7805,    702,   5490,   2127,  -1957,   -854,  -4463,  -1630,  -2911,    867,    292,   3577,   1367,   4410,    471,   -892,   6410,   -480,   7304,    582,   1548,   -343,    -58,   -796,  -2778,   -923,    669,  -4441,  -2004,  -3307,  -1500,   1880,  -2605,    638,  -5748,  -4046,   -884,  -5672,  -1683,    306,  -4746,    370,  -8471,  -1537,   -622,  -2463,   1012,  -1642,   -989,    872,  -6897,   1290,   -373,   1354,  -3054,  -1715,  -2662,  -2203,  -2085,   2291,  -1257,   3117,  -1929,  -1660,   5142,   -306,   4271,   1688,   -333,    396,   1813,  -1401,  -1286,    214,   1327,  -4084,      8,  -2311,   -339,  -1166,  -1543,  -2222,  -3541,  -5727,    116,  -3549,   -427,  -1028,  -5587,   -636,  -7968,   -523,    520,   3941,   6493,   1435,  -2216,  -2013,  -1297,   3187,      9,   4668,   1431,   -792,  -2195,  -2356,   2601,   3537,     95,   2418,   -514,   1776,   3630,    932,    631,   1465,   -642,  -3511,  -2968,   -442,  -4210,  -2530,    960,  -1228,  -1000,  -3447,  -1030,  -1560,    322,  -2732,  -2255,  -7756,    398,  -6777,  -2455,   -708,  -6942,    643,  -8966,   3973,    990,   7540,   5969,   -856,    690,    178,   1680,   4049,   -298,   7103,   1512,  -1327,   2816,   -531,   4195,   4572,  -2013,   5902,  -1540,  -1801,   4222,    432,   2644,   2771,    259,  -1866,  -2703,     67,   -519,   -906,   2455,
         -1358,  -1942,  -3361,  -2075,  -1499,  -1494,  -1581,  -4282,  -6056,    188,  -3340,   -709,   -556,  -4105,  -1250,  -7109,   9159,   1296,   5764,   2606,   -508,   7778,   -603,   5732,    269,  -1611,   8384,   2246,  -1115,   5777,  -2810,   4420,   6317,   -646,   8390,  -1484,    -73,   6418,  -2717,   3025,   4708,   1441,   -781,  -3651,  -1496,   1442,  -1659,   2966,  -6858,    387,  -3796,   -441,   -628,  -4348,   -746,  -6192,  -7979,   1401,  -2436,    356,   1709,  -5979,    314,  -8925,   7623,  -1632,   8441,   4305,   1180,   8931,  -1873,  10120,   -964,   -885,    931,    643,   -451,   1923,  -2590,   -399,   1714,   -318,   5053,   4357,   -158,   4369,  -2697,    808,   1894,  -1356,   1244,   1002,   1109,   2079,   -995,   2643,   -976,   1080,   3519,   2847,   1248,   3674,  -2171,   3141,   1884,   1249,   2604,   3899,  -1517,   4807,  -1387,   5006,   2267,    957,    528,  -1125,   -302,   1477,  -2209,   2066,   -653,  -1468,   1911,  -2321,   -989,   1282,    -92,  -1013,   -423,   1736,   1073,    484,  -1932,   2155,  -1607,    767,  -1182,  -1750,    848,   1420,   1106,  -1233,  -2309,   2144,    -65,  -2099,   1354,   2475,    923,   -406,   -353,  -1209,   5002,   -239,   4415,   2220,   -525,   3839,  -1037,   3678,    689,   1043,   1381,   2365,    985,    875,    240,    376,  -1615,    910,   2999,   1531,    -91,   4120,   -860,   -558,  -1637,   -999,   -799,   2370,    666,  -1348,   -165,    156,   1023,   -575,    119,   1108,    210,    711,    645,    851,   -265,   1814,   -247,    426,    306,  -1284,  -2044,   -887,   1462,    589,   2593,    317,     82,   4292,    579,    728,  -1190,   -669,   1108,    479,    363,   -143,   -615,   2678,   1631,  -1401,   1531,  -2820,   1090,   3324,  -1251,   -960,  -1322,   2123,    966,   3440,    147,    332,   -691,    299,    914,   1328,   -118,   -493,  -1839,   -154,    781,    828,  -1363,   1661,   1644,   1020,    103,   1685,    460,    761,   3122,    500,   4797,   2457,   1321,   4199,    670,    365,    195,  -1548,   2943,      0,    995,   1487,  -2061,   -441,     90,  -2229,   4503,    947,    611,   4627,  -1435,    668,   -271,   2727,    552,   -756,  -1340,   1892,   -532,   -993,   2110,    -36,    778,   2130,   1300,   3355,  -1225,    308,    865,   1226,   1829,   4456,   -255,   -107,  -1326,   1350,  -1081,    328,    605,    989,  -1646,   3405,    491,   2532,    503,  -1484,   2556,   2108,   -679,   4618,  -1998,    313,  -2701,  -1980,   4544,   1638,    796,   2970,  -1849,   -873,    237,   2146,   -619,   2226,  -2380,    149,   -685,    305,   -952,   -789,   2652,   3093,  -1050,   1127,  -1847,   2463,  -4481,  -1253,  -2123,    707,    832,  -1511,  -2059,  -3200,   3822,   -885,   1409,    956,  -1140,   3674,  -2506,   4127,   6165,  -1058,   5679,   4283,  -1386,   5954,    370,   8305,   3164,  -2143,   2872,   1298,  -1126,   2768,  -1886,   2387,    538,  -2267,   1657,   4465,     26,   5562,  -1180,   3524,   1120,  -1192,   2913,    814,  -2097,   3233,    316,    464,   1234,  -2359,   3735,   2534,   -362,   3351,  -1852,   1560,   3639,    315,   1940,   1452,   -110,   2740,    -25,   4269,   3434,  -2629,    419,   -112,    -97,   -111,   -892,   2786,   1937,  -1522,   -525,  -1983,   -645,    695,  -1388,  -1210,  -2208,  -2060,    143,    381,    343,  -2039,    241,  -2290,    -49,  -1453,  -1400,     46,   -722,  -2201,    594,    140,  -1100,  -2629,   2125,   1957,    890,   -533,   1253,   1075,    764,  -1302,   2077,  -2167,    672,    618,   1927,   1935,   -524,  -2049,   -905,    688,  -1941,  -1361,   -332,    841,  -3172,    471,  -1532,   1239,   -983,   -835,  -1000,   -167,   -502,  -2248,   -663,  -1225,    895,    492,  -1986,   -212,  -1659,   1140,   -422,   1251,   -801,  -2498,  -1507,    187,   -547,   1105,  -1211,    880,  -1198,    200,  -2720,   -776,  -1693,    -14,   1618,    522,   -727,    988,  -2729,  -2192,   -902,   -920,   -904,  -2964,  -1051,  -1741,  -2443,   2763,    -99,  -1876,    823,  -1713,  -1280,   -791,    387,   -541,
          -102,  -1609,  -4381,  -3036,   -180,   -126,   -144,  -2161,    -34,  -2008,  -1070,    529,   1020,   -681,    807,  -1758,  -2688,   -423,   -911,    402,   -327,   1793,    368,    397,   1230,   1291,   1301,  -1396,    479,   -873,    382,    445,  -1513,  -1290,  -2712,  -1682,    884,  -3011,    400,  -1598,   -590,  -1565,    412,   2888,  -1862,   -265,    977,   1936,   -191,   -309,   -340,  -1384,  -1980,   -890,    693,  -2899,  -1176,  -2525,    795,   -972,   -892,  -1270,  -1535,   -268,    552,  -1283,   -132,   1792,    -32,    675,  -1531,    -50,    160,  -2033,  -1761,  -1900,   -841,   1032,   1549,  -1339,  -2387,  -2162,  -1286,   -416,  -1512,  -2427,   1211,    334,  -2432,  -1353,   3786,   1237,  -1934,    998,   -499,    832,  -3476,    740,   -481,   1327,   -550,   -593,  -1102,  -2902,    328,     75,   1714,   -537,    830,   2410,  -1355,   1327,   -140,    -92,   -827,   3912,   -524,   -278,  -1482,    172,  -1173,    868,     32,  -2359,   1233,   -305,   -617,   1347,   1706,   1127,   1884,   1177,   -914,    399,    162,  -1388,    157,    -23,  -1164,  -1236,   1783,    639,     56,   -662,    768,    478,    440,   -244,  -1238,   1784,    711,   -234,    539,   -266,   1077,   1552,   1534,  -1058,    235,   -537,  -1846,    944,   -273,   1296,    211,  -1124,    498,  -1185,    268,    433,  -1580,   -192,   1921,   -126,   1447,    256,  -1390,    771,   -578,   -535,   1837,   1501,    432,    470,    421,  -1806,  -1882,   -641,   -661,   1923,   -126,   1227,   1758,   -262,    -49,  -1558,   -141,  -1239,    951,    634,    362,   1027,   1400,    948,   -524,   -921,    669,   1322,    876,    723,   -149,   1804,    430,   -128,    829,  -1364,    795,    481,   1474,   -242,   -952,  -1593,   -521,   1611,     87,   -785,  -1115,   -697,   -449,    253,  -1925,   -377,     60,   1251,   1846,   1918,  -1170,   1464,   -679,    -25,    159,   -413,   -538,   -736,   1176,   1749,   1564,    711,   1415,  -1048,  -1308,   -381,   1526,   1400,   -661,   -399,    904,  -1379,   1542,  -1300,    213,   -314,   -969,   -512,   1673,     17,   -414,   1569,    -59,   -952,   -825,    878,   -582,  -1525,    373,    885,  -1287,   2020,   1185,   1931,  -1114,   1208,    892,  -1920,  -1759,   -563,   1783,  -1256,  -1240,    257,   -227,   1816,  -1490,     68,  -1838,   1112,   1495,   -409,    -94,   1176,  -1430,   1783,   -668,   1279,   -827,   1669,    910,    707,  -1589,   -153,   1531,    803,   1288,    -34,   1836,   1909,    905,   1439,    431,    621,    101,    228,   -429,    840,  -1473,   -680,   1229,   1467,  -1608,   1266,     71,   -933,    925,     28,  -1527,   1829,   -496,    326,   -547,   -750,   1285,   1917,   1153,   1312,     -5,     10,    114,    993,     -8,      2,   -964,     62,    758,   1766,   1179,  -1072,    457,  -1256,  -1203,  -1318,  -1854,  -1483,   1391,   1263,   1205,    410,   -769,    -47,  -1201,    955,     50,   -648,  -1751,   -511,  -1411,   -679,   1035,    490,  -1066,   1579,   1668,   1056,    574,   1703,   -266,   -299,    918,   -381,   1901,   1408,   1297,   -573,   -345,    631,  -1361,   1463,   1843,   -343,  -1259,    139,  -1430,    158,  -1912,  -1080,   -754,   1164,    691,    817,   1110,  -1201,   -807,    565,   1185,   1585,  -1434,    672,   6939,  -2077,   6630,   3356,   -710,   6906,     98,   4620,   3882,  -1647,   2279,   3445,    300,   4720,  -1129,   3331,   5246,   1847,   3050,   2300,   1615,  -2453,   -832,   5279,  -1877,    747,     32,   1721,    405,  -2129,  -2489,  -2508,   -671,   -587,   4894,    975,    706,   2017,   -256,   1228,   3420,    226,    565,   4027,   -514,   1791,   -229,   1213,    760,    393,   4788,   3213,   -917,   1018,  -1647,   1038,   3188,    955,   4279,   1286,   1575,   4934,  -1798,    451,  -1335,    401,   1059,   -430,  -1743,  -3427,    547,    924,  -3889,    703,  -4751,    863,    338,  -4321,    410,  -4038,    567,   -885,   3419,   1570,   -187,     25,  -1948,    978,   2864,   -370,  -1107,  -1743,   -544,  -1019,   -278,    589,
           820,  -1936,   6404,   3112,  -1886,   3087,   -822,   3378,    670,  -2364,   3981,    107,  -1148,   1594,  -2785,   2263,    390,   -257,  -1584,  -2319,  -1102,  -3483,  -1050,   -780,   1052,  -1938,  -3583,   1337,    291,  -3126,  -1642,  -2663,  -1497,    284,  -1008,  -2087,    753,  -2839,  -1877,  -1251,   -551,    557,  -3913,   -967,  -1755,   1432,  -1109,  -2664,   -530,   -352,   3125,   1320,   -743,   4163,  -2199,    981,   2115,  -2503,     59,  -1034,  -1841,  -1108,    158,   2838,   4156,   1120,   2218,    847,   1320,   1232,  -1536,   1977,   3711,    989,   -750,  -3234,  -1774,  -1747,  -2470,   -480,  -1863,    -12,   1103,  -1047,   -258,  -1566,   -639,  -2153,  -1664,  -2511,  -4853,    754,   -276,  -2222,   -489,  -5197,  -1628,  -1134,   6783,   2422,  -1059,   3267,  -1479,  -2119,   4821,   1097,   3070,   -642,   1387,    942,  -2422,   4171,   2137,   -986,   -954,  -2918,    826,  -3007,   -103,    957,   2022,  -2240,  -2921,  -2077,   1008,  -2529,  -1614,   1990,     22,    788,   -732,   -376,   1361,  -1207,  -1756,  -2748,  -1979,    736,  -2399,   1263,   -964,  -3280,    599,  -3620,  -6718,   -759,   2446,   4606,    934,   3103,  -2050,  -4920,   1754,   1026,  -3420,  -7774,   1561,  -3193,    137,  -2344,   2966,  -1908,  -4898,  -4022,   -443,  -3803,   -942,   1612,  -4219,    408,  -4470,   -720,   -158,  -4616,  -1381,  -6115,  -4441,  -2588,  -3058,   -133,    183,   -769,  -2168,  -1040,  -4959,  -1354,  -7488,    160,  -1896,  -4414,    906,  -8735,    666,   1537,   1236,   -463,   -205,   -890,    189,   1421,    880,   -949,   -843,   -180,   -231,   1397,    275,  -1146,  -1216,  -1443,  -1385,   1608,  -1404,   -196,  -1539,  -1007,    780,    338,    -51,    712,   1413,    705,   1369,    -45,    -11,   1919,   -192,  -1279,  -1699,  -1188,    -20,   -462,    -48,   -710,  -1646,   1538,   -773,   1807,    861,   -785,  -1427,  -1714,   1801,   1038,   1137,  -1233,   1310,   1045,   1183,   1095,  -1524,  -1066,    299,   1213,    461,   -211,  -1836,   1581,   1593,    136,    783,   1618,   1130,   -792,  -1024,  -1237,    214,    660,     83,    188,   -898,   -221,   1804,   -978,  -1473,    799,  -1797,   1496,    809,   1730,   1776,    931,  -1484,   -280,  -1387,   1151,    789,  -1583,    496,    434,   -739,    -59,   -654,   -291,    973,   -321,  -1190,  -1485,   1846,   1155,  -1300,    244,   -642,   -302,   1843,   -377,   1742,     26,  -1203,     41,   1081,    940,   -555,    353,    963,   -915,   -625,   -312,   1686,   1592,   -346,    195,   1798,   1433,   1721,  -1711,   -944,  -1212,   1265,   1428,   1164,   1391,   1496,   1091,   -203,   -358,    583,   1043,    558,   -796,    388,  -1845,   -185,  -1797,   -168,    202,   1728,  -1747,  -1239,    705,    971,  -1428,    426,   1370,   1143,   -931,  -1164,   -702,   -231,    724,   1830,  -1824,    320,  -1394,   1891,    122,    439,   -210,   1411,    331,    697,   -310,    239,   -398,   -736,   1430,  -1337,    -54,    135,  -1692,    219,  -1103,    607,   -184,    822,  -1229,   -832,  -1439,  -1094,   -725,   1142,   -882,   -266,   -340,    892,    600,   -986,  -1741,    385,   -637,    439,   -591,    919,   -217,    949,  -1151,   1875,    204,    258,  -1856,   1173,   -257,   -166,   1002,   1717,   1237,    734,    145,   1370,    295,   -202,   1594,  -1372,    158,  -1153,   1924,   1749,    600,   -951,  -1834,  -1339,    440,   -326,  -1300,    550,   1391,  -1431,   -441,  -1542,   -678,    250,   -222,   -612,   -250,  -1246,    173,   -398,    734,  -1381,   -441,    636,   -108,  -1901,  -1074,   1015,  -1303,    436,  -1078,   1030,  -1799,   1768,    358,   -801,   1200,  -1717,    870,  -1373,  -1860,    283,   -212,   -473,    -83,   -307,  -1849,  -1154,  -1310,    270,    319,   -895,   1622,  -2480,   1410,  -3850,   2685,   1278,  -5467,   -419,   -960,   6825,  -1746,   3872,   5854,    751,   1841,   -566,   9184,    858,   -919,   3117,   3396,   -514,   1468,  -2535,   3357,   2935,  -1749,   4355,   3410,    960,   5069,  -1936,   3076,
          3691,  -2009,    255,   2050,   -176,   3042,  -1257,   1735,   1712,   1077,   1128,   2338,  -2115,   3316,    815,   4343,    121,   -746,  -2418,   2213,   1384,  -5005,  -2792,     59,   1956,    680,    -21,   1737,  -1381,    232,  -2758,   3967,    467,  -1379,  -1212,     86,  -1717,  -1161,   -149,    -84,    632,   -328,  -2519,  -1221,   -679,   2185,   -345,   1098,   1694,  -1719,  -1210,   2665,    237,   -876,  -1136,   1330,   -951,   1273,  -2209,   3526,   1298,  -3066,  -2500,  -2483,   -352,  -2272,  -5402,  -2130,  -2087,  -7083,  -1917,    421,   2545,    -15,  -1096,   1574,  -2082,  -1041,    371,   2109,  -1800,    866,  -2007,    797,  -1533,  -1646,    834,   2003,   -868,  -1719,  -3932,     35,  -1348,  -2008,   -605,   1922,   -683,  -1097,  -4730,    272,   1673,    994,    963,   -920,  -1244,    -59,  -3197,    322,   -261,   -392,    566,    284,     76,   1593,  -5234,  -2222,   1204,  -6238,  -1101,  -2837,   3158,     64,  -1182,   2289,    315,  -1608,  -2165,   5169,    143,  -2309,   1145,  -1497,    886,   2008,  -2019,    791,    984,  -1706,  -1482,   2046,  -1210,   2825,  -1531,   -273,   -874,   -422,  -3580,   2215,    612,  -2172,  -2540,      0,   -436,   1231,  -1839,   2667,    484,   1833,    951,   2347,   4676,  -2278,  -5852,  -6270,    480,  -3966,   -907,   -241,   2693,  -1615,   1581,  -1175,  -1683,  -1323,  -2815,   4913,    572,  -2334,   -508,   2967,   -877,   1487,  -1936,   1950,  -1648,  -1982,  -1970,    872,   1447,    863,  -1590,   -911,   -662,   -608,   -693,   1060,   -631,   3160,  -2529,   2326,   1617,    665,  -1955,   2196,  -1622,   5116,  -1379,   3209,   3901,  -2406,  -8678, -11642,  -1842,  -7149,  -2214,  -1677,   3144,   -598,  -1977,    172,   -655,    129,  -1460,   1880,  -4851,   -233,  -1332,    155,    639,    951,  -2406,   1546,  -4599,    165,  -2056,    150,   -818,  -1342,  -1022,   -929,  -1977,     62,  -1224,   1580,   1136,   1110,  -2289,  -3167,  -6410,   -867,  -4988,    806,    618,     72,   -193,  -5620,   -364,   -392,   1393,   -639,  -1116,  -1816,   1807,   1243,    132,  -1416,    474,  -1902,  -4205,     45,  -2385,   -548,  -1395,    -82,   -711,   1161,     26,    763,   1246,   1510,   -742,    336,   1264,   1027,  -1587,   -679,  -1995,   1356,   -647,  -2042,    217,  -1755,    -18,  -1181,   4344,    584,  -1919,   1651,    226,    -72,     96,  -4865,  -5911,  -2201,  -1057,    787,     37,  -1140,  -2689,   -492,   4325,   -993,  -1240,  -2175,   1401,  -1273,  -2697,  -2783,  -1144,  -2043,   -135,  -1136,  -1398,   1198,  -3003,   3049,   4482,  -2224,   1688,   1429,   -882,   1106,  -2700,  -2887,   2894,   -477,    944,   -150,  -1351,    834,  -2178,  -1415,   2687,   1465,    750,  -1796,  -1438,  -2397,  -2060,  -4065,  -6818,    962,   1449,  -1174,    827,   -201,  -1365,   4917,   6475,     -4,    -72,  -2001,  -1025,    391,   -698,  -2951,     68,  -1646,    174,    317,    128,    397,  -2007,    -94,   2334,  -1822,  -1298,  -1246,   1452,  -1915,   -912,   1446,   1906,  -1280,    849,   1549,    836,    212,   -733,  -2096,  -1703,    388,    778,    269,     -2,  -1200,   -853,  -3031,  -3334,   -457,    248,  -1291,   1405,   -449,    -62,   1411,   3734,  -1722,  -1411,   1126,   -847,  -1107,  -1934,  -1431,   -691,    539,    266,   -652,   1396,   -286,   -481,   -105,     72,  -2048,     11,  -1563,   1610,  -1550,  -3959,    365,    -92,   -123,    925,  -1845,  -2045,    219,  -1267,  -1498,    616,   -951,   -409,  -1163,    579,  -1139,  -1090,    473,   -348,   1494,   1503,    544,    642,  -1207,  -1755,   4064,   4536,  -2185,   -561,    161,    431,    139,   -475,  -1125,   1465,   1221,    911,   -869,   1487,    235,  -3922,  -1068,  -1604,   -757,    157,   -947,   1612,    330,  -3858,    -85,  -2786,  -1832,  -1727,   -765,   -659,     -9,  -2266,   1008,  -1711,   -942,    506,  -1582,    153,  -1456,   -294,  -2825,  -4126,   -694,  -1956,   1556,   -789,   -993,  -1027,   3997,   1227,   -490,  -1869,  -1988,  -1780,    344,    -20,   2679,   2467,    154,
          1249,   -501,   -268,  -2418,  -1010,   -747,   3161,   1245,  -1419,    -13,    406,    461,  -1315,   1993,  -5375,    -34,  -1489,   -269,   -846,    654,  -2179,    881,   3205,    886,   -731,   -361,    707,    -34,   -105,   -983, -10631,  -1884,   1591,  -1532,  -1701,   1247,   1134,  -5788,    352,  -1978,   1138,   -838,  -1263,   1297,   2989,   -595,   1843,  -1913,  -1536,  -1073,  -1288,   -401,   3592,  -2124,   -709,    138,  -1833,   1759,    -20,  -1568,   1001,   1982,    203,   1393,  -1930,   -589,   1238,  -1239,   1625,   5879,   3187,  -2067,  -1664,  -1386,   1045,    754,   1234,   5890,   4064,   -810,  -1842,  -1347,   1535,  -1179,  -2972,  -8299,   1689,  -1302,  -1640,  -1404,   1770,   -349,    957,    900,   -949,  -1531,   -321,   -351,  -1556,   -275,   2127,  -1566,     82,  -1889,  -1339,   -814,    599,  -1882,   2521,    218,    804,    788,  -2624,  -1401,  -1092,    501,   1619,   3775,   1493,  -1013,  -1006,   -667,  -1434,  -1024,    644,   4256,   1110,  -1514,   1001,   1543,   1798,    331,  -2950,  -3075,   4008,  -1356,   -340,  -1717,  -1605,    435,   2591,   1295,   2524,  -2026,   -115,   -151,  -1697,   -566,   2586,   1480,    542,   1394,  -2247,   1806,  -1523,  -1034,    -58,   1467,   1751,     12,  -2253,   1231,   1217,   -297,   2672,   3888,   3259,   -880,  -2040,    464,  -1459,   -127,   2453,   6298,   1626,    247,  -1327,    813,    777,    436,    477,  -8006,   2244,    163,   -987,   -676,  -1490,    765,   1900,   2513,   1366,   -625,  -1591,  -1496,    500,  -1817,   3624,   1170,   -451,    429,   -103,  -1187,    822,   1195,    811,  -1695,   -196,  -2205,    469,  -1126,  -1429,   1928,   4013,   1782,    515,   1183,  -1249,   1411,   -225,  -1057,    446,   6814,   3808,    965,  -2541,     16,  -1326,   1038,   -536, -11946,   2923,  -1962,  -1548,  -1570,   1713,    -36,   1125,   -563,   -187,   -506,    905,  -1443,   -435,  -1331,   1627,  -2185,  -1393,   -230,  -2336,   -133,  -1418,   -422,   3512,    932,    -18,   -846,  -1456,   1087,   -380,   -473,   3306,   3701,   1488,   1518,     60,    231,    720,   1578,   3460,   7523,   4347,    159,  -1210,    348,  -1437,   -817,    690, -17136,  -2211,  -2710,   1056,   -440,   1437,   -890,   2158,   -368,    928,   -974,  -1351,    -25,    311,   1572,    934,  -2793,  -2868,  -1739,    617,   1140,  -1592,  -1571,   2774,  -2793,  -1288,  -2245,    278,    628,   1288,  -1771,    274,   6347,   4247,   1020,  -2520,   -643,    612,   1611,    909,   6710,   5864,    -18,   1594,   1661,    857,   -324,   -243,  -3498,  -1367,  -1927,  -1436,   1082,   -377,    169,  -5258,  -2719,  -2351,    552,    953,    388,  -1168,   -219,  -3198,   1076,   -643,  -1296,  -1444,    647,  -1183,   -983,  -2483,  -1010,  -1179,   1116,   -937,   1018,    535,   -143,  -2646,     -5,  -2474,   -593,    559,   -563,   1224,    636,  -3146,  -5886,  -6057,   -624,   -590,     71,    463,   -506,    330,   2379,   7174,  -1858,  -1523,   -875,  -1135,    397,  -3505,  -2319,  -3138,  -1365,   1111,   -881,   1742,  -2009,  -3407,    173,  -2025,    994,    343,   -198,    116,    334,  -3897,   -104,    589,    568,   -189,  -1570,  -1379,    969,  -2285,   -806,  -1387,  -1250,   1370,   1441,    900,   -316,  -2099,  -5647,  -4930,   -199,    528,  -1557,    882,   1241,  -1026,   3831,   5083,   -803,   1537,  -1515,   -544,   -853,  -3354,   -639,  -2126,  -1944,   -223,   -541,   -812,  -1427,  -4078,   1331,  -2971,    275,  -1869,    987,  -1344,    -87,  -4952,   -809,    901,  -1223,    901,  -1230,   1017,    575,  -1030,  -1021,  -4492,    867,  -1761,   -403,   1730,   -105,  -2920,  -2890,  -5128,   -562,    475,    812,   -679,  -1890,   1125,   2068,   3492,    188,   -251,  -1964,    736,    612,  -3720,  -3029,  -6107,   -756,   -335,   1521,    978,     49,  -1937,   1913,   -851,   -227,  -1082,    766,    499,  -1521,  -1270,    347,  -3252,   1121,  -1361,    377,  -1861,   -379,  -1234,  -1805,  -3479,  -2077,  -1895,   -272,   1095,     12,  -1283,  -2412,  -2670,   1479,
           223,    864,   -547,   -154,   1581,   4927,   5565,    160,   -537,   -820,  -1985,   -757,  -3338,  -1123,  -5890,  -1812,  -1377,   -110,   -981,    925,  -1778,  -1623,   1740,  -2150,   1476,   1164,   -541,  -1689,  -2347,   1488,  -3625,   -274,   1101,  -1352,   1110,   -785,  -4376,  -1157,  -3602,  -1357,    193,   -146,  -2045,    180,  -3066,     82,   -338,   1493,    294,   1103,    333,  -1409,   1273,   3354,   1110,  -1353,   -475,   -106,  -1700,   -698,   -590,   3010,  -3843,   1259,   1201,  -1428,   1193,  -2429,  -1039,   -770,    390,    781,  -2087,     80,  -1500,   -171,  -1341,   -374,  -2025,  -1698,  -1397,   -686,  -1588,   -578,  -3824,   2012,  -1077,   -990,   1144,  -1929,   -827,   -506,  -1808,  -3952,  -3721,    889,   1126,   -235,   -836,  -2455,  -2626,  -1852,   -349,  -1482,   -303,   -205,   -676,    407,  -6193,  -1013,   2054,  -1604,   -792,    978,  -1777,  -1316,  -1964,  -1705,    155,  -1481,    672,   -366,  -1198,   1283,  -5073,  -3731,   -407,   -707,   1131,  -1665,   -568,   1229,  -2820,   -811,   3286,    625,   -937,   1405,    796,   1095,  -3766,  -3551,  -2978,   -578,    735,    136,    247,    994,  -4816,   1590,  -2398,     10,    710,   -818,   1276,   1069,  -5425,     62,  -2132,    226,     -4,    890,  -1000,   -511,  -1084,   1775,   3190,   -533,  -1383,   1139,   -564,    328,  -4566,  -1089,    471,    677,    122,   1109,    893,  -1168,  -3066,   -993,   2948,   1037,   -525,   1239,   -838,   -604,    -66,  -1475,  -2464,  -1442,    312,  -1046,  -1979,  -1943,  -5536,   1631,   4167,    522,  -1623,   1506,  -1946,   -679,  -3792,   -420,   3758,   -759,    515,    909,  -1428,   -394,  -2175,    802,   2947,   -473,   1479,  -1577,    202,   -853,  -2344,    152,   6406,  -1966,  -1158,    654,  -1899,  -2383,  -1897,  -2365,    569,   1254,   1192,  -1362,   -563,   -210,  -2414,  -1974,  -4346,    775,    624,    578,  -2092,   -772,   -499,   4214,   -770,    520,   -497,  -1384,   -784,  -1230,  -4432,   1409,   3439,  -1385,  -1377,    671,   -869,  -1315,   -625,    403,  -2205,   -106,    774,  -1065,  -1959,  -1343,  -1815,   2385,   4575,    991,  -1663,    152,   1500,    562,  -2432,    827,  -2569,    -27,    886,   -660,    336,   -110,  -3651,  -1842,    -69,  -2292,  -1783,    752,  -1080,   -791,  -4766,   3042,   1051,    841,  -1242,   -305,   1689,  -1149,  -4194,  -2503,    858,   1207,    -25,    624,   1443,   -511,  -6953,   2865,   3517,     27,    764,  -1015,     -6,  -1815,  -4407,   -718,   5457,    806,  -2003,    633,   -385,   1328,  -3056,    671,  -4229,    931,    311,    784,   1318,  -1951,  -2647,  -2812,  -3985,  -1873,   -256,   -131,     13,    290,  -3825,   4856,    889,   -811,  -1343,   -850,     34,  -2118,  -1478,   1204,   1257,    882,   -725,     22,   -369,  -1907,  -1502,   1923,   3448,   -832,   1299,  -2061,    433,  -2437,  -1313,    358,   -751,  -2276,  -1599,   -422,    875,  -1609,  -4624,  -2355,   -995,  -2302,  -1104,   1318,   1522,  -2233,   -949,  -2263,  -7955,    730,    354,    967,  -1276,  -1088,   1624,  -1214,    273,    164,  -1576,    -58,     56,   -415,   1694,   -524,  -1410,    976,    215,   -991,    445,    622,    693,   -418,  -1658,  -1653,    513,    406,    739,   -842,   1727,    968,   -653,      1,    619,   1697,   1175,   1144,   1290,   -802,   1793,  -1551,    739,    968,   1186,  -1373,    454,   -681,   1422,    913,   1696,     37,  -1867,  -1624,   -452,    409,   1381,  -1223,    180,    590,    662,  -1537,   1034,    469,   1464,  -1077,   1759,    156,     19,  -1593,   1912,  -1365,  -1820,  -1255,   -886,   -467,     55,    710,  -1419,  -1703,   1345,  -1222,    219,  -1418,  -1676,   1398,   -510,   1682,   1519,   -205,  -1226,   -917,   1451,    723,   -228,   -283,   -490,    481,  -1886,   -822,    659,    171,  -1299,    700,  -1611,   1341,    254,  -1128,  -1657,   1615,   1395,  -1625,   -529,   1900,   -126,   1862,   1612,   -245,    915,   -739,   1527,   -545,  -1024,  -1646,   1512,   1089,     38,  -1536,   -971,    431,
