#include "birdnet_default_int8_coefficient.hpp"
using namespace dl;

namespace birdnet_default_int8_coefficient
{
    const static __attribute__((aligned(16))) int8_t statefulpartitionedcall_sequential_conv2d_biasadd_filter_element[] = {
           -13,     -5,      9,     -8,     29,    -28,    -43,    -47,      2,     23,     28,    -29,     33,     14,      2,      5,    -26,     11,    -34,     33,     25,    -28,      3,     -1,     24,    -17,    -42,    -37,    -26,     -1,    -10,     31,    -14,     -4,    -37,    -36,     31,     -3,     26,      0,     25,    -34,     42,    -21,    -21,     19,     13,    -36,     18,    -38,    -26,      9,    -17,     37,    -31,    -41,    -45,     47,      8,      7,    -32,     22,      8,    -10,     -7,     34,      8,      8,    -41,    -53,    -40,     18,     35,     13,     -3,      1,     26,    -34,      3,    -25,      4,     10,      8,     31,     35,     20,     11,     20,    -18,     23,     25,     44,      9,     -4,    -41,    -22,     -5,      0,     -4,    -22,     23,     25,    -29,      8,    -18,     14,    -24,     32,     -6,     19,     -8,     28,    -34,     30,     37,    -12,     30,     -7,    -21,     15,      6,      8,    -64,      3,     33,    -31,     21,     33,     21,    -20,    -36,    -35,     34,     37,    -22,     17,     -9,    -14,     53,     -8,    -35,     15,     -1,    -11,     38,    -40,    -24,      2,     11,     39,    -34,    -41,     14,    -18,     46,      4,     11,     37,     14,     -3,     30,     13,    -30,    -11,     14,    -19,    -40,     -3,     46,    -41,    -44,    -32,     31,    -66,      6,    -31,    -32,     26,      5,    -12,     13,    -20,     22,      2,    -35,     17,    -16,     39,    -29,      2,    -19,     24,     11,     22,     -3,     -5,     18,    -11,     30,    -22,     -8,    -24,     22,     41,    -19,     46,     -2,      4,     -9,    -24,    -10,     -5,    -12,    -19,    -27,     42,     12,    -30,    -62,    -32,     15,    -20,     40,     29,    -16,      6,     34,     29,     15,     40,    -15,     48,    -21,      9,     29,    -15,     10,      9,    -31,    -33};

    const static Filter<int8_t> statefulpartitionedcall_sequential_conv2d_biasadd_filter(statefulpartitionedcall_sequential_conv2d_biasadd_filter_element, -8, {5, 3, 1, 16}, {1, 1});
    const Filter<int8_t> *get_statefulpartitionedcall_sequential_conv2d_biasadd_filter()
    {
    	return &statefulpartitionedcall_sequential_conv2d_biasadd_filter;
    }

    const static __attribute__((aligned(16))) int8_t statefulpartitionedcall_sequential_conv2d_biasadd_bias_element[] = {
             4,     -1,      0,      6,     -9,      0,     -3,      4,      0,      5,      6,      4,      2,     -2,      5,      4};

    const static Bias<int8_t> statefulpartitionedcall_sequential_conv2d_biasadd_bias(statefulpartitionedcall_sequential_conv2d_biasadd_bias_element, -7, {16,});
    const Bias<int8_t> *get_statefulpartitionedcall_sequential_conv2d_biasadd_bias()
    {
    	return &statefulpartitionedcall_sequential_conv2d_biasadd_bias;
    }

    const static Activation<int8_t> statefulpartitionedcall_sequential_conv2d_biasadd_activation(ReLU);
    const Activation<int8_t> *get_statefulpartitionedcall_sequential_conv2d_biasadd_activation()
    {
    	return &statefulpartitionedcall_sequential_conv2d_biasadd_activation;
    }

    const static __attribute__((aligned(16))) int8_t statefulpartitionedcall_sequential_conv2d_1_biasadd_filter_element[] = {
            29,    -10,      0,     26,     48,     50,    -33,    -17,    -10,      4,     18,     33,     -4,    -22,     12,    -14,    -35,      7,     18,     13,     -8,    -20,     42,    -21,     12,    -16,    -19,     -5,      5,    -18,     -7,      5,     -1,    -33,     35,    -27,      2,     37,    -28,     33,    -15,    -34,    -12,     22,    -20,     36,     23,     29,     11,    -25,    -10,     30,     39,     22,     42,    -32,     30,      4,      9,     -4,    -24,     -8,      5,    -41,    -33,     13,    -30,    -22,     19,    -24,     10,     42,    -18,     19,    -13,     17,     -3,     -2,     13,     35,    -26,    -27,      6,    -20,     40,     -2,     -1,     48,      5,      1,     37,     53,     36,    -27,     50,    -29,    -17,    -10,     11,     21,    -29,     -6,     14,    -32,     25,    -25,      7,     15,      4,    -36,      8,     -6,     29,      3,     -4,      5,     31,     24,     -1,    -39,     67,    -42,    -39,      4,     -2,     20,     -6,    -22,    -23,    -17,    -43,     47,     50,      1,     42,    -36,     23,     -6,    -75,     33,     12,    -14,    -43,    -18,     16,    -34,    -25,      6,     14,    -14,    -32,     61,    -17,     13,     31,     48,      2,    -24,     50,     -5,      2,    -20,     89,    -54,     64,     13,      0,     17,      7,     50,     51,     67,     35,    -35,     98,     28,     21,      3,     30,      6,     26,     32,    -33,     64,    -54,     37,     37,     52,     56,     19,     55,     21,    -35,    -18,      5,     24,      8,     -5,     31,     12,     32,      9,    -28,    -16,    -17,      7,    -11,     20,    -27,    -10,     18,    -29,     -5,      4,    -34,    -20,    -57,      2,     23,     33,     36,    -18,     44,     -1,     30,     -5,    -20,      7,    -15,     26,    -12,      4,    -17,     -8,    -32,     12,     19,    -18,    -38,    -14,     -6,    -29,      5,     17,    -18,      0,      9,      3,     19,     17,    -37,     -4,     22,    -24,    -35,     35,    -17,    -33,    -32,     58,    -32,     28,     -1,     -9,     22,      6,     -8,    -39,     10,     16,      3,    -37,    -33,     31,     30,     20,     -5,    -30,     15,     32,     26,    -15,      1,     37,      1,    -13,     20,     38,    -31,    -33,     10,     -8,     33,    -12,     28,     28,     -3,      8,      1,    -15,     19,    -12,      6,    -22,     30,     13,     36,    -14,     10,     -9,     -1,     55,      3,    -29,     36,     -8,     29,    -33,     -8,     -1,    -60,     24,     -6,     -2,    -38,      8,    -19,      6,    -21,    -13,     -7,    -36,     23,     30,    -35,    -20,    -27,     26,    -36,    -27,    -29,     13,     30,     -7,      7,    -35,    -79,      2,     31,    -11,      2,     -7,    -14,    -19,     26,    -19,     23,      3,    -23,    -19,    -18,    -15,     42,      5,    -36,     31,      4,     20,     25,      0,     13,      6,     68,    -43,     -4,     33,    -68,     42,      6,      5,     -4,    -22,     48,    -32,     -2,    -18,     66,    -11,     12,    -48,    -36,     50,     52,     36,     88,      7,     35,     -3,     20,     24,    -28,    -31,    -21,     12,     13,      0,     15,     20,     29,     15,     11,     20,      7,    -27,    -42,     -7,     -9,     -6,    -47,     23,    -12,     74,    -14,    -14,     -1,    -19,    -70,      9,     -5,    -56,    -61,    -47,    -37,     -3,    -48,     41,    -24,     24,    -30,    -20,     30,     -7,    -77,     14,     -9,     -9,    -42,     -6,      5,    -20,     36,     11,     44,    -10,     20,     26,     47,      7,      5,     45,     -9,     23,     16,    -29,    -63,     21,     16,     -3,    -54,     46,     42,      0,     47,    -27,    -64,     28,    -21,    -18,    -40,    -31,     -8,    -11,    -18,     42,     40,    -46,     35,     50,     21,      0,     -3,    -15,     16,     -6,    -21,     -1,      0,    -12,     25,     29,     -9,    -30,     23,     14,     44,     23,      5,     15,    -19,    -21,     21,    -19,
            54,    -36,     41,     19,     32,    -23,      1,     34,      3,     11,     24,     67,      5,     15,     70,    -57,    -78,    -32,     -1,      4,     23,      4,    -16,    -25,     36,     33,    -39,      0,     13,     -1,    -30,     38,      9,     -6,     15,    -30,     -4,    -24,     17,     27,    -30,    -21,      2,     10,      5,     24,     34,    -13,    -14,    -10,      2,     12,    -13,     17,    -37,     19,    -15,     23,     12,    -14,     13,     27,     -3,    -38,    -29,    -11,    -15,     14,    -10,    -25,      3,     -2,     12,      4,     28,     15,    -18,     14,    -41,     34,     -6,     36,     16,     35,     -5,    -24,     23,     54,     64,     34,      5,     26,     18,     11,     41,    -10,    -25,     25,      2,    -14,     -1,     -7,      8,    -36,    -17,     27,    -32,     23,    -34,      1,     27,    -18,    -28,     -2,    -32,     30,     13,     -7,    -15,     -8,     14,     -9,    -81,    -26,    -26,    -65,    -34,     18,    -54,     24,     59,    -51,     47,     -4,    -10,    -46,    -15,      4,     14,     46,      3,    -30,     37,      4,      2,    -13,     45,     15,      8,    -48,    -19,     59,     28,      6,     27,     20,     15,     -5,     25,     -8,     45,    -42,     13,     56,     14,    -30,     61,     19,     64,     33,     57,    -69,     -2,     33,     53,     -9,     30,    -33,      5,     34,     11,    -33,     29,     -1,     47,     52,     62,     -6,     21,     12,      4,      1,    -26,     17,     -9,     13,      9,     37,    -36,    -26,     -7,     16,     33,     15,     38,      5,     22,     12,     25,     13,     28,     27,      5,     20,    -16,     51,     59,     11,      8,     25,    -10,    -13,      7,     14,     -4,     11,      3,    -32,     24,     -9,     20,    -34,    -51,     22,     44,      2,      7,     -1,    -16,     26,    -22,      6,    -14,     23,    -10,     -8,    -15,     24,    -45,     -2,     -9,     -9,     14,      6,      2,    -29,     39,     10,    -23,    -29,     50,     21,      1,     45,      1,    -12,    -21,    -29,      8,    -27,    -13,     -3,      0,     10,     19,     34,    -39,     32,     16,     21,     22,     12,     28,     29,     37,      0,    -33,      4,      7,      9,    -18,      6,      0,    -13,    -29,     22,     15,     18,     -3,     25,     -2,    -30,     25,     16,     -7,    -38,     17,     43,     44,     -9,    -13,      2,     -5,    -24,    -38,     25,     14,      7,    -29,      3,    -23,     30,     -4,    -17,    -19,    -34,     21,    -15,      2,     13,    -13,     21,     35,     -5,     15,    -17,     15,     18,     55,    -28,     26,      0,    -36,     24,     20,     22,     53,     22,     30,    -15,     12,     19,     26,    -23,     24,    -17,     22,    -37,    -12,    -25,     32,    -34,    -18,    -24,     28,     12,    -25,      6,      3,     10,     59,     26,      0,      4,     36,    -31,    104,    -41,    -40,     10,    -25,     13,     39,     11,     -7,     21,    -51,     37,    -16,     19,    -15,    -41,     83,    -30,    -49,    -36,    -55,     49,     29,     21,     15,    -30,     39,    -25,     47,     -5,    -38,     -9,    -29,     21,     20,    -17,     23,     -8,     39,    -37,      5,    -44,    106,    -41,     73,    -36,    -16,     17,     23,     38,     67,     92,     74,    -37,     57,      1,     -5,    -30,     15,     -1,     17,     -2,    -39,     44,      3,      6,     37,     22,      2,    -19,     -2,     14,     20,     20,      2,     29,    -32,     35,     16,    -18,     25,    -11,    -59,     24,     20,     -5,    -20,      5,     -6,      0,     38,    -39,      7,     15,      6,     27,    -38,      5,     65,     11,     37,    -31,     -4,     36,    -31,    -18,    -63,     10,     -4,     60,     17,    -30,    -18,      8,    -25,     12,    -38,     19,     24,    -17,    -34,    -32,     18,    -14,    -26,    -21,    -38,    -25,    -41,     -3,      2,    -10,    -34,     28,     11,     27,
            51,      5,    -15,     51,     15,     -2,    -12,     34,     57,    -25,    -38,    -24,    -36,    -11,    -15,     17,      7,      4,     32,     -4,      1,      3,     30,     45,    -33,    -14,     19,     43,     11,    -20,    -17,     34,      7,     26,      5,      6,     25,     18,      0,     -9,     16,    -16,     -6,     11,     -2,     -2,    -27,    -27,     12,    -37,    -22,     22,     43,    -24,    -11,     55,     -7,    -12,    -11,     17,     30,     29,      0,      4,    -26,     31,      8,      6,     11,     26,     20,    -18,    -31,    -29,    -10,     13,    -20,     -7,     -4,     12,    -12,     -4,    -43,    -31,     16,     51,    -32,    -19,     30,    -33,     -4,     17,    -62,    -37,     20,    -25,     -1,    -31,    -22,     -3,    -31,     -1,     31,     30,    -24,    -18,     11,     37,     -1,     -8,     37,    -17,     23,      8,     13,    -14,     67,     -9,    -11,      6,    -59,     11,     35,     49,     21,    -23,     -2,     20,     27,     10,     67,     10,     25,    -56,     47,     29,     54,     70,     56,     64,     55,     14,     14,    -30,     39,     32,    -32,     33,     23,    -20,    -21,    -16,      8,    -35,    -54,    -23,    -78,     25,    -28,    -14,    -35,    -23,    -65,    -31,      1,     91,     -3,    -11,     10,    -58,   -124,    -32,    -19,    -21,    -61,    -24,      7,     17,    -44,      7,     -2,     80,     21,      1,     32,     15,    -45,    -15,    -28,     12,    -19,     12,      7,     22,     48,     14,     39,     -3,      3,     19,     61,     -9,      1,      8,      6,     33,     10,     23,    -45,     -2,    -57,      8,    -11,     77,    -26,    -31,     46,    -27,    -28,    -14,    -20,    -34,      3,     28,      2,    -11,     25,    -13,    -18,      6,     16,     20,     51,     32,     35,     -6,     43,    -16,     31,    -19,      6,     24,     -7,    -24,    -21,      3,     36,      0,     -4,    -11,     36,     -5,     25,      9,    -35,      4,     37,    -35,     49,      9,     62,     -7,     15,     22,     42,     -5,     25,     69,     43,     33,    -18,      4,    -85,      7,    -35,    -17,     28,      4,     13,    -38,    -42,      9,    -43,      5,    -32,     11,     12,     15,    -29,     23,     13,     32,    -13,     36,    -27,     36,     29,     35,    -36,     17,     26,     -6,     13,    -14,     11,    -14,     25,     28,     43,    -19,    -26,     28,    -11,      8,     20,     25,     -3,    -13,    -41,    -11,    -42,     29,     -3,    -17,     10,      4,      4,    -19,      4,    -30,     -5,    -40,     11,     24,     -2,     -1,      8,     10,     16,     36,     13,    -50,     28,     33,     60,     40,     18,     18,     13,      4,    -14,     18,     12,     18,      2,     -6,    -10,     -5,      4,    -33,    -27,    -23,      1,      5,     27,     -7,      7,     22,    -12,    -24,    -74,     10,    -21,      8,    -47,    -30,      2,    -28,   -101,    -89,    -42,    -29,    -24,     -9,    -56,     40,     67,    -12,     23,      0,    -39,     -5,    -17,    -15,    -36,     19,    -24,    -22,     44,     21,     42,    -23,     33,     40,     27,    -12,     -1,     -5,     22,     21,     55,     43,     18,     14,    -19,    -11,     -3,    -53,      4,     49,    -14,    -15,     31,     26,    107,     16,     32,    -27,      1,     46,     -6,     27,     27,    -26,     31,     53,     16,    -43,     38,     36,     53,     34,     46,    -13,     42,    -12,    -25,     37,    -39,    -17,     36,     -2,     32,     34,    -26,    -39,    -53,     11,     37,     42,     15,     -6,      0,      6,     35,     -9,      9,     36,      4,     11,     49,    -12,     22,     29,     43,     50,     49,    -11,     14,     -3,      3,     33,     -1,     23,     20,     38,    -26,    -41,    -40,     26,     11,      8,     30,    -23,    -11,     36,     27,    -16,     47,     21,     39,     -4,     23,    -12,      6,    -34,     41,     13,    -28,     10,     -5,     31,
            21,      6,     29,     16,      7,     32,     -4,     51,      0,     -9,     47,     49,    -23,     29,     -4,    -13,    -37,     37,    -15,     43,     -5,     30,     -2,    -25,     30,     16,     23,     -6,     40,     19,     29,    -29,     23,    -10,     12,     13,     33,     -2,    -33,     -8,     -5,    -13,     27,    -32,    -31,     19,     29,     33,    -21,     29,      5,    -15,     14,     43,    -29,     -7,     49,     26,    -23,    -23,     32,    -21,    -20,    -10,    -17,     41,     21,     29,    -36,    -25,    -34,    -11,     -9,     25,     28,    -35,      0,     -5,    -12,    -16,     16,     22,    -18,     13,      2,     11,     14,     22,    -37,    -19,     67,     43,     -5,     29,     31,     21,    -36,     37,    -12,     12,    -11,    -11,     -3,    -31,    -19,     28,      4,     37,    -38,    -32,      8,     10,     33,     16,     30,     61,      6,      3,     23,     14,     32,      1,    -35,    -16,     46,    -39,     -7,     -9,    -44,     29,    -41,     -5,     -1,     57,     -1,    -39,     37,    -21,    -44,    -37,     53,     24,      9,     23,      6,    -38,    -11,     16,     40,    -44,     18,     15,     11,     47,     71,      0,    -58,    -11,     26,    -41,      3,    -26,     92,    -22,      9,    -39,    -10,     46,    -23,      8,     97,     91,    -59,      6,     -1,      5,     18,     24,     11,    -29,     48,    -58,      2,     12,     -3,      7,     61,     68,    -64,     20,    -21,     -8,    -40,     31,    -32,     22,     10,     37,     11,     10,    -18,     -4,    -31,      1,     78,     29,     13,      9,    -15,    -21,    -15,    -33,     -4,    -14,     16,     37,     -4,    -13,     49,     50,    -32,    -19,    -10,     33,     27,     -9,    -31,    -26,    -49,     15,     18,    -15,    -42,     -1,      3,    -23,     59,     28,      3,    -26,    -24,     14,    -34,    -15,     -8,     42,    -32,     10,    -20,     -7,    -36,     23,     37,     16,     30,      1,     18,    -48,    -24,    -14,    -15,     26,     28,     38,      6,    -28,     14,    -36,     16,     33,     24,     17,    -51,     -8,     38,     -6,    -19,     12,    -31,      8,     19,     26,     19,     37,     -7,    -33,     -5,    -26,     26,     30,      1,     12,    -11,      9,     12,      5,     35,    -30,     34,    -15,      7,      9,    -24,     10,     10,     24,    -23,     18,     27,    -12,     27,      9,    -28,    -34,     48,     57,      4,     26,    -24,     27,     -4,    -30,     -5,    -23,    -49,     -1,     27,    -45,      4,    -35,     -6,    -36,     -4,    -10,     32,     35,    -61,    -12,    -22,      8,      8,     64,    -19,    -10,    -11,    -26,     -8,    -12,     71,    -20,      3,      3,     -2,     -5,    -11,     18,    -32,      5,     -3,    -22,     -7,     40,     21,      3,     35,      8,      8,    -28,    -19,     -8,     39,     14,      2,      3,    -24,     52,    -26,      3,     -4,     13,    -25,     29,    -39,     28,     33,     26,     47,     -6,     10,    -17,     10,     20,     -9,    -17,     25,     65,    -19,    -16,     30,      3,     21,      7,    -20,     36,     14,     21,    -32,    -27,     15,    -35,    -41,     -3,     60,      0,    -23,    -32,     -6,    -35,    -48,    -36,    -50,     20,    -25,    -16,     31,    -39,    -71,    -27,     91,     -9,    -20,    -13,    -11,      8,    -68,     26,     -9,     26,      0,    -35,    -33,    -21,    -64,     11,     71,     26,    -40,    -30,    -17,    -20,     35,     22,      7,    -32,     20,     35,     15,     33,    -23,     -6,    -11,     21,    -26,     21,    -76,     25,    -52,     34,     -4,     26,     11,    -50,    -17,    -18,    -67,    -16,     26,     39,     22,    -26,     30,    -30,    -25,     39,    -22,      6,     33,      5,     39,     14,     35,     -3,    -43,     -6,     14,    -30,     24,    -31,     22,      8,    -24,    -12,      3,    -14,     21,     25,     13,     -5,    -11,     -8,    -29,     -3,
             4,    -14,     25,    -12,     48,     -3,    -21,     23,     45,     10,     45,     68,      6,     37,     12,    -12,    -51,    -17,    -11,     -7,    -10,     25,     -2,    -40,     23,     15,    -27,      4,     36,    -38,    -36,     27,     17,    -20,     -6,      3,    -29,     -4,     19,      1,      5,    -23,     35,     36,     14,      5,     25,     25,    -10,    -24,    -15,     22,     40,     20,     19,    -36,     -7,    -15,      4,     29,    -14,    -12,     17,     33,    -54,     16,     -2,    -18,    -46,     33,    -31,    -17,     12,     -3,    -24,    -19,    -32,     -2,    -10,    -14,      3,     -1,    -36,     39,      2,     -1,     10,     -5,     43,     23,    -18,    -33,    -49,     12,      9,      5,     34,     -3,    -20,     18,    -34,    -33,     30,     23,     21,    -12,      7,    -13,    -26,    -34,     15,     -1,    -17,     -4,    -38,      1,      9,      9,    -10,     -2,     -1,    -35,    -66,    -68,     15,      7,    -16,      8,    -34,    -24,     31,      8,     12,     43,    -42,    -72,    -39,     23,     38,     74,     -2,     -1,     63,     36,    -17,    -29,      7,     16,     38,    -32,    -19,     -2,     27,     38,      7,     42,    -25,    -11,      1,    -33,     34,    -20,    -38,     41,     24,     20,     11,      7,     13,    -19,     50,    -30,    -14,    -22,    -33,     26,    -14,    -15,     11,      3,     21,    -13,      4,      8,     -7,     11,      1,    -26,      2,    -26,    -17,    -32,     26,    -14,     18,    -33,     24,      8,    -16,     19,    -29,    -33,     37,      2,     23,     30,      6,    -12,     23,      2,     41,     -5,     26,    -19,    -24,     41,     34,     -8,     -6,     44,    -13,    -14,      8,     13,     37,    -23,    -20,     -4,    -26,     15,     14,    -40,    -15,    -30,      7,     19,    -13,     22,     46,     31,     35,     30,     32,     -9,    -12,    -16,    -19,    -25,    -44,    -15,      3,    -30,     15,    -31,     25,    -30};

    const static Filter<int8_t> statefulpartitionedcall_sequential_conv2d_1_biasadd_filter(statefulpartitionedcall_sequential_conv2d_1_biasadd_filter_element, -8, {3, 3, 16, 16}, {1, 1});
    const Filter<int8_t> *get_statefulpartitionedcall_sequential_conv2d_1_biasadd_filter()
    {
    	return &statefulpartitionedcall_sequential_conv2d_1_biasadd_filter;
    }

    const static __attribute__((aligned(16))) int8_t statefulpartitionedcall_sequential_conv2d_1_biasadd_bias_element[] = {
             2,     -4,     -2,      4,      0,     -2,      1,      2,     -7,      1,     -3,     -2,      0,      4,      0,     -5};

    const static Bias<int8_t> statefulpartitionedcall_sequential_conv2d_1_biasadd_bias(statefulpartitionedcall_sequential_conv2d_1_biasadd_bias_element, -6, {16,});
    const Bias<int8_t> *get_statefulpartitionedcall_sequential_conv2d_1_biasadd_bias()
    {
    	return &statefulpartitionedcall_sequential_conv2d_1_biasadd_bias;
    }

    const static Activation<int8_t> statefulpartitionedcall_sequential_conv2d_1_biasadd_activation(ReLU);
    const Activation<int8_t> *get_statefulpartitionedcall_sequential_conv2d_1_biasadd_activation()
    {
    	return &statefulpartitionedcall_sequential_conv2d_1_biasadd_activation;
    }

    const static __attribute__((aligned(16))) int8_t statefulpartitionedcall_sequential_conv2d_2_biasadd_filter_element[] = {
           -36,     19,     -5,     24,     -8,     78,    -17,    -63,     73,    -37,    -30,    -63,    -24,     33,    -72,     35,     48,      6,     57,      5,     33,    -20,     65,     10,     75,     39,     75,     17,      9,     26,     -9,    -36,     -6,    -35,     -7,    -11,     45,    -55,    -18,    -60,     -8,     -8,    -24,     59,     20,    -38,      4,    -12,    -39,     29,    -74,     42,    -11,     70,     13,    -13,     58,    -69,    -81,    -37,     11,    -15,    -11,    -19,      9,    -36,     68,     47,      9,     -5,     15,    -34,     99,    -48,     17,     68,    -12,     31,    -16,     27,    -50,    -51,    -38,      6,    -22,    -16,     -3,    -18,    -63,    -57,    -54,     35,     15,     21,    -25,    -18,     39,    -50,      2,     59,     24,     55,     66,    -51,     32,      1,    -50,    -54,    -42,    -32,      6,     11,    -24,    -25,     59,    -12,     41,    -44,    -11,    -33,     45,    -17,     82,     53,     24,      5,     24,     31,    -55,      9,      2,    -33,    -29,    -52,     16,    -51,    -12,    -54,    -51,      3,     42,     10,     43,      2,    -32,      1,     15,     -7,     38,     78,     48,     -3,     56,    -32,     -2,    -27,     49,    -34,    -17,     15,    -24,      4,     45,     -2,      4,      4,      4,     -9,     39,    -17,     51,     41,     82,     12,     51,      4,    -14,    -44,    -14,    -20,    -41,     -8,    -23,    -19,    -29,     20,     14,     25,    -10,     21,    -10,     -3,    -62,    -30,     33,    -16,    -29,     43,     15,     -7,     54,      8,     11,     -5,     82,     24,     24,      1,    -30,    -13,     61,    -52,     42,     61,     33,     -8,     37,     -7,     23,     40,     15,    -23,    -10,     -7,    -27,    -39,      0,    -55,    -23,     35,     32,    -44,    -34,     19,    -25,     47,     41,    -43,     13,      2,    -58,    -32,      4,     49,    -10,     39,     44,     31,     72,     37,    -25,    -12,     -3,    -59,     43,     23,    -49,     17,     22,     25,     12,     56,     23,    -34,     10,     13,     52,     57,     64,     21,     58,     32,    -13,    -39,      3,    -20,     29,    -11,    -39,     17,    -18,     20,      2,     47,     58,    -39,     66,    -35,     74,      4,     55,     48,     61,     15,     47,     38,     84,     54,     75,     53,     -6,     24,     54,     -8,    -15,     33,     35,      1,     72,      7,     -8,     40,     -7,     58,     -3,    -12,     12,     -8,     -8,     23,     12,    -21,     -6,     39,     44,     50,     38,     -7,     14,     56,      8,      9,    -24,     -4,    -15,      8,      5,    -37,     21,    -13,     72,      9,     28,     53,     13,      0,     47,     42,    -22,     -5,     18,    -35,    -35,     16,      0,     -6,     30,     13,     22,     25,     -4,     10,     36,      0,     -5,    -47,     35,    -15,     35,    -27,     20,    -22,     20,      6,    -42,     31,     53,      4,      2,     31,      3,    -42,     21,     38,    -32,     11,      1,    -14,     76,      9,    -48,    -13,    -19,     38,     10,      2,    -44,    -28,      4,    -18,    -52,     16,      3,    -21,     35,     21,     15,     10,     53,     43,    -14,    -38,    -30,    -35,    -14,     -8,     40,     15,     30,     -5,     45,     10,     28,    -23,    -16,     32,     13,    -34,    -25,      5,    -19,     14,     -2,     -9,    -48,      9,    -42,     51,     47,    -38,     36,     -5,    -27,    -65,    -51,     16,      1,     17,    -10,     26,     43,    -54,     15,      3,     17,    -20,    -15,    -28,     13,    -20,    -47,    -47,    -36,     48,     25,     -7,     35,     23,     -9,    -26,     45,    -23,     43,     39,     73,     53,     28,     19,     47,     55,    -65,      0,     -1,     18,    -21,     28,    -13,    -42,      9,     11,     -6,    -52,    -23,      4,    -48,    -16,     12,      4,    -29,    -29,    -27,     22,     -2,     23,      8,    -17,     35,    -43,    -37,    -11,      6,     -4,
           -12,     40,     37,      6,     -6,     37,    -23,     40,     36,     47,     68,     44,    -21,      2,     30,    -24,    -19,      9,    -55,     22,    -47,     16,     -1,     -2,     29,    -35,    -55,    -30,    -15,     17,    -18,    -37,     30,     23,     40,    -37,    -10,     -1,     24,     20,     21,     11,     14,    -30,    -28,     -2,     29,    -11,     12,    -21,     59,     26,     19,    -29,      6,     64,     40,     47,     55,     22,    -35,    -18,     -2,     34,    -11,      6,     37,     25,    -12,      7,    -31,    -38,    -52,      1,     12,     30,      3,     20,    -17,     24,    -11,    -30,    -35,     -2,     31,     -9,     -9,      2,    -24,    -40,     25,    -20,    -22,     28,     14,     -8,    -25,     -1,     28,     18,    -16,     35,    -25,    -17,      1,     39,    -30,    -22,     13,    -16,      7,     29,    -39,     21,     33,     29,      1,     24,    -42,    -31,    -44,     -2,    -38,     34,    -47,      6,    -41,     -2,    -43,     36,     18,    -18,    -31,     28,      4,    -26,     39,    -14,    -38,    -34,    -36,    -14,    -33,     12,    -46,     -4,     22,      3,     14,    -38,    -37,    -10,     -2,      6,     12,     -4,    -19,     15,    -11,     26,     -3,    -16,     -9,     -1,     29,    -25,      3,     16,    -21,     29,     16,      3,    -45,    -32,     31,     35,     27,    -42,    -36,    -32,    -31,    -40,     -4,     -9,     -1,    -12,    -18,    -36,    -35,    -11,      8,      8,     -2,     24,     29,    -29,     25,     40,    -28,      7,     33,     18,    -50,    -22,    -17,    -41,      8,     10,    -39,     45,     -7,    -15,    -56,     26,    -19,    -18,     24,    -25,    -59,     -1,    -38,    -33,    -35,    -21,     18,    -28,    -22,     30,    -26,    -20,     17,    -48,     38,    -36,     14,     10,     -9,    -20,    -31,     43,     20,     25,    -21,    -48,    -11,      5,     -6,     -6,     15,    -33,      0,    -16,     10,     31,     11,     22,     32,     48,     -8,     -6,     -2,      6,     20,      0,     13,     11,    -43,     16,      0,     36,    -16,     -6,    -32,     38,     25,    -45,    -35,     12,     31,    -74,    -38,    -30,    -45,     -4,    -15,    -20,     22,     25,      1,     35,    -43,    -28,    -27,    -31,    -37,      6,    -30,     35,      3,      9,     31,     -5,    -22,    -11,     27,     35,     34,     -6,      8,     28,     34,    -37,     33,     -7,     20,    -20,     27,     -4,     10,     50,    -18,      8,    -14,    -48,      4,    -28,     -6,    -33,     -6,    -20,    -35,    -32,     11,      7,    -46,    -12,     10,     48,    -24,     33,    -29,      0,     11,    -80,     -1,    -48,     17,    -50,     40,     10,     28,     12,     39,     25,      0,     10,     19,     32,    -20,     16,     -3,      9,     10,    -15,     -4,     24,     29,    -15,    -12,    -21,    -49,     15,    -51,     -9,     14,     -6,      3,     30,      7,    -57,    -14,    -16,    -22,    -37,     66,     -9,    -26,      5,     33,    -48,     16,     47,    -25,    -27,     38,    -14,    -26,     38,      8,    -44,      7,      2,     15,     -2,    -18,    -35,    -20,      3,     10,    -34,    -26,     12,    -18,    -18,     38,     21,     58,      3,    -14,     11,    -59,     26,     31,    -19,     24,    -19,    -47,    -20,     16,    -15,     -8,    -23,     31,    -19,     -6,     38,     21,     12,     21,     28,    -32,     42,      5,    -16,     34,      6,    -37,     15,     46,     35,     25,     35,    -11,     12,     36,    -31,    -21,     27,      9,     32,      5,     26,     25,    -21,     50,    -42,    -50,      6,      3,      5,     32,    -15,    -10,    -11,    -12,     16,    -30,    -11,    -62,    -57,     51,     28,     49,     -2,     45,     -4,    -29,    -23,    -46,     10,    -15,     40,     32,     -8,     27,    -35,     27,    -26,    -10,     50,    -26,     47,     52,     25,    102,     -9,    -29,      9,     -2,     22,     39,    -27,
            11,     -1,     39,    -22,      3,     21,     15,      7,     61,     32,     53,     68,     51,     19,     55,    -26,     17,      1,     34,     12,     13,     38,     37,    -40,     46,     -5,    -43,    -24,     -2,     42,     44,    -30,      9,    -12,    -33,     38,     -2,     45,    -12,      8,      8,    -29,    -11,      5,     39,     22,      5,     20,      1,    -44,    -38,     40,      4,     -9,    -30,    -34,     24,    -22,      5,     22,     -6,      2,     23,     32,    -52,     -7,     32,     -4,    -49,      7,    -10,    -16,    -30,     -4,    -22,     23,    -10,     21,     -7,    -28,    -20,    -37,     17,     24,    -17,      7,     11,     27,     31,    -14,     10,    -37,     -9,     -9,     24,    -34,     11,    -14,    -55,     -5,    -58,     15,     10,    -57,    -34,    -18,    -73,    -32,     23,    -35,    -47,     -4,    -26,    -35,     39,     11,    -37,    -75,     33,    -22,    -51,     -6,    -46,    -22,     29,     11,     -3,     28};

    const static Filter<int8_t> statefulpartitionedcall_sequential_conv2d_2_biasadd_filter(statefulpartitionedcall_sequential_conv2d_2_biasadd_filter_element, -8, {3, 3, 16, 8}, {1, 1});
    const Filter<int8_t> *get_statefulpartitionedcall_sequential_conv2d_2_biasadd_filter()
    {
    	return &statefulpartitionedcall_sequential_conv2d_2_biasadd_filter;
    }

    const static __attribute__((aligned(16))) int8_t statefulpartitionedcall_sequential_conv2d_2_biasadd_bias_element[] = {
             0,      0,     -1,      0,      0,      0,      1,      1};

    const static Bias<int8_t> statefulpartitionedcall_sequential_conv2d_2_biasadd_bias(statefulpartitionedcall_sequential_conv2d_2_biasadd_bias_element, -4, {8,});
    const Bias<int8_t> *get_statefulpartitionedcall_sequential_conv2d_2_biasadd_bias()
    {
    	return &statefulpartitionedcall_sequential_conv2d_2_biasadd_bias;
    }

    const static Activation<int8_t> statefulpartitionedcall_sequential_conv2d_2_biasadd_activation(ReLU);
    const Activation<int8_t> *get_statefulpartitionedcall_sequential_conv2d_2_biasadd_activation()
    {
    	return &statefulpartitionedcall_sequential_conv2d_2_biasadd_activation;
    }

    const static __attribute__((aligned(16))) int8_t fused_gemm_0_filter_element[] = {
            20,     27,    -15,     22,    -20,     19,     18,    -27,     27,    -27,      7,     -4,      9,    -40,      1,     18,      1,     -6,    -22,    -20,     14,     22,    -23,    -23,     -7,    -16,    -31,     37,     26,    -28,     35,      1,     61,    -32,     44,      3,     18,      1,     -2,     -4,     30,    -21,    -16,     58,     -1,     37,     19,     -8,    -17,      5,     12,     40,     -8,     10,     -8,     40,    -21,    -20,     16,     22,    -12,     12,    -23,     13,    -25,    -18,     24,     -4,     10,    -13,     29,    -31,     21,     19,     12,    -10,    -23,     25,    -22,      1,      8,      6,     26,      0,     46,     17,      0,    -34,     17,     47,     33,     43,    -17,    -28,     15,    -20,      2,      1,      4,      5,      1,     -9,    -19,    -14,     14,    -35,    -12,      9,    -24,     12,    -16,     43,     26,    -15,     36,    -15,    -15,      1,     -7,    -23,     23,      1,      2,     18,     44,      7,     47,    -28,      9,     16,     21,    -29,    -51,    -17,    -31,    -32,     23,     -1,    -21,     41,     32,     -6,     49,    -15,     19,    -12,     29,     -4,    -26,      9,      4,    -16,    -17,    -10,    -34,     -5,     17,     17,     38,     14,    -31,     -5,     -9,    -32,    -35,     12,      4,     12,     43,    -38,     16,     21,     25,    -26,     20,    -51,      4,    -27,     10,    -27,    -25,    -33,      8,     -9,     35,      0,    -18,    -32,    -20,     -6,     20,    -55,     26,     -1,     10,    -29,    -10,      5,     18,     16,    -28,     -6,    -27,      9,     19,     29,      5,     -7,     -9,     37,    -27,     39,     -8,     -1,      8,      8,    -21,      5,     -1,     24,     -4,      3,    -27,     28,     48,      6,     40,     14,    -21,     15,     19,    -25,     12,     31,      9,     29,     35,     33,     28,    -10,    -13,     22,      3,    -18,    -10,     16,     11,    -11,      9,    -35,    -10,     12,     -1,     18,    -12,     12,     11,     13,    -14,      9,    -52,     17,     16,    -13,      2,     -5,     20,    -14,      1,      4,     -5,      8,    -12,      9,     30,     16,    -22,     22,     13,     19,     23,    -23,     13,      4,    -12,      1,      8,      9,    -11,    -27,     -4,    -30,      8,      3,    -28,     22,     18,    -31,     15,     31,     10,     17,     33,    -51,    -42,      2,    -31,     47,     32,    -17,    -18,     26,    -19,     -9,     39,    -59,    -29,    -38,    -41,    -32,    -25,     17,    -11,     -2,     25,      1,     -4,     -9,     14,     -7,     30,      0,    -11,      3,    -30,    -15,    -13,     18,     27,     13,     20,    -11,      8,     -9,     15,     47,    -10,    -13,    -28,      5,    -33,     49,     25,     -9,     15,     11,    -31,      6,    -34,    -26,    -19,    -25,    -32,     15,     22,    -16,     31,    -32,     53,     11,      4,      1,     -8,     20,     -8,     20,     -8,    -52,    -21,      5,      9,     36,     12,    -17,     49,     14,     -9,    -28,    -45,      2,    -13,    -16,     -4,    -38,     -4,     26,      9,      1,     61,     12,     18,     25,     13,      5,    -35,     14,    -33,      2,      2,      2,      6,    -13,     18,    -18,      2,     27,     12,     -5,     -7,    -26,      3,      6,     15,      4,     -1,      0,     -3,     27,     35,    -13,     37,    -46,    -23,    -45,    -29,     39,     -6,      0,    -10,      6,     26,     29,    -29,    -28,     14,    -19,     -7,    -41,     16,    -22,     28,     10,     14,      0,     -4,     -4,    -26,      3,     10,     -6,     12,    -23,    -25,     39,     25,     11,    -32,     30,     22,    -38,     22,    -18,    -21,     43,     30,     14,    -15,     20,     10,      6,     22,    -17,    -22,     20,    -11,     20,    -13,     -9,      5,     13,      9,     -1,     17,     12,     17,    -18,     38,     -6,    -17,    -20,     -5,     -3,    -22,     11,     45,     -5,     10,     37,     15,    -16,     25,    -22,
            11,     34,     35,    -42,    -56,      5,    -13,     13,     36,      6,      4,     41,     12,     16,     -1,     16,     29,     -8,     29,     -7,    -38,     -8,     25,      0,    -27,     12,    -14,     42,     -8,     18,     23,     22,     25,    -20,    -40,    -12,    -40,     21,     16,     -6,     -8,     -1,     -3,     17,     33,     15,      7,    -44,    -20,     20,    -39,    -12,    -29,      5,     30,     -1,     38,    -25,     25,      8,     -9,    -29,     -1,    -14,      1,      6,    -14,     -2,     10,    -13,    -27,     30,    -10,    -14,     14,     -9,    -18,      7,    -26,      7,     24,      7,      8,     -2,     -3,    -20,     29,     26,     -9,     17,     34,      0,    -37,     14,      4,      3,     26,    -23,    -14,     -3,    -30,     30,      7,    -31,     -8,    -23,    -24,     23,     23,     17,     29,    -32,     22,    -26,    -17,      3,     -4,     30,     15,      8,     24,    -38,    -23,     12,    -12,    -21,     12,     10,     57,     38,    -18,      1,    -43,     40,     26,    -24,    -21,     16,    -17,     17,     42,     -8,      7,    -28,     12,     42,     15,     20,    -34,      9,     -1,     16,    -33,    -30,     20,     13,     -6,    -18,     17,     27,     10,     13,     -9,     25,    -26,     42,     22,     25,     -4,     -7,      7,     -8,     17,    -22,      8,    -24,     59,     77,    -21,     -4,    -21,     52,     30,    -17,    -57,    -16,     33,     47,     44,    -34,     13,    -20,     30,     24,     26,     -6,      2,    -21,    -29,     27,     28,    -26,    -23,     29,     -1,     10,      8,    -16,     22,     37,    -31,     19,     40,    -34,    -28,     25,    -10,     15,     29,     -4,     10,     10,     23,     35,     40,    -22,      4,     -4,      1,     20,     -9,    -29,     -7,    -15,    -14,    -16,      0,     -3,     17,    -27,     36,    -20,     16,    -41,    -44,     20,     17,    -26,      3,    -42,    -12,      4,      8,     25,     32,    -30,    -19,    -28,    -19,     34,    -31,     27,    -16,     14,     27,      8,    -20,    -21,    -27,    -21,     -9,      9,    -10,    -23,     -1,     33,     12,    -23,    -34,     50,     13,     26,    -26,    -25,     -5,      2,    -13,     31,     45,     -5,     33,      3,      9,    -11,     17,     13,    -43,     -1,      0,     18,     16,     28,    -25,    -12,    -51,    -43,     57,     -7,    -48,    -22,      0,     28,    -14,     36,    -26,     23,     -4,     76,    -12,     27,     21,     31,      7,    -19,     19,     -7,     19,     11,    -36,     14,     36,      6,    -13,    -38,     11,    -41,     -5,     25,      9,     14,      3,     19,    -15,     22,     -6,     33,     -4,     -3,    -16,    -25,      6,      6,    -15,    -15,      8,     24,    -17,      9,     -2,     -7,     12,     14,    -15,     -3,     14,      5,     -2,     -2,    -14,      5,     -9,     14,    -37,     13,    -19,     42,    -28,      2,     30,    -20,    -11,    -18,    -46,     34,    -24,      3,     -4,     26,     22,     29,      4,     11,    -37,     27,     16,    -21,     35,    -20,     33,     -6,     15,     -6,     14,    -18,    -28,      8,    -26,    -15,     23,     -3,     -2,      9,     23,     -7,    -23,    -15,    -38,     -3,     -9,    -16,     -6,     24,    -27,     -5,      1,     40,      0,    -13,    -46,     11,     14,      9,      4,    -16,      3,     10,     30,    -45,      9,    -44,    -22,    -13,    -38,     -4,     38,      5,     32,    -40,     -3,    -17,      6,    -19,     18,      8,     29,    -31,    -21,    -16,     23,     34,     32,    -15,    -14,    -19,     21,     31,     21,     17,     31,    -26,     19,     31,     22,     42,      0,      3,    -28,     -5,    -27,     23,     36,    -14,     11,     18,    -15,     16,    -18,     -1,     19,     -6,     14,     38,     -5,    -31,      3,     17,     23,     17,      7,     25,    -38,    -19,      0,     46,    -25,     29,     20,     13,    -36,     26,     -7,     -2,
           -12,     28,      7,     16,     -6,     31,    -24,     -9,    -46,     28,      2,     24,     -4,     26,     -9,    -14,      3,    -18,    -18,    -12,     -5,    -38,    -20,    -15,     23,    -11,    -23,    -25,     12,     28,      3,     -8,    -20,      5,     32,    -27,     11,    -30,     20,     15,    -16,     32,      0,     -9,     30,     16,      6,      0,    -30,    -16,     15,      5,     20,    -44,     11,      0,     18,     48,    -23,     -5,    -16,     -4,      9,     10,    -26,     -9,    -19,      3,    -27,     28,     14,      5,     -6,     30,     14,     -1,     21,    -17,    -25,      8,    -12,     31,     -8,    -16,     37,    -13,    -25,    -15,    -12,    -10,     -1,     -6,    -25,    -22,     -2,     35,      9,     28,     10,     -5,      7,     43,    -16,    -10,     35,     16,     13,     33,     35,     17,      0,     10,     27,     26,      8,    -13,     -8,     25,     27,     14,    -26,     23,     24,    -32,      2,    -23,     10,    -21,     16,    -20,     -6,    -28,     -9,     15,      2,      6,     11,      4,     25,      8,     29,      1,     55,     15,    -11,     31,     35,    -20,     -1,    -31,     19,     12,     -7,    -16,    -15,     31,     20,    -22,     29,    -12,     -2,     14,    -34,     -1,     19,    -24,     -8,    -14,     10,    -26,     11,    -15,      1,    -12,    -21,    -24,     17,      9,     15,     10,    -16,      0,     15,    -28,     26,     11,    -23,     12,     19,     19,     27,    -12,      5,    -31,     15,    -10,    -13,      6,      5,     14,     20,      1,    -18,     26,    -29,     -5,     -9,      9,     13,     16,     23,      8,     27,     -5,    -28,     20,    -17,     -3,     -5,     15,     -2,     -1,     15,     39,     44,     30,    -22,     17,    -21,    -19,      8,     -6,    -29,    -40,     36,     39,     -2,      0,    -24,     16,      8,    -23,     22,     -3,    -27,    -28,     25,    -23,     32,    -30,    -24,     19,     13,     31,     36,    -11,     58,      0,     30,     24,    -14,     -3,     16,     -3,    -22,    -31,    -20,     21,      8,    -18,     22,     35,     41,    -19,    -12,    -24,     16,     -3,      2,    -16,     -3,      8,      6,     -5,     30,     -9,     -8,     46,    -33,     -5,     16,    -18,    -35,      6,      3,     22,      4,     13,    -15,    -14,    -19,     24,     -8,     21,     12,    -24,     -9,    -22,    -35,    -10,     16,     19,     15,     19,    -20,      9,      2,     13,     19,     17,    -24,    -21,     -3,      2,     13,     10,     28,    -19,    -22,      9,    -10,     -4,     25,     -7,     -2,    -24,     -4,     34,    -10,    -11,     27,     16,    -30,     33,     29,      5,      4,     -6,      1,     22,    -17,     29,     -3,     32,      5,    -22,     -2,    -15,    -35,     -4,    -20,     -1,     32,    -20,     13,    -14,     -4,    -23,     -3,     28,     34,     -3,    -31,    -10,    -11,      1,     28,    -28,     23,     -7,     -9,     27,     43,     -4,     19,      0,      0,      9,      1,     59,    -18,    -13,    -30,     33,     40,     51,     45,    -29,     23,     11,    -18,      4,    -16,      8,    -21,    -21,     15,      0,    -21,     -3,    -20,     -1,     11,      5,    -18,     37,      7,     16,    -16,      7,    -23,     12,     -1,     20,    -23,      3,     43,    -20,     26,    -26,     11,    -14,     40,    -15,     46,     -3,     -5,     18,     28,    -25,     -7,     26,    -22,     50,      8,     31,     13,     -5,    -19,      7,     30,     -6,      1,    -11,     21,    -25,    -24,     13,     22,    -28,     33,     20,     -3,     -5,      7,     41,     26,     -2,     15,     13,     20,      0,    -26,     34,      2,    -17,      4,     20,     -7,    -11,     42,     22,    -11,    -32,     -5,     15,    -27,     23,      4,    -27,    -11,      5,    -11,     -9,    -10,     21,     11,     -6,    -24,    -28,     -4,    -25,    -11,    -27,      2,     -8,    -11,     31,    -27,     13,     36,    -10,
           -25,      1,     17,    -15,    -30,    -14,    -24,     35,     40,    -23,     -7,     -7,    -15,     31,     10,      6,     -6,    -21,     12,     -5,     -9,     -9,    -33,     45,     18,     -5,     -2,    -27,    -13,     28,    -10,      7,     16,     14,     14,     20,    -16,    -26,     13,     24,    -27,     -7,     40,     -8,     47,     26,     31,     10,     11,     10,     76,    -22,    -25,    -33,     -1,    -48,    -37,     10,    -24,    -12,     13,     41,     -3,     49,      5,    -11,      2,     -8,    -24,    -13,    -26,      9,    -26,     12,    -24,     17,      2,    -46,    -11,     -9,    -19,     38,     10,     35,     46,    -35,     13,     27,     10,     11,     -3,     43,     19,    -15,    -34,     -8,      7,     30,     32,    -32,    -27,    -15,      0,     -9,     20,      7,     24,     -1,     19,     14,    -25,     17,    -24,    -15,    -23,     31,     -9,    -19,     -7,     30,     32,     25,      0,    -19,      1,    -21,    -32,     38,     26,     62,    -77,     21,     19,     39,     16,     -1,    -12,     10,     78,     18,     58,    -51,     32,    -47,    -19,      6,    -25,     34,     25,     34,    -29,     41,    -18,    -17,    -12,     10,      9,     16,     26,      1,    -49,     -5,     14,     16,     -6,     16,      7,     27,      9,     11,    -11,      6,      8,      2,      7,      0,     15,     14,     29,    -48,     24,     45,    -32,    -34,      5,     20,     -3,     16,     34,     23,      3,    -64,     28,     20,     10,      3,      7,     11,      1,    -21,     -7,    -19,      0,     27,     13,    -42,     20,     20,    -26,     45,    -39,      0,     22,     -2,     13,      5,    -26,     42,     38,     -4,     -6,    -27,      4,      4,     24,     13,      0,    -33,    -30,     45,      7,     10,    -35,    -24,     16,     29,    -10,    -18,     32,    -21,     11,     -5,     -5,     45,     20,     -5,     13,    -10,      3,    -12,      3,     -4,     26,    -20,     -8,     11,     42,     60,    -36,    -22,     26,     59,      0,     -3,    -23,     13,     25,     15,     13,     -1,     34,    -21,    -12,     14,     34,      0,     18,      5,    -25,     22,     18,     -5,     29,     22,      8,      3,     -8,     17,      3,      4,     -3,     23,     -7,     29,      6,     14,      8,     -1,      2,     17,    -24,     15,     -6,    -20,     17,    -26,     27,    -19,     -4,     -6,    -26,    -21,    -15,    -13,    -11,     -4,      9,    -11,    -20,      6,     20,    -21,     20,    -31,    -11,      5,      1,    -26,     13,     28,     11,     11,     22,     29,    -21,     14,     11,     22,    -10,     21,     38,    -43,    -20,     13,    -26,     -1,     10,      5,     20,    -20,    -18,     -9,    -17,     20,      9,     34,      7,     10,      1,     25,     27,    -22,     21,     -9,     20,     -5,    -13,     -5,     25,     22,     21,     27,    -32,      8,     -9,    -19,    -19,     -6,    -19,     10,    -13,    -28,     31,    -11,     28,     12,     -5,    -26,    -54,     33,     18,      0,    -18,    -39,     40,     -7,      8,    -46,     53,    -27,      5,     31,     10,     12,      4,      5,     -1,     -5,     -3,     -5,    -21,    -20,     11,     27,    -17,     38,    -13,     14,     -1,     11,      0,     19,     -8,    -20,    -35,     -9,     11,     13,    -18,     12,    -26,     27,    -47,    -43,     37,     16,      4,      6,     -7,    -13,    -23,    -23,     -7,      0,    -32,     24,      3,     35,     10,     21,     26,     15,    -20,      2,    -11,     26,     13,     11,     -1,     24,     17,     -2,     35,     15,      3,     29,    -24,      5,     -2,     17,    -32,      2,     34,     44,     12,      6,    -23,    -26,    -32,     41,     20,    -11,      0,    -26,     -2,    -10,    -34,    -16,    -28,    -46,     30,     -7,    -19,     -7,      2,    -11,     39,     18,    -18,     18,    -42,     -7,     10,    -20,     12,    -39,     -1,    -16,    -17,     -4,     20,    -22,
            50,     38,    -44,     36,      5,     23,      5,     33,    -40,    -29,     26,      7,     22,     -3,     21,     12,      1,     38,     -5,     19,      0,    -11,    -10,      5,    -23,    -31,     11,      3,      4,      3,    -21,    -11,    -10,      6,     25,     14,     19,     21,     16,    -17,      9,    -33,    -14,     -4,    -17,    -17,     25,      2,     79,      3,    -38,      7,     -7,    -11,     10,    -23,    -27,     43,     49,     20,      1,    -49,    -22,     13,     -1,     27,    -15,     -3,      9,      1,      8,     -4,     -9,     -8,     15,    -24,     14,    -33,     16,      7,     17,      5,    -17,     24,     -9,     -3,     -3,     16,     -9,     17,     -8,     20,     -4,    -26,     -2,     17,     26,     11,    -19,      6,     -6,     14,      9,      0,     27,     -4,     -7,    -25,    -14,    -11,     -2,      1,     -9,      0,    -13,    -30,    -18,     20,    -25,    -20,     11,     -5,     17,    -22,     25,      0,     10,     30,     16,     32,    -20,     -4,     11,     27,     -9,     -1,    -29,      1,     51,     35,     27,      7,     41,    -32,      3,     31,     28,     -1,     -6,    -21,      9,     19,     -8,    -31,     -6,     37,    -10,    -22,     16,     27,      2,     29,    -11,     18,    -26,    -24,     -1,     29,     -1,    -10,      3,    -11,     -5,    -19,      6,     30,     35,     -1,     32,    -55,     -5,     44,      6,    -83,    -57,    -19,     20,     27,     39,     64,     61,    -14,      0,     22,    -19,    -17,    -31,     16,     -5,    -13,     -9,    -23,    -16,     25,      1,      6,    -21,     33,     16,     26,     11,     25,    -16,    -14,    -30,     38,     16,     50,     24,      0,    -24,     12,     -4,     50,     13,    -15,     35,     18,      6,     38,      0,     16,     10,     -5,    -26,     23,     19,     28,     20,    -15,     44,     13,     27,     17,    -19,     34,     23,     26,     13,     -1,     19,     31,    -23,     -5,     -2,     -9,    -11,    -34,     58,    -13,    -24,     45,     28,     10,     45,    -45,    -15,    -27,     16,      9,     18,     19,    -33,    -45,     35,      7,    -33,    -16,    -34,     53,      1,    -24,    -27,    -19,    -44,     16,     26,     19,    -11,     38,     17,    -17,    -19,    -14,    -20,     28,    -28,      5,     21,      7,      2,     24,    -20,     44,     12,    -35,     24,     -9,    -20,     -5,     23,    -60,    -18,    -37,    -45,     55,     18,     47,     26,     32,     22,     20,      7,    -14,     29,      7,    -26,     -9,     30,      5,      2,     -3,    -25,      3,      4,      7,     -7,     44,    -25,      3,     50,     -2,     12,     17,      4,     51,      1,     27,     -4,    -21,      2,     -3,     26,     59,     -3,    -22,    -35,     32,    -25,     11,    -18,     26,      4,     16,    -25,     -6,     -6,     11,    -25,    -19,     14,      1,    -17,    -35,    -25,     50,    -24,     -5,     27,    -41,    -11,     15,      9,     13,    -37,     42,    -71,      1,     40,     32,    -28,     -2,    -16,    -25,     62,    -25,     39,    -19,     20,    -27,    -25,      7,    -35,     24,     19,     39,    -33,      4,      3,     -4,      6,    -34,    -10,      1,    -41,      0,    -25,     15,     19,      9,     -9,     -8,    -21,    -25,    -16,     23,     21,      2,    -25,      9,      6,     46,     32,    -33,     22,    -22,    -20,    -17,    -32,    -49,      6,     29,    -32,     10,     19,     38,     53,     -3,     -1,     -3,    -27,    -32,      7,     -7,     20,      0,     -7,    -29,      3,      9,    -22,     28,      3,     24,     34,     53,      3,      9,     49,     47,      3,      8,     -6,     25,     45,     14,     34,     -8,    -22,      2,    -16,     39,    -27,    -26,    -47,     42,    -20,    -39,     -2,    -20,     15,     41,     13,     -8,      2,      4,     10,     20,    -22,     50,      5,     15,     -2,      5,    -10,     -6,     13,      8,    -38,      5,    -47,      7,
            14,     41,    -37,     -5,     -3,     54,     22,     -5,     -5,    -14,     61,     -7,      0,    -63,     -1,    -40,     24,     38,     33,     14,     -9,     -9,    -19,    -12,     25,      1,    -32,     16,     25,     24,    -28,     39,      6,    -20,      6,      8,    -32,    -20,    -31,      1,     10,    -12,     20,    -25,    -13,     15,    -19,     24,    -10,    -35,     -2,     36,     25,    -41,     19,    -32,     18,     -4,    -22,     25,    -13,     31,     26,     15,    -11,      9,    -28,     18,     30,     26,      6,    -23,      8,    -17,    -28,     21,    -21,     -1,    -20,     12,     26,     38,     15,     20,     27,     34,     -1,     37,     -6,     -9,     21,    -12,     -9,    -25,    -14,      9,     -9,      6,     24,    -23,    -30,     34,    -25,    -32,     15,    -10,     41,    -17,     13,      9,     -9,    -12,     22,     38,     17,     -1,      0,     10,    -14,     33,     -7,     12,     22,    -35,    -21,     16,    -20,     12,     -5,     -1,    -18,     -6,    -47,     45,    -10,      8,      2,    -51,     39,     30,     47,    -20,     43,      9,     -9,     12,     25,    -20,    -32,     -3,     -6,    -14,    -11,    -30,     -9,    -35,      8,      6,     18,     20,    -38,    -25,     35,     24,     -7,     -7,     11,      0,    -11,    -13,     -4,     -9,    -11,     -3,      7,      9,    -64,    -31,      9,     25,     23,    -50,     23,     23,    -29,     19,     -5,    -14,    -21,     54,    -20,     23,      1,    -28,     -2,    -35,     27,      4,     12,      6,     12,    -29,      4,    -24,    -15,      4,     11,     37,     -6,    -11,     24,    -14,     11,     11,    -15,     19,    -18,     25,    -14,    -18,    -22,    -18,    -17,     46,    -10,     37,    -31,      2,    -36,     15,     -2,     13,     -3,    -30,     25,    -13,     -9,    -13,      3,     -3,     -8,    -10,     23,      0,    -20,    -14,    -34,     12,    -38,     11,      8,    -28,     11,     18,    -34,    -16,     -2,     46,      0,    -13,    -13,     42,     -3,    -22,    -12,      2,     53,    -11,     40,    -28,     13,    -45,     25,     29,    -17,     15,     11,    -15,      7,     36,     18,     10,     -2,     27,    -20,     35,    -15,     -5,    -61,    -22,     12,      7,    -27,    -13,    -14,     44,     13,    -34,    -20,    -24,    -41,     -3,     -7,     22,     34,    -22,    -32,    -19,     -8,     32,      9,    -11,     -2,      8,      9,     45,     25,    -39,     60,    -13,     -3,    -12,    -13,      6,     -6,    -21,    -23,     -6,     24,      2,     21,    -22,      2,    -28,      6,     12,    -17,    -14,     25,     34,     40,    -10,    -30,     -4,    -29,     24,     12,     -3,      3,    -20,     -4,     -3,     21,     12,     19,    -18,     -1,     19,    -12,    -16,     26,    -16,     -1,    -19,     34,    -20,    -11,      4,     11,      8,    -22,    -32,    -21,     15,      7,      0,     -8,     11,      7,    -14,     -8,    -21,    -20,    -24,     38,     60,    -43,    -32,      5,     60,      8,    -24,    -36,    -16,     25,     47,     21,    -55,     47,    -10,    -23,     25,    -10,     14,    -13,     16,    -14,    -22,    -32,     -3,     -4,     19,    -20,     -3,     24,      1,     -7,     10,    -27,     17,      4,    -20,     -8,     20,      8,      6,      0,      6,    -39,     17,     -2,      6,     39,     -9,     17,    -26,      9,     29,     -2,    -73,     14,    -24,     -3,     60,     36,    -16,     33,    -66,    -12,     10,     28,    -16,    -15,     21,      0,     -3,    -17,      6,     -9,    -28,     28,    -13,    -12,     -1,    -33,     34,     -7,     36,     24,    -20,     -1,     16,    -26,     -4,     37,     30,    -16,     32,      3,      9,     24,      2,     23,     18,    -24,     26,    -21,     13,    -19,     -3,      7,    -10,    -14,    -11,     32,      4,     15,     35,     28,     13,    -36,     34,     17,     22,     11,    -33,     14,     29,      9,     14,     16,    -22,
           -54,    -25,      6,    -20,     14,     44,     17,     11,     33,    -43,    -37,    -28,      0,     14,     25,    -38,      0,    -49,     25,      9,      4,     -1,    -11,      9,     17,      3,    -43,    -27,    -28,     12,    -10,     11,    -25,     25,    -12,    -26,     17,      5,     12,     18,     -1,    -28,     23,      9,      3,     26,    -11,     27,    -20,     34,     14,    -64,    -41,     37,     -3,    -63,    -57,    -27,      0,     37,     39,    -33,     85,    -18,     -8,     38,      4,     14,     15,    -15,     26,      0,    -13,     27,     13,     27,     -7,     24,     17,    -38,     11,      7,     22,     47,     -9,     14,     12,     45,    -19,     31,     13,     17,    -13,     13,    -32,     35,     25,     46,      0,      9,    -15,     -2,     26,      6,    -41,    -19,     35,     18,     -4,     18,    -38,     36,    -11,    -24,      4,     22,    -13,     30,     10,     45,     35,    -23,     20,     13,    -36,     -5,    -32,     -6,      7,     43,    -52,    -12,     23,     19,     -3,     47,     18,     11,     48,    -20,    -13,    -27,    -23,    -21,    -13,     40,    -14,     -6,     24,     31,     26,    -18,     17,    -12,     10,     -5,    -12,    -17,     -5,    -12,    -40,     29,     14,    -15,      2,     30,    -30,    -22,    -32,    -12,    -16,      3,     -7,      7,    -11,    -27,    -33,      6,     29,    -12,     25,    -22,     14,      9,      3,      4,    -39,    -26,     21,      7,      6,    -19,     30,    -29,    -17,    -10,    -12,     -9,      3,     -1,    -23,     18,      5,     39,    -16,     27,      7,    -15,     -5,     40,    -18,      3,     15,      7,     -5,     16,    -13,     33,     39,     -8,      1,    -25,    -14,    -10,     17,    -21,      2,     -4,      4,     27,     20,    -25,    -20,    -18,    -17,     -5,     15,    -14,      4,      8,    -18,      6,    -22,     11,      3,     15,     10,     15,     18,    -31,    -10,      5,     21,    -32,    -33,     -5,    -12,     13,     -8,      2,    -28,     24,      5,     16,    -32,    -26,     36,     -2,    -19,     -7,     24,    -11,     30,      7,    -20,      7,    -19,     23,      5,     -5,     -8,     -5,     13,    -22,    -32,      9,     26,     30,    -32,     16,      5,     27,    -29,      4,     10,     22,     34,     12,      7,    -34,     12,     17,     17,    -41,    -23,     -4,     37,     -8,    -22,    -29,      7,    -40,    -36,    -30,    -55,     40,      3,     10,      2,     42,      2,    -34,      3,    -24,      1,    -13,    -29,      8,     10,    -29,    -15,     -9,    -16,    -28,    -27,     29,    -15,      9,     -1,    -10,     33,     -4,     26,    -10,     35,    -10,    -13,     23,     27,      4,      4,     12,     11,     32,     -1,      2,    -12,     44,     -6,    -35,     26,     29,    -19,    -23,     22,     -8,     33,    -20,      1,     -7,    -33,    -13,    -20,    -14,    -20,     35,     23,     13,     33,     18,     25,     11,    -25,    -26,     10,     -9,     -8,    -17,    -23,     44,    -33,     13,     10,    -46,     22,     -7,     42,    -33,     -9,    -21,      7,     39,     -8,     26,     -6,    -18,    -33,    -25,    -27,     -4,     -3,    -25,    -10,     29,      1,     33,     -6,     28,    -29,     34,    -15,     17,     12,     -8,    -19,     -3,     19,    -28,     -3,    -26,    -24,     30,    -28,    -35,     -7,     15,     13,     30,    -23,    -35,     18,    -15,     -2,      1,     -7,    -22,     46,    -16,     28,    -17,     -3,      9,      5,     25,      5,     28,     25,      0,    -17,    -30,    -18,     31,     11,     27,     -3,    -14,      6,      4,     30,    -14,     18,    -14,     -2,     38,     41,      7,    -30,    -21,      0,     -4,    -22,      3,    -20,      3,    -41,      2,      3,     -2,      2,    -43,    -19,     -2,     26,     23,     13,     -1,      5,     25,      1,     -6,    -37,     15,     14,     27,      9,     -3,      4,    -25,     18,    -14,      2,     28,
           -10,     -4,      8,      8,    -13,     -8,      2,     17,    -19,      4,     -2,     -9,      5,    -10,     41,    -47,      0,     -2,      9,    -15,     -6,    -31,      5,    -33,     -2,    -23,      4,     11,     -7,     15,     31,     -9,    -62,    -16,      9,     37,    -20,     -2,     12,     18,    -20,      4,     11,      9,    -10,     11,    -14,    -27,     -4,    -15,     -1,    -24,     -3,     23,     -8,    -11,     -3,    -12,     -4,     -2,     36,     13,     25,    -18,      3,     24,    -13,     18,     12,      4,     16,     20,     36,    -29,     18,     15,      3,      1,      5,     11,     14,     16,     -5,     -8,     17,    -40,     13,    -14,     16,     22,     19,      4,     -1,     -9,     -2,     13,     12,     25,     17,     23,      4,     13,     -6,      1,     21,      8,     26,     23,     -4,    -17,    -27,     27,     -5,     34,    -15,     -5,    -35,     -2,    -23,     -2,    -16,    -17,     16,     29,     28,     -2,    -13,     13,     41,     12,     -4,    -31,    -21,     22,    -20,    -18,     -2,     28,    -15,    -22,     -2,    -22,     -5,     14,    -23,     11,    -24,     22,    -21,     16,    -12,    -24,     24,    -28,     38,    -25,     17,    -10,     27,      7,    -26,     36,    -21,    -14,     16,    -27,     -4,    -10,    -12,    -16,     16,    -41,    -39,    -19,    -47,      7,    -44,    -15,     17,     40,     41,     -1,     11,      4,     -2,     23,    -36,    -50,    -14,    -34,     38,    -55,    -17,    -19,    -16,     -5,    -15,     29,     13,     27,    -23,      6,     20,    -28,    -16,      9,     15,     19,      3,     -7,     28,     45,     27,    -27,     19,      0,    -13,     51,      9,      2,     15,     11,     -6,     29,    -13,     11,      7,     26,    -22,      0,      7,    -15,     -9,     30,    -13,     30,     17,     32,     21,     17,     -4,      8,     11,     -5,    -29,    -15,    -30,    -21,    -21,      9,     -8,     25,     24,    -28,     32,     25,    -49,     24,      3,     32,    -19,      3,     -5,     10,     -2,     30,     16,    -23,    -18,     -4,      9,      5,     10,     -6,     20,     29,     35,    -11,      1,     30,     32,     -4,     -6,     12,     16,     14,    -20,      8,    -19,     17,     12,     36,     33,    -36,      5,     17,     -9,     10,     18,    -24,     -5,    -21,    -36,     17,    -69,     -5,     30,    -59,    -33,     31,    -17,    -24,    -17,     -6,     22,     15,     52,    -35,     15,    -30,    -25,      2,      5,     18,    -14,      0,    -19,     28,     13,    -18,     16,    -31,    -10,     39,     -3,      8,     36,     26,     11,    -22,      6,     -2,     14,     18,     17,      8,    -13,     52,     16,     -5,     23,     10,     -8,     14,     41,      1,      0,    -38,      3,     -9,    -30,     23,     10,    -11,     26,     47,     15,      2,      6,     15,      2,    -24,     25,    -19,    -16,      9,     25,    -25,     17,     18,     11,    -18,     -4,      6,    -29,     12,    -14,     20,    -20,     10,     22,      9,    -40,     10,     -6,     -5,     10,    -14,      9,     22,    -30,     -4,     20,     24,     35,    -12,    -35,     43,     16,     -2,     38,     -3,     22,      1,    -11,     -7,     -7,     15,    -18,    -23,     20,      3,     -3,    -34,    -26,     31,     39,     10,    -16,     21,    -26,    -12,    -41,     -7,    -27,    -28,     14,    -33,      0,    -20,    -30,      0,    -17,      5,    -11,    -22,     -3,     22,      8,     20,    -29,    -26,      5,     -7,      9,     -1,    -17,     19,    -21,     13,     -5,    -26,     29,      1,     -6,     12,     -6,     32,     40,    -15,    -14,    -17,     14,     16,    -19,     24,    -17,      8,     -8,     26,      9,     21,     21,     -6,      7,     35,    -32,    -19,      6,    -18,     22,     23,     19,     14,    -16,     19,    -10,     29,    -34,     35,     25,     10,     -7,     19,     24,      3,      9,    -42,    -19,    -13,    -29,     33,
           -15,     -5,    -11,     13,      6,    -25,      1,     -9,    -12,    -15,     29,    -24,     30,      6,     -3,      5,    -20,     30,     35,    -29,     26,    -29,      0,     26,     18,     14,     22,    -28,     20,    -15,     22,     -9,    -25,    -35,    -17,    -12,     13,      8,     23,     10,    -14,     -9,     -8,    -31,    -30,     40,    -18,    -15,    -76,     27,     35,    -11,    -41,     -5,    -23,     15,    -35,     10,     28,      4,    -37,     47,    -32,     -1,      2,     -5,     28,    -21,    -13,      7,     -7,    -12,     37,      2,      8,     31,      5,     13,     23,    -12,    -15,     -3,    -13,     16,     42,    -12,    -29,     -2,     28,     31,    -18,     -9,     12,     18,      0,     35,      2,    -10,     10,     10,     -6,     17,     24,     -2,     -4,     12,      5,     12,     14,     12,    -19,     20,     26,     24,     16,    -28,    -10,      2,     20,     11,    -16,      0,    -19,     -3,    -20,     20,    -41,     27,     11,     -3,    -28,     -1,    -17,      6,      1,    -13,    -14,    -20,     -1,     -9,     -4,     12,     12,      3,     17,    -18,     35,     -2,     19,    -19,    -19,     29,     -3,    -20,     19,     -1,    -11,    -15,    -28,     -4,    -31,     18,     20,     -7,      2,      0,     10,     14,      9,     21,    -10,    -33,    -12,      3,    -20,     -8,    -10,    -73,     40,    -38,    -29,    -33,    -30,    -23,     28,    -32,    -46,     22,      1,     40,     52,    -28,    -16,     26,    -24,    -17,    -11,     -3,      6,     13,    -24,    -10,     10,      5,     32,    -22,      9,    -12,     26,    -14,     24,     -6,     25,    -14,    -19,     19,    -26,     51,    -17,     -7,    -35,    -14,      2,      5,     28,    -17,      4,      8,    -18,     -2,      4,     -2,    -24,     16,      0,      2,     13,     -6,    -27,     26,     30,     37,     27,    -15,    -21,      1,    -13,     -1,     29,     14,     12,     -8,     13,    -23,    -17,      5,     15,     53,      6,     15,     -9,     30,      2,    -33,    -23,    -23,     22,     33,    -13,      9,     13,     20,     -7,     36,     10,    -16,    -25,     24,      1,    -18,     24,    -10,     -3,     28,      6,     33,    -12,    -14,    -22,    -30,    -15,    -30,    -16,     -4,     29,     10,     20,      2,      0,    -16,      2,     -8,      7,    -35,     12,    -40,     48,      5,    -36,    -68,     24,    -14,      4,     -4,    -32,     34,     30,     21,      1,    -19,     -7,      6,      9,    -12,     -5,    -15,      6,    -34,    -12,     -5,     -9,     20,     -8,    -27,     -3,     33,      7,     19,    -19,     -5,     26,      2,    -15,     39,    -26,     49,      1,     -7,      8,     -1,     -4,     29,     40,     12,     15,    -33,     -2,      0,     10,      8,      4,     20,      6,     15,     -7,     15,      2,    -16,     19,    -24,     38,    -18,    -45,    -18,     14,     12,      3,     14,    -22,     14,      7,     31,     13,     -4,      4,     -7,     12,    -22,     13,      9,     14,     -9,     17,     31,    -32,     21,    -28,     37,     25,    -22,      4,     29,     13,     29,     25,    -11,     -6,    -15,     -9,     21,     -5,     28,     15,     31,     20,      9,     -7,     -8,     24,      4,    -19,     20,    -22,    -29,    -31,     16,     22,    -27,    -18,     -7,      0,    -21,      8,     22,     13,      3,      8,     59,    -30,    -16,      0,    -16,    -17,    -16,     36,    -21,     -6,    -31,    -26,     25,     27,     17,     21,     -2,    -11,     12,    -10,    -20,     27,      9,     18,    -12,    -14,      0,      7,     22,    -21,    -17,      1,    -30,     -5,     35,    -30,     24,     41,     21,      8,    -13,    -14,     43,    -14,     27,      9,      4,    -29,      5,    -24,     16,     33,     -4,     32,     -1,      5,    -26,     -1,     11,     35,     21,    -20,      2,    -13,    -21,     10,    -19,    -20,    -12,     -9,     16,     -6,     10,    -10,     27,
           -14,    -11,    -30,     24,    -12,     34,     -8,    -25,    -23,     42,     26,     22,     24,    -11,     -6,     -3,     10,    -11,     15,    -21,     30,      9,     25,    -23,     27,      5,      8,     -1,      8,    -12,     42,     -7,      5,    -17,    -10,     21,     40,    -56,     20,    -14,     29,     33,    -15,     -8,     15,      4,      3,     -7,    -43,    -28,     -2,    -24,     -3,     18,     -1,    -33,     -1,     53,    -37,      0,     28,     19,     -1,      6,     -7,     -7,     28,      5,    -14,     -2,     13,    -26,    -31,    -17,      2,      8,     -7,      6,    -25,     -8,    -13,    -19,     38,     29,     16,    -19,    -21,      5,      6,     53,     12,     11,     -5,      4,     24,     -7,     13,    -19,     -5,     19,     10,     -1,     19,      2,     32,    -23,    -14,      0,    -19,     17,     21,    -23,      8,     11,    -19,     -9,    -21,    -33,    -16,    -15,    -28,    -20,      0,     20,    -14,      1,    -27,     30,     -8,    -31,     10,      1,      1,    -41,     -3,    -35,    -30,      1,    -20,     48,     31,     53,     39,     17,     24,      7,    -10,      2,     20,      2,     -4,    -46,     16,     18,    -33,     40,      6,    -15,      7,      6,    -22,    -11,      6,    -35,     -3,     29,     16,    -19,     26,     25,     29,    -10,     34,    -17,     -8,    -20,     -8,    -34,     61,    -66,      2,    -67,    -23,    -56,     26,     61,     -4,     28,     48,     44,     14,    -17,     18,     -1,      3,     -7,     16,     12,      4,      3,     23,      8,    -26,     -4,    -15,      7,     -2,     21,    -12,     12,     14,     -9,     22,     -3,      7,     -9,    -16,     30,     -9,      8,      1,     40,      0,     33,     16,     20,     15,    -19,     12,     19,     -4,      1,     23,      6,    -23,     40,     24,     -3,     10,      5,     -5,     23,     21,     -8,     15,    -14,     -9,      8,     -9,     29,     12,     -2,    -24,     15,    -43,     24,      4,     -8,     10,    -39,    -23,     44,    -29,    -16,    -19,    -13,     -6,     -9,     16,      2,     33,      2,     25,     31,     29,    -22,     21,    -30,    -30,    -19,     37,     17,     15,     37,     -4,    -24,     18,      7,    -48,     -9,    -14,     -2,     -3,    -26,      9,     19,    -17,      0,      0,      4,    -25,      2,     18,     -6,    -77,    -12,     47,    -57,    -13,     13,     -7,    -24,     -3,      7,      0,     38,      5,      7,     37,    -23,     21,      3,      4,    -12,    -18,     18,    -24,     23,     23,     -1,      7,     17,      2,     10,     32,    -44,     36,     39,     13,    -10,     22,      7,     21,     15,    -12,      8,      1,      6,     -3,     11,      6,      1,     37,    -15,     10,    -23,    -40,     40,    -20,    -25,     35,     -7,     25,     22,     40,    -19,     -9,    -20,      1,     -2,      4,     21,     -8,     -9,     -9,     41,     10,    -10,      2,     24,    -29,    -13,    -37,     14,    -10,      2,     36,    -48,    -19,     25,     28,    -20,    -28,    -48,     28,     34,      4,     25,      8,    -17,    -13,     18,     18,      8,    -19,    -24,     14,    -42,     -8,    -32,      8,     10,      4,      9,     22,    -22,    -43,     31,    -19,    -37,    -52,     40,    -20,     16,    -26,    -30,    -15,     23,     -8,     14,    -25,      0,    -30,    -41,      6,    -13,      5,     12,    -32,    -10,    -31,     -9,    -30,     44,     -7,     20,     13,    -38,    -22,     25,     19,     24,     27,     12,    -14,     -1,     -3,     11,     -3,     16,      0,    -21,      1,    -30,      7,    -17,     23,    -18,     35,      5,     -7,     25,    -17,     -2,    -10,     21,    -39,     18,    -33,     18,     26,     -3,     -6,     14,    -20,     32,      6,      3,    -14,     19,    -21,     -9,    -19,     -7,     -9,      9,    -13,    -17,    -17,     22,    -31,      6,    -26,     22,    -11,    -28,    -28,    -22,     11,    -18,    -25,     -1,
            39,     41,     -6,     17,    -38,     12,    -33,     -8,    -22,     19,    -16,     16,      8,     21,     36,    -16,    -14,     13,     31,    -30,    -32,    -23,     -5,      8,     29,     31,     29,     22,    -16,     11,      1,     23,     -3,    -38,      5,    -41,     21,     -4,    -26,     -4,     29,     17,    -19,     33,    -11,     20,     -2,    -20,    -16,    -25,      4,      3,     34,    -74,    -24,     -1,    -25,     36,     13,     21,     -6,     19,      9,     20,      3,     25,    -24,      6,     30,    -21,    -15,     14,    -28,     -3,    -28,    -23,     21,     20,     11,     -5,     17,     -5,    -31,     -3,    -16,    -34,     21,     39,      1,     35,     32,    -25,     -4,     39,    -18,    -10,     32,    -10,     23,     -7,    -32,     -4,    -20,     13,     -6,    -10,    -28,     31,     18,     24,     22,    -20,     31,      8,     -4,     27,     -8,     -8,    -25,     28,     -9,      5,      5,    -19,    -22,      5,    -11,    -28,      1,     33,      5,     -8,      3,    -14,    -18,     -8,    -25,    -21,     27,      0,     -7,     15,     13,     31,      0,     35,    -12,     -1,    -13,    -18,    -35,    -23,     16,     32,     32,     14,    -24,    -24,     32,    -12,    -10,      5,     14,      9,    -27,    -20,      6,     -2,    -22,     31,      0,     -8,     26,    -36,     15,    -23,      3,     40,    -39,    -11,      5,     28,     20,    -28,     18,     16,     30,     33,     20,    -19,     25,    -65,     31,     -3,    -20,    -10,    -20,      0,    -10,    -28,     -7,    -20,     28,    -24,    -12,     26,     -3,      9,    -23,     37,      5,     -5,     37,     -8,    -31,     10,    -11,     38,      2,     29,      3,    -22,    -16,     30,     37,     10,    -16,     14,    -12,    -18,     21,    -24,    -19,    -21,     31,     29,     22,      1,     -2,     -5,     18,      1,    -21,     -1,    -31,      9,     24,      0,     -9,     23,     15,    -15,    -16,     -4,    -13,    -15,    -30,      3,     16,      9,    -16,      6,    -10,      2,    -15,    -10,      0,     31,    -20,     23,      9,    -28,     20,     -3,    -11,    -12,    -32,     -7,     -6,     30,      3,     11,     15,    -10,     15,      6,     31,     -8,     11,     12,     33,     25,     -9,    -10,     21,     47,     36,     57,      7,     60,     -6,      6,     23,    -29,      7,      2,    -24,    -29,    -27,    -35,     -3,    -18,    -32,    -46,    -30,    -10,    -15,     18,     26,    -33,     -4,    -20,    -10,     19,    -20,     -6,     -7,     12,      4,     21,     21,     -7,     11,    -33,      5,      4,     21,    -18,     17,      7,     29,    -18,    -22,    -10,      2,     17,      4,     47,    -25,     -4,     38,     24,     12,     24,     -7,     34,    -28,    -12,     -1,      6,    -23,     45,    -29,     -3,     27,    -34,     13,    -24,     22,      5,     -5,     16,     38,    -17,     42,     27,     -3,      0,    -10,     18,      4,     25,     -2,    -17,     41,      2,     -5,     36,     34,     10,    -12,     -6,     17,    -11,    -32,     21,    -13,      2,      0,      6,     15,     23,    -18,     19,     27,    -36,    -25,     21,     24,      3,    -17,      6,     29,     10,     18,     -5,     22,     17,     13,     -6,     -6,    -13,     30,      3,     14,      7,      5,     30,      8,    -19,     24,     26,     -6,    -10,    -41,    -35,     -3,     -9,    -43,    -27,     22,     32,      9,     12,     -2,      7,     39,     12,     -5,     20,    -19,    -10,     -8,     20,     -5,     28,    -12,    -19,     -2,    -10,    -31,    -23,     16,     15,      6,     23,     32,     -4,    -13,      2,     34,      2,    -25,    -24,      3,     -9,    -11,     24,      5,     26,     12,    -13,     29,     44,     39,     21,      5,     25,     13,     14,      4,    -13,    -16,     -1,      8,    -30,     -1,    -21,    -19,     25,     24,    -32,     24,    -25,    -10,     33,    -32,     35,    -30,     -4,     -1,      8,
            -4,     20,     36,     15,     11,    -26,      3,     -1,    -16,     52,     22,      4,    -21,    -33,      8,    -23,    -15,      7,      9,      7,    -23,     -7,     25,    -26,     16,     17,      1,     10,    -18,    -34,    -16,    -22,     -4,    -13,      3,      1,    -18,    -32,     23,    -15,     10,     16,    -36,     30,     -9,     18,     41,     23,    -46,    -17,    -49,    -33,      0,      4,    -49,     -8,    -33,    -22,     19,    -50,    -25,     -4,      3,    -20,     -2,     16,     12,     25,    -22,     -6,    -23,     24,    -21,    -13,     18,     13,     18,     17,    -23,      7,     14,     13,    -11,     22,    -12,      6,     13,     35,    -20,    -14,    -26,     29,      4,    -24,     37,      9,      8,     13,      0,      6,     11,     -1,     17,     17,    -14,     50,     19,     -3,     -6,    -18,    -32,     12,     33,    -18,     17,     37,      3,     -9,     34,      8,     26,    -13,    -29,      9,     19,      7,     14,     26,     15,      2,     29,      8,     25,     17,     -5,     23,     40,     36,     21,     29,    -24,     -4,    -11,      1,    -23,     -4,    -21,     13,      7,    -34,      7,     32,     28,      4,     -2,     24,    -21,    -24,    -20,    -20,    -14,    -14,     35,    -40,     37,      9,     -9,     28,     37,     -9,     -5,     17,    -14,    -32,    -10,     20,    -15,    -27,    -27,    -45,      6,    -35,      6,    -39,     26,     24,     -8,    -14,      6,      9,     12,     -7,     21,    -12,    -20,      0,     15,      9,      9,     21,    -18,     27,    -32,     11,     13,    -30,    -28,    -20,      1,      9,     16,     16,     -8,     11,     25,      1,     -3,     -4,     -7,     25,     14,      9,     -2,    -27,     10,    -26,      3,      0,     18,    -30,     27,     33,     15,     16,    -25,     14,    -31,     -4,     20,    -23,     -8,    -21,    -10,      0,      8,     17,    -12,    -15,     40,     38,    -16,    -12,    -14,      1,     -9,     13,     11,     11,      4,     20,     25,    -18,     27,     21,    -11,     27,      0,     29,    -16,    -34,     -3,    -27,     20,     -9,     12,     21,     -7,    -23,     23,     27,      3,      9,      2,     20,     -8,     10,     32,     24,     15,      8,     24,      8,    -12,     25,     21,     13,     29,    -14,    -18,      3,    -10,    -16,     14,    -29,     23,     -9,     10,    -16,    -26,      0,    -35,    -24,     56,     34,      1,    -21,      9,     -1,      5,     12,     32,     28,      4,    -23,     26,    -12,     23,     13,      2,      0,     -6,     29,    -24,      3,    -29,      8,    -24,    -14,     20,    -10,    -13,     27,    -22,     11,    -15,     -5,    -12,     -8,     16,     22,     12,    -14,     12,     18,     17,     11,     -1,     27,      3,     34,      6,    -13,     20,     -4,    -19,    -20,     -5,    -23,     16,      1,     -6,     34,     38,      0,    -13,     28,      7,      6,     25,      9,     -5,    -30,      5,     28,     18,    -10,     15,     19,     21,      4,    -14,     29,     33,     45,     23,     11,     24,     -9,      8,     18,     19,    -19,     35,     16,    -14,     27,      2,     36,     20,     12,    -35,    -11,     -1,     -6,      3,     26,      4,     20,     34,     -3,     14,     -4,    -27,     13,     -9,     26,    -29,     -8,    -14,     26,     -8,      7,     -7,     20,     68,     13,      5,     27,      1,     88,     71,     58,     23,     12,    -24,     27,     -6,     -4,    -28,     -3,     -8,     -3,      8,     -4,     29,     -7,     -4,     10,     -2,     26,     19,      1,     18,      2,     -6,    -32,     13,     19,     35,     -4,     18,      5,     13,     -4,     -3,    -23,    -18,     -7,     17,    -11,      5,    -28,     35,     28,     10,     11,     27,     28,      1,     -9,      5,     -2,    -15,     17,     -9,     29,     23,     19,     33,    -21,      8,      7,     10,     -1,    -26,     34,      4,      2,      3,     27,      2,     13,
            32,    -11,    -21,    -12,     -2,    -36,     -2,      7,    -37,    -23,     19,     27,    -20,     10,    -30,     -7,     18,      9,    -21,      6,    -38,      5,     -5,    -11,    -23,     -3,     13,    -25,    -26,     22,    -18,    -12,     33,    -27,     -3,     11,     18,     34,     27,     40,     -6,     14,      9,     22,    -20,      7,      9,     -4,     13,    -21,      1,     39,     -8,      4,     67,     -3,    -47,    -47,    -31,     24,      3,      5,     35,     -7,     -6,     11,     19,    -31,     -1,    -10,     -1,     24,      3,    -22,      2,    -25,     23,     -9,    -23,    -18,    -19,    -20,     -5,     23,     -6,      4,    -33,     28,      3,     22,    -34,    -13,     31,     15,    -20,    -31,    -27,     14,      3,      0,     24,    -27,     -7,     24,      7,      6,      9,     21,     29,     21,    -26,      7,     12,     -8,     18,    -11,    -22,     33,     35,    -10,      4,    -33,     -3,     -6,    -14,    -20,     30,     -4,     -9,     21,     41,     -7,    -16,     21,    -31,     23,    -14,     22,      9,     37,    -19,     -2,    -15,    -31,     16,     -3,     19,    -12,     -6,    -24,     -2,    -12,     22,    -13,    -34,    -21,     -2,    -23,    -21,    -17,    -13,    -19,     10,     10,     -6,    -25,    -34,    -34,     -8,    -22,    -10,    -21,      0,    -32,     41,     23,      6,     -7,     12,     33,    -15,    -47,     26,    -33,     27,     66,     13,     34,     11,      3,    -18,     27,     25,      3,     -7,      2,     31,     -1,    -11,      0,     12,    -19,      2,      2,     14,    -15,    -20,     -8,    -12,    -32,     34,    -12,    -12,     16,     -6,      2,     -8,     22,    -14,     27,     -1,      0,    -23,    -29,     -5,     13,     37,    -21,      5,    -19,     -4,     22,     34,     -4,    -10,     36,      5,    -23,     17,    -12,    -15,     10,    -36,    -23,     15,     17,    -18,     -6,    -37,    -18,      5,    -23,    -28,    -11,     45,    -32,      7,     22,      6,    -29,    -19,     -7,    -21,     -7,      0,     -5,      1,      9,      8,     -3,     14,     25,    -24,     25,     20,     12,     26,     17,     23,      7,     15,      5,      7,      8,    -16,    -19,     -4,    -11,     22,      6,     28,      8,      9,     18,     27,     24,     -6,     14,    -31,     17,     -4,      4,      8,    -17,    -29,     18,    -29,     -9,     22,    -37,    -12,    -41,     -5,    -33,    -18,    -28,     22,    -26,      0,      0,    -27,     12,     29,     13,      4,     -7,     16,     -3,     11,     15,     19,      0,    -12,    -32,     -7,      5,     24,     29,     -1,    -30,     -7,    -12,     22,     18,     19,    -10,     19,     31,      9,     -4,      4,     -5,     16,    -28,     12,     28,    -15,     24,     14,    -13,     28,     40,    -27,      1,     21,     11,     -4,     24,     27,     13,    -10,      8,    -22,     -8,     -8,     18,    -25,      1,     23,      1,     -1,    -26,      2,     -8,     -4,    -26,    -11,    -25,     20,     -7,     -7,      4,      3,     -9,      4,      5,     12,    -35,     15,      3,     17,      6,    -29,     27,     -1,     10,     11,    -17,     17,    -17,    -12,     -8,     27,    -30,      1,      9,    -30,    -30,     13,      1,    -32,    -20,    -45,      9,     28,    -26,    -37,    -14,     21,     14,    -21,    -14,    -18,     13,     -7,      1,    -12,    -26,     -8,     13,    -31,     19,    -23,    -24,     17,     -4,     35,     -9,     24,     29,     13,    -25,      0,     22,     14,    -12,    -11,     15,      3,      7,      7,    -16,    -27,    -22,    -37,    -12,      0,    -14,    -14,     33,     -3,     18,     33,      1,     -9,     -7,    -16,    -17,    -17,     -1,    -25,     -1,     13,     -4,    -18,     28,     29,     26,    -14,    -12,    -35,    -12,     13,     16,     14,     25,     32,    -32,     26,     28,      2,     25,     25,     13,     28,     38,     -2,     10,    -30,    -10,     13,     28,
             9,     13,    -29,      1,     14,    -17,     24,      4,    -22,     34,     13,     -8,      6,     11,    -13,    -13,     32,      7,    -24,      1,     -7,     27,     13,     -7,    -21,    -14,    -30,     -3,     -9,      1,      6,    -20,    -25,      9,    -18,    -22,    -16,      9,    -19,      6,     -9,     10,    -29,     12,    -26,     26,    -19,     20,     24,     -8,     19,      6,     24,     33,     32,    -20,     -8,     16,    -14,    -32,    -18,     16,    -28,     27,     23,    -27,     11,     16,     15,     27,     13,      5,     13,     -7,    -31,    -23,      6,     26,     -3,    -25,     18,     24,      7,    -16,     -4,     28,      1,      0,     -3,     31,      7,     -4,      5,    -29,     -1,    -28,     26,     17,     37,      0,     32,     25,      7,     11,     22,     36,    -36,     17,    -22,     -9,      3,     20,      1,    -31,     20,     24,      8,    -14,     33,    -20,     31,     38,      5,     38,    -14,    -11,     12,     -8,     15,     24,     37,    -20,     58,    -13,     18,     25,     11,     38,     11,     41,     28,    -17,     12,      0,     28,     18,     -6,     32,     24,     19,     11,     39,     26,    -14,      5,     19,      6,    -23,     10,     15,     -4,    -28,    -11,    -30,    -28,     19,    -23,     27,    -25,     -2,    -25,      4,      6,     23,      6,    -17,     13,     29,     24,     -4,     -4,     40,     35,      5,     39,     33,     15,     48,     18,     27,    -11,     18,    -11,    -12,     12,     11,     19,     25,    -19,     10,     16,    -27,      1,     25,    -23,     21,    -19,    -24,    -35,      3,    -10,     25,     -3,     -6,     29,     39,     12,      0,     -7,     11,      0,     -6,    -25,     -9,      6,    -31,     30,     36,     32,      5,     -9,     32,     34,     23,    -23,      4,      4,     21,     -6,     22,     33,      7,    -12,    -17,     17,    -13,     22,      4,     -1,      5,    -25,      0,    -23,     18,     16,     17,     37,      5,    -28,     23,     -2,    -12,     23,      3,     -1,    -10,    -17,      4,     11,    -16,    -11,     25,     10,      7,    -22,    -22,     -6,      1,      0,    -30,    -47,    -42,    -25,    -45,      0,     12,    -61,    -10,     17,    -10,     23,      5,     26,     32,     33,     22,     41,     25,    -15,      5,    -12,    -30,     -2,    -31,     55,     -1,      7,     48,    -26,     28,     59,     21,     -7,     42,      9,     50,     12,     11,    -40,    -21,     28,     27,    -15,    -11,    -10,     18,     10,     17,     -7,    -23,    -21,     -1,    -18,     -8,      3,    -31,    -30,     23,     49,     17,     25,     -8,     -9,     15,     49,     19,     -5,    -19,      1,    -19,      6,     11,    -12,    -18,     28,    -12,    -12,      2,      4,     20,     15,     15,    -18,     -5,    -19,    -11,     -7,      3,     15,     11,     10,    -29,    -17,    -20,     28,     19,    -13,     16,      2,    -24,     19,     25,    -32,    -27,    -32,    -31,     72,    -31,      8,     22,    -66,     13,     69,     -1,    -14,     18,     -8,    -36,    -14,    -26,      8,    -18,      3,    -21,      0,     -7,     -9,     36,    -13,      3,     -9,     -9,    -29,     23,    -11,     18,    -36,    -22,    -27,     23,    -23,     41,    -30,     20,    -24,    -41,     22,    -22,    -20,    -30,    -22,      1,     39,    -30,     27,     -7,     50,      9,     19,     14,     48,     44,     -9,     18,      8,     -8,    -79,    -20,     17,      1,     21,     17,    -18,     15,      1,     10,      1,     25,     -2,     19,    -11,     28,      2,     16,     12,     -9,    -19,    -32,     22,     24,    -28,    -13,    -21,      8,      1,     29,    -27,     -3,      3,    -32,     -6,      2,     19,     -4,    -16,     17,     11,     39,     10,     11,    -19,     18,    -31,    -33,     -8,     26,     -1,    -11,      1,     -4,     24,     44,    -19,     21,     33,     16,     22,     -4,    -24,    -17,    -27,      4,
             3,     -4,      6,      1,    -21,     12,     -3,     52,     10,     33,    -18,     18,      6,      5,    -19,     29,    -16,     25,      6,     29,     14,     28,     11,     14,     17,     -2,    -30,     -3,    -10,     -2,      2,      8,     20,     15,     -7,    -24,    -20,     -3,    -20,     39,      2,    -29,     15,     20,      0,     18,    -33,     -2,    -16,     10,      1,     49,     37,     29,     64,      5,     19,    -10,     -8,     -4,    -15,      1,    -63,    -23,    -17,     12,      7,     14,    -25,    -22,      7,     10,     13,      4,     12,     31,     15,     17,      0,    -12,      1,     15,     18,     -7,      4,     19,    -19,     25,     25,     17,     14,     21,     21,    -16,    -15,     23,     27,    -21,    -15,     -1,      9,     31,    -25,     -1,      6,     -5,    -32,     23,     12,     -7,     -2,     23,     20,    -20,      4,     23,     25,     32,      5,    -15,    -17,     13,     -5,    -19,    -29,    -19,    -10,     -7,    -19,     -2,     13,    -15,     38,      8,     24,     18,      9,      3,    -10,     -1,     23,    -12,    -59,      4,     32,      2,    -10,     -4,     25,     26,     34,      7,    -31,      9,     26,     11,     -3,      8,    -11,    -17,      8,     28,    -17,     25,    -13,     -7,      4,     20,     17,    -39,     15,     32,    -13,    -14,    -64,     21,     22,     14,      3,     16,     25,     17,      5,    -20,     -4,     -6,      2,    -12,     -7,    -27,      0,     28,    -19,     28,     19,     22,      6,     24,     -5,     16,     31,     -4,     -8,      7,    -21,    -18,     27,     -3,    -13,      8,    -16,      5,     10,     -5,     29,    -18,      5,      3,      3,    -15,      2,    -22,      7,    -22,     11,     23,     20,     18,      7,      4,     35,     24,     31,     -2,     -4,     36,    -14,     12,      7,    -27,    -27,    -33,     29,    -33,     31,    -25,     23,    -10,     26,     13,    -23,      2,     -6,    -20,    -31,      3,      4,     23,     17,    -25,     15,     27,      9,     19,     31,      5,    -21,     -3,    -11,     15,     32,     20,     20,    -18,      6,     10,     -1,     28,    -11,    -10,     -5,     17,     13,     -9,    -30,     12,    -20,    -27,    -20,     -6,     15,     22,     13,     39,     23,     25,     -9,     20,    -29,      9,    -11,     23,    -29,     13,      3,      3,     27,     14,     10,     33,      8,    -18,     35,     20,    -29,    -30,     22,     -1,    -26,      4,     20,     -7,    -25,     -9,      6,     16,     27,     15,      7,      0,      8,     18,     -1,    -31,     24,    -13,    -37,      5,      2,     -2,     36,     12,      2,     25,     -4,    -30,      4,     28,      9,    -15,     29,    -29,      2,    -24,     13,     31,     -9,     16,     34,    -12,     13,     15,     20,    -24,     15,     18,      5,    -33,     10,    -23,      3,      4,     43,    -26,    -16,    -10,    -22,     44,    -14,     33,     22,     10,     15,    -25,      2,     11,     33,     21,      6,     38,     21,     67,     20,     21,    -24,     42,     21,    -30,    -60,    -24,    -28,    -22,      5,     28,      0,      0,     -2,     -1,     19,     30,     10,     19,    -29,      9,     -8,     -7,     -9,     -9,     31,    -24,    -26,     41,     -3,    -20,    -24,     -5,     -7,     -5,    -26,     15,    -11,    -15,     51,     -7,     65,     73,     -2,     26,     46,     60,     13,     10,    -31,     50,    -27,    -19,    -75,     28,     29,      9,    -21,      8,    -22,    -15,    -11,     -2,    -14,     26,     30,      7,     11,    -23,    -26,    -26,     11,    -27,      7,    -10,    -20,    -16,    -17,     16,     -1,      7,     20,    -31,    -14,     26,    -13,    -27,     25,    -29,    -18,      5,    -23,      4,     10,     12,     31,      4,    -30,     29,     -6,     22,      1,    -31,      0,     24,     26,    -12,    -19,      1,     26,     38,     14,      0,     22,     29,     16,     -8,      2,     28,
            48,     20,     -8,     22,    -49,    -14,    -25,    -38,    -30,    -27,     -5,     16,     19,     12,    -58,     25,     14,    -31,    -41,      3,    -40,    -30,     -3,    -57,      0,    -23,      3,    -39,    -16,    -29,    -27,     -1,    -18,    -25,     33,      7,    -26,     46,     -6,     24,    -24,     32,    -13,    -12,     -3,      5,    -38,      1,     26,    -22,     38,     52,    -20,      6,     33,     30,     12,      8,     12,     37,     -1,     -3,    -36,     10,     -1,    -20,      2,    -28,     22,     -6,    -31,    -13,     33,    -17,     11,     11,     -7,     13,    -21,    -11,     -8,     23,      8,     27,     27,      6,    -28,     19,     26,      4,      3,    -20,    -11,      8,     33,    -21,    -37,    -26,    -16,     36,    -12,     11,     36,     37,    -33,    -26,    -19,    -19,      9,     25,     -8,    -23,      6,    -20,    -19,    -10,    -35,     32,    -16,    -39,    -48,    -16,     -8,    -38,    -16,     20,    -10,     -5,    -16,      0,     68,    -87,     49,     27,    -61,     30,     79,    -41,     -4,     -6,     -9,      0,    -59,    -24,    -22,     -6,    -11,      1,     20,     28,      6,    -14,      0,    -36,    -24,     -3,    -11,      2,    -10,     27,    -37,     15,     -2,      8,    -25,     34,    -24,     13,     15,    -20,    -16,    -14,    -16,    -34,     -6,    -25,      3,     30,     23,     -8,     15,    -45,     15,    -23,     23,     30,     11,     34,    -26,     -1,    -13,     16,    -20,     30,    -12,     22,    -13,    -22,    -15,     24,     27,      1,     18,    -13,    -25,     22,    -30,     11,      4,    -31,      6,    -24,     42,     14,     -2,      2,    -12,     31,     25,    -18,      0,     -6,     33,     21,    -24,     24,     25,     39,     -1,     34,     -3,     46,     20,     12,    -32,      9,     -8,      3,    -16,    -27,    -45,     19,    -27,     10,     27,     48,      8,      3,      3,      9,     -4,    -32,    -27,    -20,    -43,     29,     -5,    -23,     16,    -54,     13,      3,    -40,     21,      5,      8,    -29,     32,     13,     15,    -15,    -16,     23,     27,      1,     26,     20,     27,      9,     12,      8,     10,      8,    -25,    -20,     -3,     10,      0,     -3,      6,    -30,      1,    -26,     -5,    -30,     12,    -36,    -31,    -23,     -5,     11,     17,    -51,     -3,      0,      6,      1,     43,     32,    -28,     57,     19,     30,      1,      6,     17,    -19,    -16,    -23,     -9,     27,     20,      1,    -29,     -8,     14,     -6,    -23,      9,      1,     12,    -12,    -21,     21,     28,      2,     13,      5,     13,     -2,     42,     27,      8,     28,    -14,    -24,     11,    -13,    -15,     -9,      9,      5,    -19,     14,     -4,     -9,    -15,     40,    -27,    -13,    -17,     -3,     18,    -13,     18,     25,      6,    -12,    -10,     21,     33,    -31,     -2,     47,     20,     28,      5,      6,    -23,      6,     11,    -14,    -19,    -12,      8,     -6,     27,     -7,     23,     29,      4,     13,     39,    -28,      6,      8,    -20,     -9,    -77,     -4,    -23,    -33,    -21,     -3,     18,     15,     20,    -24,     -9,     -1,      0,    -10,    -14,    -29,    -54,      5,    -29,     -4,    -33,      6,    -15,      7,     26,    -10,      3,    -28,    -14,    -37,      5,     25,    -24,     21,     32,    -18,     -5,     31,    -32,     -7,     27,    -23,    -44,    -14,    -29,    -41,    -27,    -23,    -25,     25,     -2,      5,    -20,     -8,     -3,     -6,     25,      9,      0,      8,     -6,     16,    -21,     -7,    -26,    -26,    -34,    -17,      3,      8,     22,    -19,    -23,     -2,    -15,     -8,    -31,      6,     19,     -5,      5,     -4,     -6,    -35,    -16,     28,     42,     36,    -10,      4,    -17,     15,    -12,     20,     -1,    -31,      1,    -19,     13,     10,     29,    -19,     25,     32,     -5,     22,      6,    -13,    -25,     21,      9,    -15,    -15,     -9,
